
\data\
ngram 1=675
ngram 2=1901

\1-grams:
-3.41044	17	-0.07700522
-3.41044	18	-0.04692945
-2.933319	300	-0.02381297
-3.41044	6	-0.09264942
-3.41044	600	-0.09264942
-3.41044	96	-0.09264942
-3.41044	96TH	-0.09264942
-0.9988201	</s>
-99	<s>	-0.2543542
-3.41044	<unk>	-0.09180433
-1.535379	A	-0.1376209
-2.80838	ABOUT	-0.09146583
-3.41044	ABSOLUTELY	-0.04692945
-3.41044	ACCESSIBLE	-0.07700522
-2.71147	ACTUALLY	-0.1503177
-3.41044	ADRIAN	-0.09146583
-3.41044	AFTER	-0.09197348
-3.41044	AGAIN	-0.09078804
-2.933319	AGO	-0.08515552
-3.41044	ALCOHOL	-0.09264942
-2.50735	ALL	-0.1269333
-3.10941	ALMOST	-0.09248054
-3.41044	ALONG	-0.0799709
-2.933319	ALSO	-0.08942927
-3.41044	ALWAYS	-0.09180433
-3.10941	AM	-0.07944902
-3.10941	AMAZING	-0.04126467
-2.80838	AN	-0.1925973
-1.446652	AND	-0.03954317
-3.41044	ANIMALS	-0.09163511
-3.41044	ANOTHER	-0.09231158
-3.41044	ANTI	-0.09264942
-3.41044	ANTICIPATING	-0.09264942
-3.41044	ANTIDEPRESSANTS	-0.09044874
-3.10941	ANY	-0.09214257
-3.41044	ANYONE	-0.09231158
-3.41044	ANYTHING	-0.08908892
-3.41044	ANYWAY	-0.04692945
-3.41044	APPEAR	-0.09231158
-3.41044	APPOINTMENTS	-0.04692945
-2.41044	ARE	-0.1040088
-3.41044	AREA	-0.04692945
-3.41044	ARMY	-0.04692945
-2.71147	AROUND	-0.1429945
-3.10941	AS	-0.08515554
-2.369047	AT	-0.1142145
-3.41044	AUNT	-0.09231158
-3.10941	AWAY	-0.08840741
-2.632288	BACK	-0.234749
-3.41044	BAD	-0.09264942
-3.41044	BADLY	-0.04692945
-3.10941	BANK	-0.07683015
-2.933319	BASED	-0.2227806
-3.41044	BASEMENT	-0.08772482
-3.41044	BASICALLY	-0.090279
-3.41044	BATTLE	-0.09264942
-2.179991	BE	-0.07857533
-3.41044	BEACH	-0.04692945
-3.41044	BEAVERS	-0.04692945
-2.41044	BECAUSE	-0.3607147
-2.80838	BEEN	-0.1902241
-2.933319	BEFORE	-0.02657416
-2.71147	BEING	-0.2877324
-3.41044	BELONGS	-0.04692945
-3.10941	BETWEEN	-0.3113372
-3.41044	BEYOND	-0.08755401
-2.71147	BIG	-0.09197348
-3.41044	BIKE	-0.04692945
-3.41044	BILLY	-0.09264942
-3.41044	BIRTHDAY	-0.09248053
-3.41044	BIT	-0.08891864
-3.41044	BLAST	-0.08549898
-3.41044	BOOK	-0.090279
-3.41044	BORING	-0.09264942
-3.41044	BORN	-0.07700522
-3.41044	BOTHER	-0.04692945
-3.41044	BRASS	-0.09264942
-3.41044	BRING	-0.09214257
-2.933319	BUNCH	-0.5380171
-3.10941	BUSY	-0.08823687
-2.088221	BUT	-0.07764862
-3.41044	BUYING	-0.09231158
-3.10941	CALLED	-0.09061843
-2.50735	CAN	-0.03533236
-3.41044	CAN'T	-0.08772482
-3.41044	CANADA	-0.09214257
-3.41044	CAROLINA	-0.09146583
-2.933319	CASH	-0.07577815
-3.41044	CATCH	-0.09146583
-2.80838	CAUSE	-0.07225302
-3.41044	CENTERVILLE	-0.09264942
-3.41044	CENTRAL	-0.09078804
-3.41044	CHAUFFEUR	-0.09248053
-3.41044	CLASS	-0.04692945
-3.41044	CLASSES	-0.07700522
-3.41044	CLEANED	-0.09146583
-3.41044	CLEANING	-0.04692945
-2.933319	COLLEGE	-0.169182
-3.10941	COME	-0.08704117
-3.10941	COMING	-0.09146584
-3.41044	COMMERCIAL	-0.08549898
-3.41044	COMMITTED	-0.09264942
-3.41044	COMMUNITY	-0.09231158
-3.41044	COMPANIES	-0.08755401
-3.41044	COMPLETELY	-0.09180433
-3.41044	COMPUTER	-0.09264942
-3.41044	COMPUTERS	-0.08291645
-3.10941	CONE	-0.2782958
-3.41044	CONTRACTORS	-0.07700522
-3.41044	COOL	-0.04692945
-3.41044	COUCH	-0.09180433
-2.80838	COULD	-0.083779
-3.10941	COULDN'T	-0.09180433
-3.10941	COUPLE	-0.09163512
-3.41044	COURSE	-0.0887483
-3.41044	CRAZY	-0.04692945
-3.41044	CREDIT	-0.09264942
-3.41044	CREEK	-0.04692945
-3.41044	CRYSTAL	-0.04692945
-3.41044	CUFF	-0.08635642
-3.41044	DAD'S	-0.09231158
-3.41044	DATE	-0.08925913
-3.41044	DAUGHTER	-0.04692945
-3.10941	DAY	-0.04429508
-2.632288	DAYS	-0.09030981
-3.41044	DEAL	-0.08908892
-3.41044	DEALING	-0.09112707
-3.41044	DECIDE	-0.08959935
-3.41044	DECIDED	-0.090279
-2.933319	DEFINITELY	-0.03204444
-3.41044	DELTA	-0.09231158
-3.41044	DEPRESSANTS	-0.09112707
-2.933319	DEPRESSED	-0.04599043
-2.933319	DEPRESSION	-0.07979699
-2.80838	DETROIT	-0.1466331
-2.933319	DID	-0.07910073
-3.10941	DIDN'T	-0.09248054
-3.41044	DIED	-0.07700522
-3.41044	DIFFERENCE	-0.09248053
-3.10941	DIFFERENT	-0.09214257
-3.41044	DIRT	-0.09248053
-3.10941	DISABILITY	-0.2782958
-3.41044	DISASTER	-0.09264942
-3.41044	DISEASE	-0.09264942
-3.41044	DNA	-0.09264942
-2.565342	DO	-0.08248045
-3.41044	DOCTORS	-0.09264942
-3.41044	DOESN'T	-0.09264942
-3.41044	DOG	-0.07700522
-2.933319	DOING	-0.07612909
-3.41044	DOLLARS	-0.08463984
-2.264312	DON'T	-0.3147814
-3.41044	DONAVAN	-0.04692945
-2.71147	DOWN	-0.1131727
-3.41044	DOWNTOWN	-0.09214257
-2.933319	DRAINS	-0.07665498
-3.10941	DRIVE	-0.09095759
-3.10941	DRIVING	-0.09129649
-3.41044	DROVE	-0.09146583
-3.41044	DRUG	-0.07700522
-3.41044	EACH	-0.04692945
-2.933319	EIGHT	-0.0899393
-3.10941	ELEMENTARY	-0.07665499
-3.41044	ELSE	-0.09231158
-3.41044	EM	-0.08925913
-3.41044	EMBARRASSING	-0.04692945
-3.41044	EMPTIED	-0.09044874
-3.41044	ENDED	-0.09146583
-3.10941	ENOUGH	-0.07525121
-3.41044	EQUITY	-0.090279
-3.41044	ERR	-0.09231158
-3.41044	ERUPTED	-0.09112707
-2.80838	EVEN	-0.1912427
-3.41044	EVER	-0.09264942
-3.10941	EVERY	-0.09197348
-3.41044	EVERYBODY	-0.08925913
-3.41044	EVERYONE	-0.09264942
-3.10941	EVERYTHING	-0.0815328
-3.41044	EVERYWHERE	-0.08925913
-3.41044	EVICT	-0.09264942
-3.41044	EXACT	-0.09264942
-2.80838	EXACTLY	-0.3688448
-3.41044	EXERCISE	-0.04692945
-3.41044	FACILITY	-0.04692945
-3.41044	FAIRLY	-0.09264942
-3.41044	FALLING	-0.09180433
-3.41044	FALLS	-0.09264942
-2.933319	FAMILY	-0.02559004
-3.41044	FAN	-0.09264942
-3.41044	FANCY	-0.09264942
-3.41044	FARM	-0.0887483
-3.41044	FEEL	-0.08755401
-3.41044	FEES	-0.09231158
-3.10941	FESTIVAL	-0.07489955
-3.41044	FIELD	-0.08463984
-3.41044	FIFTY	-0.09197348
-3.41044	FIND	-0.09264942
-3.41044	FIREWORKS	-0.07700522
-2.933319	FIRST	-0.08891863
-3.41044	FISHING	-0.09248053
-3.41044	FIVE	-0.04692945
-3.41044	FIX	-0.08549898
-2.933319	FLORIDA	-0.03648689
-3.41044	FOOD	-0.09197348
-2.264312	FOR	-0.1262462
-3.41044	FORGOT	-0.08755401
-3.41044	FORMULA	-0.07700522
-3.41044	FORMULATE	-0.0799709
-3.41044	FORT	-0.09264942
-3.41044	FORTY	-0.04692945
-3.41044	FOUND	-0.09146583
-3.41044	FOUR	-0.09180433
-3.41044	FRESHMAN	-0.0887483
-3.10941	FRIDAY	-0.07770486
-3.10941	FRIENDS	-0.0446724
-2.331259	FROM	-0.2635965
-2.632288	FUN	-0.2007645
-3.41044	FUNCTIONAL	-0.09264942
-3.41044	GAME	-0.04692945
-3.41044	GARAGE	-0.09264942
-3.41044	GAY	-0.09264942
-3.41044	GENE	-0.04692945
-2.296496	GET	-0.1859426
-3.41044	GETS	-0.09264942
-2.933319	GETTING	-0.2193131
-3.41044	GIFTS	-0.04692945
-3.41044	GIRLS	-0.04692945
-3.10941	GIVE	-0.0789265
-3.41044	GIVING	-0.09214257
-2.565342	GO	-0.07542692
-3.41044	GOES	-0.04692945
-2.456197	GOING	-1.036295
-3.10941	GOLF	-0.04674182
-3.41044	GONE	-0.09163511
-2.71147	GOOD	-0.1223362
-2.632288	GOT	-0.1453386
-3.41044	GRADUATING	-0.09197348
-3.41044	GRAHAM	-0.04692945
-3.41044	GRAND	-0.04692945
-2.80838	GREAT	-0.04561426
-3.41044	GROWN	-0.08463984
-3.41044	GUYS	-0.09264942
-2.331259	HAD	-0.3080083
-3.10941	HALF	-0.08993932
-3.41044	HANDICAP	-0.09264942
-3.41044	HAPPENS	-0.09214257
-3.41044	HAPPY	-0.04692945
-3.10941	HARD	-0.08412355
-3.41044	HAS	-0.0799709
-2.088221	HAVE	-0.2781164
-3.41044	HAVEN'T	-0.09214257
-3.10941	HAVING	-0.3113372
-3.10941	HD	-0.02931793
-2.369047	HE	-0.157374
-3.10941	HE'LL	-0.3213056
-2.71147	HE'S	-0.145867
-3.41044	HELP	-0.07700522
-3.41044	HELPFUL	-0.04692945
-3.10941	HER	-0.09180433
-2.933319	HERE	-0.1864182
-3.41044	HIGH	-0.09248053
-3.41044	HILLS	-0.04692945
-3.41044	HIRE	-0.09248053
-2.933319	HISTORY	-0.1826466
-3.10941	HOLIDAY	-0.08446782
-3.41044	HOLIDAYS	-0.09044874
-3.10941	HOME	-0.08857789
-3.41044	HONEY	-0.09264942
-3.10941	HOPEFULLY	-0.08257096
-3.41044	HOSE	-0.07700522
-3.41044	HOT	-0.04692945
-3.10941	HOUR	-0.0465541
-3.41044	HOURS	-0.0799709
-2.632288	HOUSE	-0.07242515
-3.41044	HOUSES	-0.09264942
-3.41044	HOW	-0.08463984
-3.41044	HOWEVER	-0.04692945
-3.41044	HUNDRED	-0.04692945
-3.41044	HURRICANE	-0.04692945
-3.41044	HUSBAND	-0.08993931
-1.475941	I	-0.3927573
-3.41044	I'D	-0.09264942
-2.933319	I'LL	-0.2286124
-2.155167	I'M	-0.1608645
-3.10941	I'VE	-0.3235089
-3.10941	IDEA	-0.04542606
-2.50735	IF	-0.1727655
-3.41044	IMMEDIATELY	-0.09180433
-2.030229	IN	-0.1115104
-3.41044	INAUDIBLE	-0.04692945
-3.41044	INCH	-0.08891864
-3.10941	INCOME	-0.3213056
-3.41044	INDIVIDUAL	-0.04692945
-3.41044	INHERITANCE	-0.07700522
-3.10941	INSIDE	-0.06673188
-3.41044	INSTRUMENTS	-0.04692945
-3.41044	INTO	-0.09264942
-3.41044	INVITED	-0.09180433
-2.179991	IS	-0.0773817
-3.41044	ISN'T	-0.09264942
-3.41044	ISSUE	-0.09264942
-2.933319	ISSUES	-0.2147637
-1.776971	IT	-0.2206863
-3.41044	IT'LL	-0.08993931
-1.830656	IT'S	-0.1422515
-3.10941	ITS	-0.09214257
-3.10941	JAZZ	-0.3238468
-3.10941	JEFF	-0.3238468
-3.41044	JEWISH	-0.08291645
-3.41044	JOANNE'S	-0.07700522
-3.10941	JUNE	-0.0463663
-3.41044	JUNIOR	-0.04692945
-2.234349	JUST	-0.04353946
-3.41044	KIDS	-0.07700522
-2.933319	KIND	-0.5380171
-3.41044	KINDA	-0.09264942
-2.048712	KNOW	-0.08381312
-3.41044	LADY	-0.04692945
-2.933319	LAKE	-0.04636628
-3.10941	LANDLORD	-0.3177227
-2.933319	LAST	-0.09180432
-3.41044	LAUDERDALE'S	-0.08908892
-3.41044	LAWS'	-0.09264942
-3.41044	LEAGUE	-0.0887483
-3.41044	LECTURE	-0.07700522
-3.41044	LEFT	-0.09146583
-3.41044	LEGAL	-0.09264942
-3.41044	LESS	-0.08908892
-2.068017	LIKE	-0.07772394
-3.41044	LIONS	-0.09264942
-3.41044	LIONS'	-0.09264942
-3.41044	LIST	-0.08891864
-2.933319	LITTLE	-0.09231158
-3.10941	LIVE	-0.08857789
-2.80838	LOAN	-0.08772482
-3.41044	LOANS	-0.09163511
-3.41044	LOCATION	-0.07805424
-3.41044	LONG	-0.09214257
-3.41044	LOOK	-0.09095758
-3.10941	LOOKED	-0.08772483
-3.41044	LOST	-0.09231158
-3.41044	LOT	-0.08891864
-3.41044	LOTS	-0.08891864
-3.41044	LOVE	-0.08549898
-3.10941	LOVES	-0.0853273
-2.933319	MAINTENANCE	-0.2320067
-3.10941	MAKE	-0.09163512
-3.41044	MAKING	-0.08549898
-3.41044	MANGERS	-0.07700522
-2.933319	MARRIED	-0.1849135
-3.41044	MART	-0.08925913
-3.41044	MAY	-0.08908892
-3.10941	MAYBE	-0.08772483
-3.41044	MCKENZIE	-0.09264942
-2.632288	ME	-0.06186529
-3.41044	MEAN	-0.08755401
-3.41044	MEMORIAL	-0.09248053
-3.41044	MET	-0.09095758
-3.41044	MHM	-0.0884074
-2.71147	MHMM	-0.3949642
-3.10941	MIDDLE	-0.04259308
-3.10941	MIGHT	-0.3213056
-3.41044	MILES	-0.09078804
-3.41044	MILLER	-0.07700522
-3.41044	MOBILITY	-0.07700522
-3.41044	MODERATELY	-0.09264942
-3.10941	MONDAY	-0.09214257
-2.80838	MONEY	-0.03993218
-3.41044	MONTH	-0.08549898
-3.41044	MONTHS	-0.09248053
-3.41044	MOON	-0.07700522
-3.10941	MORE	-0.08891865
-2.933319	MORNING	-0.2147637
-3.41044	MOST	-0.09180433
-3.41044	MOSTLY	-0.0887483
-3.41044	MOUNTAINS	-0.08463984
-3.41044	MOVE	-0.09078804
-3.41044	MOVED	-0.0887483
-3.41044	MOVIE	-0.09248053
-3.41044	MOVING	-0.09163511
-2.80838	MUCH	-0.06976829
-3.10941	MUSIC	-0.09197348
-3.41044	MUSICIAN	-0.08976936
-2.20632	MY	-0.0385956
-3.41044	NEAR	-0.09248053
-3.41044	NEAT	-0.04692945
-3.41044	NEED	-0.08618507
-3.41044	NEUROLOGIST	-0.08755401
-2.71147	NEXT	-0.1690372
-2.933319	NICE	-0.1864182
-3.41044	NIECE	-0.08993931
-3.41044	NIECES	-0.0887483
-3.10941	NIGHT	-0.0463663
-3.41044	NINE	-0.09264942
-2.068017	NO	-0.1610616
-2.933319	NORTH	-0.04467239
-3.41044	NORTHEAST	-0.09197348
-3.41044	NORTHWEST	-0.08891864
-2.068017	NOT	-0.09822015
-3.10941	NOTHING	-0.09146584
-2.565342	NOW	-0.05307655
-3.41044	O'CLOCK	-0.08635642
-3.41044	OAK	-0.04692945
-3.41044	OCCASIONAL	-0.09264942
-3.41044	OCCASIONALLY	-0.08925913
-3.41044	OCEAN	-0.08549898
-2.048712	OF	-0.09268606
-2.41044	OH	-0.1463832
-3.41044	OHIO	-0.09146583
-3.41044	OK	-0.04692945
-2.80838	OKAY	-0.1560799
-3.10941	OLD	-0.2782958
-2.234349	ON	-0.1994927
-2.331259	ONE	-0.1812852
-3.10941	ONES	-0.07507542
-2.933319	ONLY	-0.0916351
-3.41044	ONTARIO	-0.04692945
-2.71147	OR	-0.08891864
-3.41044	ORLANDO	-0.04692945
-2.80838	OTHER	-0.08857788
-3.41044	OUR	-0.09264942
-2.50735	OUT	-0.001276158
-2.632288	OVER	-0.1436587
-3.10941	OVERPAID	-0.04429508
-3.10941	OVERWHELMING	-0.0465541
-2.80838	PAID	-0.378597
-3.41044	PALM	-0.09264942
-3.41044	PANDAS	-0.04692945
-3.41044	PARENTS	-0.09264942
-3.41044	PART	-0.08908892
-3.41044	PARTNER'S	-0.0799709
-3.41044	PARTY	-0.08291645
-3.41044	PAY	-0.08772482
-3.41044	PEACEFUL	-0.09248053
-3.41044	PEOPLE	-0.04692945
-3.41044	PERHAPS	-0.09214257
-3.41044	PETE	-0.04692945
-3.41044	PETOSKEY	-0.09146583
-3.41044	PETS	-0.07700522
-3.41044	PICK	-0.09146583
-3.41044	PICTURES	-0.04692945
-3.10941	PLACE	-0.08377901
-3.41044	PLAN	-0.04692945
-3.10941	PLANNED	-0.08891865
-2.71147	PLAY	-0.03916892
-3.41044	PLAYED	-0.09112707
-3.10941	PLAYING	-0.07805426
-3.41044	PLUMBER	-0.08463984
-3.41044	POINT	-0.09214257
-3.41044	POOP	-0.07700522
-3.41044	POWER	-0.09264942
-3.41044	POWERFUL	-0.09264942
-3.41044	PRETTY	-0.09214257
-3.41044	PRINCESS	-0.04692945
-2.632288	PROBABLY	-0.04917486
-3.10941	PROBLEM	-0.08687008
-3.41044	PROFESSOR	-0.08291645
-3.41044	PROGRAMING	-0.08291645
-3.10941	PROOF	-0.0446724
-3.41044	PROPERTY	-0.09264942
-3.41044	PROPHYLACTIC	-0.09264942
-3.41044	PULLS	-0.09180433
-3.41044	PURPOSES	-0.04692945
-3.41044	PUT	-0.09180433
-3.41044	QUARTER	-0.09264942
-3.41044	QUICK	-0.09248053
-3.41044	QUIZZES	-0.09180433
-3.41044	RACE	-0.09248053
-3.41044	RAISED	-0.04692945
-3.41044	RAY	-0.09264942
-3.41044	READ	-0.04692945
-3.41044	READING	-0.0799709
-3.41044	REAL	-0.09197348
-3.10941	REALLY	-0.09214257
-3.41044	REALTOR	-0.09197348
-3.41044	REASON	-0.04692945
-3.41044	RECEPTION	-0.04692945
-3.41044	RECOMMEND	-0.08549898
-3.41044	RED	-0.09264942
-2.933319	REHEARSAL	-0.08360662
-3.41044	RELATIONSHIP	-0.09197348
-2.933319	RELATOR	-0.08601364
-3.41044	RELIGIOUS	-0.09264942
-3.41044	REMEMBER	-0.09264942
-3.41044	RESIDENTIAL	-0.04692945
-3.41044	REUPHOLSTERING	-0.09264942
-3.41044	RID	-0.08891864
-3.41044	RIDE	-0.09264942
-2.632288	RIGHT	-0.1835926
-3.41044	ROAD	-0.04692945
-3.41044	ROCHESTER	-0.09264942
-3.41044	ROTATOR	-0.09264942
-3.41044	ROYAL	-0.09264942
-3.41044	SAGINAW	-0.04692945
-2.71147	SAID	-0.2588275
-3.41044	SAINT	-0.09264942
-3.41044	SALE	-0.04692945
-3.41044	SALVATION	-0.09264942
-3.41044	SAME	-0.09264942
-3.41044	SARASOTA	-0.08291645
-3.10941	SATURDAY	-0.09197348
-3.41044	SAW	-0.09214257
-3.10941	SCHOOL	-0.02931793
-2.71147	SEE	-0.07047966
-3.41044	SEEN	-0.08755401
-2.933319	SELL	-0.2122941
-3.41044	SELLING	-0.08549898
-3.41044	SEMESTER	-0.09044874
-2.80838	SEVEN	-0.1464451
-3.10941	SHE	-0.08721218
-3.10941	SHOULD	-0.0887483
-3.41044	SHOULDER	-0.09264942
-3.41044	SHOWER	-0.09044874
-3.10941	SHOWS	-0.03048853
-3.41044	SHUT	-0.09197348
-3.10941	SICK	-0.3235089
-3.41044	SILLY	-0.07700522
-3.41044	SISTERS	-0.08755401
-3.41044	SIT	-0.09044874
-3.41044	SITUATION	-0.08635642
-3.41044	SLUSH	-0.09264942
-3.41044	SMALL	-0.09264942
-1.647012	SO	-0.01103882
-2.933319	SOME	-0.09197347
-3.10941	SOMEBODY	-0.04107457
-3.41044	SOMETHING	-0.09180433
-3.41044	SOMETIME	-0.04692945
-3.41044	SORRY	-0.04692945
-3.10941	SOUTH	-0.08772483
-3.41044	STARED	-0.09095758
-3.10941	STARTED	-0.07840337
-3.10941	STARTS	-0.3223239
-3.41044	STAY	-0.04692945
-3.10941	STILL	-0.09214257
-3.10941	STRESS	-0.08772483
-3.41044	STRESSFUL	-0.04692945
-3.41044	STUDY	-0.09264942
-2.80838	STUFF	-0.1280108
-3.41044	STUMBLE	-0.09264942
-3.41044	SUICIDE	-0.08291645
-3.41044	SUNDAY	-0.09231158
-3.41044	SUPPLIES	-0.07700522
-2.71147	SURE	-0.06726925
-3.41044	SURGERY	-0.04692945
-3.41044	SWEET	-0.09231158
-3.41044	SYMPTOMS	-0.08772482
-3.41044	TAKE	-0.0799709
-3.41044	TALK	-0.07700522
-3.10941	TALKED	-0.3160061
-3.10941	TAMPA	-0.2782958
-3.10941	TEACH	-0.07647977
-2.933319	TEN	-0.07647976
-3.41044	TERRIBLE	-0.04692945
-2.933319	TEST	-0.03840431
-1.919078	THAT	-0.03050577
-2.632288	THAT'S	-0.06726927
-1.535379	THE	-0.1354132
-3.10941	THEIR	-0.09197348
-2.80838	THEM	-0.04335034
-2.331259	THEN	-0.08151391
-3.41044	THERAPIST	-0.09095758
-2.264312	THERE	-0.1332888
-2.565342	THERE'S	-0.1246564
-2.131686	THEY	-0.1684894
-3.10941	THEY'RE	-0.08257096
-3.10941	THING	-0.03048853
-2.933319	THINGS	-0.02775218
-2.632288	THINK	-0.06403495
-3.41044	THIRTEEN	-0.07700522
-2.632288	THIS	-0.1605971
-2.933319	THOUGH	-0.07577814
-3.41044	THOUSAND	-0.09264942
-2.933319	THREE	-0.09146582
-2.933319	THROUGH	-0.07419537
-2.80838	TIME	-0.2672763
-3.41044	TIMES	-0.0799709
-1.729199	TO	-0.09637468
-3.41044	TOLD	-0.04692945
-3.41044	TOMORROW	-0.07700522
-3.10941	TONIGHT	-0.04674182
-2.80838	TOO	-0.09146583
-3.41044	TOOK	-0.09264942
-3.41044	TORE	-0.09010918
-3.41044	TORNADO	-0.04692945
-3.10941	TRACK	-0.0458024
-3.41044	TREATMENT	-0.09264942
-3.10941	TRIP	-0.08170599
-3.41044	TROUBLE	-0.08635642
-2.933319	TRUCKLOADS	-0.07242995
-3.41044	TRUST	-0.04692945
-2.933319	TRYING	-0.5337383
-3.41044	TUES	-0.09078804
-3.10941	TUESDAY	-0.07595367
-3.41044	TURNED	-0.09264942
-3.41044	TV	-0.09248053
-3.41044	TWELVE	-0.04692945
-2.565342	TWO	-0.09920464
-3.41044	TYPE	-0.09248053
-2.632288	UH	-0.07577817
-3.41044	UHH	-0.09248053
-2.369047	UM	-0.06277061
-3.10941	UMM	-0.07612911
-3.41044	UNCLE	-0.09264942
-3.41044	UNDER	-0.09010918
-3.41044	UNION	-0.08806624
-3.10941	UNPACKED	-0.09146584
-2.50735	UP	-0.01582572
-3.41044	USE	-0.09010918
-3.41044	USED	-0.08463984
-3.41044	VACATIONS	-0.09180433
-3.41044	VARIETY	-0.04692945
-2.632288	VERY	-0.1547746
-3.41044	VISITED	-0.09112707
-3.41044	VP	-0.08549898
-3.41044	WABATONGUSHI	-0.04692945
-3.41044	WAL	-0.09264942
-3.10941	WALK	-0.09180433
-3.41044	WALKED	-0.09197348
-3.10941	WALKING	-0.3233398
-3.41044	WANT	-0.08463984
-3.10941	WANTED	-0.3160061
-3.10941	WANTS	-0.3160061
-3.41044	WARNING	-0.04692945
-2.088221	WAS	-0.05316962
-3.41044	WASH	-0.0799709
-3.10941	WASTE	-0.07962305
-3.41044	WAWA	-0.09264942
-2.71147	WAY	-0.07101243
-1.963282	WE	-0.1705733
-3.41044	WE'LL	-0.090279
-3.10941	WE'RE	-0.09146584
-3.10941	WE'VE	-0.09010919
-2.71147	WEDDING	-0.007072367
-2.933319	WEEK	-0.169182
-2.456197	WEEKEND	-0.393078
-3.41044	WEEKENDS	-0.09231158
-3.41044	WEIRD	-0.09264942
-2.50735	WELL	-0.1293817
-2.565342	WENT	-0.1401671
-2.565342	WERE	-0.07296033
-3.10941	WEREN'T	-0.08738313
-2.933319	WHAT	-0.08721217
-3.41044	WHATEVER	-0.08618507
-3.41044	WHEELCHAIR	-0.09264942
-2.71147	WHEN	-0.1499633
-3.41044	WHENEVER	-0.08772482
-2.50735	WHERE	-0.04842765
-3.41044	WHICH	-0.09078804
-3.10941	WHILE	-0.07313699
-3.41044	WHITMORE	-0.09231158
-2.933319	WHO	-0.08891863
-3.41044	WHOLE	-0.09231158
-3.41044	WHY	-0.09112707
-3.10941	WILL	-0.09163512
-2.41044	WITH	-0.111088
-3.41044	WITHOUT	-0.09264942
-3.41044	WON	-0.04692945
-3.41044	WON'T	-0.08993931
-3.10941	WORK	-0.08823687
-2.933319	WORKING	-0.04353945
-3.41044	WORKS	-0.04692945
-3.41044	WOULD	-0.09163511
-3.41044	WRITING	-0.0799709
-3.41044	YA'LL	-0.09112707
-1.819375	YEAH	-0.3268926
-2.632288	YEAR	-0.2962519
-3.41044	YEARS	-0.09248053
-3.41044	YEP	-0.04692945
-1.995466	YES	-0.404402
-2.632288	YET	-0.1034278
-1.933318	YOU	-0.2673489
-2.933319	YOU'RE	-0.08704115
-3.10941	YOUR	-0.09231159
-2.933319	YUP	-0.03456097
-3.10941	ZOO	-0.02931793

\2-grams:
-0.7157338	17 AND
-0.7157338	18 </s>
-1.192855	300 </s>
-1.192855	300 AND
-1.192855	300 WE
-0.7157338	6 WEEKENDS
-0.7157338	600 MILES
-0.7157338	96 YEARS
-0.7157338	96TH BIRTHDAY
-2.389637	<s> A
-2.389637	<s> ACTUALLY
-3.127354	<s> ALL
-3.127354	<s> AN
-1.132866	<s> AND
-3.127354	<s> AROUND
-3.127354	<s> BE
-3.127354	<s> BECAUSE
-3.127354	<s> BEFORE
-3.127354	<s> BORN
-3.127354	<s> BRASS
-1.71265	<s> BUT
-3.127354	<s> BUYING
-3.127354	<s> CAUSE
-3.127354	<s> COUPLE
-3.127354	<s> DEFINITELY
-3.127354	<s> DELTA
-3.127354	<s> DOCTORS
-3.127354	<s> ELEMENTARY
-3.127354	<s> EVEN
-3.127354	<s> FLORIDA
-2.389637	<s> FOR
-3.127354	<s> FORT
-2.389637	<s> GOING
-3.127354	<s> GOOD
-2.389637	<s> HE
-3.127354	<s> HE'S
-3.127354	<s> HISTORY
-1.132866	<s> I
-2.08149	<s> I'M
-3.127354	<s> IF
-2.08149	<s> IN
-2.239138	<s> IT
-2.295945	<s> IT'S
-2.389637	<s> JEFF
-3.127354	<s> JUST
-3.127354	<s> MHM
-1.71265	<s> MHMM
-3.127354	<s> MILLER
-3.127354	<s> MODERATELY
-3.127354	<s> MUSIC
-2.389637	<s> MY
-3.127354	<s> NEXT
-1.332438	<s> NO
-3.127354	<s> NOT
-3.127354	<s> NOTHING
-2.239138	<s> OH
-3.127354	<s> OK
-2.389637	<s> OKAY
-2.389637	<s> ONE
-3.127354	<s> OR
-3.127354	<s> OVER
-3.127354	<s> PALM
-3.127354	<s> PERHAPS
-3.127354	<s> PLAY
-3.127354	<s> PRETTY
-3.127354	<s> PROBABLY
-3.127354	<s> READ
-2.08149	<s> RIGHT
-3.127354	<s> ROTATOR
-3.127354	<s> SAINT
-3.127354	<s> SHE
-3.127354	<s> SHOULD
-1.235528	<s> SO
-3.127354	<s> SOME
-3.127354	<s> SUNDAY
-3.127354	<s> TEN
-3.127354	<s> THAT
-2.389637	<s> THAT'S
-3.127354	<s> THE
-3.127354	<s> THEN
-3.127354	<s> THERE
-3.127354	<s> THERE'S
-1.691769	<s> THEY
-3.127354	<s> THROUGH
-3.127354	<s> TV
-3.127354	<s> TWO
-2.08149	<s> UH
-2.239138	<s> UM
-2.389637	<s> UMM
-2.239138	<s> WE
-2.389637	<s> WE'VE
-1.71265	<s> WELL
-3.127354	<s> WENT
-3.127354	<s> WHAT
-3.127354	<s> WHEN
-3.127354	<s> WHENEVER
-3.127354	<s> WHERE
-3.127354	<s> WITH
-0.980256	<s> YEAH
-1.132866	<s> YES
-1.691769	<s> YOU
-3.127354	<s> YUP
-0.7157338	<unk> THIS
-2.590795	A BAD
-1.544932	A BIG
-2.590795	A BLAST
-1.853079	A BUNCH
-2.590795	A CHAUFFEUR
-2.590795	A COMMUNITY
-2.590795	A COUPLE
-2.590795	A DAY
-2.590795	A DIFFERENT
-2.590795	A DIRT
-2.590795	A DISASTER
-2.590795	A DRUG
-2.590795	A FAIRLY
-2.590795	A FISHING
-2.590795	A FUNCTIONAL
-2.590795	A GARAGE
-2.590795	A GOLF
-2.590795	A GOOD
-1.853079	A GREAT
-1.853079	A HALF
-2.590795	A HE
-2.590795	A HONEY
-2.590795	A HOUSE
-2.590795	A JUNIOR
-2.590795	A LAKE
-1.853079	A LANDLORD
-2.590795	A LECTURE
-2.590795	A LIONS
-2.590795	A LIONS'
-2.590795	A LITTLE
-1.702579	A LOAN
-2.590795	A LONG
-2.590795	A LOT
-2.590795	A MOVIE
-2.590795	A MUSICIAN
-2.590795	A PLAY
-2.590795	A PROBLEM
-2.590795	A PROFESSOR
-2.590795	A PROPHYLACTIC
-2.590795	A QUARTER
-2.590795	A REAL
-1.853079	A REHEARSAL
-2.590795	A RELATIONSHIP
-2.590795	A RELATOR
-2.590795	A SALVATION
-2.590795	A SHOWER
-2.590795	A SMALL
-1.853079	A TEST
-2.590795	A THERAPIST
-2.590795	A VERY
-2.590795	A VP
-1.702579	A WEDDING
-1.853079	A WEEK
-2.590795	A WEIRD
-2.590795	A WHEELCHAIR
-2.590795	A WHOLE
-1.544932	A YEAR
-2.590795	A YOU
-1.317794	ABOUT 600
-1.317794	ABOUT LAST
-1.317794	ABOUT SELLING
-1.317794	ABOUT TEN
-0.7157338	ABSOLUTELY </s>
-0.7157338	ACCESSIBLE AND
-1.414704	ACTUALLY DOWN
-1.414704	ACTUALLY FROM
-0.6769877	ACTUALLY I
-1.414704	ACTUALLY I'M
-0.7157338	ADRIAN WHERE
-0.7157338	AFTER BEING
-0.7157338	AGAIN THEN
-1.192855	AGO BECAUSE
-1.192855	AGO BUT
-1.192855	AGO THERE
-0.7157338	ALCOHOL TREATMENT
-1.618824	ALL FROM
-1.618824	ALL INDIVIDUAL
-1.618824	ALL OUT
-0.7306081	ALL THE
-1.618824	ALL THROUGH
-1.016764	ALMOST LOST
-1.016764	ALMOST NINE
-0.7157338	ALONG THE
-1.192855	ALSO HAD
-1.192855	ALSO TRYING
-1.192855	ALSO WHEN
-0.7157338	ALWAYS FUN
-1.016764	AM A
-1.016764	AM WORKING
-1.016764	AMAZING </s>
-1.016764	AMAZING YOU
-1.317794	AN AUNT
-0.5800777	AN HOUR
-1.317794	AN OCCASIONAL
-2.679522	AND 18
-2.679522	AND </s>
-1.791306	AND A
-2.679522	AND ALCOHOL
-2.679522	AND ALL
-1.791306	AND AND
-2.679522	AND BE
-2.679522	AND CATCH
-2.679522	AND ENDED
-2.679522	AND EVEN
-2.679522	AND EVERYTHING
-2.679522	AND FRIDAY
-2.679522	AND GIVE
-2.679522	AND GO
-2.679522	AND GOT
-2.679522	AND HANDICAP
-1.633658	AND HE
-1.633658	AND I
-2.679522	AND I'M
-2.679522	AND IF
-2.679522	AND IT'S
-1.633658	AND JUST
-2.679522	AND LESS
-2.679522	AND LIKE
-2.679522	AND LOOK
-2.679522	AND LOOKED
-2.679522	AND MIDDLE
-2.679522	AND NOT
-2.679522	AND NOW
-2.679522	AND ONE
-2.679522	AND OUT
-2.679522	AND PLAY
-2.679522	AND PROPERTY
-2.679522	AND RAISED
-0.8846066	AND SO
-1.941805	AND STUFF
-2.679522	AND TEACH
-1.243937	AND THE
-2.679522	AND THEIR
-1.791306	AND THEN
-1.791306	AND THEY
-2.679522	AND TRUCKLOADS
-2.679522	AND TWELVE
-2.679522	AND UH
-1.941805	AND UM
-2.679522	AND VISITED
-2.679522	AND WAL
-2.679522	AND WALK
-2.679522	AND WE
-2.679522	AND WHATEVER
-2.679522	AND WHEN
-2.679522	AND WHITMORE
-2.679522	AND WITH
-1.941805	AND YOU
-2.679522	AND YOUR
-0.7157338	ANIMALS WERE
-0.7157338	ANOTHER REHEARSAL
-0.7157338	ANTI DEPRESSANTS
-0.7157338	ANTICIPATING MOVING
-0.7157338	ANTIDEPRESSANTS FOR
-1.016764	ANY IDEA
-1.016764	ANY WORK
-0.7157338	ANYONE WHO
-0.7157338	ANYTHING LIKE
-0.7157338	ANYWAY </s>
-0.7157338	APPEAR DEPRESSED
-0.7157338	APPOINTMENTS </s>
-1.715734	ARE 17
-0.9780177	ARE </s>
-1.715734	ARE ALL
-1.715734	ARE ALSO
-1.715734	ARE GOING
-1.715734	ARE IT'S
-0.9780177	ARE LIKE
-1.715734	ARE YOU
-0.7157338	AREA </s>
-0.7157338	ARMY </s>
-1.414704	AROUND JOANNE'S
-1.414704	AROUND SO
-0.6769877	AROUND THE
-1.414704	AROUND WE
-1.016764	AS IT
-1.016764	AS OVERWHELMING
-1.01941	AT A
-1.757127	AT ALL
-1.757127	AT ALMOST
-1.757127	AT EIGHT
-1.757127	AT FIRST
-1.757127	AT LIKE
-1.757127	AT SO
-1.01941	AT THE
-1.757127	AT YOU
-0.7157338	AUNT WHO
-1.016764	AWAY FOR
-1.016764	AWAY FROM
-0.4480216	BACK AND
-1.493885	BACK GET
-1.493885	BACK PLAYING
-1.493885	BACK TO
-0.7157338	BAD LOCATION
-0.7157338	BADLY </s>
-1.016764	BANK AND
-1.016764	BANK BEYOND
-0.455139	BASED IT
-1.192855	BASED ON
-0.7157338	BASEMENT YOU
-0.7157338	BASICALLY ON
-0.7157338	BATTLE CREEK
-1.946183	BE A
-1.946183	BE COMMERCIAL
-1.946183	BE DEALING
-1.946183	BE EMBARRASSING
-1.946183	BE GOOD
-1.946183	BE GRADUATING
-1.946183	BE HAPPY
-1.208467	BE IN
-1.946183	BE IT
-1.946183	BE ONE
-1.946183	BE RESIDENTIAL
-1.946183	BE SILLY
-1.946183	BE STARED
-1.946183	BE UHH
-1.946183	BE VERY
-1.946183	BE YOU
-0.7157338	BEACH </s>
-0.7157338	BEAVERS </s>
-1.715734	BECAUSE FOR
-0.30103	BECAUSE I
-1.715734	BECAUSE I'VE
-1.715734	BECAUSE IT
-1.715734	BECAUSE MY
-1.715734	BECAUSE WE
-1.317794	BEEN HOME
-0.5800777	BEEN ON
-1.317794	BEEN TOLD
-1.192855	BEFORE </s>
-1.192855	BEFORE THAT
-1.192855	BEFORE THE
-0.3688403	BEING A
-1.414704	BEING AWAY
-1.414704	BEING IN
-0.7157338	BELONGS </s>
-0.2790477	BETWEEN THE
-0.7157338	BEYOND THAT
-1.414704	BIG DEAL
-1.414704	BIG DIFFERENCE
-1.414704	BIG FANCY
-1.414704	BIG PARTY
-1.414704	BIG WARNING
-0.7157338	BIKE </s>
-0.7157338	BILLY GRAHAM
-0.7157338	BIRTHDAY WHILE
-0.7157338	BIT OF
-0.7157338	BLAST IT
-0.7157338	BOOK ON
-0.7157338	BORING HOWEVER
-0.7157338	BORN AND
-0.7157338	BOTHER </s>
-0.7157338	BRASS INSTRUMENTS
-0.7157338	BRING THEM
-0.1469916	BUNCH OF
-1.016764	BUSY I'M
-1.016764	BUSY WEEKEND
-0.9920896	BUT </s>
-2.037953	BUT AND
-2.037953	BUT BUT
-2.037953	BUT I
-1.300237	BUT IF
-2.037953	BUT IT'LL
-1.300237	BUT IT'S
-2.037953	BUT NOT
-2.037953	BUT NOW
-2.037953	BUT THE
-2.037953	BUT THEN
-2.037953	BUT THERE
-2.037953	BUT THERE'S
-1.300237	BUT WE
-1.300237	BUT YEAH
-0.7157338	BUYING THINGS
-1.016764	CALLED ONE
-1.016764	CALLED WABATONGUSHI
-1.618824	CAN </s>
-1.618824	CAN BE
-1.618824	CAN GET
-1.618824	CAN HAVE
-1.618824	CAN PAY
-1.618824	CAN SEE
-1.618824	CAN SELL
-1.618824	CAN SIT
-0.7157338	CAN'T YOU
-0.7157338	CANADA ABOUT
-0.7157338	CAROLINA CAN
-1.192855	CASH A
-1.192855	CASH FOR
-1.192855	CASH WITH
-0.7157338	CATCH UP
-1.317794	CAUSE ABOUT
-1.317794	CAUSE I
-1.317794	CAUSE OF
-1.317794	CAUSE THAT'S
-0.7157338	CENTERVILLE BRING
-0.7157338	CENTRAL FROM
-0.7157338	CHAUFFEUR WE'RE
-0.7157338	CLASS </s>
-0.7157338	CLASSES AND
-0.7157338	CLEANED OUT
-0.7157338	CLEANING </s>
-0.455139	COLLEGE </s>
-1.192855	COLLEGE AND
-1.016764	COME IN
-1.016764	COME WITH
-1.016764	COMING BACK
-1.016764	COMING HOME
-0.7157338	COMMERCIAL IT
-0.7157338	COMMITTED SUICIDE
-0.7157338	COMMUNITY COLLEGE
-0.7157338	COMPANIES THAT
-0.7157338	COMPLETELY GOT
-0.7157338	COMPUTER PROGRAMING
-0.7157338	COMPUTERS SO
-0.2790477	CONE </s>
-0.7157338	CONTRACTORS AND
-0.7157338	COOL </s>
-0.7157338	COUCH OVER
-1.317794	COULD BE
-1.317794	COULD BUT
-1.317794	COULD GET
-1.317794	COULD GIVE
-1.016764	COULDN'T FIND
-1.016764	COULDN'T SEE
-1.016764	COUPLE DAYS
-1.016764	COUPLE TIMES
-0.7157338	COURSE IN
-0.7157338	CRAZY </s>
-0.7157338	CREDIT UNION
-0.7157338	CREEK </s>
-0.7157338	CRYSTAL </s>
-0.7157338	CUFF IT'S
-0.7157338	DAD'S HISTORY
-0.7157338	DATE BUT
-0.7157338	DAUGHTER </s>
-1.016764	DAY </s>
-1.016764	DAY FOR
-0.756169	DAYS </s>
-1.493885	DAYS ON
-1.493885	DAYS OVER
-1.493885	DAYS SO
-1.493885	DAYS YOU
-0.7157338	DEAL LIKE
-0.7157338	DEALING WITH
-0.7157338	DECIDE THEY
-0.7157338	DECIDED ON
-1.192855	DEFINITELY </s>
-1.192855	DEFINITELY A
-1.192855	DEFINITELY NICE
-0.7157338	DELTA COLLEGE
-0.7157338	DEPRESSANTS BECAUSE
-1.192855	DEPRESSED </s>
-1.192855	DEPRESSED CAUSE
-1.192855	DEPRESSED DOESN'T
-1.192855	DEPRESSION IS
-1.192855	DEPRESSION PART
-1.192855	DEPRESSION SO
-1.317794	DETROIT </s>
-0.5800777	DETROIT JAZZ
-1.317794	DETROIT ZOO
-1.192855	DID NOT
-1.192855	DID WE
-1.192855	DID YOU
-1.016764	DIDN'T FEEL
-1.016764	DIDN'T SORRY
-0.7157338	DIED AND
-0.7157338	DIFFERENCE BETWEEN
-1.016764	DIFFERENT BOOK
-1.016764	DIFFERENT THINGS
-0.7157338	DIRT TRACK
-0.2790477	DISABILITY </s>
-0.7157338	DISASTER AREA
-0.7157338	DISEASE WORKS
-0.7157338	DNA STUDY
-1.560832	DO </s>
-1.560832	DO ANY
-0.8231158	DO LIKE
-1.560832	DO MY
-1.560832	DO SO
-1.560832	DO STUMBLE
-0.7157338	DOCTORS APPOINTMENTS
-0.7157338	DOESN'T MEAN
-0.7157338	DOG AND
-1.192855	DOING I'M
-1.192855	DOING OKAY
-1.192855	DOING THE
-0.7157338	DOLLARS TO
-1.861862	DON'T APPEAR
-1.861862	DON'T EVEN
-1.861862	DON'T HAVE
-0.4262769	DON'T KNOW
-1.124146	DON'T LIKE
-1.861862	DON'T REMEMBER
-1.861862	DON'T SELL
-1.861862	DON'T THERE
-0.7157338	DONAVAN </s>
-1.414704	DOWN </s>
-1.414704	DOWN SOUTH
-1.414704	DOWN THERE
-0.6769877	DOWN TO
-0.7157338	DOWNTOWN DETROIT
-1.192855	DRAINS AND
-1.192855	DRAINS CLEANED
-1.192855	DRAINS ERUPTED
-1.016764	DRIVE DOWN
-1.016764	DRIVE RIGHT
-1.016764	DRIVING IMMEDIATELY
-1.016764	DRIVING UP
-0.7157338	DROVE ALL
-0.7157338	DRUG AND
-0.7157338	EACH </s>
-1.192855	EIGHT DAYS
-1.192855	EIGHT FORTY
-1.192855	EIGHT OH
-1.016764	ELEMENTARY AND
-1.016764	ELEMENTARY STARTS
-0.7157338	ELSE DID
-0.7157338	EM BUT
-0.7157338	EMBARRASSING </s>
-0.7157338	EMPTIED FOR
-0.7157338	ENDED UP
-1.016764	ENOUGH AND
-1.016764	ENOUGH BECAUSE
-0.7157338	EQUITY ON
-0.7157338	ERR TEST
-0.7157338	ERUPTED WITH
-1.317794	EVEN BOTHER
-1.317794	EVEN IF
-0.5800777	EVEN THOUGH
-0.7157338	EVER SEEN
-1.016764	EVERY OTHER
-1.016764	EVERY PLAN
-0.7157338	EVERYBODY WAS
-0.7157338	EVERYONE HAS
-1.016764	EVERYTHING SO
-1.016764	EVERYTHING WHERE
-0.7157338	EVERYWHERE BUT
-0.7157338	EVICT PRINCESS
-0.7157338	EXACT SYMPTOMS
-1.317794	EXACTLY SO
-0.2719303	EXACTLY SURE
-0.7157338	EXERCISE </s>
-0.7157338	FACILITY </s>
-0.7157338	FAIRLY QUICK
-0.7157338	FALLING OVER
-0.7157338	FALLS UNDER
-1.192855	FAMILY </s>
-1.192855	FAMILY AND
-1.192855	FAMILY THEY
-0.7157338	FAN ISN'T
-0.7157338	FANCY HOUSES
-0.7157338	FARM IN
-0.7157338	FEEL THAT
-0.7157338	FEES TRYING
-1.016764	FESTIVAL AND
-1.016764	FESTIVAL THEN
-0.7157338	FIELD TO
-0.7157338	FIFTY OR
-0.7157338	FIND ANYONE
-0.7157338	FIREWORKS AND
-1.192855	FIRST BUT
-1.192855	FIRST FOUND
-1.192855	FIRST MOVED
-0.7157338	FISHING TRIP
-0.7157338	FIVE </s>
-0.7157338	FIX IT
-1.192855	FLORIDA </s>
-1.192855	FLORIDA TO
-1.192855	FLORIDA WERE
-0.7157338	FOOD OR
-1.124146	FOR A
-1.861862	FOR EIGHT
-1.861862	FOR IT
-1.861862	FOR MY
-1.861862	FOR NO
-1.861862	FOR ONE
-1.861862	FOR PEOPLE
-1.861862	FOR THAT
-1.124146	FOR THE
-1.124146	FOR THIS
-1.861862	FOR TUESDAY
-0.7157338	FORGOT THAT
-0.7157338	FORMULA AND
-0.7157338	FORMULATE A
-0.7157338	FORT LAUDERDALE'S
-0.7157338	FORTY </s>
-0.7157338	FOUND OUT
-0.7157338	FOUR DAYS
-0.7157338	FRESHMAN IN
-1.016764	FRIDAY FRIDAY
-1.016764	FRIDAY I
-1.016764	FRIENDS </s>
-1.016764	FRIENDS FROM
-1.794915	FROM </s>
-1.794915	FROM CENTERVILLE
-1.794915	FROM DOWN
-1.794915	FROM HAVING
-1.794915	FROM HERE
-0.3802112	FROM THE
-1.794915	FROM WHAT
-1.794915	FROM WORK
-0.4480216	FUN </s>
-1.493885	FUN TO
-1.493885	FUN WHEN
-1.493885	FUN YES
-0.7157338	FUNCTIONAL COURSE
-0.7157338	GAME </s>
-0.7157338	GARAGE SALE
-0.7157338	GAY CENTRAL
-0.7157338	GENE </s>
-1.091961	GET 300
-0.7838137	GET A
-1.829677	GET ALL
-1.829677	GET BACK
-1.829677	GET I
-1.829677	GET LOANS
-1.829677	GET SICK
-1.091961	GET THE
-1.829677	GET UP
-0.7157338	GETS CRAZY
-1.192855	GETTING A
-0.455139	GETTING MARRIED
-0.7157338	GIFTS </s>
-0.7157338	GIRLS </s>
-1.016764	GIVE A
-1.016764	GIVE ME
-0.7157338	GIVING SEVEN
-1.560832	GO ACTUALLY
-1.560832	GO BACK
-1.560832	GO BUT
-1.560832	GO INTO
-1.560832	GO THERE
-1.560832	GO TO
-1.560832	GO YET
-0.7157338	GOES </s>
-1.669976	GOING ON
-0.05115252	GOING TO
-1.016764	GOLF </s>
-1.016764	GOLF LEAGUE
-0.7157338	GONE NOW
-0.6769877	GOOD </s>
-1.414704	GOOD I'D
-1.414704	GOOD ONE
-1.414704	GOOD THOUGH
-1.493885	GOT MARRIED
-1.493885	GOT ON
-1.493885	GOT RID
-0.756169	GOT TO
-1.493885	GOT UNPACKED
-0.7157338	GRADUATING NEXT
-0.7157338	GRAHAM </s>
-0.7157338	GRAND </s>
-1.317794	GREAT </s>
-1.317794	GREAT FIELD
-1.317794	GREAT SCHOOL
-1.317794	GREAT TIME
-0.7157338	GROWN TO
-0.7157338	GUYS EVER
-0.3593301	HAD A
-1.794915	HAD EM
-1.794915	HAD HER
-1.794915	HAD MONEY
-1.794915	HAD SHOULDER
-1.794915	HAD TALKED
-1.794915	HAD TO
-1.016764	HALF AGO
-1.016764	HALF THERE
-0.7157338	HANDICAP ACCESSIBLE
-0.7157338	HAPPENS CAUSE
-0.7157338	HAPPY </s>
-1.016764	HARD GETTING
-1.016764	HARD TO
-0.7157338	HAS THE
-0.6023682	HAVE A
-2.037953	HAVE ANOTHER
-2.037953	HAVE ANY
-2.037953	HAVE HELP
-2.037953	HAVE MY
-2.037953	HAVE NO
-2.037953	HAVE PLANNED
-1.300237	HAVE PROOF
-1.300237	HAVE THE
-2.037953	HAVE THEM
-0.9920896	HAVE TO
-2.037953	HAVE TWO
-0.7157338	HAVEN'T BEEN
-0.2790477	HAVING THE
-1.016764	HD </s>
-1.016764	HD AND
-1.757127	HE COMMITTED
-1.757127	HE JUST
-1.01941	HE LOVES
-1.757127	HE PULLS
-1.757127	HE SAID
-1.757127	HE USED
-1.757127	HE WANTED
-1.01941	HE WANTS
-1.757127	HE WENT
-0.2790477	HE'LL BE
-1.414704	HE'S A
-1.414704	HE'S IT
-0.6769877	HE'S NOT
-1.414704	HE'S VERY
-0.7157338	HELP AND
-0.7157338	HELPFUL </s>
-1.016764	HER 96TH
-1.016764	HER BEING
-0.455139	HERE </s>
-1.192855	HERE WHILE
-0.7157338	HIGH SCHOOL
-0.7157338	HILLS </s>
-0.7157338	HIRE SOMEBODY
-0.455139	HISTORY </s>
-1.192855	HISTORY NOT
-1.016764	HOLIDAY LEFT
-1.016764	HOLIDAY TO
-0.7157338	HOLIDAYS DON'T
-1.016764	HOME AFTER
-1.016764	HOME IN
-0.7157338	HONEY MOON
-1.016764	HOPEFULLY HOPEFULLY
-1.016764	HOPEFULLY SO
-0.7157338	HOSE AND
-0.7157338	HOT </s>
-1.016764	HOUR </s>
-1.016764	HOUR SOUTH
-0.7157338	HOURS A
-0.756169	HOUSE </s>
-1.493885	HOUSE ALSO
-1.493885	HOUSE AND
-1.493885	HOUSE I
-1.493885	HOUSE IS
-0.7157338	HOUSES ALONG
-0.7157338	HOW TO
-0.7157338	HOWEVER </s>
-0.7157338	HUNDRED </s>
-0.7157338	HURRICANE </s>
-0.7157338	HUSBAND IS
-1.912516	I AM
-2.650232	I CALLED
-1.235528	I CAN
-2.650232	I CAN'T
-2.650232	I COULDN'T
-2.650232	I DIDN'T
-1.604369	I DO
-0.8553172	I DON'T
-2.650232	I DRIVE
-1.912516	I FIRST
-2.650232	I FORGOT
-1.762017	I GET
-2.650232	I GOT
-1.604369	I HAD
-0.7584072	I HAVE
-2.650232	I HAVEN'T
-1.912516	I I
-2.650232	I JUST
-1.818824	I KNOW
-1.912516	I LIKE
-2.650232	I LOVE
-2.650232	I MAYBE
-2.650232	I NEED
-2.650232	I OVERPAID
-1.604369	I PAID
-2.650232	I STARTED
-2.650232	I STILL
-2.650232	I TALKED
-2.650232	I TEACH
-1.235528	I THINK
-2.650232	I TORE
-1.912516	I WAS
-2.650232	I WASTE
-0.7157338	I'D RECOMMEND
-1.192855	I'LL BE
-0.455139	I'LL GO
-1.971006	I'M A
-1.23329	I'M DOING
-1.23329	I'M DRIVING
-1.971006	I'M GIVING
-0.9251428	I'M GOING
-1.971006	I'M I'M
-1.971006	I'M NOT
-1.971006	I'M ON
-1.971006	I'M PLAYING
-1.971006	I'M REUPHOLSTERING
-1.971006	I'M SURE
-1.971006	I'M TRYING
-1.971006	I'M UH
-1.971006	I'M WRITING
-0.2790477	I'VE BEEN
-1.016764	IDEA </s>
-1.016764	IDEA WHERE
-0.7306081	IF I
-1.618824	IF IF
-1.618824	IF THEY
-0.8811077	IF YOU
-0.7157338	IMMEDIATELY BACK
-1.050081	IN </s>
-1.050081	IN A
-2.095945	IN BATTLE
-2.095945	IN COLLEGE
-2.095945	IN CRYSTAL
-2.095945	IN FLORIDA
-2.095945	IN I
-2.095945	IN JUNE
-2.095945	IN LAWS'
-2.095945	IN LEGAL
-2.095945	IN LIKE
-2.095945	IN NORTH
-2.095945	IN OHIO
-2.095945	IN ORLANDO
-2.095945	IN ROCHESTER
-2.095945	IN ROYAL
-2.095945	IN SAGINAW
-1.050081	IN THE
-0.7157338	INAUDIBLE </s>
-0.7157338	INCH OF
-0.2790477	INCOME IS
-0.7157338	INDIVIDUAL </s>
-0.7157338	INHERITANCE AND
-1.016764	INSIDE AND
-1.016764	INSIDE SO
-0.7157338	INSTRUMENTS </s>
-0.7157338	INTO COMPUTER
-0.7157338	INVITED ME
-1.946183	IS 96
-1.057967	IS </s>
-1.208467	IS A
-1.946183	IS AS
-1.946183	IS COMING
-1.946183	IS FRESHMAN
-1.946183	IS GETTING
-1.946183	IS IN
-1.208467	IS NOT
-1.946183	IS ONE
-1.946183	IS SO
-1.946183	IS WORKING
-0.7157338	ISN'T ALWAYS
-0.7157338	ISSUE HAPPENS
-0.455139	ISSUES AND
-1.192855	ISSUES FROM
-1.303339	IT </s>
-2.349202	IT A
-2.349202	IT AND
-2.349202	IT AT
-2.349202	IT BASICALLY
-2.349202	IT BELONGS
-2.349202	IT BUT
-2.349202	IT COULD
-2.349202	IT FOOD
-2.349202	IT FOR
-2.349202	IT GETS
-2.349202	IT GOES
-2.349202	IT GOT
-2.349202	IT I'LL
-1.460987	IT IS
-2.349202	IT LOOKED
-1.611486	IT MIGHT
-2.349202	IT NICE
-2.349202	IT ON
-2.349202	IT SO
-2.349202	IT STARTS
-2.349202	IT UP
-0.4573772	IT WAS
-0.7157338	IT'LL BE
-1.464109	IT'S A
-2.295517	IT'S AMAZING
-2.295517	IT'S AT
-1.557801	IT'S DEFINITELY
-2.295517	IT'S FUN
-2.295517	IT'S GONE
-2.295517	IT'S GOOD
-2.295517	IT'S GREAT
-2.295517	IT'S HARD
-2.295517	IT'S I
-0.8599325	IT'S IT'S
-2.295517	IT'S JUST
-1.557801	IT'S LIKE
-2.295517	IT'S MORE
-2.295517	IT'S NORTHEAST
-1.557801	IT'S NOT
-2.295517	IT'S ONLY
-2.295517	IT'S OVERWHELMING
-2.295517	IT'S TERRIBLE
-2.295517	IT'S TOO
-2.295517	IT'S TROUBLE
-1.557801	IT'S WAY
-2.295517	IT'S WITH
-1.016764	ITS HARD
-1.016764	ITS ITS
-0.2790477	JAZZ FESTIVAL
-0.2790477	JEFF CONE
-0.7157338	JEWISH SO
-0.7157338	JOANNE'S AND
-1.016764	JUNE </s>
-1.016764	JUNE LAST
-0.7157338	JUNIOR </s>
-1.891825	JUST BECAUSE
-1.891825	JUST CAN
-1.891825	JUST COMPLETELY
-1.891825	JUST DAYS
-1.891825	JUST FIFTY
-1.891825	JUST GET
-1.891825	JUST HAVING
-1.891825	JUST I
-1.891825	JUST KINDA
-1.891825	JUST PLAY
-1.891825	JUST TALK
-1.891825	JUST THE
-1.891825	JUST UM
-1.891825	JUST YES
-1.891825	JUST YOU
-0.7157338	KIDS AND
-0.1469916	KIND OF
-0.7157338	KINDA PLAYED
-1.031598	KNOW </s>
-2.077462	KNOW BECAUSE
-2.077462	KNOW BEING
-2.077462	KNOW CAUSE
-2.077462	KNOW HE
-2.077462	KNOW HE'S
-2.077462	KNOW HOW
-1.031598	KNOW I
-2.077462	KNOW INAUDIBLE
-1.339746	KNOW IT'S
-2.077462	KNOW MAYBE
-2.077462	KNOW MY
-2.077462	KNOW NOT
-2.077462	KNOW OF
-2.077462	KNOW THE
-2.077462	KNOW THEY'RE
-2.077462	KNOW WHAT
-2.077462	KNOW WHEN
-0.7157338	LADY </s>
-1.192855	LAKE </s>
-1.192855	LAKE CALLED
-1.192855	LAKE DOWNTOWN
-0.2790477	LANDLORD IT'S
-1.192855	LAST JUNE
-1.192855	LAST MONTH
-1.192855	LAST WEEK
-0.7157338	LAUDERDALE'S LIKE
-0.7157338	LAWS' FARM
-0.7157338	LEAGUE IN
-0.7157338	LECTURE AND
-0.7157338	LEFT WHERE
-0.7157338	LEGAL FEES
-0.7157338	LESS LIKE
-2.058156	LIKE 6
-1.012293	LIKE </s>
-1.169941	LIKE A
-2.058156	LIKE BEING
-2.058156	LIKE EIGHT
-2.058156	LIKE GAY
-1.32044	LIKE NO
-2.058156	LIKE OH
-2.058156	LIKE POWER
-2.058156	LIKE RAY
-2.058156	LIKE SHUT
-2.058156	LIKE THAT
-2.058156	LIKE THE
-2.058156	LIKE THERE
-2.058156	LIKE VARIETY
-2.058156	LIKE WHY
-0.7157338	LIONS GAME
-0.7157338	LIONS' FAN
-0.7157338	LIST OF
-1.192855	LITTLE BIT
-1.192855	LITTLE LADY
-1.192855	LITTLE NIECES
-1.016764	LIVE IN
-1.016764	LIVE NEAR
-1.317794	LOAN BASED
-1.317794	LOAN BECAUSE
-1.317794	LOAN FROM
-1.317794	LOAN OR
-0.7157338	LOANS NOW
-0.7157338	LOCATION I
-0.7157338	LONG TIME
-0.7157338	LOOK AT
-1.016764	LOOKED AT
-1.016764	LOOKED THEY
-0.7157338	LOST LAST
-0.7157338	LOT OF
-0.7157338	LOTS OF
-0.7157338	LOVE IT
-1.016764	LOVES COMPUTERS
-1.016764	LOVES IT
-1.192855	MAINTENANCE ISSUE
-0.455139	MAINTENANCE ISSUES
-1.016764	MAKE EVERY
-1.016764	MAKE SURE
-0.7157338	MAKING IT
-0.7157338	MANGERS AND
-0.455139	MARRIED </s>
-1.192855	MARRIED OH
-0.7157338	MART WAS
-0.7157338	MAY NOT
-1.016764	MAYBE OVERPAID
-1.016764	MAYBE WE
-0.7157338	MCKENZIE <unk>
-1.493885	ME A
-1.493885	ME BUT
-1.493885	ME EVERYWHERE
-1.493885	ME ON
-1.493885	ME SO
-1.493885	ME THERE'S
-0.7157338	MEAN THAT
-0.7157338	MEMORIAL DAY
-0.7157338	MET AT
-0.7157338	MHM YES
-0.3688403	MHMM </s>
-0.6769877	MHMM YUP
-1.016764	MIDDLE </s>
-1.016764	MIDDLE OF
-0.2790477	MIGHT BE
-0.7157338	MILES FROM
-0.7157338	MILLER AND
-0.7157338	MOBILITY AND
-0.7157338	MODERATELY STRESSFUL
-1.016764	MONDAY MEMORIAL
-1.016764	MONDAY MORNING
-1.317794	MONEY </s>
-1.317794	MONEY BECAUSE
-1.317794	MONEY BEFORE
-1.317794	MONEY IN
-0.7157338	MONTH IT
-0.7157338	MONTHS OLD
-0.7157338	MOON AND
-1.016764	MORE LIKE
-1.016764	MORE PEACEFUL
-0.455139	MORNING I
-1.192855	MORNING I'M
-0.7157338	MOST FUN
-0.7157338	MOSTLY IN
-0.7157338	MOUNTAINS TO
-0.7157338	MOVE FROM
-0.7157338	MOVED IN
-0.7157338	MOVIE TONIGHT
-0.7157338	MOVING WENT
-1.317794	MUCH JUST
-1.317794	MUCH STUFF
-1.317794	MUCH THE
-1.317794	MUCH YEAH
-1.016764	MUSIC HISTORY
-1.016764	MUSIC TONIGHT
-0.7157338	MUSICIAN I'M
-1.919854	MY </s>
-1.919854	MY DAD'S
-1.919854	MY DAUGHTER
-1.919854	MY DOG
-1.919854	MY FAMILY
-1.919854	MY HUSBAND
-1.919854	MY IN
-1.919854	MY INCOME
-1.919854	MY LITTLE
-1.919854	MY MCKENZIE
-1.919854	MY NIECE
-1.919854	MY PARENTS
-1.919854	MY PARTNER'S
-1.919854	MY SICK
-1.919854	MY UNCLE
-1.919854	MY VACATIONS
-0.7157338	NEAR TAMPA
-0.7157338	NEAT </s>
-0.7157338	NEED YEAH
-0.7157338	NEUROLOGIST THAT
-1.414704	NEXT MAINTENANCE
-1.414704	NEXT REALTOR
-1.414704	NEXT THREE
-0.6769877	NEXT YEAR
-0.455139	NICE </s>
-1.192855	NICE INSIDE
-0.7157338	NIECE IS
-0.7157338	NIECES IN
-1.016764	NIGHT </s>
-1.016764	NIGHT I'LL
-0.7157338	NINE O'CLOCK
-1.012293	NO </s>
-2.058156	NO ACTUALLY
-2.058156	NO FROM
-1.012293	NO I
-2.058156	NO I'M
-2.058156	NO IDEA
-2.058156	NO ISSUES
-2.058156	NO JUST
-1.32044	NO NOT
-2.058156	NO OTHER
-2.058156	NO PROBLEM
-2.058156	NO REASON
-2.058156	NO WAY
-1.012293	NO WE
-2.058156	NO WELL
-1.192855	NORTH </s>
-1.192855	NORTH CAROLINA
-1.192855	NORTH UM
-0.7157338	NORTHEAST OR
-0.7157338	NORTHWEST OF
-2.058156	NOT </s>
-2.058156	NOT A
-2.058156	NOT ANYTHING
-2.058156	NOT DEPRESSED
-1.32044	NOT ENOUGH
-1.012293	NOT EXACTLY
-1.32044	NOT I
-2.058156	NOT SOME
-1.32044	NOT THAT
-2.058156	NOT THE
-2.058156	NOT THINK
-1.32044	NOT THIS
-2.058156	NOT TOO
-2.058156	NOT UNPACKED
-2.058156	NOT WASTE
-2.058156	NOT YOU
-1.016764	NOTHING PLANNED
-1.016764	NOTHING YET
-1.560832	NOW A
-1.560832	NOW I'M
-1.560832	NOW IT'S
-1.560832	NOW MOSTLY
-1.560832	NOW THAT
-1.560832	NOW THERE
-1.560832	NOW TO
-0.7157338	O'CLOCK IT'S
-0.7157338	OAK </s>
-0.7157338	OCCASIONAL TORNADO
-0.7157338	OCCASIONALLY BUT
-0.7157338	OCEAN IT
-2.077462	OF A
-2.077462	OF ABOUT
-2.077462	OF BEING
-2.077462	OF COMPANIES
-2.077462	OF CONTRACTORS
-2.077462	OF EACH
-2.077462	OF FUN
-2.077462	OF MONEY
-2.077462	OF MUSIC
-2.077462	OF MY
-2.077462	OF SLUSH
-2.077462	OF SOMETHING
-2.077462	OF STUFF
-2.077462	OF TAMPA
-1.031598	OF THE
-2.077462	OF THEM
-2.077462	OF THINGS
-2.077462	OF TRUCKLOADS
-2.077462	OF WANTED
-2.077462	OF WAWA
-2.077462	OF YET
-1.715734	OH FIVE
-0.6698703	OH I
-1.715734	OH IT
-1.715734	OH NO
-1.715734	OH NOT
-1.715734	OH OKAY
-1.715734	OH WELL
-1.715734	OH YEAH
-0.7157338	OHIO WHERE
-0.7157338	OK </s>
-0.4295781	OKAY </s>
-0.2790477	OLD </s>
-1.154109	ON A
-1.891825	ON ANTI
-1.891825	ON ANTIDEPRESSANTS
-1.891825	ON BILLY
-1.891825	ON BUT
-1.154109	ON DISABILITY
-1.891825	ON IT
-1.891825	ON MAKING
-1.154109	ON THAT
-0.8459616	ON THE
-1.794915	ONE BANK
-1.794915	ONE HUNDRED
-1.057199	ONE IS
-1.794915	ONE IT
-0.7490516	ONE OF
-1.794915	ONE POINT
-1.794915	ONE RELATOR
-1.794915	ONE TO
-1.794915	ONE YEAR
-1.016764	ONES BE
-1.016764	ONES I
-1.192855	ONLY ONES
-1.192855	ONLY THING
-1.192855	ONLY THREE
-0.7157338	ONTARIO </s>
-1.414704	OR GIFTS
-1.414704	OR HIRE
-1.414704	OR IF
-1.414704	OR NORTHWEST
-1.414704	OR ONE
-0.7157338	ORLANDO </s>
-1.317794	OTHER HOLIDAY
-1.317794	OTHER ONE
-1.317794	OTHER ONES
-1.317794	OTHER WEEKEND
-0.7157338	OUR COUCH
-1.618824	OUT </s>
-1.618824	OUT AND
-1.618824	OUT EVERYBODY
-1.618824	OUT OF
-1.618824	OUT THAT
-1.618824	OUT THE
-1.618824	OUT WALKING
-1.618824	OUT WERE
-1.493885	OVER IN
-0.6056694	OVER THE
-1.493885	OVER WITH
-1.016764	OVERPAID </s>
-1.016764	OVERPAID FOR
-1.016764	OVERWHELMING </s>
-1.016764	OVERWHELMING AS
-1.317794	PAID 300
-0.2719303	PAID CASH
-0.7157338	PALM BEACH
-0.7157338	PANDAS </s>
-0.7157338	PARENTS DIED
-0.7157338	PART NOT
-0.7157338	PARTNER'S A
-0.7157338	PARTY SO
-0.7157338	PAY YOU
-0.7157338	PEACEFUL INSIDE
-0.7157338	PEOPLE </s>
-0.7157338	PERHAPS AN
-0.7157338	PETE </s>
-0.7157338	PETOSKEY WHERE
-0.7157338	PETS AND
-0.7157338	PICK UP
-0.7157338	PICTURES </s>
-1.016764	PLACE NOT
-1.016764	PLACE THAT
-0.7157338	PLAN </s>
-1.016764	PLANNED IS
-1.016764	PLANNED YET
-1.414704	PLAY </s>
-1.414704	PLAY DATE
-1.414704	PLAY GOLF
-1.414704	PLAY IN
-1.414704	PLAY THERE
-0.7157338	PLAYED WITH
-1.016764	PLAYING A
-1.016764	PLAYING AT
-0.7157338	PLUMBER TO
-0.7157338	POINT SEVEN
-0.7157338	POOP AND
-0.7157338	POWER WASH
-0.7157338	POWERFUL HOSE
-0.7157338	PRETTY MUCH
-0.7157338	PRINCESS </s>
-1.493885	PROBABLY A
-1.493885	PROBABLY AND
-1.493885	PROBABLY CLEANING
-1.493885	PROBABLY SATURDAY
-1.493885	PROBABLY TAKE
-1.493885	PROBABLY THE
-1.016764	PROBLEM ACTUALLY
-1.016764	PROBLEM YOU
-0.7157338	PROFESSOR SO
-0.7157338	PROGRAMING SO
-1.016764	PROOF </s>
-1.016764	PROOF FROM
-0.7157338	PROPERTY MANGERS
-0.7157338	PROPHYLACTIC PURPOSES
-0.7157338	PULLS ME
-0.7157338	PURPOSES </s>
-0.7157338	PUT ME
-0.7157338	QUARTER INCH
-0.7157338	QUICK TRIP
-0.7157338	QUIZZES OVER
-0.7157338	RACE TRACK
-0.7157338	RAISED </s>
-0.7157338	RAY DONAVAN
-0.7157338	READ </s>
-0.7157338	READING A
-0.7157338	REAL BIG
-1.016764	REALLY NEAT
-1.016764	REALLY NICE
-0.7157338	REALTOR SAID
-0.7157338	REASON </s>
-0.7157338	RECEPTION </s>
-0.7157338	RECOMMEND IT
-0.7157338	RED PANDAS
-1.192855	REHEARSAL THAT
-1.192855	REHEARSAL THEN
-1.192855	REHEARSAL UM
-0.7157338	RELATIONSHIP HE'S
-1.192855	RELATOR ABOUT
-1.192855	RELATOR SAID
-1.192855	RELATOR THAT
-0.7157338	RELIGIOUS TYPE
-0.7157338	REMEMBER WHICH
-0.7157338	RESIDENTIAL </s>
-0.7157338	REUPHOLSTERING OUR
-0.7157338	RID OF
-0.7157338	RIDE BIKE
-0.756169	RIGHT </s>
-1.493885	RIGHT EXACTLY
-0.756169	RIGHT NOW
-1.493885	RIGHT RIGHT
-0.7157338	ROAD </s>
-0.7157338	ROCHESTER HILLS
-0.7157338	ROTATOR CUFF
-0.7157338	ROYAL OAK
-0.7157338	SAGINAW </s>
-0.6769877	SAID OH
-0.6769877	SAID THAT
-1.414704	SAID THERE'S
-0.7157338	SAINT PETE
-0.7157338	SALE </s>
-0.7157338	SALVATION ARMY
-0.7157338	SAME EXACT
-0.7157338	SARASOTA SO
-1.016764	SATURDAY MORNING
-1.016764	SATURDAY NIGHT
-0.7157338	SAW AN
-1.016764	SCHOOL </s>
-1.016764	SCHOOL AND
-1.414704	SEE A
-1.414704	SEE FAMILY
-1.414704	SEE MY
-1.414704	SEE THAT
-1.414704	SEE THEM
-0.7157338	SEEN THAT
-0.455139	SELL IT
-1.192855	SELL THE
-0.7157338	SELLING IT
-0.7157338	SEMESTER FOR
-1.317794	SEVEN </s>
-1.317794	SEVEN QUIZZES
-0.5800777	SEVEN SEVEN
-1.016764	SHE HAD
-1.016764	SHE WAS
-1.016764	SHOULD BE
-1.016764	SHOULD GO
-0.7157338	SHOULDER SURGERY
-0.7157338	SHOWER FOR
-1.016764	SHOWS </s>
-1.016764	SHOWS I
-0.7157338	SHUT DOWN
-0.2790477	SICK TIME
-0.7157338	SILLY AND
-0.7157338	SISTERS THAT
-0.7157338	SIT THERE
-0.7157338	SITUATION IT'S
-0.7157338	SLUSH YA'LL
-0.7157338	SMALL LIST
-1.647753	SO </s>
-2.479162	SO AN
-1.741446	SO AND
-2.479162	SO BETWEEN
-2.479162	SO BUSY
-2.479162	SO COOL
-2.479162	SO DEPRESSION
-2.479162	SO HE'LL
-2.479162	SO HE'S
-2.479162	SO HOLIDAYS
-1.590946	SO I
-2.479162	SO I'LL
-2.479162	SO I'M
-1.064458	SO IT
-1.647753	SO IT'S
-2.479162	SO ITS
-2.479162	SO MUCH
-2.479162	SO NO
-2.479162	SO NOW
-2.479162	SO THAT
-1.741446	SO THAT'S
-2.479162	SO THE
-2.479162	SO THEN
-1.433298	SO THEY
-2.479162	SO THIS
-2.479162	SO UM
-1.590946	SO WE
-2.479162	SO WE'LL
-2.479162	SO WE'RE
-1.741446	SO YEAH
-2.479162	SO YES
-1.192855	SOME FRIENDS
-1.192855	SOME PLACE
-1.192855	SOME RELIGIOUS
-1.016764	SOMEBODY </s>
-1.016764	SOMEBODY THAT
-0.7157338	SOMETHING RIGHT
-0.7157338	SOMETIME </s>
-0.7157338	SORRY </s>
-1.016764	SOUTH DO
-1.016764	SOUTH OF
-0.7157338	STARED AT
-1.016764	STARTED A
-1.016764	STARTED GOING
-0.2790477	STARTS AT
-0.7157338	STAY </s>
-1.016764	STILL MAINTENANCE
-1.016764	STILL RIDE
-1.016764	STRESS OF
-1.016764	STRESS THERE'S
-0.7157338	STRESSFUL </s>
-0.7157338	STUDY ERR
-0.5800777	STUFF </s>
-1.317794	STUFF AND
-1.317794	STUFF GOING
-0.7157338	STUMBLE OCCASIONALLY
-0.7157338	SUICIDE SO
-0.7157338	SUNDAY MORNING
-0.7157338	SUPPLIES AND
-1.414704	SURE AND
-1.414704	SURE HE
-1.414704	SURE WHERE
-1.414704	SURE YET
-1.414704	SURE YOU
-0.7157338	SURGERY </s>
-0.7157338	SWEET LITTLE
-0.7157338	SYMPTOMS YOU
-0.7157338	TAKE A
-0.7157338	TALK AND
-0.2790477	TALKED TO
-0.2790477	TAMPA </s>
-1.016764	TEACH AND
-1.016764	TEACH THREE
-1.192855	TEN AND
-1.192855	TEN DIFFERENT
-1.192855	TEN HOURS
-0.7157338	TERRIBLE </s>
-1.192855	TEST </s>
-1.192855	TEST FOR
-1.192855	TEST THAT
-1.161232	THAT </s>
-2.207096	THAT ARE
-2.207096	THAT BUT
-2.207096	THAT EVERYONE
-2.207096	THAT HERE
-1.375687	THAT I
-2.207096	THAT I'M
-1.469379	THAT IS
-2.207096	THAT JUST
-2.207096	THAT LIVE
-2.207096	THAT MONDAY
-2.207096	THAT MUCH
-2.207096	THAT ON
-2.207096	THAT SHE
-2.207096	THAT SO
-1.469379	THAT THEY
-2.207096	THAT WAS
-2.207096	THAT WEREN'T
-2.207096	THAT WILL
-2.207096	THAT YEAH
-2.207096	THAT YOU'RE
-1.493885	THAT'S HOLIDAY
-1.493885	THAT'S KIND
-1.493885	THAT'S NOT
-1.493885	THAT'S THAT'S
-1.493885	THAT'S THE
-1.493885	THAT'S YEAH
-2.590795	THE ANIMALS
-2.590795	THE BANK
-2.590795	THE BASEMENT
-2.590795	THE BEAVERS
-2.590795	THE BIG
-2.590795	THE CREDIT
-1.853079	THE DEPRESSION
-1.544932	THE DETROIT
-2.590795	THE DISEASE
-2.590795	THE DNA
-1.544932	THE DRAINS
-2.590795	THE ELEMENTARY
-2.590795	THE EQUITY
-2.590795	THE EVEN
-2.590795	THE FAMILY
-2.590795	THE FIREWORKS
-2.590795	THE FORMULA
-2.590795	THE FOUR
-2.590795	THE GENE
-1.853079	THE HD
-1.176091	THE HOUSE
-2.590795	THE HURRICANE
-2.590795	THE I
-2.590795	THE INHERITANCE
-2.590795	THE LAKE
-2.590795	THE MAINTENANCE
-2.590795	THE MIDDLE
-2.590795	THE MOBILITY
-2.590795	THE MONEY
-2.590795	THE MOST
-2.590795	THE MOUNTAINS
-2.590795	THE NEUROLOGIST
-1.544932	THE NEXT
-2.590795	THE NIGHT
-2.590795	THE OCEAN
-1.853079	THE ONLY
-1.853079	THE OTHER
-2.590795	THE PETS
-2.590795	THE PLACE
-2.590795	THE PLUMBER
-2.590795	THE POWERFUL
-2.590795	THE RACE
-2.590795	THE RED
-2.590795	THE RELATOR
-2.590795	THE ROAD
-2.590795	THE SAME
-2.590795	THE SEMESTER
-2.590795	THE SHOWS
-2.590795	THE SO
-2.590795	THE STRESS
-2.590795	THE SUPPLIES
-2.590795	THE THE
-2.590795	THE TWO
-1.853079	THE WAY
-2.590795	THE WEDDING
-1.544932	THE WEEKEND
-2.590795	THE YOU
-2.590795	THE ZOO
-1.016764	THEIR JEWISH
-1.016764	THEIR MONEY
-1.317794	THEM </s>
-1.317794	THEM AT
-1.317794	THEM BACK
-1.317794	THEM EVERY
-1.794915	THEN </s>
-1.794915	THEN HIGH
-0.7490516	THEN I
-1.794915	THEN MONDAY
-1.794915	THEN PROBABLY
-1.794915	THEN THE
-1.794915	THEN TUES
-1.794915	THEN TUESDAY
-1.794915	THEN UM
-1.794915	THEN WE
-0.7157338	THERAPIST AT
-0.8159983	THERE </s>
-1.861862	THERE AGAIN
-1.124146	THERE AND
-1.861862	THERE BORING
-1.861862	THERE IS
-1.861862	THERE IT
-1.861862	THERE JUST
-1.124146	THERE LIKE
-1.861862	THERE NOT
-1.861862	THERE SOMETIME
-1.560832	THERE'S A
-0.8231158	THERE'S LIKE
-1.560832	THERE'S NO
-1.560832	THERE'S PROBABLY
-1.560832	THERE'S STILL
-1.560832	THERE'S TOO
-1.994487	THEY ALMOST
-1.106272	THEY ARE
-1.256771	THEY BASED
-1.994487	THEY DECIDE
-1.994487	THEY DECIDED
-1.994487	THEY DO
-1.256771	THEY HAD
-1.994487	THEY LIVE
-1.994487	THEY SAID
-1.994487	THEY TRUST
-1.994487	THEY WANT
-1.256771	THEY WERE
-1.994487	THEY WON
-1.016764	THEY'RE AMAZING
-1.016764	THEY'RE SO
-1.016764	THING </s>
-1.016764	THING I
-1.192855	THINGS </s>
-1.192855	THINGS FOR
-1.192855	THINGS I
-1.493885	THINK AWAY
-1.493885	THINK IT
-1.493885	THINK SO
-1.493885	THINK THAT
-1.493885	THINK WE
-1.493885	THINK YOU'RE
-0.7157338	THIRTEEN AND
-1.493885	THIS CLASS
-1.493885	THIS FALLS
-0.6056694	THIS WEEKEND
-1.192855	THOUGH HE
-1.192855	THOUGH HOPEFULLY
-1.192855	THOUGH I
-0.7157338	THOUSAND DOLLARS
-1.192855	THREE CLASSES
-1.192855	THREE DAYS
-1.192855	THREE MONTHS
-1.192855	THROUGH AND
-1.192855	THROUGH SOMEBODY
-1.192855	THROUGH THERE
-0.5800777	TIME </s>
-0.5800777	TIME SO
-0.7157338	TIMES A
-1.351112	TO </s>
-1.659259	TO A
-2.396975	TO ADRIAN
-1.508759	TO BE
-2.396975	TO CANADA
-1.659259	TO COME
-2.396975	TO DRIVE
-2.396975	TO EVICT
-2.396975	TO FIX
-2.396975	TO FLORIDA
-2.396975	TO FORMULATE
-1.508759	TO GET
-1.351112	TO GO
-2.396975	TO HAVE
-2.396975	TO IT
-1.659259	TO MAKE
-1.659259	TO ME
-2.396975	TO MY
-2.396975	TO PETOSKEY
-2.396975	TO PICK
-2.396975	TO PLAY
-2.396975	TO PUT
-1.351112	TO SEE
-2.396975	TO SELL
-1.508759	TO THE
-2.396975	TO TO
-2.396975	TO USE
-2.396975	TO WALK
-2.396975	TO WHO
-0.7157338	TOLD </s>
-0.7157338	TOMORROW AND
-1.016764	TONIGHT </s>
-1.016764	TONIGHT TOMORROW
-1.317794	TOO BADLY
-1.317794	TOO HOT
-1.317794	TOO MUCH
-1.317794	TOO STRESS
-0.7157338	TOOK PICTURES
-0.7157338	TORE MY
-0.7157338	TORNADO </s>
-1.016764	TRACK </s>
-1.016764	TRACK OVER
-0.7157338	TREATMENT FACILITY
-1.016764	TRIP SO
-1.016764	TRIP TWO
-0.7157338	TROUBLE IT'S
-1.192855	TRUCKLOADS AND
-1.192855	TRUCKLOADS OF
-1.192855	TRUCKLOADS TRUCKLOADS
-0.7157338	TRUST </s>
-0.1469916	TRYING TO
-0.7157338	TUES THEN
-1.016764	TUESDAY I
-1.016764	TUESDAY THEN
-0.7157338	TURNED THIRTEEN
-0.7157338	TV SHOWS
-0.7157338	TWELVE </s>
-0.8231158	TWO </s>
-1.560832	TWO GIRLS
-1.560832	TWO GRAND
-1.560832	TWO OUT
-1.560832	TWO SISTERS
-1.560832	TWO THOUSAND
-0.7157338	TYPE THING
-1.493885	UH DOING
-1.493885	UH EXERCISE
-1.493885	UH I
-1.493885	UH NOTHING
-1.493885	UH SARASOTA
-1.493885	UH VERY
-0.7157338	UHH HE'LL
-1.757127	UM BECAUSE
-1.757127	UM BUT
-1.757127	UM GOT
-1.757127	UM HE
-1.757127	UM HE'S
-1.757127	UM JUST
-1.757127	UM SATURDAY
-1.757127	UM WENT
-1.757127	UM YEAH
-1.757127	UM YES
-1.757127	UM YOU
-1.016764	UMM NO
-1.016764	UMM THE
-0.7157338	UNCLE INVITED
-0.7157338	UNDER MY
-0.7157338	UNION WE
-1.016764	UNPACKED EVERYTHING
-1.016764	UNPACKED YET
-1.618824	UP </s>
-1.618824	UP AND
-1.618824	UP BECAUSE
-1.618824	UP COMING
-1.618824	UP NORTH
-1.618824	UP SOME
-1.618824	UP TO
-1.618824	UP WALKING
-0.7157338	USE MY
-0.7157338	USED TO
-0.7157338	VACATIONS DAYS
-0.7157338	VARIETY </s>
-1.493885	VERY BUSY
-1.493885	VERY GREAT
-1.493885	VERY HELPFUL
-1.493885	VERY SWEET
-0.756169	VERY VERY
-0.7157338	VISITED WITH
-0.7157338	VP IT
-0.7157338	WABATONGUSHI </s>
-0.7157338	WAL MART
-1.016764	WALK AROUND
-1.016764	WALK WITHOUT
-0.7157338	WALKED AROUND
-0.2790477	WALKING AROUND
-0.7157338	WANT TO
-0.2790477	WANTED TO
-0.2790477	WANTS TO
-0.7157338	WARNING </s>
-1.300237	WAS </s>
-2.037953	WAS A
-2.037953	WAS AND
-2.037953	WAS EMPTIED
-1.300237	WAS FUN
-2.037953	WAS GETTING
-2.037953	WAS IT'S
-2.037953	WAS KIND
-2.037953	WAS LOTS
-2.037953	WAS ONE
-2.037953	WAS OUT
-2.037953	WAS READING
-1.300237	WAS REALLY
-2.037953	WAS THE
-2.037953	WAS TOO
-1.300237	WAS TWO
-2.037953	WAS UP
-0.7157338	WASH THE
-1.016764	WASTE A
-1.016764	WASTE THEIR
-0.7157338	WAWA ONTARIO
-1.414704	WAY IT
-1.414704	WAY MORE
-1.414704	WAY NORTH
-1.414704	WAY THE
-1.414704	WAY YOU'RE
-2.162892	WE ALSO
-1.117028	WE ARE
-2.162892	WE COULD
-2.162892	WE COULDN'T
-2.162892	WE DID
-2.162892	WE DO
-2.162892	WE DROVE
-2.162892	WE GOT
-1.274676	WE HAD
-2.162892	WE HAVE
-2.162892	WE JUST
-2.162892	WE KIND
-2.162892	WE MET
-2.162892	WE SAW
-2.162892	WE STARTED
-2.162892	WE TOOK
-2.162892	WE WALKED
-1.117028	WE WENT
-1.425176	WE WERE
-2.162892	WE WILL
-0.7157338	WE'LL JUST
-1.016764	WE'RE GOOD
-1.016764	WE'RE WORKING
-1.016764	WE'VE BEEN
-1.016764	WE'VE HAD
-1.414704	WEDDING </s>
-1.414704	WEDDING AND
-1.414704	WEDDING I
-1.414704	WEDDING IN
-1.414704	WEDDING RECEPTION
-1.192855	WEEK </s>
-0.455139	WEEK AND
-0.2343914	WEEKEND </s>
-1.669976	WEEKEND PROBABLY
-1.669976	WEEKEND SO
-1.669976	WEEKEND UH
-0.7157338	WEEKENDS BEFORE
-0.7157338	WEIRD SITUATION
-1.618824	WELL AND
-0.8811077	WELL I
-0.8811077	WELL I'M
-1.618824	WELL IT
-1.618824	WELL IT'S
-1.618824	WELL THE
-1.560832	WENT DOWN
-1.560832	WENT FROM
-1.560832	WENT THROUGH
-0.6726161	WENT TO
-1.560832	WERE ALL
-1.560832	WERE ANTICIPATING
-1.560832	WERE OUT
-1.560832	WERE THE
-1.560832	WERE THERE
-1.560832	WERE TURNED
-1.560832	WERE UP
-1.016764	WEREN'T IN
-1.016764	WEREN'T OUT
-1.192855	WHAT ELSE
-1.192855	WHAT I'VE
-1.192855	WHAT YOU
-0.7157338	WHATEVER YEAH
-0.7157338	WHEELCHAIR ANYWAY
-0.6769877	WHEN I
-1.414704	WHEN THERE'S
-1.414704	WHEN WE
-1.414704	WHEN YOUR
-0.7157338	WHENEVER YOU
-1.618824	WHERE DID
-1.618824	WHERE HE
-1.618824	WHERE I
-1.618824	WHERE I'M
-1.618824	WHERE IT
-1.618824	WHERE THAT
-1.618824	WHERE WE
-1.618824	WHERE YOU
-0.7157338	WHICH ONE
-1.016764	WHILE I
-1.016764	WHILE WE
-0.7157338	WHITMORE LAKE
-1.192855	WHO IS
-1.192855	WHO SAID
-1.192855	WHO WOULD
-0.7157338	WHOLE BUNCH
-0.7157338	WHY ARE
-1.016764	WILL PROBABLY
-1.016764	WILL STAY
-1.715734	WITH FRIENDS
-1.715734	WITH HER
-1.715734	WITH KIDS
-1.715734	WITH MY
-1.715734	WITH POOP
-1.715734	WITH THAT
-0.8275181	WITH THE
-0.7157338	WITHOUT FALLING
-0.7157338	WON </s>
-0.7157338	WON'T BE
-1.016764	WORK BUT
-1.016764	WORK PROBABLY
-1.192855	WORKING </s>
-1.192855	WORKING ON
-1.192855	WORKING TEN
-0.7157338	WORKS </s>
-0.7157338	WOULD DO
-0.7157338	WRITING A
-0.7157338	YA'LL ARE
-0.3357921	YEAH </s>
-2.306798	YEAH ABSOLUTELY
-1.569082	YEAH AND
-2.306798	YEAH I'M
-2.306798	YEAH IN
-2.306798	YEAH IT
-1.569082	YEAH IT'S
-2.306798	YEAH NO
-1.418583	YEAH SO
-2.306798	YEAH THAT
-2.306798	YEAH THE
-2.306798	YEAH THERE'S
-1.260935	YEAH WE
-2.306798	YEAH WELL
-2.306798	YEAH YEP
-0.4480216	YEAR </s>
-0.756169	YEAR AGO
-1.493885	YEAR AND
-0.7157338	YEARS OLD
-0.7157338	YEP </s>
-0.3357921	YES </s>
-2.130707	YES IF
-1.084844	YES IT
-2.130707	YES IT'S
-1.392991	YES MY
-2.130707	YES OH
-2.130707	YES THERE
-2.130707	YES THEY'RE
-2.130707	YES TWO
-2.130707	YES YEAH
-1.392991	YES YES
-0.6056694	YET </s>
-1.493885	YET BUT
-1.493885	YET TO
-2.192855	YOU ALL
-2.192855	YOU AND
-2.192855	YOU BACK
-2.192855	YOU CAN
-1.455139	YOU COULD
-2.192855	YOU DIDN'T
-2.192855	YOU DON'T
-2.192855	YOU GET
-2.192855	YOU GUYS
-1.455139	YOU HAVE
-2.192855	YOU HERE
-2.192855	YOU JUST
-0.4771213	YOU KNOW
-2.192855	YOU MAY
-2.192855	YOU MOVE
-2.192855	YOU PAID
-2.192855	YOU SHOULD
-2.192855	YOU WEREN'T
-2.192855	YOU WON'T
-1.192855	YOU'RE DEPRESSED
-1.192855	YOU'RE GOING
-1.192855	YOU'RE NOT
-1.016764	YOUR GROWN
-1.016764	YOUR INCOME
-1.192855	YUP </s>
-1.192855	YUP IT
-1.192855	YUP NO
-1.016764	ZOO </s>
-1.016764	ZOO AND

\end\
