
\data\
ngram 1=683
ngram 2=1921

\1-grams:
-3.415808	17	-0.07450251
-3.415808	18	-0.04263639
-2.938686	300	-0.02034045
-3.415808	6	-0.08943286
-3.415808	600	-0.08943286
-3.415808	96	-0.08943286
-3.415808	96TH	-0.08943286
-0.9892965	</s>
-99	<s>	-0.2343598
-3.114778	<unk>	-0.08440042
-1.534994	A	-0.1373072
-2.813748	ABOUT	-0.08826382
-3.415808	ABSOLUTELY	-0.04263639
-3.415808	ACCESSIBLE	-0.07450251
-2.716838	ACTUALLY	-0.1538243
-3.415808	ADRIAN	-0.08826383
-3.415808	AFTER	-0.08876523
-3.415808	AGAIN	-0.0875944
-2.938686	AGO	-0.08169243
-3.415808	ALCOHOL	-0.08943286
-2.512718	ALL	-0.1468266
-3.114778	ALMOST	-0.08926604
-3.415808	ALONG	-0.07708403
-2.938686	ALSO	-0.08625244
-3.415808	ALWAYS	-0.08859816
-3.114778	AM	-0.07588123
-3.114778	AMAZING	-0.03683947
-2.813748	AN	-0.199525
-1.466418	AND	-0.04194389
-3.415808	ANIMALS	-0.08843103
-3.415808	ANOTHER	-0.08909918
-3.415808	ANTI	-0.08943286
-3.415808	ANTICIPATING	-0.08943286
-3.415808	ANTIDEPRESSANTS	-0.08725929
-3.114778	ANY	-0.08876522
-3.415808	ANYONE	-0.08909918
-3.415808	ANYTHING	-0.08591629
-3.415808	ANYWAY	-0.04263639
-3.415808	APPEAR	-0.08909918
-3.415808	APPOINTMENTS	-0.04263639
-2.415808	ARE	-0.1074234
-3.415808	AREA	-0.04263639
-3.415808	ARMY	-0.04263639
-2.716838	AROUND	-0.1478217
-3.114778	AS	-0.08203184
-2.301864	AT	-0.1048818
-3.415808	AUDITING	-0.08943286
-3.415808	AUNT	-0.08909918
-3.114778	AWAY	-0.08524322
-2.637656	BACK	-0.201938
-3.415808	BAD	-0.08943286
-3.415808	BADLY	-0.04263639
-3.114778	BANK	-0.07415715
-2.938686	BASED	-0.2343965
-3.415808	BASEMENT	-0.08440042
-3.415808	BASICALLY	-0.08692393
-3.415808	BATH	-0.07450251
-3.415808	BATTLE	-0.08943286
-2.185359	BE	-0.07688142
-3.415808	BEACH	-0.04263639
-3.415808	BEAVERS	-0.04263639
-2.415808	BECAUSE	-0.3365142
-3.415808	BED	-0.08943286
-2.813748	BEEN	-0.1970132
-2.938686	BEFORE	-0.02248608
-2.716838	BEING	-0.2437408
-3.415808	BELONGS	-0.04263639
-3.114778	BETWEEN	-0.3364241
-3.114778	BEYOND	-0.03665118
-2.716838	BIG	-0.08876521
-3.415808	BIKE	-0.04263639
-3.415808	BILLY	-0.08943286
-3.415808	BIRTHDAY	-0.08926605
-3.415808	BIT	-0.08574812
-3.415808	BLAST	-0.082371
-3.415808	BOOK	-0.08692393
-3.415808	BORING	-0.08943286
-3.415808	BORN	-0.07450251
-3.415808	BOTHER	-0.04263639
-3.415808	BRASS	-0.08943286
-3.415808	BRING	-0.08893223
-2.938686	BUNCH	-0.4269401
-3.114778	BUSY	-0.08423166
-2.05408	BUT	-0.08322223
-3.415808	BUYING	-0.08909918
-3.114778	CALLED	-0.08742687
-2.512718	CAN	-0.0313456
-3.415808	CAN'T	-0.08440042
-3.415808	CANADA	-0.08893223
-3.415808	CAROLINA	-0.08826383
-2.938686	CASH	-0.07294622
-3.415808	CATCH	-0.08843103
-2.813748	CAUSE	-0.06876859
-3.415808	CENTERVILLE	-0.08943286
-3.415808	CENTRAL	-0.0875944
-3.415808	CHAUFFEUR	-0.08926605
-3.415808	CLASS	-0.04263639
-3.415808	CLASSES	-0.07450251
-3.415808	CLEANED	-0.08826383
-3.415808	CLEANING	-0.04263639
-2.938686	COLLEGE	-0.1805276
-3.114778	COME	-0.08406284
-3.114778	COMING	-0.08826382
-3.415808	COMMERCIAL	-0.082371
-3.415808	COMMITTED	-0.08943286
-3.415808	COMMUNITY	-0.08909918
-3.415808	COMPANIES	-0.08423167
-3.415808	COMPLETELY	-0.08876523
-3.415808	COMPUTER	-0.08943286
-3.415808	COMPUTERS	-0.07965028
-3.114778	CONE	-0.3019765
-3.415808	CONTRACTORS	-0.07450251
-3.415808	COOL	-0.04263639
-3.415808	COUCH	-0.08859816
-2.813748	COULD	-0.08033205
-3.114778	COULDN'T	-0.08876522
-3.114778	COUPLE	-0.08843102
-3.415808	COURSE	-0.08541159
-3.415808	CRAZY	-0.04263639
-3.415808	CREDIT	-0.08943286
-3.415808	CREEK	-0.04263639
-3.415808	CRYSTAL	-0.04263639
-3.415808	CUFF	-0.08321775
-3.415808	CURRENTLY	-0.08742688
-3.415808	DAD'S	-0.08909918
-3.415808	DATE	-0.08574812
-3.415808	DAUGHTER	-0.04263639
-3.114778	DAY	-0.040028
-2.637656	DAYS	-0.09183399
-3.415808	DEAL	-0.08591629
-3.415808	DEALING	-0.08826383
-3.415808	DECIDE	-0.0864204
-3.415808	DECIDED	-0.08692393
-2.938686	DEFINITELY	-0.02770812
-3.415808	DELTA	-0.08909918
-3.415808	DEPARTMENT	-0.04263639
-3.415808	DEPRESSANTS	-0.08792924
-2.938686	DEPRESSED	-0.04170663
-2.938686	DEPRESSION	-0.07656896
-2.813748	DETROIT	-0.1524855
-2.938686	DID	-0.07588124
-3.114778	DIDN'T	-0.08926604
-3.415808	DIED	-0.07450251
-3.415808	DIFFERENCE	-0.08926605
-3.114778	DIFFERENT	-0.08893222
-3.415808	DIRT	-0.08926605
-3.114778	DISABILITY	-0.3019765
-3.415808	DISASTER	-0.08943286
-3.415808	DISEASE	-0.08943286
-3.415808	DNA	-0.08943286
-2.57071	DO	-0.08336657
-3.415808	DOCTORS	-0.08943286
-3.415808	DOES	-0.04263639
-3.415808	DOESN'T	-0.08943286
-3.415808	DOG	-0.07450251
-2.938686	DOING	-0.07225274
-3.415808	DOLLARS	-0.08203185
-2.26968	DON'T	-0.3158226
-3.415808	DONAVAN	-0.04263639
-2.716838	DOWN	-0.1172613
-3.114778	DOWNTOWN	-0.08859815
-2.938686	DRAINS	-0.07415716
-3.114778	DRIVE	-0.08759439
-3.114778	DRIVING	-0.08826382
-3.415808	DROVE	-0.08826383
-3.415808	DRUG	-0.07450251
-3.415808	EACH	-0.04263639
-2.938686	EIGHT	-0.08658832
-3.114778	ELEMENTARY	-0.07415715
-3.415808	ELSE	-0.08909918
-3.415808	EM	-0.08574812
-3.415808	EMBARRASSING	-0.04263639
-3.415808	EMPTIED	-0.08725929
-3.415808	ENDED	-0.08843103
-3.114778	ENOUGH	-0.07277294
-3.415808	EQUITY	-0.08692393
-3.415808	ERR	-0.08909918
-3.415808	ERUPTED	-0.08826383
-2.813748	EVEN	-0.1981872
-3.415808	EVER	-0.08943286
-3.114778	EVERY	-0.08876522
-3.415808	EVERYBODY	-0.08625243
-3.415808	EVERYONE	-0.08943286
-3.114778	EVERYTHING	-0.07828349
-3.415808	EVERYWHERE	-0.08574812
-3.415808	EVICT	-0.08943286
-3.415808	EXACT	-0.08943286
-2.813748	EXACTLY	-0.3063945
-3.415808	EXCITED	-0.04263639
-3.415808	EXCITING	-0.04263639
-3.415808	EXERCISE	-0.04263639
-3.415808	FACILITY	-0.04263639
-3.415808	FAIRLY	-0.08943286
-3.415808	FALLING	-0.08859816
-3.415808	FALLS	-0.08943286
-3.114778	FAMILY	-0.03909263
-3.415808	FAN	-0.08943286
-3.415808	FANCY	-0.08943286
-3.415808	FARM	-0.08541159
-3.415808	FEEL	-0.08423167
-3.415808	FEES	-0.08909918
-3.114778	FESTIVAL	-0.0724262
-3.415808	FIELD	-0.08203185
-3.415808	FIFTY	-0.08876523
-3.415808	FIND	-0.08943286
-2.938686	FIRST	-0.08541159
-3.415808	FISHING	-0.08926605
-3.415808	FIVE	-0.04263639
-3.415808	FIX	-0.082371
-2.938686	FLORIDA	-0.03286812
-3.415808	FOOD	-0.08876523
-2.26968	FOR	-0.1320554
-3.415808	FORGOT	-0.08423167
-3.415808	FORMULA	-0.07450251
-3.415808	FORMULATE	-0.07674071
-3.415808	FORT	-0.08943286
-3.415808	FORTY	-0.04263639
-3.415808	FOUND	-0.08826383
-3.415808	FOUR	-0.08859816
-3.415808	FRESHMAN	-0.08541159
-3.114778	FRIDAY	-0.07432986
-3.415808	FRIENDS	-0.0875944
-2.336627	FROM	-0.2443427
-2.637656	FUN	-0.1662022
-3.415808	FUNCTIONAL	-0.08943286
-3.415808	GAME	-0.04263639
-3.415808	GARAGE	-0.08943286
-3.415808	GAY	-0.08943286
-3.415808	GENE	-0.04263639
-2.301864	GET	-0.1758984
-3.415808	GETS	-0.08943286
-2.938686	GETTING	-0.2309715
-3.415808	GIFTS	-0.04263639
-3.415808	GIRLS	-0.04263639
-3.114778	GIVE	-0.07570913
-3.415808	GIVING	-0.08893223
-2.57071	GO	-0.07259962
-3.415808	GOES	-0.04263639
-2.461565	GOING	-1.033551
-3.114778	GOLF	-0.04245059
-3.415808	GONE	-0.08826383
-2.637656	GOOD	-0.1775718
-2.716838	GOT	-0.0729462
-3.415808	GRADUATING	-0.08876523
-3.415808	GRAHAM	-0.04263639
-3.415808	GRAND	-0.04263639
-2.813748	GREAT	-0.04133414
-3.415808	GROWN	-0.08203185
-3.415808	GUYS	-0.08943286
-2.336627	HAD	-0.3055797
-3.114778	HALF	-0.08675615
-3.415808	HANDICAP	-0.08943286
-3.415808	HAPPENS	-0.08893223
-3.415808	HAPPY	-0.04263639
-3.114778	HARD	-0.0815226
-3.415808	HAS	-0.07708403
-2.093588	HAVE	-0.2709087
-3.415808	HAVEN'T	-0.08893223
-3.114778	HAVING	-0.3364241
-3.114778	HD	-0.02578133
-2.336627	HE	-0.1542419
-3.114778	HE'LL	-0.3460962
-2.716838	HE'S	-0.1503034
-3.415808	HELP	-0.07450251
-3.415808	HELPFUL	-0.04263639
-3.114778	HER	-0.08859815
-2.938686	HERE	-0.197011
-3.415808	HIGH	-0.08926605
-3.415808	HILLS	-0.04263639
-3.415808	HIRE	-0.08926605
-2.938686	HISTORY	-0.1932767
-3.114778	HOLIDAY	-0.08186216
-3.415808	HOLIDAYS	-0.08725929
-3.114778	HOME	-0.08524322
-3.415808	HONEY	-0.08943286
-3.114778	HOPEFULLY	-0.07930898
-3.415808	HOSE	-0.07450251
-3.415808	HOT	-0.04263639
-3.114778	HOUR	-0.04226471
-3.415808	HOURS	-0.07674071
-2.637656	HOUSE	-0.07492549
-3.415808	HOUSES	-0.08943286
-3.415808	HOW	-0.08203185
-3.415808	HOWEVER	-0.04263639
-3.415808	HUNDRED	-0.04263639
-3.415808	HURRICANE	-0.04263639
-3.415808	HUSBAND	-0.08675615
-1.471325	I	-0.3884541
-3.415808	I'D	-0.08943286
-2.938686	I'LL	-0.2403262
-2.05408	I'M	-0.1492717
-3.114778	I'VE	-0.3482724
-3.114778	IDEA	-0.0411478
-2.512718	IF	-0.2005373
-3.415808	IMMEDIATELY	-0.08859816
-2.017868	IN	-0.07398303
-3.415808	INAUDIBLE	-0.04263639
-3.415808	INCH	-0.08574812
-3.114778	INCOME	-0.3460962
-3.415808	INDIVIDUAL	-0.04263639
-3.415808	INHERITANCE	-0.07450251
-3.114778	INSIDE	-0.06419703
-3.415808	INSTRUMENTS	-0.04263639
-3.415808	INTO	-0.08943286
-3.415808	INVITED	-0.08859816
-2.185359	IS	-0.08804487
-3.415808	ISN'T	-0.08943286
-3.415808	ISSUE	-0.08943286
-2.938686	ISSUES	-0.2271725
-1.782339	IT	-0.2193699
-3.415808	IT'LL	-0.08675615
-1.836024	IT'S	-0.16902
-3.114778	ITS	-0.08893222
-3.114778	JAZZ	-0.3486062
-3.114778	JEFF	-0.3486062
-3.415808	JEWISH	-0.07965028
-3.415808	JOANNE'S	-0.07450251
-3.415808	JOB	-0.08423167
-3.114778	JUNE	-0.04207876
-3.415808	JUNIOR	-0.04263639
-2.26968	JUST	-0.04207877
-2.938686	KIND	-0.4269401
-2.05408	KNOW	-0.0673902
-3.415808	LADY	-0.04263639
-2.938686	LAKE	-0.04189274
-3.114778	LANDLORD	-0.3425578
-2.938686	LAST	-0.08859817
-3.415808	LAUDERDALE'S	-0.08591629
-3.415808	LAWS'	-0.08943286
-3.415808	LEAGUE	-0.08541159
-3.415808	LECTURE	-0.07450251
-3.415808	LEFT	-0.08826383
-3.415808	LEGAL	-0.08943286
-3.415808	LESS	-0.08591629
-2.073385	LIKE	-0.07692663
-3.415808	LIONS	-0.08943286
-3.415808	LIONS'	-0.08943286
-3.415808	LIST	-0.08574812
-2.938686	LITTLE	-0.08909918
-3.114778	LIVE	-0.08524322
-2.813748	LOAN	-0.0845691
-3.114778	LOANS	-0.0411478
-3.415808	LOCATION	-0.0746751
-3.415808	LONG	-0.08893223
-3.415808	LOOK	-0.08742688
-3.114778	LOOKED	-0.08423166
-3.415808	LOST	-0.08909918
-3.415808	LOT	-0.08574812
-3.415808	LOTS	-0.08574812
-3.415808	LOVE	-0.082371
-3.114778	LOVES	-0.08220145
-2.938686	MAINTENANCE	-0.2436785
-3.114778	MAKE	-0.08826382
-3.415808	MAKING	-0.082371
-3.415808	MANGERS	-0.07450251
-2.938686	MARRIED	-0.1953345
-3.415808	MART	-0.08625243
-3.415808	MAY	-0.08591629
-3.114778	MAYBE	-0.08456911
-3.415808	MCKENZIE	-0.08926605
-2.637656	ME	-0.05814529
-3.415808	MEAN	-0.08423167
-3.415808	MEMORIAL	-0.08926605
-3.415808	MET	-0.08742688
-3.415808	MHM	-0.08524323
-2.716838	MHMM	-0.348658
-3.114778	MIDDLE	-0.03834287
-3.114778	MIGHT	-0.3460962
-3.415808	MILES	-0.0875944
-3.415808	MILLER	-0.07450251
-3.415808	MOBILITY	-0.07450251
-3.415808	MODERATELY	-0.08943286
-2.938686	MONDAY	-0.04189274
-2.813748	MONEY	-0.03551971
-3.415808	MONTH	-0.082371
-3.415808	MONTHS	-0.08926605
-3.415808	MOON	-0.07450251
-3.114778	MORE	-0.08574811
-2.938686	MORNING	-0.2254346
-3.415808	MOST	-0.08859816
-3.415808	MOSTLY	-0.08541159
-3.415808	MOUNTAINS	-0.08203185
-3.415808	MOVE	-0.0875944
-3.415808	MOVED	-0.08541159
-3.415808	MOVIE	-0.08926605
-3.415808	MOVING	-0.08859816
-2.813748	MUCH	-0.06684034
-3.114778	MUSIC	-0.08876522
-3.415808	MUSICIAN	-0.08574812
-2.211688	MY	-0.03438529
-3.415808	NEAR	-0.08926605
-3.415808	NEAT	-0.04263639
-3.415808	NEED	-0.0827099
-3.415808	NEUROLOGIST	-0.08423167
-3.415808	NEW	-0.08943286
-2.716838	NEXT	-0.1735333
-2.938686	NICE	-0.197011
-3.415808	NIECE	-0.08675615
-3.415808	NIECES	-0.08541159
-3.114778	NIGHT	-0.04207876
-3.415808	NINE	-0.08943286
-2.093588	NO	-0.1432686
-3.114778	NORTH	-0.04245059
-3.415808	NORTHEAST	-0.08876523
-3.415808	NORTHWEST	-0.08574812
-2.073385	NOT	-0.09356584
-3.114778	NOTHING	-0.08826382
-2.512718	NOW	-0.1014239
-3.415808	O'CLOCK	-0.08321775
-3.415808	OAK	-0.04263639
-3.415808	OCCASIONAL	-0.08943286
-3.415808	OCCASIONALLY	-0.08574812
-3.415808	OCEAN	-0.082371
-2.05408	OF	-0.08380021
-3.415808	OFF	-0.07965028
-2.374415	OH	-0.163054
-3.415808	OHIO	-0.08826383
-3.415808	OK	-0.04263639
-2.716838	OKAY	-1.346709
-3.114778	OLD	-0.3019765
-2.211688	ON	-0.1815479
-2.336627	ONE	-0.1683437
-3.114778	ONES	-0.07173188
-2.938686	ONLY	-0.08843104
-3.415808	ONTARIO	-0.04263639
-2.716838	OR	-0.08574811
-3.415808	ORLANDO	-0.04263639
-2.813748	OTHER	-0.08541157
-3.415808	OUR	-0.08943286
-2.512718	OUT	0.001925662
-2.637656	OVER	-0.1729757
-3.114778	OVERPAID	-0.040028
-3.114778	OVERWHELMING	-0.04226471
-2.813748	PAID	-0.3163671
-3.415808	PALM	-0.08943286
-3.415808	PANDAS	-0.04263639
-3.415808	PARENTS	-0.08943286
-3.415808	PART	-0.08591629
-3.415808	PARTNER'S	-0.07674071
-3.415808	PARTY	-0.07965028
-3.415808	PAY	-0.08440042
-3.415808	PEACEFUL	-0.08926605
-3.415808	PEOPLE	-0.04263639
-3.415808	PERHAPS	-0.08893223
-3.415808	PETE	-0.04263639
-3.415808	PETOSKEY	-0.08826383
-3.415808	PICK	-0.08843103
-3.415808	PICTURES	-0.04263639
-3.114778	PLACE	-0.08050233
-3.415808	PLAN	-0.04263639
-3.114778	PLANNED	-0.08574811
-2.813748	PLAY	-0.08254047
-3.114778	PLAYING	-0.07450251
-3.415808	PLUMBER	-0.08203185
-3.415808	POINT	-0.08893223
-3.415808	POOP	-0.07450251
-3.415808	POWER	-0.08943286
-3.415808	POWERFUL	-0.08943286
-3.415808	PRETTY	-0.08893223
-3.415808	PRINCESS	-0.04263639
-2.637656	PROBABLY	-0.04688786
-3.114778	PROBLEM	-0.08355598
-3.415808	PROFESSOR	-0.07965028
-3.415808	PROGRAMING	-0.07965028
-3.114778	PROOF	-0.04040159
-3.415808	PROPERTY	-0.08943286
-3.415808	PROPHYLACTIC	-0.08943286
-3.415808	PULLS	-0.08859816
-3.415808	PURPOSES	-0.04263639
-3.415808	PUT	-0.08859816
-3.415808	QUARTER	-0.08943286
-3.415808	QUICK	-0.08926605
-3.415808	QUICKEN	-0.08926605
-3.415808	QUIZZES	-0.08859816
-3.415808	RACE	-0.08926605
-3.415808	RAISED	-0.04263639
-3.415808	RAY	-0.08943286
-3.415808	READ	-0.04263639
-3.415808	READING	-0.07674071
-3.415808	REAL	-0.08876523
-3.114778	REALLY	-0.08893222
-3.415808	REALTOR	-0.08876523
-3.415808	REASON	-0.04263639
-3.415808	RECEPTION	-0.04263639
-3.415808	RECOMMEND	-0.082371
-3.415808	RED	-0.08943286
-2.938686	REHEARSAL	-0.0808427
-3.415808	RELATIONSHIP	-0.08876523
-2.938686	RELATOR	-0.08270991
-3.415808	RELIGIOUS	-0.08943286
-3.415808	REMEMBER	-0.08943286
-3.415808	RESIDENTIAL	-0.04263639
-3.415808	REUPHOLSTERING	-0.08943286
-3.415808	RID	-0.08574812
-3.415808	RIDE	-0.08943286
-2.57071	RIGHT	-0.2340523
-3.415808	ROAD	-0.04263639
-3.415808	ROCHESTER	-0.08943286
-3.415808	ROTATOR	-0.08943286
-3.415808	ROYAL	-0.08943286
-3.415808	SAGINAW	-0.04263639
-2.716838	SAID	-0.2747985
-3.415808	SAINT	-0.08943286
-3.415808	SALE	-0.04263639
-3.415808	SALVATION	-0.08943286
-3.415808	SAME	-0.08943286
-3.415808	SARASOTA	-0.07965028
-2.938686	SATURDAY	-0.04170663
-3.415808	SAW	-0.08893223
-3.114778	SCHOOL	-0.02578133
-2.813748	SEE	-0.06771787
-3.415808	SEEN	-0.08423167
-2.938686	SELL	-0.2243885
-3.415808	SELLING	-0.082371
-3.415808	SEMESTER	-0.08725929
-2.813748	SEVEN	-0.1522994
-3.114778	SHE	-0.08423166
-3.114778	SHOULD	-0.08557988
-3.415808	SHOULDER	-0.08943286
-3.415808	SHOWER	-0.08725929
-3.114778	SHOWS	-0.02597439
-3.415808	SHUT	-0.08876523
-3.114778	SICK	-0.3482724
-3.415808	SILLY	-0.07450251
-3.415808	SISTERS	-0.08423167
-3.415808	SIT	-0.08725929
-3.415808	SITUATION	-0.08321775
-3.415808	SLUSH	-0.08943286
-3.415808	SMALL	-0.08943286
-1.644956	SO	-0.04805587
-2.938686	SOME	-0.08893224
-3.114778	SOMEBODY	-0.03665118
-3.415808	SOMETHING	-0.08843103
-3.415808	SOMETIME	-0.04263639
-3.415808	SORRY	-0.04263639
-3.114778	SOUTH	-0.08456911
-3.415808	STARED	-0.08742688
-3.415808	START	-0.08692393
-3.114778	STARTED	-0.07519241
-3.114778	STARTS	-0.346767
-3.415808	STAY	-0.04263639
-3.114778	STILL	-0.08893222
-3.114778	STRESS	-0.08456911
-3.415808	STRESSFUL	-0.04263639
-3.415808	STUDY	-0.08943286
-2.813748	STUFF	-0.1346327
-3.415808	STUMBLE	-0.08943286
-3.415808	SUICIDE	-0.07965028
-3.114778	SUNDAY	-0.08524322
-3.415808	SUPPLIES	-0.07450251
-2.637656	SURE	-0.1350674
-3.415808	SURGERY	-0.04263639
-3.415808	SWEET	-0.08909918
-3.415808	SYMPTOMS	-0.08440042
-3.415808	TAKE	-0.07674071
-3.415808	TALK	-0.07450251
-3.114778	TALKED	-0.341372
-3.114778	TAMPA	-0.3019765
-3.114778	TEACH	-0.07398436
-2.938686	TEN	-0.07398438
-3.415808	TERRIBLE	-0.04263639
-2.938686	TEST	-0.03400651
-3.415808	THANK	-0.08440042
-1.910658	THAT	-0.1637077
-2.57071	THAT'S	-0.06295797
-1.546576	THE	-0.1264357
-3.114778	THEIR	-0.08876522
-2.813748	THEM	-0.0387179
-2.336627	THEN	-0.06506631
-3.415808	THERAPIST	-0.08742688
-2.26968	THERE	-0.1238572
-2.57071	THERE'S	-0.1269062
-2.137054	THEY	-0.1818667
-3.114778	THEY'RE	-0.07930898
-3.114778	THING	-0.02597439
-2.938686	THINGS	-0.02326369
-2.637656	THINK	-0.06082558
-3.415808	THIRTEEN	-0.07450251
-2.637656	THIS	-0.1893533
-2.938686	THOUGH	-0.07225274
-3.415808	THOUSAND	-0.08943286
-2.938686	THREE	-0.08826384
-2.938686	THROUGH	-0.0717319
-2.813748	TIME	-0.2908763
-3.415808	TIMES	-0.07674071
-1.762595	TO	-0.1059855
-3.415808	TOLD	-0.04263639
-3.415808	TOMORROW	-0.07450251
-3.114778	TONIGHT	-0.04245059
-2.813748	TOO	-0.08826382
-3.415808	TOOK	-0.08943286
-3.415808	TORE	-0.08692393
-3.415808	TORNADO	-0.04263639
-3.114778	TRACK	-0.04152042
-3.415808	TREATMENT	-0.08943286
-3.114778	TRIP	-0.07845458
-3.415808	TROUBLE	-0.08321775
-2.938686	TRUCKLOADS	-0.06999123
-3.415808	TRUST	-0.04263639
-2.938686	TRYING	-0.4232239
-3.415808	TUES	-0.0875944
-3.114778	TUESDAY	-0.0725996
-3.415808	TURNED	-0.08943286
-3.415808	TV	-0.08926605
-3.415808	TWELVE	-0.04263639
-2.57071	TWO	-0.1001162
-3.415808	TYPE	-0.08926605
-2.637656	UH	-0.07225272
-3.415808	UHH	-0.08926605
-2.512718	UM	-0.06366644
-3.415808	UMM	-0.07708403
-3.415808	UNCLE	-0.08943286
-3.415808	UNDER	-0.08692393
-3.415808	UNION	-0.0849063
-3.114778	UNPACKED	-0.08826382
-2.57071	UP	-0.01364067
-3.415808	USE	-0.08692393
-3.415808	USED	-0.08203185
-3.415808	VACATIONS	-0.08859816
-3.415808	VARIETY	-0.04263639
-2.57071	VERY	-0.1466385
-3.415808	VP	-0.082371
-3.415808	WABATONGUSHI	-0.04263639
-3.415808	WAL	-0.08943286
-3.114778	WALK	-0.08859815
-3.415808	WALKED	-0.08876523
-3.114778	WALKING	-0.3481053
-3.415808	WANT	-0.08203185
-3.114778	WANTED	-0.341372
-3.114778	WANTS	-0.341372
-3.415808	WARNING	-0.04263639
-2.114778	WAS	-0.06374205
-3.415808	WASH	-0.07708403
-3.114778	WASTE	-0.07639711
-3.415808	WAWA	-0.08943286
-2.716838	WAY	-0.06841863
-1.96865	WE	-0.1649095
-3.415808	WE'LL	-0.08725929
-3.114778	WE'RE	-0.08776185
-3.114778	WE'VE	-0.08692393
-2.716838	WEDDING	-0.00318975
-2.938686	WEEK	-0.1805276
-2.461565	WEEKEND	-0.3889877
-3.415808	WEEKENDS	-0.08909918
-3.415808	WEIRD	-0.08943286
-2.461565	WELL	-0.1214403
-2.637656	WENT	-0.2165433
-2.57071	WERE	-0.07033993
-3.114778	WEREN'T	-0.08406284
-2.938686	WHAT	-0.08389396
-3.415808	WHATEVER	-0.0827099
-3.415808	WHEELCHAIR	-0.08943286
-2.716838	WHEN	-0.1543499
-3.415808	WHENEVER	-0.08440042
-2.512718	WHERE	-0.04393473
-3.415808	WHICH	-0.0875944
-3.114778	WHILE	-0.06981677
-3.415808	WHITMORE	-0.08909918
-2.938686	WHO	-0.08574813
-3.415808	WHOLE	-0.08909918
-3.415808	WHY	-0.08792924
-3.114778	WILL	-0.08843102
-2.512718	WITH	-0.1421239
-3.415808	WITHOUT	-0.08943286
-3.415808	WON	-0.04263639
-3.415808	WON'T	-0.08675615
-2.938686	WORK	-0.08423167
-2.716838	WORKING	-0.01975341
-3.415808	WORKS	-0.04263639
-3.415808	WOULD	-0.08843103
-3.415808	WRITING	-0.07674071
-3.415808	YA'LL	-0.08792924
-1.803024	YEAH	-0.3472495
-2.637656	YEAR	-0.2632414
-3.415808	YEARS	-0.08926605
-3.415808	YEP	-0.04263639
-2.000834	YES	-0.3935181
-2.637656	YET	-0.1314092
-1.924446	YOU	-0.2556494
-2.938686	YOU'RE	-0.08389396
-3.114778	YOUR	-0.08909917
-2.938686	YUP	-0.03058235
-3.114778	ZOO	-0.02578133

\2-grams:
-0.729508	17 AND
-0.729508	18 </s>
-1.206629	300 </s>
-1.206629	300 AND
-1.206629	300 WE
-0.729508	6 WEEKENDS
-0.729508	600 MILES
-0.729508	96 YEARS
-0.729508	96TH BIRTHDAY
-2.383366	<s> A
-2.383366	<s> ACTUALLY
-3.156019	<s> ALL
-3.156019	<s> AN
-1.147758	<s> AND
-3.156019	<s> AROUND
-3.156019	<s> BE
-3.156019	<s> BECAUSE
-3.156019	<s> BEFORE
-3.156019	<s> BORN
-3.156019	<s> BRASS
-2.007569	<s> BUT
-3.156019	<s> BUYING
-3.156019	<s> CAUSE
-3.156019	<s> COUPLE
-3.156019	<s> DEFINITELY
-3.156019	<s> DELTA
-3.156019	<s> DOCTORS
-3.156019	<s> DOWNTOWN
-3.156019	<s> ELEMENTARY
-3.156019	<s> EVEN
-3.156019	<s> FLORIDA
-2.383366	<s> FOR
-3.156019	<s> FORT
-2.383366	<s> GOING
-3.156019	<s> GOOD
-2.383366	<s> HE
-3.156019	<s> HE'S
-3.156019	<s> HISTORY
-1.171239	<s> I
-2.180051	<s> I'M
-3.156019	<s> IF
-2.150642	<s> IN
-2.180051	<s> IT
-2.007569	<s> IT'S
-2.383366	<s> JEFF
-3.156019	<s> JUST
-3.156019	<s> MHM
-1.745449	<s> MHMM
-3.156019	<s> MILLER
-3.156019	<s> MODERATELY
-3.156019	<s> MUSIC
-2.383366	<s> MY
-3.156019	<s> NEXT
-1.34733	<s> NO
-3.156019	<s> NOT
-3.156019	<s> NOTHING
-1.745449	<s> OH
-3.156019	<s> OK
-2.150642	<s> OKAY
-2.383366	<s> ONE
-3.156019	<s> OR
-3.156019	<s> OVER
-3.156019	<s> PALM
-3.156019	<s> PERHAPS
-3.156019	<s> PLAY
-3.156019	<s> PRETTY
-3.156019	<s> PROBABLY
-3.156019	<s> READ
-2.150642	<s> RIGHT
-3.156019	<s> ROTATOR
-3.156019	<s> SAINT
-3.156019	<s> SHE
-3.156019	<s> SHOULD
-1.25042	<s> SO
-3.156019	<s> SOME
-3.156019	<s> SUNDAY
-3.156019	<s> TEN
-3.156019	<s> THANK
-3.156019	<s> THAT
-2.383366	<s> THAT'S
-3.156019	<s> THE
-3.156019	<s> THEN
-3.156019	<s> THERE
-3.156019	<s> THERE'S
-1.706965	<s> THEY
-3.156019	<s> THROUGH
-3.156019	<s> TV
-3.156019	<s> TWO
-2.150642	<s> UH
-2.180051	<s> UM
-3.156019	<s> UMM
-3.156019	<s> VERY
-2.180051	<s> WE
-2.383366	<s> WE'VE
-1.706965	<s> WELL
-3.156019	<s> WENT
-3.156019	<s> WHAT
-3.156019	<s> WHEN
-3.156019	<s> WHENEVER
-3.156019	<s> WHERE
-3.156019	<s> WITH
-3.156019	<s> WORKING
-0.9793532	<s> YEAH
-1.147758	<s> YES
-1.706965	<s> YOU
-3.156019	<s> YUP
-1.030538	<unk> IN
-1.030538	<unk> THIS
-2.610322	A BAD
-1.604944	A BIG
-2.610322	A BLAST
-1.837668	A BUNCH
-2.610322	A CHAUFFEUR
-2.610322	A COMMUNITY
-2.610322	A COUPLE
-2.610322	A DAY
-2.610322	A DIFFERENT
-2.610322	A DIRT
-2.610322	A DISASTER
-2.610322	A DRUG
-2.610322	A FAIRLY
-2.610322	A FISHING
-2.610322	A FUNCTIONAL
-2.610322	A GARAGE
-2.610322	A GOLF
-2.610322	A GOOD
-1.837668	A GREAT
-1.837668	A HALF
-2.610322	A HE
-2.610322	A HONEY
-2.610322	A HOUSE
-2.610322	A JUNIOR
-2.610322	A LAKE
-1.837668	A LANDLORD
-2.610322	A LECTURE
-2.610322	A LIONS
-2.610322	A LIONS'
-2.610322	A LITTLE
-1.634353	A LOAN
-2.610322	A LONG
-2.610322	A LOT
-2.610322	A MOVIE
-2.610322	A MUSICIAN
-2.610322	A NEW
-2.610322	A PLAY
-2.610322	A PROBLEM
-2.610322	A PROFESSOR
-2.610322	A PROPHYLACTIC
-2.610322	A QUARTER
-2.610322	A REAL
-1.837668	A REHEARSAL
-2.610322	A RELATIONSHIP
-2.610322	A RELATOR
-2.610322	A SALVATION
-2.610322	A SHOWER
-2.610322	A SMALL
-1.837668	A TEST
-2.610322	A THERAPIST
-2.610322	A VERY
-2.610322	A VP
-1.634353	A WEDDING
-1.837668	A WEEK
-2.610322	A WEIRD
-2.610322	A WHEELCHAIR
-2.610322	A WHOLE
-1.604944	A YEAR
-2.610322	A YOU
-1.331568	ABOUT 600
-1.331568	ABOUT LAST
-1.331568	ABOUT SELLING
-1.331568	ABOUT TEN
-0.729508	ABSOLUTELY </s>
-0.729508	ACCESSIBLE AND
-1.428478	ACTUALLY DOWN
-1.428478	ACTUALLY FROM
-0.6558243	ACTUALLY I
-1.428478	ACTUALLY I'M
-0.729508	ADRIAN WHERE
-0.729508	AFTER BEING
-0.729508	AGAIN THEN
-1.206629	AGO BECAUSE
-1.206629	AGO BUT
-1.206629	AGO THERE
-0.729508	ALCOHOL TREATMENT
-1.632598	ALL FROM
-1.632598	ALL INDIVIDUAL
-1.632598	ALL OUT
-0.6566296	ALL THE
-1.632598	ALL THROUGH
-1.030538	ALMOST LOST
-1.030538	ALMOST NINE
-0.729508	ALONG THE
-1.206629	ALSO HAD
-1.206629	ALSO TRYING
-1.206629	ALSO WHEN
-0.729508	ALWAYS FUN
-1.030538	AM A
-1.030538	AM WORKING
-1.030538	AMAZING </s>
-1.030538	AMAZING YOU
-1.331568	AN AUNT
-0.5589143	AN HOUR
-1.331568	AN OCCASIONAL
-2.678898	AND 18
-2.678898	AND </s>
-1.70293	AND A
-2.678898	AND ALCOHOL
-2.678898	AND ALL
-1.70293	AND AND
-2.678898	AND BE
-2.678898	AND BEYOND
-2.678898	AND CATCH
-2.678898	AND ENDED
-2.678898	AND EVEN
-2.678898	AND EVERYTHING
-2.678898	AND FRIDAY
-2.678898	AND GIVE
-2.678898	AND GO
-2.678898	AND HANDICAP
-1.67352	AND HE
-1.67352	AND I
-2.678898	AND I'M
-2.678898	AND IF
-2.678898	AND IT'S
-1.67352	AND JUST
-2.678898	AND LESS
-2.678898	AND LIKE
-2.678898	AND LOOK
-2.678898	AND LOOKED
-2.678898	AND MIDDLE
-2.678898	AND NOT
-2.678898	AND NOW
-2.678898	AND ONE
-2.678898	AND OUT
-2.678898	AND PLAY
-2.678898	AND PROPERTY
-2.678898	AND RAISED
-0.8702087	AND SO
-1.906244	AND STUFF
-2.678898	AND TEACH
-1.268327	AND THE
-2.678898	AND THEIR
-1.70293	AND THEN
-1.70293	AND THEY
-2.678898	AND TRUCKLOADS
-2.678898	AND TWELVE
-2.678898	AND UH
-2.678898	AND UM
-2.678898	AND WAL
-2.678898	AND WALK
-2.678898	AND WE
-2.678898	AND WHATEVER
-2.678898	AND WHEN
-2.678898	AND WHITMORE
-2.678898	AND WITH
-1.906244	AND YOU
-2.678898	AND YOUR
-0.729508	ANIMALS WERE
-0.729508	ANOTHER REHEARSAL
-0.729508	ANTI DEPRESSANTS
-0.729508	ANTICIPATING MOVING
-0.729508	ANTIDEPRESSANTS FOR
-1.030538	ANY IDEA
-1.030538	ANY WORK
-0.729508	ANYONE WHO
-0.729508	ANYTHING LIKE
-0.729508	ANYWAY </s>
-0.729508	APPEAR DEPRESSED
-0.729508	APPOINTMENTS </s>
-1.729508	ARE 17
-0.9568543	ARE </s>
-1.729508	ARE ALL
-1.729508	ARE ALSO
-1.729508	ARE GOING
-1.729508	ARE IT'S
-0.9568543	ARE LIKE
-1.729508	ARE YOU
-0.729508	AREA </s>
-0.729508	ARMY </s>
-1.428478	AROUND JOANNE'S
-1.428478	AROUND SO
-0.6558243	AROUND THE
-1.428478	AROUND WE
-1.030538	AS IT
-1.030538	AS OVERWHELMING
-1.070798	AT A
-1.843451	AT ALL
-1.843451	AT ALMOST
-1.843451	AT BED
-1.843451	AT EIGHT
-1.843451	AT FIRST
-1.843451	AT LIKE
-1.843451	AT QUICKEN
-1.843451	AT SO
-1.070798	AT THE
-1.843451	AT YOU
-0.729508	AUDITING DEPARTMENT
-0.729508	AUNT WHO
-1.030538	AWAY FOR
-1.030538	AWAY FROM
-0.5022817	BACK AND
-1.507659	BACK GET
-1.507659	BACK PLAYING
-1.507659	BACK TO
-0.729508	BAD LOCATION
-0.729508	BADLY </s>
-1.030538	BANK AND
-1.030538	BANK BEYOND
-0.4339755	BASED IT
-1.206629	BASED ON
-0.729508	BASEMENT YOU
-0.729508	BASICALLY ON
-0.729508	BATH AND
-0.729508	BATTLE CREEK
-1.959957	BE A
-1.959957	BE COMMERCIAL
-1.959957	BE DEALING
-1.959957	BE EMBARRASSING
-1.959957	BE GOOD
-1.959957	BE GRADUATING
-1.959957	BE HAPPY
-1.187303	BE IN
-1.959957	BE IT
-1.959957	BE ONE
-1.959957	BE RESIDENTIAL
-1.959957	BE SILLY
-1.959957	BE STARED
-1.959957	BE UHH
-1.959957	BE VERY
-1.959957	BE YOU
-0.729508	BEACH </s>
-0.729508	BEAVERS </s>
-1.729508	BECAUSE FOR
-0.3189375	BECAUSE I
-1.729508	BECAUSE I'VE
-1.729508	BECAUSE IT
-1.729508	BECAUSE MY
-1.729508	BECAUSE WE
-0.729508	BED BATH
-1.331568	BEEN HOME
-0.5589143	BEEN ON
-1.331568	BEEN TOLD
-1.206629	BEFORE </s>
-1.206629	BEFORE THAT
-1.206629	BEFORE THE
-0.4231005	BEING A
-1.428478	BEING AWAY
-1.428478	BEING IN
-0.729508	BELONGS </s>
-0.2578843	BETWEEN THE
-1.030538	BEYOND </s>
-1.030538	BEYOND THAT
-1.428478	BIG DEAL
-1.428478	BIG DIFFERENCE
-1.428478	BIG FANCY
-1.428478	BIG PARTY
-1.428478	BIG WARNING
-0.729508	BIKE </s>
-0.729508	BILLY GRAHAM
-0.729508	BIRTHDAY WHILE
-0.729508	BIT OF
-0.729508	BLAST IT
-0.729508	BOOK ON
-0.729508	BORING HOWEVER
-0.729508	BORN AND
-0.729508	BOTHER </s>
-0.729508	BRASS INSTRUMENTS
-0.729508	BRING THEM
-0.2012517	BUNCH OF
-1.030538	BUSY I'M
-1.030538	BUSY WEEKEND
-1.085858	BUT </s>
-2.091236	BUT AND
-2.091236	BUT BUT
-1.318582	BUT I
-1.318582	BUT IF
-2.091236	BUT IT'LL
-1.318582	BUT IT'S
-2.091236	BUT NOT
-2.091236	BUT NOW
-2.091236	BUT SUNDAY
-2.091236	BUT THE
-2.091236	BUT THEN
-2.091236	BUT THERE
-2.091236	BUT THERE'S
-1.318582	BUT WE
-1.318582	BUT YEAH
-0.729508	BUYING THINGS
-1.030538	CALLED ONE
-1.030538	CALLED WABATONGUSHI
-1.632598	CAN </s>
-1.632598	CAN BE
-1.632598	CAN GET
-1.632598	CAN HAVE
-1.632598	CAN PAY
-1.632598	CAN SEE
-1.632598	CAN SELL
-1.632598	CAN SIT
-0.729508	CAN'T YOU
-0.729508	CANADA ABOUT
-0.729508	CAROLINA CAN
-1.206629	CASH A
-1.206629	CASH FOR
-1.206629	CASH WITH
-0.729508	CATCH UP
-1.331568	CAUSE ABOUT
-1.331568	CAUSE I
-1.331568	CAUSE OF
-1.331568	CAUSE THAT'S
-0.729508	CENTERVILLE BRING
-0.729508	CENTRAL FROM
-0.729508	CHAUFFEUR WE'RE
-0.729508	CLASS </s>
-0.729508	CLASSES AND
-0.729508	CLEANED OUT
-0.729508	CLEANING </s>
-0.4339755	COLLEGE </s>
-1.206629	COLLEGE AND
-1.030538	COME IN
-1.030538	COME WITH
-1.030538	COMING BACK
-1.030538	COMING HOME
-0.729508	COMMERCIAL IT
-0.729508	COMMITTED SUICIDE
-0.729508	COMMUNITY COLLEGE
-0.729508	COMPANIES THAT
-0.729508	COMPLETELY GOT
-0.729508	COMPUTER PROGRAMING
-0.729508	COMPUTERS SO
-0.2578843	CONE </s>
-0.729508	CONTRACTORS AND
-0.729508	COOL </s>
-0.729508	COUCH OVER
-1.331568	COULD BE
-1.331568	COULD BUT
-1.331568	COULD GET
-1.331568	COULD GIVE
-1.030538	COULDN'T FIND
-1.030538	COULDN'T SEE
-1.030538	COUPLE DAYS
-1.030538	COUPLE TIMES
-0.729508	COURSE IN
-0.729508	CRAZY </s>
-0.729508	CREDIT UNION
-0.729508	CREEK </s>
-0.729508	CRYSTAL </s>
-0.729508	CUFF IT'S
-0.729508	CURRENTLY AT
-0.729508	DAD'S HISTORY
-0.729508	DATE BUT
-0.729508	DAUGHTER </s>
-1.030538	DAY </s>
-1.030538	DAY FOR
-0.7350056	DAYS </s>
-1.507659	DAYS ON
-1.507659	DAYS OVER
-1.507659	DAYS SO
-1.507659	DAYS YOU
-0.729508	DEAL LIKE
-0.729508	DEALING WITH
-0.729508	DECIDE THEY
-0.729508	DECIDED ON
-1.206629	DEFINITELY </s>
-1.206629	DEFINITELY A
-1.206629	DEFINITELY NICE
-0.729508	DELTA COLLEGE
-0.729508	DEPARTMENT </s>
-0.729508	DEPRESSANTS BECAUSE
-1.206629	DEPRESSED </s>
-1.206629	DEPRESSED CAUSE
-1.206629	DEPRESSED DOESN'T
-1.206629	DEPRESSION IS
-1.206629	DEPRESSION PART
-1.206629	DEPRESSION SO
-1.331568	DETROIT </s>
-0.5589143	DETROIT JAZZ
-1.331568	DETROIT ZOO
-1.206629	DID NOT
-1.206629	DID WE
-1.206629	DID YOU
-1.030538	DIDN'T FEEL
-1.030538	DIDN'T SORRY
-0.729508	DIED AND
-0.729508	DIFFERENCE BETWEEN
-1.030538	DIFFERENT BOOK
-1.030538	DIFFERENT THINGS
-0.729508	DIRT TRACK
-0.2578843	DISABILITY </s>
-0.729508	DISASTER AREA
-0.729508	DISEASE WORKS
-0.729508	DNA STUDY
-1.574606	DO </s>
-1.574606	DO ANY
-0.8019524	DO LIKE
-1.574606	DO MY
-1.574606	DO SO
-1.574606	DO STUMBLE
-0.729508	DOCTORS APPOINTMENTS
-0.729508	DOES </s>
-0.729508	DOESN'T MEAN
-0.729508	DOG AND
-1.206629	DOING I'M
-1.206629	DOING OKAY
-1.206629	DOING THE
-0.729508	DOLLARS TO
-1.875636	DON'T APPEAR
-1.875636	DON'T EVEN
-1.875636	DON'T HAVE
-0.4265819	DON'T KNOW
-1.102982	DON'T LIKE
-1.875636	DON'T REMEMBER
-1.875636	DON'T SELL
-1.875636	DON'T THERE
-0.729508	DONAVAN </s>
-1.428478	DOWN </s>
-1.428478	DOWN SOUTH
-1.428478	DOWN THERE
-0.6558243	DOWN TO
-1.030538	DOWNTOWN <unk>
-1.030538	DOWNTOWN DETROIT
-1.206629	DRAINS AND
-1.206629	DRAINS CLEANED
-1.206629	DRAINS ERUPTED
-1.030538	DRIVE DOWN
-1.030538	DRIVE RIGHT
-1.030538	DRIVING IMMEDIATELY
-1.030538	DRIVING UP
-0.729508	DROVE ALL
-0.729508	DRUG AND
-0.729508	EACH </s>
-1.206629	EIGHT DAYS
-1.206629	EIGHT FORTY
-1.206629	EIGHT OH
-1.030538	ELEMENTARY AND
-1.030538	ELEMENTARY STARTS
-0.729508	ELSE DID
-0.729508	EM BUT
-0.729508	EMBARRASSING </s>
-0.729508	EMPTIED FOR
-0.729508	ENDED UP
-1.030538	ENOUGH AND
-1.030538	ENOUGH BECAUSE
-0.729508	EQUITY ON
-0.729508	ERR TEST
-0.729508	ERUPTED WITH
-1.331568	EVEN BOTHER
-1.331568	EVEN IF
-0.5589143	EVEN THOUGH
-0.729508	EVER SEEN
-1.030538	EVERY OTHER
-1.030538	EVERY PLAN
-0.729508	EVERYBODY WAS
-0.729508	EVERYONE HAS
-1.030538	EVERYTHING SO
-1.030538	EVERYTHING WHERE
-0.729508	EVERYWHERE BUT
-0.729508	EVICT PRINCESS
-0.729508	EXACT SYMPTOMS
-1.331568	EXACTLY SO
-0.3261905	EXACTLY SURE
-0.729508	EXCITED </s>
-0.729508	EXCITING </s>
-0.729508	EXERCISE </s>
-0.729508	FACILITY </s>
-0.729508	FAIRLY QUICK
-0.729508	FALLING OVER
-0.729508	FALLS UNDER
-1.030538	FAMILY </s>
-1.030538	FAMILY THEY
-0.729508	FAN ISN'T
-0.729508	FANCY HOUSES
-0.729508	FARM IN
-0.729508	FEEL THAT
-0.729508	FEES TRYING
-1.030538	FESTIVAL AND
-1.030538	FESTIVAL THEN
-0.729508	FIELD TO
-0.729508	FIFTY OR
-0.729508	FIND ANYONE
-1.206629	FIRST BUT
-1.206629	FIRST FOUND
-1.206629	FIRST MOVED
-0.729508	FISHING TRIP
-0.729508	FIVE </s>
-0.729508	FIX IT
-1.206629	FLORIDA </s>
-1.206629	FLORIDA TO
-1.206629	FLORIDA WERE
-0.729508	FOOD OR
-1.102982	FOR A
-1.875636	FOR EIGHT
-1.875636	FOR IT
-1.875636	FOR MY
-1.875636	FOR NO
-1.875636	FOR ONE
-1.875636	FOR PEOPLE
-1.875636	FOR THAT
-1.102982	FOR THE
-1.102982	FOR THIS
-1.875636	FOR TUESDAY
-0.729508	FORGOT THAT
-0.729508	FORMULA AND
-0.729508	FORMULATE A
-0.729508	FORT LAUDERDALE'S
-0.729508	FORTY </s>
-0.729508	FOUND OUT
-0.729508	FOUR DAYS
-0.729508	FRESHMAN IN
-1.030538	FRIDAY FRIDAY
-1.030538	FRIDAY I
-0.729508	FRIENDS FROM
-1.808689	FROM </s>
-1.808689	FROM CENTERVILLE
-1.808689	FROM DOWN
-1.808689	FROM HAVING
-1.808689	FROM HERE
-0.3981188	FROM THE
-1.808689	FROM WHAT
-1.808689	FROM WORK
-0.5022817	FUN </s>
-1.507659	FUN TO
-1.507659	FUN WHEN
-1.507659	FUN YES
-0.729508	FUNCTIONAL COURSE
-0.729508	GAME </s>
-0.729508	GARAGE SALE
-0.729508	GAY CENTRAL
-0.729508	GENE </s>
-1.070798	GET 300
-0.8380738	GET A
-1.843451	GET ALL
-1.843451	GET BACK
-1.843451	GET I
-1.843451	GET LOANS
-1.843451	GET SICK
-1.070798	GET THE
-1.843451	GET UP
-0.729508	GETS CRAZY
-1.206629	GETTING A
-0.4339755	GETTING MARRIED
-0.729508	GIFTS </s>
-0.729508	GIRLS </s>
-1.030538	GIVE A
-1.030538	GIVE ME
-0.729508	GIVING SEVEN
-1.574606	GO ACTUALLY
-1.574606	GO BACK
-1.574606	GO BUT
-1.574606	GO INTO
-1.574606	GO THERE
-1.574606	GO TO
-1.574606	GO YET
-0.729508	GOES </s>
-1.683751	GOING ON
-0.05115252	GOING TO
-1.030538	GOLF </s>
-1.030538	GOLF LEAGUE
-0.729508	GONE NOW
-0.5022817	GOOD </s>
-1.507659	GOOD I'D
-1.507659	GOOD ONE
-1.507659	GOOD THOUGH
-1.428478	GOT A
-1.428478	GOT MARRIED
-1.428478	GOT ON
-1.428478	GOT RID
-1.428478	GOT UNPACKED
-0.729508	GRADUATING NEXT
-0.729508	GRAHAM </s>
-0.729508	GRAND </s>
-1.331568	GREAT </s>
-1.331568	GREAT FIELD
-1.331568	GREAT SCHOOL
-1.331568	GREAT TIME
-0.729508	GROWN TO
-0.729508	GUYS EVER
-0.3596351	HAD A
-1.808689	HAD EM
-1.808689	HAD HER
-1.808689	HAD MONEY
-1.808689	HAD SHOULDER
-1.808689	HAD TALKED
-1.808689	HAD TO
-1.030538	HALF AGO
-1.030538	HALF THERE
-0.729508	HANDICAP ACCESSIBLE
-0.729508	HAPPENS CAUSE
-0.729508	HAPPY </s>
-1.030538	HARD GETTING
-1.030538	HARD TO
-0.729508	HAS THE
-0.6026732	HAVE A
-2.051727	HAVE ANOTHER
-2.051727	HAVE ANY
-2.051727	HAVE HELP
-2.051727	HAVE MY
-2.051727	HAVE NO
-2.051727	HAVE PLANNED
-1.279074	HAVE PROOF
-1.279074	HAVE THE
-2.051727	HAVE THEM
-1.04635	HAVE TO
-2.051727	HAVE TWO
-0.729508	HAVEN'T BEEN
-0.2578843	HAVING THE
-1.030538	HD </s>
-1.030538	HD AND
-1.808689	HE COMMITTED
-1.808689	HE DOES
-1.808689	HE JUST
-1.036036	HE LOVES
-1.808689	HE PULLS
-1.808689	HE SAID
-1.808689	HE USED
-1.808689	HE WANTED
-1.036036	HE WANTS
-1.808689	HE WENT
-0.2578843	HE'LL BE
-1.428478	HE'S A
-1.428478	HE'S IT
-0.6558243	HE'S NOT
-1.428478	HE'S VERY
-0.729508	HELP AND
-0.729508	HELPFUL </s>
-1.030538	HER 96TH
-1.030538	HER BEING
-0.4339755	HERE </s>
-1.206629	HERE WHILE
-0.729508	HIGH SCHOOL
-0.729508	HILLS </s>
-0.729508	HIRE SOMEBODY
-0.4339755	HISTORY </s>
-1.206629	HISTORY NOT
-1.030538	HOLIDAY LEFT
-1.030538	HOLIDAY TO
-0.729508	HOLIDAYS DON'T
-1.030538	HOME AFTER
-1.030538	HOME IN
-0.729508	HONEY MOON
-1.030538	HOPEFULLY HOPEFULLY
-1.030538	HOPEFULLY SO
-0.729508	HOSE AND
-0.729508	HOT </s>
-1.030538	HOUR </s>
-1.030538	HOUR SOUTH
-0.729508	HOURS A
-0.7350056	HOUSE </s>
-1.507659	HOUSE ALSO
-1.507659	HOUSE AND
-1.507659	HOUSE I
-1.507659	HOUSE IS
-0.729508	HOUSES ALONG
-0.729508	HOW TO
-0.729508	HOWEVER </s>
-0.729508	HUNDRED </s>
-0.729508	HURRICANE </s>
-0.729508	HUSBAND IS
-1.901337	I AM
-2.673991	I CALLED
-1.26342	I CAN
-2.673991	I CAN'T
-2.673991	I COULDN'T
-2.673991	I DIDN'T
-1.668613	I DO
-0.8653014	I DON'T
-2.673991	I DRIVE
-1.901337	I FIRST
-2.673991	I FORGOT
-1.698022	I GET
-2.673991	I GOT
-1.668613	I HAD
-0.7683914	I HAVE
-2.673991	I HAVEN'T
-1.901337	I I
-1.901337	I JUST
-1.525541	I KNOW
-1.901337	I LIKE
-2.673991	I LOVE
-2.673991	I MAYBE
-2.673991	I NEED
-2.673991	I OVERPAID
-1.668613	I PAID
-2.673991	I START
-2.673991	I STARTED
-2.673991	I STILL
-2.673991	I TALKED
-2.673991	I TEACH
-1.26342	I THINK
-2.673991	I TORE
-2.673991	I WAS
-2.673991	I WASTE
-2.673991	I WORK
-0.729508	I'D RECOMMEND
-1.206629	I'LL BE
-0.4339755	I'LL GO
-2.091236	I'M A
-2.091236	I'M CURRENTLY
-1.318582	I'M DOING
-1.318582	I'M DRIVING
-2.091236	I'M EXCITED
-2.091236	I'M GIVING
-1.085858	I'M GOING
-2.091236	I'M I'M
-2.091236	I'M NOT
-2.091236	I'M OFF
-2.091236	I'M ON
-2.091236	I'M PLAYING
-2.091236	I'M REUPHOLSTERING
-1.318582	I'M SURE
-2.091236	I'M TRYING
-2.091236	I'M UH
-2.091236	I'M WORKING
-2.091236	I'M WRITING
-0.2578843	I'VE BEEN
-1.030538	IDEA </s>
-1.030538	IDEA WHERE
-0.6566296	IF I
-1.632598	IF IF
-1.632598	IF THEY
-0.8599443	IF YOU
-0.729508	IMMEDIATELY BACK
-1.122071	IN </s>
-1.122071	IN A
-2.127448	IN BATTLE
-2.127448	IN COLLEGE
-2.127448	IN CRYSTAL
-2.127448	IN FLORIDA
-2.127448	IN I
-2.127448	IN JUNE
-2.127448	IN LAWS'
-2.127448	IN LEGAL
-2.127448	IN LIKE
-2.127448	IN NORTH
-2.127448	IN OHIO
-2.127448	IN ORLANDO
-2.127448	IN ROCHESTER
-2.127448	IN ROYAL
-2.127448	IN SAGINAW
-1.15148	IN THE
-0.729508	INAUDIBLE </s>
-0.729508	INCH OF
-0.2578843	INCOME IS
-0.729508	INDIVIDUAL </s>
-0.729508	INHERITANCE AND
-1.030538	INSIDE AND
-1.030538	INSIDE SO
-0.729508	INSTRUMENTS </s>
-0.729508	INTO COMPUTER
-0.729508	INVITED ME
-1.959957	IS 96
-0.9839885	IS </s>
-1.187303	IS A
-1.959957	IS AS
-1.959957	IS COMING
-1.959957	IS FRESHMAN
-1.959957	IS GETTING
-1.959957	IS IN
-1.187303	IS NOT
-1.959957	IS ONE
-1.959957	IS SO
-1.959957	IS WORKING
-0.729508	ISN'T ALWAYS
-0.729508	ISSUE HAPPENS
-0.4339755	ISSUES AND
-1.206629	ISSUES FROM
-1.357599	IT </s>
-2.362977	IT A
-2.362977	IT AND
-2.362977	IT AT
-2.362977	IT BASICALLY
-2.362977	IT BELONGS
-2.362977	IT BUT
-2.362977	IT COULD
-2.362977	IT FOOD
-2.362977	IT FOR
-2.362977	IT GETS
-2.362977	IT GOES
-2.362977	IT GOT
-2.362977	IT I'LL
-1.387008	IT IS
-2.362977	IT LOOKED
-1.590323	IT MIGHT
-2.362977	IT NICE
-2.362977	IT ON
-2.362977	IT SO
-2.362977	IT STARTS
-2.362977	IT UP
-0.4573772	IT WAS
-0.729508	IT'LL BE
-1.160842	IT'S A
-2.309292	IT'S AMAZING
-2.309292	IT'S AT
-1.536638	IT'S DEFINITELY
-2.309292	IT'S FUN
-2.309292	IT'S GONE
-2.309292	IT'S GOOD
-2.309292	IT'S GREAT
-2.309292	IT'S HARD
-2.309292	IT'S I
-0.8602375	IT'S IT'S
-2.309292	IT'S JUST
-1.536638	IT'S LIKE
-2.309292	IT'S MORE
-2.309292	IT'S NORTHEAST
-1.536638	IT'S NOT
-2.309292	IT'S ONLY
-2.309292	IT'S OVERWHELMING
-2.309292	IT'S TERRIBLE
-2.309292	IT'S TOO
-2.309292	IT'S TROUBLE
-1.536638	IT'S WAY
-2.309292	IT'S WITH
-1.030538	ITS HARD
-1.030538	ITS ITS
-0.2578843	JAZZ FESTIVAL
-0.2578843	JEFF CONE
-0.729508	JEWISH SO
-0.729508	JOANNE'S AND
-0.729508	JOB THAT
-1.030538	JUNE </s>
-1.030538	JUNE LAST
-0.729508	JUNIOR </s>
-1.875636	JUST BECAUSE
-1.875636	JUST CAN
-1.875636	JUST COMPLETELY
-1.875636	JUST DAYS
-1.875636	JUST FIFTY
-1.875636	JUST GET
-1.875636	JUST GOT
-1.875636	JUST HAVING
-1.875636	JUST I
-1.875636	JUST PLAY
-1.875636	JUST TALK
-1.875636	JUST THE
-1.875636	JUST YES
-1.875636	JUST YOU
-0.2012517	KIND OF
-1.085858	KNOW </s>
-2.091236	KNOW BECAUSE
-2.091236	KNOW BEING
-2.091236	KNOW CAUSE
-2.091236	KNOW HE
-2.091236	KNOW HE'S
-2.091236	KNOW HOW
-1.085858	KNOW I
-2.091236	KNOW INAUDIBLE
-1.318582	KNOW IT'S
-2.091236	KNOW MAYBE
-2.091236	KNOW MY
-2.091236	KNOW NOT
-2.091236	KNOW OF
-2.091236	KNOW THE
-2.091236	KNOW THEY'RE
-2.091236	KNOW WHAT
-2.091236	KNOW WHEN
-0.729508	LADY </s>
-1.206629	LAKE </s>
-1.206629	LAKE CALLED
-1.206629	LAKE DOWNTOWN
-0.2578843	LANDLORD IT'S
-1.206629	LAST JUNE
-1.206629	LAST MONTH
-1.206629	LAST WEEK
-0.729508	LAUDERDALE'S LIKE
-0.729508	LAWS' FARM
-0.729508	LEAGUE IN
-0.729508	LECTURE AND
-0.729508	LEFT WHERE
-0.729508	LEGAL FEES
-0.729508	LESS LIKE
-2.071931	LIKE 6
-1.066553	LIKE </s>
-1.095962	LIKE A
-2.071931	LIKE BEING
-2.071931	LIKE EIGHT
-2.071931	LIKE GAY
-1.299277	LIKE NO
-2.071931	LIKE OH
-2.071931	LIKE POWER
-2.071931	LIKE RAY
-2.071931	LIKE SHUT
-2.071931	LIKE THAT
-2.071931	LIKE THE
-2.071931	LIKE THERE
-2.071931	LIKE VARIETY
-2.071931	LIKE WHY
-0.729508	LIONS GAME
-0.729508	LIONS' FAN
-0.729508	LIST OF
-1.206629	LITTLE BIT
-1.206629	LITTLE LADY
-1.206629	LITTLE NIECES
-1.030538	LIVE IN
-1.030538	LIVE NEAR
-1.331568	LOAN BASED
-1.331568	LOAN BECAUSE
-1.331568	LOAN FROM
-1.331568	LOAN OR
-1.030538	LOANS </s>
-1.030538	LOANS NOW
-0.729508	LOCATION I
-0.729508	LONG TIME
-0.729508	LOOK AT
-1.030538	LOOKED AT
-1.030538	LOOKED THEY
-0.729508	LOST LAST
-0.729508	LOT OF
-0.729508	LOTS OF
-0.729508	LOVE IT
-1.030538	LOVES COMPUTERS
-1.030538	LOVES IT
-1.206629	MAINTENANCE ISSUE
-0.4339755	MAINTENANCE ISSUES
-1.030538	MAKE EVERY
-1.030538	MAKE SURE
-0.729508	MAKING IT
-0.729508	MANGERS AND
-0.4339755	MARRIED </s>
-1.206629	MARRIED OH
-0.729508	MART WAS
-0.729508	MAY NOT
-1.030538	MAYBE OVERPAID
-1.030538	MAYBE WE
-0.729508	MCKENZIE <unk>
-1.507659	ME A
-1.507659	ME BUT
-1.507659	ME EVERYWHERE
-1.507659	ME ON
-1.507659	ME SO
-1.507659	ME THERE'S
-0.729508	MEAN THAT
-0.729508	MEMORIAL DAY
-0.729508	MET AT
-0.729508	MHM YES
-0.4231005	MHMM </s>
-0.6558243	MHMM YUP
-1.030538	MIDDLE </s>
-1.030538	MIDDLE OF
-0.2578843	MIGHT BE
-0.729508	MILES FROM
-0.729508	MILLER AND
-0.729508	MOBILITY AND
-0.729508	MODERATELY STRESSFUL
-1.206629	MONDAY </s>
-1.206629	MONDAY MEMORIAL
-1.206629	MONDAY MORNING
-1.331568	MONEY </s>
-1.331568	MONEY BECAUSE
-1.331568	MONEY BEFORE
-1.331568	MONEY IN
-0.729508	MONTH IT
-0.729508	MONTHS OLD
-0.729508	MOON AND
-1.030538	MORE LIKE
-1.030538	MORE PEACEFUL
-0.4339755	MORNING I
-1.206629	MORNING I'M
-0.729508	MOST FUN
-0.729508	MOSTLY IN
-0.729508	MOUNTAINS TO
-0.729508	MOVE FROM
-0.729508	MOVED IN
-0.729508	MOVIE TONIGHT
-0.729508	MOVING WENT
-1.331568	MUCH JUST
-1.331568	MUCH STUFF
-1.331568	MUCH THE
-1.331568	MUCH YEAH
-1.030538	MUSIC HISTORY
-1.030538	MUSIC TONIGHT
-0.729508	MUSICIAN I'M
-1.933628	MY </s>
-1.933628	MY DAD'S
-1.933628	MY DAUGHTER
-1.933628	MY DOG
-1.933628	MY FAMILY
-1.933628	MY HUSBAND
-1.933628	MY IN
-1.933628	MY INCOME
-1.933628	MY LITTLE
-1.933628	MY MCKENZIE
-1.933628	MY NIECE
-1.933628	MY PARENTS
-1.933628	MY PARTNER'S
-1.933628	MY SICK
-1.933628	MY UNCLE
-1.933628	MY VACATIONS
-0.729508	NEAR TAMPA
-0.729508	NEAT </s>
-0.729508	NEED YEAH
-0.729508	NEUROLOGIST THAT
-0.729508	NEW JOB
-1.428478	NEXT MAINTENANCE
-1.428478	NEXT REALTOR
-1.428478	NEXT THREE
-0.6558243	NEXT YEAR
-0.4339755	NICE </s>
-1.206629	NICE INSIDE
-0.729508	NIECE IS
-0.729508	NIECES IN
-1.030538	NIGHT </s>
-1.030538	NIGHT I'LL
-0.729508	NINE O'CLOCK
-1.04635	NO </s>
-2.051727	NO ACTUALLY
-2.051727	NO FROM
-1.04635	NO I
-2.051727	NO I'M
-2.051727	NO IDEA
-2.051727	NO ISSUES
-1.279074	NO NOT
-2.051727	NO OTHER
-2.051727	NO PROBLEM
-2.051727	NO REASON
-2.051727	NO WAY
-1.04635	NO WE
-2.051727	NO WELL
-1.030538	NORTH </s>
-1.030538	NORTH CAROLINA
-0.729508	NORTHEAST OR
-0.729508	NORTHWEST OF
-2.071931	NOT </s>
-2.071931	NOT A
-2.071931	NOT ANYTHING
-2.071931	NOT DEPRESSED
-1.299277	NOT ENOUGH
-1.066553	NOT EXACTLY
-1.299277	NOT I
-2.071931	NOT SOME
-1.299277	NOT THAT
-2.071931	NOT THE
-2.071931	NOT THINK
-1.299277	NOT THIS
-2.071931	NOT TOO
-2.071931	NOT UNPACKED
-2.071931	NOT WASTE
-2.071931	NOT YOU
-1.030538	NOTHING PLANNED
-1.030538	NOTHING YET
-1.632598	NOW A
-0.8599443	NOW I'M
-1.632598	NOW IT'S
-1.632598	NOW MOSTLY
-1.632598	NOW THAT
-1.632598	NOW THERE
-1.632598	NOW TO
-0.729508	O'CLOCK IT'S
-0.729508	OAK </s>
-0.729508	OCCASIONAL TORNADO
-0.729508	OCCASIONALLY BUT
-0.729508	OCEAN IT
-2.091236	OF A
-2.091236	OF ABOUT
-2.091236	OF BEING
-2.091236	OF COMPANIES
-2.091236	OF CONTRACTORS
-2.091236	OF EACH
-2.091236	OF FUN
-2.091236	OF MONEY
-2.091236	OF MUSIC
-2.091236	OF MY
-2.091236	OF SLUSH
-2.091236	OF SOMETHING
-2.091236	OF STUFF
-2.091236	OF TAMPA
-1.085858	OF THE
-2.091236	OF THEM
-2.091236	OF THINGS
-2.091236	OF TRUCKLOADS
-2.091236	OF WANTED
-2.091236	OF WAWA
-2.091236	OF YET
-0.729508	OFF SO
-1.770901	OH FIVE
-0.7655232	OH I
-1.770901	OH IT
-1.770901	OH NO
-1.770901	OH NOT
-1.770901	OH OKAY
-1.770901	OH WELL
-0.998247	OH YEAH
-0.729508	OHIO WHERE
-0.729508	OK </s>
-0.01790753	OKAY </s>
-0.2578843	OLD </s>
-1.160974	ON A
-1.933628	ON ANTI
-1.933628	ON ANTIDEPRESSANTS
-1.933628	ON BILLY
-1.933628	ON BUT
-1.160974	ON DISABILITY
-1.933628	ON IT
-1.933628	ON MAKING
-1.933628	ON MONDAY
-1.160974	ON THAT
-0.9282505	ON THE
-1.808689	ONE BANK
-1.808689	ONE HUNDRED
-1.036036	ONE IS
-1.808689	ONE IT
-0.8033118	ONE OF
-1.808689	ONE POINT
-1.808689	ONE RELATOR
-1.808689	ONE TO
-1.808689	ONE YEAR
-1.030538	ONES BE
-1.030538	ONES I
-1.206629	ONLY ONES
-1.206629	ONLY THING
-1.206629	ONLY THREE
-0.729508	ONTARIO </s>
-1.428478	OR GIFTS
-1.428478	OR HIRE
-1.428478	OR IF
-1.428478	OR NORTHWEST
-1.428478	OR ONE
-0.729508	ORLANDO </s>
-1.331568	OTHER HOLIDAY
-1.331568	OTHER ONE
-1.331568	OTHER ONES
-1.331568	OTHER WEEKEND
-0.729508	OUR COUCH
-1.632598	OUT </s>
-1.632598	OUT AND
-1.632598	OUT EVERYBODY
-1.632598	OUT OF
-1.632598	OUT THAT
-1.632598	OUT THE
-1.632598	OUT WALKING
-1.632598	OUT WERE
-1.507659	OVER IN
-0.5316909	OVER THE
-1.507659	OVER WITH
-1.030538	OVERPAID </s>
-1.030538	OVERPAID FOR
-1.030538	OVERWHELMING </s>
-1.030538	OVERWHELMING AS
-1.331568	PAID 300
-0.3261905	PAID CASH
-0.729508	PALM BEACH
-0.729508	PANDAS </s>
-0.729508	PARENTS DIED
-0.729508	PART NOT
-0.729508	PARTNER'S A
-0.729508	PARTY SO
-0.729508	PAY YOU
-0.729508	PEACEFUL INSIDE
-0.729508	PEOPLE </s>
-0.729508	PERHAPS AN
-0.729508	PETE </s>
-0.729508	PETOSKEY WHERE
-0.729508	PICK UP
-0.729508	PICTURES </s>
-1.030538	PLACE NOT
-1.030538	PLACE THAT
-0.729508	PLAN </s>
-1.030538	PLANNED IS
-1.030538	PLANNED YET
-1.331568	PLAY DATE
-1.331568	PLAY GOLF
-1.331568	PLAY IN
-1.331568	PLAY THERE
-1.030538	PLAYING A
-1.030538	PLAYING AT
-0.729508	PLUMBER TO
-0.729508	POINT SEVEN
-0.729508	POOP AND
-0.729508	POWER WASH
-0.729508	POWERFUL HOSE
-0.729508	PRETTY MUCH
-0.729508	PRINCESS </s>
-1.507659	PROBABLY A
-1.507659	PROBABLY AND
-1.507659	PROBABLY CLEANING
-1.507659	PROBABLY SATURDAY
-1.507659	PROBABLY TAKE
-1.507659	PROBABLY THE
-1.030538	PROBLEM ACTUALLY
-1.030538	PROBLEM YOU
-0.729508	PROFESSOR SO
-0.729508	PROGRAMING SO
-1.030538	PROOF </s>
-1.030538	PROOF FROM
-0.729508	PROPERTY MANGERS
-0.729508	PROPHYLACTIC PURPOSES
-0.729508	PULLS ME
-0.729508	PURPOSES </s>
-0.729508	PUT ME
-0.729508	QUARTER INCH
-0.729508	QUICK TRIP
-0.729508	QUICKEN LOANS
-0.729508	QUIZZES OVER
-0.729508	RACE TRACK
-0.729508	RAISED </s>
-0.729508	RAY DONAVAN
-0.729508	READ </s>
-0.729508	READING A
-0.729508	REAL BIG
-1.030538	REALLY NEAT
-1.030538	REALLY NICE
-0.729508	REALTOR SAID
-0.729508	REASON </s>
-0.729508	RECEPTION </s>
-0.729508	RECOMMEND IT
-0.729508	RED PANDAS
-1.206629	REHEARSAL THAT
-1.206629	REHEARSAL THEN
-1.206629	REHEARSAL UM
-0.729508	RELATIONSHIP HE'S
-1.206629	RELATOR ABOUT
-1.206629	RELATOR SAID
-1.206629	RELATOR THAT
-0.729508	RELIGIOUS TYPE
-0.729508	REMEMBER WHICH
-0.729508	RESIDENTIAL </s>
-0.729508	REUPHOLSTERING OUR
-0.729508	RID OF
-0.729508	RIDE BIKE
-0.8019524	RIGHT </s>
-1.574606	RIGHT EXACTLY
-0.5692285	RIGHT NOW
-1.574606	RIGHT RIGHT
-0.729508	ROAD </s>
-0.729508	ROCHESTER HILLS
-0.729508	ROTATOR CUFF
-0.729508	ROYAL OAK
-0.729508	SAGINAW </s>
-0.6558243	SAID OH
-0.6558243	SAID THAT
-1.428478	SAID THERE'S
-0.729508	SAINT PETE
-0.729508	SALE </s>
-0.729508	SALVATION ARMY
-0.729508	SAME EXACT
-0.729508	SARASOTA SO
-1.206629	SATURDAY </s>
-1.206629	SATURDAY MORNING
-1.206629	SATURDAY NIGHT
-0.729508	SAW AN
-1.030538	SCHOOL </s>
-1.030538	SCHOOL AND
-1.331568	SEE A
-1.331568	SEE MY
-1.331568	SEE THAT
-1.331568	SEE THEM
-0.729508	SEEN THAT
-0.4339755	SELL IT
-1.206629	SELL THE
-0.729508	SELLING IT
-0.729508	SEMESTER FOR
-1.331568	SEVEN </s>
-1.331568	SEVEN QUIZZES
-0.5589143	SEVEN SEVEN
-1.030538	SHE HAD
-1.030538	SHE WAS
-1.030538	SHOULD BE
-1.030538	SHOULD GO
-0.729508	SHOULDER SURGERY
-0.729508	SHOWER FOR
-1.030538	SHOWS </s>
-1.030538	SHOWS I
-0.729508	SHUT DOWN
-0.2578843	SICK TIME
-0.729508	SILLY AND
-0.729508	SISTERS THAT
-0.729508	SIT THERE
-0.729508	SITUATION IT'S
-0.729508	SLUSH YA'LL
-0.729508	SMALL LIST
-1.35191	SO </s>
-2.50036	SO AN
-1.727706	SO AND
-2.50036	SO BETWEEN
-2.50036	SO BUSY
-2.50036	SO COOL
-2.50036	SO DEPRESSION
-2.50036	SO HE'LL
-2.50036	SO HE'S
-2.50036	SO HOLIDAYS
-1.524392	SO I
-2.50036	SO I'LL
-2.50036	SO I'M
-1.08979	SO IT
-1.35191	SO IT'S
-2.50036	SO ITS
-2.50036	SO MUCH
-2.50036	SO NO
-2.50036	SO NOW
-2.50036	SO THAT
-1.494982	SO THAT'S
-2.50036	SO THE
-2.50036	SO THEN
-1.494982	SO THEY
-2.50036	SO THIS
-2.50036	SO UM
-1.524392	SO WE
-2.50036	SO WE'LL
-2.50036	SO WE'RE
-1.727706	SO YEAH
-2.50036	SO YES
-1.206629	SOME FRIENDS
-1.206629	SOME PLACE
-1.206629	SOME RELIGIOUS
-1.030538	SOMEBODY </s>
-1.030538	SOMEBODY THAT
-0.729508	SOMETHING RIGHT
-0.729508	SOMETIME </s>
-0.729508	SORRY </s>
-1.030538	SOUTH DO
-1.030538	SOUTH OF
-0.729508	STARED AT
-0.729508	START ON
-1.030538	STARTED A
-1.030538	STARTED GOING
-0.2578843	STARTS AT
-0.729508	STAY </s>
-1.030538	STILL MAINTENANCE
-1.030538	STILL RIDE
-1.030538	STRESS OF
-1.030538	STRESS THERE'S
-0.729508	STRESSFUL </s>
-0.729508	STUDY ERR
-0.5589143	STUFF </s>
-1.331568	STUFF AND
-1.331568	STUFF GOING
-0.729508	STUMBLE OCCASIONALLY
-0.729508	SUICIDE SO
-1.030538	SUNDAY I'M
-1.030538	SUNDAY MORNING
-0.729508	SUPPLIES AND
-1.507659	SURE AND
-0.7350056	SURE HE
-1.507659	SURE WHERE
-1.507659	SURE YET
-1.507659	SURE YOU
-0.729508	SURGERY </s>
-0.729508	SWEET LITTLE
-0.729508	SYMPTOMS YOU
-0.729508	TAKE A
-0.729508	TALK AND
-0.2578843	TALKED TO
-0.2578843	TAMPA </s>
-1.030538	TEACH AND
-1.030538	TEACH THREE
-1.206629	TEN AND
-1.206629	TEN DIFFERENT
-1.206629	TEN HOURS
-0.729508	TERRIBLE </s>
-1.206629	TEST </s>
-1.206629	TEST FOR
-1.206629	TEST THAT
-0.729508	THANK YOU
-1.22928	THAT </s>
-2.234658	THAT ARE
-2.234658	THAT BUT
-2.234658	THAT EVERYONE
-2.234658	THAT HERE
-0.60206	THAT I
-2.234658	THAT I'M
-1.462004	THAT IS
-2.234658	THAT JUST
-2.234658	THAT LIVE
-2.234658	THAT MONDAY
-2.234658	THAT MUCH
-2.234658	THAT ON
-2.234658	THAT SHE
-2.234658	THAT SO
-1.462004	THAT THEY
-2.234658	THAT WAS
-2.234658	THAT WEREN'T
-2.234658	THAT WILL
-2.234658	THAT YEAH
-2.234658	THAT YOU'RE
-1.574606	THAT'S GOOD
-1.574606	THAT'S HOLIDAY
-1.574606	THAT'S KIND
-1.574606	THAT'S NOT
-1.574606	THAT'S THAT'S
-1.574606	THAT'S THE
-1.574606	THAT'S YEAH
-2.59874	THE ANIMALS
-2.59874	THE AUDITING
-2.59874	THE BANK
-2.59874	THE BASEMENT
-2.59874	THE BEAVERS
-2.59874	THE BIG
-2.59874	THE CREDIT
-1.826086	THE DEPRESSION
-1.593362	THE DETROIT
-2.59874	THE DISEASE
-2.59874	THE DNA
-1.593362	THE DRAINS
-2.59874	THE ELEMENTARY
-2.59874	THE EQUITY
-2.59874	THE EVEN
-2.59874	THE FAMILY
-2.59874	THE FORMULA
-2.59874	THE FOUR
-2.59874	THE GENE
-1.826086	THE HD
-1.188169	THE HOUSE
-2.59874	THE HURRICANE
-2.59874	THE I
-2.59874	THE INHERITANCE
-2.59874	THE LAKE
-2.59874	THE MAINTENANCE
-2.59874	THE MIDDLE
-2.59874	THE MOBILITY
-2.59874	THE MONEY
-2.59874	THE MOST
-2.59874	THE MOUNTAINS
-2.59874	THE NEUROLOGIST
-1.593362	THE NEXT
-2.59874	THE NIGHT
-2.59874	THE OCEAN
-1.826086	THE ONLY
-1.826086	THE OTHER
-2.59874	THE PLACE
-2.59874	THE PLUMBER
-2.59874	THE POWERFUL
-2.59874	THE RACE
-2.59874	THE RED
-2.59874	THE RELATOR
-2.59874	THE ROAD
-2.59874	THE SAME
-2.59874	THE SEMESTER
-2.59874	THE SHOWS
-2.59874	THE SO
-2.59874	THE STRESS
-2.59874	THE SUPPLIES
-2.59874	THE THE
-2.59874	THE TWO
-1.826086	THE WAY
-2.59874	THE WEDDING
-1.593362	THE WEEKEND
-2.59874	THE YOU
-2.59874	THE ZOO
-1.030538	THEIR JEWISH
-1.030538	THEIR MONEY
-1.331568	THEM </s>
-1.331568	THEM AT
-1.331568	THEM BACK
-1.331568	THEM EVERY
-1.808689	THEN </s>
-1.808689	THEN HIGH
-0.8033118	THEN I
-1.808689	THEN MONDAY
-1.808689	THEN PROBABLY
-1.808689	THEN THE
-1.808689	THEN TUES
-1.808689	THEN TUESDAY
-1.808689	THEN UM
-1.808689	THEN WE
-0.729508	THERAPIST AT
-0.8702585	THERE </s>
-1.875636	THERE AGAIN
-1.102982	THERE AND
-1.875636	THERE BORING
-1.875636	THERE IS
-1.875636	THERE IT
-1.875636	THERE JUST
-1.102982	THERE LIKE
-1.875636	THERE NOT
-1.875636	THERE SOMETIME
-1.574606	THERE'S A
-0.8019524	THERE'S LIKE
-1.574606	THERE'S NO
-1.574606	THERE'S PROBABLY
-1.574606	THERE'S STILL
-1.574606	THERE'S TOO
-2.008262	THEY ALMOST
-1.032293	THEY ARE
-1.235608	THEY BASED
-2.008262	THEY DECIDE
-2.008262	THEY DECIDED
-2.008262	THEY DO
-1.235608	THEY HAD
-2.008262	THEY LIVE
-2.008262	THEY SAID
-2.008262	THEY TRUST
-2.008262	THEY WANT
-1.235608	THEY WERE
-2.008262	THEY WON
-1.030538	THEY'RE AMAZING
-1.030538	THEY'RE SO
-1.030538	THING </s>
-1.030538	THING I
-1.206629	THINGS </s>
-1.206629	THINGS FOR
-1.206629	THINGS I
-1.507659	THINK AWAY
-1.507659	THINK IT
-1.507659	THINK SO
-1.507659	THINK THAT
-1.507659	THINK WE
-1.507659	THINK YOU'RE
-0.729508	THIRTEEN AND
-1.507659	THIS CLASS
-1.507659	THIS FALLS
-0.5316909	THIS WEEKEND
-1.206629	THOUGH HE
-1.206629	THOUGH HOPEFULLY
-1.206629	THOUGH I
-0.729508	THOUSAND DOLLARS
-1.206629	THREE CLASSES
-1.206629	THREE DAYS
-1.206629	THREE MONTHS
-1.206629	THROUGH AND
-1.206629	THROUGH SOMEBODY
-1.206629	THROUGH THERE
-0.5589143	TIME </s>
-0.5589143	TIME SO
-0.729508	TIMES A
-1.377343	TO </s>
-1.610067	TO A
-2.38272	TO ADRIAN
-1.406752	TO BE
-2.38272	TO CANADA
-1.610067	TO COME
-2.38272	TO DRIVE
-2.38272	TO EVICT
-2.38272	TO FIX
-2.38272	TO FLORIDA
-2.38272	TO FORMULATE
-1.406752	TO GET
-1.377343	TO GO
-2.38272	TO HAVE
-2.38272	TO IT
-1.610067	TO MAKE
-1.610067	TO ME
-2.38272	TO MY
-2.38272	TO PETOSKEY
-2.38272	TO PICK
-2.38272	TO PUT
-1.610067	TO SEE
-2.38272	TO SELL
-1.377343	TO THE
-2.38272	TO TO
-2.38272	TO USE
-2.38272	TO WALK
-2.38272	TO WHO
-0.729508	TOLD </s>
-0.729508	TOMORROW AND
-1.030538	TONIGHT </s>
-1.030538	TONIGHT TOMORROW
-1.331568	TOO BADLY
-1.331568	TOO HOT
-1.331568	TOO MUCH
-1.331568	TOO STRESS
-0.729508	TOOK PICTURES
-0.729508	TORE MY
-0.729508	TORNADO </s>
-1.030538	TRACK </s>
-1.030538	TRACK OVER
-0.729508	TREATMENT FACILITY
-1.030538	TRIP SO
-1.030538	TRIP TWO
-0.729508	TROUBLE IT'S
-1.206629	TRUCKLOADS AND
-1.206629	TRUCKLOADS OF
-1.206629	TRUCKLOADS TRUCKLOADS
-0.729508	TRUST </s>
-0.2012517	TRYING TO
-0.729508	TUES THEN
-1.030538	TUESDAY I
-1.030538	TUESDAY THEN
-0.729508	TURNED THIRTEEN
-0.729508	TV SHOWS
-0.729508	TWELVE </s>
-0.8019524	TWO </s>
-1.574606	TWO GIRLS
-1.574606	TWO GRAND
-1.574606	TWO OUT
-1.574606	TWO SISTERS
-1.574606	TWO THOUSAND
-0.729508	TYPE THING
-1.507659	UH DOING
-1.507659	UH EXERCISE
-1.507659	UH I
-1.507659	UH NOTHING
-1.507659	UH SARASOTA
-1.507659	UH VERY
-0.729508	UHH HE'LL
-1.632598	UM BECAUSE
-1.632598	UM BUT
-1.632598	UM HE
-1.632598	UM HE'S
-1.632598	UM SATURDAY
-1.632598	UM YEAH
-1.632598	UM YES
-1.632598	UM YOU
-0.729508	UMM THE
-0.729508	UNCLE INVITED
-0.729508	UNDER MY
-0.729508	UNION WE
-1.030538	UNPACKED EVERYTHING
-1.030538	UNPACKED YET
-1.574606	UP </s>
-1.574606	UP AND
-1.574606	UP BECAUSE
-1.574606	UP COMING
-1.574606	UP SOME
-1.574606	UP TO
-1.574606	UP WALKING
-0.729508	USE MY
-0.729508	USED TO
-0.729508	VACATIONS DAYS
-0.729508	VARIETY </s>
-1.574606	VERY BUSY
-1.574606	VERY EXCITING
-1.574606	VERY GREAT
-1.574606	VERY HELPFUL
-1.574606	VERY SWEET
-0.8019524	VERY VERY
-0.729508	VP IT
-0.729508	WABATONGUSHI </s>
-0.729508	WAL MART
-1.030538	WALK AROUND
-1.030538	WALK WITHOUT
-0.729508	WALKED AROUND
-0.2578843	WALKING AROUND
-0.729508	WANT TO
-0.2578843	WANTED TO
-0.2578843	WANTS TO
-0.729508	WARNING </s>
-1.257884	WAS </s>
-2.030538	WAS A
-2.030538	WAS AND
-2.030538	WAS EMPTIED
-1.257884	WAS FUN
-2.030538	WAS GETTING
-2.030538	WAS IT'S
-2.030538	WAS KIND
-2.030538	WAS LOTS
-2.030538	WAS ONE
-2.030538	WAS OUT
-2.030538	WAS READING
-1.257884	WAS REALLY
-2.030538	WAS THE
-2.030538	WAS TOO
-1.257884	WAS TWO
-0.729508	WASH THE
-1.030538	WASTE A
-1.030538	WASTE THEIR
-0.729508	WAWA ONTARIO
-1.428478	WAY IT
-1.428478	WAY MORE
-1.428478	WAY NORTH
-1.428478	WAY THE
-1.428478	WAY YOU'RE
-2.176666	WE ALSO
-1.171288	WE ARE
-2.176666	WE COULD
-2.176666	WE COULDN'T
-2.176666	WE DID
-2.176666	WE DO
-2.176666	WE DROVE
-2.176666	WE GOT
-1.200698	WE HAD
-2.176666	WE HAVE
-2.176666	WE JUST
-2.176666	WE KIND
-2.176666	WE MET
-2.176666	WE SAW
-2.176666	WE STARTED
-2.176666	WE TOOK
-2.176666	WE WALKED
-1.171288	WE WENT
-1.404012	WE WERE
-2.176666	WE WILL
-0.729508	WE'LL JUST
-1.030538	WE'RE GOOD
-1.030538	WE'RE WORKING
-1.030538	WE'VE BEEN
-1.030538	WE'VE HAD
-1.428478	WEDDING </s>
-1.428478	WEDDING AND
-1.428478	WEDDING I
-1.428478	WEDDING IN
-1.428478	WEDDING RECEPTION
-1.206629	WEEK </s>
-0.4339755	WEEK AND
-0.2346964	WEEKEND </s>
-1.683751	WEEKEND PROBABLY
-1.683751	WEEKEND SO
-1.683751	WEEKEND UH
-0.729508	WEEKENDS BEFORE
-0.729508	WEIRD SITUATION
-1.683751	WELL AND
-0.9110968	WELL I
-0.9110968	WELL I'M
-1.683751	WELL IT
-1.683751	WELL IT'S
-1.683751	WELL RIGHT
-1.683751	WELL THE
-1.507659	WENT DOWN
-1.507659	WENT FROM
-1.507659	WENT THROUGH
-0.5022817	WENT TO
-1.574606	WERE ALL
-1.574606	WERE ANTICIPATING
-1.574606	WERE OUT
-1.574606	WERE THE
-1.574606	WERE THERE
-1.574606	WERE TURNED
-1.574606	WERE UP
-1.030538	WEREN'T IN
-1.030538	WEREN'T OUT
-1.206629	WHAT ELSE
-1.206629	WHAT I'VE
-1.206629	WHAT YOU
-0.729508	WHATEVER YEAH
-0.729508	WHEELCHAIR ANYWAY
-0.6558243	WHEN I
-1.428478	WHEN THERE'S
-1.428478	WHEN WE
-1.428478	WHEN YOUR
-0.729508	WHENEVER YOU
-1.632598	WHERE DID
-1.632598	WHERE HE
-1.632598	WHERE I
-1.632598	WHERE I'M
-1.632598	WHERE IT
-1.632598	WHERE THAT
-1.632598	WHERE WE
-1.632598	WHERE YOU
-0.729508	WHICH ONE
-1.030538	WHILE I
-1.030538	WHILE WE
-0.729508	WHITMORE LAKE
-1.206629	WHO IS
-1.206629	WHO SAID
-1.206629	WHO WOULD
-0.729508	WHOLE BUNCH
-0.729508	WHY ARE
-1.030538	WILL PROBABLY
-1.030538	WILL STAY
-1.632598	WITH HER
-1.632598	WITH MY
-1.632598	WITH POOP
-1.632598	WITH THAT
-0.6566296	WITH THE
-0.729508	WITHOUT FALLING
-0.729508	WON </s>
-0.729508	WON'T BE
-1.206629	WORK BUT
-1.206629	WORK PROBABLY
-1.206629	WORK SATURDAY
-1.428478	WORKING </s>
-1.428478	WORKING AT
-1.428478	WORKING I
-1.428478	WORKING ON
-1.428478	WORKING TEN
-0.729508	WORKS </s>
-0.729508	WOULD DO
-0.729508	WRITING A
-0.729508	YA'LL ARE
-0.3340303	YEAH </s>
-2.342292	YEAH ABSOLUTELY
-1.569638	YEAH AND
-1.569638	YEAH I'M
-2.342292	YEAH IN
-2.342292	YEAH IT
-1.569638	YEAH IT'S
-2.342292	YEAH NO
-1.366323	YEAH SO
-2.342292	YEAH THAT
-2.342292	YEAH THE
-2.342292	YEAH THERE'S
-1.336914	YEAH WE
-2.342292	YEAH WELL
-2.342292	YEAH YEP
-0.5022817	YEAR </s>
-0.7350056	YEAR AGO
-1.507659	YEAR AND
-0.729508	YEARS OLD
-0.729508	YEP </s>
-0.3357921	YES </s>
-2.144481	YES IF
-1.139104	YES IT
-2.144481	YES IT'S
-1.371828	YES MY
-2.144481	YES OH
-2.144481	YES THERE
-2.144481	YES THEY'RE
-2.144481	YES TWO
-2.144481	YES YEAH
-1.371828	YES YES
-0.5316909	YET </s>
-1.507659	YET BUT
-1.507659	YET TO
-2.22087	YOU ALL
-2.22087	YOU AND
-2.22087	YOU BACK
-2.22087	YOU CAN
-1.448216	YOU COULD
-2.22087	YOU DIDN'T
-2.22087	YOU DON'T
-2.22087	YOU GET
-2.22087	YOU GUYS
-1.448216	YOU HAVE
-2.22087	YOU HERE
-2.22087	YOU I'M
-2.22087	YOU JUST
-0.4913617	YOU KNOW
-2.22087	YOU MAY
-2.22087	YOU MOVE
-2.22087	YOU PAID
-2.22087	YOU SHOULD
-2.22087	YOU WEREN'T
-2.22087	YOU WON'T
-1.206629	YOU'RE DEPRESSED
-1.206629	YOU'RE GOING
-1.206629	YOU'RE NOT
-1.030538	YOUR GROWN
-1.030538	YOUR INCOME
-1.206629	YUP </s>
-1.206629	YUP IT
-1.206629	YUP NO
-1.030538	ZOO </s>
-1.030538	ZOO AND

\end\
