
\data\
ngram 1=675
ngram 2=1899

\1-grams:
-3.410609	17	-0.07169901
-3.410609	18	-0.04071012
-2.933487	300	-0.01776092
-3.410609	6	-0.08716208
-3.410609	96	-0.08716208
-3.410609	96TH	-0.08716208
-0.9923072	</s>
-99	<s>	-0.2377436
-3.109579	<unk>	-0.08206866
-1.541377	A	-0.14389
-2.933487	ABOUT	-0.08614815
-3.410609	ABSOLUTELY	-0.04071012
-3.410609	ACCESSIBLE	-0.07169901
-2.711638	ACTUALLY	-0.1566405
-3.410609	ADRIAN	-0.08614816
-3.410609	AGAIN	-0.08530141
-2.933487	AGO	-0.07932752
-3.410609	ALCOHOL	-0.08716208
-2.507519	ALL	-0.1595414
-3.109579	ALMOST	-0.08699326
-3.410609	ALONG	-0.07431472
-2.933487	ALSO	-0.08394317
-3.410609	ALWAYS	-0.08631731
-3.109579	AM	-0.07379285
-3.109579	AMAZING	-0.03503794
-2.808548	AN	-0.2043448
-1.451567	AND	-0.03826368
-3.410609	ANIMALS	-0.08614816
-3.410609	ANOTHER	-0.08682436
-3.410609	ANTI	-0.08716208
-3.410609	ANTICIPATING	-0.08716208
-3.410609	ANTIDEPRESSANTS	-0.08513187
-3.410609	ANY	-0.08682436
-3.410609	ANYONE	-0.08682436
-3.410609	ANYTHING	-0.08360296
-3.410609	ANYWAY	-0.04071012
-3.410609	APPEAR	-0.08682436
-3.410609	APPOINTMENTS	-0.04071012
-2.410609	ARE	-0.1115926
-3.410609	AREA	-0.04071012
-3.410609	ARMY	-0.04071012
-2.711638	AROUND	-0.1503812
-3.109579	AS	-0.07984282
-2.296665	AT	-0.1064648
-3.410609	AUDITING	-0.08716208
-3.410609	AUNT	-0.08682436
-3.410609	AWAY	-0.0854709
-2.632457	BACK	-0.1993299
-3.410609	BAD	-0.08716208
-3.410609	BADLY	-0.04071012
-3.109579	BANK	-0.07134906
-2.933487	BASED	-0.2428676
-3.410609	BASEMENT	-0.0822394
-3.410609	BASICALLY	-0.08479258
-3.410609	BATH	-0.07169901
-3.410609	BATTLE	-0.08716208
-2.18016	BE	-0.0762478
-3.410609	BEACH	-0.04071012
-3.410609	BEAVERS	-0.04071012
-2.410609	BECAUSE	-0.3455971
-3.410609	BED	-0.08716208
-2.808548	BEEN	-0.2021424
-2.933487	BEFORE	-0.02013087
-2.808548	BEING	-0.2993495
-3.410609	BELONGS	-0.04071012
-3.109579	BETWEEN	-0.35395
-3.109579	BEYOND	-0.03484758
-2.711638	BIG	-0.08648639
-3.410609	BIKE	-0.04071012
-3.410609	BILLY	-0.08716208
-3.410609	BIRTHDAY	-0.08699325
-3.410609	BIT	-0.08360296
-3.410609	BLAST	-0.08018599
-3.410609	BOOK	-0.08479258
-3.410609	BORING	-0.08716208
-3.410609	BORN	-0.07169901
-3.410609	BOTHER	-0.04071012
-3.410609	BRASS	-0.08716208
-3.410609	BRING	-0.08665542
-2.933487	BUNCH	-0.4270187
-3.109579	BUSY	-0.08189785
-2.048881	BUT	-0.08681381
-3.410609	BUYING	-0.08682436
-3.410609	CALLED	-0.08530141
-2.507519	CAN	-0.02929066
-3.410609	CAN'T	-0.0822394
-3.410609	CAROLINA	-0.08597894
-2.933487	CASH	-0.07064829
-2.808548	CAUSE	-0.06641983
-3.410609	CENTERVILLE	-0.08716208
-3.410609	CENTRAL	-0.0854709
-3.410609	CHAUFFEUR	-0.08699325
-3.410609	CLASS	-0.04071012
-3.410609	CLASSES	-0.07169901
-3.410609	CLEANED	-0.08597894
-3.410609	CLEANING	-0.04071012
-2.933487	COLLEGE	-0.188533
-3.109579	COME	-0.081385
-3.410609	COMING	-0.08631731
-3.410609	COMMERCIAL	-0.08018599
-3.410609	COMMITTED	-0.08716208
-3.410609	COMMUNITY	-0.08682436
-3.410609	COMPANIES	-0.08206865
-3.410609	COMPLETELY	-0.08614816
-3.410609	COMPUTER	-0.08716208
-3.410609	COMPUTERS	-0.07743293
-3.109579	CONE	-0.3203454
-3.410609	CONTRACTORS	-0.07169901
-3.410609	COOL	-0.04071012
-3.410609	COUCH	-0.08631731
-2.808548	COULD	-0.07795045
-3.109579	COULDN'T	-0.08631732
-3.109579	COUPLE	-0.08631732
-3.410609	COURSE	-0.08309212
-3.410609	CRAZY	-0.04071012
-3.410609	CREDIT	-0.08716208
-3.410609	CREEK	-0.04071012
-3.410609	CRYSTAL	-0.04071012
-3.410609	CUFF	-0.08155601
-3.410609	CURRENTLY	-0.08513187
-3.410609	DAD'S	-0.08682436
-3.410609	DATE	-0.08343275
-3.410609	DAUGHTER	-0.04071012
-3.109579	DAY	-0.03826127
-2.711638	DAYS	-0.1141455
-3.410609	DEAL	-0.08360296
-3.410609	DEALING	-0.08564031
-3.410609	DECIDE	-0.0841132
-3.410609	DECIDED	-0.08479258
-2.933487	DEFINITELY	-0.02599981
-3.410609	DELTA	-0.08682436
-3.410609	DEPARTMENT	-0.04071012
-3.410609	DEPRESSANTS	-0.08564031
-2.933487	DEPRESSED	-0.03976988
-2.933487	DEPRESSION	-0.07466229
-2.808548	DETROIT	-0.1576475
-2.933487	DID	-0.07361873
-3.109579	DIDN'T	-0.08699326
-3.410609	DIED	-0.07169901
-3.410609	DIFFERENCE	-0.08699325
-3.109579	DIFFERENT	-0.08665542
-3.410609	DIRT	-0.08699325
-3.109579	DISABILITY	-0.3203454
-3.410609	DISASTER	-0.08716208
-3.410609	DISEASE	-0.08716208
-3.410609	DNA	-0.08716208
-2.565511	DO	-0.08540303
-3.410609	DOCTORS	-0.08716208
-3.410609	DOES	-0.04071012
-3.410609	DOESN'T	-0.08716208
-3.410609	DOG	-0.07169901
-2.933487	DOING	-0.06941923
-3.410609	DOLLARS	-0.07932753
-2.264481	DON'T	-0.1923051
-3.410609	DONAVAN	-0.04071012
-2.711638	DOWN	-0.1201735
-3.109579	DOWNTOWN	-0.08631732
-2.933487	DRAINS	-0.07134905
-3.109579	DRIVE	-0.08530142
-3.109579	DRIVING	-0.08597895
-3.410609	DROVE	-0.08597894
-3.410609	DRUG	-0.07169901
-3.410609	EACH	-0.04071012
-3.109579	EIGHT	-0.08530142
-3.109579	ELEMENTARY	-0.07134906
-3.410609	ELSE	-0.08682436
-3.410609	EM	-0.08343275
-3.410609	EMBARRASSING	-0.04071012
-3.410609	EMPTIED	-0.08513187
-3.410609	ENDED	-0.08614816
-3.109579	ENOUGH	-0.06994642
-3.410609	EQUITY	-0.08479258
-3.410609	ERR	-0.08682436
-3.410609	ERUPTED	-0.08564031
-2.808548	EVEN	-0.2031603
-3.410609	EVER	-0.08716208
-3.109579	EVERY	-0.0864864
-3.410609	EVERYBODY	-0.08377311
-3.410609	EVERYONE	-0.08716208
-3.109579	EVERYTHING	-0.07622296
-3.410609	EVERYWHERE	-0.08343275
-3.410609	EVICT	-0.08716208
-3.410609	EXACT	-0.08716208
-2.808548	EXACTLY	-0.305448
-3.410609	EXCITED	-0.04071012
-3.410609	EXCITING	-0.04071012
-3.410609	EXERCISE	-0.04071012
-3.410609	FACILITY	-0.04071012
-3.410609	FAIRLY	-0.08716208
-3.410609	FALLING	-0.08631731
-3.410609	FALLS	-0.08716208
-2.933487	FAMILY	-0.0195396
-3.410609	FAN	-0.08716208
-3.410609	FANCY	-0.08716208
-3.410609	FARM	-0.08309212
-3.410609	FEEL	-0.08206865
-3.410609	FEES	-0.08682436
-3.109579	FESTIVAL	-0.06959505
-3.410609	FIELD	-0.07932753
-3.410609	FIFTY	-0.08665542
-3.410609	FIND	-0.08716208
-3.410609	FIREWORKS	-0.07169901
-2.933487	FIRST	-0.08309212
-3.410609	FIVE	-0.04071012
-3.410609	FIX	-0.08018599
-2.933487	FLORIDA	-0.03044622
-3.410609	FOOD	-0.08665542
-2.296665	FOR	-0.1445399
-3.410609	FORGOT	-0.08206865
-3.410609	FORMULA	-0.07169901
-3.410609	FORMULATE	-0.0746623
-3.410609	FORT	-0.08716208
-3.410609	FORTY	-0.04071012
-3.410609	FOUND	-0.08597894
-3.410609	FOUR	-0.08648639
-3.410609	FRESHMAN	-0.08309212
-3.109579	FRIDAY	-0.07169902
-3.109579	FRIENDS	-0.03863892
-2.369216	FROM	-0.2786567
-2.632457	FUN	-0.1646126
-3.410609	FUNCTIONAL	-0.08716208
-3.410609	GAME	-0.04071012
-3.410609	GARAGE	-0.08716208
-3.410609	GAY	-0.08716208
-3.410609	GENE	-0.04071012
-2.296665	GET	-0.1777525
-3.410609	GETS	-0.08716208
-2.933487	GETTING	-0.239403
-3.410609	GIFTS	-0.04071012
-3.410609	GIRLS	-0.04071012
-3.109579	GIVE	-0.07361875
-3.410609	GIVING	-0.08665542
-2.565511	GO	-0.06977075
-3.410609	GOES	-0.04071012
-2.456366	GOING	-1.030984
-3.109579	GOLF	-0.04052224
-3.410609	GONE	-0.08597894
-2.632457	GOOD	-0.176307
-2.565511	GOT	-0.1259929
-3.410609	GRADUATING	-0.08648639
-3.410609	GRAHAM	-0.04071012
-3.410609	GRAND	-0.04071012
-2.808548	GREAT	-0.03939321
-3.410609	GROWN	-0.07932753
-3.410609	GUYS	-0.08716208
-2.331427	HAD	-0.1630244
-3.109579	HALF	-0.08445302
-3.410609	HANDICAP	-0.08716208
-3.410609	HAPPENS	-0.08665542
-3.410609	HAPPY	-0.04071012
-3.109579	HARD	-0.07881165
-3.410609	HAS	-0.07431472
-2.109579	HAVE	-0.1967715
-3.410609	HAVEN'T	-0.08665542
-3.109579	HAVING	-0.35395
-3.109579	HD	-0.02327086
-2.410609	HE	-0.1257377
-3.109579	HE'LL	-0.3640883
-2.711638	HE'S	-0.1536115
-3.410609	HELP	-0.07169901
-3.410609	HELPFUL	-0.04071012
-3.109579	HER	-0.0864864
-3.109579	HERE	-0.04033428
-3.410609	HIGH	-0.08699325
-3.410609	HILLS	-0.04071012
-3.410609	HIRE	-0.08699325
-2.933487	HISTORY	-0.2018199
-3.109579	HOLIDAY	-0.07915565
-3.410609	HOLIDAYS	-0.08496226
-3.410609	HOME	-0.08309212
-3.410609	HONEY	-0.08716208
-3.109579	HOPEFULLY	-0.07708757
-3.410609	HOSE	-0.07169901
-3.410609	HOT	-0.04071012
-3.109579	HOUR	-0.04033428
-3.410609	HOURS	-0.0746623
-2.632457	HOUSE	-0.07664443
-3.410609	HOUSES	-0.08716208
-3.410609	HOW	-0.07932753
-3.410609	HOWEVER	-0.04071012
-3.410609	HUNDRED	-0.04071012
-3.410609	HURRICANE	-0.04071012
-1.461219	I	-0.4172988
-3.410609	I'D	-0.08716208
-2.933487	I'LL	-0.2485246
-2.048881	I'M	-0.1508457
-3.109579	I'VE	-0.3662907
-3.410609	IDEA	-0.04071012
-2.565511	IF	-0.165783
-3.410609	IMMEDIATELY	-0.08631731
-2.012669	IN	-0.07648239
-3.410609	INAUDIBLE	-0.04071012
-3.410609	INCH	-0.08360296
-3.109579	INCOME	-0.3644278
-3.410609	INDIVIDUAL	-0.04071012
-3.410609	INHERITANCE	-0.07169901
-3.109579	INSIDE	-0.06143404
-3.410609	INSTRUMENTS	-0.04071012
-3.410609	INTO	-0.08716208
-3.410609	INVITED	-0.08631731
-2.234517	IS	-0.1176481
-3.410609	ISN'T	-0.08716208
-3.410609	ISSUE	-0.08716208
-2.933487	ISSUES	-0.2350329
-1.787359	IT	-0.2177088
-3.410609	IT'LL	-0.08445302
-1.87913	IT'S	-0.1840065
-3.109579	ITS	-0.08665542
-3.109579	JAZZ	-0.3666285
-3.109579	JEFF	-0.3666285
-3.410609	JEWISH	-0.07743293
-3.410609	JOANNE'S	-0.07169901
-3.410609	JOB	-0.08206865
-3.109579	JUNE	-0.04014623
-3.410609	JUNIOR	-0.04071012
-2.234517	JUST	-0.03655777
-3.410609	KIDS	-0.07169901
-2.933487	KIND	-0.4270187
-3.410609	KINDA	-0.08716208
-2.048881	KNOW	-0.06749756
-3.410609	LADY	-0.04071012
-3.109579	LAKE	-0.04033428
-3.109579	LANDLORD	-0.3611913
-2.933487	LAST	-0.0863173
-3.410609	LAUDERDALE'S	-0.08360296
-3.410609	LAWS'	-0.08716208
-3.410609	LEAGUE	-0.08309212
-3.410609	LECTURE	-0.07169901
-3.410609	LEFT	-0.08614816
-3.410609	LEGAL	-0.08716208
-3.410609	LESS	-0.08360296
-2.068186	LIKE	-0.08186606
-3.410609	LIONS	-0.08716208
-3.410609	LIONS'	-0.08716208
-3.410609	LIST	-0.08360296
-2.933487	LITTLE	-0.08682436
-3.109579	LIVE	-0.08292172
-2.808548	LOAN	-0.08258069
-3.109579	LOANS	-0.03920477
-3.410609	LOCATION	-0.07204869
-3.410609	LONG	-0.08665542
-3.410609	LOOK	-0.08513187
-3.109579	LOOKED	-0.08189785
-3.410609	LOST	-0.08682436
-3.410609	LOT	-0.08360296
-3.410609	LOTS	-0.08360296
-3.410609	LOVE	-0.08018599
-3.410609	LOVES	-0.08716208
-2.933487	MAINTENANCE	-0.2519176
-3.109579	MAKE	-0.08597895
-3.410609	MAKING	-0.08018599
-3.410609	MANGERS	-0.07169901
-2.933487	MARRIED	-0.2039011
-3.410609	MART	-0.08377311
-3.410609	MAY	-0.08360296
-3.109579	MAYBE	-0.0822394
-3.410609	MCKENZIE	-0.08699325
-2.632457	ME	-0.05620911
-3.410609	MEAN	-0.08206865
-3.410609	MEMORIAL	-0.08699325
-3.410609	MET	-0.08513187
-3.410609	MHM	-0.08309212
-2.711638	MHMM	-0.3569157
-3.109579	MIDDLE	-0.03655778
-3.109579	MIGHT	-0.3640883
-3.410609	MILLER	-0.07169901
-3.410609	MOBILITY	-0.07169901
-3.410609	MODERATELY	-0.08716208
-2.933487	MONDAY	-0.03995809
-2.808548	MONEY	-0.03351275
-3.410609	MONTH	-0.08018599
-3.410609	MONTHS	-0.08699325
-3.410609	MOON	-0.07169901
-3.109579	MORE	-0.08343276
-2.933487	MORNING	-0.2332725
-3.410609	MOST	-0.08631731
-3.410609	MOSTLY	-0.08309212
-3.410609	MOUNTAINS	-0.07932753
-3.410609	MOVE	-0.0854709
-3.410609	MOVED	-0.08309212
-3.410609	MOVIE	-0.08699325
-3.410609	MOVING	-0.08631731
-2.808548	MUCH	-0.06375599
-3.109579	MUSIC	-0.0864864
-3.410609	MUSICIAN	-0.08343275
-2.234517	MY	-0.03236534
-3.410609	NEAR	-0.08699325
-3.410609	NEAT	-0.04071012
-3.410609	NEED	-0.08035748
-3.410609	NEUROLOGIST	-0.08206865
-3.410609	NEW	-0.08716208
-2.711638	NEXT	-0.1765936
-2.933487	NICE	-0.2055964
-3.410609	NIECE	-0.08479258
-3.410609	NIECES	-0.08309212
-3.109579	NIGHT	-0.04014623
-3.410609	NINE	-0.08716208
-2.068186	NO	-0.1328464
-3.109579	NORTH	-0.08530142
-2.068186	NOT	-0.09646463
-3.109579	NOTHING	-0.08597895
-2.507519	NOW	-0.1026604
-3.410609	O'CLOCK	-0.08155601
-3.410609	OAK	-0.04071012
-3.410609	OCCASIONAL	-0.08716208
-3.410609	OCCASIONALLY	-0.08343275
-3.410609	OCEAN	-0.08018599
-2.068186	OF	-0.08345206
-3.410609	OFF	-0.07743293
-2.369216	OH	-0.163224
-3.410609	OHIO	-0.08614816
-3.410609	OK	-0.04071012
-2.711638	OKAY	-1.689429
-3.109579	OLD	-0.3203454
-2.234517	ON	-0.1588722
-2.331427	ONE	-0.1687659
-3.109579	ONES	-0.06906746
-2.933487	ONLY	-0.08614815
-2.808548	OR	-0.0837731
-3.410609	ORLANDO	-0.04071012
-2.808548	OTHER	-0.08309212
-3.410609	OUR	-0.08716208
-2.507519	OUT	0.004797004
-2.632457	OVER	-0.1917788
-3.109579	OVERPAID	-0.03826127
-3.109579	OVERWHELMING	-0.04033428
-2.808548	PAID	-0.3153693
-3.410609	PALM	-0.08716208
-3.410609	PANDAS	-0.04071012
-3.410609	PARENTS	-0.08716208
-3.410609	PART	-0.08360296
-3.410609	PARTNER'S	-0.0746623
-3.410609	PARTY	-0.07743293
-3.410609	PAY	-0.0822394
-3.410609	PEACEFUL	-0.08699325
-3.410609	PEOPLE	-0.04071012
-3.410609	PERHAPS	-0.08665542
-3.410609	PETE	-0.04071012
-3.410609	PETOSKEY	-0.08614816
-3.410609	PETS	-0.07169901
-3.410609	PICK	-0.08614816
-3.410609	PICTURES	-0.04071012
-3.109579	PLACE	-0.07829514
-3.410609	PLAN	-0.04071012
-3.109579	PLANNED	-0.08377311
-2.711638	PLAY	-0.03274815
-3.410609	PLAYED	-0.08564031
-3.109579	PLAYING	-0.07239808
-3.410609	PLUMBER	-0.07932753
-3.410609	POINT	-0.08665542
-3.410609	POOP	-0.07169901
-3.410609	POWER	-0.08716208
-3.410609	POWERFUL	-0.08716208
-3.410609	PRETTY	-0.08665542
-3.410609	PRINCESS	-0.04071012
-2.632457	PROBABLY	-0.04370527
-3.109579	PROBLEM	-0.081385
-3.410609	PROFESSOR	-0.07743293
-3.410609	PROGRAMING	-0.07743293
-3.109579	PROOF	-0.03863892
-3.410609	PROPERTY	-0.08716208
-3.410609	PROPHYLACTIC	-0.08716208
-3.410609	PULLS	-0.08631731
-3.410609	PURPOSES	-0.04071012
-3.410609	PUT	-0.08631731
-3.410609	QUARTER	-0.08716208
-3.410609	QUICK	-0.08716208
-3.410609	QUICKEN	-0.08699325
-3.410609	QUIZZES	-0.08631731
-3.410609	RACE	-0.08699325
-3.410609	RAISED	-0.04071012
-3.410609	RAY	-0.08716208
-3.410609	READ	-0.04071012
-3.410609	READING	-0.0746623
-3.410609	REAL	-0.08648639
-3.109579	REALLY	-0.08665542
-3.410609	REALTOR	-0.08648639
-3.410609	REASON	-0.04071012
-3.410609	RECEPTION	-0.04071012
-3.410609	RECOMMEND	-0.08018599
-3.410609	RED	-0.08716208
-2.933487	REHEARSAL	-0.07812282
-3.410609	RELATIONSHIP	-0.08648639
-2.933487	RELATOR	-0.08070025
-3.410609	RELIGIOUS	-0.08716208
-3.410609	REMEMBER	-0.08716208
-3.410609	RESIDENTIAL	-0.04071012
-3.410609	REUPHOLSTERING	-0.08716208
-3.410609	RID	-0.08360296
-3.410609	RIDE	-0.08716208
-2.565511	RIGHT	-0.2376855
-3.410609	ROAD	-0.04071012
-3.410609	ROCHESTER	-0.08716208
-3.410609	ROTATOR	-0.08716208
-3.410609	ROYAL	-0.08716208
-3.410609	SAGINAW	-0.04071012
-2.711638	SAID	-0.2864528
-3.410609	SAINT	-0.08716208
-3.410609	SALE	-0.04071012
-3.410609	SALVATION	-0.08716208
-3.410609	SAME	-0.08716208
-3.410609	SARASOTA	-0.07743293
-2.933487	SATURDAY	-0.03976988
-3.410609	SAW	-0.08665542
-3.109579	SCHOOL	-0.02327086
-2.711638	SEE	-0.06535626
-3.410609	SEEN	-0.08206865
-2.933487	SELL	-0.2322128
-3.410609	SELLING	-0.08018599
-3.410609	SEMESTER	-0.08513187
-2.808548	SEVEN	-0.1574593
-3.109579	SHE	-0.08172696
-3.109579	SHOULD	-0.08326248
-3.410609	SHOULDER	-0.08716208
-3.410609	SHOWER	-0.08513187
-3.109579	SHOWS	-0.02366176
-3.410609	SHUT	-0.08648639
-3.109579	SICK	-0.3662907
-3.410609	SILLY	-0.07169901
-3.410609	SISTERS	-0.08206865
-3.410609	SIT	-0.08496226
-3.410609	SITUATION	-0.08155601
-3.410609	SLUSH	-0.08716208
-3.410609	SMALL	-0.08716208
-1.647181	SO	-0.09065467
-2.933487	SOME	-0.08648638
-3.109579	SOMEBODY	-0.03484758
-3.410609	SOMETHING	-0.08614816
-3.410609	SOMETIME	-0.04071012
-3.410609	SORRY	-0.04071012
-3.109579	SOUTH	-0.08241008
-3.410609	STARED	-0.08513187
-3.410609	START	-0.08479258
-3.109579	STARTED	-0.07309602
-3.109579	STARTS	-0.3647671
-3.410609	STAY	-0.04071012
-3.109579	STILL	-0.08665542
-3.109579	STRESS	-0.08241008
-3.410609	STRESSFUL	-0.04071012
-3.410609	STUDY	-0.08716208
-2.808548	STUFF	-0.1391968
-3.410609	STUMBLE	-0.08716208
-3.410609	SUICIDE	-0.07743293
-3.109579	SUNDAY	-0.08292172
-3.410609	SUPPLIES	-0.07169901
-2.632457	SURE	-0.1371457
-3.410609	SURGERY	-0.04071012
-3.410609	SWEET	-0.08682436
-3.410609	SYMPTOMS	-0.0822394
-3.410609	TAKE	-0.0746623
-3.109579	TALKED	-0.3589628
-3.109579	TAMPA	-0.3203454
-3.109579	TEACH	-0.07117398
-2.933487	TEN	-0.07117397
-3.410609	TERRIBLE	-0.04071012
-2.933487	TEST	-0.03236533
-3.410609	THANK	-0.0822394
-1.919247	THAT	-0.1509183
-2.565511	THAT'S	-0.05999893
-1.529795	THE	-0.1228127
-3.109579	THEIR	-0.0864864
-2.808548	THEM	-0.03674737
-2.331427	THEN	-0.06170594
-3.410609	THERAPIST	-0.08513187
-2.264481	THERE	-0.1258884
-2.565511	THERE'S	-0.1281305
-2.131855	THEY	-0.1907529
-3.109579	THEY'RE	-0.07708757
-3.109579	THING	-0.02366176
-2.933487	THINGS	-0.02111456
-2.632457	THINK	-0.05891951
-3.410609	THIRTEEN	-0.07169901
-2.632457	THIS	-0.209063
-2.933487	THOUGH	-0.0699464
-3.410609	THOUSAND	-0.08716208
-2.933487	THREE	-0.08614815
-2.933487	THROUGH	-0.06889144
-2.808548	TIME	-0.3093115
-3.410609	TIMES	-0.0746623
-1.738511	TO	-0.1118323
-3.410609	TOLD	-0.04071012
-3.410609	TOMORROW	-0.07169901
-3.109579	TONIGHT	-0.04052224
-2.808548	TOO	-0.08597893
-3.410609	TOOK	-0.08716208
-3.410609	TORE	-0.08479258
-3.410609	TORNADO	-0.04071012
-3.109579	TRACK	-0.0395816
-3.410609	TREATMENT	-0.08716208
-3.410609	TRIP	-0.08614816
-3.410609	TROUBLE	-0.08155601
-2.933487	TRUCKLOADS	-0.06730416
-3.410609	TRUST	-0.04071012
-2.933487	TRYING	-0.4227433
-3.410609	TUES	-0.08530141
-3.109579	TUESDAY	-0.06994642
-3.410609	TURNED	-0.08716208
-3.410609	TV	-0.08699325
-3.410609	TWELVE	-0.04071012
-2.565511	TWO	-0.1017571
-3.410609	TYPE	-0.08699325
-2.632457	UH	-0.06959505
-3.410609	UHH	-0.08699325
-2.369216	UM	-0.05675253
-3.109579	UMM	-0.07047294
-3.410609	UNCLE	-0.08716208
-3.410609	UNDER	-0.08479258
-3.410609	UNION	-0.08258069
-3.109579	UNPACKED	-0.08597895
-2.565511	UP	-0.06017858
-3.410609	USE	-0.08479258
-3.410609	USED	-0.07932753
-3.410609	VACATIONS	-0.08648639
-3.410609	VARIETY	-0.04071012
-2.565511	VERY	-0.1479298
-3.410609	VISITED	-0.08564031
-3.410609	VP	-0.08018599
-3.410609	WAL	-0.08716208
-3.109579	WALK	-0.08631732
-3.410609	WALKED	-0.08648639
-3.109579	WALKING	-0.3661216
-3.410609	WANT	-0.07932753
-3.109579	WANTED	-0.3589628
-3.109579	WANTS	-0.3589628
-3.410609	WARNING	-0.04071012
-2.088389	WAS	-0.06046662
-3.410609	WASH	-0.07431472
-3.109579	WASTE	-0.07431473
-2.808548	WAY	-0.06606559
-1.963451	WE	-0.1678507
-3.109579	WE'RE	-0.08547091
-3.109579	WE'VE	-0.08462284
-2.711638	WEDDING	-0.0001806617
-2.933487	WEEK	-0.188533
-2.456366	WEEKEND	-0.1641943
-3.410609	WEEKENDS	-0.08682436
-3.410609	WEIRD	-0.08716208
-2.507519	WELL	-0.1458215
-2.632457	WENT	-0.2146626
-2.565511	WERE	-0.06748081
-3.109579	WEREN'T	-0.08172696
-2.933487	WHAT	-0.08172695
-3.410609	WHATEVER	-0.08035748
-3.410609	WHEELCHAIR	-0.08716208
-2.711638	WHEN	-0.1569954
-3.410609	WHENEVER	-0.0822394
-2.565511	WHERE	-0.0476053
-3.410609	WHICH	-0.08530141
-3.109579	WHILE	-0.06712746
-3.410609	WHITMORE	-0.08699325
-2.933487	WHO	-0.0837731
-3.410609	WHOLE	-0.08682436
-3.410609	WHY	-0.08564031
-3.109579	WILL	-0.08614817
-2.410609	WITH	-0.1350464
-3.410609	WITHOUT	-0.08716208
-3.410609	WON	-0.04071012
-3.410609	WON'T	-0.08445302
-2.933487	WORK	-0.08189783
-2.711638	WORKING	-0.01756284
-3.410609	WORKS	-0.04071012
-3.410609	WOULD	-0.08614816
-3.410609	WRITING	-0.0746623
-3.410609	YA'LL	-0.08564031
-1.797825	YEAH	-0.3553602
-2.632457	YEAR	-0.267951
-3.410609	YEARS	-0.08699325
-3.410609	YEP	-0.04071012
-2.012669	YES	-0.3822741
-2.632457	YET	-0.15095
-1.933487	YOU	-0.241852
-2.933487	YOU'RE	-0.081556
-3.109579	YOUR	-0.08682437
-2.933487	YUP	-0.02851859
-3.109579	ZOO	-0.02327086

\2-grams:
-0.7395507	17 AND
-0.7395507	18 </s>
-1.216672	300 </s>
-1.216672	300 AND
-1.216672	300 WE
-0.7395507	6 WEEKENDS
-0.7395507	96 YEARS
-0.7395507	96TH BIRTHDAY
-2.361069	<s> A
-2.361069	<s> ACTUALLY
-3.157852	<s> ALL
-3.157852	<s> AN
-1.163029	<s> AND
-3.157852	<s> AROUND
-3.157852	<s> BE
-3.157852	<s> BECAUSE
-3.157852	<s> BEFORE
-3.157852	<s> BORN
-3.157852	<s> BRASS
-1.819505	<s> BUT
-3.157852	<s> BUYING
-3.157852	<s> CAUSE
-3.157852	<s> COUPLE
-3.157852	<s> DEFINITELY
-3.157852	<s> DELTA
-3.157852	<s> DOCTORS
-3.157852	<s> DOWNTOWN
-3.157852	<s> ELEMENTARY
-3.157852	<s> EVEN
-3.157852	<s> FLORIDA
-2.361069	<s> FOR
-3.157852	<s> FORT
-2.361069	<s> GOING
-3.157852	<s> GOOD
-3.157852	<s> HE'S
-3.157852	<s> HISTORY
-1.139548	<s> I
-2.129612	<s> I'M
-2.142458	<s> IN
-2.129612	<s> IT
-1.92943	<s> IT'S
-2.361069	<s> JEFF
-3.157852	<s> JUST
-3.157852	<s> MHM
-1.727381	<s> MHMM
-3.157852	<s> MILLER
-3.157852	<s> MODERATELY
-3.157852	<s> MUSIC
-2.361069	<s> MY
-3.157852	<s> NEXT
-1.33912	<s> NO
-3.157852	<s> NOT
-3.157852	<s> NOTHING
-1.727381	<s> OH
-3.157852	<s> OK
-2.142458	<s> OKAY
-2.361069	<s> ONE
-3.157852	<s> OR
-3.157852	<s> OVER
-3.157852	<s> PALM
-3.157852	<s> PERHAPS
-3.157852	<s> PLAY
-3.157852	<s> PRETTY
-3.157852	<s> PROBABLY
-3.157852	<s> READ
-2.142458	<s> RIGHT
-3.157852	<s> ROTATOR
-3.157852	<s> SAINT
-3.157852	<s> SHE
-3.157852	<s> SHOULD
-1.24221	<s> SO
-3.157852	<s> SOME
-3.157852	<s> SUNDAY
-3.157852	<s> TEN
-3.157852	<s> THANK
-3.157852	<s> THAT
-2.361069	<s> THAT'S
-3.157852	<s> THE
-3.157852	<s> THEN
-3.157852	<s> THERE
-3.157852	<s> THERE'S
-1.92943	<s> THEY
-3.157852	<s> THROUGH
-3.157852	<s> TV
-3.157852	<s> TWO
-2.142458	<s> UH
-2.129612	<s> UM
-2.361069	<s> UMM
-3.157852	<s> VERY
-2.129612	<s> WE
-2.361069	<s> WE'VE
-1.727381	<s> WELL
-3.157852	<s> WENT
-3.157852	<s> WHAT
-3.157852	<s> WHEN
-3.157852	<s> WHENEVER
-3.157852	<s> WHERE
-3.157852	<s> WITH
-3.157852	<s> WORKING
-0.9711432	<s> YEAH
-1.163029	<s> YES
-1.92943	<s> YOU
-3.157852	<s> YUP
-1.040581	<unk> IN
-1.040581	<unk> THIS
-2.608782	A BAD
-1.593389	A BIG
-2.608782	A BLAST
-1.811999	A BUNCH
-2.608782	A CHAUFFEUR
-2.608782	A COMMUNITY
-2.608782	A COUPLE
-2.608782	A DAY
-2.608782	A DIFFERENT
-2.608782	A DIRT
-2.608782	A DISASTER
-2.608782	A DRUG
-2.608782	A FAIRLY
-2.608782	A FUNCTIONAL
-2.608782	A GARAGE
-2.608782	A GOLF
-2.608782	A GOOD
-1.811999	A GREAT
-1.811999	A HALF
-2.608782	A HE
-2.608782	A HONEY
-2.608782	A HOUSE
-2.608782	A JUNIOR
-1.811999	A LANDLORD
-2.608782	A LECTURE
-2.608782	A LIONS
-2.608782	A LIONS'
-2.608782	A LITTLE
-1.580543	A LOAN
-2.608782	A LONG
-2.608782	A LOT
-2.608782	A MOVIE
-2.608782	A MUSICIAN
-2.608782	A NEW
-2.608782	A PLAY
-2.608782	A PROBLEM
-2.608782	A PROFESSOR
-2.608782	A PROPHYLACTIC
-2.608782	A QUARTER
-2.608782	A REAL
-1.811999	A REHEARSAL
-2.608782	A RELATIONSHIP
-2.608782	A RELATOR
-2.608782	A SALVATION
-2.608782	A SHOWER
-2.608782	A SMALL
-1.811999	A TEST
-2.608782	A THERAPIST
-2.608782	A VERY
-2.608782	A VP
-1.580543	A WEDDING
-1.811999	A WEEK
-2.608782	A WEIRD
-2.608782	A WHEELCHAIR
-2.608782	A WHOLE
-1.593389	A YEAR
-2.608782	A YOU
-1.216672	ABOUT LAST
-1.216672	ABOUT SELLING
-1.216672	ABOUT TEN
-0.7395507	ABSOLUTELY </s>
-0.7395507	ACCESSIBLE AND
-1.438521	ACTUALLY DOWN
-1.438521	ACTUALLY FROM
-0.6417376	ACTUALLY I
-1.438521	ACTUALLY I'M
-0.7395507	ADRIAN WHERE
-0.7395507	AGAIN THEN
-1.216672	AGO BECAUSE
-1.216672	AGO BUT
-1.216672	AGO THERE
-0.7395507	ALCOHOL TREATMENT
-1.642641	ALL FROM
-1.642641	ALL INDIVIDUAL
-1.642641	ALL OUT
-0.6144012	ALL THE
-1.642641	ALL THROUGH
-1.040581	ALMOST LOST
-1.040581	ALMOST NINE
-0.7395507	ALONG THE
-1.216672	ALSO HAD
-1.216672	ALSO TRYING
-1.216672	ALSO WHEN
-0.7395507	ALWAYS FUN
-1.040581	AM A
-1.040581	AM WORKING
-1.040581	AMAZING </s>
-1.040581	AMAZING YOU
-1.341611	AN AUNT
-0.5448276	AN HOUR
-1.341611	AN OCCASIONAL
-2.698592	AND 18
-2.698592	AND </s>
-1.670353	AND A
-2.698592	AND ALCOHOL
-2.698592	AND ALL
-1.670353	AND AND
-2.698592	AND BE
-2.698592	AND BEYOND
-2.698592	AND ENDED
-2.698592	AND EVEN
-2.698592	AND EVERYTHING
-2.698592	AND FRIDAY
-2.698592	AND GIVE
-2.698592	AND GO
-2.698592	AND GOT
-2.698592	AND HANDICAP
-1.683198	AND HE
-1.683198	AND I
-2.698592	AND I'M
-2.698592	AND IF
-1.683198	AND JUST
-2.698592	AND LESS
-2.698592	AND LIKE
-2.698592	AND LOOK
-2.698592	AND LOOKED
-2.698592	AND MIDDLE
-2.698592	AND NOT
-2.698592	AND NOW
-2.698592	AND ONE
-2.698592	AND OUT
-2.698592	AND PLAY
-2.698592	AND PROPERTY
-2.698592	AND RAISED
-0.8798602	AND SO
-1.901809	AND STUFF
-2.698592	AND TEACH
-1.47017	AND THE
-2.698592	AND THEIR
-1.670353	AND THEN
-1.670353	AND THEY
-2.698592	AND TRUCKLOADS
-2.698592	AND TWELVE
-2.698592	AND UH
-1.901809	AND UM
-2.698592	AND VISITED
-2.698592	AND WAL
-2.698592	AND WALK
-2.698592	AND WE
-2.698592	AND WHATEVER
-2.698592	AND WHEN
-2.698592	AND WHITMORE
-2.698592	AND WITH
-1.901809	AND YOU
-2.698592	AND YOUR
-0.7395507	ANIMALS WERE
-0.7395507	ANOTHER REHEARSAL
-0.7395507	ANTI DEPRESSANTS
-0.7395507	ANTICIPATING MOVING
-0.7395507	ANTIDEPRESSANTS FOR
-0.7395507	ANY WORK
-0.7395507	ANYONE WHO
-0.7395507	ANYTHING LIKE
-0.7395507	ANYWAY </s>
-0.7395507	APPEAR DEPRESSED
-0.7395507	APPOINTMENTS </s>
-1.739551	ARE 17
-0.9427676	ARE </s>
-1.739551	ARE ALL
-1.739551	ARE ALSO
-1.739551	ARE GOING
-1.739551	ARE IT'S
-0.9427676	ARE LIKE
-1.739551	ARE YOU
-0.7395507	AREA </s>
-0.7395507	ARMY </s>
-1.438521	AROUND JOANNE'S
-1.438521	AROUND SO
-0.6417376	AROUND THE
-1.438521	AROUND WE
-1.040581	AS IT
-1.040581	AS OVERWHELMING
-1.056711	AT A
-1.853494	AT ALL
-1.853494	AT ALMOST
-1.853494	AT BED
-1.853494	AT EIGHT
-1.853494	AT FIRST
-1.853494	AT LIKE
-1.853494	AT QUICKEN
-1.853494	AT SO
-1.056711	AT THE
-1.853494	AT YOU
-0.7395507	AUDITING DEPARTMENT
-0.7395507	AUNT WHO
-0.7395507	AWAY FROM
-0.5023083	BACK AND
-1.517702	BACK GET
-1.517702	BACK PLAYING
-1.517702	BACK TO
-0.7395507	BAD LOCATION
-0.7395507	BADLY </s>
-1.040581	BANK AND
-1.040581	BANK BEYOND
-0.4198889	BASED IT
-1.216672	BASED ON
-0.7395507	BASEMENT YOU
-0.7395507	BASICALLY ON
-0.7395507	BATH AND
-0.7395507	BATTLE CREEK
-1.97	BE A
-1.97	BE COMMERCIAL
-1.97	BE DEALING
-1.97	BE EMBARRASSING
-1.97	BE GOOD
-1.97	BE GRADUATING
-1.97	BE HAPPY
-1.173217	BE IN
-1.97	BE IT
-1.97	BE ONE
-1.97	BE RESIDENTIAL
-1.97	BE SILLY
-1.97	BE STARED
-1.97	BE UHH
-1.97	BE VERY
-1.97	BE YOU
-0.7395507	BEACH </s>
-0.7395507	BEAVERS </s>
-1.739551	BECAUSE FOR
-0.3090792	BECAUSE I
-1.739551	BECAUSE I'VE
-1.739551	BECAUSE IT
-1.739551	BECAUSE MY
-1.739551	BECAUSE WE
-0.7395507	BED BATH
-1.341611	BEEN HOME
-0.5448276	BEEN ON
-1.341611	BEEN TOLD
-1.216672	BEFORE </s>
-1.216672	BEFORE THAT
-1.216672	BEFORE THE
-0.326217	BEING A
-1.341611	BEING IN
-0.7395507	BELONGS </s>
-0.2437976	BETWEEN THE
-1.040581	BEYOND </s>
-1.040581	BEYOND THAT
-1.438521	BIG DEAL
-1.438521	BIG DIFFERENCE
-1.438521	BIG FANCY
-1.438521	BIG PARTY
-1.438521	BIG WARNING
-0.7395507	BIKE </s>
-0.7395507	BILLY GRAHAM
-0.7395507	BIRTHDAY WHILE
-0.7395507	BIT OF
-0.7395507	BLAST IT
-0.7395507	BOOK ON
-0.7395507	BORING HOWEVER
-0.7395507	BORN AND
-0.7395507	BOTHER </s>
-0.7395507	BRASS INSTRUMENTS
-0.7395507	BRING THEM
-0.2012783	BUNCH OF
-1.040581	BUSY I'M
-1.040581	BUSY WEEKEND
-1.085885	BUT </s>
-2.101279	BUT AND
-2.101279	BUT BUT
-1.304495	BUT I
-1.304495	BUT IF
-2.101279	BUT IT'LL
-1.304495	BUT IT'S
-2.101279	BUT NOT
-2.101279	BUT NOW
-2.101279	BUT SUNDAY
-2.101279	BUT THE
-2.101279	BUT THEN
-2.101279	BUT THERE
-2.101279	BUT THERE'S
-1.304495	BUT WE
-1.304495	BUT YEAH
-0.7395507	BUYING THINGS
-0.7395507	CALLED ONE
-1.642641	CAN </s>
-1.642641	CAN BE
-1.642641	CAN GET
-1.642641	CAN HAVE
-1.642641	CAN PAY
-1.642641	CAN SEE
-1.642641	CAN SELL
-1.642641	CAN SIT
-0.7395507	CAN'T YOU
-0.7395507	CAROLINA CAN
-1.216672	CASH A
-1.216672	CASH FOR
-1.216672	CASH WITH
-1.341611	CAUSE ABOUT
-1.341611	CAUSE I
-1.341611	CAUSE OF
-1.341611	CAUSE THAT'S
-0.7395507	CENTERVILLE BRING
-0.7395507	CENTRAL FROM
-0.7395507	CHAUFFEUR WE'RE
-0.7395507	CLASS </s>
-0.7395507	CLASSES AND
-0.7395507	CLEANED OUT
-0.7395507	CLEANING </s>
-0.4198889	COLLEGE </s>
-1.216672	COLLEGE AND
-1.040581	COME IN
-1.040581	COME WITH
-0.7395507	COMING BACK
-0.7395507	COMMERCIAL IT
-0.7395507	COMMITTED SUICIDE
-0.7395507	COMMUNITY COLLEGE
-0.7395507	COMPANIES THAT
-0.7395507	COMPLETELY GOT
-0.7395507	COMPUTER PROGRAMING
-0.7395507	COMPUTERS SO
-0.2437976	CONE </s>
-0.7395507	CONTRACTORS AND
-0.7395507	COOL </s>
-0.7395507	COUCH OVER
-1.341611	COULD BE
-1.341611	COULD BUT
-1.341611	COULD GET
-1.341611	COULD GIVE
-1.040581	COULDN'T FIND
-1.040581	COULDN'T SEE
-1.040581	COUPLE DAYS
-1.040581	COUPLE TIMES
-0.7395507	COURSE IN
-0.7395507	CRAZY </s>
-0.7395507	CREDIT UNION
-0.7395507	CREEK </s>
-0.7395507	CRYSTAL </s>
-0.7395507	CUFF IT'S
-0.7395507	CURRENTLY AT
-0.7395507	DAD'S HISTORY
-0.7395507	DATE BUT
-0.7395507	DAUGHTER </s>
-1.040581	DAY </s>
-1.040581	DAY FOR
-0.6417376	DAYS </s>
-1.438521	DAYS OVER
-1.438521	DAYS SO
-1.438521	DAYS YOU
-0.7395507	DEAL LIKE
-0.7395507	DEALING WITH
-0.7395507	DECIDE THEY
-0.7395507	DECIDED ON
-1.216672	DEFINITELY </s>
-1.216672	DEFINITELY A
-1.216672	DEFINITELY NICE
-0.7395507	DELTA COLLEGE
-0.7395507	DEPARTMENT </s>
-0.7395507	DEPRESSANTS BECAUSE
-1.216672	DEPRESSED </s>
-1.216672	DEPRESSED CAUSE
-1.216672	DEPRESSED DOESN'T
-1.216672	DEPRESSION IS
-1.216672	DEPRESSION PART
-1.216672	DEPRESSION SO
-1.341611	DETROIT </s>
-0.5448276	DETROIT JAZZ
-1.341611	DETROIT ZOO
-1.216672	DID NOT
-1.216672	DID WE
-1.216672	DID YOU
-1.040581	DIDN'T FEEL
-1.040581	DIDN'T SORRY
-0.7395507	DIED AND
-0.7395507	DIFFERENCE BETWEEN
-1.040581	DIFFERENT BOOK
-1.040581	DIFFERENT THINGS
-0.7395507	DIRT TRACK
-0.2437976	DISABILITY </s>
-0.7395507	DISASTER AREA
-0.7395507	DISEASE WORKS
-0.7395507	DNA STUDY
-1.584649	DO </s>
-1.584649	DO ANY
-0.7878656	DO LIKE
-1.584649	DO MY
-1.584649	DO SO
-1.584649	DO STUMBLE
-0.7395507	DOCTORS APPOINTMENTS
-0.7395507	DOES </s>
-0.7395507	DOESN'T MEAN
-0.7395507	DOG AND
-1.216672	DOING I'M
-1.216672	DOING OKAY
-1.216672	DOING THE
-0.7395507	DOLLARS TO
-1.885679	DON'T APPEAR
-1.885679	DON'T EVEN
-1.885679	DON'T HAVE
-0.6572565	DON'T KNOW
-1.088896	DON'T LIKE
-1.885679	DON'T REMEMBER
-1.885679	DON'T SELL
-1.885679	DON'T THERE
-0.7395507	DONAVAN </s>
-1.438521	DOWN </s>
-1.438521	DOWN SOUTH
-1.438521	DOWN THERE
-0.6417376	DOWN TO
-1.040581	DOWNTOWN <unk>
-1.040581	DOWNTOWN DETROIT
-1.216672	DRAINS AND
-1.216672	DRAINS CLEANED
-1.216672	DRAINS ERUPTED
-1.040581	DRIVE DOWN
-1.040581	DRIVE RIGHT
-1.040581	DRIVING IMMEDIATELY
-1.040581	DRIVING UP
-0.7395507	DROVE ALL
-0.7395507	DRUG AND
-0.7395507	EACH </s>
-1.040581	EIGHT FORTY
-1.040581	EIGHT OH
-1.040581	ELEMENTARY AND
-1.040581	ELEMENTARY STARTS
-0.7395507	ELSE DID
-0.7395507	EM BUT
-0.7395507	EMBARRASSING </s>
-0.7395507	EMPTIED FOR
-0.7395507	ENDED UP
-1.040581	ENOUGH AND
-1.040581	ENOUGH BECAUSE
-0.7395507	EQUITY ON
-0.7395507	ERR TEST
-0.7395507	ERUPTED WITH
-1.341611	EVEN BOTHER
-1.341611	EVEN IF
-0.5448276	EVEN THOUGH
-0.7395507	EVER SEEN
-1.040581	EVERY OTHER
-1.040581	EVERY PLAN
-0.7395507	EVERYBODY WAS
-0.7395507	EVERYONE HAS
-1.040581	EVERYTHING SO
-1.040581	EVERYTHING WHERE
-0.7395507	EVERYWHERE BUT
-0.7395507	EVICT PRINCESS
-0.7395507	EXACT SYMPTOMS
-1.341611	EXACTLY SO
-0.326217	EXACTLY SURE
-0.7395507	EXCITED </s>
-0.7395507	EXCITING </s>
-0.7395507	EXERCISE </s>
-0.7395507	FACILITY </s>
-0.7395507	FAIRLY QUICK
-0.7395507	FALLING OVER
-0.7395507	FALLS UNDER
-1.216672	FAMILY </s>
-1.216672	FAMILY AND
-1.216672	FAMILY THEY
-0.7395507	FAN ISN'T
-0.7395507	FANCY HOUSES
-0.7395507	FARM IN
-0.7395507	FEEL THAT
-0.7395507	FEES TRYING
-1.040581	FESTIVAL AND
-1.040581	FESTIVAL THEN
-0.7395507	FIELD TO
-0.7395507	FIFTY OR
-0.7395507	FIND ANYONE
-0.7395507	FIREWORKS AND
-1.216672	FIRST BUT
-1.216672	FIRST FOUND
-1.216672	FIRST MOVED
-0.7395507	FIVE </s>
-0.7395507	FIX IT
-1.216672	FLORIDA </s>
-1.216672	FLORIDA TO
-1.216672	FLORIDA WERE
-0.7395507	FOOD OR
-1.056711	FOR A
-1.853494	FOR IT
-1.853494	FOR MY
-1.853494	FOR NO
-1.853494	FOR ONE
-1.853494	FOR PEOPLE
-1.853494	FOR THAT
-1.056711	FOR THE
-1.056711	FOR THIS
-1.853494	FOR TUESDAY
-0.7395507	FORGOT THAT
-0.7395507	FORMULA AND
-0.7395507	FORMULATE A
-0.7395507	FORT LAUDERDALE'S
-0.7395507	FORTY </s>
-0.7395507	FOUND OUT
-0.7395507	FOUR DAYS
-0.7395507	FRESHMAN IN
-1.040581	FRIDAY FRIDAY
-1.040581	FRIDAY I
-1.040581	FRIENDS </s>
-1.040581	FRIENDS FROM
-1.780943	FROM </s>
-1.780943	FROM CENTERVILLE
-1.780943	FROM DOWN
-1.780943	FROM HAVING
-0.3504719	FROM THE
-1.780943	FROM WHAT
-1.780943	FROM WORK
-0.5023083	FUN </s>
-1.517702	FUN TO
-1.517702	FUN WHEN
-1.517702	FUN YES
-0.7395507	FUNCTIONAL COURSE
-0.7395507	GAME </s>
-0.7395507	GARAGE SALE
-0.7395507	GAY CENTRAL
-0.7395507	GENE </s>
-1.056711	GET 300
-0.8381004	GET A
-1.853494	GET ALL
-1.853494	GET BACK
-1.853494	GET I
-1.853494	GET LOANS
-1.853494	GET SICK
-1.056711	GET THE
-1.853494	GET UP
-0.7395507	GETS CRAZY
-1.216672	GETTING A
-0.4198889	GETTING MARRIED
-0.7395507	GIFTS </s>
-0.7395507	GIRLS </s>
-1.040581	GIVE A
-1.040581	GIVE ME
-0.7395507	GIVING SEVEN
-1.584649	GO ACTUALLY
-1.584649	GO BACK
-1.584649	GO BUT
-1.584649	GO INTO
-1.584649	GO THERE
-1.584649	GO TO
-1.584649	GO YET
-0.7395507	GOES </s>
-1.693793	GOING ON
-0.05115252	GOING TO
-1.040581	GOLF </s>
-1.040581	GOLF LEAGUE
-0.7395507	GONE NOW
-0.5023083	GOOD </s>
-1.517702	GOOD I'D
-1.517702	GOOD ONE
-1.517702	GOOD THOUGH
-1.584649	GOT A
-1.584649	GOT MARRIED
-1.584649	GOT ON
-1.584649	GOT RID
-0.7878656	GOT TO
-1.584649	GOT UNPACKED
-0.7395507	GRADUATING NEXT
-0.7395507	GRAHAM </s>
-0.7395507	GRAND </s>
-1.341611	GREAT </s>
-1.341611	GREAT FIELD
-1.341611	GREAT SCHOOL
-1.341611	GREAT TIME
-0.7395507	GROWN TO
-0.7395507	GUYS EVER
-0.5903097	HAD A
-1.818732	HAD EM
-1.818732	HAD HER
-1.818732	HAD MONEY
-1.818732	HAD SHOULDER
-1.818732	HAD TALKED
-1.818732	HAD TO
-1.040581	HALF AGO
-1.040581	HALF THERE
-0.7395507	HANDICAP ACCESSIBLE
-0.7395507	HAPPENS CAUSE
-0.7395507	HAPPY </s>
-1.040581	HARD GETTING
-1.040581	HARD TO
-0.7395507	HAS THE
-0.8121584	HAVE A
-2.040581	HAVE ANOTHER
-2.040581	HAVE HELP
-2.040581	HAVE MY
-2.040581	HAVE NO
-2.040581	HAVE PLANNED
-1.243798	HAVE PROOF
-1.243798	HAVE THE
-2.040581	HAVE THEM
-1.025187	HAVE TO
-2.040581	HAVE TWO
-0.7395507	HAVEN'T BEEN
-0.2437976	HAVING THE
-1.040581	HD </s>
-1.040581	HD AND
-1.739551	HE COMMITTED
-1.739551	HE DOES
-1.739551	HE JUST
-1.739551	HE LOVES
-1.739551	HE PULLS
-1.739551	HE SAID
-1.739551	HE USED
-1.739551	HE WANTED
-0.9427676	HE WANTS
-0.2437976	HE'LL BE
-1.438521	HE'S A
-1.438521	HE'S IT
-0.6417376	HE'S NOT
-1.438521	HE'S VERY
-0.7395507	HELP AND
-0.7395507	HELPFUL </s>
-1.040581	HER 96TH
-1.040581	HER BEING
-1.040581	HERE </s>
-1.040581	HERE WHILE
-0.7395507	HIGH SCHOOL
-0.7395507	HILLS </s>
-0.7395507	HIRE SOMEBODY
-0.4198889	HISTORY </s>
-1.216672	HISTORY NOT
-1.040581	HOLIDAY LEFT
-1.040581	HOLIDAY TO
-0.7395507	HOLIDAYS DON'T
-0.7395507	HOME IN
-0.7395507	HONEY MOON
-1.040581	HOPEFULLY HOPEFULLY
-1.040581	HOPEFULLY SO
-0.7395507	HOSE AND
-0.7395507	HOT </s>
-1.040581	HOUR </s>
-1.040581	HOUR SOUTH
-0.7395507	HOURS A
-0.7209189	HOUSE </s>
-1.517702	HOUSE ALSO
-1.517702	HOUSE AND
-1.517702	HOUSE I
-1.517702	HOUSE IS
-0.7395507	HOUSES ALONG
-0.7395507	HOW TO
-0.7395507	HOWEVER </s>
-0.7395507	HUNDRED </s>
-0.7395507	HURRICANE </s>
-1.892158	I AM
-2.688941	I CALLED
-1.258469	I CAN
-2.688941	I CAN'T
-2.688941	I COULDN'T
-2.688941	I DIDN'T
-1.673547	I DO
-0.8702087	I DON'T
-2.688941	I DRIVE
-1.892158	I FIRST
-2.688941	I FORGOT
-1.660701	I GET
-2.688941	I GOT
-1.673547	I HAD
-0.7732987	I HAVE
-2.688941	I HAVEN'T
-1.892158	I I
-1.892158	I JUST
-1.350593	I KNOW
-1.892158	I LIKE
-2.688941	I LOVE
-2.688941	I MAYBE
-2.688941	I NEED
-2.688941	I OVERPAID
-1.673547	I PAID
-2.688941	I START
-2.688941	I STARTED
-2.688941	I STILL
-2.688941	I TALKED
-2.688941	I TEACH
-1.258469	I THINK
-2.688941	I TORE
-1.892158	I WAS
-2.688941	I WASTE
-2.688941	I WORK
-0.7395507	I'D RECOMMEND
-1.216672	I'LL BE
-0.4198889	I'LL GO
-2.101279	I'M A
-2.101279	I'M CURRENTLY
-1.304495	I'M DOING
-1.304495	I'M DRIVING
-2.101279	I'M EXCITED
-2.101279	I'M GIVING
-1.085885	I'M GOING
-2.101279	I'M I'M
-2.101279	I'M NOT
-2.101279	I'M OFF
-2.101279	I'M ON
-2.101279	I'M PLAYING
-2.101279	I'M REUPHOLSTERING
-1.304495	I'M SURE
-2.101279	I'M TRYING
-2.101279	I'M UH
-2.101279	I'M WORKING
-2.101279	I'M WRITING
-0.2437976	I'VE BEEN
-0.7395507	IDEA </s>
-0.5564092	IF I
-1.584649	IF IF
-1.584649	IF THEY
-1.584649	IF YOU
-0.7395507	IMMEDIATELY BACK
-1.122097	IN </s>
-1.122097	IN A
-2.137491	IN BATTLE
-2.137491	IN COLLEGE
-2.137491	IN CRYSTAL
-2.137491	IN FLORIDA
-2.137491	IN I
-2.137491	IN JUNE
-2.137491	IN LAWS'
-2.137491	IN LEGAL
-2.137491	IN LIKE
-2.137491	IN NORTH
-2.137491	IN OHIO
-2.137491	IN ORLANDO
-2.137491	IN ROCHESTER
-2.137491	IN ROYAL
-2.137491	IN SAGINAW
-1.109251	IN THE
-0.7395507	INAUDIBLE </s>
-0.7395507	INCH OF
-0.2437976	INCOME IS
-0.7395507	INDIVIDUAL </s>
-0.7395507	INHERITANCE AND
-1.040581	INSIDE AND
-1.040581	INSIDE SO
-0.7395507	INSTRUMENTS </s>
-0.7395507	INTO COMPUTER
-0.7395507	INVITED ME
-1.915642	IS 96
-0.9002483	IS </s>
-1.118859	IS A
-1.915642	IS AS
-1.915642	IS FRESHMAN
-1.915642	IS GETTING
-1.915642	IS IN
-1.118859	IS NOT
-1.915642	IS ONE
-1.915642	IS SO
-1.915642	IS WORKING
-0.7395507	ISN'T ALWAYS
-0.7395507	ISSUE HAPPENS
-0.4198889	ISSUES AND
-1.216672	ISSUES FROM
-1.566017	IT </s>
-2.3628	IT A
-2.3628	IT AND
-2.3628	IT AT
-2.3628	IT BASICALLY
-2.3628	IT BELONGS
-2.3628	IT BUT
-2.3628	IT COULD
-2.3628	IT FOOD
-2.3628	IT FOR
-2.3628	IT GETS
-2.3628	IT GOES
-2.3628	IT GOT
-2.3628	IT I'LL
-1.334561	IT IS
-2.3628	IT LOOKED
-1.566017	IT MIGHT
-2.3628	IT NICE
-2.3628	IT ON
-2.3628	IT SO
-2.3628	IT STARTS
-2.3628	IT UP
-0.447158	IT WAS
-0.7395507	IT'LL BE
-1.042607	IT'S A
-2.271029	IT'S AMAZING
-2.271029	IT'S AT
-1.474247	IT'S DEFINITELY
-2.271029	IT'S FUN
-2.271029	IT'S GONE
-2.271029	IT'S GOOD
-2.271029	IT'S GREAT
-2.271029	IT'S HARD
-2.271029	IT'S I
-0.8405581	IT'S IT'S
-2.271029	IT'S JUST
-1.474247	IT'S LIKE
-2.271029	IT'S MORE
-1.474247	IT'S NOT
-2.271029	IT'S ONLY
-2.271029	IT'S OVERWHELMING
-2.271029	IT'S TERRIBLE
-2.271029	IT'S TOO
-2.271029	IT'S TROUBLE
-2.271029	IT'S WAY
-2.271029	IT'S WITH
-1.040581	ITS HARD
-1.040581	ITS ITS
-0.2437976	JAZZ FESTIVAL
-0.2437976	JEFF CONE
-0.7395507	JEWISH SO
-0.7395507	JOANNE'S AND
-0.7395507	JOB THAT
-1.040581	JUNE </s>
-1.040581	JUNE LAST
-0.7395507	JUNIOR </s>
-1.915642	JUST BECAUSE
-1.915642	JUST CAN
-1.915642	JUST COMPLETELY
-1.915642	JUST DAYS
-1.915642	JUST FIFTY
-1.915642	JUST GET
-1.915642	JUST GOT
-1.915642	JUST HAVING
-1.915642	JUST I
-1.915642	JUST KINDA
-1.915642	JUST PLAY
-1.915642	JUST THE
-1.915642	JUST UM
-1.915642	JUST YES
-1.915642	JUST YOU
-0.7395507	KIDS AND
-0.2012783	KIND OF
-0.7395507	KINDA PLAYED
-1.085885	KNOW </s>
-2.101279	KNOW BECAUSE
-2.101279	KNOW BEING
-2.101279	KNOW CAUSE
-2.101279	KNOW HE
-2.101279	KNOW HE'S
-2.101279	KNOW HOW
-1.085885	KNOW I
-2.101279	KNOW INAUDIBLE
-1.304495	KNOW IT'S
-2.101279	KNOW MAYBE
-2.101279	KNOW MY
-2.101279	KNOW NOT
-2.101279	KNOW OF
-2.101279	KNOW THE
-2.101279	KNOW THEY'RE
-2.101279	KNOW WHAT
-2.101279	KNOW WHEN
-0.7395507	LADY </s>
-1.040581	LAKE </s>
-1.040581	LAKE DOWNTOWN
-0.2437976	LANDLORD IT'S
-1.216672	LAST JUNE
-1.216672	LAST MONTH
-1.216672	LAST WEEK
-0.7395507	LAUDERDALE'S LIKE
-0.7395507	LAWS' FARM
-0.7395507	LEAGUE IN
-0.7395507	LECTURE AND
-0.7395507	LEFT WHERE
-0.7395507	LEGAL FEES
-0.7395507	LESS LIKE
-2.081973	LIKE 6
-1.06658	LIKE </s>
-1.053734	LIKE A
-2.081973	LIKE BEING
-2.081973	LIKE EIGHT
-2.081973	LIKE GAY
-1.28519	LIKE NO
-2.081973	LIKE OH
-2.081973	LIKE POWER
-2.081973	LIKE RAY
-2.081973	LIKE SHUT
-2.081973	LIKE THAT
-2.081973	LIKE THE
-2.081973	LIKE THERE
-2.081973	LIKE VARIETY
-2.081973	LIKE WHY
-0.7395507	LIONS GAME
-0.7395507	LIONS' FAN
-0.7395507	LIST OF
-1.216672	LITTLE BIT
-1.216672	LITTLE LADY
-1.216672	LITTLE NIECES
-1.040581	LIVE IN
-1.040581	LIVE NEAR
-1.341611	LOAN BASED
-1.341611	LOAN BECAUSE
-1.341611	LOAN FROM
-1.341611	LOAN OR
-1.040581	LOANS </s>
-1.040581	LOANS NOW
-0.7395507	LOCATION I
-0.7395507	LONG TIME
-0.7395507	LOOK AT
-1.040581	LOOKED AT
-1.040581	LOOKED THEY
-0.7395507	LOST LAST
-0.7395507	LOT OF
-0.7395507	LOTS OF
-0.7395507	LOVE IT
-0.7395507	LOVES COMPUTERS
-1.216672	MAINTENANCE ISSUE
-0.4198889	MAINTENANCE ISSUES
-1.040581	MAKE EVERY
-1.040581	MAKE SURE
-0.7395507	MAKING IT
-0.7395507	MANGERS AND
-0.4198889	MARRIED </s>
-1.216672	MARRIED OH
-0.7395507	MART WAS
-0.7395507	MAY NOT
-1.040581	MAYBE OVERPAID
-1.040581	MAYBE WE
-0.7395507	MCKENZIE <unk>
-1.517702	ME A
-1.517702	ME BUT
-1.517702	ME EVERYWHERE
-1.517702	ME ON
-1.517702	ME SO
-1.517702	ME THERE'S
-0.7395507	MEAN THAT
-0.7395507	MEMORIAL DAY
-0.7395507	MET AT
-0.7395507	MHM YES
-0.4231271	MHMM </s>
-0.6417376	MHMM YUP
-1.040581	MIDDLE </s>
-1.040581	MIDDLE OF
-0.2437976	MIGHT BE
-0.7395507	MILLER AND
-0.7395507	MOBILITY AND
-0.7395507	MODERATELY STRESSFUL
-1.216672	MONDAY </s>
-1.216672	MONDAY MEMORIAL
-1.216672	MONDAY MORNING
-1.341611	MONEY </s>
-1.341611	MONEY BECAUSE
-1.341611	MONEY BEFORE
-1.341611	MONEY IN
-0.7395507	MONTH IT
-0.7395507	MONTHS OLD
-0.7395507	MOON AND
-1.040581	MORE LIKE
-1.040581	MORE PEACEFUL
-0.4198889	MORNING I
-1.216672	MORNING I'M
-0.7395507	MOST FUN
-0.7395507	MOSTLY IN
-0.7395507	MOUNTAINS TO
-0.7395507	MOVE FROM
-0.7395507	MOVED IN
-0.7395507	MOVIE TONIGHT
-0.7395507	MOVING WENT
-1.341611	MUCH JUST
-1.341611	MUCH STUFF
-1.341611	MUCH THE
-1.341611	MUCH YEAH
-1.040581	MUSIC HISTORY
-1.040581	MUSIC TONIGHT
-0.7395507	MUSICIAN I'M
-1.915642	MY </s>
-1.915642	MY DAD'S
-1.915642	MY DAUGHTER
-1.915642	MY DOG
-1.915642	MY FAMILY
-1.915642	MY IN
-1.915642	MY INCOME
-1.915642	MY LITTLE
-1.915642	MY MCKENZIE
-1.915642	MY NIECE
-1.915642	MY PARENTS
-1.915642	MY PARTNER'S
-1.915642	MY SICK
-1.915642	MY UNCLE
-1.915642	MY VACATIONS
-0.7395507	NEAR TAMPA
-0.7395507	NEAT </s>
-0.7395507	NEED YEAH
-0.7395507	NEUROLOGIST THAT
-0.7395507	NEW JOB
-1.438521	NEXT MAINTENANCE
-1.438521	NEXT REALTOR
-1.438521	NEXT THREE
-0.6417376	NEXT YEAR
-0.4198889	NICE </s>
-1.216672	NICE INSIDE
-0.7395507	NIECE IS
-0.7395507	NIECES IN
-1.040581	NIGHT </s>
-1.040581	NIGHT I'LL
-0.7395507	NINE O'CLOCK
-1.06658	NO </s>
-2.081973	NO ACTUALLY
-2.081973	NO FROM
-1.06658	NO I
-2.081973	NO I'M
-2.081973	NO IDEA
-2.081973	NO ISSUES
-2.081973	NO JUST
-1.28519	NO NOT
-2.081973	NO OTHER
-2.081973	NO PROBLEM
-2.081973	NO REASON
-2.081973	NO WAY
-1.06658	NO WE
-2.081973	NO WELL
-1.040581	NORTH CAROLINA
-1.040581	NORTH UM
-2.081973	NOT </s>
-2.081973	NOT A
-2.081973	NOT ANYTHING
-2.081973	NOT DEPRESSED
-1.28519	NOT ENOUGH
-1.06658	NOT EXACTLY
-1.28519	NOT I
-2.081973	NOT SOME
-1.28519	NOT THAT
-2.081973	NOT THE
-2.081973	NOT THINK
-1.28519	NOT THIS
-2.081973	NOT TOO
-2.081973	NOT UNPACKED
-2.081973	NOT WASTE
-2.081973	NOT YOU
-1.040581	NOTHING PLANNED
-1.040581	NOTHING YET
-1.642641	NOW A
-0.8458576	NOW I'M
-1.642641	NOW IT'S
-1.642641	NOW MOSTLY
-1.642641	NOW THAT
-1.642641	NOW THERE
-1.642641	NOW TO
-0.7395507	O'CLOCK IT'S
-0.7395507	OAK </s>
-0.7395507	OCCASIONAL TORNADO
-0.7395507	OCCASIONALLY BUT
-0.7395507	OCEAN IT
-2.081973	OF A
-2.081973	OF ABOUT
-2.081973	OF BEING
-2.081973	OF COMPANIES
-2.081973	OF CONTRACTORS
-2.081973	OF EACH
-2.081973	OF FUN
-2.081973	OF MONEY
-2.081973	OF MUSIC
-2.081973	OF MY
-2.081973	OF SLUSH
-2.081973	OF SOMETHING
-2.081973	OF STUFF
-2.081973	OF TAMPA
-1.06658	OF THE
-2.081973	OF THEM
-2.081973	OF THINGS
-2.081973	OF TRUCKLOADS
-2.081973	OF WANTED
-2.081973	OF YET
-0.7395507	OFF SO
-1.780943	OH FIVE
-0.7655497	OH I
-1.780943	OH IT
-1.780943	OH NO
-1.780943	OH NOT
-1.780943	OH OKAY
-1.780943	OH WELL
-0.9841603	OH YEAH
-0.7395507	OHIO WHERE
-0.7395507	OK </s>
-0.008049211	OKAY </s>
-0.2437976	OLD </s>
-1.915642	ON A
-1.915642	ON ANTI
-1.915642	ON ANTIDEPRESSANTS
-1.915642	ON BILLY
-1.915642	ON BUT
-1.118859	ON DISABILITY
-1.915642	ON IT
-1.915642	ON MAKING
-1.915642	ON MONDAY
-1.118859	ON THAT
-0.9002483	ON THE
-1.818732	ONE BANK
-1.818732	ONE HUNDRED
-1.021949	ONE IS
-1.818732	ONE IT
-0.8033383	ONE OF
-1.818732	ONE POINT
-1.818732	ONE RELATOR
-1.818732	ONE TO
-1.818732	ONE YEAR
-1.040581	ONES BE
-1.040581	ONES I
-1.216672	ONLY ONES
-1.216672	ONLY THING
-1.216672	ONLY THREE
-1.341611	OR GIFTS
-1.341611	OR HIRE
-1.341611	OR IF
-1.341611	OR ONE
-0.7395507	ORLANDO </s>
-1.341611	OTHER HOLIDAY
-1.341611	OTHER ONE
-1.341611	OTHER ONES
-1.341611	OTHER WEEKEND
-0.7395507	OUR COUCH
-1.642641	OUT </s>
-1.642641	OUT AND
-1.642641	OUT EVERYBODY
-1.642641	OUT OF
-1.642641	OUT THAT
-1.642641	OUT THE
-1.642641	OUT WALKING
-1.642641	OUT WERE
-1.517702	OVER IN
-0.4894624	OVER THE
-1.517702	OVER WITH
-1.040581	OVERPAID </s>
-1.040581	OVERPAID FOR
-1.040581	OVERWHELMING </s>
-1.040581	OVERWHELMING AS
-1.341611	PAID 300
-0.326217	PAID CASH
-0.7395507	PALM BEACH
-0.7395507	PANDAS </s>
-0.7395507	PARENTS DIED
-0.7395507	PART NOT
-0.7395507	PARTNER'S A
-0.7395507	PARTY SO
-0.7395507	PAY YOU
-0.7395507	PEACEFUL INSIDE
-0.7395507	PEOPLE </s>
-0.7395507	PERHAPS AN
-0.7395507	PETE </s>
-0.7395507	PETOSKEY WHERE
-0.7395507	PETS AND
-0.7395507	PICK UP
-0.7395507	PICTURES </s>
-1.040581	PLACE NOT
-1.040581	PLACE THAT
-0.7395507	PLAN </s>
-1.040581	PLANNED IS
-1.040581	PLANNED YET
-1.438521	PLAY </s>
-1.438521	PLAY DATE
-1.438521	PLAY GOLF
-1.438521	PLAY IN
-1.438521	PLAY THERE
-0.7395507	PLAYED WITH
-1.040581	PLAYING A
-1.040581	PLAYING AT
-0.7395507	PLUMBER TO
-0.7395507	POINT SEVEN
-0.7395507	POOP AND
-0.7395507	POWER WASH
-0.7395507	POWERFUL HOSE
-0.7395507	PRETTY MUCH
-0.7395507	PRINCESS </s>
-1.517702	PROBABLY A
-1.517702	PROBABLY AND
-1.517702	PROBABLY CLEANING
-1.517702	PROBABLY SATURDAY
-1.517702	PROBABLY TAKE
-1.517702	PROBABLY THE
-1.040581	PROBLEM ACTUALLY
-1.040581	PROBLEM YOU
-0.7395507	PROFESSOR SO
-0.7395507	PROGRAMING SO
-1.040581	PROOF </s>
-1.040581	PROOF FROM
-0.7395507	PROPERTY MANGERS
-0.7395507	PROPHYLACTIC PURPOSES
-0.7395507	PULLS ME
-0.7395507	PURPOSES </s>
-0.7395507	PUT ME
-0.7395507	QUARTER INCH
-0.7395507	QUICK TRIP
-0.7395507	QUICKEN LOANS
-0.7395507	QUIZZES OVER
-0.7395507	RACE TRACK
-0.7395507	RAISED </s>
-0.7395507	RAY DONAVAN
-0.7395507	READ </s>
-0.7395507	READING A
-0.7395507	REAL BIG
-1.040581	REALLY NEAT
-1.040581	REALLY NICE
-0.7395507	REALTOR SAID
-0.7395507	REASON </s>
-0.7395507	RECEPTION </s>
-0.7395507	RECOMMEND IT
-0.7395507	RED PANDAS
-1.216672	REHEARSAL THAT
-1.216672	REHEARSAL THEN
-1.216672	REHEARSAL UM
-0.7395507	RELATIONSHIP HE'S
-1.216672	RELATOR ABOUT
-1.216672	RELATOR SAID
-1.216672	RELATOR THAT
-0.7395507	RELIGIOUS TYPE
-0.7395507	REMEMBER WHICH
-0.7395507	RESIDENTIAL </s>
-0.7395507	REUPHOLSTERING OUR
-0.7395507	RID OF
-0.7395507	RIDE BIKE
-0.7878656	RIGHT </s>
-1.584649	RIGHT EXACTLY
-0.5692551	RIGHT NOW
-1.584649	RIGHT RIGHT
-0.7395507	ROAD </s>
-0.7395507	ROCHESTER HILLS
-0.7395507	ROTATOR CUFF
-0.7395507	ROYAL OAK
-0.7395507	SAGINAW </s>
-0.6417376	SAID OH
-0.6417376	SAID THAT
-1.438521	SAID THERE'S
-0.7395507	SAINT PETE
-0.7395507	SALE </s>
-0.7395507	SALVATION ARMY
-0.7395507	SAME EXACT
-0.7395507	SARASOTA SO
-1.216672	SATURDAY </s>
-1.216672	SATURDAY MORNING
-1.216672	SATURDAY NIGHT
-0.7395507	SAW AN
-1.040581	SCHOOL </s>
-1.040581	SCHOOL AND
-1.438521	SEE A
-1.438521	SEE FAMILY
-1.438521	SEE MY
-1.438521	SEE THAT
-1.438521	SEE THEM
-0.7395507	SEEN THAT
-0.4198889	SELL IT
-1.216672	SELL THE
-0.7395507	SELLING IT
-0.7395507	SEMESTER FOR
-1.341611	SEVEN </s>
-1.341611	SEVEN QUIZZES
-0.5448276	SEVEN SEVEN
-1.040581	SHE HAD
-1.040581	SHE WAS
-1.040581	SHOULD BE
-1.040581	SHOULD GO
-0.7395507	SHOULDER SURGERY
-0.7395507	SHOWER FOR
-1.040581	SHOWS </s>
-1.040581	SHOWS I
-0.7395507	SHUT DOWN
-0.2437976	SICK TIME
-0.7395507	SILLY AND
-0.7395507	SISTERS THAT
-0.7395507	SIT THERE
-0.7395507	SITUATION IT'S
-0.7395507	SLUSH YA'LL
-0.7395507	SMALL LIST
-1.164631	SO </s>
-2.502979	SO AN
-1.706196	SO AND
-2.502979	SO BETWEEN
-2.502979	SO BUSY
-2.502979	SO COOL
-2.502979	SO DEPRESSION
-2.502979	SO HE'LL
-2.502979	SO HE'S
-2.502979	SO HOLIDAYS
-1.474739	SO I
-2.502979	SO I'LL
-2.502979	SO I'M
-1.072507	SO IT
-1.164631	SO IT'S
-2.502979	SO ITS
-2.502979	SO MUCH
-2.502979	SO NO
-2.502979	SO NOW
-2.502979	SO THAT
-1.487585	SO THAT'S
-2.502979	SO THE
-2.502979	SO THEN
-1.487585	SO THEY
-2.502979	SO THIS
-2.502979	SO UM
-1.474739	SO WE
-2.502979	SO WE'RE
-1.706196	SO YEAH
-2.502979	SO YES
-1.216672	SOME FRIENDS
-1.216672	SOME PLACE
-1.216672	SOME RELIGIOUS
-1.040581	SOMEBODY </s>
-1.040581	SOMEBODY THAT
-0.7395507	SOMETHING RIGHT
-0.7395507	SOMETIME </s>
-0.7395507	SORRY </s>
-1.040581	SOUTH DO
-1.040581	SOUTH OF
-0.7395507	STARED AT
-0.7395507	START ON
-1.040581	STARTED A
-1.040581	STARTED GOING
-0.2437976	STARTS AT
-0.7395507	STAY </s>
-1.040581	STILL MAINTENANCE
-1.040581	STILL RIDE
-1.040581	STRESS OF
-1.040581	STRESS THERE'S
-0.7395507	STRESSFUL </s>
-0.7395507	STUDY ERR
-0.5448276	STUFF </s>
-1.341611	STUFF AND
-1.341611	STUFF GOING
-0.7395507	STUMBLE OCCASIONALLY
-0.7395507	SUICIDE SO
-1.040581	SUNDAY I'M
-1.040581	SUNDAY MORNING
-0.7395507	SUPPLIES AND
-1.517702	SURE AND
-0.7209189	SURE HE
-1.517702	SURE WHERE
-1.517702	SURE YET
-1.517702	SURE YOU
-0.7395507	SURGERY </s>
-0.7395507	SWEET LITTLE
-0.7395507	SYMPTOMS YOU
-0.7395507	TAKE A
-0.2437976	TALKED TO
-0.2437976	TAMPA </s>
-1.040581	TEACH AND
-1.040581	TEACH THREE
-1.216672	TEN AND
-1.216672	TEN DIFFERENT
-1.216672	TEN HOURS
-0.7395507	TERRIBLE </s>
-1.216672	TEST </s>
-1.216672	TEST FOR
-1.216672	TEST THAT
-0.7395507	THANK YOU
-1.215519	THAT </s>
-2.230912	THAT ARE
-2.230912	THAT BUT
-2.230912	THAT EVERYONE
-2.230912	THAT HERE
-0.5882717	THAT I
-2.230912	THAT I'M
-2.230912	THAT IS
-2.230912	THAT JUST
-2.230912	THAT LIVE
-2.230912	THAT MONDAY
-2.230912	THAT MUCH
-2.230912	THAT ON
-2.230912	THAT SHE
-2.230912	THAT SO
-1.434129	THAT THEY
-2.230912	THAT WAS
-2.230912	THAT WEREN'T
-2.230912	THAT WILL
-2.230912	THAT YEAH
-2.230912	THAT YOU'RE
-1.584649	THAT'S GOOD
-1.584649	THAT'S HOLIDAY
-1.584649	THAT'S KIND
-1.584649	THAT'S NOT
-1.584649	THAT'S THAT'S
-1.584649	THAT'S THE
-1.584649	THAT'S YEAH
-2.620364	THE ANIMALS
-2.620364	THE AUDITING
-2.620364	THE BANK
-2.620364	THE BASEMENT
-2.620364	THE BEAVERS
-2.620364	THE BIG
-2.620364	THE CREDIT
-1.823581	THE DEPRESSION
-1.604971	THE DETROIT
-2.620364	THE DISEASE
-2.620364	THE DNA
-1.604971	THE DRAINS
-2.620364	THE ELEMENTARY
-2.620364	THE EQUITY
-2.620364	THE EVEN
-2.620364	THE FAMILY
-2.620364	THE FIREWORKS
-2.620364	THE FORMULA
-2.620364	THE FOUR
-2.620364	THE GENE
-1.823581	THE HD
-1.189893	THE HOUSE
-2.620364	THE HURRICANE
-2.620364	THE I
-2.620364	THE INHERITANCE
-2.620364	THE LAKE
-2.620364	THE MAINTENANCE
-2.620364	THE MIDDLE
-2.620364	THE MOBILITY
-2.620364	THE MONEY
-2.620364	THE MOST
-2.620364	THE MOUNTAINS
-2.620364	THE NEUROLOGIST
-1.604971	THE NEXT
-2.620364	THE NIGHT
-2.620364	THE OCEAN
-1.823581	THE ONLY
-1.823581	THE OTHER
-2.620364	THE PETS
-2.620364	THE PLACE
-2.620364	THE PLUMBER
-2.620364	THE POWERFUL
-2.620364	THE RACE
-2.620364	THE RED
-2.620364	THE RELATOR
-2.620364	THE ROAD
-2.620364	THE SAME
-2.620364	THE SEMESTER
-2.620364	THE SHOWS
-2.620364	THE SO
-2.620364	THE STRESS
-2.620364	THE SUPPLIES
-2.620364	THE THE
-2.620364	THE TWO
-1.823581	THE WAY
-2.620364	THE WEDDING
-1.604971	THE WEEKEND
-2.620364	THE YOU
-2.620364	THE ZOO
-1.040581	THEIR JEWISH
-1.040581	THEIR MONEY
-1.341611	THEM </s>
-1.341611	THEM AT
-1.341611	THEM BACK
-1.341611	THEM EVERY
-1.818732	THEN </s>
-1.818732	THEN HIGH
-0.8033383	THEN I
-1.818732	THEN MONDAY
-1.818732	THEN PROBABLY
-1.818732	THEN THE
-1.818732	THEN TUES
-1.818732	THEN TUESDAY
-1.818732	THEN UM
-1.818732	THEN WE
-0.7395507	THERAPIST AT
-0.8702851	THERE </s>
-1.885679	THERE AGAIN
-1.088896	THERE AND
-1.885679	THERE BORING
-1.885679	THERE IS
-1.885679	THERE IT
-1.885679	THERE JUST
-1.088896	THERE LIKE
-1.885679	THERE NOT
-1.885679	THERE SOMETIME
-1.584649	THERE'S A
-0.7878656	THERE'S LIKE
-1.584649	THERE'S NO
-1.584649	THERE'S PROBABLY
-1.584649	THERE'S STILL
-1.584649	THERE'S TOO
-2.018304	THEY ALMOST
-0.9900648	THEY ARE
-1.221521	THEY BASED
-2.018304	THEY DECIDE
-2.018304	THEY DECIDED
-2.018304	THEY DO
-1.221521	THEY HAD
-2.018304	THEY LIVE
-2.018304	THEY SAID
-2.018304	THEY TRUST
-2.018304	THEY WANT
-1.221521	THEY WERE
-2.018304	THEY WON
-1.040581	THEY'RE AMAZING
-1.040581	THEY'RE SO
-1.040581	THING </s>
-1.040581	THING I
-1.216672	THINGS </s>
-1.216672	THINGS FOR
-1.216672	THINGS I
-1.517702	THINK AWAY
-1.517702	THINK IT
-1.517702	THINK SO
-1.517702	THINK THAT
-1.517702	THINK WE
-1.517702	THINK YOU'RE
-0.7395507	THIRTEEN AND
-1.517702	THIS CLASS
-1.517702	THIS FALLS
-0.4894624	THIS WEEKEND
-1.216672	THOUGH HE
-1.216672	THOUGH HOPEFULLY
-1.216672	THOUGH I
-0.7395507	THOUSAND DOLLARS
-1.216672	THREE CLASSES
-1.216672	THREE DAYS
-1.216672	THREE MONTHS
-1.216672	THROUGH AND
-1.216672	THROUGH SOMEBODY
-1.216672	THROUGH THERE
-0.5448276	TIME </s>
-0.5448276	TIME SO
-0.7395507	TIMES A
-1.396255	TO </s>
-1.614865	TO A
-2.411649	TO ADRIAN
-1.383409	TO BE
-1.614865	TO COME
-2.411649	TO DRIVE
-2.411649	TO EVICT
-2.411649	TO FIX
-2.411649	TO FLORIDA
-2.411649	TO FORMULATE
-1.383409	TO GET
-1.396255	TO GO
-2.411649	TO HAVE
-2.411649	TO IT
-1.614865	TO MAKE
-1.614865	TO ME
-2.411649	TO MY
-2.411649	TO PETOSKEY
-2.411649	TO PICK
-2.411649	TO PLAY
-2.411649	TO PUT
-1.396255	TO SEE
-2.411649	TO SELL
-1.383409	TO THE
-2.411649	TO TO
-2.411649	TO USE
-2.411649	TO WALK
-2.411649	TO WHO
-0.7395507	TOLD </s>
-0.7395507	TOMORROW AND
-1.040581	TONIGHT </s>
-1.040581	TONIGHT TOMORROW
-1.341611	TOO BADLY
-1.341611	TOO HOT
-1.341611	TOO MUCH
-1.341611	TOO STRESS
-0.7395507	TOOK PICTURES
-0.7395507	TORE MY
-0.7395507	TORNADO </s>
-1.040581	TRACK </s>
-1.040581	TRACK OVER
-0.7395507	TREATMENT FACILITY
-0.7395507	TRIP TWO
-0.7395507	TROUBLE IT'S
-1.216672	TRUCKLOADS AND
-1.216672	TRUCKLOADS OF
-1.216672	TRUCKLOADS TRUCKLOADS
-0.7395507	TRUST </s>
-0.2012783	TRYING TO
-0.7395507	TUES THEN
-1.040581	TUESDAY I
-1.040581	TUESDAY THEN
-0.7395507	TURNED THIRTEEN
-0.7395507	TV SHOWS
-0.7395507	TWELVE </s>
-0.7878656	TWO </s>
-1.584649	TWO GIRLS
-1.584649	TWO GRAND
-1.584649	TWO OUT
-1.584649	TWO SISTERS
-1.584649	TWO THOUSAND
-0.7395507	TYPE THING
-1.517702	UH DOING
-1.517702	UH EXERCISE
-1.517702	UH I
-1.517702	UH NOTHING
-1.517702	UH SARASOTA
-1.517702	UH VERY
-0.7395507	UHH HE'LL
-1.780943	UM BECAUSE
-1.780943	UM BUT
-1.780943	UM GOT
-1.780943	UM HE
-1.780943	UM HE'S
-1.780943	UM JUST
-1.780943	UM SATURDAY
-1.780943	UM WENT
-1.780943	UM YEAH
-1.780943	UM YES
-1.780943	UM YOU
-1.040581	UMM NO
-1.040581	UMM THE
-0.7395507	UNCLE INVITED
-0.7395507	UNDER MY
-0.7395507	UNION WE
-1.040581	UNPACKED EVERYTHING
-1.040581	UNPACKED YET
-1.584649	UP AND
-1.584649	UP BECAUSE
-1.584649	UP COMING
-1.584649	UP NORTH
-1.584649	UP SOME
-1.584649	UP TO
-1.584649	UP WALKING
-0.7395507	USE MY
-0.7395507	USED TO
-0.7395507	VACATIONS DAYS
-0.7395507	VARIETY </s>
-1.584649	VERY BUSY
-1.584649	VERY EXCITING
-1.584649	VERY GREAT
-1.584649	VERY HELPFUL
-1.584649	VERY SWEET
-0.7878656	VERY VERY
-0.7395507	VISITED WITH
-0.7395507	VP IT
-0.7395507	WAL MART
-1.040581	WALK AROUND
-1.040581	WALK WITHOUT
-0.7395507	WALKED AROUND
-0.2437976	WALKING AROUND
-0.7395507	WANT TO
-0.2437976	WANTED TO
-0.2437976	WANTS TO
-0.7395507	WARNING </s>
-1.264987	WAS </s>
-2.06177	WAS A
-2.06177	WAS AND
-2.06177	WAS EMPTIED
-1.264987	WAS FUN
-2.06177	WAS GETTING
-2.06177	WAS IT'S
-2.06177	WAS KIND
-2.06177	WAS LOTS
-2.06177	WAS ONE
-2.06177	WAS OUT
-2.06177	WAS READING
-1.264987	WAS REALLY
-2.06177	WAS THE
-2.06177	WAS TOO
-1.264987	WAS TWO
-2.06177	WAS UP
-0.7395507	WASH THE
-1.040581	WASTE A
-1.040581	WASTE THEIR
-1.341611	WAY IT
-1.341611	WAY MORE
-1.341611	WAY THE
-1.341611	WAY YOU'RE
-2.186709	WE ALSO
-1.171315	WE ARE
-2.186709	WE COULD
-2.186709	WE COULDN'T
-2.186709	WE DID
-2.186709	WE DO
-2.186709	WE DROVE
-2.186709	WE GOT
-1.158469	WE HAD
-2.186709	WE HAVE
-2.186709	WE JUST
-2.186709	WE KIND
-2.186709	WE MET
-2.186709	WE SAW
-2.186709	WE STARTED
-2.186709	WE TOOK
-2.186709	WE WALKED
-1.171315	WE WENT
-1.389926	WE WERE
-2.186709	WE WILL
-1.040581	WE'RE GOOD
-1.040581	WE'RE WORKING
-1.040581	WE'VE BEEN
-1.040581	WE'VE HAD
-1.438521	WEDDING </s>
-1.438521	WEDDING AND
-1.438521	WEDDING I
-1.438521	WEDDING IN
-1.438521	WEDDING RECEPTION
-1.216672	WEEK </s>
-0.4198889	WEEK AND
-0.465371	WEEKEND </s>
-1.693793	WEEKEND PROBABLY
-1.693793	WEEKEND SO
-1.693793	WEEKEND UH
-0.7395507	WEEKENDS BEFORE
-0.7395507	WEIRD SITUATION
-1.642641	WELL AND
-0.8458576	WELL I
-0.8458576	WELL I'M
-1.642641	WELL IT
-1.642641	WELL RIGHT
-1.642641	WELL THE
-1.517702	WENT DOWN
-1.517702	WENT FROM
-1.517702	WENT THROUGH
-0.5023083	WENT TO
-1.584649	WERE ALL
-1.584649	WERE ANTICIPATING
-1.584649	WERE OUT
-1.584649	WERE THE
-1.584649	WERE THERE
-1.584649	WERE TURNED
-1.584649	WERE UP
-1.040581	WEREN'T IN
-1.040581	WEREN'T OUT
-1.216672	WHAT ELSE
-1.216672	WHAT I'VE
-1.216672	WHAT YOU
-0.7395507	WHATEVER YEAH
-0.7395507	WHEELCHAIR ANYWAY
-0.6417376	WHEN I
-1.438521	WHEN THERE'S
-1.438521	WHEN WE
-1.438521	WHEN YOUR
-0.7395507	WHENEVER YOU
-1.584649	WHERE DID
-1.584649	WHERE HE
-1.584649	WHERE I
-1.584649	WHERE I'M
-1.584649	WHERE IT
-1.584649	WHERE WE
-1.584649	WHERE YOU
-0.7395507	WHICH ONE
-1.040581	WHILE I
-1.040581	WHILE WE
-0.7395507	WHITMORE LAKE
-1.216672	WHO IS
-1.216672	WHO SAID
-1.216672	WHO WOULD
-0.7395507	WHOLE BUNCH
-0.7395507	WHY ARE
-1.040581	WILL PROBABLY
-1.040581	WILL STAY
-1.739551	WITH FRIENDS
-1.739551	WITH HER
-1.739551	WITH KIDS
-1.739551	WITH MY
-1.739551	WITH POOP
-1.739551	WITH THAT
-0.7113112	WITH THE
-0.7395507	WITHOUT FALLING
-0.7395507	WON </s>
-0.7395507	WON'T BE
-1.216672	WORK BUT
-1.216672	WORK PROBABLY
-1.216672	WORK SATURDAY
-1.438521	WORKING </s>
-1.438521	WORKING AT
-1.438521	WORKING I
-1.438521	WORKING ON
-1.438521	WORKING TEN
-0.7395507	WORKS </s>
-0.7395507	WOULD DO
-0.7395507	WRITING A
-0.7395507	YA'LL ARE
-0.3340303	YEAH </s>
-2.352334	YEAH ABSOLUTELY
-1.555552	YEAH AND
-1.555552	YEAH I'M
-2.352334	YEAH IN
-2.352334	YEAH IT
-1.555552	YEAH IT'S
-2.352334	YEAH NO
-1.324095	YEAH SO
-2.352334	YEAH THAT
-2.352334	YEAH THE
-2.352334	YEAH THERE'S
-1.336941	YEAH WE
-2.352334	YEAH WELL
-2.352334	YEAH YEP
-0.5023083	YEAR </s>
-0.7209189	YEAR AGO
-1.517702	YEAR AND
-0.7395507	YEARS OLD
-0.7395507	YEP </s>
-0.3187588	YES </s>
-2.137491	YES IF
-1.122097	YES IT
-2.137491	YES IT'S
-2.137491	YES MY
-2.137491	YES OH
-2.137491	YES THERE
-2.137491	YES THEY'RE
-2.137491	YES TWO
-2.137491	YES YEAH
-1.340708	YES YES
-0.4894624	YET </s>
-1.517702	YET BUT
-1.517702	YET TO
-2.216672	YOU ALL
-2.216672	YOU AND
-2.216672	YOU BACK
-2.216672	YOU CAN
-1.419889	YOU COULD
-2.216672	YOU DIDN'T
-2.216672	YOU DON'T
-2.216672	YOU GET
-2.216672	YOU GUYS
-2.216672	YOU HAVE
-2.216672	YOU HERE
-2.216672	YOU I'M
-2.216672	YOU JUST
-0.4771213	YOU KNOW
-2.216672	YOU MAY
-2.216672	YOU MOVE
-2.216672	YOU PAID
-2.216672	YOU SHOULD
-2.216672	YOU WEREN'T
-2.216672	YOU WON'T
-1.216672	YOU'RE DEPRESSED
-1.216672	YOU'RE GOING
-1.216672	YOU'RE NOT
-1.040581	YOUR GROWN
-1.040581	YOUR INCOME
-1.216672	YUP </s>
-1.216672	YUP IT
-1.216672	YUP NO
-1.040581	ZOO </s>
-1.040581	ZOO AND

\end\
