
\data\
ngram 1=677
ngram 2=1918

\1-grams:
-3.41397	17	-0.07896018
-3.41397	18	-0.04821515
-2.936849	300	-0.02526161
-3.41397	6	-0.0944754
-3.41397	600	-0.0944754
-3.41397	96	-0.0944754
-3.41397	96TH	-0.0944754
-0.9940142	</s>
-99	<s>	-0.201862
-3.11294	<unk>	-0.08942148
-1.550647	A	-0.1481404
-2.81191	ABOUT	-0.0934693
-3.41397	ABSOLUTELY	-0.04821515
-3.41397	ACCESSIBLE	-0.07896018
-2.715	ACTUALLY	-0.1497757
-3.41397	ADRIAN	-0.09330139
-3.41397	AFTER	-0.09397264
-3.41397	AGAIN	-0.09262911
-2.936849	AGO	-0.08687229
-3.41397	ALCOHOL	-0.0944754
-2.51088	ALL	-0.1867613
-3.41397	ALMOST	-0.0944754
-3.41397	ALONG	-0.0817286
-2.936849	ALSO	-0.09128141
-3.11294	AM	-0.08138351
-3.11294	AMAZING	-0.04258949
-2.81191	AN	-0.1924753
-1.450182	AND	-0.06426914
-3.41397	ANIMALS	-0.09346931
-3.41397	ANOTHER	-0.09414029
-3.41397	ANTI	-0.0944754
-3.41397	ANTICIPATING	-0.0944754
-3.41397	ANTIDEPRESSANTS	-0.09229258
-3.11294	ANY	-0.09380493
-3.41397	ANYONE	-0.09414029
-3.41397	ANYTHING	-0.09094384
-3.41397	ANYWAY	-0.04821515
-3.41397	APPEAR	-0.09414029
-3.41397	APPOINTMENTS	-0.04821515
-2.41397	ARE	-0.1041551
-3.41397	AREA	-0.04821515
-3.41397	ARMY	-0.04821515
-2.715	AROUND	-0.1433915
-3.11294	AS	-0.08721305
-2.300027	AT	-0.1037182
-3.41397	AUDITING	-0.0944754
-3.41397	AUNT	-0.09414029
-3.11294	AWAY	-0.0902679
-2.635819	BACK	-0.2046253
-3.41397	BAD	-0.0944754
-3.41397	BADLY	-0.04821515
-3.11294	BANK	-0.07861289
-2.936849	BASED	-0.2218392
-3.41397	BASEMENT	-0.0895909
-3.41397	BASICALLY	-0.09195579
-3.41397	BATH	-0.07896018
-3.41397	BATTLE	-0.0944754
-2.20985	BE	-0.08186366
-3.41397	BEACH	-0.04821515
-3.41397	BEAVERS	-0.04821515
-2.41397	BECAUSE	-0.186771
-3.41397	BED	-0.0944754
-2.81191	BEEN	-0.1899528
-2.936849	BEFORE	-0.02761233
-2.81191	BEING	-0.176072
-3.41397	BELONGS	-0.04821515
-3.11294	BETWEEN	-0.3078375
-3.11294	BEYOND	-0.04221185
-2.715	BIG	-0.09380492
-3.41397	BIKE	-0.04821515
-3.41397	BILLY	-0.0944754
-3.41397	BIRTHDAY	-0.09430787
-3.41397	BIT	-0.09077495
-3.41397	BLAST	-0.08755355
-3.41397	BOOK	-0.09195579
-3.41397	BORING	-0.0944754
-3.41397	BORN	-0.07896018
-3.41397	BOTHER	-0.04821515
-3.41397	BRASS	-0.0944754
-3.41397	BRING	-0.09397264
-2.936849	BUNCH	-0.4276535
-3.11294	BUSY	-0.08942148
-2.071547	BUT	-0.08284432
-3.41397	BUYING	-0.09414029
-3.11294	CALLED	-0.09246088
-2.51088	CAN	-0.03689002
-3.41397	CAN'T	-0.0895909
-3.41397	CANADA	-0.09397264
-3.41397	CAROLINA	-0.09330139
-2.936849	CASH	-0.07809141
-3.41397	CATCH	-0.09330139
-2.81191	CAUSE	-0.07372133
-3.41397	CENTERVILLE	-0.0944754
-3.41397	CENTRAL	-0.09262911
-3.41397	CHAUFFEUR	-0.09430787
-3.41397	CLASS	-0.04821515
-3.41397	CLASSES	-0.07896018
-3.41397	CLEANED	-0.09330139
-3.41397	CLEANING	-0.04821515
-2.936849	COLLEGE	-0.1677441
-3.11294	COME	-0.08874317
-3.11294	COMING	-0.09330139
-3.41397	COMMERCIAL	-0.08755355
-3.41397	COMMITTED	-0.0944754
-3.41397	COMMUNITY	-0.09414029
-3.41397	COMPANIES	-0.089252
-3.41397	COMPLETELY	-0.09346931
-3.41397	COMPUTER	-0.0944754
-3.41397	COMPUTERS	-0.08482213
-3.11294	CONE	-0.2743241
-3.41397	CONTRACTORS	-0.07896018
-3.41397	COOL	-0.04821515
-3.41397	COUCH	-0.09363715
-2.81191	COULD	-0.08567753
-3.11294	COULDN'T	-0.09363715
-3.11294	COUPLE	-0.09346931
-3.41397	COURSE	-0.09043698
-3.41397	CRAZY	-0.04821515
-3.41397	CREDIT	-0.0944754
-3.41397	CREEK	-0.04821515
-3.41397	CRYSTAL	-0.04821515
-3.41397	CUFF	-0.08823372
-3.41397	CURRENTLY	-0.09246088
-3.41397	DAD'S	-0.09414029
-3.41397	DATE	-0.09094384
-3.41397	DAUGHTER	-0.04821515
-3.11294	DAY	-0.04559891
-2.635819	DAYS	-0.09034876
-3.41397	DEAL	-0.09094384
-3.41397	DEALING	-0.09296539
-3.41397	DECIDE	-0.09178729
-3.41397	DECIDED	-0.09195579
-2.936849	DEFINITELY	-0.03381941
-3.41397	DELTA	-0.09414029
-3.41397	DEPARTMENT	-0.04821515
-3.41397	DEPRESSANTS	-0.09296539
-2.936849	DEPRESSED	-0.04728258
-2.936849	DEPRESSION	-0.08172859
-2.81191	DETROIT	-0.1459719
-2.936849	DID	-0.08103814
-3.11294	DIDN'T	-0.09430787
-3.41397	DIED	-0.07896018
-3.41397	DIFFERENCE	-0.09430787
-3.11294	DIFFERENT	-0.09397264
-3.41397	DIRT	-0.09430787
-3.11294	DISABILITY	-0.2743241
-3.41397	DISASTER	-0.0944754
-3.41397	DISEASE	-0.0944754
-3.41397	DNA	-0.0944754
-2.568872	DO	-0.08308924
-3.41397	DOCTORS	-0.0944754
-3.41397	DOES	-0.04821515
-3.41397	DOESN'T	-0.0944754
-3.41397	DOG	-0.07896018
-2.936849	DOING	-0.0770466
-3.41397	DOLLARS	-0.08670182
-2.300027	DON'T	-0.2075579
-3.41397	DONAVAN	-0.04821515
-2.715	DOWN	-0.1132496
-3.11294	DOWNTOWN	-0.09363715
-2.936849	DRAINS	-0.07861288
-3.11294	DRIVE	-0.09262911
-3.11294	DRIVING	-0.09313342
-3.41397	DROVE	-0.09330139
-3.41397	DRUG	-0.07896018
-3.41397	EACH	-0.04821515
-2.936849	EIGHT	-0.09161872
-3.11294	ELEMENTARY	-0.07861289
-3.41397	ELSE	-0.09414029
-3.41397	EM	-0.09094384
-3.41397	EMPTIED	-0.09229258
-3.41397	ENDED	-0.09330139
-3.11294	ENOUGH	-0.07722092
-3.41397	EQUITY	-0.09195579
-3.41397	ERR	-0.09414029
-3.41397	ERUPTED	-0.09296539
-2.81191	EVEN	-0.1911318
-3.41397	EVER	-0.0944754
-3.11294	EVERY	-0.09380493
-3.41397	EVERYBODY	-0.09111266
-3.41397	EVERYONE	-0.0944754
-3.11294	EVERYTHING	-0.08344994
-3.41397	EVERYWHERE	-0.09094384
-3.41397	EVICT	-0.0944754
-3.41397	EXACT	-0.0944754
-2.81191	EXACTLY	-0.3090656
-3.41397	EXCITED	-0.04821515
-3.41397	EXCITING	-0.04821515
-3.41397	EXERCISE	-0.04821515
-3.41397	FACILITY	-0.04821515
-3.41397	FAIRLY	-0.0944754
-3.41397	FALLING	-0.09363715
-3.41397	FALLS	-0.0944754
-2.936849	FAMILY	-0.02741692
-3.41397	FANCY	-0.0944754
-3.41397	FARM	-0.09043698
-3.41397	FEEL	-0.089252
-3.41397	FEES	-0.09414029
-3.11294	FESTIVAL	-0.07687223
-3.41397	FIELD	-0.08670182
-3.41397	FIFTY	-0.09380493
-3.41397	FIND	-0.0944754
-3.41397	FIREWORKS	-0.07896018
-2.936849	FIRST	-0.09060599
-3.41397	FISHING	-0.09430787
-3.41397	FIVE	-0.04821515
-3.41397	FIX	-0.08755355
-2.936849	FLORIDA	-0.0380359
-3.41397	FOOD	-0.09380493
-2.267842	FOR	-0.1272726
-3.41397	FORGOT	-0.089252
-3.41397	FORMULA	-0.07896018
-3.41397	FORMULATE	-0.08224572
-3.41397	FORT	-0.0944754
-3.41397	FORTY	-0.04821515
-3.41397	FOUND	-0.09330139
-3.41397	FOUR	-0.09363715
-3.41397	FRESHMAN	-0.09043698
-3.11294	FRIDAY	-0.0793072
-3.11294	FRIENDS	-0.04597362
-2.334789	FROM	-0.1320256
-2.715	FUN	-0.1103677
-3.41397	FUNCTIONAL	-0.0944754
-3.41397	GARAGE	-0.0944754
-3.41397	GAY	-0.0944754
-3.41397	GENE	-0.04821515
-2.300027	GET	-0.1722505
-3.41397	GETS	-0.0944754
-2.936849	GETTING	-0.2187457
-3.41397	GIFTS	-0.04821515
-3.41397	GIRLS	-0.04821515
-3.11294	GIVE	-0.08138351
-3.41397	GIVING	-0.09397264
-2.635819	GO	-0.08121087
-3.41397	GOES	-0.04821515
-2.51088	GOING	-0.06697416
-3.11294	GOLF	-0.04802879
-3.41397	GONE	-0.09330139
-2.635819	GOOD	-0.1817864
-2.568872	GOT	-0.123721
-3.41397	GRADUATING	-0.09380493
-3.41397	GRAHAM	-0.04821515
-3.41397	GRAND	-0.04821515
-2.81191	GREAT	-0.04690899
-3.41397	GROWN	-0.08670182
-3.41397	GUYS	-0.0944754
-2.334789	HAD	-0.3733436
-3.11294	HALF	-0.09178729
-3.41397	HANDICAP	-0.0944754
-3.41397	HAPPENS	-0.09397264
-3.41397	HAPPY	-0.04821515
-3.11294	HARD	-0.08618999
-3.41397	HAS	-0.0817286
-2.091751	HAVE	-0.3021557
-3.41397	HAVEN'T	-0.09397264
-3.11294	HAVING	-0.3078375
-3.11294	HD	-0.03072697
-2.334789	HE	-0.151361
-3.11294	HE'LL	-0.3180647
-2.715	HE'S	-0.1467726
-3.41397	HELP	-0.07896018
-3.41397	HELPFUL	-0.04821515
-3.11294	HER	-0.09380493
-2.936849	HERE	-0.1848595
-3.41397	HIGH	-0.09430787
-3.41397	HILLS	-0.04821515
-3.41397	HIRE	-0.09430787
-2.936849	HISTORY	-0.1811139
-3.11294	HOLIDAY	-0.08653127
-3.41397	HOLIDAYS	-0.09246088
-3.11294	HOME	-0.0902679
-3.41397	HONEY	-0.0944754
-3.11294	HOPEFULLY	-0.08447949
-3.41397	HOSE	-0.07896018
-3.41397	HOT	-0.04821515
-3.11294	HOUR	-0.04784236
-3.41397	HOURS	-0.08224572
-2.635819	HOUSE	-0.07238365
-3.41397	HOUSES	-0.0944754
-3.41397	HOW	-0.08670182
-3.41397	HOWEVER	-0.04821515
-3.41397	HUNDRED	-0.04821515
-3.41397	HURRICANE	-0.04821515
-3.41397	HUSBAND	-0.09178729
-1.469487	I	-0.3255227
-3.41397	I'D	-0.0944754
-3.11294	I'LL	-0.09094384
-2.071547	I'M	-0.1338368
-3.11294	I'VE	-0.3200816
-3.11294	IDEA	-0.04672208
-2.51088	IF	-0.2399227
-3.41397	IMMEDIATELY	-0.09363715
-2.01603	IN	-0.090111
-3.41397	INAUDIBLE	-0.04821515
-3.41397	INCH	-0.09077495
-3.11294	INCOME	-0.3178962
-3.41397	INDIVIDUAL	-0.04821515
-3.41397	INHERITANCE	-0.07896018
-3.11294	INSIDE	-0.06877408
-3.41397	INSTRUMENTS	-0.04821515
-3.41397	INTO	-0.0944754
-2.183521	IS	-0.1054106
-3.41397	ISSUE	-0.0944754
-2.936849	ISSUES	-0.2138893
-1.790721	IT	-0.241066
-1.834186	IT'S	-0.1530025
-3.11294	ITS	-0.09397264
-3.11294	JAZZ	-0.3204168
-3.11294	JEFF	-0.3204168
-3.41397	JEWISH	-0.08482213
-3.41397	JOANNE'S	-0.07896018
-3.41397	JOB	-0.089252
-3.11294	JUNE	-0.04784236
-3.41397	JUNIOR	-0.04821515
-2.20985	JUST	-0.04390868
-3.41397	KIDS	-0.07896018
-2.936849	KIND	-0.4276535
-3.41397	KINDA	-0.0944754
-2.091751	KNOW	-0.05971528
-3.41397	LADY	-0.04821515
-2.936849	LAKE	-0.04746925
-3.11294	LANDLORD	-0.3143426
-3.11294	LAST	-0.09414029
-3.41397	LAUDERDALE'S	-0.09094384
-3.41397	LAWS'	-0.0944754
-3.41397	LEAGUE	-0.09043698
-3.41397	LECTURE	-0.07896018
-3.41397	LEFT	-0.09330139
-3.41397	LEGAL	-0.0944754
-3.41397	LESS	-0.09094384
-2.071547	LIKE	-0.092834
-3.41397	LIST	-0.09077495
-2.936849	LITTLE	-0.09414028
-3.11294	LIVE	-0.0902679
-2.81191	LOAN	-0.08959089
-3.11294	LOANS	-0.04672208
-3.41397	LOCATION	-0.07965394
-3.41397	LONG	-0.09397264
-3.41397	LOOK	-0.09246088
-3.41397	LOOKED	-0.09246088
-3.41397	LOT	-0.09077495
-3.41397	LOTS	-0.09077495
-3.41397	LOVE	-0.08755355
-3.11294	LOVES	-0.08738334
-2.936849	MAINTENANCE	-0.2309898
-3.11294	MAKE	-0.09330139
-3.41397	MAKING	-0.08755355
-3.41397	MANGERS	-0.07896018
-2.936849	MARRIED	-0.183178
-3.41397	MART	-0.09111266
-3.41397	MAY	-0.09094384
-3.11294	MAYBE	-0.0895909
-3.41397	MCKENZIE	-0.09430787
-2.715	ME	-0.07424808
-3.41397	MEAN	-0.089252
-3.41397	MEMORIAL	-0.09430787
-3.41397	MET	-0.09246088
-3.41397	MHM	-0.0902679
-2.715	MHMM	-0.3369735
-3.11294	MIDDLE	-0.04390868
-3.11294	MIGHT	-0.3180647
-3.41397	MILES	-0.09262911
-3.41397	MILLER	-0.07896018
-3.41397	MOBILITY	-0.07896018
-3.41397	MODERATELY	-0.0944754
-2.936849	MONDAY	-0.04746925
-2.81191	MONEY	-0.04107692
-3.41397	MONTH	-0.08755355
-3.41397	MONTHS	-0.09430787
-3.41397	MOON	-0.07896018
-3.11294	MORE	-0.09077495
-2.936849	MORNING	-0.2128416
-3.41397	MOST	-0.09380493
-3.41397	MOSTLY	-0.09043698
-3.41397	MOUNTAINS	-0.08670182
-3.41397	MOVE	-0.09262911
-3.41397	MOVED	-0.09043698
-3.41397	MOVIE	-0.09430787
-3.41397	MOVING	-0.09346931
-2.81191	MUCH	-0.07107802
-3.11294	MUSIC	-0.09380493
-3.41397	MUSICIAN	-0.09094384
-2.237879	MY	-0.03993904
-3.41397	NEAR	-0.09430787
-3.41397	NEAT	-0.04821515
-3.41397	NEED	-0.08772369
-3.41397	NEUROLOGIST	-0.089252
-3.41397	NEW	-0.0944754
-2.715	NEXT	-0.1693945
-2.936849	NICE	-0.1848595
-3.41397	NIECE	-0.09178729
-3.41397	NIECES	-0.09043698
-3.11294	NIGHT	-0.04784236
-3.41397	NINE	-0.0944754
-2.071547	NO	-0.1347566
-2.936849	NORTH	-0.04597361
-3.41397	NORTHEAST	-0.09380493
-3.41397	NORTHWEST	-0.09077495
-2.071547	NOT	-0.09004194
-3.11294	NOTHING	-0.09330139
-2.51088	NOW	-0.1013358
-3.41397	O'CLOCK	-0.08823372
-3.41397	OAK	-0.04821515
-3.41397	OCCASIONAL	-0.0944754
-3.41397	OCCASIONALLY	-0.09094384
-3.41397	OCEAN	-0.08755355
-2.052242	OF	-0.08912895
-3.41397	OFF	-0.08482213
-2.372577	OH	-0.1627605
-3.41397	OHIO	-0.09330139
-3.41397	OK	-0.04821515
-2.715	OKAY	-0.3493782
-3.11294	OLD	-0.2743241
-2.20985	ON	-0.1767857
-2.334789	ONE	-0.168488
-3.11294	ONES	-0.07687222
-2.936849	ONLY	-0.0934693
-3.41397	ONTARIO	-0.04821515
-2.715	OR	-0.09077495
-3.41397	ORLANDO	-0.04821515
-2.81191	OTHER	-0.09043697
-3.41397	OUR	-0.0944754
-2.51088	OUT	-0.002478369
-2.635819	OVER	-0.2283298
-3.11294	OVERPAID	-0.04559891
-3.11294	OVERWHELMING	-0.04784236
-2.81191	PAID	-0.3189093
-3.41397	PALM	-0.0944754
-3.41397	PANDAS	-0.04821515
-3.41397	PARENTS	-0.0944754
-3.41397	PART	-0.09094384
-3.41397	PARTNER'S	-0.08224572
-3.41397	PARTY	-0.08482213
-3.41397	PAY	-0.0895909
-3.41397	PEACEFUL	-0.09430787
-3.41397	PEOPLE	-0.04821515
-3.41397	PERHAPS	-0.09397264
-3.41397	PETE	-0.04821515
-3.41397	PETOSKEY	-0.09330139
-3.41397	PETS	-0.07896018
-3.41397	PICK	-0.09330139
-3.41397	PICTURES	-0.04821515
-3.11294	PLACE	-0.0855066
-3.41397	PLAN	-0.04821515
-3.11294	PLANNED	-0.09077495
-2.715	PLAY	-0.04031866
-3.41397	PLAYED	-0.09296539
-3.11294	PLAYING	-0.08000041
-3.41397	PLUMBER	-0.08670182
-3.41397	POINT	-0.09397264
-3.41397	POOP	-0.07896018
-3.41397	POWER	-0.0944754
-3.41397	POWERFUL	-0.0944754
-3.41397	PRETTY	-0.09397264
-3.41397	PRINCESS	-0.04821515
-2.635819	PROBABLY	-0.05137098
-3.11294	PROBLEM	-0.08874317
-3.41397	PROFESSOR	-0.08482213
-3.41397	PROGRAMING	-0.08482213
-3.11294	PROOF	-0.04597362
-3.41397	PROPERTY	-0.0944754
-3.41397	PROPHYLACTIC	-0.0944754
-3.41397	PULLS	-0.09380493
-3.41397	PURPOSES	-0.04821515
-3.41397	PUT	-0.09380493
-3.41397	QUARTER	-0.0944754
-3.41397	QUICK	-0.09430787
-3.41397	QUICKEN	-0.09430787
-3.41397	QUIZZES	-0.09363715
-3.41397	RACE	-0.09430787
-3.41397	RAISED	-0.04821515
-3.41397	RAY	-0.0944754
-3.41397	READ	-0.04821515
-3.41397	READING	-0.08224572
-3.41397	REAL	-0.09380493
-3.11294	REALLY	-0.09397264
-3.41397	REALTOR	-0.09380493
-3.41397	REASON	-0.04821515
-3.41397	RECEPTION	-0.04821515
-3.41397	RECOMMEND	-0.08755355
-3.41397	RED	-0.0944754
-2.936849	REHEARSAL	-0.08533557
-3.41397	RELATIONSHIP	-0.09380493
-2.936849	RELATOR	-0.08772369
-3.41397	RELIGIOUS	-0.0944754
-3.41397	REMEMBER	-0.0944754
-3.41397	RESIDENTIAL	-0.04821515
-3.41397	REUPHOLSTERING	-0.0944754
-3.41397	RID	-0.09077495
-3.41397	RIDE	-0.0944754
-2.568872	RIGHT	-0.2298956
-3.41397	ROAD	-0.04821515
-3.41397	ROCHESTER	-0.0944754
-3.41397	ROTATOR	-0.0944754
-3.41397	ROYAL	-0.0944754
-3.41397	SAGINAW	-0.04821515
-2.715	SAID	-0.2566839
-3.41397	SAINT	-0.0944754
-3.41397	SALE	-0.04821515
-3.41397	SALVATION	-0.0944754
-3.41397	SAME	-0.0944754
-3.41397	SARASOTA	-0.08482213
-2.936849	SATURDAY	-0.04728258
-3.41397	SAW	-0.09397264
-3.11294	SCHOOL	-0.03072697
-2.715	SEE	-0.07284202
-3.41397	SEEN	-0.089252
-2.936849	SELL	-0.2114406
-3.41397	SELLING	-0.08755355
-3.41397	SEMESTER	-0.09229258
-2.81191	SEVEN	-0.1457853
-3.11294	SHE	-0.08908246
-3.11294	SHOULD	-0.09094384
-3.41397	SHOULDER	-0.0944754
-3.41397	SHOWER	-0.09229258
-3.11294	SHOWS	-0.03150215
-3.41397	SHUT	-0.09380493
-3.11294	SICK	-0.3200816
-3.41397	SILLY	-0.07896018
-3.41397	SISTERS	-0.089252
-3.41397	SIT	-0.09229258
-3.41397	SITUATION	-0.08823372
-3.41397	SLUSH	-0.0944754
-3.41397	SMALL	-0.0944754
-1.650542	SO	-0.004453406
-2.936849	SOME	-0.09380492
-3.11294	SOMEBODY	-0.04221185
-3.41397	SOMETHING	-0.09346931
-3.41397	SOMETIME	-0.04821515
-3.41397	SORRY	-0.04821515
-3.11294	SOUTH	-0.08959089
-3.41397	STARED	-0.09246088
-3.41397	START	-0.09195579
-3.11294	STARTED	-0.08086537
-3.11294	STARTS	-0.3185698
-3.41397	STAY	-0.04821515
-3.11294	STILL	-0.09397264
-3.11294	STRESS	-0.08959089
-3.41397	STRESSFUL	-0.04821515
-3.41397	STUDY	-0.0944754
-2.81191	STUFF	-0.1276751
-3.41397	STUMBLE	-0.0944754
-3.41397	SUICIDE	-0.08482213
-3.11294	SUNDAY	-0.09043698
-3.41397	SUPPLIES	-0.07896018
-2.635819	SURE	-0.1322567
-3.41397	SURGERY	-0.04821515
-3.41397	SWEET	-0.09414029
-3.41397	SYMPTOMS	-0.0895909
-3.41397	TAKE	-0.08224572
-3.41397	TALK	-0.07896018
-3.11294	TALKED	-0.3128107
-3.11294	TAMPA	-0.2743241
-3.11294	TEACH	-0.07843913
-2.936849	TEN	-0.07843913
-3.41397	TERRIBLE	-0.04821515
-2.936849	TEST	-0.03955907
-3.41397	THANK	-0.0895909
-1.90882	THAT	-0.1655275
-2.568872	THAT'S	-0.0675284
-1.533156	THE	-0.1083468
-3.11294	THEIR	-0.09380493
-2.81191	THEM	-0.04428485
-2.334789	THEN	-0.06891878
-3.41397	THERAPIST	-0.09246088
-2.267842	THERE	-0.1208012
-2.568872	THERE'S	-0.1260174
-2.183521	THEY	-0.2098906
-3.11294	THEY'RE	-0.08447949
-3.11294	THING	-0.03150215
-2.936849	THINGS	-0.02878293
-2.635819	THINK	-0.0661004
-3.41397	THIRTEEN	-0.07896018
-2.635819	THIS	-0.2454775
-2.936849	THOUGH	-0.07722091
-3.41397	THOUSAND	-0.0944754
-2.936849	THREE	-0.09330139
-2.936849	THROUGH	-0.076174
-2.81191	TIME	-0.2633812
-3.41397	TIMES	-0.08224572
-1.741872	TO	-0.1134384
-3.41397	TOLD	-0.04821515
-3.41397	TOMORROW	-0.07896018
-3.11294	TONIGHT	-0.04802879
-2.81191	TOO	-0.09330139
-3.41397	TOOK	-0.0944754
-3.41397	TORE	-0.09212422
-3.41397	TORNADO	-0.04821515
-3.11294	TRACK	-0.04709583
-3.41397	TREATMENT	-0.0944754
-3.11294	TRIP	-0.08362171
-3.41397	TROUBLE	-0.08823372
-2.936849	TRUCKLOADS	-0.07442351
-3.41397	TRUST	-0.04821515
-2.936849	TRYING	-0.4235804
-3.41397	TUES	-0.09262911
-3.11294	TUESDAY	-0.07756933
-3.41397	TURNED	-0.0944754
-3.41397	TV	-0.09430787
-3.41397	TWELVE	-0.04821515
-2.568872	TWO	-0.09950126
-3.41397	TYPE	-0.09430787
-2.635819	UH	-0.07722092
-3.41397	UHH	-0.09430787
-2.372577	UM	-0.06359003
-3.11294	UMM	-0.07791746
-3.41397	UNDER	-0.09212422
-3.41397	UNION	-0.08992953
-3.11294	UNPACKED	-0.09330139
-2.51088	UP	-0.01753271
-3.41397	USE	-0.09212422
-3.41397	USED	-0.08670182
-3.41397	VACATIONS	-0.09363715
-3.41397	VARIETY	-0.04821515
-2.568872	VERY	-0.1454834
-3.41397	VISITED	-0.09296539
-3.41397	VP	-0.08755355
-3.41397	WABATONGUSHI	-0.04821515
-3.41397	WAL	-0.0944754
-3.11294	WALK	-0.09363715
-3.41397	WALKED	-0.09380493
-3.11294	WALKING	-0.3199138
-3.41397	WANT	-0.08670182
-3.11294	WANTED	-0.3128107
-3.11294	WANTS	-0.3128107
-3.41397	WARNING	-0.04821515
-2.091751	WAS	-0.05399494
-3.41397	WASH	-0.0817286
-3.11294	WASTE	-0.08190104
-3.41397	WAWA	-0.0944754
-2.715	WAY	-0.07301802
-1.966812	WE	-0.177
-3.41397	WE'LL	-0.09195579
-3.11294	WE'RE	-0.09279728
-3.11294	WE'VE	-0.09195579
-2.81191	WEDDING	-0.02643856
-3.11294	WEEK	-0.3050691
-2.459728	WEEKEND	-0.5120947
-3.41397	WEEKENDS	-0.09414029
-3.41397	WEIRD	-0.0944754
-2.459728	WELL	-0.1151709
-2.568872	WENT	-0.2105774
-2.568872	WERE	-0.07477418
-3.11294	WEREN'T	-0.08908246
-2.936849	WHAT	-0.08908245
-3.41397	WHATEVER	-0.08772369
-3.41397	WHEELCHAIR	-0.0944754
-2.715	WHEN	-0.1501276
-3.41397	WHENEVER	-0.0895909
-2.51088	WHERE	-0.0493316
-3.41397	WHICH	-0.09262911
-3.11294	WHILE	-0.07477418
-3.41397	WHITMORE	-0.09414029
-2.936849	WHO	-0.09077495
-3.41397	WHOLE	-0.09414029
-3.41397	WHY	-0.09296539
-3.11294	WILL	-0.09346931
-2.41397	WITH	-0.1575366
-3.41397	WITHOUT	-0.0944754
-3.41397	WON'T	-0.09195579
-2.936849	WORK	-0.08942147
-2.715	WORKING	-0.02526161
-3.41397	WORKS	-0.04821515
-3.41397	WOULD	-0.09346931
-3.41397	WRITING	-0.08224572
-3.41397	YA'LL	-0.09296539
-1.801186	YEAH	-0.3585079
-2.635819	YEAR	-0.2556956
-3.41397	YEARS	-0.09430787
-3.41397	YEP	-0.04821515
-1.998997	YES	-0.3916931
-2.635819	YET	-0.1878457
-1.936849	YOU	-0.2421391
-2.936849	YOU'RE	-0.08908245
-3.11294	YOUR	-0.09414029
-3.11294	YUP	-0.04409681
-3.11294	ZOO	-0.03072697

\2-grams:
-0.7081589	17 AND
-0.7081589	18 </s>
-1.18528	300 </s>
-1.18528	300 AND
-1.18528	300 WE
-0.7081589	6 WEEKENDS
-0.7081589	600 MILES
-0.7081589	96 YEARS
-0.7081589	96TH BIRTHDAY
-2.401091	<s> A
-2.401091	<s> ACTUALLY
-3.128115	<s> ALL
-3.128115	<s> AN
-1.141202	<s> AND
-3.128115	<s> AROUND
-3.128115	<s> BE
-3.128115	<s> BECAUSE
-3.128115	<s> BEFORE
-3.128115	<s> BORN
-3.128115	<s> BRASS
-2.373069	<s> BUT
-3.128115	<s> BUYING
-3.128115	<s> CAUSE
-3.128115	<s> COUPLE
-3.128115	<s> DEFINITELY
-3.128115	<s> DELTA
-3.128115	<s> DOCTORS
-3.128115	<s> DOWNTOWN
-3.128115	<s> ELEMENTARY
-3.128115	<s> EVEN
-3.128115	<s> FLORIDA
-2.401091	<s> FOR
-3.128115	<s> FORT
-2.401091	<s> GOING
-3.128115	<s> GOOD
-2.401091	<s> HE
-3.128115	<s> HE'S
-3.128115	<s> HISTORY
-1.164683	<s> I
-2.143657	<s> I'M
-3.128115	<s> IF
-2.143657	<s> IN
-2.074883	<s> IT
-2.373069	<s> IT'S
-2.401091	<s> JEFF
-3.128115	<s> JUST
-3.128115	<s> MHM
-1.944263	<s> MHMM
-3.128115	<s> MILLER
-3.128115	<s> MODERATELY
-3.128115	<s> MUSIC
-3.128115	<s> MY
-3.128115	<s> NEXT
-1.340775	<s> NO
-3.128115	<s> NOT
-3.128115	<s> NOTHING
-1.944263	<s> OH
-3.128115	<s> OK
-2.143657	<s> OKAY
-2.401091	<s> ONE
-3.128115	<s> OR
-3.128115	<s> OVER
-3.128115	<s> PALM
-3.128115	<s> PERHAPS
-3.128115	<s> PLAY
-3.128115	<s> PRETTY
-3.128115	<s> PROBABLY
-3.128115	<s> READ
-2.143657	<s> RIGHT
-3.128115	<s> ROTATOR
-3.128115	<s> SAINT
-3.128115	<s> SHE
-3.128115	<s> SHOULD
-1.243865	<s> SO
-3.128115	<s> SOME
-3.128115	<s> SUNDAY
-3.128115	<s> TEN
-3.128115	<s> THANK
-3.128115	<s> THAT
-2.401091	<s> THAT'S
-3.128115	<s> THE
-3.128115	<s> THEN
-3.128115	<s> THERE
-3.128115	<s> THERE'S
-1.944263	<s> THEY
-3.128115	<s> THROUGH
-3.128115	<s> TV
-3.128115	<s> TWO
-2.143657	<s> UH
-2.074883	<s> UM
-2.401091	<s> UMM
-3.128115	<s> VERY
-2.074883	<s> WE
-2.401091	<s> WE'VE
-1.641804	<s> WELL
-3.128115	<s> WENT
-3.128115	<s> WHAT
-3.128115	<s> WHEN
-3.128115	<s> WHENEVER
-3.128115	<s> WHERE
-3.128115	<s> WITH
-3.128115	<s> WORKING
-0.9727977	<s> YEAH
-1.141202	<s> YES
-1.944263	<s> YOU
-1.009189	<unk> IN
-1.009189	<unk> THIS
-2.571482	A BAD
-1.587024	A BIG
-2.571482	A BLAST
-1.844458	A BUNCH
-2.571482	A CHAUFFEUR
-2.571482	A COMMUNITY
-2.571482	A COUPLE
-2.571482	A DAY
-2.571482	A DIFFERENT
-2.571482	A DIRT
-2.571482	A DISASTER
-2.571482	A DRUG
-2.571482	A FAIRLY
-2.571482	A FISHING
-2.571482	A FUNCTIONAL
-2.571482	A GARAGE
-2.571482	A GOLF
-2.571482	A GOOD
-1.844458	A GREAT
-1.844458	A HALF
-2.571482	A HE
-2.571482	A HONEY
-2.571482	A HOUSE
-2.571482	A JUNIOR
-2.571482	A LAKE
-1.844458	A LANDLORD
-2.571482	A LECTURE
-2.571482	A LITTLE
-1.51825	A LOAN
-2.571482	A LONG
-2.571482	A LOT
-2.571482	A MOVIE
-2.571482	A MUSICIAN
-2.571482	A NEW
-2.571482	A PLAY
-2.571482	A PROBLEM
-2.571482	A PROFESSOR
-2.571482	A PROPHYLACTIC
-2.571482	A QUARTER
-2.571482	A REAL
-1.844458	A REHEARSAL
-2.571482	A RELATIONSHIP
-2.571482	A RELATOR
-2.571482	A SALVATION
-2.571482	A SHOWER
-2.571482	A SMALL
-1.844458	A TEST
-2.571482	A THERAPIST
-2.571482	A VERY
-2.571482	A VP
-1.587024	A WEDDING
-1.844458	A WEEK
-2.571482	A WEIRD
-2.571482	A WHEELCHAIR
-2.571482	A WHOLE
-1.587024	A YEAR
-2.571482	A YOU
-1.310219	ABOUT 600
-1.310219	ABOUT LAST
-1.310219	ABOUT SELLING
-1.310219	ABOUT TEN
-0.7081589	ABSOLUTELY </s>
-0.7081589	ACCESSIBLE AND
-1.407129	ACTUALLY DOWN
-1.407129	ACTUALLY FROM
-0.680105	ACTUALLY I
-1.407129	ACTUALLY I'M
-0.7081589	ADRIAN WHERE
-0.7081589	AFTER BEING
-0.7081589	AGAIN THEN
-1.18528	AGO BECAUSE
-1.18528	AGO BUT
-1.18528	AGO THERE
-0.7081589	ALCOHOL TREATMENT
-1.611249	ALL FROM
-1.611249	ALL INDIVIDUAL
-1.611249	ALL OUT
-0.5580174	ALL THE
-1.611249	ALL THROUGH
-0.7081589	ALMOST NINE
-0.7081589	ALONG THE
-1.18528	ALSO HAD
-1.18528	ALSO TRYING
-1.18528	ALSO WHEN
-1.009189	AM A
-1.009189	AM WORKING
-1.009189	AMAZING </s>
-1.009189	AMAZING YOU
-1.310219	AN AUNT
-0.583195	AN HOUR
-1.310219	AN OCCASIONAL
-2.671947	AND 18
-2.671947	AND </s>
-1.687489	AND A
-2.671947	AND ALCOHOL
-2.671947	AND ALL
-1.618715	AND AND
-2.671947	AND BE
-2.671947	AND BEYOND
-2.671947	AND CATCH
-2.671947	AND ENDED
-2.671947	AND EVEN
-2.671947	AND EVERYTHING
-2.671947	AND FRIDAY
-2.671947	AND GIVE
-2.671947	AND GO
-2.671947	AND GOT
-2.671947	AND HANDICAP
-1.687489	AND HE
-1.687489	AND I
-2.671947	AND I'M
-2.671947	AND IF
-2.671947	AND IT'S
-1.687489	AND JUST
-2.671947	AND LESS
-2.671947	AND LIKE
-2.671947	AND LOOK
-2.671947	AND LOOKED
-2.671947	AND MIDDLE
-2.671947	AND NOT
-2.671947	AND NOW
-2.671947	AND ONE
-2.671947	AND OUT
-2.671947	AND PLAY
-2.671947	AND PROPERTY
-2.671947	AND RAISED
-0.8846066	AND SO
-1.944923	AND STUFF
-2.671947	AND TEACH
-1.185637	AND THE
-2.671947	AND THEIR
-1.618715	AND THEN
-1.618715	AND THEY
-2.671947	AND TRUCKLOADS
-2.671947	AND TWELVE
-2.671947	AND UH
-1.944923	AND UM
-2.671947	AND VISITED
-2.671947	AND WAL
-2.671947	AND WALK
-2.671947	AND WE
-2.671947	AND WHATEVER
-2.671947	AND WHEN
-2.671947	AND WHITMORE
-2.671947	AND WITH
-1.944923	AND YOU
-2.671947	AND YOUR
-0.7081589	ANIMALS WERE
-0.7081589	ANOTHER REHEARSAL
-0.7081589	ANTI DEPRESSANTS
-0.7081589	ANTICIPATING MOVING
-0.7081589	ANTIDEPRESSANTS FOR
-1.009189	ANY IDEA
-1.009189	ANY WORK
-0.7081589	ANYONE WHO
-0.7081589	ANYTHING LIKE
-0.7081589	ANYWAY </s>
-0.7081589	APPEAR DEPRESSED
-0.7081589	APPOINTMENTS </s>
-1.708159	ARE 17
-0.9811351	ARE </s>
-1.708159	ARE ALL
-1.708159	ARE ALSO
-1.708159	ARE GOING
-1.708159	ARE IT'S
-0.9811351	ARE LIKE
-1.708159	ARE YOU
-0.7081589	AREA </s>
-0.7081589	ARMY </s>
-1.407129	AROUND JOANNE'S
-1.407129	AROUND SO
-0.680105	AROUND THE
-1.407129	AROUND WE
-1.009189	AS IT
-1.009189	AS OVERWHELMING
-1.095078	AT A
-1.822102	AT ALL
-1.822102	AT ALMOST
-1.822102	AT BED
-1.822102	AT EIGHT
-1.822102	AT FIRST
-1.822102	AT LIKE
-1.822102	AT QUICKEN
-1.822102	AT SO
-1.095078	AT THE
-1.822102	AT YOU
-0.7081589	AUDITING DEPARTMENT
-0.7081589	AUNT WHO
-1.009189	AWAY FOR
-1.009189	AWAY FROM
-0.5018521	BACK AND
-1.48631	BACK GET
-1.48631	BACK PLAYING
-1.48631	BACK TO
-0.7081589	BAD LOCATION
-0.7081589	BADLY </s>
-1.009189	BANK AND
-1.009189	BANK BEYOND
-0.4582563	BASED IT
-1.18528	BASED ON
-0.7081589	BASEMENT YOU
-0.7081589	BASICALLY ON
-0.7081589	BATH AND
-0.7081589	BATTLE CREEK
-1.912279	BE A
-1.912279	BE COMMERCIAL
-1.912279	BE DEALING
-1.912279	BE GOOD
-1.912279	BE GRADUATING
-1.912279	BE HAPPY
-1.185255	BE IN
-1.912279	BE IT
-1.912279	BE ONE
-1.912279	BE RESIDENTIAL
-1.912279	BE SILLY
-1.912279	BE STARED
-1.912279	BE UHH
-1.912279	BE VERY
-1.912279	BE YOU
-0.7081589	BEACH </s>
-0.7081589	BEAVERS </s>
-1.708159	BECAUSE FOR
-0.5243074	BECAUSE I
-1.708159	BECAUSE I'VE
-1.708159	BECAUSE IT
-1.708159	BECAUSE MY
-1.708159	BECAUSE WE
-0.7081589	BED BATH
-1.310219	BEEN HOME
-0.583195	BEEN ON
-1.310219	BEEN TOLD
-1.18528	BEFORE </s>
-1.18528	BEFORE THAT
-1.18528	BEFORE THE
-0.583195	BEING A
-1.310219	BEING AWAY
-1.310219	BEING IN
-0.7081589	BELONGS </s>
-0.2821651	BETWEEN THE
-1.009189	BEYOND </s>
-1.009189	BEYOND THAT
-1.407129	BIG DEAL
-1.407129	BIG DIFFERENCE
-1.407129	BIG FANCY
-1.407129	BIG PARTY
-1.407129	BIG WARNING
-0.7081589	BIKE </s>
-0.7081589	BILLY GRAHAM
-0.7081589	BIRTHDAY WHILE
-0.7081589	BIT OF
-0.7081589	BLAST IT
-0.7081589	BOOK ON
-0.7081589	BORING HOWEVER
-0.7081589	BORN AND
-0.7081589	BOTHER </s>
-0.7081589	BRASS INSTRUMENTS
-0.7081589	BRING THEM
-0.2008221	BUNCH OF
-1.009189	BUSY I'M
-1.009189	BUSY WEEKEND
-1.066124	BUT </s>
-2.050582	BUT AND
-2.050582	BUT BUT
-1.323558	BUT I
-1.323558	BUT IF
-1.323558	BUT IT'S
-2.050582	BUT NOT
-2.050582	BUT NOW
-2.050582	BUT SUNDAY
-2.050582	BUT THE
-2.050582	BUT THEN
-2.050582	BUT THERE
-2.050582	BUT THERE'S
-1.323558	BUT WE
-1.323558	BUT YEAH
-0.7081589	BUYING THINGS
-1.009189	CALLED ONE
-1.009189	CALLED WABATONGUSHI
-1.611249	CAN </s>
-1.611249	CAN BE
-1.611249	CAN GET
-1.611249	CAN HAVE
-1.611249	CAN PAY
-1.611249	CAN SEE
-1.611249	CAN SELL
-1.611249	CAN SIT
-0.7081589	CAN'T YOU
-0.7081589	CANADA ABOUT
-0.7081589	CAROLINA CAN
-1.18528	CASH A
-1.18528	CASH FOR
-1.18528	CASH WITH
-0.7081589	CATCH UP
-1.310219	CAUSE ABOUT
-1.310219	CAUSE I
-1.310219	CAUSE OF
-1.310219	CAUSE THAT'S
-0.7081589	CENTERVILLE BRING
-0.7081589	CENTRAL FROM
-0.7081589	CHAUFFEUR WE'RE
-0.7081589	CLASS </s>
-0.7081589	CLASSES AND
-0.7081589	CLEANED OUT
-0.7081589	CLEANING </s>
-0.4582563	COLLEGE </s>
-1.18528	COLLEGE AND
-1.009189	COME IN
-1.009189	COME WITH
-1.009189	COMING BACK
-1.009189	COMING HOME
-0.7081589	COMMERCIAL IT
-0.7081589	COMMITTED SUICIDE
-0.7081589	COMMUNITY COLLEGE
-0.7081589	COMPANIES THAT
-0.7081589	COMPLETELY GOT
-0.7081589	COMPUTER PROGRAMING
-0.7081589	COMPUTERS SO
-0.2821651	CONE </s>
-0.7081589	CONTRACTORS AND
-0.7081589	COOL </s>
-0.7081589	COUCH OVER
-1.310219	COULD BE
-1.310219	COULD BUT
-1.310219	COULD GET
-1.310219	COULD GIVE
-1.009189	COULDN'T FIND
-1.009189	COULDN'T SEE
-1.009189	COUPLE DAYS
-1.009189	COUPLE TIMES
-0.7081589	COURSE IN
-0.7081589	CRAZY </s>
-0.7081589	CREDIT UNION
-0.7081589	CREEK </s>
-0.7081589	CRYSTAL </s>
-0.7081589	CUFF IT'S
-0.7081589	CURRENTLY AT
-0.7081589	DAD'S HISTORY
-0.7081589	DATE BUT
-0.7081589	DAUGHTER </s>
-1.009189	DAY </s>
-1.009189	DAY FOR
-0.7592863	DAYS </s>
-1.48631	DAYS ON
-1.48631	DAYS OVER
-1.48631	DAYS SO
-1.48631	DAYS YOU
-0.7081589	DEAL LIKE
-0.7081589	DEALING WITH
-0.7081589	DECIDE THEY
-0.7081589	DECIDED ON
-1.18528	DEFINITELY </s>
-1.18528	DEFINITELY A
-1.18528	DEFINITELY NICE
-0.7081589	DELTA COLLEGE
-0.7081589	DEPARTMENT </s>
-0.7081589	DEPRESSANTS BECAUSE
-1.18528	DEPRESSED </s>
-1.18528	DEPRESSED CAUSE
-1.18528	DEPRESSED DOESN'T
-1.18528	DEPRESSION IS
-1.18528	DEPRESSION PART
-1.18528	DEPRESSION SO
-1.310219	DETROIT </s>
-0.583195	DETROIT JAZZ
-1.310219	DETROIT ZOO
-1.18528	DID NOT
-1.18528	DID WE
-1.18528	DID YOU
-1.009189	DIDN'T FEEL
-1.009189	DIDN'T SORRY
-0.7081589	DIED AND
-0.7081589	DIFFERENCE BETWEEN
-1.009189	DIFFERENT BOOK
-1.009189	DIFFERENT THINGS
-0.7081589	DIRT TRACK
-0.2821651	DISABILITY </s>
-0.7081589	DISASTER AREA
-0.7081589	DISEASE WORKS
-0.7081589	DNA STUDY
-1.553257	DO </s>
-1.553257	DO ANY
-0.8262331	DO LIKE
-1.553257	DO MY
-1.553257	DO SO
-1.553257	DO STUMBLE
-0.7081589	DOCTORS APPOINTMENTS
-0.7081589	DOES </s>
-0.7081589	DOESN'T MEAN
-0.7081589	DOG AND
-1.18528	DOING I'M
-1.18528	DOING OKAY
-1.18528	DOING THE
-0.7081589	DOLLARS TO
-1.822102	DON'T APPEAR
-1.822102	DON'T EVEN
-1.822102	DON'T HAVE
-0.6382507	DON'T KNOW
-1.095078	DON'T LIKE
-1.822102	DON'T REMEMBER
-1.822102	DON'T SELL
-1.822102	DON'T THERE
-0.7081589	DONAVAN </s>
-1.407129	DOWN </s>
-1.407129	DOWN SOUTH
-1.407129	DOWN THERE
-0.680105	DOWN TO
-1.009189	DOWNTOWN <unk>
-1.009189	DOWNTOWN DETROIT
-1.18528	DRAINS AND
-1.18528	DRAINS CLEANED
-1.18528	DRAINS ERUPTED
-1.009189	DRIVE DOWN
-1.009189	DRIVE RIGHT
-1.009189	DRIVING IMMEDIATELY
-1.009189	DRIVING UP
-0.7081589	DROVE ALL
-0.7081589	DRUG AND
-0.7081589	EACH </s>
-1.18528	EIGHT DAYS
-1.18528	EIGHT FORTY
-1.18528	EIGHT OH
-1.009189	ELEMENTARY AND
-1.009189	ELEMENTARY STARTS
-0.7081589	ELSE DID
-0.7081589	EM BUT
-0.7081589	EMPTIED FOR
-0.7081589	ENDED UP
-1.009189	ENOUGH AND
-1.009189	ENOUGH BECAUSE
-0.7081589	EQUITY ON
-0.7081589	ERR TEST
-0.7081589	ERUPTED WITH
-1.310219	EVEN BOTHER
-1.310219	EVEN IF
-0.583195	EVEN THOUGH
-0.7081589	EVER SEEN
-1.009189	EVERY OTHER
-1.009189	EVERY PLAN
-0.7081589	EVERYBODY WAS
-0.7081589	EVERYONE HAS
-1.009189	EVERYTHING SO
-1.009189	EVERYTHING WHERE
-0.7081589	EVERYWHERE BUT
-0.7081589	EVICT PRINCESS
-0.7081589	EXACT SYMPTOMS
-1.310219	EXACTLY SO
-0.3257609	EXACTLY SURE
-0.7081589	EXCITED </s>
-0.7081589	EXCITING </s>
-0.7081589	EXERCISE </s>
-0.7081589	FACILITY </s>
-0.7081589	FAIRLY QUICK
-0.7081589	FALLING OVER
-0.7081589	FALLS UNDER
-1.18528	FAMILY </s>
-1.18528	FAMILY AND
-1.18528	FAMILY THEY
-0.7081589	FANCY HOUSES
-0.7081589	FARM IN
-0.7081589	FEEL THAT
-0.7081589	FEES TRYING
-1.009189	FESTIVAL AND
-1.009189	FESTIVAL THEN
-0.7081589	FIELD TO
-0.7081589	FIFTY OR
-0.7081589	FIND ANYONE
-0.7081589	FIREWORKS AND
-1.18528	FIRST BUT
-1.18528	FIRST FOUND
-1.18528	FIRST MOVED
-0.7081589	FISHING TRIP
-0.7081589	FIVE </s>
-0.7081589	FIX IT
-1.18528	FLORIDA </s>
-1.18528	FLORIDA TO
-1.18528	FLORIDA WERE
-0.7081589	FOOD OR
-1.127263	FOR A
-1.854287	FOR EIGHT
-1.854287	FOR IT
-1.854287	FOR MY
-1.854287	FOR NO
-1.854287	FOR ONE
-1.854287	FOR PEOPLE
-1.854287	FOR THAT
-1.127263	FOR THE
-1.127263	FOR THIS
-1.854287	FOR TUESDAY
-0.7081589	FORGOT THAT
-0.7081589	FORMULA AND
-0.7081589	FORMULATE A
-0.7081589	FORT LAUDERDALE'S
-0.7081589	FORTY </s>
-0.7081589	FOUND OUT
-0.7081589	FOUR DAYS
-0.7081589	FRESHMAN IN
-1.009189	FRIDAY FRIDAY
-1.009189	FRIDAY I
-1.009189	FRIENDS </s>
-1.009189	FRIENDS FROM
-1.78734	FROM </s>
-1.78734	FROM CENTERVILLE
-1.78734	FROM DOWN
-1.78734	FROM HAVING
-1.78734	FROM HERE
-0.6034886	FROM THE
-1.78734	FROM WHAT
-1.78734	FROM WORK
-0.680105	FUN </s>
-1.407129	FUN TO
-1.407129	FUN WHEN
-1.407129	FUN YES
-0.7081589	FUNCTIONAL COURSE
-0.7081589	GARAGE SALE
-0.7081589	GAY CENTRAL
-0.7081589	GENE </s>
-1.095078	GET 300
-0.8376442	GET A
-1.822102	GET ALL
-1.822102	GET BACK
-1.822102	GET I
-1.822102	GET LOANS
-1.822102	GET SICK
-1.095078	GET THE
-1.822102	GET UP
-0.7081589	GETS CRAZY
-1.18528	GETTING A
-0.4582563	GETTING MARRIED
-0.7081589	GIFTS </s>
-0.7081589	GIRLS </s>
-1.009189	GIVE A
-1.009189	GIVE ME
-0.7081589	GIVING SEVEN
-1.48631	GO ACTUALLY
-1.48631	GO BACK
-1.48631	GO INTO
-1.48631	GO THERE
-1.48631	GO TO
-1.48631	GO YET
-0.7081589	GOES </s>
-1.611249	GOING ON
-0.8562031	GOING TO
-1.009189	GOLF </s>
-1.009189	GOLF LEAGUE
-0.7081589	GONE NOW
-0.5018521	GOOD </s>
-1.48631	GOOD I'D
-1.48631	GOOD ONE
-1.48631	GOOD THOUGH
-1.553257	GOT A
-1.553257	GOT MARRIED
-1.553257	GOT ON
-1.553257	GOT RID
-0.8262331	GOT TO
-1.553257	GOT UNPACKED
-0.7081589	GRADUATING NEXT
-0.7081589	GRAHAM </s>
-0.7081589	GRAND </s>
-1.310219	GREAT </s>
-1.310219	GREAT FIELD
-1.310219	GREAT SCHOOL
-1.310219	GREAT TIME
-0.7081589	GROWN TO
-0.7081589	GUYS EVER
-0.30103	HAD A
-1.78734	HAD EM
-1.78734	HAD HER
-1.78734	HAD MONEY
-1.78734	HAD SHOULDER
-1.78734	HAD TALKED
-1.78734	HAD TO
-1.009189	HALF AGO
-1.009189	HALF THERE
-0.7081589	HANDICAP ACCESSIBLE
-0.7081589	HAPPENS CAUSE
-0.7081589	HAPPY </s>
-1.009189	HARD GETTING
-1.009189	HARD TO
-0.7081589	HAS THE
-0.544068	HAVE A
-2.030378	HAVE ANOTHER
-2.030378	HAVE ANY
-2.030378	HAVE HELP
-2.030378	HAVE MY
-2.030378	HAVE NO
-2.030378	HAVE PLANNED
-1.303354	HAVE PROOF
-1.303354	HAVE THE
-2.030378	HAVE THEM
-1.04592	HAVE TO
-2.030378	HAVE TWO
-0.7081589	HAVEN'T BEEN
-0.2821651	HAVING THE
-1.009189	HD </s>
-1.009189	HD AND
-1.78734	HE COMMITTED
-1.78734	HE DOES
-1.78734	HE JUST
-1.060316	HE LOVES
-1.78734	HE PULLS
-1.78734	HE SAID
-1.78734	HE USED
-1.78734	HE WANTED
-1.060316	HE WANTS
-1.78734	HE WENT
-0.2821651	HE'LL BE
-1.407129	HE'S A
-1.407129	HE'S IT
-0.680105	HE'S NOT
-1.407129	HE'S VERY
-0.7081589	HELP AND
-0.7081589	HELPFUL </s>
-1.009189	HER 96TH
-1.009189	HER BEING
-0.4582563	HERE </s>
-1.18528	HERE WHILE
-0.7081589	HIGH SCHOOL
-0.7081589	HILLS </s>
-0.7081589	HIRE SOMEBODY
-0.4582563	HISTORY </s>
-1.18528	HISTORY NOT
-1.009189	HOLIDAY LEFT
-1.009189	HOLIDAY TO
-0.7081589	HOLIDAYS DON'T
-1.009189	HOME AFTER
-1.009189	HOME IN
-0.7081589	HONEY MOON
-1.009189	HOPEFULLY HOPEFULLY
-1.009189	HOPEFULLY SO
-0.7081589	HOSE AND
-0.7081589	HOT </s>
-1.009189	HOUR </s>
-1.009189	HOUR SOUTH
-0.7081589	HOURS A
-0.7592863	HOUSE </s>
-1.48631	HOUSE ALSO
-1.48631	HOUSE AND
-1.48631	HOUSE I
-1.48631	HOUSE IS
-0.7081589	HOUSES ALONG
-0.7081589	HOW TO
-0.7081589	HOWEVER </s>
-0.7081589	HUNDRED </s>
-0.7081589	HURRICANE </s>
-0.7081589	HUSBAND IS
-1.925618	I AM
-2.652642	I CALLED
-1.46879	I CAN
-2.652642	I CAN'T
-2.652642	I COULDN'T
-2.652642	I DIDN'T
-1.668184	I DO
-0.90309	I DON'T
-2.652642	I DRIVE
-1.925618	I FIRST
-2.652642	I FORGOT
-1.59941	I GET
-2.652642	I GOT
-1.668184	I HAD
-0.7683914	I HAVE
-2.652642	I HAVEN'T
-1.925618	I I
-1.925618	I JUST
-1.897596	I KNOW
-1.925618	I LIKE
-2.652642	I LOVE
-2.652642	I MAYBE
-2.652642	I NEED
-2.652642	I OVERPAID
-1.668184	I PAID
-2.652642	I START
-2.652642	I STARTED
-2.652642	I STILL
-2.652642	I TALKED
-2.652642	I TEACH
-1.46879	I THINK
-2.652642	I TORE
-1.925618	I WAS
-2.652642	I WASTE
-2.652642	I WORK
-0.7081589	I'D RECOMMEND
-1.009189	I'LL BE
-1.009189	I'LL GO
-2.050582	I'M A
-2.050582	I'M CURRENTLY
-1.323558	I'M DOING
-1.323558	I'M DRIVING
-2.050582	I'M EXCITED
-2.050582	I'M GIVING
-1.323558	I'M GOING
-2.050582	I'M I'M
-2.050582	I'M NOT
-2.050582	I'M OFF
-2.050582	I'M ON
-2.050582	I'M PLAYING
-2.050582	I'M REUPHOLSTERING
-1.323558	I'M SURE
-2.050582	I'M TRYING
-2.050582	I'M UH
-2.050582	I'M WORKING
-2.050582	I'M WRITING
-0.2821651	I'VE BEEN
-1.009189	IDEA </s>
-1.009189	IDEA WHERE
-0.5580174	IF I
-1.611249	IF IF
-1.611249	IF THEY
-0.884225	IF YOU
-0.7081589	IMMEDIATELY BACK
-1.121641	IN </s>
-1.121641	IN A
-2.106099	IN BATTLE
-2.106099	IN COLLEGE
-2.106099	IN CRYSTAL
-2.106099	IN FLORIDA
-2.106099	IN I
-2.106099	IN JUNE
-2.106099	IN LAWS'
-2.106099	IN LEGAL
-2.106099	IN LIKE
-2.106099	IN NORTH
-2.106099	IN OHIO
-2.106099	IN ORLANDO
-2.106099	IN ROCHESTER
-2.106099	IN ROYAL
-2.106099	IN SAGINAW
-1.052867	IN THE
-0.7081589	INAUDIBLE </s>
-0.7081589	INCH OF
-0.2821651	INCOME IS
-0.7081589	INDIVIDUAL </s>
-0.7081589	INHERITANCE AND
-1.009189	INSIDE AND
-1.009189	INSIDE SO
-0.7081589	INSTRUMENTS </s>
-0.7081589	INTO COMPUTER
-1.938608	IS 96
-0.8853763	IS </s>
-1.211584	IS A
-1.938608	IS AS
-1.938608	IS COMING
-1.938608	IS FRESHMAN
-1.938608	IS GETTING
-1.938608	IS IN
-1.211584	IS NOT
-1.938608	IS ONE
-1.938608	IS SO
-1.938608	IS WORKING
-0.7081589	ISSUE HAPPENS
-0.4582563	ISSUES AND
-1.18528	ISSUES FROM
-1.34695	IT </s>
-2.331408	IT A
-2.331408	IT AND
-2.331408	IT AT
-2.331408	IT BASICALLY
-2.331408	IT BELONGS
-2.331408	IT BUT
-2.331408	IT COULD
-2.331408	IT FOOD
-2.331408	IT FOR
-2.331408	IT GETS
-2.331408	IT GOES
-2.331408	IT GOT
-2.331408	IT I'LL
-1.278177	IT IS
-1.604384	IT MIGHT
-2.331408	IT NICE
-2.331408	IT ON
-2.331408	IT SO
-2.331408	IT STARTS
-2.331408	IT UP
-0.447158	IT WAS
-1.532897	IT'S A
-2.287942	IT'S AMAZING
-2.287942	IT'S AT
-1.560919	IT'S DEFINITELY
-2.287942	IT'S FUN
-2.287942	IT'S GONE
-2.287942	IT'S GOOD
-2.287942	IT'S GREAT
-2.287942	IT'S HARD
-2.287942	IT'S I
-0.8016323	IT'S IT'S
-2.287942	IT'S JUST
-1.560919	IT'S LIKE
-2.287942	IT'S MORE
-2.287942	IT'S NORTHEAST
-1.560919	IT'S NOT
-2.287942	IT'S ONLY
-2.287942	IT'S OVERWHELMING
-2.287942	IT'S TERRIBLE
-2.287942	IT'S TOO
-2.287942	IT'S TROUBLE
-1.560919	IT'S WAY
-2.287942	IT'S WITH
-1.009189	ITS HARD
-1.009189	ITS ITS
-0.2821651	JAZZ FESTIVAL
-0.2821651	JEFF CONE
-0.7081589	JEWISH SO
-0.7081589	JOANNE'S AND
-0.7081589	JOB THAT
-1.009189	JUNE </s>
-1.009189	JUNE LAST
-0.7081589	JUNIOR </s>
-1.912279	JUST BECAUSE
-1.912279	JUST CAN
-1.912279	JUST COMPLETELY
-1.912279	JUST DAYS
-1.912279	JUST FIFTY
-1.912279	JUST GET
-1.912279	JUST GOT
-1.912279	JUST HAVING
-1.912279	JUST I
-1.912279	JUST KINDA
-1.912279	JUST PLAY
-1.912279	JUST TALK
-1.912279	JUST THE
-1.912279	JUST UM
-1.912279	JUST YES
-1.912279	JUST YOU
-0.7081589	KIDS AND
-0.2008221	KIND OF
-0.7081589	KINDA PLAYED
-1.303354	KNOW </s>
-2.030378	KNOW BECAUSE
-2.030378	KNOW CAUSE
-2.030378	KNOW HE
-2.030378	KNOW HE'S
-2.030378	KNOW HOW
-1.04592	KNOW I
-2.030378	KNOW INAUDIBLE
-1.303354	KNOW IT'S
-2.030378	KNOW MAYBE
-2.030378	KNOW MY
-2.030378	KNOW NOT
-2.030378	KNOW OF
-2.030378	KNOW THE
-2.030378	KNOW THEY'RE
-2.030378	KNOW WHAT
-2.030378	KNOW WHEN
-0.7081589	LADY </s>
-1.18528	LAKE </s>
-1.18528	LAKE CALLED
-1.18528	LAKE DOWNTOWN
-0.2821651	LANDLORD IT'S
-1.009189	LAST JUNE
-1.009189	LAST MONTH
-0.7081589	LAUDERDALE'S LIKE
-0.7081589	LAWS' FARM
-0.7081589	LEAGUE IN
-0.7081589	LECTURE AND
-0.7081589	LEFT WHERE
-0.7081589	LEGAL FEES
-0.7081589	LESS LIKE
-2.050582	LIKE 6
-1.066124	LIKE </s>
-0.9973501	LIKE A
-2.050582	LIKE BEING
-2.050582	LIKE EIGHT
-2.050582	LIKE GAY
-1.323558	LIKE NO
-2.050582	LIKE OH
-2.050582	LIKE POWER
-2.050582	LIKE RAY
-2.050582	LIKE SHUT
-2.050582	LIKE THAT
-2.050582	LIKE THE
-2.050582	LIKE THERE
-2.050582	LIKE VARIETY
-2.050582	LIKE WHY
-0.7081589	LIST OF
-1.18528	LITTLE BIT
-1.18528	LITTLE LADY
-1.18528	LITTLE NIECES
-1.009189	LIVE IN
-1.009189	LIVE NEAR
-1.310219	LOAN BASED
-1.310219	LOAN BECAUSE
-1.310219	LOAN FROM
-1.310219	LOAN OR
-1.009189	LOANS </s>
-1.009189	LOANS NOW
-0.7081589	LOCATION I
-0.7081589	LONG TIME
-0.7081589	LOOK AT
-0.7081589	LOOKED AT
-0.7081589	LOT OF
-0.7081589	LOTS OF
-0.7081589	LOVE IT
-1.009189	LOVES COMPUTERS
-1.009189	LOVES IT
-1.18528	MAINTENANCE ISSUE
-0.4582563	MAINTENANCE ISSUES
-1.009189	MAKE EVERY
-1.009189	MAKE SURE
-0.7081589	MAKING IT
-0.7081589	MANGERS AND
-0.4582563	MARRIED </s>
-1.18528	MARRIED OH
-0.7081589	MART WAS
-0.7081589	MAY NOT
-1.009189	MAYBE OVERPAID
-1.009189	MAYBE WE
-0.7081589	MCKENZIE <unk>
-1.407129	ME A
-1.407129	ME BUT
-1.407129	ME EVERYWHERE
-1.407129	ME ON
-1.407129	ME THERE'S
-0.7081589	MEAN THAT
-0.7081589	MEMORIAL DAY
-0.7081589	MET AT
-0.7081589	MHM YES
-0.4226709	MHMM </s>
-0.680105	MHMM YUP
-1.009189	MIDDLE </s>
-1.009189	MIDDLE OF
-0.2821651	MIGHT BE
-0.7081589	MILES FROM
-0.7081589	MILLER AND
-0.7081589	MOBILITY AND
-0.7081589	MODERATELY STRESSFUL
-1.18528	MONDAY </s>
-1.18528	MONDAY MEMORIAL
-1.18528	MONDAY MORNING
-1.310219	MONEY </s>
-1.310219	MONEY BECAUSE
-1.310219	MONEY BEFORE
-1.310219	MONEY IN
-0.7081589	MONTH IT
-0.7081589	MONTHS OLD
-0.7081589	MOON AND
-1.009189	MORE LIKE
-1.009189	MORE PEACEFUL
-0.4582563	MORNING I
-1.18528	MORNING I'M
-0.7081589	MOST FUN
-0.7081589	MOSTLY IN
-0.7081589	MOUNTAINS TO
-0.7081589	MOVE FROM
-0.7081589	MOVED IN
-0.7081589	MOVIE TONIGHT
-0.7081589	MOVING WENT
-1.310219	MUCH JUST
-1.310219	MUCH STUFF
-1.310219	MUCH THE
-1.310219	MUCH YEAH
-1.009189	MUSIC HISTORY
-1.009189	MUSIC TONIGHT
-0.7081589	MUSICIAN I'M
-1.88425	MY </s>
-1.88425	MY DAD'S
-1.88425	MY DAUGHTER
-1.88425	MY DOG
-1.88425	MY FAMILY
-1.88425	MY HUSBAND
-1.88425	MY IN
-1.88425	MY INCOME
-1.88425	MY LITTLE
-1.88425	MY MCKENZIE
-1.88425	MY NIECE
-1.88425	MY PARENTS
-1.88425	MY PARTNER'S
-1.88425	MY SICK
-1.88425	MY VACATIONS
-0.7081589	NEAR TAMPA
-0.7081589	NEAT </s>
-0.7081589	NEED YEAH
-0.7081589	NEUROLOGIST THAT
-0.7081589	NEW JOB
-1.407129	NEXT MAINTENANCE
-1.407129	NEXT REALTOR
-1.407129	NEXT THREE
-0.680105	NEXT YEAR
-0.4582563	NICE </s>
-1.18528	NICE INSIDE
-0.7081589	NIECE IS
-0.7081589	NIECES IN
-1.009189	NIGHT </s>
-1.009189	NIGHT I'LL
-0.7081589	NINE O'CLOCK
-1.066124	NO </s>
-2.050582	NO ACTUALLY
-2.050582	NO FROM
-1.066124	NO I
-2.050582	NO I'M
-2.050582	NO IDEA
-2.050582	NO ISSUES
-2.050582	NO JUST
-1.323558	NO NOT
-2.050582	NO OTHER
-2.050582	NO PROBLEM
-2.050582	NO REASON
-2.050582	NO WAY
-1.066124	NO WE
-2.050582	NO WELL
-1.18528	NORTH </s>
-1.18528	NORTH CAROLINA
-1.18528	NORTH UM
-0.7081589	NORTHEAST OR
-0.7081589	NORTHWEST OF
-2.050582	NOT </s>
-2.050582	NOT A
-2.050582	NOT ANYTHING
-2.050582	NOT DEPRESSED
-1.323558	NOT ENOUGH
-1.066124	NOT EXACTLY
-1.323558	NOT I
-2.050582	NOT SOME
-1.323558	NOT THAT
-2.050582	NOT THE
-2.050582	NOT THINK
-1.323558	NOT THIS
-2.050582	NOT TOO
-2.050582	NOT UNPACKED
-2.050582	NOT WASTE
-2.050582	NOT YOU
-1.009189	NOTHING PLANNED
-1.009189	NOTHING YET
-1.611249	NOW A
-0.884225	NOW I'M
-1.611249	NOW IT'S
-1.611249	NOW MOSTLY
-1.611249	NOW THAT
-1.611249	NOW THERE
-1.611249	NOW TO
-0.7081589	O'CLOCK IT'S
-0.7081589	OAK </s>
-0.7081589	OCCASIONAL TORNADO
-0.7081589	OCCASIONALLY BUT
-0.7081589	OCEAN IT
-2.069887	OF A
-2.069887	OF ABOUT
-2.069887	OF BEING
-2.069887	OF COMPANIES
-2.069887	OF CONTRACTORS
-2.069887	OF EACH
-2.069887	OF FUN
-2.069887	OF MONEY
-2.069887	OF MUSIC
-2.069887	OF MY
-2.069887	OF SLUSH
-2.069887	OF SOMETHING
-2.069887	OF STUFF
-2.069887	OF TAMPA
-1.085429	OF THE
-2.069887	OF THEM
-2.069887	OF THINGS
-2.069887	OF TRUCKLOADS
-2.069887	OF WANTED
-2.069887	OF WAWA
-2.069887	OF YET
-0.7081589	OFF SO
-1.749552	OH FIVE
-0.7650936	OH I
-1.749552	OH IT
-1.749552	OH NO
-1.749552	OH NOT
-1.749552	OH OKAY
-1.749552	OH WELL
-1.022528	OH YEAH
-0.7081589	OHIO WHERE
-0.7081589	OK </s>
-0.2232773	OKAY </s>
-0.2821651	OLD </s>
-1.185255	ON A
-1.912279	ON ANTI
-1.912279	ON ANTIDEPRESSANTS
-1.912279	ON BILLY
-1.912279	ON BUT
-1.185255	ON DISABILITY
-1.912279	ON IT
-1.912279	ON MAKING
-1.912279	ON MONDAY
-1.185255	ON THAT
-0.9278209	ON THE
-1.78734	ONE BANK
-1.78734	ONE HUNDRED
-1.060316	ONE IS
-1.78734	ONE IT
-0.8028821	ONE OF
-1.78734	ONE POINT
-1.78734	ONE RELATOR
-1.78734	ONE TO
-1.78734	ONE YEAR
-1.009189	ONES BE
-1.009189	ONES I
-1.18528	ONLY ONES
-1.18528	ONLY THING
-1.18528	ONLY THREE
-0.7081589	ONTARIO </s>
-1.407129	OR GIFTS
-1.407129	OR HIRE
-1.407129	OR IF
-1.407129	OR NORTHWEST
-1.407129	OR ONE
-0.7081589	ORLANDO </s>
-1.310219	OTHER HOLIDAY
-1.310219	OTHER ONE
-1.310219	OTHER ONES
-1.310219	OTHER WEEKEND
-0.7081589	OUR COUCH
-1.611249	OUT </s>
-1.611249	OUT AND
-1.611249	OUT EVERYBODY
-1.611249	OUT OF
-1.611249	OUT THAT
-1.611249	OUT THE
-1.611249	OUT WALKING
-1.611249	OUT WERE
-1.48631	OVER IN
-0.4330786	OVER THE
-1.48631	OVER WITH
-1.009189	OVERPAID </s>
-1.009189	OVERPAID FOR
-1.009189	OVERWHELMING </s>
-1.009189	OVERWHELMING AS
-1.310219	PAID 300
-0.3257609	PAID CASH
-0.7081589	PALM BEACH
-0.7081589	PANDAS </s>
-0.7081589	PARENTS DIED
-0.7081589	PART NOT
-0.7081589	PARTNER'S A
-0.7081589	PARTY SO
-0.7081589	PAY YOU
-0.7081589	PEACEFUL INSIDE
-0.7081589	PEOPLE </s>
-0.7081589	PERHAPS AN
-0.7081589	PETE </s>
-0.7081589	PETOSKEY WHERE
-0.7081589	PETS AND
-0.7081589	PICK UP
-0.7081589	PICTURES </s>
-1.009189	PLACE NOT
-1.009189	PLACE THAT
-0.7081589	PLAN </s>
-1.009189	PLANNED IS
-1.009189	PLANNED YET
-1.407129	PLAY </s>
-1.407129	PLAY DATE
-1.407129	PLAY GOLF
-1.407129	PLAY IN
-1.407129	PLAY THERE
-0.7081589	PLAYED WITH
-1.009189	PLAYING A
-1.009189	PLAYING AT
-0.7081589	PLUMBER TO
-0.7081589	POINT SEVEN
-0.7081589	POOP AND
-0.7081589	POWER WASH
-0.7081589	POWERFUL HOSE
-0.7081589	PRETTY MUCH
-0.7081589	PRINCESS </s>
-1.48631	PROBABLY A
-1.48631	PROBABLY AND
-1.48631	PROBABLY CLEANING
-1.48631	PROBABLY SATURDAY
-1.48631	PROBABLY TAKE
-1.48631	PROBABLY THE
-1.009189	PROBLEM ACTUALLY
-1.009189	PROBLEM YOU
-0.7081589	PROFESSOR SO
-0.7081589	PROGRAMING SO
-1.009189	PROOF </s>
-1.009189	PROOF FROM
-0.7081589	PROPERTY MANGERS
-0.7081589	PROPHYLACTIC PURPOSES
-0.7081589	PULLS ME
-0.7081589	PURPOSES </s>
-0.7081589	PUT ME
-0.7081589	QUARTER INCH
-0.7081589	QUICK TRIP
-0.7081589	QUICKEN LOANS
-0.7081589	QUIZZES OVER
-0.7081589	RACE TRACK
-0.7081589	RAISED </s>
-0.7081589	RAY DONAVAN
-0.7081589	READ </s>
-0.7081589	READING A
-0.7081589	REAL BIG
-1.009189	REALLY NEAT
-1.009189	REALLY NICE
-0.7081589	REALTOR SAID
-0.7081589	REASON </s>
-0.7081589	RECEPTION </s>
-0.7081589	RECOMMEND IT
-0.7081589	RED PANDAS
-1.18528	REHEARSAL THAT
-1.18528	REHEARSAL THEN
-1.18528	REHEARSAL UM
-0.7081589	RELATIONSHIP HE'S
-1.18528	RELATOR ABOUT
-1.18528	RELATOR SAID
-1.18528	RELATOR THAT
-0.7081589	RELIGIOUS TYPE
-0.7081589	REMEMBER WHICH
-0.7081589	RESIDENTIAL </s>
-0.7081589	REUPHOLSTERING OUR
-0.7081589	RID OF
-0.7081589	RIDE BIKE
-0.8262331	RIGHT </s>
-1.553257	RIGHT EXACTLY
-0.5687989	RIGHT NOW
-1.553257	RIGHT RIGHT
-0.7081589	ROAD </s>
-0.7081589	ROCHESTER HILLS
-0.7081589	ROTATOR CUFF
-0.7081589	ROYAL OAK
-0.7081589	SAGINAW </s>
-0.680105	SAID OH
-0.680105	SAID THAT
-1.407129	SAID THERE'S
-0.7081589	SAINT PETE
-0.7081589	SALE </s>
-0.7081589	SALVATION ARMY
-0.7081589	SAME EXACT
-0.7081589	SARASOTA SO
-1.18528	SATURDAY </s>
-1.18528	SATURDAY MORNING
-1.18528	SATURDAY NIGHT
-0.7081589	SAW AN
-1.009189	SCHOOL </s>
-1.009189	SCHOOL AND
-1.407129	SEE A
-1.407129	SEE FAMILY
-1.407129	SEE MY
-1.407129	SEE THAT
-1.407129	SEE THEM
-0.7081589	SEEN THAT
-0.4582563	SELL IT
-1.18528	SELL THE
-0.7081589	SELLING IT
-0.7081589	SEMESTER FOR
-1.310219	SEVEN </s>
-1.310219	SEVEN QUIZZES
-0.583195	SEVEN SEVEN
-1.009189	SHE HAD
-1.009189	SHE WAS
-1.009189	SHOULD BE
-1.009189	SHOULD GO
-0.7081589	SHOULDER SURGERY
-0.7081589	SHOWER FOR
-1.009189	SHOWS </s>
-1.009189	SHOWS I
-0.7081589	SHUT DOWN
-0.2821651	SICK TIME
-0.7081589	SILLY AND
-0.7081589	SISTERS THAT
-0.7081589	SIT THERE
-0.7081589	SITUATION IT'S
-0.7081589	SLUSH YA'LL
-0.7081589	SMALL LIST
-1.716541	SO </s>
-2.471587	SO AN
-1.744563	SO AND
-2.471587	SO BETWEEN
-2.471587	SO BUSY
-2.471587	SO COOL
-2.471587	SO DEPRESSION
-2.471587	SO HE'LL
-2.471587	SO HE'S
-2.471587	SO HOLIDAYS
-1.418355	SO I
-2.471587	SO I'M
-1.287735	SO IT
-1.716541	SO IT'S
-2.471587	SO ITS
-2.471587	SO MUCH
-2.471587	SO NO
-2.471587	SO NOW
-2.471587	SO THAT
-1.487129	SO THAT'S
-2.471587	SO THE
-2.471587	SO THEN
-1.487129	SO THEY
-2.471587	SO THIS
-2.471587	SO UM
-1.418355	SO WE
-2.471587	SO WE'LL
-2.471587	SO WE'RE
-1.744563	SO YEAH
-2.471587	SO YES
-1.18528	SOME FRIENDS
-1.18528	SOME PLACE
-1.18528	SOME RELIGIOUS
-1.009189	SOMEBODY </s>
-1.009189	SOMEBODY THAT
-0.7081589	SOMETHING RIGHT
-0.7081589	SOMETIME </s>
-0.7081589	SORRY </s>
-1.009189	SOUTH DO
-1.009189	SOUTH OF
-0.7081589	STARED AT
-0.7081589	START ON
-1.009189	STARTED A
-1.009189	STARTED GOING
-0.2821651	STARTS AT
-0.7081589	STAY </s>
-1.009189	STILL MAINTENANCE
-1.009189	STILL RIDE
-1.009189	STRESS OF
-1.009189	STRESS THERE'S
-0.7081589	STRESSFUL </s>
-0.7081589	STUDY ERR
-0.583195	STUFF </s>
-1.310219	STUFF AND
-1.310219	STUFF GOING
-0.7081589	STUMBLE OCCASIONALLY
-0.7081589	SUICIDE SO
-1.009189	SUNDAY I'M
-1.009189	SUNDAY MORNING
-0.7081589	SUPPLIES AND
-1.48631	SURE AND
-0.7592863	SURE HE
-1.48631	SURE WHERE
-1.48631	SURE YET
-1.48631	SURE YOU
-0.7081589	SURGERY </s>
-0.7081589	SWEET LITTLE
-0.7081589	SYMPTOMS YOU
-0.7081589	TAKE A
-0.7081589	TALK AND
-0.2821651	TALKED TO
-0.2821651	TAMPA </s>
-1.009189	TEACH AND
-1.009189	TEACH THREE
-1.18528	TEN AND
-1.18528	TEN DIFFERENT
-1.18528	TEN HOURS
-0.7081589	TERRIBLE </s>
-1.18528	TEST </s>
-1.18528	TEST FOR
-1.18528	TEST THAT
-0.7081589	THANK YOU
-1.228851	THAT </s>
-2.213309	THAT ARE
-2.213309	THAT BUT
-2.213309	THAT EVERYONE
-2.213309	THAT HERE
-0.60206	THAT I
-2.213309	THAT I'M
-1.486285	THAT IS
-2.213309	THAT JUST
-2.213309	THAT LIVE
-2.213309	THAT MONDAY
-2.213309	THAT MUCH
-2.213309	THAT ON
-2.213309	THAT SHE
-2.213309	THAT SO
-1.486285	THAT THEY
-2.213309	THAT WAS
-2.213309	THAT WEREN'T
-2.213309	THAT WILL
-2.213309	THAT YEAH
-2.213309	THAT YOU'RE
-1.553257	THAT'S GOOD
-1.553257	THAT'S HOLIDAY
-1.553257	THAT'S KIND
-1.553257	THAT'S NOT
-1.553257	THAT'S THAT'S
-1.553257	THAT'S THE
-1.553257	THAT'S YEAH
-2.588973	THE ANIMALS
-2.588973	THE AUDITING
-2.588973	THE BANK
-2.588973	THE BASEMENT
-2.588973	THE BEAVERS
-2.588973	THE BIG
-2.588973	THE CREDIT
-1.861949	THE DEPRESSION
-1.604514	THE DETROIT
-2.588973	THE DISEASE
-2.588973	THE DNA
-1.604514	THE DRAINS
-2.588973	THE ELEMENTARY
-2.588973	THE EQUITY
-2.588973	THE EVEN
-2.588973	THE FAMILY
-2.588973	THE FIREWORKS
-2.588973	THE FORMULA
-2.588973	THE FOUR
-2.588973	THE GENE
-1.861949	THE HD
-1.405121	THE HOUSE
-2.588973	THE HURRICANE
-2.588973	THE I
-2.588973	THE INHERITANCE
-2.588973	THE LAKE
-2.588973	THE MAINTENANCE
-2.588973	THE MIDDLE
-2.588973	THE MOBILITY
-2.588973	THE MONEY
-2.588973	THE MOST
-2.588973	THE MOUNTAINS
-2.588973	THE NEUROLOGIST
-1.604514	THE NEXT
-2.588973	THE NIGHT
-2.588973	THE OCEAN
-1.861949	THE ONLY
-1.861949	THE OTHER
-2.588973	THE PETS
-2.588973	THE PLACE
-2.588973	THE PLUMBER
-2.588973	THE POWERFUL
-2.588973	THE RACE
-2.588973	THE RED
-2.588973	THE RELATOR
-2.588973	THE ROAD
-2.588973	THE SAME
-2.588973	THE SEMESTER
-2.588973	THE SHOWS
-2.588973	THE SO
-2.588973	THE STRESS
-2.588973	THE SUPPLIES
-2.588973	THE THE
-2.588973	THE TWO
-1.861949	THE WAY
-2.588973	THE WEDDING
-1.604514	THE WEEKEND
-2.588973	THE YOU
-2.588973	THE ZOO
-1.009189	THEIR JEWISH
-1.009189	THEIR MONEY
-1.310219	THEM </s>
-1.310219	THEM AT
-1.310219	THEM BACK
-1.310219	THEM EVERY
-1.78734	THEN </s>
-1.78734	THEN HIGH
-0.8028821	THEN I
-1.78734	THEN MONDAY
-1.78734	THEN PROBABLY
-1.78734	THEN THE
-1.78734	THEN TUES
-1.78734	THEN TUESDAY
-1.78734	THEN UM
-1.78734	THEN WE
-0.7081589	THERAPIST AT
-0.8698289	THERE </s>
-1.854287	THERE AGAIN
-1.127263	THERE AND
-1.854287	THERE BORING
-1.854287	THERE IS
-1.854287	THERE IT
-1.854287	THERE JUST
-1.127263	THERE LIKE
-1.854287	THERE NOT
-1.854287	THERE SOMETIME
-1.553257	THERE'S A
-0.8262331	THERE'S LIKE
-1.553257	THERE'S NO
-1.553257	THERE'S PROBABLY
-1.553257	THERE'S STILL
-1.553257	THERE'S TOO
-0.8853763	THEY ARE
-1.211584	THEY BASED
-1.938608	THEY DECIDE
-1.938608	THEY DECIDED
-1.938608	THEY DO
-1.211584	THEY HAD
-1.938608	THEY LIVE
-1.938608	THEY SAID
-1.938608	THEY TRUST
-1.938608	THEY WANT
-1.211584	THEY WERE
-1.009189	THEY'RE AMAZING
-1.009189	THEY'RE SO
-1.009189	THING </s>
-1.009189	THING I
-1.18528	THINGS </s>
-1.18528	THINGS FOR
-1.18528	THINGS I
-1.48631	THINK AWAY
-1.48631	THINK IT
-1.48631	THINK SO
-1.48631	THINK THAT
-1.48631	THINK WE
-1.48631	THINK YOU'RE
-0.7081589	THIRTEEN AND
-1.48631	THIS CLASS
-1.48631	THIS FALLS
-0.4330786	THIS WEEKEND
-1.18528	THOUGH HE
-1.18528	THOUGH HOPEFULLY
-1.18528	THOUGH I
-0.7081589	THOUSAND DOLLARS
-1.18528	THREE CLASSES
-1.18528	THREE DAYS
-1.18528	THREE MONTHS
-1.18528	THROUGH AND
-1.18528	THROUGH SOMEBODY
-1.18528	THROUGH THERE
-0.583195	TIME </s>
-0.583195	TIME SO
-0.7081589	TIMES A
-1.395799	TO </s>
-2.380257	TO A
-2.380257	TO ADRIAN
-1.327025	TO BE
-2.380257	TO CANADA
-1.653233	TO COME
-2.380257	TO DRIVE
-2.380257	TO EVICT
-2.380257	TO FIX
-2.380257	TO FLORIDA
-2.380257	TO FORMULATE
-1.327025	TO GET
-1.395799	TO GO
-2.380257	TO HAVE
-2.380257	TO IT
-1.653233	TO MAKE
-1.653233	TO ME
-2.380257	TO MY
-2.380257	TO PETOSKEY
-2.380257	TO PICK
-2.380257	TO PLAY
-2.380257	TO PUT
-1.395799	TO SEE
-2.380257	TO SELL
-1.327025	TO THE
-2.380257	TO TO
-2.380257	TO USE
-2.380257	TO WALK
-2.380257	TO WHO
-0.7081589	TOLD </s>
-0.7081589	TOMORROW AND
-1.009189	TONIGHT </s>
-1.009189	TONIGHT TOMORROW
-1.310219	TOO BADLY
-1.310219	TOO HOT
-1.310219	TOO MUCH
-1.310219	TOO STRESS
-0.7081589	TOOK PICTURES
-0.7081589	TORE MY
-0.7081589	TORNADO </s>
-1.009189	TRACK </s>
-1.009189	TRACK OVER
-0.7081589	TREATMENT FACILITY
-1.009189	TRIP SO
-1.009189	TRIP TWO
-0.7081589	TROUBLE IT'S
-1.18528	TRUCKLOADS AND
-1.18528	TRUCKLOADS OF
-1.18528	TRUCKLOADS TRUCKLOADS
-0.7081589	TRUST </s>
-0.2008221	TRYING TO
-0.7081589	TUES THEN
-1.009189	TUESDAY I
-1.009189	TUESDAY THEN
-0.7081589	TURNED THIRTEEN
-0.7081589	TV SHOWS
-0.7081589	TWELVE </s>
-0.8262331	TWO </s>
-1.553257	TWO GIRLS
-1.553257	TWO GRAND
-1.553257	TWO OUT
-1.553257	TWO SISTERS
-1.553257	TWO THOUSAND
-0.7081589	TYPE THING
-1.48631	UH DOING
-1.48631	UH EXERCISE
-1.48631	UH I
-1.48631	UH NOTHING
-1.48631	UH SARASOTA
-1.48631	UH VERY
-0.7081589	UHH HE'LL
-1.749552	UM BECAUSE
-1.749552	UM BUT
-1.749552	UM GOT
-1.749552	UM HE
-1.749552	UM HE'S
-1.749552	UM JUST
-1.749552	UM SATURDAY
-1.749552	UM WENT
-1.749552	UM YEAH
-1.749552	UM YES
-1.749552	UM YOU
-1.009189	UMM NO
-1.009189	UMM THE
-0.7081589	UNDER MY
-0.7081589	UNION WE
-1.009189	UNPACKED EVERYTHING
-1.009189	UNPACKED YET
-1.611249	UP </s>
-1.611249	UP AND
-1.611249	UP BECAUSE
-1.611249	UP COMING
-1.611249	UP NORTH
-1.611249	UP SOME
-1.611249	UP TO
-1.611249	UP WALKING
-0.7081589	USE MY
-0.7081589	USED TO
-0.7081589	VACATIONS DAYS
-0.7081589	VARIETY </s>
-1.553257	VERY BUSY
-1.553257	VERY EXCITING
-1.553257	VERY GREAT
-1.553257	VERY HELPFUL
-1.553257	VERY SWEET
-0.8262331	VERY VERY
-0.7081589	VISITED WITH
-0.7081589	VP IT
-0.7081589	WABATONGUSHI </s>
-0.7081589	WAL MART
-1.009189	WALK AROUND
-1.009189	WALK WITHOUT
-0.7081589	WALKED AROUND
-0.2821651	WALKING AROUND
-0.7081589	WANT TO
-0.2821651	WANTED TO
-0.2821651	WANTS TO
-0.7081589	WARNING </s>
-1.303354	WAS </s>
-2.030378	WAS A
-2.030378	WAS AND
-2.030378	WAS EMPTIED
-1.303354	WAS FUN
-2.030378	WAS GETTING
-2.030378	WAS IT'S
-2.030378	WAS KIND
-2.030378	WAS LOTS
-2.030378	WAS ONE
-2.030378	WAS OUT
-2.030378	WAS READING
-1.303354	WAS REALLY
-2.030378	WAS THE
-2.030378	WAS TOO
-1.303354	WAS TWO
-2.030378	WAS UP
-0.7081589	WASH THE
-1.009189	WASTE A
-1.009189	WASTE THEIR
-0.7081589	WAWA ONTARIO
-1.407129	WAY IT
-1.407129	WAY MORE
-1.407129	WAY NORTH
-1.407129	WAY THE
-1.407129	WAY YOU'RE
-2.155317	WE ALSO
-1.170859	WE ARE
-2.155317	WE COULD
-2.155317	WE COULDN'T
-2.155317	WE DID
-2.155317	WE DO
-2.155317	WE DROVE
-2.155317	WE GOT
-1.102085	WE HAD
-2.155317	WE HAVE
-2.155317	WE JUST
-2.155317	WE KIND
-2.155317	WE MET
-2.155317	WE SAW
-2.155317	WE STARTED
-2.155317	WE TOOK
-2.155317	WE WALKED
-1.170859	WE WENT
-1.428293	WE WERE
-2.155317	WE WILL
-0.7081589	WE'LL JUST
-1.009189	WE'RE GOOD
-1.009189	WE'RE WORKING
-1.009189	WE'VE BEEN
-1.009189	WE'VE HAD
-1.310219	WEDDING </s>
-1.310219	WEDDING I
-1.310219	WEDDING IN
-1.310219	WEDDING RECEPTION
-0.2821651	WEEK AND
-0.1760913	WEEKEND </s>
-1.662401	WEEKEND PROBABLY
-1.662401	WEEKEND SO
-1.662401	WEEKEND UH
-0.7081589	WEEKENDS BEFORE
-0.7081589	WEIRD SITUATION
-1.662401	WELL AND
-0.9353775	WELL I
-0.9353775	WELL I'M
-1.662401	WELL IT
-1.662401	WELL IT'S
-1.662401	WELL RIGHT
-1.662401	WELL THE
-1.553257	WENT DOWN
-1.553257	WENT FROM
-1.553257	WENT THROUGH
-0.5000255	WENT TO
-1.553257	WERE ALL
-1.553257	WERE ANTICIPATING
-1.553257	WERE OUT
-1.553257	WERE THE
-1.553257	WERE THERE
-1.553257	WERE TURNED
-1.553257	WERE UP
-1.009189	WEREN'T IN
-1.009189	WEREN'T OUT
-1.18528	WHAT ELSE
-1.18528	WHAT I'VE
-1.18528	WHAT YOU
-0.7081589	WHATEVER YEAH
-0.7081589	WHEELCHAIR ANYWAY
-0.680105	WHEN I
-1.407129	WHEN THERE'S
-1.407129	WHEN WE
-1.407129	WHEN YOUR
-0.7081589	WHENEVER YOU
-1.611249	WHERE DID
-1.611249	WHERE HE
-1.611249	WHERE I
-1.611249	WHERE I'M
-1.611249	WHERE IT
-1.611249	WHERE THAT
-1.611249	WHERE WE
-1.611249	WHERE YOU
-0.7081589	WHICH ONE
-1.009189	WHILE I
-1.009189	WHILE WE
-0.7081589	WHITMORE LAKE
-1.18528	WHO IS
-1.18528	WHO SAID
-1.18528	WHO WOULD
-0.7081589	WHOLE BUNCH
-0.7081589	WHY ARE
-1.009189	WILL PROBABLY
-1.009189	WILL STAY
-1.708159	WITH FRIENDS
-1.708159	WITH HER
-1.708159	WITH KIDS
-1.708159	WITH MY
-1.708159	WITH POOP
-1.708159	WITH THAT
-0.6549274	WITH THE
-0.7081589	WITHOUT FALLING
-0.7081589	WON'T BE
-1.18528	WORK BUT
-1.18528	WORK PROBABLY
-1.18528	WORK SATURDAY
-1.407129	WORKING </s>
-1.407129	WORKING AT
-1.407129	WORKING I
-1.407129	WORKING ON
-1.407129	WORKING TEN
-0.7081589	WORKS </s>
-0.7081589	WOULD DO
-0.7081589	WRITING A
-0.7081589	YA'LL ARE
-0.3340303	YEAH </s>
-2.320943	YEAH ABSOLUTELY
-1.593919	YEAH AND
-1.593919	YEAH I'M
-2.320943	YEAH IN
-2.320943	YEAH IT
-1.593919	YEAH IT'S
-2.320943	YEAH NO
-1.267711	YEAH SO
-2.320943	YEAH THAT
-2.320943	YEAH THE
-2.320943	YEAH THERE'S
-1.336485	YEAH WE
-2.320943	YEAH WELL
-2.320943	YEAH YEP
-0.5018521	YEAR </s>
-0.7592863	YEAR AGO
-1.48631	YEAR AND
-0.7081589	YEARS OLD
-0.7081589	YEP </s>
-0.3357921	YES </s>
-2.123132	YES IF
-1.138674	YES IT
-2.123132	YES IT'S
-1.396108	YES MY
-2.123132	YES OH
-2.123132	YES THERE
-2.123132	YES THEY'RE
-2.123132	YES TWO
-2.123132	YES YEAH
-1.396108	YES YES
-0.4330786	YET </s>
-1.48631	YET BUT
-1.48631	YET TO
-2.18528	YOU ALL
-2.18528	YOU AND
-2.18528	YOU BACK
-2.18528	YOU CAN
-1.458256	YOU COULD
-2.18528	YOU DIDN'T
-2.18528	YOU DON'T
-2.18528	YOU GET
-2.18528	YOU GUYS
-1.458256	YOU HAVE
-2.18528	YOU HERE
-2.18528	YOU I'M
-2.18528	YOU JUST
-0.5228788	YOU KNOW
-2.18528	YOU MAY
-2.18528	YOU MOVE
-2.18528	YOU PAID
-2.18528	YOU SHOULD
-2.18528	YOU WEREN'T
-2.18528	YOU WON'T
-1.18528	YOU'RE DEPRESSED
-1.18528	YOU'RE GOING
-1.18528	YOU'RE NOT
-1.009189	YOUR GROWN
-1.009189	YOUR INCOME
-1.009189	YUP </s>
-1.009189	YUP NO
-1.009189	ZOO </s>
-1.009189	ZOO AND

\end\
