
\data\
ngram 1=685
ngram 2=1924

\1-grams:
-3.415808	17	-0.07699146
-3.415808	18	-0.04637324
-2.938686	300	-0.02332481
-3.415808	6	-0.0926128
-3.415808	600	-0.0926128
-3.415808	96	-0.0926128
-3.415808	96TH	-0.0926128
-0.9942038	</s>
-99	<s>	-0.2234834
-3.114778	<unk>	-0.08774906
-1.540746	A	-0.1314129
-2.938686	ABOUT	-0.09194518
-3.415808	ABSOLUTELY	-0.04637324
-3.415808	ACCESSIBLE	-0.07699146
-2.716838	ACTUALLY	-0.1423949
-3.415808	ADRIAN	-0.09144378
-3.415808	AFTER	-0.09194517
-3.415808	AGAIN	-0.09077434
-2.938686	AGO	-0.08487238
-3.415808	ALCOHOL	-0.0926128
-2.512718	ALL	-0.1169254
-3.114778	ALMOST	-0.09244598
-3.415808	ALONG	-0.07992066
-2.938686	ALSO	-0.08943238
-3.415808	ALWAYS	-0.09177811
-3.114778	AM	-0.0792332
-3.114778	AMAZING	-0.0405838
-2.813748	AN	-0.1832577
-1.447325	AND	-0.02476484
-3.415808	ANIMALS	-0.09161098
-3.415808	ANOTHER	-0.09227912
-3.415808	ANTI	-0.0926128
-3.415808	ANTICIPATING	-0.0926128
-3.415808	ANTIDEPRESSANTS	-0.09060682
-3.114778	ANY	-0.09194516
-3.415808	ANYONE	-0.09227912
-3.415808	ANYTHING	-0.08926433
-3.415808	ANYWAY	-0.04637324
-3.415808	APPEAR	-0.09227912
-3.415808	APPOINTMENTS	-0.04637324
-2.415808	ARE	-0.0965985
-3.415808	AREA	-0.04637324
-3.415808	ARMY	-0.04637324
-2.716838	AROUND	-0.1360393
-3.114778	AS	-0.0853814
-2.301864	AT	-0.09737442
-3.415808	AUDITING	-0.0926128
-3.415808	AUNT	-0.09227912
-3.114778	AWAY	-0.08859152
-2.637656	BACK	-0.2298501
-3.415808	BAD	-0.0926128
-3.415808	BADLY	-0.04637324
-3.114778	BANK	-0.07664554
-2.938686	BASED	-0.2093397
-3.415808	BASEMENT	-0.08758037
-3.415808	BASICALLY	-0.09010388
-3.415808	BATH	-0.07699146
-3.415808	BATTLE	-0.0926128
-2.211688	BE	-0.08004531
-3.415808	BEACH	-0.04637324
-3.415808	BEAVERS	-0.04637324
-2.415808	BECAUSE	-0.3612784
-3.415808	BED	-0.0926128
-2.813748	BEEN	-0.1807459
-2.938686	BEFORE	-0.02586056
-2.716838	BEING	-0.2810874
-3.415808	BELONGS	-0.04637324
-3.114778	BETWEEN	-0.2865643
-3.114778	BEYOND	-0.04039575
-2.716838	BIG	-0.09194519
-3.415808	BIKE	-0.04637324
-3.415808	BILLY	-0.0926128
-3.415808	BIRTHDAY	-0.09244599
-3.415808	BIT	-0.08926433
-3.415808	BLAST	-0.08572043
-3.415808	BOOK	-0.09010388
-3.415808	BORING	-0.0926128
-3.415808	BORN	-0.07699146
-3.415808	BOTHER	-0.04637324
-3.415808	BRASS	-0.0926128
-3.415808	BRING	-0.09211218
-3.114778	BUNCH	-0.295908
-3.114778	BUSY	-0.08758036
-2.05408	BUT	-0.07457675
-3.415808	BUYING	-0.0926128
-3.114778	CALLED	-0.09077433
-2.512718	CAN	-0.03509711
-3.415808	CAN'T	-0.08758037
-3.415808	CANADA	-0.09227912
-3.415808	CAROLINA	-0.09144378
-2.938686	CASH	-0.07612617
-3.415808	CATCH	-0.09144378
-2.813748	CAUSE	-0.07264762
-3.415808	CENTERVILLE	-0.0926128
-3.415808	CENTRAL	-0.09077434
-3.415808	CHAUFFEUR	-0.09244599
-3.415808	CLASS	-0.04637324
-3.415808	CLASSES	-0.07699146
-3.415808	CLEANED	-0.09144378
-3.415808	CLEANING	-0.04637324
-2.938686	COLLEGE	-0.1551071
-3.114778	COME	-0.08690494
-3.114778	COMING	-0.09144377
-3.415808	COMMERCIAL	-0.08572043
-3.415808	COMMITTED	-0.0926128
-3.415808	COMMUNITY	-0.09227912
-3.415808	COMPANIES	-0.08741161
-3.415808	COMPLETELY	-0.09161098
-3.415808	COMPUTER	-0.0926128
-3.415808	COMPUTERS	-0.08300077
-3.114778	CONE	-0.2530169
-3.415808	CONTRACTORS	-0.07699146
-3.415808	COOL	-0.04637324
-3.415808	COUCH	-0.09177811
-2.938686	COULD	-0.08639771
-3.114778	COULDN'T	-0.0917781
-3.114778	COUPLE	-0.09161097
-3.415808	COURSE	-0.08859153
-3.415808	CRAZY	-0.04637324
-3.415808	CREDIT	-0.0926128
-3.415808	CREEK	-0.04637324
-3.415808	CRYSTAL	-0.04637324
-3.415808	CUFF	-0.08639769
-3.415808	CURRENTLY	-0.09060682
-3.415808	DAD'S	-0.09227912
-3.415808	DATE	-0.08892807
-3.415808	DAUGHTER	-0.04637324
-3.114778	DAY	-0.0439548
-2.637656	DAYS	-0.08386818
-3.415808	DEAL	-0.08926433
-3.415808	DEALING	-0.09110919
-3.415808	DECIDE	-0.08960035
-3.415808	DECIDED	-0.09010388
-2.938686	DEFINITELY	-0.03165639
-3.415808	DELTA	-0.09227912
-3.415808	DEPARTMENT	-0.04637324
-3.415808	DEPRESSANTS	-0.09110919
-2.938686	DEPRESSED	-0.04544467
-2.938686	DEPRESSION	-0.07992066
-2.813748	DETROIT	-0.1367761
-2.938686	DID	-0.07906118
-3.114778	DIDN'T	-0.09244598
-3.415808	DIED	-0.07699146
-3.415808	DIFFERENCE	-0.09244599
-3.415808	DIFFERENT	-0.0926128
-3.415808	DIRT	-0.09244599
-3.114778	DISABILITY	-0.2530169
-3.415808	DISASTER	-0.0926128
-3.415808	DISEASE	-0.0926128
-3.415808	DNA	-0.0926128
-2.637656	DO	-0.09747994
-3.415808	DOCTORS	-0.0926128
-3.415808	DOES	-0.04637324
-3.415808	DOESN'T	-0.0926128
-3.415808	DOG	-0.07699146
-2.938686	DOING	-0.07508553
-3.415808	DOLLARS	-0.08470255
-2.26968	DON'T	-0.2741086
-3.415808	DONAVAN	-0.04637324
-2.716838	DOWN	-0.1056567
-3.114778	DOWNTOWN	-0.0917781
-2.938686	DRAINS	-0.07664555
-3.114778	DRIVE	-0.09077433
-3.114778	DRIVING	-0.0912765
-3.415808	DROVE	-0.09144378
-3.415808	DRUG	-0.07699146
-3.415808	EACH	-0.04637324
-2.938686	EIGHT	-0.08976826
-3.114778	ELEMENTARY	-0.07664554
-3.415808	ELSE	-0.09227912
-3.415808	EM	-0.08892807
-3.415808	EMBARRASSING	-0.04637324
-3.415808	EMPTIED	-0.09060682
-3.415808	ENDED	-0.09144378
-3.114778	ENOUGH	-0.07525912
-3.415808	EQUITY	-0.09010388
-3.415808	ERR	-0.09227912
-3.415808	ERUPTED	-0.09110919
-2.813748	EVEN	-0.1819199
-3.415808	EVER	-0.0926128
-3.114778	EVERY	-0.09194516
-3.415808	EVERYBODY	-0.08926433
-3.415808	EVERYONE	-0.0926128
-3.114778	EVERYTHING	-0.08163452
-3.415808	EVERYWHERE	-0.08892807
-3.415808	EVICT	-0.0926128
-3.415808	EXACT	-0.0926128
-2.813748	EXACTLY	-0.3589363
-3.415808	EXCITED	-0.04637324
-3.415808	EXCITING	-0.04637324
-3.415808	FACILITY	-0.04637324
-3.415808	FAIRLY	-0.0926128
-3.415808	FALLING	-0.09177811
-3.415808	FALLS	-0.0926128
-2.938686	FAMILY	-0.0250819
-3.415808	FAN	-0.0926128
-3.415808	FANCY	-0.0926128
-3.415808	FARM	-0.08859153
-3.415808	FEEL	-0.08741161
-3.415808	FEES	-0.09227912
-3.114778	FESTIVAL	-0.07491183
-3.415808	FIELD	-0.08470255
-3.415808	FIFTY	-0.09194517
-3.415808	FIND	-0.0926128
-3.415808	FIREWORKS	-0.07699146
-2.938686	FIRST	-0.08859154
-3.415808	FISHING	-0.09244599
-3.415808	FIVE	-0.04637324
-3.415808	FIX	-0.08572043
-2.938686	FLORIDA	-0.03604806
-3.415808	FOOD	-0.09194517
-2.301864	FOR	-0.09625269
-3.415808	FORGOT	-0.08741161
-3.415808	FORMULA	-0.07699146
-3.415808	FORMULATE	-0.08009235
-3.415808	FORT	-0.0926128
-3.415808	FORTY	-0.04637324
-3.415808	FOUND	-0.09144378
-3.415808	FOUR	-0.09177811
-3.415808	FRESHMAN	-0.08859153
-3.114778	FRIDAY	-0.07768246
-3.114778	FRIENDS	-0.04414131
-2.336627	FROM	-0.2628514
-2.637656	FUN	-0.1953539
-3.415808	FUNCTIONAL	-0.0926128
-3.415808	GAME	-0.04637324
-3.415808	GARAGE	-0.0926128
-3.415808	GAY	-0.0926128
-3.415808	GENE	-0.04637324
-2.301864	GET	-0.1775115
-3.415808	GETS	-0.0926128
-2.938686	GETTING	-0.205916
-3.415808	GIFTS	-0.04637324
-3.415808	GIRLS	-0.04637324
-3.114778	GIVE	-0.07906117
-3.415808	GIVING	-0.09211218
-2.57071	GO	-0.07560616
-3.415808	GOES	-0.04637324
-2.461565	GOING	-1.036219
-3.114778	GOLF	-0.04618768
-3.415808	GONE	-0.09144378
-2.637656	GOOD	-0.207471
-2.57071	GOT	-0.1176285
-3.415808	GRADUATING	-0.09194517
-3.415808	GRAHAM	-0.04637324
-3.415808	GRAND	-0.04637324
-2.813748	GREAT	-0.04507269
-3.415808	GROWN	-0.08470255
-3.415808	GUYS	-0.0926128
-2.336627	HAD	-0.2645662
-3.114778	HALF	-0.08993609
-3.415808	HANDICAP	-0.0926128
-3.415808	HAPPENS	-0.09211218
-3.415808	HAPPY	-0.04637324
-3.114778	HARD	-0.08419271
-3.415808	HAS	-0.07992066
-2.093588	HAVE	-0.2474972
-3.415808	HAVEN'T	-0.09211218
-3.114778	HAVING	-0.2865643
-3.114778	HD	-0.02876812
-2.336627	HE	-0.1449892
-3.114778	HE'LL	-0.2967475
-2.716838	HE'S	-0.1390522
-3.415808	HELP	-0.07699146
-3.415808	HELPFUL	-0.04637324
-3.114778	HER	-0.0917781
-2.938686	HERE	-0.172341
-3.415808	HIGH	-0.09244599
-3.415808	HILLS	-0.04637324
-3.415808	HIRE	-0.09244599
-2.938686	HISTORY	-0.1686115
-3.114778	HOLIDAY	-0.08453267
-3.415808	HOLIDAYS	-0.09043924
-3.114778	HOME	-0.08842316
-3.415808	HONEY	-0.0926128
-3.114778	HOPEFULLY	-0.08265961
-3.415808	HOSE	-0.07699146
-3.415808	HOT	-0.04637324
-3.114778	HOUR	-0.04600204
-3.415808	HOURS	-0.08009235
-2.637656	HOUSE	-0.06617998
-3.415808	HOUSES	-0.0926128
-3.415808	HOW	-0.08470255
-3.415808	HOWEVER	-0.04637324
-3.415808	HUNDRED	-0.04637324
-3.415808	HURRICANE	-0.04637324
-3.415808	HUSBAND	-0.0899361
-1.476288	I	-0.3846428
-3.415808	I'D	-0.0926128
-2.938686	I'LL	-0.215267
-2.05408	I'M	-0.1489944
-3.114778	I'VE	-0.2987558
-3.114778	IDEA	-0.04488656
-2.512718	IF	-0.1567747
-3.415808	IMMEDIATELY	-0.09177811
-2.017868	IN	-0.07734463
-3.415808	INAUDIBLE	-0.04637324
-3.415808	INCH	-0.08926433
-3.114778	INCOME	-0.2965797
-3.415808	INDIVIDUAL	-0.04637324
-3.415808	INHERITANCE	-0.07699146
-3.114778	INSIDE	-0.06684638
-3.415808	INSTRUMENTS	-0.04637324
-3.415808	INTO	-0.0926128
-3.415808	INVITED	-0.09177811
-2.185359	IS	-0.06786568
-3.415808	ISN'T	-0.0926128
-3.415808	ISSUE	-0.0926128
-2.938686	ISSUES	-0.2012508
-1.792558	IT	-0.2233565
-3.415808	IT'LL	-0.09010388
-1.836024	IT'S	-0.1514466
-3.114778	ITS	-0.09211217
-3.114778	JAZZ	-0.2990896
-3.114778	JEFF	-0.2990896
-3.415808	JEWISH	-0.08300077
-3.415808	JOANNE'S	-0.07699146
-3.415808	JOB	-0.08741161
-3.114778	JUNE	-0.04581633
-3.415808	JUNIOR	-0.04637324
-2.211688	JUST	-0.04227256
-3.415808	KIDS	-0.07699146
-2.938686	KIND	-0.5195096
-3.415808	KINDA	-0.0926128
-2.05408	KNOW	-0.07992598
-3.415808	LADY	-0.04637324
-2.938686	LAKE	-0.04563055
-3.114778	LANDLORD	-0.2930413
-2.938686	LAST	-0.09177811
-3.415808	LAUDERDALE'S	-0.08926433
-3.415808	LAWS'	-0.0926128
-3.415808	LEAGUE	-0.08859153
-3.415808	LECTURE	-0.07699146
-3.415808	LEFT	-0.09144378
-3.415808	LEGAL	-0.0926128
-3.415808	LESS	-0.08926433
-2.093588	LIKE	-0.07444867
-3.415808	LIONS	-0.0926128
-3.415808	LIONS'	-0.0926128
-3.415808	LIST	-0.08926433
-2.938686	LITTLE	-0.09227913
-3.114778	LIVE	-0.08842316
-2.813748	LOAN	-0.08774906
-3.114778	LOANS	-0.04488656
-3.415808	LOCATION	-0.07802755
-3.415808	LONG	-0.09211218
-3.415808	LOOK	-0.09060682
-3.114778	LOOKED	-0.0874116
-3.415808	LOST	-0.09227912
-3.415808	LOT	-0.08926433
-3.415808	LOTS	-0.08926433
-3.415808	LOVE	-0.08572043
-3.114778	LOVES	-0.08555094
-2.938686	MAINTENANCE	-0.2184511
-3.114778	MAKE	-0.09144377
-3.415808	MAKING	-0.08572043
-3.415808	MANGERS	-0.07699146
-2.938686	MARRIED	-0.1706667
-3.415808	MART	-0.08926433
-3.415808	MAY	-0.08909623
-3.114778	MAYBE	-0.08774906
-3.415808	MCKENZIE	-0.09244599
-2.637656	ME	-0.06186262
-3.415808	MEAN	-0.08741161
-3.415808	MEMORIAL	-0.09244599
-3.415808	MET	-0.09060682
-3.415808	MHM	-0.08842317
-2.716838	MHMM	-0.3724758
-3.114778	MIDDLE	-0.0424598
-3.114778	MIGHT	-0.2967475
-3.415808	MILES	-0.09077434
-3.415808	MILLER	-0.07699146
-3.415808	MOBILITY	-0.07699146
-3.415808	MODERATELY	-0.0926128
-2.938686	MONDAY	-0.04563055
-2.813748	MONEY	-0.03926577
-3.415808	MONTH	-0.08572043
-3.415808	MONTHS	-0.09244599
-3.415808	MOON	-0.07699146
-3.114778	MORE	-0.08909623
-2.938686	MORNING	-0.2003813
-3.415808	MOST	-0.09177811
-3.415808	MOSTLY	-0.08859153
-3.415808	MOUNTAINS	-0.08470255
-3.415808	MOVE	-0.09077434
-3.415808	MOVED	-0.08859153
-3.415808	MOVIE	-0.09244599
-3.415808	MOVING	-0.09161098
-2.813748	MUCH	-0.06931699
-3.114778	MUSIC	-0.09194516
-3.415808	MUSICIAN	-0.08892807
-2.211688	MY	-0.0379437
-3.415808	NEAR	-0.09244599
-3.415808	NEAT	-0.04637324
-3.415808	NEED	-0.08588985
-3.415808	NEUROLOGIST	-0.08741161
-3.415808	NEW	-0.0926128
-2.716838	NEXT	-0.1619286
-2.938686	NICE	-0.172341
-3.415808	NIECE	-0.0899361
-3.415808	NIECES	-0.08859153
-3.114778	NIGHT	-0.04581633
-3.415808	NINE	-0.0926128
-2.073385	NO	-0.1534418
-2.938686	NORTH	-0.04414132
-3.415808	NORTHEAST	-0.09194517
-3.415808	NORTHWEST	-0.08926433
-2.073385	NOT	-0.08954307
-2.512718	NOW	-0.09563859
-3.415808	O'CLOCK	-0.08639769
-3.415808	OAK	-0.04637324
-3.415808	OCCASIONAL	-0.0926128
-3.415808	OCCASIONALLY	-0.08892807
-3.415808	OCEAN	-0.08572043
-2.093588	OF	-0.0973269
-3.415808	OFF	-0.08300077
-2.374415	OH	-0.1721744
-3.415808	OHIO	-0.09144378
-3.415808	OK	-0.04637324
-2.716838	OKAY	-0.7317449
-3.114778	OLD	-0.2530169
-2.211688	ON	-0.1783557
-2.374415	ONE	-0.1329443
-3.114778	ONES	-0.07525912
-2.938686	ONLY	-0.09161098
-3.415808	ONTARIO	-0.04637324
-2.716838	OR	-0.08909625
-3.415808	ORLANDO	-0.04637324
-2.813748	OTHER	-0.08892807
-3.415808	OUR	-0.0926128
-2.512718	OUT	-0.001048408
-2.637656	OVER	-0.1296438
-3.114778	OVERPAID	-0.0439548
-3.114778	OVERWHELMING	-0.04600204
-2.813748	PAID	-0.3687379
-3.415808	PALM	-0.0926128
-3.415808	PANDAS	-0.04637324
-3.415808	PARENTS	-0.0926128
-3.415808	PART	-0.08909623
-3.415808	PARTNER'S	-0.08009235
-3.415808	PARTY	-0.08300077
-3.415808	PAY	-0.08758037
-3.415808	PEACEFUL	-0.09244599
-3.415808	PEOPLE	-0.04637324
-3.415808	PERHAPS	-0.09211218
-3.415808	PETE	-0.04637324
-3.415808	PETOSKEY	-0.09144378
-3.415808	PETS	-0.07699146
-3.415808	PICK	-0.09144378
-3.415808	PICTURES	-0.04637324
-3.114778	PLACE	-0.08368228
-3.415808	PLAN	-0.04637324
-3.415808	PLANNED	-0.0899361
-2.716838	PLAY	-0.03851081
-3.415808	PLAYED	-0.09110919
-3.114778	PLAYING	-0.07785504
-3.415808	PLUMBER	-0.08470255
-3.415808	POINT	-0.09211218
-3.415808	POOP	-0.07699146
-3.415808	POWER	-0.0926128
-3.415808	POWERFUL	-0.0926128
-3.415808	PRETTY	-0.09211218
-3.415808	PRINCESS	-0.04637324
-2.637656	PROBABLY	-0.0491471
-3.114778	PROBLEM	-0.08673592
-3.415808	PROFESSOR	-0.08300077
-3.415808	PROGRAMING	-0.08300077
-3.114778	PROOF	-0.04414131
-3.415808	PROPERTY	-0.0926128
-3.415808	PROPHYLACTIC	-0.0926128
-3.415808	PULLS	-0.09177811
-3.415808	PURPOSES	-0.04637324
-3.415808	PUT	-0.09177811
-3.415808	QUARTER	-0.0926128
-3.415808	QUICK	-0.09244599
-3.415808	QUICKEN	-0.09244599
-3.415808	QUIZZES	-0.09177811
-3.415808	RACE	-0.09244599
-3.415808	RAISED	-0.04637324
-3.415808	RAY	-0.0926128
-3.415808	READ	-0.04637324
-3.415808	READING	-0.08009235
-3.415808	REAL	-0.09194517
-3.114778	REALLY	-0.09211217
-3.415808	REALTOR	-0.09194517
-3.415808	REASON	-0.04637324
-3.415808	RECEPTION	-0.04637324
-3.415808	RECOMMEND	-0.08572043
-3.415808	RED	-0.0926128
-2.938686	REHEARSAL	-0.08351202
-3.415808	RELATIONSHIP	-0.09194517
-2.938686	RELATOR	-0.08605921
-3.415808	RELIGIOUS	-0.0926128
-3.415808	REMEMBER	-0.0926128
-3.415808	RESIDENTIAL	-0.04637324
-3.415808	REUPHOLSTERING	-0.0926128
-3.415808	RID	-0.08926433
-3.415808	RIDE	-0.0926128
-2.57071	RIGHT	-0.2487711
-3.415808	ROAD	-0.04637324
-3.415808	ROCHESTER	-0.0926128
-3.415808	ROTATOR	-0.0926128
-3.415808	ROYAL	-0.0926128
-3.415808	SAGINAW	-0.04637324
-2.716838	SAID	-0.2412357
-3.415808	SAINT	-0.0926128
-3.415808	SALE	-0.04637324
-3.415808	SALVATION	-0.0926128
-3.415808	SAME	-0.0926128
-3.415808	SARASOTA	-0.08300077
-2.938686	SATURDAY	-0.04544467
-3.415808	SAW	-0.09211218
-3.114778	SCHOOL	-0.02876812
-2.716838	SEE	-0.07054704
-3.415808	SEEN	-0.08741161
-2.938686	SELL	-0.1989866
-3.415808	SELLING	-0.08572043
-3.415808	SEMESTER	-0.09060682
-2.813748	SEVEN	-0.1365902
-3.114778	SHE	-0.08724278
-3.114778	SHOULD	-0.08892806
-3.415808	SHOULDER	-0.0926128
-3.415808	SHOWER	-0.09060682
-3.114778	SHOWS	-0.02992573
-3.415808	SHUT	-0.09194517
-3.114778	SICK	-0.2987558
-3.415808	SILLY	-0.07699146
-3.415808	SISTERS	-0.08741161
-3.415808	SIT	-0.09043924
-3.415808	SITUATION	-0.08639769
-3.415808	SLUSH	-0.0926128
-3.415808	SMALL	-0.0926128
-1.65238	SO	-0.00509797
-2.938686	SOME	-0.09194518
-3.114778	SOMEBODY	-0.04039575
-3.415808	SOMETHING	-0.09161098
-3.415808	SOMETIME	-0.04637324
-3.415808	SORRY	-0.04637324
-3.114778	SOUTH	-0.08825473
-3.415808	STARED	-0.09060682
-3.415808	START	-0.09010388
-3.114778	STARTED	-0.07854466
-3.114778	STARTS	-0.2972504
-3.415808	STAY	-0.04637324
-3.114778	STILL	-0.09211217
-3.114778	STRESS	-0.08825473
-3.415808	STRESSFUL	-0.04637324
-3.415808	STUDY	-0.0926128
-2.813748	STUFF	-0.1181715
-3.415808	STUMBLE	-0.0926128
-3.415808	SUICIDE	-0.08300077
-3.114778	SUNDAY	-0.08842316
-3.415808	SUPPLIES	-0.07699146
-2.637656	SURE	-0.1259685
-3.415808	SURGERY	-0.04637324
-3.415808	SWEET	-0.09227912
-3.415808	SYMPTOMS	-0.08758037
-3.415808	TAKE	-0.08009235
-3.415808	TALK	-0.07699146
-3.114778	TALKED	-0.2913462
-3.114778	TAMPA	-0.2530169
-3.114778	TEACH	-0.07647248
-3.114778	TEN	-0.07681853
-3.415808	TERRIBLE	-0.04637324
-2.938686	TEST	-0.03794372
-3.415808	THANK	-0.08758037
-1.910658	THAT	-0.1666817
-2.57071	THAT'S	-0.06578325
-1.534994	THE	-0.1301416
-3.114778	THEIR	-0.09194516
-2.813748	THEM	-0.04245982
-2.336627	THEN	-0.0787944
-3.415808	THERAPIST	-0.09060682
-2.26968	THERE	-0.1255823
-2.637656	THERE'S	-0.1421035
-2.137054	THEY	-0.1585169
-3.114778	THEY'RE	-0.08265961
-3.114778	THING	-0.02992573
-3.415808	THINGS	-0.09060682
-2.637656	THINK	-0.06436165
-3.415808	THIRTEEN	-0.07699146
-2.716838	THIS	-0.2967639
-2.938686	THOUGH	-0.07560616
-3.415808	THOUSAND	-0.0926128
-2.938686	THREE	-0.09144378
-2.938686	THROUGH	-0.07421641
-2.813748	TIME	-0.2421214
-3.415808	TIMES	-0.08009235
-1.734566	TO	-0.08609024
-3.415808	TOLD	-0.04637324
-3.415808	TOMORROW	-0.07699146
-3.114778	TONIGHT	-0.04618768
-2.813748	TOO	-0.09144378
-3.415808	TOOK	-0.0926128
-3.415808	TORE	-0.09010388
-3.415808	TORNADO	-0.04637324
-3.114778	TRACK	-0.0452587
-3.415808	TREATMENT	-0.0926128
-3.114778	TRIP	-0.08180553
-3.415808	TROUBLE	-0.08639769
-2.938686	TRUCKLOADS	-0.07282221
-3.415808	TRUST	-0.04637324
-2.938686	TRYING	-0.5149478
-3.415808	TUES	-0.09077434
-3.114778	TUESDAY	-0.07595289
-3.415808	TURNED	-0.0926128
-3.415808	TV	-0.09244599
-3.415808	TWELVE	-0.04637324
-2.57071	TWO	-0.09386291
-3.415808	TYPE	-0.09244599
-2.813748	UH	-0.07612617
-3.415808	UHH	-0.09244599
-2.374415	UM	-0.06150444
-3.114778	UMM	-0.07612615
-3.415808	UNCLE	-0.0926128
-3.415808	UNDER	-0.09010388
-3.415808	UNION	-0.08808625
-3.114778	UNPACKED	-0.0917781
-2.512718	UP	-0.01542832
-3.415808	USE	-0.09010388
-3.415808	USED	-0.08470255
-3.415808	VACATIONS	-0.09177811
-2.57071	VERY	-0.1398255
-3.415808	VISITED	-0.09110919
-3.415808	VP	-0.08572043
-3.415808	WABATONGUSHI	-0.04637324
-3.415808	WAL	-0.0926128
-3.114778	WALK	-0.0917781
-3.415808	WALKED	-0.09194517
-3.114778	WALKING	-0.2985888
-3.415808	WANT	-0.08470255
-3.114778	WANTED	-0.2913462
-3.114778	WANTS	-0.2913462
-3.415808	WARNING	-0.04637324
-2.093588	WAS	-0.04651589
-3.415808	WASH	-0.07992066
-3.114778	WASTE	-0.07974889
-3.415808	WAWA	-0.0926128
-2.716838	WAY	-0.07124837
-1.96865	WE	-0.1644394
-3.415808	WE'LL	-0.09010388
-3.114778	WE'RE	-0.09094179
-3.114778	WE'VE	-0.09010387
-2.716838	WEDDING	-0.006369717
-2.938686	WEEK	-0.1551071
-2.512718	WEEKEND	-0.3730931
-3.415808	WEEKENDS	-0.09227912
-3.415808	WEIRD	-0.0926128
-2.461565	WELL	-0.1070468
-2.57071	WENT	-0.1286477
-2.57071	WERE	-0.07299673
-3.114778	WEREN'T	-0.08724278
-2.938686	WHAT	-0.08707391
-3.415808	WHATEVER	-0.08588985
-3.415808	WHEELCHAIR	-0.0926128
-2.716838	WHEN	-0.1430954
-3.415808	WHENEVER	-0.08758037
-2.512718	WHERE	-0.04748492
-3.415808	WHICH	-0.0909418
-3.114778	WHILE	-0.07317117
-3.415808	WHITMORE	-0.09227912
-2.938686	WHO	-0.08892807
-3.415808	WHY	-0.09110919
-3.114778	WILL	-0.09161097
-2.415808	WITH	-0.1031459
-3.415808	WITHOUT	-0.0926128
-3.415808	WON	-0.04637324
-3.415808	WON'T	-0.09010388
-2.938686	WORK	-0.08741162
-2.716838	WORKING	-0.0239113
-3.415808	WORKS	-0.04637324
-3.415808	WOULD	-0.09177811
-3.415808	WRITING	-0.08009235
-3.415808	YA'LL	-0.09110919
-1.803024	YEAH	-0.3320464
-2.637656	YEAR	-0.2804225
-3.415808	YEARS	-0.09244599
-3.415808	YEP	-0.04637324
-2.000834	YES	-0.3962614
-2.813748	YET	-0.1241432
-1.924446	YOU	-0.2515336
-2.938686	YOU'RE	-0.08707391
-3.114778	YOUR	-0.09227911
-2.938686	YUP	-0.03433486
-3.114778	ZOO	-0.02876812

\2-grams:
-0.7158962	17 AND
-0.7158962	18 </s>
-1.193017	300 </s>
-1.193017	300 AND
-1.193017	300 WE
-0.7158962	6 WEEKENDS
-0.7158962	600 MILES
-0.7158962	96 YEARS
-0.7158962	96TH BIRTHDAY
-2.423217	<s> A
-2.423217	<s> ACTUALLY
-3.1375	<s> ALL
-3.1375	<s> AN
-1.14285	<s> AND
-3.1375	<s> AROUND
-3.1375	<s> BE
-3.1375	<s> BECAUSE
-3.1375	<s> BEFORE
-3.1375	<s> BORN
-3.1375	<s> BRASS
-2.002653	<s> BUT
-3.1375	<s> BUYING
-3.1375	<s> CAUSE
-3.1375	<s> COUPLE
-3.1375	<s> DEFINITELY
-3.1375	<s> DELTA
-3.1375	<s> DOCTORS
-3.1375	<s> DOWNTOWN
-3.1375	<s> ELEMENTARY
-3.1375	<s> EVEN
-3.1375	<s> FLORIDA
-3.1375	<s> FOR
-3.1375	<s> FORT
-2.423217	<s> GOING
-3.1375	<s> GOOD
-2.423217	<s> HE
-3.1375	<s> HE'S
-3.1375	<s> HISTORY
-1.166331	<s> I
-2.290159	<s> I'M
-3.1375	<s> IF
-2.099322	<s> IN
-2.290159	<s> IT
-2.002653	<s> IT'S
-2.423217	<s> JEFF
-3.1375	<s> JUST
-3.1375	<s> MHM
-1.722634	<s> MHMM
-3.1375	<s> MILLER
-3.1375	<s> MODERATELY
-3.1375	<s> MUSIC
-2.423217	<s> MY
-3.1375	<s> NEXT
-1.342423	<s> NO
-3.1375	<s> NOT
-1.722634	<s> OH
-3.1375	<s> OK
-2.099322	<s> OKAY
-2.423217	<s> ONE
-3.1375	<s> OR
-3.1375	<s> OVER
-3.1375	<s> PALM
-3.1375	<s> PERHAPS
-3.1375	<s> PLAY
-3.1375	<s> PRETTY
-3.1375	<s> PROBABLY
-3.1375	<s> READ
-2.099322	<s> RIGHT
-3.1375	<s> ROTATOR
-3.1375	<s> SAINT
-3.1375	<s> SHE
-3.1375	<s> SHOULD
-1.245513	<s> SO
-3.1375	<s> SOME
-3.1375	<s> SUNDAY
-3.1375	<s> TEN
-3.1375	<s> THANK
-3.1375	<s> THAT
-2.423217	<s> THAT'S
-3.1375	<s> THE
-3.1375	<s> THEN
-3.1375	<s> THERE
-1.753823	<s> THEY
-3.1375	<s> THROUGH
-3.1375	<s> TV
-3.1375	<s> TWO
-2.423217	<s> UH
-2.290159	<s> UM
-2.423217	<s> UMM
-3.1375	<s> VERY
-2.290159	<s> WE
-2.423217	<s> WE'VE
-1.753823	<s> WELL
-3.1375	<s> WENT
-3.1375	<s> WHAT
-3.1375	<s> WHEN
-3.1375	<s> WHENEVER
-3.1375	<s> WHERE
-3.1375	<s> WITH
-3.1375	<s> WORKING
-0.9744459	<s> YEAH
-1.14285	<s> YES
-1.753823	<s> YOU
-3.1375	<s> YUP
-1.016926	<unk> IN
-1.016926	<unk> THIS
-2.590957	A BAD
-1.552779	A BIG
-2.590957	A BLAST
-1.876674	A BUNCH
-2.590957	A CHAUFFEUR
-2.590957	A COMMUNITY
-2.590957	A COUPLE
-2.590957	A DAY
-2.590957	A DIFFERENT
-2.590957	A DIRT
-2.590957	A DISASTER
-2.590957	A DRUG
-2.590957	A FAIRLY
-2.590957	A FISHING
-2.590957	A FUNCTIONAL
-2.590957	A GARAGE
-2.590957	A GOLF
-2.590957	A GOOD
-1.876674	A GREAT
-1.876674	A HALF
-2.590957	A HE
-2.590957	A HONEY
-2.590957	A HOUSE
-2.590957	A JUNIOR
-2.590957	A LAKE
-1.876674	A LANDLORD
-2.590957	A LECTURE
-2.590957	A LIONS
-2.590957	A LIONS'
-2.590957	A LITTLE
-1.743616	A LOAN
-2.590957	A LONG
-2.590957	A LOT
-2.590957	A MOVIE
-2.590957	A MUSICIAN
-2.590957	A NEW
-2.590957	A PLAY
-2.590957	A PROBLEM
-2.590957	A PROFESSOR
-2.590957	A PROPHYLACTIC
-2.590957	A QUARTER
-2.590957	A REAL
-1.876674	A REHEARSAL
-2.590957	A RELATIONSHIP
-2.590957	A RELATOR
-2.590957	A SALVATION
-2.590957	A SHOWER
-2.590957	A SMALL
-1.876674	A TEST
-2.590957	A THERAPIST
-2.590957	A VERY
-2.590957	A VP
-1.743616	A WEDDING
-1.876674	A WEEK
-2.590957	A WEIRD
-2.590957	A WHEELCHAIR
-1.552779	A YEAR
-2.590957	A YOU
-1.193017	ABOUT 600
-1.193017	ABOUT LAST
-1.193017	ABOUT SELLING
-0.7158962	ABSOLUTELY </s>
-0.7158962	ACCESSIBLE AND
-1.414866	ACTUALLY DOWN
-1.414866	ACTUALLY FROM
-0.7005828	ACTUALLY I
-1.414866	ACTUALLY I'M
-0.7158962	ADRIAN WHERE
-0.7158962	AFTER BEING
-0.7158962	AGAIN THEN
-1.193017	AGO BECAUSE
-1.193017	AGO BUT
-1.193017	AGO THERE
-0.7158962	ALCOHOL TREATMENT
-1.618986	ALL FROM
-1.618986	ALL INDIVIDUAL
-1.618986	ALL OUT
-0.7716449	ALL THE
-1.618986	ALL THROUGH
-1.016926	ALMOST LOST
-1.016926	ALMOST NINE
-0.7158962	ALONG THE
-1.193017	ALSO HAD
-1.193017	ALSO TRYING
-1.193017	ALSO WHEN
-0.7158962	ALWAYS FUN
-1.016926	AM A
-1.016926	AM WORKING
-1.016926	AMAZING </s>
-1.016926	AMAZING YOU
-1.317956	AN AUNT
-0.6036727	AN HOUR
-1.317956	AN OCCASIONAL
-2.684379	AND 18
-2.684379	AND </s>
-1.837038	AND A
-2.684379	AND ALCOHOL
-2.684379	AND ALL
-1.837038	AND AND
-2.684379	AND BE
-2.684379	AND BEYOND
-2.684379	AND CATCH
-2.684379	AND ENDED
-2.684379	AND EVEN
-2.684379	AND EVERYTHING
-2.684379	AND FRIDAY
-2.684379	AND GIVE
-2.684379	AND GO
-2.684379	AND GOT
-2.684379	AND HANDICAP
-1.646201	AND HE
-1.646201	AND I
-2.684379	AND I'M
-2.684379	AND IF
-2.684379	AND IT'S
-1.646201	AND JUST
-2.684379	AND LESS
-2.684379	AND LIKE
-2.684379	AND LOOK
-2.684379	AND LOOKED
-2.684379	AND MIDDLE
-2.684379	AND NOT
-2.684379	AND NOW
-2.684379	AND ONE
-2.684379	AND OUT
-2.684379	AND PLAY
-2.684379	AND PROPERTY
-2.684379	AND RAISED
-0.8893017	AND SO
-1.970096	AND STUFF
-2.684379	AND TEACH
-1.300702	AND THE
-2.684379	AND THEIR
-1.837038	AND THEN
-1.837038	AND THEY
-2.684379	AND TRUCKLOADS
-2.684379	AND TWELVE
-2.684379	AND UH
-1.970096	AND UM
-2.684379	AND VISITED
-2.684379	AND WAL
-2.684379	AND WALK
-2.684379	AND WE
-2.684379	AND WHATEVER
-2.684379	AND WHEN
-2.684379	AND WHITMORE
-2.684379	AND WITH
-1.970096	AND YOU
-2.684379	AND YOUR
-0.7158962	ANIMALS WERE
-0.7158962	ANOTHER REHEARSAL
-0.7158962	ANTI DEPRESSANTS
-0.7158962	ANTICIPATING MOVING
-0.7158962	ANTIDEPRESSANTS FOR
-1.016926	ANY IDEA
-1.016926	ANY WORK
-0.7158962	ANYONE WHO
-0.7158962	ANYTHING LIKE
-0.7158962	ANYWAY </s>
-0.7158962	APPEAR DEPRESSED
-0.7158962	APPOINTMENTS </s>
-1.715896	ARE 17
-1.001613	ARE </s>
-1.715896	ARE ALL
-1.715896	ARE ALSO
-1.715896	ARE GOING
-1.715896	ARE IT'S
-1.001613	ARE LIKE
-1.715896	ARE YOU
-0.7158962	AREA </s>
-0.7158962	ARMY </s>
-1.414866	AROUND JOANNE'S
-1.414866	AROUND SO
-0.7005828	AROUND THE
-1.414866	AROUND WE
-1.016926	AS IT
-1.016926	AS OVERWHELMING
-1.115556	AT A
-1.82984	AT ALL
-1.82984	AT ALMOST
-1.82984	AT BED
-1.82984	AT EIGHT
-1.82984	AT FIRST
-1.82984	AT LIKE
-1.82984	AT QUICKEN
-1.82984	AT SO
-1.115556	AT THE
-1.82984	AT YOU
-0.7158962	AUDITING DEPARTMENT
-0.7158962	AUNT WHO
-1.016926	AWAY FOR
-1.016926	AWAY FROM
-0.4558694	BACK AND
-1.494048	BACK GET
-1.494048	BACK PLAYING
-1.494048	BACK TO
-0.7158962	BAD LOCATION
-0.7158962	BADLY </s>
-1.016926	BANK AND
-1.016926	BANK BEYOND
-0.478734	BASED IT
-1.193017	BASED ON
-0.7158962	BASEMENT YOU
-0.7158962	BASICALLY ON
-0.7158962	BATH AND
-0.7158962	BATTLE CREEK
-1.920016	BE A
-1.920016	BE COMMERCIAL
-1.920016	BE DEALING
-1.920016	BE EMBARRASSING
-1.920016	BE GOOD
-1.920016	BE GRADUATING
-1.920016	BE HAPPY
-1.205733	BE IN
-1.920016	BE IT
-1.920016	BE RESIDENTIAL
-1.920016	BE SILLY
-1.920016	BE STARED
-1.920016	BE UHH
-1.920016	BE VERY
-1.920016	BE YOU
-0.7158962	BEACH </s>
-0.7158962	BEAVERS </s>
-1.715896	BECAUSE FOR
-0.30103	BECAUSE I
-1.715896	BECAUSE I'VE
-1.715896	BECAUSE IT
-1.715896	BECAUSE MY
-1.715896	BECAUSE WE
-0.7158962	BED BATH
-1.317956	BEEN HOME
-0.6036727	BEEN ON
-1.317956	BEEN TOLD
-1.193017	BEFORE </s>
-1.193017	BEFORE THAT
-1.193017	BEFORE THE
-0.3766881	BEING A
-1.414866	BEING AWAY
-1.414866	BEING IN
-0.7158962	BELONGS </s>
-0.3026428	BETWEEN THE
-1.016926	BEYOND </s>
-1.016926	BEYOND THAT
-1.414866	BIG DEAL
-1.414866	BIG DIFFERENCE
-1.414866	BIG FANCY
-1.414866	BIG PARTY
-1.414866	BIG WARNING
-0.7158962	BIKE </s>
-0.7158962	BILLY GRAHAM
-0.7158962	BIRTHDAY WHILE
-0.7158962	BIT OF
-0.7158962	BLAST IT
-0.7158962	BOOK ON
-0.7158962	BORING HOWEVER
-0.7158962	BORN AND
-0.7158962	BOTHER </s>
-0.7158962	BRASS INSTRUMENTS
-0.7158962	BRING THEM
-0.3026428	BUNCH OF
-1.016926	BUSY I'M
-1.016926	BUSY WEEKEND
-1.039446	BUT </s>
-2.077624	BUT AND
-2.077624	BUT BUT
-1.363341	BUT I
-1.363341	BUT IF
-2.077624	BUT IT'LL
-1.363341	BUT IT'S
-2.077624	BUT NOT
-2.077624	BUT NOW
-2.077624	BUT SUNDAY
-2.077624	BUT THE
-2.077624	BUT THEN
-2.077624	BUT THERE
-2.077624	BUT THERE'S
-1.363341	BUT WE
-1.363341	BUT YEAH
-0.7158962	BUYING THINGS
-1.016926	CALLED ONE
-1.016926	CALLED WABATONGUSHI
-1.618986	CAN </s>
-1.618986	CAN BE
-1.618986	CAN GET
-1.618986	CAN HAVE
-1.618986	CAN PAY
-1.618986	CAN SEE
-1.618986	CAN SELL
-1.618986	CAN SIT
-0.7158962	CAN'T YOU
-0.7158962	CANADA ABOUT
-0.7158962	CAROLINA CAN
-1.193017	CASH A
-1.193017	CASH FOR
-1.193017	CASH WITH
-0.7158962	CATCH UP
-1.317956	CAUSE ABOUT
-1.317956	CAUSE I
-1.317956	CAUSE OF
-1.317956	CAUSE THAT'S
-0.7158962	CENTERVILLE BRING
-0.7158962	CENTRAL FROM
-0.7158962	CHAUFFEUR WE'RE
-0.7158962	CLASS </s>
-0.7158962	CLASSES AND
-0.7158962	CLEANED OUT
-0.7158962	CLEANING </s>
-0.478734	COLLEGE </s>
-1.193017	COLLEGE AND
-1.016926	COME IN
-1.016926	COME WITH
-1.016926	COMING BACK
-1.016926	COMING HOME
-0.7158962	COMMERCIAL IT
-0.7158962	COMMITTED SUICIDE
-0.7158962	COMMUNITY COLLEGE
-0.7158962	COMPANIES THAT
-0.7158962	COMPLETELY GOT
-0.7158962	COMPUTER PROGRAMING
-0.7158962	COMPUTERS SO
-0.3026428	CONE </s>
-0.7158962	CONTRACTORS AND
-0.7158962	COOL </s>
-0.7158962	COUCH OVER
-1.193017	COULD BUT
-1.193017	COULD GET
-1.193017	COULD GIVE
-1.016926	COULDN'T FIND
-1.016926	COULDN'T SEE
-1.016926	COUPLE DAYS
-1.016926	COUPLE TIMES
-0.7158962	COURSE IN
-0.7158962	CRAZY </s>
-0.7158962	CREDIT UNION
-0.7158962	CREEK </s>
-0.7158962	CRYSTAL </s>
-0.7158962	CUFF IT'S
-0.7158962	CURRENTLY AT
-0.7158962	DAD'S HISTORY
-0.7158962	DATE BUT
-0.7158962	DAUGHTER </s>
-1.016926	DAY </s>
-1.016926	DAY FOR
-0.779764	DAYS </s>
-1.494048	DAYS ON
-1.494048	DAYS OVER
-1.494048	DAYS SO
-1.494048	DAYS YOU
-0.7158962	DEAL LIKE
-0.7158962	DEALING WITH
-0.7158962	DECIDE THEY
-0.7158962	DECIDED ON
-1.193017	DEFINITELY </s>
-1.193017	DEFINITELY A
-1.193017	DEFINITELY NICE
-0.7158962	DELTA COLLEGE
-0.7158962	DEPARTMENT </s>
-0.7158962	DEPRESSANTS BECAUSE
-1.193017	DEPRESSED </s>
-1.193017	DEPRESSED CAUSE
-1.193017	DEPRESSED DOESN'T
-1.193017	DEPRESSION IS
-1.193017	DEPRESSION PART
-1.193017	DEPRESSION SO
-1.317956	DETROIT </s>
-0.6036727	DETROIT JAZZ
-1.317956	DETROIT ZOO
-1.193017	DID NOT
-1.193017	DID WE
-1.193017	DID YOU
-1.016926	DIDN'T FEEL
-1.016926	DIDN'T SORRY
-0.7158962	DIED AND
-0.7158962	DIFFERENCE BETWEEN
-0.7158962	DIFFERENT BOOK
-0.7158962	DIRT TRACK
-0.3026428	DISABILITY </s>
-0.7158962	DISASTER AREA
-0.7158962	DISEASE WORKS
-0.7158962	DNA STUDY
-1.494048	DO </s>
-1.494048	DO ANY
-0.779764	DO LIKE
-1.494048	DO MY
-1.494048	DO STUMBLE
-0.7158962	DOCTORS APPOINTMENTS
-0.7158962	DOES </s>
-0.7158962	DOESN'T MEAN
-0.7158962	DOG AND
-1.193017	DOING I'M
-1.193017	DOING OKAY
-1.193017	DOING THE
-0.7158962	DOLLARS TO
-1.862024	DON'T APPEAR
-1.862024	DON'T EVEN
-1.862024	DON'T HAVE
-0.478347	DON'T KNOW
-1.147741	DON'T LIKE
-1.862024	DON'T REMEMBER
-1.862024	DON'T SELL
-1.862024	DON'T THERE
-0.7158962	DONAVAN </s>
-1.414866	DOWN </s>
-1.414866	DOWN SOUTH
-1.414866	DOWN THERE
-0.7005828	DOWN TO
-1.016926	DOWNTOWN <unk>
-1.016926	DOWNTOWN DETROIT
-1.193017	DRAINS AND
-1.193017	DRAINS CLEANED
-1.193017	DRAINS ERUPTED
-1.016926	DRIVE DOWN
-1.016926	DRIVE RIGHT
-1.016926	DRIVING IMMEDIATELY
-1.016926	DRIVING UP
-0.7158962	DROVE ALL
-0.7158962	DRUG AND
-0.7158962	EACH </s>
-1.193017	EIGHT DAYS
-1.193017	EIGHT FORTY
-1.193017	EIGHT OH
-1.016926	ELEMENTARY AND
-1.016926	ELEMENTARY STARTS
-0.7158962	ELSE DID
-0.7158962	EM BUT
-0.7158962	EMBARRASSING </s>
-0.7158962	EMPTIED FOR
-0.7158962	ENDED UP
-1.016926	ENOUGH AND
-1.016926	ENOUGH BECAUSE
-0.7158962	EQUITY ON
-0.7158962	ERR TEST
-0.7158962	ERUPTED WITH
-1.317956	EVEN BOTHER
-1.317956	EVEN IF
-0.6036727	EVEN THOUGH
-0.7158962	EVER SEEN
-1.016926	EVERY OTHER
-1.016926	EVERY PLAN
-0.7158962	EVERYBODY WAS
-0.7158962	EVERYONE HAS
-1.016926	EVERYTHING SO
-1.016926	EVERYTHING WHERE
-0.7158962	EVERYWHERE BUT
-0.7158962	EVICT PRINCESS
-0.7158962	EXACT SYMPTOMS
-1.317956	EXACTLY SO
-0.2797781	EXACTLY SURE
-0.7158962	EXCITED </s>
-0.7158962	EXCITING </s>
-0.7158962	FACILITY </s>
-0.7158962	FAIRLY QUICK
-0.7158962	FALLING OVER
-0.7158962	FALLS UNDER
-1.193017	FAMILY </s>
-1.193017	FAMILY AND
-1.193017	FAMILY THEY
-0.7158962	FAN ISN'T
-0.7158962	FANCY HOUSES
-0.7158962	FARM IN
-0.7158962	FEEL THAT
-0.7158962	FEES TRYING
-1.016926	FESTIVAL AND
-1.016926	FESTIVAL THEN
-0.7158962	FIELD TO
-0.7158962	FIFTY OR
-0.7158962	FIND ANYONE
-0.7158962	FIREWORKS AND
-1.193017	FIRST BUT
-1.193017	FIRST FOUND
-1.193017	FIRST MOVED
-0.7158962	FISHING TRIP
-0.7158962	FIVE </s>
-0.7158962	FIX IT
-1.193017	FLORIDA </s>
-1.193017	FLORIDA TO
-1.193017	FLORIDA WERE
-0.7158962	FOOD OR
-1.115556	FOR A
-1.82984	FOR EIGHT
-1.82984	FOR IT
-1.82984	FOR MY
-1.82984	FOR NO
-1.82984	FOR ONE
-1.82984	FOR PEOPLE
-1.82984	FOR THAT
-1.115556	FOR THE
-1.82984	FOR THIS
-1.82984	FOR TUESDAY
-0.7158962	FORGOT THAT
-0.7158962	FORMULA AND
-0.7158962	FORMULATE A
-0.7158962	FORT LAUDERDALE'S
-0.7158962	FORTY </s>
-0.7158962	FOUND OUT
-0.7158962	FOUR DAYS
-0.7158962	FRESHMAN IN
-1.016926	FRIDAY FRIDAY
-1.016926	FRIDAY I
-1.016926	FRIENDS </s>
-1.016926	FRIENDS FROM
-1.795077	FROM </s>
-1.795077	FROM CENTERVILLE
-1.795077	FROM DOWN
-1.795077	FROM HAVING
-1.795077	FROM HERE
-0.3802112	FROM THE
-1.795077	FROM WHAT
-1.795077	FROM WORK
-0.4558694	FUN </s>
-1.494048	FUN TO
-1.494048	FUN WHEN
-1.494048	FUN YES
-0.7158962	FUNCTIONAL COURSE
-0.7158962	GAME </s>
-0.7158962	GARAGE SALE
-0.7158962	GAY CENTRAL
-0.7158962	GENE </s>
-1.115556	GET 300
-0.7916614	GET A
-1.82984	GET ALL
-1.82984	GET BACK
-1.82984	GET I
-1.82984	GET LOANS
-1.82984	GET SICK
-1.115556	GET THE
-1.82984	GET UP
-0.7158962	GETS CRAZY
-1.193017	GETTING A
-0.478734	GETTING MARRIED
-0.7158962	GIFTS </s>
-0.7158962	GIRLS </s>
-1.016926	GIVE A
-1.016926	GIVE ME
-0.7158962	GIVING SEVEN
-1.560994	GO ACTUALLY
-1.560994	GO BACK
-1.560994	GO BUT
-1.560994	GO INTO
-1.560994	GO THERE
-1.560994	GO TO
-1.560994	GO YET
-0.7158962	GOES </s>
-1.670139	GOING ON
-0.05115252	GOING TO
-1.016926	GOLF </s>
-1.016926	GOLF LEAGUE
-0.7158962	GONE NOW
-0.4558694	GOOD </s>
-1.494048	GOOD I'D
-1.494048	GOOD ONE
-1.494048	GOOD THOUGH
-1.560994	GOT A
-1.560994	GOT MARRIED
-1.560994	GOT ON
-1.560994	GOT RID
-0.8467108	GOT TO
-1.560994	GOT UNPACKED
-0.7158962	GRADUATING NEXT
-0.7158962	GRAHAM </s>
-0.7158962	GRAND </s>
-1.317956	GREAT </s>
-1.317956	GREAT FIELD
-1.317956	GREAT SCHOOL
-1.317956	GREAT TIME
-0.7158962	GROWN TO
-0.7158962	GUYS EVER
-0.4114002	HAD A
-1.795077	HAD EM
-1.795077	HAD HER
-1.795077	HAD MONEY
-1.795077	HAD SHOULDER
-1.795077	HAD TALKED
-1.795077	HAD TO
-1.016926	HALF AGO
-1.016926	HALF THERE
-0.7158962	HANDICAP ACCESSIBLE
-0.7158962	HAPPENS CAUSE
-0.7158962	HAPPY </s>
-1.016926	HARD GETTING
-1.016926	HARD TO
-0.7158962	HAS THE
-0.6544383	HAVE A
-2.038116	HAVE ANOTHER
-2.038116	HAVE ANY
-2.038116	HAVE HELP
-2.038116	HAVE MY
-2.038116	HAVE NO
-2.038116	HAVE PLANNED
-1.323832	HAVE PROOF
-1.323832	HAVE THE
-2.038116	HAVE THEM
-0.9999374	HAVE TO
-2.038116	HAVE TWO
-0.7158962	HAVEN'T BEEN
-0.3026428	HAVING THE
-1.016926	HD </s>
-1.016926	HD AND
-1.795077	HE COMMITTED
-1.795077	HE DOES
-1.795077	HE JUST
-1.080794	HE LOVES
-1.795077	HE PULLS
-1.795077	HE SAID
-1.795077	HE USED
-1.795077	HE WANTED
-1.080794	HE WANTS
-1.795077	HE WENT
-0.3026428	HE'LL BE
-1.414866	HE'S A
-1.414866	HE'S IT
-0.7005828	HE'S NOT
-1.414866	HE'S VERY
-0.7158962	HELP AND
-0.7158962	HELPFUL </s>
-1.016926	HER 96TH
-1.016926	HER BEING
-0.478734	HERE </s>
-1.193017	HERE WHILE
-0.7158962	HIGH SCHOOL
-0.7158962	HILLS </s>
-0.7158962	HIRE SOMEBODY
-0.478734	HISTORY </s>
-1.193017	HISTORY NOT
-1.016926	HOLIDAY LEFT
-1.016926	HOLIDAY TO
-0.7158962	HOLIDAYS DON'T
-1.016926	HOME AFTER
-1.016926	HOME IN
-0.7158962	HONEY MOON
-1.016926	HOPEFULLY HOPEFULLY
-1.016926	HOPEFULLY SO
-0.7158962	HOSE AND
-0.7158962	HOT </s>
-1.016926	HOUR </s>
-1.016926	HOUR SOUTH
-0.7158962	HOURS A
-0.779764	HOUSE </s>
-1.494048	HOUSE ALSO
-1.494048	HOUSE AND
-1.494048	HOUSE I
-1.494048	HOUSE IS
-0.7158962	HOUSES ALONG
-0.7158962	HOW TO
-0.7158962	HOWEVER </s>
-0.7158962	HUNDRED </s>
-0.7158962	HURRICANE </s>
-0.7158962	HUSBAND IS
-1.941132	I AM
-2.655416	I CALLED
-1.240549	I CAN
-2.655416	I CAN'T
-2.655416	I COULDN'T
-2.655416	I DIDN'T
-1.941132	I DO
-0.860338	I DON'T
-2.655416	I DRIVE
-1.941132	I FIRST
-2.655416	I FORGOT
-1.808074	I GET
-2.655416	I GOT
-1.617237	I HAD
-0.763428	I HAVE
-2.655416	I HAVEN'T
-1.941132	I I
-1.941132	I JUST
-1.520568	I KNOW
-2.655416	I LIKE
-2.655416	I LOVE
-2.655416	I MAYBE
-2.655416	I NEED
-2.655416	I OVERPAID
-1.617237	I PAID
-2.655416	I START
-2.655416	I STARTED
-2.655416	I STILL
-2.655416	I TALKED
-2.655416	I TEACH
-1.240549	I THINK
-2.655416	I TORE
-1.941132	I WAS
-2.655416	I WASTE
-2.655416	I WORK
-0.7158962	I'D RECOMMEND
-1.193017	I'LL BE
-0.478734	I'LL GO
-2.077624	I'M A
-2.077624	I'M CURRENTLY
-1.363341	I'M DOING
-1.363341	I'M DRIVING
-2.077624	I'M EXCITED
-2.077624	I'M GIVING
-1.039446	I'M GOING
-2.077624	I'M I'M
-2.077624	I'M NOT
-2.077624	I'M OFF
-2.077624	I'M ON
-2.077624	I'M PLAYING
-2.077624	I'M REUPHOLSTERING
-1.363341	I'M SURE
-2.077624	I'M TRYING
-2.077624	I'M UH
-2.077624	I'M WORKING
-2.077624	I'M WRITING
-0.3026428	I'VE BEEN
-1.016926	IDEA </s>
-1.016926	IDEA WHERE
-0.7716449	IF I
-1.618986	IF IF
-1.618986	IF THEY
-0.9047028	IF YOU
-0.7158962	IMMEDIATELY BACK
-1.075658	IN </s>
-1.075658	IN A
-2.113836	IN BATTLE
-2.113836	IN COLLEGE
-2.113836	IN CRYSTAL
-2.113836	IN FLORIDA
-2.113836	IN I
-2.113836	IN JUNE
-2.113836	IN LAWS'
-2.113836	IN LEGAL
-2.113836	IN LIKE
-2.113836	IN NORTH
-2.113836	IN OHIO
-2.113836	IN ORLANDO
-2.113836	IN ROCHESTER
-2.113836	IN ROYAL
-2.113836	IN SAGINAW
-1.266495	IN THE
-0.7158962	INAUDIBLE </s>
-0.7158962	INCH OF
-0.3026428	INCOME IS
-0.7158962	INDIVIDUAL </s>
-0.7158962	INHERITANCE AND
-1.016926	INSIDE AND
-1.016926	INSIDE SO
-0.7158962	INSTRUMENTS </s>
-0.7158962	INTO COMPUTER
-0.7158962	INVITED ME
-1.946345	IS 96
-1.099004	IS </s>
-1.232062	IS A
-1.946345	IS AS
-1.946345	IS COMING
-1.946345	IS FRESHMAN
-1.946345	IS GETTING
-1.946345	IS IN
-1.232062	IS NOT
-1.946345	IS ONE
-1.946345	IS SO
-1.946345	IS WORKING
-0.7158962	ISN'T ALWAYS
-0.7158962	ISSUE HAPPENS
-0.478734	ISSUES AND
-1.193017	ISSUES FROM
-1.300967	IT </s>
-2.339146	IT A
-2.339146	IT AND
-2.339146	IT AT
-2.339146	IT BASICALLY
-2.339146	IT BELONGS
-2.339146	IT BUT
-2.339146	IT FOOD
-2.339146	IT FOR
-2.339146	IT GETS
-2.339146	IT GOES
-2.339146	IT GOT
-2.339146	IT I'LL
-1.491804	IT IS
-2.339146	IT LOOKED
-1.624862	IT MIGHT
-2.339146	IT NICE
-2.339146	IT ON
-2.339146	IT SO
-2.339146	IT STARTS
-2.339146	IT UP
-0.447158	IT WAS
-0.7158962	IT'LL BE
-1.160833	IT'S A
-2.29568	IT'S AMAZING
-2.29568	IT'S AT
-1.581396	IT'S DEFINITELY
-2.29568	IT'S FUN
-2.29568	IT'S GONE
-2.29568	IT'S GOOD
-2.29568	IT'S GREAT
-2.29568	IT'S HARD
-2.29568	IT'S I
-0.9120026	IT'S IT'S
-2.29568	IT'S JUST
-1.581396	IT'S LIKE
-2.29568	IT'S MORE
-2.29568	IT'S NORTHEAST
-1.581396	IT'S NOT
-2.29568	IT'S ONLY
-2.29568	IT'S OVERWHELMING
-2.29568	IT'S TERRIBLE
-2.29568	IT'S TOO
-2.29568	IT'S TROUBLE
-1.581396	IT'S WAY
-2.29568	IT'S WITH
-1.016926	ITS HARD
-1.016926	ITS ITS
-0.3026428	JAZZ FESTIVAL
-0.3026428	JEFF CONE
-0.7158962	JEWISH SO
-0.7158962	JOANNE'S AND
-0.7158962	JOB THAT
-1.016926	JUNE </s>
-1.016926	JUNE LAST
-0.7158962	JUNIOR </s>
-1.920016	JUST BECAUSE
-1.920016	JUST CAN
-1.920016	JUST COMPLETELY
-1.920016	JUST DAYS
-1.920016	JUST FIFTY
-1.920016	JUST GET
-1.920016	JUST GOT
-1.920016	JUST HAVING
-1.920016	JUST I
-1.920016	JUST KINDA
-1.920016	JUST PLAY
-1.920016	JUST TALK
-1.920016	JUST THE
-1.920016	JUST UM
-1.920016	JUST YES
-1.920016	JUST YOU
-0.7158962	KIDS AND
-0.1548394	KIND OF
-0.7158962	KINDA PLAYED
-1.039446	KNOW </s>
-2.077624	KNOW BECAUSE
-2.077624	KNOW BEING
-2.077624	KNOW CAUSE
-2.077624	KNOW HE
-2.077624	KNOW HE'S
-2.077624	KNOW HOW
-1.039446	KNOW I
-2.077624	KNOW INAUDIBLE
-1.363341	KNOW IT'S
-2.077624	KNOW MAYBE
-2.077624	KNOW MY
-2.077624	KNOW NOT
-2.077624	KNOW OF
-2.077624	KNOW THE
-2.077624	KNOW THEY'RE
-2.077624	KNOW WHAT
-2.077624	KNOW WHEN
-0.7158962	LADY </s>
-1.193017	LAKE </s>
-1.193017	LAKE CALLED
-1.193017	LAKE DOWNTOWN
-0.3026428	LANDLORD IT'S
-1.193017	LAST JUNE
-1.193017	LAST MONTH
-1.193017	LAST WEEK
-0.7158962	LAUDERDALE'S LIKE
-0.7158962	LAWS' FARM
-0.7158962	LEAGUE IN
-0.7158962	LECTURE AND
-0.7158962	LEFT WHERE
-0.7158962	LEGAL FEES
-0.7158962	LESS LIKE
-2.038116	LIKE 6
-0.9999374	LIKE </s>
-1.190774	LIKE A
-2.038116	LIKE BEING
-2.038116	LIKE EIGHT
-2.038116	LIKE GAY
-1.323832	LIKE NO
-2.038116	LIKE OH
-2.038116	LIKE POWER
-2.038116	LIKE RAY
-2.038116	LIKE SHUT
-2.038116	LIKE THAT
-2.038116	LIKE THE
-2.038116	LIKE THERE
-2.038116	LIKE WHY
-0.7158962	LIONS GAME
-0.7158962	LIONS' FAN
-0.7158962	LIST OF
-1.193017	LITTLE BIT
-1.193017	LITTLE LADY
-1.193017	LITTLE NIECES
-1.016926	LIVE IN
-1.016926	LIVE NEAR
-1.317956	LOAN BASED
-1.317956	LOAN BECAUSE
-1.317956	LOAN FROM
-1.317956	LOAN OR
-1.016926	LOANS </s>
-1.016926	LOANS NOW
-0.7158962	LOCATION I
-0.7158962	LONG TIME
-0.7158962	LOOK AT
-1.016926	LOOKED AT
-1.016926	LOOKED THEY
-0.7158962	LOST LAST
-0.7158962	LOT OF
-0.7158962	LOTS OF
-0.7158962	LOVE IT
-1.016926	LOVES COMPUTERS
-1.016926	LOVES IT
-1.193017	MAINTENANCE ISSUE
-0.478734	MAINTENANCE ISSUES
-1.016926	MAKE EVERY
-1.016926	MAKE SURE
-0.7158962	MAKING IT
-0.7158962	MANGERS AND
-0.478734	MARRIED </s>
-1.193017	MARRIED OH
-0.7158962	MART WAS
-0.7158962	MAY NOT
-1.016926	MAYBE OVERPAID
-1.016926	MAYBE WE
-0.7158962	MCKENZIE <unk>
-1.494048	ME A
-1.494048	ME BUT
-1.494048	ME EVERYWHERE
-1.494048	ME ON
-1.494048	ME SO
-1.494048	ME THERE'S
-0.7158962	MEAN THAT
-0.7158962	MEMORIAL DAY
-0.7158962	MET AT
-0.7158962	MHM YES
-0.3766881	MHMM </s>
-0.7005828	MHMM YUP
-1.016926	MIDDLE </s>
-1.016926	MIDDLE OF
-0.3026428	MIGHT BE
-0.7158962	MILES FROM
-0.7158962	MILLER AND
-0.7158962	MOBILITY AND
-0.7158962	MODERATELY STRESSFUL
-1.193017	MONDAY </s>
-1.193017	MONDAY MEMORIAL
-1.193017	MONDAY MORNING
-1.317956	MONEY </s>
-1.317956	MONEY BECAUSE
-1.317956	MONEY BEFORE
-1.317956	MONEY IN
-0.7158962	MONTH IT
-0.7158962	MONTHS OLD
-0.7158962	MOON AND
-1.016926	MORE LIKE
-1.016926	MORE PEACEFUL
-0.478734	MORNING I
-1.193017	MORNING I'M
-0.7158962	MOST FUN
-0.7158962	MOSTLY IN
-0.7158962	MOUNTAINS TO
-0.7158962	MOVE FROM
-0.7158962	MOVED IN
-0.7158962	MOVIE TONIGHT
-0.7158962	MOVING WENT
-1.317956	MUCH JUST
-1.317956	MUCH STUFF
-1.317956	MUCH THE
-1.317956	MUCH YEAH
-1.016926	MUSIC HISTORY
-1.016926	MUSIC TONIGHT
-0.7158962	MUSICIAN I'M
-1.920016	MY </s>
-1.920016	MY DAD'S
-1.920016	MY DAUGHTER
-1.920016	MY DOG
-1.920016	MY FAMILY
-1.920016	MY HUSBAND
-1.920016	MY IN
-1.920016	MY INCOME
-1.920016	MY LITTLE
-1.920016	MY MCKENZIE
-1.920016	MY NIECE
-1.920016	MY PARENTS
-1.920016	MY PARTNER'S
-1.920016	MY SICK
-1.920016	MY UNCLE
-1.920016	MY VACATIONS
-0.7158962	NEAR TAMPA
-0.7158962	NEAT </s>
-0.7158962	NEED YEAH
-0.7158962	NEUROLOGIST THAT
-0.7158962	NEW JOB
-1.414866	NEXT MAINTENANCE
-1.414866	NEXT REALTOR
-1.414866	NEXT THREE
-0.7005828	NEXT YEAR
-0.478734	NICE </s>
-1.193017	NICE INSIDE
-0.7158962	NIECE IS
-0.7158962	NIECES IN
-1.016926	NIGHT </s>
-1.016926	NIGHT I'LL
-0.7158962	NINE O'CLOCK
-1.020141	NO </s>
-2.058319	NO ACTUALLY
-2.058319	NO FROM
-1.020141	NO I
-2.058319	NO I'M
-2.058319	NO IDEA
-2.058319	NO ISSUES
-2.058319	NO JUST
-1.344036	NO NOT
-2.058319	NO OTHER
-2.058319	NO PROBLEM
-2.058319	NO REASON
-2.058319	NO WAY
-1.020141	NO WE
-2.058319	NO WELL
-1.193017	NORTH </s>
-1.193017	NORTH CAROLINA
-1.193017	NORTH UM
-0.7158962	NORTHEAST OR
-0.7158962	NORTHWEST OF
-2.058319	NOT </s>
-2.058319	NOT A
-2.058319	NOT ANYTHING
-2.058319	NOT DEPRESSED
-1.344036	NOT ENOUGH
-1.020141	NOT EXACTLY
-1.344036	NOT I
-2.058319	NOT SOME
-1.344036	NOT THAT
-2.058319	NOT THE
-2.058319	NOT THINK
-1.344036	NOT THIS
-2.058319	NOT TOO
-2.058319	NOT UNPACKED
-2.058319	NOT WASTE
-2.058319	NOT YOU
-1.618986	NOW A
-0.9047028	NOW I'M
-1.618986	NOW IT'S
-1.618986	NOW MOSTLY
-1.618986	NOW THAT
-1.618986	NOW THERE
-1.618986	NOW TO
-0.7158962	O'CLOCK IT'S
-0.7158962	OAK </s>
-0.7158962	OCCASIONAL TORNADO
-0.7158962	OCCASIONALLY BUT
-0.7158962	OCEAN IT
-2.038116	OF A
-2.038116	OF BEING
-2.038116	OF COMPANIES
-2.038116	OF CONTRACTORS
-2.038116	OF EACH
-2.038116	OF FUN
-2.038116	OF MONEY
-2.038116	OF MUSIC
-2.038116	OF MY
-2.038116	OF SLUSH
-2.038116	OF SOMETHING
-2.038116	OF STUFF
-2.038116	OF TAMPA
-0.9999374	OF THE
-2.038116	OF THEM
-2.038116	OF TRUCKLOADS
-2.038116	OF WANTED
-2.038116	OF WAWA
-2.038116	OF YET
-0.7158962	OFF SO
-1.757289	OH FIVE
-0.7191108	OH I
-1.757289	OH IT
-1.757289	OH NO
-1.757289	OH NOT
-1.757289	OH OKAY
-1.757289	OH WELL
-1.043005	OH YEAH
-0.7158962	OHIO WHERE
-0.7158962	OK </s>
-0.07918125	OKAY </s>
-0.3026428	OLD </s>
-1.205733	ON A
-1.920016	ON ANTI
-1.920016	ON ANTIDEPRESSANTS
-1.920016	ON BILLY
-1.920016	ON BUT
-1.205733	ON DISABILITY
-1.920016	ON IT
-1.920016	ON MAKING
-1.920016	ON MONDAY
-1.205733	ON THAT
-0.8818381	ON THE
-1.757289	ONE BANK
-1.757289	ONE HUNDRED
-1.043005	ONE IS
-1.757289	ONE IT
-1.043005	ONE OF
-1.757289	ONE POINT
-1.757289	ONE RELATOR
-1.757289	ONE TO
-1.757289	ONE YEAR
-1.016926	ONES BE
-1.016926	ONES I
-1.193017	ONLY ONES
-1.193017	ONLY THING
-1.193017	ONLY THREE
-0.7158962	ONTARIO </s>
-1.414866	OR GIFTS
-1.414866	OR HIRE
-1.414866	OR IF
-1.414866	OR NORTHWEST
-1.414866	OR ONE
-0.7158962	ORLANDO </s>
-1.317956	OTHER HOLIDAY
-1.317956	OTHER ONE
-1.317956	OTHER ONES
-1.317956	OTHER WEEKEND
-0.7158962	OUR COUCH
-1.618986	OUT </s>
-1.618986	OUT AND
-1.618986	OUT EVERYBODY
-1.618986	OUT OF
-1.618986	OUT THAT
-1.618986	OUT THE
-1.618986	OUT WALKING
-1.618986	OUT WERE
-1.494048	OVER IN
-0.6467062	OVER THE
-1.494048	OVER WITH
-1.016926	OVERPAID </s>
-1.016926	OVERPAID FOR
-1.016926	OVERWHELMING </s>
-1.016926	OVERWHELMING AS
-1.317956	PAID 300
-0.2797781	PAID CASH
-0.7158962	PALM BEACH
-0.7158962	PANDAS </s>
-0.7158962	PARENTS DIED
-0.7158962	PART NOT
-0.7158962	PARTNER'S A
-0.7158962	PARTY SO
-0.7158962	PAY YOU
-0.7158962	PEACEFUL INSIDE
-0.7158962	PEOPLE </s>
-0.7158962	PERHAPS AN
-0.7158962	PETE </s>
-0.7158962	PETOSKEY WHERE
-0.7158962	PETS AND
-0.7158962	PICK UP
-0.7158962	PICTURES </s>
-1.016926	PLACE NOT
-1.016926	PLACE THAT
-0.7158962	PLAN </s>
-0.7158962	PLANNED IS
-1.414866	PLAY </s>
-1.414866	PLAY DATE
-1.414866	PLAY GOLF
-1.414866	PLAY IN
-1.414866	PLAY THERE
-0.7158962	PLAYED WITH
-1.016926	PLAYING A
-1.016926	PLAYING AT
-0.7158962	PLUMBER TO
-0.7158962	POINT SEVEN
-0.7158962	POOP AND
-0.7158962	POWER WASH
-0.7158962	POWERFUL HOSE
-0.7158962	PRETTY MUCH
-0.7158962	PRINCESS </s>
-1.494048	PROBABLY A
-1.494048	PROBABLY AND
-1.494048	PROBABLY CLEANING
-1.494048	PROBABLY SATURDAY
-1.494048	PROBABLY TAKE
-1.494048	PROBABLY THE
-1.016926	PROBLEM ACTUALLY
-1.016926	PROBLEM YOU
-0.7158962	PROFESSOR SO
-0.7158962	PROGRAMING SO
-1.016926	PROOF </s>
-1.016926	PROOF FROM
-0.7158962	PROPERTY MANGERS
-0.7158962	PROPHYLACTIC PURPOSES
-0.7158962	PULLS ME
-0.7158962	PURPOSES </s>
-0.7158962	PUT ME
-0.7158962	QUARTER INCH
-0.7158962	QUICK TRIP
-0.7158962	QUICKEN LOANS
-0.7158962	QUIZZES OVER
-0.7158962	RACE TRACK
-0.7158962	RAISED </s>
-0.7158962	RAY DONAVAN
-0.7158962	READ </s>
-0.7158962	READING A
-0.7158962	REAL BIG
-1.016926	REALLY NEAT
-1.016926	REALLY NICE
-0.7158962	REALTOR SAID
-0.7158962	REASON </s>
-0.7158962	RECEPTION </s>
-0.7158962	RECOMMEND IT
-0.7158962	RED PANDAS
-1.193017	REHEARSAL THAT
-1.193017	REHEARSAL THEN
-1.193017	REHEARSAL UM
-0.7158962	RELATIONSHIP HE'S
-1.193017	RELATOR ABOUT
-1.193017	RELATOR SAID
-1.193017	RELATOR THAT
-0.7158962	RELIGIOUS TYPE
-0.7158962	REMEMBER WHICH
-0.7158962	RESIDENTIAL </s>
-0.7158962	REUPHOLSTERING OUR
-0.7158962	RID OF
-0.7158962	RIDE BIKE
-0.8467108	RIGHT </s>
-1.560994	RIGHT EXACTLY
-0.5228162	RIGHT NOW
-1.560994	RIGHT RIGHT
-0.7158962	ROAD </s>
-0.7158962	ROCHESTER HILLS
-0.7158962	ROTATOR CUFF
-0.7158962	ROYAL OAK
-0.7158962	SAGINAW </s>
-0.7005828	SAID OH
-0.7005828	SAID THAT
-1.414866	SAID THERE'S
-0.7158962	SAINT PETE
-0.7158962	SALE </s>
-0.7158962	SALVATION ARMY
-0.7158962	SAME EXACT
-0.7158962	SARASOTA SO
-1.193017	SATURDAY </s>
-1.193017	SATURDAY MORNING
-1.193017	SATURDAY NIGHT
-0.7158962	SAW AN
-1.016926	SCHOOL </s>
-1.016926	SCHOOL AND
-1.414866	SEE A
-1.414866	SEE FAMILY
-1.414866	SEE MY
-1.414866	SEE THAT
-1.414866	SEE THEM
-0.7158962	SEEN THAT
-0.478734	SELL IT
-1.193017	SELL THE
-0.7158962	SELLING IT
-0.7158962	SEMESTER FOR
-1.317956	SEVEN </s>
-1.317956	SEVEN QUIZZES
-0.6036727	SEVEN SEVEN
-1.016926	SHE HAD
-1.016926	SHE WAS
-1.016926	SHOULD BE
-1.016926	SHOULD GO
-0.7158962	SHOULDER SURGERY
-0.7158962	SHOWER FOR
-1.016926	SHOWS </s>
-1.016926	SHOWS I
-0.7158962	SHUT DOWN
-0.3026428	SICK TIME
-0.7158962	SILLY AND
-0.7158962	SISTERS THAT
-0.7158962	SIT THERE
-0.7158962	SITUATION IT'S
-0.7158962	SLUSH YA'LL
-0.7158962	SMALL LIST
-1.344477	SO </s>
-2.479324	SO AN
-1.765041	SO AND
-2.479324	SO BETWEEN
-2.479324	SO BUSY
-2.479324	SO COOL
-2.479324	SO DEPRESSION
-2.479324	SO HE'LL
-2.479324	SO HE'S
-2.479324	SO HOLIDAYS
-1.631983	SO I
-2.479324	SO I'LL
-2.479324	SO I'M
-1.631983	SO IT
-1.344477	SO IT'S
-2.479324	SO ITS
-2.479324	SO MUCH
-2.479324	SO NO
-2.479324	SO NOW
-2.479324	SO THAT
-1.441146	SO THAT'S
-2.479324	SO THE
-2.479324	SO THEN
-1.441146	SO THEY
-2.479324	SO THIS
-2.479324	SO UM
-1.631983	SO WE
-2.479324	SO WE'LL
-2.479324	SO WE'RE
-1.765041	SO YEAH
-2.479324	SO YES
-1.193017	SOME FRIENDS
-1.193017	SOME PLACE
-1.193017	SOME RELIGIOUS
-1.016926	SOMEBODY </s>
-1.016926	SOMEBODY THAT
-0.7158962	SOMETHING RIGHT
-0.7158962	SOMETIME </s>
-0.7158962	SORRY </s>
-1.016926	SOUTH DO
-1.016926	SOUTH OF
-0.7158962	STARED AT
-0.7158962	START ON
-1.016926	STARTED A
-1.016926	STARTED GOING
-0.3026428	STARTS AT
-0.7158962	STAY </s>
-1.016926	STILL MAINTENANCE
-1.016926	STILL RIDE
-1.016926	STRESS OF
-1.016926	STRESS THERE'S
-0.7158962	STRESSFUL </s>
-0.7158962	STUDY ERR
-0.6036727	STUFF </s>
-1.317956	STUFF AND
-1.317956	STUFF GOING
-0.7158962	STUMBLE OCCASIONALLY
-0.7158962	SUICIDE SO
-1.016926	SUNDAY I'M
-1.016926	SUNDAY MORNING
-0.7158962	SUPPLIES AND
-1.494048	SURE AND
-0.779764	SURE HE
-1.494048	SURE WHERE
-1.494048	SURE YET
-1.494048	SURE YOU
-0.7158962	SURGERY </s>
-0.7158962	SWEET LITTLE
-0.7158962	SYMPTOMS YOU
-0.7158962	TAKE A
-0.7158962	TALK AND
-0.3026428	TALKED TO
-0.3026428	TAMPA </s>
-1.016926	TEACH AND
-1.016926	TEACH THREE
-1.016926	TEN AND
-1.016926	TEN HOURS
-0.7158962	TERRIBLE </s>
-1.193017	TEST </s>
-1.193017	TEST FOR
-1.193017	TEST THAT
-0.7158962	THANK YOU
-1.182868	THAT </s>
-2.221046	THAT ARE
-2.221046	THAT BUT
-2.221046	THAT EVERYONE
-2.221046	THAT HERE
-0.60206	THAT I
-2.221046	THAT I'M
-1.506763	THAT IS
-2.221046	THAT JUST
-2.221046	THAT LIVE
-2.221046	THAT MONDAY
-2.221046	THAT MUCH
-2.221046	THAT ON
-2.221046	THAT SHE
-2.221046	THAT SO
-1.506763	THAT THEY
-2.221046	THAT WAS
-2.221046	THAT WEREN'T
-2.221046	THAT WILL
-2.221046	THAT YEAH
-2.221046	THAT YOU'RE
-1.560994	THAT'S GOOD
-1.560994	THAT'S HOLIDAY
-1.560994	THAT'S KIND
-1.560994	THAT'S NOT
-1.560994	THAT'S THAT'S
-1.560994	THAT'S THE
-1.560994	THAT'S YEAH
-2.59671	THE ANIMALS
-2.59671	THE AUDITING
-2.59671	THE BANK
-2.59671	THE BASEMENT
-2.59671	THE BEAVERS
-2.59671	THE BIG
-2.59671	THE CREDIT
-1.882426	THE DEPRESSION
-1.558532	THE DETROIT
-2.59671	THE DISEASE
-2.59671	THE DNA
-1.558532	THE DRAINS
-2.59671	THE ELEMENTARY
-2.59671	THE EQUITY
-2.59671	THE EVEN
-2.59671	THE FAMILY
-2.59671	THE FIREWORKS
-2.59671	THE FORMULA
-2.59671	THE FOUR
-2.59671	THE GENE
-1.882426	THE HD
-1.181844	THE HOUSE
-2.59671	THE HURRICANE
-2.59671	THE I
-2.59671	THE INHERITANCE
-2.59671	THE LAKE
-2.59671	THE MAINTENANCE
-2.59671	THE MIDDLE
-2.59671	THE MOBILITY
-2.59671	THE MONEY
-2.59671	THE MOST
-2.59671	THE MOUNTAINS
-2.59671	THE NEUROLOGIST
-1.558532	THE NEXT
-2.59671	THE NIGHT
-2.59671	THE OCEAN
-1.882426	THE ONLY
-1.882426	THE OTHER
-2.59671	THE PETS
-2.59671	THE PLACE
-2.59671	THE PLUMBER
-2.59671	THE POWERFUL
-2.59671	THE RACE
-2.59671	THE RED
-2.59671	THE RELATOR
-2.59671	THE ROAD
-2.59671	THE SAME
-2.59671	THE SEMESTER
-2.59671	THE SHOWS
-2.59671	THE SO
-2.59671	THE STRESS
-2.59671	THE SUPPLIES
-2.59671	THE THE
-2.59671	THE TWO
-1.882426	THE WAY
-2.59671	THE WEDDING
-1.558532	THE WEEKEND
-2.59671	THE YOU
-2.59671	THE ZOO
-1.016926	THEIR JEWISH
-1.016926	THEIR MONEY
-1.317956	THEM </s>
-1.317956	THEM AT
-1.317956	THEM BACK
-1.317956	THEM EVERY
-1.795077	THEN </s>
-1.795077	THEN HIGH
-0.7568994	THEN I
-1.795077	THEN MONDAY
-1.795077	THEN PROBABLY
-1.795077	THEN THE
-1.795077	THEN TUES
-1.795077	THEN TUESDAY
-1.795077	THEN UM
-1.795077	THEN WE
-0.7158962	THERAPIST AT
-0.8238462	THERE </s>
-1.862024	THERE AGAIN
-1.147741	THERE AND
-1.862024	THERE BORING
-1.862024	THERE IS
-1.862024	THERE IT
-1.862024	THERE JUST
-1.147741	THERE LIKE
-1.862024	THERE NOT
-1.862024	THERE SOMETIME
-0.779764	THERE'S LIKE
-1.494048	THERE'S NO
-1.494048	THERE'S PROBABLY
-1.494048	THERE'S STILL
-1.494048	THERE'S TOO
-1.99465	THEY ALMOST
-1.147308	THEY ARE
-1.280366	THEY BASED
-1.99465	THEY DECIDE
-1.99465	THEY DECIDED
-1.99465	THEY DO
-1.280366	THEY HAD
-1.99465	THEY LIVE
-1.99465	THEY SAID
-1.99465	THEY TRUST
-1.99465	THEY WANT
-1.280366	THEY WERE
-1.99465	THEY WON
-1.016926	THEY'RE AMAZING
-1.016926	THEY'RE SO
-1.016926	THING </s>
-1.016926	THING I
-0.7158962	THINGS FOR
-1.494048	THINK AWAY
-1.494048	THINK IT
-1.494048	THINK SO
-1.494048	THINK THAT
-1.494048	THINK WE
-1.494048	THINK YOU'RE
-0.7158962	THIRTEEN AND
-1.414866	THIS CLASS
-1.414866	THIS FALLS
-0.3766881	THIS WEEKEND
-1.193017	THOUGH HE
-1.193017	THOUGH HOPEFULLY
-1.193017	THOUGH I
-0.7158962	THOUSAND DOLLARS
-1.193017	THREE CLASSES
-1.193017	THREE DAYS
-1.193017	THREE MONTHS
-1.193017	THROUGH AND
-1.193017	THROUGH SOMEBODY
-1.193017	THROUGH THERE
-0.6036727	TIME </s>
-0.6036727	TIME SO
-0.7158962	TIMES A
-1.358959	TO </s>
-1.682854	TO A
-2.397137	TO ADRIAN
-1.549796	TO BE
-2.397137	TO CANADA
-1.682854	TO COME
-2.397137	TO DRIVE
-2.397137	TO EVICT
-2.397137	TO FIX
-2.397137	TO FLORIDA
-2.397137	TO FORMULATE
-1.549796	TO GET
-1.358959	TO GO
-2.397137	TO HAVE
-2.397137	TO IT
-1.682854	TO MAKE
-1.682854	TO ME
-2.397137	TO MY
-2.397137	TO PETOSKEY
-2.397137	TO PICK
-2.397137	TO PLAY
-2.397137	TO PUT
-1.358959	TO SEE
-2.397137	TO SELL
-1.549796	TO THE
-2.397137	TO TO
-2.397137	TO USE
-2.397137	TO WALK
-2.397137	TO WHO
-0.7158962	TOLD </s>
-0.7158962	TOMORROW AND
-1.016926	TONIGHT </s>
-1.016926	TONIGHT TOMORROW
-1.317956	TOO BADLY
-1.317956	TOO HOT
-1.317956	TOO MUCH
-1.317956	TOO STRESS
-0.7158962	TOOK PICTURES
-0.7158962	TORE MY
-0.7158962	TORNADO </s>
-1.016926	TRACK </s>
-1.016926	TRACK OVER
-0.7158962	TREATMENT FACILITY
-1.016926	TRIP SO
-1.016926	TRIP TWO
-0.7158962	TROUBLE IT'S
-1.193017	TRUCKLOADS AND
-1.193017	TRUCKLOADS OF
-1.193017	TRUCKLOADS TRUCKLOADS
-0.7158962	TRUST </s>
-0.1548394	TRYING TO
-0.7158962	TUES THEN
-1.016926	TUESDAY I
-1.016926	TUESDAY THEN
-0.7158962	TURNED THIRTEEN
-0.7158962	TV SHOWS
-0.7158962	TWELVE </s>
-0.8467108	TWO </s>
-1.560994	TWO GIRLS
-1.560994	TWO GRAND
-1.560994	TWO OUT
-1.560994	TWO SISTERS
-1.560994	TWO THOUSAND
-0.7158962	TYPE THING
-1.317956	UH DOING
-1.317956	UH I
-1.317956	UH SARASOTA
-1.317956	UH VERY
-0.7158962	UHH HE'LL
-1.757289	UM BECAUSE
-1.757289	UM BUT
-1.757289	UM GOT
-1.757289	UM HE
-1.757289	UM HE'S
-1.757289	UM JUST
-1.757289	UM SATURDAY
-1.757289	UM WENT
-1.757289	UM YEAH
-1.757289	UM YES
-1.757289	UM YOU
-1.016926	UMM NO
-1.016926	UMM THE
-0.7158962	UNCLE INVITED
-0.7158962	UNDER MY
-0.7158962	UNION WE
-1.016926	UNPACKED EVERYTHING
-1.016926	UNPACKED YET
-1.618986	UP </s>
-1.618986	UP AND
-1.618986	UP BECAUSE
-1.618986	UP COMING
-1.618986	UP NORTH
-1.618986	UP SOME
-1.618986	UP TO
-1.618986	UP WALKING
-0.7158962	USE MY
-0.7158962	USED TO
-0.7158962	VACATIONS DAYS
-1.560994	VERY BUSY
-1.560994	VERY EXCITING
-1.560994	VERY GREAT
-1.560994	VERY HELPFUL
-1.560994	VERY SWEET
-0.8467108	VERY VERY
-0.7158962	VISITED WITH
-0.7158962	VP IT
-0.7158962	WABATONGUSHI </s>
-0.7158962	WAL MART
-1.016926	WALK AROUND
-1.016926	WALK WITHOUT
-0.7158962	WALKED AROUND
-0.3026428	WALKING AROUND
-0.7158962	WANT TO
-0.3026428	WANTED TO
-0.3026428	WANTS TO
-0.7158962	WARNING </s>
-1.323832	WAS </s>
-2.038116	WAS A
-2.038116	WAS AND
-2.038116	WAS EMPTIED
-1.323832	WAS FUN
-2.038116	WAS GETTING
-2.038116	WAS IT'S
-2.038116	WAS KIND
-2.038116	WAS LOTS
-2.038116	WAS ONE
-2.038116	WAS OUT
-2.038116	WAS READING
-1.323832	WAS REALLY
-2.038116	WAS THE
-2.038116	WAS TOO
-1.323832	WAS TWO
-2.038116	WAS UP
-0.7158962	WASH THE
-1.016926	WASTE A
-1.016926	WASTE THEIR
-0.7158962	WAWA ONTARIO
-1.414866	WAY IT
-1.414866	WAY MORE
-1.414866	WAY NORTH
-1.414866	WAY THE
-1.414866	WAY YOU'RE
-2.163054	WE ALSO
-1.124876	WE ARE
-2.163054	WE COULD
-2.163054	WE COULDN'T
-2.163054	WE DID
-2.163054	WE DO
-2.163054	WE DROVE
-2.163054	WE GOT
-1.315713	WE HAD
-2.163054	WE HAVE
-2.163054	WE JUST
-2.163054	WE KIND
-2.163054	WE MET
-2.163054	WE SAW
-2.163054	WE STARTED
-2.163054	WE TOOK
-2.163054	WE WALKED
-1.124876	WE WENT
-1.448771	WE WERE
-2.163054	WE WILL
-0.7158962	WE'LL JUST
-1.016926	WE'RE GOOD
-1.016926	WE'RE WORKING
-1.016926	WE'VE BEEN
-1.016926	WE'VE HAD
-1.414866	WEDDING </s>
-1.414866	WEDDING AND
-1.414866	WEDDING I
-1.414866	WEDDING IN
-1.414866	WEDDING RECEPTION
-1.193017	WEEK </s>
-0.478734	WEEK AND
-0.2353089	WEEKEND </s>
-1.618986	WEEKEND PROBABLY
-1.618986	WEEKEND SO
-0.7158962	WEEKENDS BEFORE
-0.7158962	WEIRD SITUATION
-1.670139	WELL AND
-0.9558553	WELL I
-0.9558553	WELL I'M
-1.670139	WELL IT
-1.670139	WELL IT'S
-1.670139	WELL RIGHT
-1.670139	WELL THE
-1.560994	WENT DOWN
-1.560994	WENT FROM
-1.560994	WENT THROUGH
-0.713653	WENT TO
-1.560994	WERE ALL
-1.560994	WERE ANTICIPATING
-1.560994	WERE OUT
-1.560994	WERE THE
-1.560994	WERE THERE
-1.560994	WERE TURNED
-1.560994	WERE UP
-1.016926	WEREN'T IN
-1.016926	WEREN'T OUT
-1.193017	WHAT ELSE
-1.193017	WHAT I'VE
-1.193017	WHAT YOU
-0.7158962	WHATEVER YEAH
-0.7158962	WHEELCHAIR ANYWAY
-0.7005828	WHEN I
-1.414866	WHEN THERE'S
-1.414866	WHEN WE
-1.414866	WHEN YOUR
-0.7158962	WHENEVER YOU
-1.618986	WHERE DID
-1.618986	WHERE HE
-1.618986	WHERE I
-1.618986	WHERE I'M
-1.618986	WHERE IT
-1.618986	WHERE THAT
-1.618986	WHERE WE
-1.618986	WHERE YOU
-0.7158962	WHICH ONE
-1.016926	WHILE I
-1.016926	WHILE WE
-0.7158962	WHITMORE LAKE
-1.193017	WHO IS
-1.193017	WHO SAID
-1.193017	WHO WOULD
-0.7158962	WHY ARE
-1.016926	WILL PROBABLY
-1.016926	WILL STAY
-1.715896	WITH FRIENDS
-1.715896	WITH HER
-1.715896	WITH KIDS
-1.715896	WITH MY
-1.715896	WITH POOP
-1.715896	WITH THAT
-0.8685549	WITH THE
-0.7158962	WITHOUT FALLING
-0.7158962	WON </s>
-0.7158962	WON'T BE
-1.193017	WORK BUT
-1.193017	WORK PROBABLY
-1.193017	WORK SATURDAY
-1.414866	WORKING </s>
-1.414866	WORKING AT
-1.414866	WORKING I
-1.414866	WORKING ON
-1.414866	WORKING TEN
-0.7158962	WORKS </s>
-0.7158962	WOULD DO
-0.7158962	WRITING A
-0.7158962	YA'LL ARE
-0.3340303	YEAH </s>
-2.32868	YEAH ABSOLUTELY
-1.614397	YEAH AND
-1.614397	YEAH I'M
-2.32868	YEAH IN
-2.32868	YEAH IT
-1.614397	YEAH IT'S
-2.32868	YEAH NO
-1.481339	YEAH SO
-2.32868	YEAH THAT
-2.32868	YEAH THE
-2.32868	YEAH THERE'S
-1.290502	YEAH WE
-2.32868	YEAH WELL
-2.32868	YEAH YEP
-0.4558694	YEAR </s>
-0.779764	YEAR AGO
-1.494048	YEAR AND
-0.7158962	YEARS OLD
-0.7158962	YEP </s>
-0.3357921	YES </s>
-2.13087	YES IF
-1.092691	YES IT
-2.13087	YES IT'S
-1.416586	YES MY
-2.13087	YES OH
-2.13087	YES THERE
-2.13087	YES THEY'RE
-2.13087	YES TWO
-2.13087	YES YEAH
-1.416586	YES YES
-0.6036727	YET </s>
-1.317956	YET BUT
-1.317956	YET TO
-2.207258	YOU ALL
-2.207258	YOU AND
-2.207258	YOU BACK
-2.207258	YOU CAN
-1.492975	YOU COULD
-2.207258	YOU DIDN'T
-2.207258	YOU DON'T
-2.207258	YOU GET
-2.207258	YOU GUYS
-1.492975	YOU HAVE
-2.207258	YOU HERE
-2.207258	YOU I'M
-2.207258	YOU JUST
-0.4913617	YOU KNOW
-2.207258	YOU MAY
-2.207258	YOU MOVE
-2.207258	YOU PAID
-2.207258	YOU SHOULD
-2.207258	YOU WEREN'T
-2.207258	YOU WON'T
-1.193017	YOU'RE DEPRESSED
-1.193017	YOU'RE GOING
-1.193017	YOU'RE NOT
-1.016926	YOUR GROWN
-1.016926	YOUR INCOME
-1.193017	YUP </s>
-1.193017	YUP IT
-1.193017	YUP NO
-1.016926	ZOO </s>
-1.016926	ZOO AND

\end\
