
\data\
ngram 1=655
ngram 2=1850

\1-grams:
-3.398461	17	-0.07726826
-3.398461	18	-0.04820513
-2.92134	300	-0.02505574
-3.398461	6	-0.09353852
-3.398461	600	-0.09353852
-3.398461	96	-0.09353852
-3.398461	96TH	-0.09353852
-1.002262	</s>
-99	<s>	-0.2767995
-3.097431	<unk>	-0.08917721
-1.553363	A	-0.1493879
-2.796401	ABOUT	-0.09232177
-3.398461	ABSOLUTELY	-0.04820513
-3.398461	ACCESSIBLE	-0.07726826
-2.699491	ACTUALLY	-0.1440993
-3.398461	ADRIAN	-0.09249579
-3.398461	AFTER	-0.09284364
-3.398461	AGAIN	-0.09162494
-2.92134	AGO	-0.08565637
-3.398461	ALCOHOL	-0.09353852
-2.495371	ALL	-0.1636272
-3.097431	ALMOST	-0.09336489
-3.398461	ALONG	-0.08103617
-2.92134	ALSO	-0.0904028
-3.398461	ALWAYS	-0.09266976
-3.097431	AM	-0.08049988
-3.097431	AMAZING	-0.04238598
-2.796401	AN	-0.1858836
-1.429978	AND	-0.03787369
-3.398461	ANIMALS	-0.09249579
-3.398461	ANOTHER	-0.09319122
-3.398461	ANTI	-0.09353852
-3.398461	ANTICIPATING	-0.09353852
-3.398461	ANTIDEPRESSANTS	-0.09145056
-3.097431	ANY	-0.09284363
-3.398461	ANYONE	-0.09319122
-3.398461	ANYTHING	-0.0904028
-3.398461	ANYWAY	-0.04820513
-3.398461	APPEAR	-0.09319122
-3.398461	APPOINTMENTS	-0.04820513
-2.398461	ARE	-0.09971948
-3.398461	AREA	-0.04820513
-3.398461	ARMY	-0.04820513
-2.796401	AROUND	-0.06613424
-3.097431	AS	-0.0861863
-2.284518	AT	-0.0996808
-3.398461	AUDITING	-0.09353852
-3.398461	AUNT	-0.09319122
-3.097431	AWAY	-0.0893525
-2.62031	BACK	-0.224931
-3.398461	BAD	-0.09353852
-3.398461	BADLY	-0.04820513
-3.097431	BANK	-0.07690768
-2.92134	BASED	-0.212714
-3.398461	BASEMENT	-0.08847533
-3.398461	BASICALLY	-0.09110159
-3.398461	BATH	-0.07726826
-3.398461	BATTLE	-0.09353852
-2.168012	BE	-0.07880725
-3.398461	BEACH	-0.04820513
-3.398461	BEAVERS	-0.04820513
-2.398461	BECAUSE	-0.2498109
-3.398461	BED	-0.09353852
-2.796401	BEEN	-0.1834437
-2.92134	BEFORE	-0.02809348
-2.699491	BEING	-0.276631
-3.398461	BELONGS	-0.04820513
-3.097431	BETWEEN	-0.2921837
-3.097431	BEYOND	-0.04238598
-2.699491	BIG	-0.09284365
-3.398461	BIKE	-0.04820513
-3.398461	BIRTHDAY	-0.0933649
-3.398461	BLAST	-0.08653926
-3.398461	BORING	-0.09353852
-3.398461	BORN	-0.07726826
-3.398461	BOTHER	-0.04820513
-3.398461	BRASS	-0.09353852
-3.398461	BRING	-0.09301747
-2.92134	BUNCH	-0.502443
-3.097431	BUSY	-0.08829966
-2.056038	BUT	-0.05531231
-3.398461	BUYING	-0.09319122
-3.097431	CALLED	-0.09145054
-2.495371	CAN	-0.03628984
-3.398461	CAN'T	-0.08847533
-3.398461	CANADA	-0.09301747
-3.398461	CAROLINA	-0.09232176
-2.92134	CASH	-0.07726826
-3.398461	CATCH	-0.09232176
-2.796401	CAUSE	-0.07292166
-3.398461	CENTERVILLE	-0.09353852
-3.398461	CENTRAL	-0.09162494
-3.398461	CHAUFFEUR	-0.0933649
-3.398461	CLASS	-0.04820513
-3.398461	CLASSES	-0.07726826
-3.398461	CLEANED	-0.09249579
-3.398461	CLEANING	-0.04820513
-2.92134	COLLEGE	-0.1587349
-3.097431	COME	-0.08847532
-3.097431	COMING	-0.09232175
-3.398461	COMMERCIAL	-0.08653926
-3.398461	COMMITTED	-0.09353852
-3.398461	COMMUNITY	-0.09319122
-3.398461	COMPANIES	-0.08847533
-3.398461	COMPLETELY	-0.09249579
-3.398461	COMPUTER	-0.09353852
-3.398461	COMPUTERS	-0.08370767
-3.097431	CONE	-0.2593527
-3.398461	CONTRACTORS	-0.07726826
-3.398461	COOL	-0.04820513
-3.398461	COUCH	-0.09284364
-2.796401	COULD	-0.08424
-3.097431	COULDN'T	-0.09266974
-3.097431	COUPLE	-0.09266974
-3.398461	CRAZY	-0.04820513
-3.398461	CREDIT	-0.09353852
-3.398461	CREEK	-0.04820513
-3.398461	CRYSTAL	-0.04820513
-3.398461	CUFF	-0.08724429
-3.398461	CURRENTLY	-0.09145056
-3.398461	DAD'S	-0.0933649
-3.398461	DATE	-0.08987798
-3.398461	DAY	-0.09145056
-2.699491	DAYS	-0.02708327
-3.398461	DEAL	-0.0904028
-3.398461	DEALING	-0.09197349
-3.398461	DECIDE	-0.0904028
-3.398461	DECIDED	-0.09110159
-2.92134	DEFINITELY	-0.03390688
-3.398461	DELTA	-0.09319122
-3.398461	DEPARTMENT	-0.04820513
-3.398461	DEPRESSANTS	-0.09197349
-2.92134	DEPRESSED	-0.04724067
-2.92134	DEPRESSION	-0.08049989
-2.92134	DETROIT	-0.2218463
-3.398461	DID	-0.08847533
-3.097431	DIDN'T	-0.09336489
-3.398461	DIED	-0.07726826
-3.398461	DIFFERENCE	-0.0933649
-3.398461	DIFFERENT	-0.09319122
-3.398461	DIRT	-0.0933649
-3.097431	DISABILITY	-0.2593527
-3.398461	DISASTER	-0.09353852
-3.398461	DISEASE	-0.09353852
-3.398461	DNA	-0.09353852
-2.62031	DO	-0.02990597
-3.398461	DOCTORS	-0.09353852
-3.398461	DOES	-0.04820513
-3.398461	DOESN'T	-0.09353852
-3.398461	DOG	-0.07726826
-2.92134	DOING	-0.07600498
-3.398461	DOLLARS	-0.08547957
-2.284518	DON'T	-0.2144196
-2.699491	DOWN	-0.1085298
-3.398461	DOWNTOWN	-0.0933649
-2.92134	DRAINS	-0.07690769
-3.097431	DRIVE	-0.09179924
-3.097431	DRIVING	-0.09214765
-3.398461	DROVE	-0.09232176
-3.398461	DRUG	-0.07726826
-3.398461	EACH	-0.04820513
-2.92134	EIGHT	-0.09075233
-3.097431	ELEMENTARY	-0.07690768
-3.398461	EM	-0.08987798
-3.398461	EMBARRASSING	-0.04820513
-3.398461	EMPTIED	-0.09145056
-3.398461	ENDED	-0.09232176
-3.097431	ENOUGH	-0.07546244
-3.398461	EQUITY	-0.09110159
-3.398461	ERR	-0.09319122
-3.398461	ERUPTED	-0.09197349
-2.796401	EVEN	-0.184491
-3.097431	EVERY	-0.09284363
-3.398461	EVERYBODY	-0.0904028
-3.398461	EVERYONE	-0.09353852
-3.097431	EVERYTHING	-0.082463
-3.398461	EVERYWHERE	-0.08987798
-3.398461	EVICT	-0.09353852
-3.398461	EXACT	-0.09353852
-2.796401	EXACTLY	-0.3501005
-3.398461	EXCITED	-0.04820513
-3.398461	EXCITING	-0.04820513
-3.398461	EXERCISE	-0.04820513
-3.398461	FACILITY	-0.04820513
-3.398461	FALLING	-0.09284364
-3.398461	FALLS	-0.09353852
-2.92134	FAMILY	-0.02607068
-3.398461	FAN	-0.09353852
-3.398461	FANCY	-0.09353852
-3.398461	FEEL	-0.08847533
-3.398461	FEES	-0.09319122
-3.097431	FESTIVAL	-0.07510038
-3.398461	FIELD	-0.08547957
-3.398461	FIFTY	-0.09284364
-3.398461	FIND	-0.09353852
-3.398461	FIREWORKS	-0.07726826
-2.92134	FIRST	-0.08952774
-3.398461	FISHING	-0.09353852
-3.398461	FIVE	-0.04820513
-3.398461	FIX	-0.08653926
-2.92134	FLORIDA	-0.03767389
-3.398461	FOOD	-0.09284364
-2.284518	FOR	-0.1316344
-3.398461	FORGOT	-0.08847533
-3.398461	FORMULA	-0.07726826
-3.398461	FORMULATE	-0.08139332
-3.398461	FORT	-0.09353852
-3.398461	FORTY	-0.04820513
-3.398461	FOUND	-0.09249579
-3.398461	FRESHMAN	-0.09022793
-3.097431	FRIDAY	-0.07834813
-3.097431	FRIENDS	-0.04588681
-2.31928	FROM	-0.1816175
-2.62031	FUN	-0.1918918
-3.398461	GAME	-0.04820513
-3.398461	GARAGE	-0.09353852
-3.398461	GAY	-0.09353852
-3.398461	GENE	-0.04820513
-2.284518	GET	-0.1775954
-3.398461	GETS	-0.09353852
-2.92134	GETTING	-0.2096864
-3.398461	GIFTS	-0.04820513
-3.398461	GIRLS	-0.04820513
-3.097431	GIVE	-0.08032098
-3.398461	GIVING	-0.09301747
-2.553363	GO	-0.07582422
-3.398461	GOES	-0.04820513
-2.444218	GOING	-1.037061
-3.398461	GONE	-0.09249579
-2.699491	GOOD	-0.2444879
-2.553363	GOT	-0.1196968
-3.398461	GRADUATING	-0.09284364
-3.398461	GRAND	-0.04820513
-2.796401	GREAT	-0.04685429
-3.398461	GROWN	-0.08547957
-2.357068	HAD	-0.2385009
-3.097431	HALF	-0.09075232
-3.398461	HANDICAP	-0.09353852
-3.398461	HAPPENS	-0.09301747
-3.398461	HAPPY	-0.04820513
-3.097431	HARD	-0.08494875
-3.398461	HAS	-0.08103617
-2.076241	HAVE	-0.2218892
-3.398461	HAVEN'T	-0.09301747
-3.097431	HAVING	-0.2921837
-3.097431	HD	-0.02990597
-2.31928	HE	-0.1470752
-3.097431	HE'LL	-0.3018999
-2.699491	HE'S	-0.1415349
-3.398461	HELP	-0.07726826
-3.398461	HELPFUL	-0.04820513
-3.097431	HER	-0.09266974
-2.92134	HERE	-0.1766485
-3.398461	HIGH	-0.0933649
-3.398461	HILLS	-0.04820513
-3.398461	HIRE	-0.0933649
-3.097431	HISTORY	-0.04413992
-3.097431	HOLIDAY	-0.0853027
-3.398461	HOLIDAYS	-0.09145056
-3.097431	HOME	-0.09005298
-3.398461	HONEY	-0.09353852
-3.097431	HOPEFULLY	-0.0833524
-3.398461	HOSE	-0.07726826
-3.398461	HOT	-0.04820513
-3.097431	HOUR	-0.04781958
-3.398461	HOURS	-0.08139332
-2.62031	HOUSE	-0.0679292
-3.398461	HOUSES	-0.09353852
-3.398461	HOW	-0.08547957
-3.398461	HOWEVER	-0.04820513
-3.398461	HUNDRED	-0.04820513
-3.398461	HURRICANE	-0.04820513
-3.398461	HUSBAND	-0.09075233
-1.469042	I	-0.3603283
-2.92134	I'LL	-0.2183566
-2.036733	I'M	-0.1493838
-3.097431	I'VE	-0.304165
-3.097431	IDEA	-0.04685427
-2.495371	IF	-0.2093678
-3.398461	IMMEDIATELY	-0.09266976
-2.097431	IN	-0.07230641
-3.398461	INAUDIBLE	-0.04820513
-3.398461	INCH	-0.09005299
-3.097431	INCOME	-0.3018999
-3.398461	INDIVIDUAL	-0.04820513
-3.398461	INHERITANCE	-0.07726826
-3.097431	INSIDE	-0.06687313
-3.398461	INSTRUMENTS	-0.04820513
-3.398461	INTO	-0.09353852
-3.398461	INVITED	-0.09266976
-2.168012	IS	-0.09307279
-3.398461	ISN'T	-0.09353852
-3.398461	ISSUE	-0.09353852
-2.92134	ISSUES	-0.2039293
-1.785677	IT	-0.2309195
-3.398461	IT'LL	-0.09075233
-1.830259	IT'S	-0.170713
-3.097431	ITS	-0.09301745
-3.097431	JAZZ	-0.3045124
-3.097431	JEFF	-0.3045124
-3.398461	JEWISH	-0.08370767
-3.398461	JOANNE'S	-0.07726826
-3.398461	JOB	-0.08847533
-3.097431	JUNE	-0.04762669
-3.398461	JUNIOR	-0.04820513
-2.22237	JUST	-0.04355606
-3.398461	KIDS	-0.07726826
-2.92134	KIND	-0.502443
-3.398461	KINDA	-0.09353852
-2.036733	KNOW	-0.0797492
-3.398461	LADY	-0.04820513
-3.097431	LAKE	-0.04781958
-3.097431	LANDLORD	-0.2983918
-2.92134	LAST	-0.09266976
-3.398461	LAUDERDALE'S	-0.0904028
-3.398461	LECTURE	-0.07726826
-3.398461	LEFT	-0.09249579
-3.398461	LEGAL	-0.09353852
-3.398461	LESS	-0.0904028
-2.119707	LIKE	-0.08195305
-3.398461	LIONS	-0.09353852
-3.398461	LIONS'	-0.09353852
-3.398461	LIST	-0.09005299
-3.097431	LITTLE	-0.09336489
-3.097431	LIVE	-0.09005298
-2.796401	LOAN	-0.08847534
-3.097431	LOANS	-0.04685427
-3.398461	LOCATION	-0.07870751
-3.398461	LONG	-0.09301747
-3.398461	LOOK	-0.09145056
-3.097431	LOOKED	-0.08812395
-3.398461	LOST	-0.09319122
-3.398461	LOT	-0.09005299
-3.398461	LOTS	-0.09005299
-3.398461	LOVE	-0.08653926
-3.097431	LOVES	-0.08636281
-2.92134	MAINTENANCE	-0.2218463
-3.097431	MAKE	-0.09232175
-3.398461	MAKING	-0.08653926
-3.398461	MANGERS	-0.07726826
-2.92134	MARRIED	-0.1749094
-3.398461	MART	-0.0904028
-3.398461	MAY	-0.09005299
-3.097431	MAYBE	-0.08917721
-3.398461	MCKENZIE	-0.0933649
-2.62031	ME	-0.06279348
-3.398461	MEAN	-0.08847533
-3.398461	MET	-0.09145056
-3.398461	MHM	-0.08917722
-2.699491	MHMM	-0.3680778
-3.097431	MIDDLE	-0.04413992
-3.097431	MIGHT	-0.3018999
-3.398461	MILES	-0.09162494
-3.398461	MILLER	-0.07726826
-3.398461	MOBILITY	-0.07726826
-3.398461	MODERATELY	-0.09353852
-3.097431	MONDAY	-0.04762669
-2.796401	MONEY	-0.04179978
-3.398461	MONTH	-0.08653926
-3.398461	MONTHS	-0.0933649
-3.398461	MOON	-0.07726826
-3.097431	MORE	-0.09022792
-2.92134	MORNING	-0.2033856
-3.398461	MOST	-0.09266976
-3.398461	MOSTLY	-0.09022793
-3.398461	MOUNTAINS	-0.08547957
-3.398461	MOVE	-0.09162494
-3.398461	MOVED	-0.09022793
-3.398461	MOVIE	-0.0933649
-3.398461	MOVING	-0.09266976
-2.796401	MUCH	-0.07054896
-3.097431	MUSIC	-0.09301745
-3.398461	MUSICIAN	-0.08970289
-2.252333	MY	-0.044723
-3.398461	NEAR	-0.0933649
-3.398461	NEAT	-0.04820513
-3.398461	NEED	-0.08689192
-3.398461	NEUROLOGIST	-0.08847533
-3.398461	NEW	-0.09353852
-2.699491	NEXT	-0.1640868
-2.92134	NICE	-0.1766485
-3.398461	NIECE	-0.09075233
-3.398461	NIECES	-0.09022793
-3.097431	NIGHT	-0.04762669
-3.398461	NINE	-0.09353852
-2.097431	NO	-0.1152051
-2.92134	NORTH	-0.04588682
-3.398461	NORTHEAST	-0.09284364
-3.398461	NORTHWEST	-0.09005299
-2.076241	NOT	-0.1506231
-3.097431	NOTHING	-0.09232175
-2.553363	NOW	-0.1171183
-3.398461	O'CLOCK	-0.08724429
-3.398461	OCCASIONAL	-0.09353852
-3.398461	OCCASIONALLY	-0.08987798
-3.398461	OCEAN	-0.08653926
-2.076241	OF	-0.07263701
-3.398461	OFF	-0.08370767
-2.357068	OH	-0.1715436
-3.398461	OK	-0.04820513
-2.699491	OKAY	-0.5764694
-3.097431	OLD	-0.2593527
-2.22237	ON	-0.1901917
-2.31928	ONE	-0.1753835
-3.097431	ONES	-0.07564336
-2.92134	ONLY	-0.09266976
-3.398461	ONTARIO	-0.04820513
-2.699491	OR	-0.0897029
-3.398461	ORLANDO	-0.04820513
-2.796401	OTHER	-0.08952775
-3.398461	OUR	-0.09353852
-2.553363	OUT	-0.006793171
-2.699491	OVER	-0.274826
-3.097431	OVERPAID	-0.04569305
-3.097431	OVERWHELMING	-0.04781958
-2.796401	PAID	-0.3601292
-3.398461	PALM	-0.09353852
-3.398461	PANDAS	-0.04820513
-3.398461	PARENTS	-0.09353852
-3.398461	PART	-0.09005299
-3.398461	PARTNER'S	-0.08139332
-3.398461	PARTY	-0.08370767
-3.398461	PAY	-0.08847533
-3.398461	PEACEFUL	-0.0933649
-3.398461	PEOPLE	-0.04820513
-3.398461	PERHAPS	-0.09301747
-3.398461	PETE	-0.04820513
-3.398461	PETOSKEY	-0.09249579
-3.398461	PETS	-0.07726826
-3.398461	PICK	-0.09232176
-3.398461	PICTURES	-0.04820513
-3.097431	PLACE	-0.08477166
-3.398461	PLAN	-0.04820513
-3.097431	PLANNED	-0.08970287
-2.92134	PLAY	-0.04530531
-3.398461	PLAYED	-0.09197349
-3.097431	PLAYING	-0.07906657
-3.398461	PLUMBER	-0.08547957
-3.398461	POINT	-0.09301747
-3.398461	POOP	-0.07726826
-3.398461	POWER	-0.09353852
-3.398461	POWERFUL	-0.09353852
-3.398461	PRETTY	-0.09301747
-3.398461	PRINCESS	-0.04820513
-2.62031	PROBABLY	-0.04993576
-3.097431	PROBLEM	-0.08759635
-3.398461	PROFESSOR	-0.08370767
-3.398461	PROGRAMING	-0.08370767
-3.097431	PROOF	-0.04588681
-3.398461	PROPERTY	-0.09353852
-3.398461	PROPHYLACTIC	-0.09353852
-3.398461	PULLS	-0.09266976
-3.398461	PURPOSES	-0.04820513
-3.398461	PUT	-0.09266976
-3.398461	QUARTER	-0.09353852
-3.398461	QUICKEN	-0.0933649
-3.398461	QUIZZES	-0.09284364
-3.398461	RACE	-0.0933649
-3.398461	RAISED	-0.04820513
-3.398461	REAL	-0.09284364
-3.097431	REALLY	-0.09301745
-3.398461	REALTOR	-0.09284364
-3.398461	REASON	-0.04820513
-3.398461	RECEPTION	-0.04820513
-3.398461	RED	-0.09353852
-2.92134	REHEARSAL	-0.0844173
-3.398461	RELATIONSHIP	-0.09284364
-2.92134	RELATOR	-0.08689192
-3.398461	REMEMBER	-0.09353852
-3.398461	RESIDENTIAL	-0.04820513
-3.398461	REUPHOLSTERING	-0.09353852
-3.398461	RID	-0.09005299
-3.398461	RIDE	-0.09353852
-2.62031	RIGHT	-0.173746
-3.398461	ROAD	-0.04820513
-3.398461	ROCHESTER	-0.09353852
-3.398461	ROTATOR	-0.09353852
-3.398461	SAGINAW	-0.04820513
-2.699491	SAID	-0.2452127
-3.398461	SAINT	-0.09353852
-3.398461	SALE	-0.04820513
-3.398461	SALVATION	-0.09353852
-3.398461	SAME	-0.09353852
-3.398461	SARASOTA	-0.08370767
-2.92134	SATURDAY	-0.04724067
-3.398461	SAW	-0.09301747
-3.097431	SCHOOL	-0.02990597
-2.699491	SEE	-0.07219298
-2.92134	SELL	-0.202478
-3.398461	SELLING	-0.08653926
-3.398461	SEMESTER	-0.09145056
-2.796401	SEVEN	-0.1401068
-3.097431	SHE	-0.08847532
-3.097431	SHOULD	-0.08952773
-3.398461	SHOULDER	-0.09353852
-3.398461	SHUT	-0.09284364
-3.097431	SICK	-0.304165
-3.398461	SILLY	-0.07726826
-3.398461	SISTERS	-0.08847533
-3.398461	SIT	-0.09127611
-3.398461	SITUATION	-0.08724429
-3.398461	SLUSH	-0.09353852
-3.398461	SMALL	-0.09353852
-1.642586	SO	-0.07829396
-3.097431	SOME	-0.09301745
-3.097431	SOMEBODY	-0.04238598
-3.398461	SOMETIME	-0.04820513
-3.398461	SORRY	-0.04820513
-3.097431	SOUTH	-0.08900183
-3.398461	STARED	-0.09145056
-3.398461	START	-0.09110159
-3.097431	STARTED	-0.07978381
-3.097431	STARTS	-0.3025981
-3.398461	STAY	-0.04820513
-3.097431	STILL	-0.09301745
-3.097431	STRESS	-0.0888264
-3.398461	STRESSFUL	-0.04820513
-3.398461	STUDY	-0.09353852
-2.796401	STUFF	-0.1209596
-3.398461	STUMBLE	-0.09353852
-3.398461	SUICIDE	-0.08370767
-3.097431	SUNDAY	-0.08917721
-3.398461	SUPPLIES	-0.07726826
-2.62031	SURE	-0.126897
-3.398461	SURGERY	-0.04820513
-3.398461	SWEET	-0.0933649
-3.398461	SYMPTOMS	-0.08847533
-3.398461	TAKE	-0.08139332
-3.398461	TALK	-0.07726826
-3.097431	TALKED	-0.2966271
-3.097431	TAMPA	-0.2593527
-3.097431	TEACH	-0.07672729
-2.92134	TEN	-0.07690769
-3.398461	TERRIBLE	-0.04820513
-2.92134	TEST	-0.03983996
-3.398461	THANK	-0.08847533
-1.92134	THAT	-0.1600729
-2.553363	THAT'S	-0.06705767
-1.541128	THE	-0.1176147
-3.097431	THEIR	-0.09284363
-2.796401	THEM	-0.04413994
-2.31928	THEN	-0.07926138
-3.398461	THERAPIST	-0.09145056
-2.252333	THERE	-0.1259234
-2.553363	THERE'S	-0.1228074
-2.119707	THEY	-0.1804903
-3.097431	THEY'RE	-0.0833524
-3.398461	THING	-0.07870751
-2.92134	THINGS	-0.02889998
-2.699491	THINK	-0.07600499
-3.398461	THIRTEEN	-0.07726826
-2.62031	THIS	-0.2119274
-2.92134	THOUGH	-0.07618567
-3.398461	THOUSAND	-0.09353852
-2.92134	THREE	-0.09249579
-2.92134	THROUGH	-0.07437536
-2.796401	TIME	-0.2482288
-3.398461	TIMES	-0.08139332
-1.726363	TO	-0.119789
-3.398461	TOLD	-0.04820513
-3.398461	TOMORROW	-0.07726826
-3.097431	TONIGHT	-0.04801239
-2.796401	TOO	-0.09232177
-3.398461	TOOK	-0.09353852
-3.398461	TORE	-0.09127611
-3.398461	TORNADO	-0.04820513
-3.097431	TRACK	-0.04724066
-3.398461	TREATMENT	-0.09353852
-3.398461	TRIP	-0.08370767
-3.398461	TROUBLE	-0.08724429
-2.92134	TRUCKLOADS	-0.07292165
-3.398461	TRUST	-0.04820513
-2.92134	TRYING	-0.4978696
-3.398461	TUES	-0.09162494
-3.097431	TUESDAY	-0.07654682
-3.398461	TURNED	-0.09353852
-3.398461	TWELVE	-0.04820513
-2.62031	TWO	-0.1070886
-2.62031	UH	-0.07618567
-3.398461	UHH	-0.0933649
-2.357068	UM	-0.06223419
-3.097431	UMM	-0.07744841
-3.398461	UNCLE	-0.09353852
-3.398461	UNDER	-0.09127611
-3.398461	UNION	-0.08952774
-3.097431	UNPACKED	-0.09232175
-2.495371	UP	-0.01643524
-3.398461	USE	-0.09127611
-3.398461	USED	-0.08547957
-3.398461	VACATIONS	-0.09284364
-3.398461	VARIETY	-0.04820513
-2.553363	VERY	-0.1415415
-3.398461	VISITED	-0.09197349
-3.398461	VP	-0.08653926
-3.398461	WABATONGUSHI	-0.04820513
-3.398461	WAL	-0.09353852
-3.097431	WALK	-0.09284363
-3.398461	WALKED	-0.09301747
-3.097431	WALKING	-0.304165
-3.398461	WANT	-0.08547957
-3.097431	WANTED	-0.2966271
-3.097431	WANTS	-0.2966271
-3.398461	WARNING	-0.04820513
-2.119707	WAS	-0.07288152
-3.398461	WASH	-0.08103617
-3.097431	WASTE	-0.08103616
-3.398461	WAWA	-0.09353852
-2.699491	WAY	-0.07219298
-2.01825	WE	-0.2110071
-3.398461	WE'LL	-0.09110159
-3.097431	WE'RE	-0.09197348
-3.097431	WE'VE	-0.09110157
-2.699491	WEDDING	-0.008063048
-2.92134	WEEK	-0.1587349
-2.495371	WEEKEND	-0.2863679
-3.398461	WEEKENDS	-0.09319122
-3.398461	WEIRD	-0.09353852
-2.553363	WELL	-0.09436524
-2.62031	WENT	-0.2409102
-2.553363	WERE	-0.07401239
-3.097431	WEREN'T	-0.08900183
-3.097431	WHAT	-0.08812394
-3.398461	WHATEVER	-0.08689192
-3.398461	WHEELCHAIR	-0.09353852
-2.699491	WHEN	-0.1453758
-3.398461	WHENEVER	-0.08847533
-2.553363	WHERE	-0.0533765
-3.398461	WHICH	-0.09162494
-3.097431	WHILE	-0.07437535
-3.398461	WHITMORE	-0.0933649
-2.92134	WHO	-0.08970289
-3.398461	WHOLE	-0.09319122
-3.398461	WHY	-0.09197349
-3.097431	WILL	-0.09249578
-2.398461	WITH	-0.1399456
-3.398461	WITHOUT	-0.09353852
-3.398461	WON	-0.04820513
-3.398461	WON'T	-0.09075233
-2.92134	WORK	-0.08829968
-2.699491	WORKING	-0.02525892
-3.398461	WORKS	-0.04820513
-3.398461	WOULD	-0.09266976
-3.398461	WRITING	-0.08139332
-3.398461	YA'LL	-0.09197349
-1.807396	YEAH	-0.3317161
-2.62031	YEAR	-0.2771689
-3.398461	YEARS	-0.0933649
-3.398461	YEP	-0.04820513
-1.983487	YES	-0.3970985
-2.62031	YET	-0.1546566
-1.92134	YOU	-0.2602522
-2.92134	YOU'RE	-0.08794817
-3.097431	YOUR	-0.09319121
-2.92134	YUP	-0.03628984
-3.097431	ZOO	-0.02990597

\2-grams:
-0.7120026	17 AND
-0.7120026	18 </s>
-1.189124	300 </s>
-1.189124	300 AND
-1.189124	300 WE
-0.7120026	6 WEEKENDS
-0.7120026	600 MILES
-0.7120026	96 YEARS
-0.7120026	96TH BIRTHDAY
-2.392403	<s> A
-2.392403	<s> ACTUALLY
-3.108202	<s> ALL
-3.108202	<s> AN
-1.117446	<s> AND
-3.108202	<s> BE
-3.108202	<s> BECAUSE
-3.108202	<s> BEFORE
-3.108202	<s> BORN
-3.108202	<s> BRASS
-1.797502	<s> BUT
-3.108202	<s> BUYING
-3.108202	<s> CAUSE
-3.108202	<s> COUPLE
-3.108202	<s> DEFINITELY
-3.108202	<s> DELTA
-3.108202	<s> DOCTORS
-3.108202	<s> DOWNTOWN
-3.108202	<s> ELEMENTARY
-3.108202	<s> EVEN
-3.108202	<s> FLORIDA
-2.392403	<s> FOR
-3.108202	<s> FORT
-2.392403	<s> GOING
-3.108202	<s> GOOD
-2.392403	<s> HE
-3.108202	<s> HE'S
-1.140927	<s> I
-2.107648	<s> I'M
-3.108202	<s> IF
-2.081373	<s> IN
-2.081373	<s> IT
-1.796378	<s> IT'S
-2.392403	<s> JEFF
-3.108202	<s> JUST
-3.108202	<s> MHM
-1.815727	<s> MHMM
-3.108202	<s> MILLER
-3.108202	<s> MODERATELY
-3.108202	<s> MUSIC
-2.392403	<s> MY
-3.108202	<s> NEXT
-1.396199	<s> NO
-3.108202	<s> NOT
-3.108202	<s> NOTHING
-1.815727	<s> OH
-3.108202	<s> OK
-2.081373	<s> OKAY
-2.392403	<s> ONE
-3.108202	<s> OR
-3.108202	<s> PALM
-3.108202	<s> PERHAPS
-3.108202	<s> PRETTY
-3.108202	<s> PROBABLY
-2.081373	<s> RIGHT
-3.108202	<s> ROTATOR
-3.108202	<s> SAINT
-3.108202	<s> SHE
-3.108202	<s> SHOULD
-1.250071	<s> SO
-3.108202	<s> SUNDAY
-3.108202	<s> TEN
-3.108202	<s> THANK
-3.108202	<s> THAT
-2.392403	<s> THAT'S
-3.108202	<s> THEN
-3.108202	<s> THERE
-3.108202	<s> THERE'S
-1.796378	<s> THEY
-3.108202	<s> THROUGH
-3.108202	<s> TWO
-2.081373	<s> UH
-2.107648	<s> UM
-2.392403	<s> UMM
-3.108202	<s> VERY
-2.107648	<s> WE
-2.392403	<s> WE'VE
-2.107648	<s> WELL
-3.108202	<s> WHEN
-3.108202	<s> WHENEVER
-3.108202	<s> WHERE
-3.108202	<s> WITH
-3.108202	<s> WORKING
-0.9648356	<s> YEAH
-1.117446	<s> YES
-1.815727	<s> YOU
-3.108202	<s> YUP
-1.013033	<unk> IN
-1.013033	<unk> THIS
-2.557101	A BAD
-1.530272	A BIG
-2.557101	A BLAST
-1.841302	A BUNCH
-2.557101	A CHAUFFEUR
-2.557101	A COMMUNITY
-2.557101	A COUPLE
-2.557101	A DAY
-2.557101	A DIRT
-2.557101	A DISASTER
-2.557101	A DRUG
-2.557101	A FISHING
-2.557101	A GARAGE
-2.557101	A GOOD
-1.841302	A GREAT
-1.841302	A HALF
-2.557101	A HE
-2.557101	A HONEY
-2.557101	A HOUSE
-2.557101	A JUNIOR
-2.557101	A LAKE
-1.841302	A LANDLORD
-2.557101	A LECTURE
-2.557101	A LIONS
-2.557101	A LIONS'
-1.556546	A LOAN
-2.557101	A LONG
-2.557101	A LOT
-2.557101	A MOVIE
-2.557101	A MUSICIAN
-2.557101	A NEW
-2.557101	A PLAY
-2.557101	A PROBLEM
-2.557101	A PROFESSOR
-2.557101	A PROPHYLACTIC
-2.557101	A QUARTER
-2.557101	A REAL
-1.841302	A REHEARSAL
-2.557101	A RELATIONSHIP
-2.557101	A RELATOR
-2.557101	A SALVATION
-2.557101	A SMALL
-1.841302	A TEST
-2.557101	A THERAPIST
-2.557101	A VERY
-2.557101	A VP
-1.556546	A WEDDING
-1.841302	A WEEK
-2.557101	A WEIRD
-2.557101	A WHEELCHAIR
-2.557101	A WHOLE
-1.530272	A YEAR
-2.557101	A YOU
-1.314063	ABOUT 600
-1.314063	ABOUT LAST
-1.314063	ABOUT SELLING
-1.314063	ABOUT TEN
-0.7120026	ABSOLUTELY </s>
-0.7120026	ACCESSIBLE AND
-1.410973	ACTUALLY DOWN
-1.410973	ACTUALLY FROM
-0.6951739	ACTUALLY I
-1.410973	ACTUALLY I'M
-0.7120026	ADRIAN WHERE
-0.7120026	AFTER BEING
-0.7120026	AGAIN THEN
-1.189124	AGO BECAUSE
-1.189124	AGO BUT
-1.189124	AGO THERE
-0.7120026	ALCOHOL TREATMENT
-1.615093	ALL FROM
-1.615093	ALL INDIVIDUAL
-1.615093	ALL OUT
-0.6145383	ALL THE
-1.615093	ALL THROUGH
-1.013033	ALMOST LOST
-1.013033	ALMOST NINE
-0.7120026	ALONG THE
-1.189124	ALSO HAD
-1.189124	ALSO TRYING
-1.189124	ALSO WHEN
-0.7120026	ALWAYS FUN
-1.013033	AM A
-1.013033	AM WORKING
-1.013033	AMAZING </s>
-1.013033	AMAZING YOU
-1.314063	AN AUNT
-0.5982639	AN HOUR
-1.314063	AN OCCASIONAL
-2.680485	AND 18
-2.680485	AND </s>
-1.679931	AND A
-2.680485	AND ALCOHOL
-2.680485	AND ALL
-1.679931	AND AND
-2.680485	AND BE
-2.680485	AND BEYOND
-2.680485	AND CATCH
-2.680485	AND ENDED
-2.680485	AND EVEN
-2.680485	AND EVERYTHING
-2.680485	AND FRIDAY
-2.680485	AND GIVE
-2.680485	AND GO
-2.680485	AND GOT
-2.680485	AND HANDICAP
-1.653657	AND HE
-1.653657	AND I
-2.680485	AND I'M
-2.680485	AND IF
-2.680485	AND IT'S
-1.653657	AND JUST
-2.680485	AND LESS
-2.680485	AND LIKE
-2.680485	AND LOOK
-2.680485	AND LOOKED
-2.680485	AND MIDDLE
-2.680485	AND NOT
-2.680485	AND NOW
-2.680485	AND ONE
-2.680485	AND OUT
-2.680485	AND PLAY
-2.680485	AND PROPERTY
-2.680485	AND RAISED
-0.8893017	AND SO
-1.964687	AND STUFF
-2.680485	AND TEACH
-1.368662	AND THE
-2.680485	AND THEIR
-1.679931	AND THEN
-1.679931	AND THEY
-2.680485	AND TRUCKLOADS
-2.680485	AND TWELVE
-2.680485	AND UH
-1.964687	AND UM
-2.680485	AND VISITED
-2.680485	AND WAL
-2.680485	AND WALK
-2.680485	AND WE
-2.680485	AND WHATEVER
-2.680485	AND WHEN
-2.680485	AND WHITMORE
-2.680485	AND WITH
-1.964687	AND YOU
-2.680485	AND YOUR
-0.7120026	ANIMALS WERE
-0.7120026	ANOTHER REHEARSAL
-0.7120026	ANTI DEPRESSANTS
-0.7120026	ANTICIPATING MOVING
-0.7120026	ANTIDEPRESSANTS FOR
-1.013033	ANY IDEA
-1.013033	ANY WORK
-0.7120026	ANYONE WHO
-0.7120026	ANYTHING LIKE
-0.7120026	ANYWAY </s>
-0.7120026	APPEAR DEPRESSED
-0.7120026	APPOINTMENTS </s>
-1.712003	ARE 17
-0.9962039	ARE </s>
-1.712003	ARE ALL
-1.712003	ARE ALSO
-1.712003	ARE GOING
-1.712003	ARE IT'S
-0.9962039	ARE LIKE
-1.712003	ARE YOU
-0.7120026	AREA </s>
-0.7120026	ARMY </s>
-1.314063	AROUND JOANNE'S
-1.314063	AROUND SO
-1.314063	AROUND THE
-1.314063	AROUND WE
-1.013033	AS IT
-1.013033	AS OVERWHELMING
-1.110147	AT A
-1.825946	AT ALL
-1.825946	AT ALMOST
-1.825946	AT BED
-1.825946	AT EIGHT
-1.825946	AT FIRST
-1.825946	AT LIKE
-1.825946	AT QUICKEN
-1.825946	AT SO
-1.110147	AT THE
-1.825946	AT YOU
-0.7120026	AUDITING DEPARTMENT
-0.7120026	AUNT WHO
-1.013033	AWAY FOR
-1.013033	AWAY FROM
-0.4633252	BACK AND
-1.490154	BACK GET
-1.490154	BACK PLAYING
-1.490154	BACK TO
-0.7120026	BAD LOCATION
-0.7120026	BADLY </s>
-1.013033	BANK AND
-1.013033	BANK BEYOND
-0.4733252	BASED IT
-1.189124	BASED ON
-0.7120026	BASEMENT YOU
-0.7120026	BASICALLY ON
-0.7120026	BATH AND
-0.7120026	BATTLE CREEK
-1.942452	BE A
-1.942452	BE COMMERCIAL
-1.942452	BE DEALING
-1.942452	BE EMBARRASSING
-1.942452	BE GOOD
-1.942452	BE GRADUATING
-1.942452	BE HAPPY
-1.226653	BE IN
-1.942452	BE IT
-1.942452	BE ONE
-1.942452	BE RESIDENTIAL
-1.942452	BE SILLY
-1.942452	BE STARED
-1.942452	BE UHH
-1.942452	BE VERY
-1.942452	BE YOU
-0.7120026	BEACH </s>
-0.7120026	BEAVERS </s>
-1.712003	BECAUSE FOR
-0.4195279	BECAUSE I
-1.712003	BECAUSE I'VE
-1.712003	BECAUSE IT
-1.712003	BECAUSE MY
-1.712003	BECAUSE WE
-0.7120026	BED BATH
-1.314063	BEEN HOME
-0.5982639	BEEN ON
-1.314063	BEEN TOLD
-1.189124	BEFORE </s>
-1.189124	BEFORE THAT
-1.189124	BEFORE THE
-0.384144	BEING A
-1.410973	BEING AWAY
-1.410973	BEING IN
-0.7120026	BELONGS </s>
-0.2972339	BETWEEN THE
-1.013033	BEYOND </s>
-1.013033	BEYOND THAT
-1.410973	BIG DEAL
-1.410973	BIG DIFFERENCE
-1.410973	BIG FANCY
-1.410973	BIG PARTY
-1.410973	BIG WARNING
-0.7120026	BIKE </s>
-0.7120026	BIRTHDAY WHILE
-0.7120026	BLAST IT
-0.7120026	BORING HOWEVER
-0.7120026	BORN AND
-0.7120026	BOTHER </s>
-0.7120026	BRASS INSTRUMENTS
-0.7120026	BRING THEM
-0.1622952	BUNCH OF
-1.013033	BUSY I'M
-1.013033	BUSY WEEKEND
-1.338627	BUT </s>
-2.054425	BUT AND
-2.054425	BUT BUT
-1.338627	BUT I
-1.338627	BUT IF
-2.054425	BUT IT'LL
-1.338627	BUT IT'S
-2.054425	BUT NOT
-2.054425	BUT NOW
-2.054425	BUT SUNDAY
-2.054425	BUT THE
-2.054425	BUT THEN
-2.054425	BUT THERE
-2.054425	BUT THERE'S
-1.338627	BUT WE
-1.338627	BUT YEAH
-0.7120026	BUYING THINGS
-1.013033	CALLED ONE
-1.013033	CALLED WABATONGUSHI
-1.615093	CAN </s>
-1.615093	CAN BE
-1.615093	CAN GET
-1.615093	CAN HAVE
-1.615093	CAN PAY
-1.615093	CAN SEE
-1.615093	CAN SELL
-1.615093	CAN SIT
-0.7120026	CAN'T YOU
-0.7120026	CANADA ABOUT
-0.7120026	CAROLINA CAN
-1.189124	CASH A
-1.189124	CASH FOR
-1.189124	CASH WITH
-0.7120026	CATCH UP
-1.314063	CAUSE ABOUT
-1.314063	CAUSE I
-1.314063	CAUSE OF
-1.314063	CAUSE THAT'S
-0.7120026	CENTERVILLE BRING
-0.7120026	CENTRAL FROM
-0.7120026	CHAUFFEUR WE'RE
-0.7120026	CLASS </s>
-0.7120026	CLASSES AND
-0.7120026	CLEANED OUT
-0.7120026	CLEANING </s>
-0.4733252	COLLEGE </s>
-1.189124	COLLEGE AND
-1.013033	COME IN
-1.013033	COME WITH
-1.013033	COMING BACK
-1.013033	COMING HOME
-0.7120026	COMMERCIAL IT
-0.7120026	COMMITTED SUICIDE
-0.7120026	COMMUNITY COLLEGE
-0.7120026	COMPANIES THAT
-0.7120026	COMPLETELY GOT
-0.7120026	COMPUTER PROGRAMING
-0.7120026	COMPUTERS SO
-0.2972339	CONE </s>
-0.7120026	CONTRACTORS AND
-0.7120026	COOL </s>
-0.7120026	COUCH OVER
-1.314063	COULD BE
-1.314063	COULD BUT
-1.314063	COULD GET
-1.314063	COULD GIVE
-1.013033	COULDN'T FIND
-1.013033	COULDN'T SEE
-1.013033	COUPLE DAYS
-1.013033	COUPLE TIMES
-0.7120026	CRAZY </s>
-0.7120026	CREDIT UNION
-0.7120026	CREEK </s>
-0.7120026	CRYSTAL </s>
-0.7120026	CUFF IT'S
-0.7120026	CURRENTLY AT
-0.7120026	DAD'S HISTORY
-0.7120026	DATE BUT
-0.7120026	DAY FOR
-1.410973	DAYS </s>
-1.410973	DAYS ON
-1.410973	DAYS OVER
-1.410973	DAYS SO
-1.410973	DAYS YOU
-0.7120026	DEAL LIKE
-0.7120026	DEALING WITH
-0.7120026	DECIDE THEY
-0.7120026	DECIDED ON
-1.189124	DEFINITELY </s>
-1.189124	DEFINITELY A
-1.189124	DEFINITELY NICE
-0.7120026	DELTA COLLEGE
-0.7120026	DEPARTMENT </s>
-0.7120026	DEPRESSANTS BECAUSE
-1.189124	DEPRESSED </s>
-1.189124	DEPRESSED CAUSE
-1.189124	DEPRESSED DOESN'T
-1.189124	DEPRESSION IS
-1.189124	DEPRESSION PART
-1.189124	DEPRESSION SO
-0.4733252	DETROIT JAZZ
-1.189124	DETROIT ZOO
-0.7120026	DID YOU
-1.013033	DIDN'T FEEL
-1.013033	DIDN'T SORRY
-0.7120026	DIED AND
-0.7120026	DIFFERENCE BETWEEN
-0.7120026	DIFFERENT THINGS
-0.7120026	DIRT TRACK
-0.2972339	DISABILITY </s>
-0.7120026	DISASTER AREA
-0.7120026	DISEASE WORKS
-0.7120026	DNA STUDY
-1.490154	DO </s>
-1.490154	DO ANY
-1.490154	DO LIKE
-1.490154	DO MY
-1.490154	DO SO
-1.490154	DO STUMBLE
-0.7120026	DOCTORS APPOINTMENTS
-0.7120026	DOES </s>
-0.7120026	DOESN'T MEAN
-0.7120026	DOG AND
-1.189124	DOING I'M
-1.189124	DOING OKAY
-1.189124	DOING THE
-0.7120026	DOLLARS TO
-1.825946	DON'T APPEAR
-1.825946	DON'T EVEN
-1.825946	DON'T HAVE
-0.514122	DON'T KNOW
-1.825946	DON'T LIKE
-1.825946	DON'T REMEMBER
-1.825946	DON'T SELL
-1.825946	DON'T THERE
-1.410973	DOWN </s>
-1.410973	DOWN SOUTH
-1.410973	DOWN THERE
-0.6951739	DOWN TO
-0.7120026	DOWNTOWN <unk>
-1.189124	DRAINS AND
-1.189124	DRAINS CLEANED
-1.189124	DRAINS ERUPTED
-1.013033	DRIVE DOWN
-1.013033	DRIVE RIGHT
-1.013033	DRIVING IMMEDIATELY
-1.013033	DRIVING UP
-0.7120026	DROVE ALL
-0.7120026	DRUG AND
-0.7120026	EACH </s>
-1.189124	EIGHT DAYS
-1.189124	EIGHT FORTY
-1.189124	EIGHT OH
-1.013033	ELEMENTARY AND
-1.013033	ELEMENTARY STARTS
-0.7120026	EM BUT
-0.7120026	EMBARRASSING </s>
-0.7120026	EMPTIED FOR
-0.7120026	ENDED UP
-1.013033	ENOUGH AND
-1.013033	ENOUGH BECAUSE
-0.7120026	EQUITY ON
-0.7120026	ERR TEST
-0.7120026	ERUPTED WITH
-1.314063	EVEN BOTHER
-1.314063	EVEN IF
-0.5982639	EVEN THOUGH
-1.013033	EVERY OTHER
-1.013033	EVERY PLAN
-0.7120026	EVERYBODY WAS
-0.7120026	EVERYONE HAS
-1.013033	EVERYTHING SO
-1.013033	EVERYTHING WHERE
-0.7120026	EVERYWHERE BUT
-0.7120026	EVICT PRINCESS
-0.7120026	EXACT SYMPTOMS
-1.314063	EXACTLY SO
-0.2872339	EXACTLY SURE
-0.7120026	EXCITED </s>
-0.7120026	EXCITING </s>
-0.7120026	EXERCISE </s>
-0.7120026	FACILITY </s>
-0.7120026	FALLING OVER
-0.7120026	FALLS UNDER
-1.189124	FAMILY </s>
-1.189124	FAMILY AND
-1.189124	FAMILY THEY
-0.7120026	FAN ISN'T
-0.7120026	FANCY HOUSES
-0.7120026	FEEL THAT
-0.7120026	FEES TRYING
-1.013033	FESTIVAL AND
-1.013033	FESTIVAL THEN
-0.7120026	FIELD TO
-0.7120026	FIFTY OR
-0.7120026	FIND ANYONE
-0.7120026	FIREWORKS AND
-1.189124	FIRST BUT
-1.189124	FIRST FOUND
-1.189124	FIRST MOVED
-0.7120026	FISHING TRIP
-0.7120026	FIVE </s>
-0.7120026	FIX IT
-1.189124	FLORIDA </s>
-1.189124	FLORIDA TO
-1.189124	FLORIDA WERE
-0.7120026	FOOD OR
-1.110147	FOR A
-1.825946	FOR EIGHT
-1.825946	FOR IT
-1.825946	FOR NO
-1.825946	FOR ONE
-1.825946	FOR PEOPLE
-1.825946	FOR THAT
-1.110147	FOR THE
-1.110147	FOR THIS
-1.825946	FOR TUESDAY
-0.7120026	FORGOT THAT
-0.7120026	FORMULA AND
-0.7120026	FORMULATE A
-0.7120026	FORT LAUDERDALE'S
-0.7120026	FORTY </s>
-0.7120026	FOUND OUT
-0.7120026	FRESHMAN IN
-1.013033	FRIDAY FRIDAY
-1.013033	FRIDAY I
-1.013033	FRIENDS </s>
-1.013033	FRIENDS FROM
-1.791184	FROM </s>
-1.791184	FROM CENTERVILLE
-1.791184	FROM DOWN
-1.791184	FROM HAVING
-1.791184	FROM HERE
-0.4987091	FROM THE
-1.791184	FROM WHAT
-1.791184	FROM WORK
-0.4633252	FUN </s>
-1.490154	FUN TO
-1.490154	FUN WHEN
-1.490154	FUN YES
-0.7120026	GAME </s>
-0.7120026	GARAGE SALE
-0.7120026	GAY CENTRAL
-0.7120026	GENE </s>
-1.110147	GET 300
-0.7991173	GET A
-1.825946	GET ALL
-1.825946	GET BACK
-1.825946	GET I
-1.825946	GET LOANS
-1.825946	GET SICK
-1.110147	GET THE
-1.825946	GET UP
-0.7120026	GETS CRAZY
-1.189124	GETTING A
-0.4733252	GETTING MARRIED
-0.7120026	GIFTS </s>
-0.7120026	GIRLS </s>
-1.013033	GIVE A
-1.013033	GIVE ME
-0.7120026	GIVING SEVEN
-1.557101	GO ACTUALLY
-1.557101	GO BACK
-1.557101	GO BUT
-1.557101	GO INTO
-1.557101	GO THERE
-1.557101	GO TO
-1.557101	GO YET
-0.7120026	GOES </s>
-1.666245	GOING ON
-0.05115252	GOING TO
-0.7120026	GONE NOW
-0.384144	GOOD </s>
-1.410973	GOOD ONE
-1.410973	GOOD THOUGH
-1.557101	GOT A
-1.557101	GOT MARRIED
-1.557101	GOT ON
-1.557101	GOT RID
-0.8413019	GOT TO
-1.557101	GOT UNPACKED
-0.7120026	GRADUATING NEXT
-0.7120026	GRAND </s>
-1.314063	GREAT </s>
-1.314063	GREAT FIELD
-1.314063	GREAT SCHOOL
-1.314063	GREAT TIME
-0.7120026	GROWN TO
-0.4609205	HAD A
-1.753395	HAD EM
-1.753395	HAD HER
-1.753395	HAD MONEY
-1.753395	HAD SHOULDER
-1.753395	HAD TALKED
-1.753395	HAD TO
-1.013033	HALF AGO
-1.013033	HALF THERE
-0.7120026	HANDICAP ACCESSIBLE
-0.7120026	HAPPENS CAUSE
-0.7120026	HAPPY </s>
-1.013033	HARD GETTING
-1.013033	HARD TO
-0.7120026	HAS THE
-0.7223979	HAVE A
-2.034222	HAVE ANOTHER
-2.034222	HAVE ANY
-2.034222	HAVE HELP
-2.034222	HAVE MY
-2.034222	HAVE NO
-2.034222	HAVE PLANNED
-1.318423	HAVE PROOF
-1.318423	HAVE THE
-2.034222	HAVE THEM
-1.007393	HAVE TO
-2.034222	HAVE TWO
-0.7120026	HAVEN'T BEEN
-0.2972339	HAVING THE
-1.013033	HD </s>
-1.013033	HD AND
-1.791184	HE COMMITTED
-1.791184	HE DOES
-1.791184	HE JUST
-1.075385	HE LOVES
-1.791184	HE PULLS
-1.791184	HE SAID
-1.791184	HE USED
-1.791184	HE WANTED
-1.075385	HE WANTS
-1.791184	HE WENT
-0.2972339	HE'LL BE
-1.410973	HE'S A
-1.410973	HE'S IT
-0.6951739	HE'S NOT
-1.410973	HE'S VERY
-0.7120026	HELP AND
-0.7120026	HELPFUL </s>
-1.013033	HER 96TH
-1.013033	HER BEING
-0.4733252	HERE </s>
-1.189124	HERE WHILE
-0.7120026	HIGH SCHOOL
-0.7120026	HILLS </s>
-0.7120026	HIRE SOMEBODY
-1.013033	HISTORY </s>
-1.013033	HISTORY NOT
-1.013033	HOLIDAY LEFT
-1.013033	HOLIDAY TO
-0.7120026	HOLIDAYS DON'T
-1.013033	HOME AFTER
-1.013033	HOME IN
-0.7120026	HONEY MOON
-1.013033	HOPEFULLY HOPEFULLY
-1.013033	HOPEFULLY SO
-0.7120026	HOSE AND
-0.7120026	HOT </s>
-1.013033	HOUR </s>
-1.013033	HOUR SOUTH
-0.7120026	HOURS A
-0.7743552	HOUSE </s>
-1.490154	HOUSE ALSO
-1.490154	HOUSE AND
-1.490154	HOUSE I
-1.490154	HOUSE IS
-0.7120026	HOUSES ALONG
-0.7120026	HOW TO
-0.7120026	HOWEVER </s>
-0.7120026	HUNDRED </s>
-0.7120026	HURRICANE </s>
-0.7120026	HUSBAND IS
-1.925623	I AM
-2.641422	I CALLED
-1.348947	I CAN
-2.641422	I CAN'T
-2.641422	I COULDN'T
-2.641422	I DIDN'T
-1.614593	I DO
-0.8880262	I DON'T
-2.641422	I DRIVE
-1.925623	I FIRST
-2.641422	I FORGOT
-1.640867	I GET
-2.641422	I GOT
-1.614593	I HAD
-0.7533277	I HAVE
-2.641422	I HAVEN'T
-1.925623	I I
-1.925623	I JUST
-1.330721	I KNOW
-2.641422	I LIKE
-2.641422	I LOVE
-2.641422	I MAYBE
-2.641422	I NEED
-2.641422	I OVERPAID
-1.614593	I PAID
-2.641422	I START
-2.641422	I STARTED
-2.641422	I STILL
-2.641422	I TALKED
-2.641422	I TEACH
-1.640867	I THINK
-2.641422	I TORE
-2.641422	I WAS
-2.641422	I WASTE
-2.641422	I WORK
-1.189124	I'LL BE
-0.4733252	I'LL GO
-2.07373	I'M A
-2.07373	I'M CURRENTLY
-1.357932	I'M DOING
-1.357932	I'M DRIVING
-2.07373	I'M EXCITED
-2.07373	I'M GIVING
-1.046902	I'M GOING
-2.07373	I'M I'M
-2.07373	I'M NOT
-2.07373	I'M OFF
-2.07373	I'M ON
-2.07373	I'M PLAYING
-2.07373	I'M REUPHOLSTERING
-1.357932	I'M SURE
-2.07373	I'M TRYING
-2.07373	I'M UH
-2.07373	I'M WORKING
-2.07373	I'M WRITING
-0.2972339	I'VE BEEN
-1.013033	IDEA </s>
-1.013033	IDEA WHERE
-0.6145383	IF I
-1.615093	IF IF
-1.615093	IF THEY
-0.8992939	IF YOU
-0.7120026	IMMEDIATELY BACK
-0.986204	IN </s>
-2.013033	IN A
-2.013033	IN BATTLE
-2.013033	IN COLLEGE
-2.013033	IN CRYSTAL
-2.013033	IN FLORIDA
-2.013033	IN I
-2.013033	IN JUNE
-2.013033	IN LEGAL
-2.013033	IN LIKE
-2.013033	IN NORTH
-2.013033	IN ORLANDO
-2.013033	IN ROCHESTER
-2.013033	IN SAGINAW
-1.012478	IN THE
-0.7120026	INAUDIBLE </s>
-0.7120026	INCH OF
-0.2972339	INCOME IS
-0.7120026	INDIVIDUAL </s>
-0.7120026	INHERITANCE AND
-1.013033	INSIDE AND
-1.013033	INSIDE SO
-0.7120026	INSTRUMENTS </s>
-0.7120026	INTO COMPUTER
-0.7120026	INVITED ME
-1.942452	IS 96
-0.9418973	IS </s>
-1.226653	IS A
-1.942452	IS AS
-1.942452	IS COMING
-1.942452	IS FRESHMAN
-1.942452	IS GETTING
-1.942452	IS IN
-1.226653	IS NOT
-1.942452	IS ONE
-1.942452	IS SO
-1.942452	IS WORKING
-0.7120026	ISN'T ALWAYS
-0.7120026	ISSUE HAPPENS
-0.4733252	ISSUES AND
-1.189124	ISSUES FROM
-1.297958	IT </s>
-2.324786	IT A
-2.324786	IT AND
-2.324786	IT AT
-2.324786	IT BASICALLY
-2.324786	IT BELONGS
-2.324786	IT COULD
-2.324786	IT FOOD
-2.324786	IT FOR
-2.324786	IT GETS
-2.324786	IT GOES
-2.324786	IT GOT
-2.324786	IT I'LL
-1.324232	IT IS
-2.324786	IT LOOKED
-1.608988	IT MIGHT
-2.324786	IT NICE
-2.324786	IT ON
-2.324786	IT SO
-2.324786	IT STARTS
-2.324786	IT UP
-0.4666558	IT WAS
-0.7120026	IT'LL BE
-0.9695041	IT'S A
-2.280204	IT'S AMAZING
-2.280204	IT'S AT
-1.564406	IT'S DEFINITELY
-2.280204	IT'S FUN
-2.280204	IT'S GONE
-2.280204	IT'S GREAT
-2.280204	IT'S HARD
-2.280204	IT'S I
-0.9683804	IT'S IT'S
-2.280204	IT'S JUST
-1.564406	IT'S LIKE
-2.280204	IT'S MORE
-2.280204	IT'S NORTHEAST
-1.564406	IT'S NOT
-2.280204	IT'S ONLY
-2.280204	IT'S OVERWHELMING
-2.280204	IT'S TERRIBLE
-2.280204	IT'S TOO
-2.280204	IT'S TROUBLE
-1.564406	IT'S WAY
-2.280204	IT'S WITH
-1.013033	ITS HARD
-1.013033	ITS ITS
-0.2972339	JAZZ FESTIVAL
-0.2972339	JEFF CONE
-0.7120026	JEWISH SO
-0.7120026	JOANNE'S AND
-0.7120026	JOB THAT
-1.013033	JUNE </s>
-1.013033	JUNE LAST
-0.7120026	JUNIOR </s>
-1.888094	JUST BECAUSE
-1.888094	JUST CAN
-1.888094	JUST COMPLETELY
-1.888094	JUST DAYS
-1.888094	JUST FIFTY
-1.888094	JUST GET
-1.888094	JUST GOT
-1.888094	JUST HAVING
-1.888094	JUST I
-1.888094	JUST KINDA
-1.888094	JUST TALK
-1.888094	JUST THE
-1.888094	JUST UM
-1.888094	JUST YES
-1.888094	JUST YOU
-0.7120026	KIDS AND
-0.1622952	KIND OF
-0.7120026	KINDA PLAYED
-1.046902	KNOW </s>
-2.07373	KNOW BECAUSE
-2.07373	KNOW BEING
-2.07373	KNOW CAUSE
-2.07373	KNOW HE
-2.07373	KNOW HE'S
-2.07373	KNOW HOW
-1.046902	KNOW I
-2.07373	KNOW INAUDIBLE
-1.357932	KNOW IT'S
-2.07373	KNOW MAYBE
-2.07373	KNOW MY
-2.07373	KNOW NOT
-2.07373	KNOW OF
-2.07373	KNOW THE
-2.07373	KNOW THEY'RE
-2.07373	KNOW WHAT
-2.07373	KNOW WHEN
-0.7120026	LADY </s>
-1.013033	LAKE </s>
-1.013033	LAKE CALLED
-0.2972339	LANDLORD IT'S
-1.189124	LAST JUNE
-1.189124	LAST MONTH
-1.189124	LAST WEEK
-0.7120026	LAUDERDALE'S LIKE
-0.7120026	LECTURE AND
-0.7120026	LEFT WHERE
-0.7120026	LEGAL FEES
-0.7120026	LESS LIKE
-1.990756	LIKE 6
-1.274958	LIKE </s>
-0.990202	LIKE A
-1.990756	LIKE BEING
-1.990756	LIKE EIGHT
-1.990756	LIKE GAY
-1.274958	LIKE NO
-1.990756	LIKE OH
-1.990756	LIKE POWER
-1.990756	LIKE SHUT
-1.990756	LIKE THE
-1.990756	LIKE THERE
-1.990756	LIKE VARIETY
-1.990756	LIKE WHY
-0.7120026	LIONS GAME
-0.7120026	LIONS' FAN
-0.7120026	LIST OF
-1.013033	LITTLE LADY
-1.013033	LITTLE NIECES
-1.013033	LIVE IN
-1.013033	LIVE NEAR
-1.314063	LOAN BASED
-1.314063	LOAN BECAUSE
-1.314063	LOAN FROM
-1.314063	LOAN OR
-1.013033	LOANS </s>
-1.013033	LOANS NOW
-0.7120026	LOCATION I
-0.7120026	LONG TIME
-0.7120026	LOOK AT
-1.013033	LOOKED AT
-1.013033	LOOKED THEY
-0.7120026	LOST LAST
-0.7120026	LOT OF
-0.7120026	LOTS OF
-0.7120026	LOVE IT
-1.013033	LOVES COMPUTERS
-1.013033	LOVES IT
-1.189124	MAINTENANCE ISSUE
-0.4733252	MAINTENANCE ISSUES
-1.013033	MAKE EVERY
-1.013033	MAKE SURE
-0.7120026	MAKING IT
-0.7120026	MANGERS AND
-0.4733252	MARRIED </s>
-1.189124	MARRIED OH
-0.7120026	MART WAS
-0.7120026	MAY NOT
-1.013033	MAYBE OVERPAID
-1.013033	MAYBE WE
-0.7120026	MCKENZIE <unk>
-1.490154	ME A
-1.490154	ME BUT
-1.490154	ME EVERYWHERE
-1.490154	ME ON
-1.490154	ME SO
-1.490154	ME THERE'S
-0.7120026	MEAN THAT
-0.7120026	MET AT
-0.7120026	MHM YES
-0.384144	MHMM </s>
-0.6951739	MHMM YUP
-1.013033	MIDDLE </s>
-1.013033	MIDDLE OF
-0.2972339	MIGHT BE
-0.7120026	MILES FROM
-0.7120026	MILLER AND
-0.7120026	MOBILITY AND
-0.7120026	MODERATELY STRESSFUL
-1.013033	MONDAY </s>
-1.013033	MONDAY MORNING
-1.314063	MONEY </s>
-1.314063	MONEY BECAUSE
-1.314063	MONEY BEFORE
-1.314063	MONEY IN
-0.7120026	MONTH IT
-0.7120026	MONTHS OLD
-0.7120026	MOON AND
-1.013033	MORE LIKE
-1.013033	MORE PEACEFUL
-0.4733252	MORNING I
-1.189124	MORNING I'M
-0.7120026	MOST FUN
-0.7120026	MOSTLY IN
-0.7120026	MOUNTAINS TO
-0.7120026	MOVE FROM
-0.7120026	MOVED IN
-0.7120026	MOVIE TONIGHT
-0.7120026	MOVING WENT
-1.314063	MUCH JUST
-1.314063	MUCH STUFF
-1.314063	MUCH THE
-1.314063	MUCH YEAH
-1.013033	MUSIC HISTORY
-1.013033	MUSIC TONIGHT
-0.7120026	MUSICIAN I'M
-1.858131	MY </s>
-1.858131	MY DAD'S
-1.858131	MY DOG
-1.858131	MY FAMILY
-1.858131	MY HUSBAND
-1.858131	MY INCOME
-1.858131	MY LITTLE
-1.858131	MY MCKENZIE
-1.858131	MY NIECE
-1.858131	MY PARENTS
-1.858131	MY PARTNER'S
-1.858131	MY SICK
-1.858131	MY UNCLE
-1.858131	MY VACATIONS
-0.7120026	NEAR TAMPA
-0.7120026	NEAT </s>
-0.7120026	NEED YEAH
-0.7120026	NEUROLOGIST THAT
-0.7120026	NEW JOB
-1.410973	NEXT MAINTENANCE
-1.410973	NEXT REALTOR
-1.410973	NEXT THREE
-0.6951739	NEXT YEAR
-0.4733252	NICE </s>
-1.189124	NICE INSIDE
-0.7120026	NIECE IS
-0.7120026	NIECES IN
-1.013033	NIGHT </s>
-1.013033	NIGHT I'LL
-0.7120026	NINE O'CLOCK
-0.986204	NO </s>
-2.013033	NO ACTUALLY
-2.013033	NO FROM
-0.986204	NO I
-2.013033	NO I'M
-2.013033	NO IDEA
-2.013033	NO ISSUES
-2.013033	NO JUST
-1.297234	NO NOT
-2.013033	NO OTHER
-2.013033	NO PROBLEM
-2.013033	NO REASON
-2.013033	NO WAY
-2.013033	NO WE
-2.013033	NO WELL
-1.189124	NORTH </s>
-1.189124	NORTH CAROLINA
-1.189124	NORTH UM
-0.7120026	NORTHEAST OR
-0.7120026	NORTHWEST OF
-2.034222	NOT A
-2.034222	NOT ANYTHING
-2.034222	NOT DEPRESSED
-1.318423	NOT ENOUGH
-1.007393	NOT EXACTLY
-1.318423	NOT I
-2.034222	NOT SOME
-1.318423	NOT THAT
-2.034222	NOT THE
-2.034222	NOT THINK
-1.318423	NOT THIS
-2.034222	NOT TOO
-2.034222	NOT UNPACKED
-2.034222	NOT WASTE
-2.034222	NOT YOU
-1.013033	NOTHING PLANNED
-1.013033	NOTHING YET
-0.8413019	NOW I'M
-1.557101	NOW IT'S
-1.557101	NOW MOSTLY
-1.557101	NOW THAT
-1.557101	NOW THERE
-1.557101	NOW TO
-0.7120026	O'CLOCK IT'S
-0.7120026	OCCASIONAL TORNADO
-0.7120026	OCCASIONALLY BUT
-0.7120026	OCEAN IT
-2.034222	OF A
-2.034222	OF ABOUT
-2.034222	OF BEING
-2.034222	OF COMPANIES
-2.034222	OF CONTRACTORS
-2.034222	OF EACH
-2.034222	OF FUN
-2.034222	OF MONEY
-2.034222	OF MUSIC
-2.034222	OF MY
-2.034222	OF SLUSH
-2.034222	OF STUFF
-2.034222	OF TAMPA
-1.318423	OF THE
-2.034222	OF THEM
-2.034222	OF THINGS
-2.034222	OF TRUCKLOADS
-2.034222	OF WANTED
-2.034222	OF WAWA
-2.034222	OF YET
-0.7120026	OFF SO
-1.753395	OH FIVE
-0.7265667	OH I
-1.753395	OH IT
-1.753395	OH NO
-1.753395	OH NOT
-1.753395	OH OKAY
-1.753395	OH WELL
-1.037597	OH YEAH
-0.7120026	OK </s>
-0.1184979	OKAY </s>
-0.2972339	OLD </s>
-1.172295	ON A
-1.888094	ON ANTI
-1.888094	ON ANTIDEPRESSANTS
-1.888094	ON BUT
-1.172295	ON DISABILITY
-1.888094	ON IT
-1.888094	ON MAKING
-1.888094	ON MONDAY
-1.172295	ON THAT
-0.8612652	ON THE
-1.791184	ONE BANK
-1.791184	ONE HUNDRED
-1.075385	ONE IS
-1.791184	ONE IT
-0.7643552	ONE OF
-1.791184	ONE POINT
-1.791184	ONE RELATOR
-1.791184	ONE TO
-1.791184	ONE YEAR
-1.013033	ONES BE
-1.013033	ONES I
-1.189124	ONLY ONES
-1.189124	ONLY THING
-1.189124	ONLY THREE
-0.7120026	ONTARIO </s>
-1.410973	OR GIFTS
-1.410973	OR HIRE
-1.410973	OR IF
-1.410973	OR NORTHWEST
-1.410973	OR ONE
-0.7120026	ORLANDO </s>
-1.314063	OTHER HOLIDAY
-1.314063	OTHER ONE
-1.314063	OTHER ONES
-1.314063	OTHER WEEKEND
-0.7120026	OUR COUCH
-1.557101	OUT </s>
-1.557101	OUT AND
-1.557101	OUT EVERYBODY
-1.557101	OUT THAT
-1.557101	OUT THE
-1.557101	OUT WALKING
-1.557101	OUT WERE
-1.410973	OVER IN
-0.384144	OVER THE
-1.410973	OVER WITH
-1.013033	OVERPAID </s>
-1.013033	OVERPAID FOR
-1.013033	OVERWHELMING </s>
-1.013033	OVERWHELMING AS
-1.314063	PAID 300
-0.2872339	PAID CASH
-0.7120026	PALM BEACH
-0.7120026	PANDAS </s>
-0.7120026	PARENTS DIED
-0.7120026	PART NOT
-0.7120026	PARTNER'S A
-0.7120026	PARTY SO
-0.7120026	PAY YOU
-0.7120026	PEACEFUL INSIDE
-0.7120026	PEOPLE </s>
-0.7120026	PERHAPS AN
-0.7120026	PETE </s>
-0.7120026	PETOSKEY WHERE
-0.7120026	PETS AND
-0.7120026	PICK UP
-0.7120026	PICTURES </s>
-1.013033	PLACE NOT
-1.013033	PLACE THAT
-0.7120026	PLAN </s>
-1.013033	PLANNED IS
-1.013033	PLANNED YET
-1.189124	PLAY </s>
-1.189124	PLAY DATE
-1.189124	PLAY THERE
-0.7120026	PLAYED WITH
-1.013033	PLAYING A
-1.013033	PLAYING AT
-0.7120026	PLUMBER TO
-0.7120026	POINT SEVEN
-0.7120026	POOP AND
-0.7120026	POWER WASH
-0.7120026	POWERFUL HOSE
-0.7120026	PRETTY MUCH
-0.7120026	PRINCESS </s>
-1.490154	PROBABLY A
-1.490154	PROBABLY AND
-1.490154	PROBABLY CLEANING
-1.490154	PROBABLY SATURDAY
-1.490154	PROBABLY TAKE
-1.490154	PROBABLY THE
-1.013033	PROBLEM ACTUALLY
-1.013033	PROBLEM YOU
-0.7120026	PROFESSOR SO
-0.7120026	PROGRAMING SO
-1.013033	PROOF </s>
-1.013033	PROOF FROM
-0.7120026	PROPERTY MANGERS
-0.7120026	PROPHYLACTIC PURPOSES
-0.7120026	PULLS ME
-0.7120026	PURPOSES </s>
-0.7120026	PUT ME
-0.7120026	QUARTER INCH
-0.7120026	QUICKEN LOANS
-0.7120026	QUIZZES OVER
-0.7120026	RACE TRACK
-0.7120026	RAISED </s>
-0.7120026	REAL BIG
-1.013033	REALLY NEAT
-1.013033	REALLY NICE
-0.7120026	REALTOR SAID
-0.7120026	REASON </s>
-0.7120026	RECEPTION </s>
-0.7120026	RED PANDAS
-1.189124	REHEARSAL THAT
-1.189124	REHEARSAL THEN
-1.189124	REHEARSAL UM
-0.7120026	RELATIONSHIP HE'S
-1.189124	RELATOR ABOUT
-1.189124	RELATOR SAID
-1.189124	RELATOR THAT
-0.7120026	REMEMBER WHICH
-0.7120026	RESIDENTIAL </s>
-0.7120026	REUPHOLSTERING OUR
-0.7120026	RID OF
-0.7120026	RIDE BIKE
-0.7743552	RIGHT </s>
-1.490154	RIGHT EXACTLY
-0.7743552	RIGHT NOW
-1.490154	RIGHT RIGHT
-0.7120026	ROAD </s>
-0.7120026	ROCHESTER HILLS
-0.7120026	ROTATOR CUFF
-0.7120026	SAGINAW </s>
-0.6951739	SAID OH
-0.6951739	SAID THAT
-1.410973	SAID THERE'S
-0.7120026	SAINT PETE
-0.7120026	SALE </s>
-0.7120026	SALVATION ARMY
-0.7120026	SAME EXACT
-0.7120026	SARASOTA SO
-1.189124	SATURDAY </s>
-1.189124	SATURDAY MORNING
-1.189124	SATURDAY NIGHT
-0.7120026	SAW AN
-1.013033	SCHOOL </s>
-1.013033	SCHOOL AND
-1.410973	SEE A
-1.410973	SEE FAMILY
-1.410973	SEE MY
-1.410973	SEE THAT
-1.410973	SEE THEM
-0.4733252	SELL IT
-1.189124	SELL THE
-0.7120026	SELLING IT
-0.7120026	SEMESTER FOR
-1.314063	SEVEN </s>
-1.314063	SEVEN QUIZZES
-0.5982639	SEVEN SEVEN
-1.013033	SHE HAD
-1.013033	SHE WAS
-1.013033	SHOULD BE
-1.013033	SHOULD GO
-0.7120026	SHOULDER SURGERY
-0.7120026	SHUT DOWN
-0.2972339	SICK TIME
-0.7120026	SILLY AND
-0.7120026	SISTERS THAT
-0.7120026	SIT THERE
-0.7120026	SITUATION IT'S
-0.7120026	SLUSH YA'LL
-0.7120026	SMALL LIST
-1.156054	SO </s>
-2.467877	SO AN
-1.752079	SO AND
-2.467877	SO BETWEEN
-2.467877	SO BUSY
-2.467877	SO COOL
-2.467877	SO DEPRESSION
-2.467877	SO HE'LL
-2.467877	SO HE'S
-2.467877	SO HOLIDAYS
-1.467323	SO I
-2.467877	SO I'LL
-2.467877	SO I'M
-1.175403	SO IT
-1.157177	SO IT'S
-2.467877	SO ITS
-2.467877	SO MUCH
-2.467877	SO NO
-2.467877	SO NOW
-2.467877	SO THAT
-1.441049	SO THAT'S
-2.467877	SO THE
-2.467877	SO THEN
-1.441049	SO THEY
-2.467877	SO THIS
-2.467877	SO UM
-1.467323	SO WE
-2.467877	SO WE'LL
-2.467877	SO WE'RE
-2.467877	SO YEAH
-2.467877	SO YES
-1.013033	SOME FRIENDS
-1.013033	SOME PLACE
-1.013033	SOMEBODY </s>
-1.013033	SOMEBODY THAT
-0.7120026	SOMETIME </s>
-0.7120026	SORRY </s>
-1.013033	SOUTH DO
-1.013033	SOUTH OF
-0.7120026	STARED AT
-0.7120026	START ON
-1.013033	STARTED A
-1.013033	STARTED GOING
-0.2972339	STARTS AT
-0.7120026	STAY </s>
-1.013033	STILL MAINTENANCE
-1.013033	STILL RIDE
-1.013033	STRESS OF
-1.013033	STRESS THERE'S
-0.7120026	STRESSFUL </s>
-0.7120026	STUDY ERR
-0.5982639	STUFF </s>
-1.314063	STUFF AND
-1.314063	STUFF GOING
-0.7120026	STUMBLE OCCASIONALLY
-0.7120026	SUICIDE SO
-1.013033	SUNDAY I'M
-1.013033	SUNDAY MORNING
-0.7120026	SUPPLIES AND
-1.490154	SURE AND
-0.7743552	SURE HE
-1.490154	SURE WHERE
-1.490154	SURE YET
-1.490154	SURE YOU
-0.7120026	SURGERY </s>
-0.7120026	SWEET LITTLE
-0.7120026	SYMPTOMS YOU
-0.7120026	TAKE A
-0.7120026	TALK AND
-0.2972339	TALKED TO
-0.2972339	TAMPA </s>
-1.013033	TEACH AND
-1.013033	TEACH THREE
-1.189124	TEN AND
-1.189124	TEN DIFFERENT
-1.189124	TEN HOURS
-0.7120026	TERRIBLE </s>
-1.189124	TEST </s>
-1.189124	TEST FOR
-1.189124	TEST THAT
-0.7120026	THANK YOU
-1.473325	THAT </s>
-2.189124	THAT ARE
-2.189124	THAT BUT
-2.189124	THAT EVERYONE
-2.189124	THAT HERE
-0.5740313	THAT I
-2.189124	THAT I'M
-1.473325	THAT IS
-2.189124	THAT JUST
-2.189124	THAT LIVE
-2.189124	THAT MUCH
-2.189124	THAT ON
-2.189124	THAT SHE
-2.189124	THAT SO
-1.473325	THAT THEY
-2.189124	THAT WAS
-2.189124	THAT WEREN'T
-2.189124	THAT WILL
-2.189124	THAT YEAH
-2.189124	THAT YOU'RE
-1.557101	THAT'S GOOD
-1.557101	THAT'S HOLIDAY
-1.557101	THAT'S KIND
-1.557101	THAT'S NOT
-1.557101	THAT'S THAT'S
-1.557101	THAT'S THE
-1.557101	THAT'S YEAH
-2.569335	THE ANIMALS
-2.569335	THE AUDITING
-2.569335	THE BANK
-2.569335	THE BASEMENT
-2.569335	THE BEAVERS
-2.569335	THE BIG
-2.569335	THE CREDIT
-1.853536	THE DEPRESSION
-1.542506	THE DETROIT
-2.569335	THE DISEASE
-2.569335	THE DNA
-1.542506	THE DRAINS
-2.569335	THE ELEMENTARY
-2.569335	THE EQUITY
-2.569335	THE EVEN
-2.569335	THE FAMILY
-2.569335	THE FIREWORKS
-2.569335	THE FORMULA
-2.569335	THE GENE
-1.853536	THE HD
-1.27686	THE HOUSE
-2.569335	THE HURRICANE
-2.569335	THE I
-2.569335	THE INHERITANCE
-2.569335	THE MAINTENANCE
-2.569335	THE MIDDLE
-2.569335	THE MOBILITY
-2.569335	THE MONEY
-2.569335	THE MOST
-2.569335	THE MOUNTAINS
-2.569335	THE NEUROLOGIST
-1.542506	THE NEXT
-2.569335	THE NIGHT
-2.569335	THE OCEAN
-1.853536	THE ONLY
-1.853536	THE OTHER
-2.569335	THE PETS
-2.569335	THE PLACE
-2.569335	THE PLUMBER
-2.569335	THE POWERFUL
-2.569335	THE RACE
-2.569335	THE RED
-2.569335	THE RELATOR
-2.569335	THE ROAD
-2.569335	THE SAME
-2.569335	THE SEMESTER
-2.569335	THE SO
-2.569335	THE STRESS
-2.569335	THE SUPPLIES
-2.569335	THE THE
-2.569335	THE TWO
-1.853536	THE WAY
-2.569335	THE WEDDING
-1.853536	THE WEEKEND
-2.569335	THE YOU
-2.569335	THE ZOO
-1.013033	THEIR JEWISH
-1.013033	THEIR MONEY
-1.314063	THEM </s>
-1.314063	THEM AT
-1.314063	THEM BACK
-1.314063	THEM EVERY
-1.791184	THEN </s>
-1.791184	THEN HIGH
-0.7643552	THEN I
-1.791184	THEN MONDAY
-1.791184	THEN PROBABLY
-1.791184	THEN THE
-1.791184	THEN TUES
-1.791184	THEN TUESDAY
-1.791184	THEN UM
-1.791184	THEN WE
-0.7120026	THERAPIST AT
-0.831302	THERE </s>
-1.858131	THERE AGAIN
-1.142332	THERE AND
-1.858131	THERE BORING
-1.858131	THERE IS
-1.858131	THERE IT
-1.858131	THERE JUST
-1.142332	THERE LIKE
-1.858131	THERE NOT
-1.858131	THERE SOMETIME
-1.557101	THERE'S A
-0.8413019	THERE'S LIKE
-1.557101	THERE'S NO
-1.557101	THERE'S PROBABLY
-1.557101	THERE'S STILL
-1.557101	THERE'S TOO
-1.990756	THEY ALMOST
-0.990202	THEY ARE
-1.274958	THEY BASED
-1.990756	THEY DECIDE
-1.990756	THEY DECIDED
-1.990756	THEY DO
-1.274958	THEY HAD
-1.990756	THEY LIVE
-1.990756	THEY SAID
-1.990756	THEY TRUST
-1.990756	THEY WANT
-1.274958	THEY WERE
-1.990756	THEY WON
-1.013033	THEY'RE AMAZING
-1.013033	THEY'RE SO
-0.7120026	THING I
-1.189124	THINGS </s>
-1.189124	THINGS FOR
-1.189124	THINGS I
-1.410973	THINK AWAY
-1.410973	THINK IT
-1.410973	THINK THAT
-1.410973	THINK WE
-1.410973	THINK YOU'RE
-0.7120026	THIRTEEN AND
-1.490154	THIS CLASS
-1.490154	THIS FALLS
-0.4895996	THIS WEEKEND
-1.189124	THOUGH HE
-1.189124	THOUGH HOPEFULLY
-1.189124	THOUGH I
-0.7120026	THOUSAND DOLLARS
-1.189124	THREE CLASSES
-1.189124	THREE DAYS
-1.189124	THREE MONTHS
-1.189124	THROUGH AND
-1.189124	THROUGH SOMEBODY
-1.189124	THROUGH THERE
-0.5982639	TIME </s>
-0.5982639	TIME SO
-0.7120026	TIMES A
-1.357272	TO </s>
-1.668302	TO A
-2.3841	TO ADRIAN
-1.383546	TO BE
-2.3841	TO CANADA
-1.668302	TO COME
-2.3841	TO DRIVE
-2.3841	TO EVICT
-2.3841	TO FIX
-2.3841	TO FLORIDA
-2.3841	TO FORMULATE
-1.383546	TO GET
-1.357272	TO GO
-2.3841	TO HAVE
-2.3841	TO IT
-1.668302	TO MAKE
-1.668302	TO ME
-2.3841	TO PETOSKEY
-2.3841	TO PICK
-2.3841	TO PLAY
-2.3841	TO PUT
-1.357272	TO SEE
-2.3841	TO SELL
-1.383546	TO THE
-2.3841	TO TO
-2.3841	TO USE
-2.3841	TO WALK
-2.3841	TO WHO
-0.7120026	TOLD </s>
-0.7120026	TOMORROW AND
-1.013033	TONIGHT </s>
-1.013033	TONIGHT TOMORROW
-1.314063	TOO BADLY
-1.314063	TOO HOT
-1.314063	TOO MUCH
-1.314063	TOO STRESS
-0.7120026	TOOK PICTURES
-0.7120026	TORE MY
-0.7120026	TORNADO </s>
-1.013033	TRACK </s>
-1.013033	TRACK OVER
-0.7120026	TREATMENT FACILITY
-0.7120026	TRIP SO
-0.7120026	TROUBLE IT'S
-1.189124	TRUCKLOADS AND
-1.189124	TRUCKLOADS OF
-1.189124	TRUCKLOADS TRUCKLOADS
-0.7120026	TRUST </s>
-0.1622952	TRYING TO
-0.7120026	TUES THEN
-1.013033	TUESDAY I
-1.013033	TUESDAY THEN
-0.7120026	TURNED THIRTEEN
-0.7120026	TWELVE </s>
-0.7743552	TWO </s>
-1.490154	TWO GIRLS
-1.490154	TWO GRAND
-1.490154	TWO SISTERS
-1.490154	TWO THOUSAND
-1.490154	UH DOING
-1.490154	UH EXERCISE
-1.490154	UH I
-1.490154	UH NOTHING
-1.490154	UH SARASOTA
-1.490154	UH VERY
-0.7120026	UHH HE'LL
-1.753395	UM BECAUSE
-1.753395	UM BUT
-1.753395	UM GOT
-1.753395	UM HE
-1.753395	UM HE'S
-1.753395	UM JUST
-1.753395	UM SATURDAY
-1.753395	UM WENT
-1.753395	UM YEAH
-1.753395	UM YES
-1.753395	UM YOU
-1.013033	UMM NO
-1.013033	UMM THE
-0.7120026	UNCLE INVITED
-0.7120026	UNDER MY
-0.7120026	UNION WE
-1.013033	UNPACKED EVERYTHING
-1.013033	UNPACKED YET
-1.615093	UP </s>
-1.615093	UP AND
-1.615093	UP BECAUSE
-1.615093	UP COMING
-1.615093	UP NORTH
-1.615093	UP SOME
-1.615093	UP TO
-1.615093	UP WALKING
-0.7120026	USE MY
-0.7120026	USED TO
-0.7120026	VACATIONS DAYS
-0.7120026	VARIETY </s>
-1.557101	VERY BUSY
-1.557101	VERY EXCITING
-1.557101	VERY GREAT
-1.557101	VERY HELPFUL
-1.557101	VERY SWEET
-0.8413019	VERY VERY
-0.7120026	VISITED WITH
-0.7120026	VP IT
-0.7120026	WABATONGUSHI </s>
-0.7120026	WAL MART
-1.013033	WALK AROUND
-1.013033	WALK WITHOUT
-0.7120026	WALKED AROUND
-0.2972339	WALKING AROUND
-0.7120026	WANT TO
-0.2972339	WANTED TO
-0.2972339	WANTS TO
-0.7120026	WARNING </s>
-1.274958	WAS </s>
-1.990756	WAS AND
-1.990756	WAS EMPTIED
-1.274958	WAS FUN
-1.990756	WAS GETTING
-1.990756	WAS IT'S
-1.990756	WAS KIND
-1.990756	WAS LOTS
-1.990756	WAS ONE
-1.990756	WAS OUT
-1.274958	WAS REALLY
-1.990756	WAS THE
-1.990756	WAS TOO
-1.274958	WAS TWO
-1.990756	WAS UP
-0.7120026	WASH THE
-1.013033	WASTE A
-1.013033	WASTE THEIR
-0.7120026	WAWA ONTARIO
-1.410973	WAY IT
-1.410973	WAY MORE
-1.410973	WAY NORTH
-1.410973	WAY THE
-1.410973	WAY YOU'RE
-2.092214	WE ALSO
-1.065385	WE ARE
-2.092214	WE COULD
-2.092214	WE COULDN'T
-2.092214	WE DROVE
-2.092214	WE GOT
-1.065385	WE HAD
-2.092214	WE HAVE
-2.092214	WE KIND
-2.092214	WE MET
-2.092214	WE SAW
-2.092214	WE STARTED
-2.092214	WE TOOK
-2.092214	WE WALKED
-1.065385	WE WENT
-1.376415	WE WERE
-2.092214	WE WILL
-0.7120026	WE'LL JUST
-1.013033	WE'RE GOOD
-1.013033	WE'RE WORKING
-1.013033	WE'VE BEEN
-1.013033	WE'VE HAD
-1.410973	WEDDING </s>
-1.410973	WEDDING AND
-1.410973	WEDDING I
-1.410973	WEDDING IN
-1.410973	WEDDING RECEPTION
-1.189124	WEEK </s>
-0.4733252	WEEK AND
-0.3226178	WEEKEND </s>
-1.615093	WEEKEND PROBABLY
-1.615093	WEEKEND SO
-1.615093	WEEKEND UH
-0.7120026	WEEKENDS BEFORE
-0.7120026	WEIRD SITUATION
-1.557101	WELL AND
-0.8413019	WELL I'M
-1.557101	WELL IT
-1.557101	WELL IT'S
-1.557101	WELL RIGHT
-1.557101	WELL THE
-1.490154	WENT DOWN
-1.490154	WENT FROM
-1.490154	WENT THROUGH
-0.4633252	WENT TO
-1.557101	WERE ALL
-1.557101	WERE ANTICIPATING
-1.557101	WERE OUT
-1.557101	WERE THE
-1.557101	WERE THERE
-1.557101	WERE TURNED
-1.557101	WERE UP
-1.013033	WEREN'T IN
-1.013033	WEREN'T OUT
-1.013033	WHAT I'VE
-1.013033	WHAT YOU
-0.7120026	WHATEVER YEAH
-0.7120026	WHEELCHAIR ANYWAY
-0.6951739	WHEN I
-1.410973	WHEN THERE'S
-1.410973	WHEN WE
-1.410973	WHEN YOUR
-0.7120026	WHENEVER YOU
-1.557101	WHERE DID
-1.557101	WHERE HE
-1.557101	WHERE I
-1.557101	WHERE I'M
-1.557101	WHERE IT
-1.557101	WHERE THAT
-1.557101	WHERE YOU
-0.7120026	WHICH ONE
-1.013033	WHILE I
-1.013033	WHILE WE
-0.7120026	WHITMORE LAKE
-1.189124	WHO IS
-1.189124	WHO SAID
-1.189124	WHO WOULD
-0.7120026	WHOLE BUNCH
-0.7120026	WHY ARE
-1.013033	WILL PROBABLY
-1.013033	WILL STAY
-1.712003	WITH FRIENDS
-1.712003	WITH HER
-1.712003	WITH KIDS
-1.712003	WITH MY
-1.712003	WITH POOP
-1.712003	WITH THAT
-0.7114483	WITH THE
-0.7120026	WITHOUT FALLING
-0.7120026	WON </s>
-0.7120026	WON'T BE
-1.189124	WORK BUT
-1.189124	WORK PROBABLY
-1.189124	WORK SATURDAY
-1.410973	WORKING </s>
-1.410973	WORKING AT
-1.410973	WORKING I
-1.410973	WORKING ON
-1.410973	WORKING TEN
-0.7120026	WORKS </s>
-0.7120026	WOULD DO
-0.7120026	WRITING A
-0.7120026	YA'LL ARE
-0.3606157	YEAH </s>
-2.303067	YEAH ABSOLUTELY
-1.587268	YEAH AND
-1.587268	YEAH I'M
-2.303067	YEAH IN
-2.303067	YEAH IT
-1.587268	YEAH IT'S
-2.303067	YEAH NO
-1.302513	YEAH SO
-2.303067	YEAH THAT
-2.303067	YEAH THE
-2.303067	YEAH THERE'S
-1.276239	YEAH WE
-2.303067	YEAH WELL
-2.303067	YEAH YEP
-0.4633252	YEAR </s>
-0.7743552	YEAR AGO
-1.490154	YEAR AND
-0.7120026	YEARS OLD
-0.7120026	YEP </s>
-0.3357921	YES </s>
-2.126976	YES IF
-1.100147	YES IT
-2.126976	YES IT'S
-1.411177	YES MY
-2.126976	YES OH
-2.126976	YES THERE
-2.126976	YES THEY'RE
-2.126976	YES TWO
-2.126976	YES YEAH
-1.411177	YES YES
-0.4895996	YET </s>
-1.490154	YET BUT
-1.490154	YET TO
-2.189124	YOU ALL
-2.189124	YOU AND
-2.189124	YOU BACK
-2.189124	YOU CAN
-1.473325	YOU COULD
-2.189124	YOU DIDN'T
-2.189124	YOU DON'T
-2.189124	YOU GET
-1.473325	YOU HAVE
-2.189124	YOU HERE
-2.189124	YOU I'M
-2.189124	YOU JUST
-0.4771213	YOU KNOW
-2.189124	YOU MAY
-2.189124	YOU MOVE
-2.189124	YOU PAID
-2.189124	YOU SHOULD
-2.189124	YOU WEREN'T
-2.189124	YOU WON'T
-1.189124	YOU'RE DEPRESSED
-1.189124	YOU'RE GOING
-1.189124	YOU'RE NOT
-1.013033	YOUR GROWN
-1.013033	YOUR INCOME
-1.189124	YUP </s>
-1.189124	YUP IT
-1.189124	YUP NO
-1.013033	ZOO </s>
-1.013033	ZOO AND

\end\
