
\data\
ngram 1=688
ngram 2=1946

\1-grams:
-3.420451	17	-0.07662052
-3.420451	18	-0.04598506
-2.94333	300	-0.02319655
-3.420451	6	-0.09207269
-3.420451	600	-0.09207269
-3.420451	96	-0.09207269
-3.420451	96TH	-0.09207269
-0.9955692	</s>
-99	<s>	-0.2166311
-3.119421	<unk>	-0.0870941
-1.539637	A	-0.1304494
-2.818391	ABOUT	-0.0909161
-3.420451	ABSOLUTELY	-0.04598506
-3.420451	ACCESSIBLE	-0.07662052
-2.721481	ACTUALLY	-0.1413104
-3.420451	ADRIAN	-0.0909161
-3.420451	AFTER	-0.09141216
-3.420451	AGAIN	-0.09025382
-2.94333	AGO	-0.08441531
-3.420451	ALCOHOL	-0.09207269
-2.517361	ALL	-0.1102483
-3.119421	ALMOST	-0.09190766
-3.420451	ALONG	-0.07951753
-2.94333	ALSO	-0.0889262
-3.420451	ALWAYS	-0.09124687
-3.119421	AM	-0.07866748
-3.119421	AMAZING	-0.04025965
-2.818391	AN	-0.1819303
-1.451968	AND	-0.02521691
-3.420451	ANIMALS	-0.09108152
-3.420451	ANOTHER	-0.09174255
-3.420451	ANTI	-0.09207269
-3.420451	ANTICIPATING	-0.09207269
-3.420451	ANTIDEPRESSANTS	-0.08992229
-3.119421	ANY	-0.09141216
-3.420451	ANYONE	-0.09174255
-3.420451	ANYTHING	-0.08859367
-3.420451	ANYWAY	-0.04598506
-3.420451	APPEAR	-0.09174255
-3.420451	APPOINTMENTS	-0.04598506
-2.420451	ARE	-0.0956492
-3.420451	AREA	-0.04598506
-3.420451	ARMY	-0.04598506
-2.721481	AROUND	-0.1350238
-3.119421	AS	-0.08475108
-2.306508	AT	-0.09638456
-3.420451	AUDITING	-0.09207269
-3.420451	AUNT	-0.09174255
-3.119421	AWAY	-0.08792784
-2.6423	BACK	-0.2493792
-3.420451	BAD	-0.09207269
-3.420451	BADLY	-0.04598506
-3.119421	BANK	-0.07627843
-2.94333	BASED	-0.2075887
-3.420451	BASEMENT	-0.08709409
-3.420451	BASICALLY	-0.08959052
-3.420451	BATH	-0.07662052
-3.420451	BATTLE	-0.09207269
-2.190002	BE	-0.07595022
-3.420451	BEACH	-0.04598506
-3.420451	BEAVERS	-0.04598506
-2.420451	BECAUSE	-0.3605624
-3.420451	BED	-0.09207269
-2.818391	BEEN	-0.1794453
-2.94333	BEFORE	-0.02570302
-2.721481	BEING	-0.3068859
-3.420451	BELONGS	-0.04598506
-3.119421	BETWEEN	-0.2840959
-3.119421	BEYOND	-0.04007369
-2.721481	BIG	-0.09141216
-3.420451	BIKE	-0.04598506
-3.420451	BILLY	-0.09207269
-3.420451	BIRTHDAY	-0.09190765
-3.420451	BIT	-0.08842731
-3.420451	BLAST	-0.08508656
-3.420451	BOOK	-0.08959052
-3.420451	BORING	-0.09207269
-3.420451	BORN	-0.07662052
-3.420451	BOTHER	-0.04598506
-3.420451	BRASS	-0.09207269
-3.420451	BRING	-0.09157739
-2.94333	BUNCH	-0.5966758
-3.119421	BUSY	-0.08692716
-2.058723	BUT	-0.07876
-3.420451	BUYING	-0.09174255
-3.119421	CALLED	-0.0900881
-2.517361	CAN	-0.03464612
-3.420451	CAN'T	-0.08709409
-3.420451	CANADA	-0.09157739
-3.420451	CAROLINA	-0.0909161
-2.94333	CASH	-0.07542198
-3.420451	CATCH	-0.0909161
-2.818391	CAUSE	-0.0716335
-3.420451	CENTERVILLE	-0.09207269
-3.420451	CENTRAL	-0.09025382
-3.420451	CHAUFFEUR	-0.09190765
-3.420451	CLASS	-0.04598506
-3.420451	CLASSES	-0.07662052
-3.420451	CLEANED	-0.0909161
-3.420451	CLEANING	-0.04598506
-2.94333	COLLEGE	-0.1537706
-3.119421	COME	-0.08642595
-3.119421	COMING	-0.09091611
-3.420451	COMMERCIAL	-0.08508656
-3.420451	COMMITTED	-0.09207269
-3.420451	COMMUNITY	-0.09174255
-3.420451	COMPANIES	-0.08692715
-3.420451	COMPLETELY	-0.09108152
-3.420451	COMPUTER	-0.09207269
-3.420451	COMPUTERS	-0.08239534
-3.119421	CONE	-0.2505634
-3.420451	CONTRACTORS	-0.07662052
-3.420451	COOL	-0.04598506
-3.420451	COUCH	-0.09124687
-2.818391	COULD	-0.0830697
-3.119421	COULDN'T	-0.09124688
-3.119421	COUPLE	-0.09108153
-3.420451	COURSE	-0.08809438
-3.420451	CRAZY	-0.04598506
-3.420451	CREDIT	-0.09207269
-3.420451	CREEK	-0.04598506
-3.420451	CRYSTAL	-0.04598506
-3.420451	CUFF	-0.08592416
-3.420451	CURRENTLY	-0.09008809
-3.420451	DAD'S	-0.09174255
-3.420451	DATE	-0.08842731
-3.420451	DAUGHTER	-0.04598506
-3.119421	DAY	-0.04340873
-2.6423	DAYS	-0.08303441
-3.420451	DEAL	-0.08859367
-3.420451	DEALING	-0.09058509
-3.420451	DECIDE	-0.08909238
-3.420451	DECIDED	-0.08959052
-2.94333	DEFINITELY	-0.03124281
-3.420451	DELTA	-0.09174255
-3.420451	DEPARTMENT	-0.04598506
-3.420451	DEPRESSANTS	-0.09058509
-2.94333	DEPRESSED	-0.04506668
-2.94333	DEPRESSION	-0.07934764
-2.818391	DETROIT	-0.1356034
-2.94333	DID	-0.07866746
-3.420451	DIDN'T	-0.09207269
-3.420451	DIED	-0.07662052
-3.420451	DIFFERENCE	-0.09190765
-3.119421	DIFFERENT	-0.0915774
-3.420451	DIRT	-0.09190765
-3.119421	DISABILITY	-0.2505634
-3.420451	DISASTER	-0.09207269
-3.420451	DISEASE	-0.09207269
-3.420451	DNA	-0.09207269
-2.575353	DO	-0.07654798
-3.420451	DOCTORS	-0.09207269
-3.420451	DOES	-0.04598506
-3.420451	DOESN'T	-0.09207269
-3.420451	DOG	-0.07662052
-2.94333	DOING	-0.07490731
-3.420451	DOLLARS	-0.08424735
-2.274323	DON'T	-0.2733793
-3.420451	DONAVAN	-0.04598506
-2.721481	DOWN	-0.1047966
-3.119421	DOWNTOWN	-0.09124688
-2.94333	DRAINS	-0.07627841
-3.119421	DRIVE	-0.09025383
-3.119421	DRIVING	-0.09075063
-3.420451	DROVE	-0.0909161
-3.420451	DRUG	-0.07662052
-3.420451	EACH	-0.04598506
-2.94333	EIGHT	-0.08925848
-3.119421	ELEMENTARY	-0.07627843
-3.420451	ELSE	-0.09174255
-3.420451	EM	-0.08842731
-3.420451	EMBARRASSING	-0.04598506
-3.420451	EMPTIED	-0.08992229
-3.420451	ENDED	-0.0909161
-3.119421	ENOUGH	-0.07490733
-3.420451	EQUITY	-0.08959052
-3.420451	ERR	-0.09174255
-3.420451	ERUPTED	-0.09058509
-2.818391	EVEN	-0.1806067
-3.420451	EVER	-0.09207269
-3.119421	EVERY	-0.09141217
-3.420451	EVERYBODY	-0.08875997
-3.420451	EVERYONE	-0.09207269
-3.119421	EVERYTHING	-0.08104346
-3.420451	EVERYWHERE	-0.08842731
-3.420451	EVICT	-0.09207269
-3.420451	EXACT	-0.09207269
-2.818391	EXACTLY	-0.3976966
-3.420451	EXCITED	-0.04598506
-3.420451	EXCITING	-0.04598506
-3.420451	EXERCISE	-0.04598506
-3.420451	FACILITY	-0.04598506
-3.420451	FAIRLY	-0.09207269
-3.420451	FALLING	-0.09124687
-3.420451	FALLS	-0.09207269
-2.94333	FAMILY	-0.02493334
-3.420451	FAN	-0.09207269
-3.420451	FANCY	-0.09207269
-3.420451	FARM	-0.08809438
-3.420451	FEEL	-0.08692715
-3.420451	FEES	-0.09174255
-3.119421	FESTIVAL	-0.07456388
-3.420451	FIELD	-0.08424735
-3.420451	FIFTY	-0.09141216
-3.420451	FIND	-0.09207269
-3.420451	FIREWORKS	-0.07662052
-2.94333	FIRST	-0.08809438
-3.420451	FISHING	-0.09190765
-3.420451	FIVE	-0.04598506
-3.420451	FIX	-0.08508656
-2.94333	FLORIDA	-0.03577462
-3.420451	FOOD	-0.09141216
-2.274323	FOR	-0.1183512
-3.420451	FORGOT	-0.08692715
-3.420451	FORMULA	-0.07662052
-3.420451	FORMULATE	-0.07951753
-3.420451	FORT	-0.09207269
-3.420451	FORTY	-0.04598506
-3.420451	FOUND	-0.0909161
-3.420451	FOUR	-0.09124687
-3.420451	FRESHMAN	-0.08809438
-3.119421	FRIDAY	-0.07713317
-3.119421	FRIENDS	-0.04377772
-2.34127	FROM	-0.2626604
-2.6423	FUN	-0.2149093
-3.420451	FUNCTIONAL	-0.09207269
-3.420451	GAME	-0.04598506
-3.420451	GARAGE	-0.09207269
-3.420451	GAY	-0.09207269
-3.420451	GENE	-0.04598506
-2.306508	GET	-0.184949
-3.420451	GETS	-0.09207269
-2.94333	GETTING	-0.204201
-3.420451	GIFTS	-0.04598506
-3.420451	GIRLS	-0.04598506
-3.119421	GIVE	-0.07849726
-3.420451	GIVING	-0.09157739
-2.575353	GO	-0.07490732
-3.420451	GOES	-0.04598506
-2.466208	GOING	-1.035793
-3.119421	GOLF	-0.04580155
-3.420451	GONE	-0.0909161
-2.6423	GOOD	-0.2267059
-2.575353	GOT	-0.1167722
-3.420451	GRADUATING	-0.09141216
-3.420451	GRAHAM	-0.04598506
-3.420451	GRAND	-0.04598506
-2.818391	GREAT	-0.0446988
-3.420451	GROWN	-0.08424735
-3.420451	GUYS	-0.09207269
-2.34127	HAD	-0.2642273
-3.119421	HALF	-0.08942454
-3.420451	HANDICAP	-0.09207269
-3.420451	HAPPENS	-0.09157739
-3.420451	HAPPY	-0.04598506
-3.119421	HARD	-0.08374304
-3.420451	HAS	-0.07951753
-2.098232	HAVE	-0.2531753
-3.420451	HAVEN'T	-0.09157739
-3.119421	HAVING	-0.2840959
-3.119421	HD	-0.02857727
-2.34127	HE	-0.1440252
-3.119421	HE'LL	-0.2940029
-2.721481	HE'S	-0.1378291
-3.420451	HELP	-0.07662052
-3.420451	HELPFUL	-0.04598506
-3.119421	HER	-0.09124688
-2.94333	HERE	-0.1708113
-3.420451	HIGH	-0.09190765
-3.420451	HILLS	-0.04598506
-3.420451	HIRE	-0.09190765
-2.94333	HISTORY	-0.167123
-3.119421	HOLIDAY	-0.08407932
-3.420451	HOLIDAYS	-0.08992229
-3.119421	HOME	-0.08792784
-3.420451	HONEY	-0.09207269
-3.119421	HOPEFULLY	-0.08205777
-3.420451	HOSE	-0.07662052
-3.420451	HOT	-0.04598506
-3.119421	HOUR	-0.04561795
-3.420451	HOURS	-0.07951753
-2.6423	HOUSE	-0.06554632
-3.420451	HOUSES	-0.09207269
-3.420451	HOW	-0.08424735
-3.420451	HOWEVER	-0.04598506
-3.420451	HUNDRED	-0.04598506
-3.420451	HURRICANE	-0.04598506
-3.420451	HUSBAND	-0.08942454
-1.475968	I	-0.404056
-3.420451	I'D	-0.09207269
-2.94333	I'LL	-0.2134542
-2.058723	I'M	-0.1520849
-3.119421	I'VE	-0.2961558
-3.119421	IDEA	-0.04451475
-2.517361	IF	-0.1488947
-3.420451	IMMEDIATELY	-0.09124687
-2.022511	IN	-0.08251094
-3.420451	INAUDIBLE	-0.04598506
-3.420451	INCH	-0.08842731
-3.119421	INCOME	-0.2940029
-3.420451	INDIVIDUAL	-0.04598506
-3.420451	INHERITANCE	-0.07662052
-3.119421	INSIDE	-0.06641357
-3.420451	INSTRUMENTS	-0.04598506
-3.420451	INTO	-0.09207269
-3.420451	INVITED	-0.09124687
-2.190002	IS	-0.06385959
-3.420451	ISN'T	-0.09207269
-3.420451	ISSUE	-0.09207269
-2.94333	ISSUES	-0.1997572
-1.786982	IT	-0.215786
-3.420451	IT'LL	-0.08942454
-1.840667	IT'S	-0.1507876
-3.119421	ITS	-0.0915774
-3.119421	JAZZ	-0.296486
-3.119421	JEFF	-0.296486
-3.420451	JEWISH	-0.08239534
-3.420451	JOANNE'S	-0.07662052
-3.420451	JOB	-0.08692715
-3.119421	JUNE	-0.04543428
-3.420451	JUNIOR	-0.04598506
-2.216331	JUST	-0.04211481
-3.420451	KIDS	-0.07662052
-2.94333	KIND	-0.5966758
-3.420451	KINDA	-0.09207269
-2.058723	KNOW	-0.08818823
-3.420451	LADY	-0.04598506
-2.94333	LAKE	-0.04525051
-3.119421	LANDLORD	-0.2905025
-2.94333	LAST	-0.09124687
-3.420451	LAUDERDALE'S	-0.08859367
-3.420451	LAWS'	-0.09207269
-3.420451	LEAGUE	-0.08809438
-3.420451	LECTURE	-0.07662052
-3.420451	LEFT	-0.0909161
-3.420451	LEGAL	-0.09207269
-3.420451	LESS	-0.08859367
-2.078028	LIKE	-0.07251036
-3.420451	LIONS	-0.09207269
-3.420451	LIONS'	-0.09207269
-3.420451	LIST	-0.08842731
-2.94333	LITTLE	-0.09174254
-3.119421	LIVE	-0.08792784
-2.818391	LOAN	-0.08726096
-3.119421	LOANS	-0.04451475
-3.420451	LOCATION	-0.07747459
-3.420451	LONG	-0.09157739
-3.420451	LOOK	-0.09008809
-3.119421	LOOKED	-0.08692716
-3.420451	LOST	-0.09174255
-3.420451	LOT	-0.08842731
-3.420451	LOTS	-0.08842731
-3.420451	LOVE	-0.08508656
-3.119421	LOVES	-0.08491886
-2.94333	MAINTENANCE	-0.2167707
-3.119421	MAKE	-0.09091611
-3.420451	MAKING	-0.08508656
-3.420451	MANGERS	-0.07662052
-2.94333	MARRIED	-0.1691554
-3.420451	MART	-0.08875997
-3.420451	MAY	-0.08859367
-3.119421	MAYBE	-0.08726098
-3.420451	MCKENZIE	-0.09190765
-2.6423	ME	-0.06113011
-3.420451	MEAN	-0.08692715
-3.420451	MEMORIAL	-0.09190765
-3.420451	MET	-0.09008809
-3.420451	MHM	-0.08792783
-2.721481	MHMM	-0.4060442
-3.119421	MIDDLE	-0.04174441
-3.119421	MIGHT	-0.2940029
-3.420451	MILES	-0.09025382
-3.420451	MILLER	-0.07662052
-3.420451	MOBILITY	-0.07662052
-3.420451	MODERATELY	-0.09207269
-2.94333	MONDAY	-0.04525052
-2.818391	MONEY	-0.03895628
-3.420451	MONTH	-0.08508656
-3.420451	MONTHS	-0.09190765
-3.420451	MOON	-0.07662052
-3.119421	MORE	-0.08842731
-2.94333	MORNING	-0.1987252
-3.420451	MOST	-0.09124687
-3.420451	MOSTLY	-0.08809438
-3.420451	MOUNTAINS	-0.08424735
-3.420451	MOVE	-0.09025382
-3.420451	MOVED	-0.08809438
-3.420451	MOVIE	-0.09190765
-3.420451	MOVING	-0.09108152
-2.818391	MUCH	-0.06903137
-3.119421	MUSIC	-0.09141216
-3.420451	MUSICIAN	-0.08842731
-2.216331	MY	-0.03764902
-3.420451	NEAR	-0.09190765
-3.420451	NEAT	-0.04598506
-3.420451	NEED	-0.0854218
-3.420451	NEUROLOGIST	-0.08692715
-3.420451	NEW	-0.09207269
-2.721481	NEXT	-0.160804
-2.94333	NICE	-0.1708113
-3.420451	NIECE	-0.08942454
-3.420451	NIECES	-0.08809438
-3.119421	NIGHT	-0.04543428
-3.420451	NINE	-0.09207269
-2.119421	NO	-0.1093892
-2.94333	NORTH	-0.0437777
-3.420451	NORTHEAST	-0.09141216
-3.420451	NORTHWEST	-0.08842731
-2.078028	NOT	-0.09337634
-3.119421	NOTHING	-0.09091611
-2.517361	NOW	-0.09500995
-3.420451	O'CLOCK	-0.08592416
-3.420451	OAK	-0.04598506
-3.420451	OCCASIONAL	-0.09207269
-3.420451	OCCASIONALLY	-0.08842731
-3.420451	OCEAN	-0.08508656
-2.058723	OF	-0.09546536
-3.420451	OFF	-0.08239534
-2.379058	OH	-0.1815669
-3.420451	OHIO	-0.0909161
-3.420451	OK	-0.04598506
-2.818391	OKAY	-0.1186759
-3.119421	OLD	-0.2505634
-2.216331	ON	-0.1840607
-2.34127	ONE	-0.1841731
-3.119421	ONES	-0.07456388
-2.94333	ONLY	-0.09108151
-3.420451	ONTARIO	-0.04598506
-2.721481	OR	-0.08842731
-3.420451	ORLANDO	-0.04598506
-2.818391	OTHER	-0.08809438
-3.420451	OUR	-0.09207269
-2.517361	OUT	-0.0007776693
-2.6423	OVER	-0.1206165
-3.119421	OVERPAID	-0.04340873
-3.119421	OVERWHELMING	-0.04561795
-2.818391	PAID	-0.4075617
-3.420451	PALM	-0.09207269
-3.420451	PANDAS	-0.04598506
-3.420451	PARENTS	-0.09207269
-3.420451	PART	-0.08859367
-3.420451	PARTNER'S	-0.07951753
-3.420451	PARTY	-0.08239534
-3.420451	PAY	-0.08709409
-3.420451	PEACEFUL	-0.09190765
-3.420451	PEOPLE	-0.04598506
-3.420451	PERHAPS	-0.09157739
-3.420451	PETE	-0.04598506
-3.420451	PETOSKEY	-0.0909161
-3.420451	PETS	-0.07662052
-3.420451	PICK	-0.0909161
-3.420451	PICTURES	-0.04598506
-3.119421	PLACE	-0.08323815
-3.420451	PLAN	-0.04598506
-3.119421	PLANNED	-0.08842731
-2.721481	PLAY	-0.03820975
-3.420451	PLAYED	-0.09058509
-3.119421	PLAYING	-0.07730392
-3.420451	PLUMBER	-0.08424735
-3.420451	POINT	-0.09157739
-3.420451	POOP	-0.07662052
-3.420451	POWER	-0.09207269
-3.420451	POWERFUL	-0.09207269
-3.420451	PRETTY	-0.09157739
-3.420451	PRINCESS	-0.04598506
-2.6423	PROBABLY	-0.04891085
-3.119421	PROBLEM	-0.08625875
-3.420451	PROFESSOR	-0.08239534
-3.420451	PROGRAMING	-0.08239534
-3.119421	PROOF	-0.04377772
-3.420451	PROPERTY	-0.09207269
-3.420451	PROPHYLACTIC	-0.09207269
-3.420451	PULLS	-0.09124687
-3.420451	PURPOSES	-0.04598506
-3.420451	PUT	-0.09124687
-3.420451	QUARTER	-0.09207269
-3.420451	QUICK	-0.09190765
-3.420451	QUICKEN	-0.09190765
-3.420451	QUIZZES	-0.09124687
-3.420451	RACE	-0.09190765
-3.420451	RAISED	-0.04598506
-3.420451	RAY	-0.09207269
-3.420451	READ	-0.04598506
-3.420451	READING	-0.07951753
-3.420451	REAL	-0.09141216
-3.119421	REALLY	-0.0915774
-3.420451	REALTOR	-0.09141216
-3.420451	REASON	-0.04598506
-3.420451	RECEPTION	-0.04598506
-3.420451	RECOMMEND	-0.08508656
-3.420451	RED	-0.09207269
-2.94333	REHEARSAL	-0.0830697
-3.420451	RELATIONSHIP	-0.09141216
-2.94333	RELATOR	-0.08542179
-3.420451	RELIGIOUS	-0.09207269
-3.420451	REMEMBER	-0.09207269
-3.420451	RESIDENTIAL	-0.04598506
-3.420451	REUPHOLSTERING	-0.09207269
-3.420451	RID	-0.08842731
-3.420451	RIDE	-0.09207269
-2.575353	RIGHT	-0.2664569
-3.420451	ROAD	-0.04598506
-3.420451	ROCHESTER	-0.09207269
-3.420451	ROTATOR	-0.09207269
-3.420451	ROYAL	-0.09207269
-3.420451	SAGINAW	-0.04598506
-2.721481	SAID	-0.2391406
-3.420451	SAINT	-0.09207269
-3.420451	SALE	-0.04598506
-3.420451	SALVATION	-0.09207269
-3.420451	SAME	-0.09207269
-3.420451	SARASOTA	-0.08239534
-2.94333	SATURDAY	-0.04506668
-3.420451	SAW	-0.09157739
-3.119421	SCHOOL	-0.02857727
-2.721481	SEE	-0.0700741
-3.420451	SEEN	-0.08692715
-2.94333	SELL	-0.1973454
-3.420451	SELLING	-0.08508656
-3.420451	SEMESTER	-0.08992229
-2.818391	SEVEN	-0.1354196
-3.119421	SHE	-0.08676016
-3.119421	SHOULD	-0.08826089
-3.420451	SHOULDER	-0.09207269
-3.420451	SHOWER	-0.08992229
-3.119421	SHOWS	-0.02953114
-3.420451	SHUT	-0.09141216
-3.119421	SICK	-0.2961558
-3.420451	SILLY	-0.07662052
-3.420451	SISTERS	-0.08692715
-3.420451	SIT	-0.08992229
-3.420451	SITUATION	-0.08592416
-3.420451	SLUSH	-0.09207269
-3.420451	SMALL	-0.09207269
-1.649599	SO	-0.04619846
-2.94333	SOME	-0.09141215
-3.119421	SOMEBODY	-0.04007369
-3.420451	SOMETHING	-0.09108152
-3.420451	SOMETIME	-0.04598506
-3.119421	SOUTH	-0.08726098
-3.420451	STARED	-0.09008809
-3.420451	START	-0.08959052
-3.119421	STARTED	-0.07798623
-3.119421	STARTS	-0.2946665
-3.420451	STAY	-0.04598506
-3.119421	STILL	-0.0915774
-3.119421	STRESS	-0.08726098
-3.420451	STRESSFUL	-0.04598506
-3.420451	STUDY	-0.09207269
-2.818391	STUFF	-0.1172079
-3.420451	STUMBLE	-0.09207269
-3.420451	SUICIDE	-0.08239534
-3.119421	SUNDAY	-0.08792784
-3.420451	SUPPLIES	-0.07662052
-2.6423	SURE	-0.1248646
-3.420451	SURGERY	-0.04598506
-3.420451	SWEET	-0.09174255
-3.420451	SYMPTOMS	-0.08709409
-3.420451	TAKE	-0.07951753
-3.420451	TALK	-0.07662052
-3.119421	TALKED	-0.2888258
-3.119421	TAMPA	-0.2505634
-3.119421	TEACH	-0.07610728
-2.94333	TEN	-0.07610726
-3.420451	TERRIBLE	-0.04598506
-2.94333	TEST	-0.03746193
-3.420451	THANK	-0.08709409
-1.915301	THAT	-0.1703347
-2.575353	THAT'S	-0.06553743
-1.539637	THE	-0.1349471
-3.119421	THEIR	-0.09141217
-2.818391	THEM	-0.0421148
-2.34127	THEN	-0.08662269
-3.420451	THERAPIST	-0.09008809
-2.274323	THERE	-0.132346
-2.575353	THERE'S	-0.1195573
-2.141697	THEY	-0.1545374
-3.119421	THEY'RE	-0.08205777
-3.119421	THING	-0.02953114
-2.94333	THINGS	-0.026855
-2.6423	THINK	-0.06377988
-3.420451	THIRTEEN	-0.07662052
-2.6423	THIS	-0.1375041
-2.94333	THOUGH	-0.07507894
-3.420451	THOUSAND	-0.09207269
-2.94333	THREE	-0.0909161
-2.94333	THROUGH	-0.07387614
-2.818391	TIME	-0.239601
-3.420451	TIMES	-0.07951753
-1.73921	TO	-0.0883207
-3.420451	TOLD	-0.04598506
-3.420451	TOMORROW	-0.07662052
-3.119421	TONIGHT	-0.04580155
-2.818391	TOO	-0.0909161
-3.420451	TOOK	-0.09207269
-3.420451	TORE	-0.08959052
-3.420451	TORNADO	-0.04598506
-3.119421	TRACK	-0.0448828
-3.420451	TREATMENT	-0.09207269
-3.119421	TRIP	-0.08121268
-3.420451	TROUBLE	-0.08592416
-2.94333	TRUCKLOADS	-0.07215206
-3.420451	TRUST	-0.04598506
-2.94333	TRYING	-0.5924959
-3.420451	TUES	-0.09025382
-3.119421	TUESDAY	-0.075422
-3.420451	TURNED	-0.09207269
-3.420451	TV	-0.09190765
-3.420451	TWELVE	-0.04598506
-2.575353	TWO	-0.09308738
-3.420451	TYPE	-0.09190765
-2.6423	UH	-0.07507896
-3.420451	UHH	-0.09190765
-2.379058	UM	-0.06130725
-3.119421	UMM	-0.07610727
-3.420451	UNCLE	-0.09207269
-3.420451	UNDER	-0.08959052
-3.420451	UNION	-0.08759452
-3.119421	UNPACKED	-0.09091611
-2.517361	UP	-0.01539233
-3.420451	USE	-0.08959052
-3.420451	USED	-0.08424735
-3.420451	VACATIONS	-0.09124687
-3.420451	VARIETY	-0.04598506
-2.575353	VERY	-0.1389002
-3.420451	VISITED	-0.09058509
-3.420451	VP	-0.08508656
-3.420451	WABATONGUSHI	-0.04598506
-3.420451	WAL	-0.09207269
-3.119421	WALK	-0.09124688
-3.420451	WALKED	-0.09141216
-3.119421	WALKING	-0.2959906
-3.420451	WANT	-0.08424735
-3.119421	WANTED	-0.2888258
-3.119421	WANTS	-0.2888258
-3.420451	WARNING	-0.04598506
-2.098232	WAS	-0.04592884
-3.420451	WASH	-0.07951753
-3.119421	WASTE	-0.07917771
-3.420451	WAWA	-0.09207269
-2.721481	WAY	-0.07076786
-1.973293	WE	-0.1686257
-3.420451	WE'LL	-0.08959052
-3.119421	WE'RE	-0.09041949
-3.119421	WE'VE	-0.08959053
-2.721481	WEDDING	-0.006240554
-2.94333	WEEK	-0.1537706
-2.466208	WEEKEND	-0.3181581
-3.420451	WEEKENDS	-0.09174255
-3.420451	WEIRD	-0.09207269
-2.466208	WELL	-0.106189
-2.575353	WENT	-0.1209117
-2.575353	WERE	-0.07267001
-3.119421	WEREN'T	-0.08676016
-2.94333	WHAT	-0.08659307
-3.420451	WHATEVER	-0.0854218
-3.420451	WHEELCHAIR	-0.09207269
-2.721481	WHEN	-0.1418302
-3.420451	WHENEVER	-0.08709409
-2.517361	WHERE	-0.04708456
-3.420451	WHICH	-0.09025382
-3.119421	WHILE	-0.07267003
-3.420451	WHITMORE	-0.09174255
-2.94333	WHO	-0.0884273
-3.420451	WHOLE	-0.09174255
-3.420451	WHY	-0.09058509
-3.119421	WILL	-0.09108153
-2.420451	WITH	-0.09788169
-3.420451	WITHOUT	-0.09207269
-3.420451	WON	-0.04598506
-3.420451	WON'T	-0.08942454
-2.94333	WORK	-0.08692715
-2.721481	WORKING	-0.02338988
-3.420451	WORKS	-0.04598506
-3.420451	WOULD	-0.09108152
-3.420451	WRITING	-0.07951753
-3.420451	YA'LL	-0.09058509
-1.807667	YEAH	-0.3340693
-2.6423	YEAR	-0.3037941
-3.420451	YEARS	-0.09190765
-3.420451	YEP	-0.04598506
-2.005477	YES	-0.4032057
-2.6423	YET	-0.07984333
-1.929089	YOU	-0.2512069
-2.94333	YOU'RE	-0.08659307
-3.119421	YOUR	-0.09174255
-2.94333	YUP	-0.03426927
-3.119421	ZOO	-0.02857727

\2-grams:
-0.7181789	17 AND
-0.7181789	18 </s>
-1.1953	300 </s>
-1.1953	300 AND
-1.1953	300 WE
-0.7181789	6 WEEKENDS
-0.7181789	600 MILES
-0.7181789	96 YEARS
-0.7181789	96TH BIRTHDAY
-2.429137	<s> A
-2.429137	<s> ACTUALLY
-3.143061	<s> ALL
-3.143061	<s> AN
-1.146128	<s> AND
-3.143061	<s> AROUND
-3.143061	<s> BE
-3.143061	<s> BECAUSE
-3.143061	<s> BEFORE
-3.143061	<s> BORN
-3.143061	<s> BRASS
-2.005849	<s> BUT
-3.143061	<s> BUYING
-3.143061	<s> CAUSE
-3.143061	<s> COUPLE
-3.143061	<s> DEFINITELY
-3.143061	<s> DELTA
-3.143061	<s> DOCTORS
-3.143061	<s> DOWNTOWN
-3.143061	<s> ELEMENTARY
-3.143061	<s> EVEN
-3.143061	<s> FLORIDA
-2.429137	<s> FOR
-3.143061	<s> FORT
-2.429137	<s> GOING
-3.143061	<s> GOOD
-2.429137	<s> HE
-3.143061	<s> HE'S
-3.143061	<s> HISTORY
-1.146128	<s> I
-2.323168	<s> I'M
-3.143061	<s> IF
-2.073225	<s> IN
-2.323168	<s> IT
-2.005849	<s> IT'S
-2.429137	<s> JEFF
-3.143061	<s> JUST
-3.143061	<s> MHM
-1.725912	<s> MHMM
-3.143061	<s> MILLER
-3.143061	<s> MODERATELY
-3.143061	<s> MUSIC
-2.429137	<s> MY
-3.143061	<s> NEXT
-1.424882	<s> NO
-3.143061	<s> NOT
-3.143061	<s> NOTHING
-1.725912	<s> OH
-3.143061	<s> OK
-2.429137	<s> OKAY
-2.429137	<s> ONE
-3.143061	<s> OR
-3.143061	<s> OVER
-3.143061	<s> PALM
-3.143061	<s> PERHAPS
-3.143061	<s> PLAY
-3.143061	<s> PRETTY
-3.143061	<s> PROBABLY
-3.143061	<s> READ
-2.073225	<s> RIGHT
-3.143061	<s> ROTATOR
-3.143061	<s> SAINT
-3.143061	<s> SHE
-3.143061	<s> SHOULD
-1.24879	<s> SO
-3.143061	<s> SOME
-3.143061	<s> SUNDAY
-3.143061	<s> TEN
-3.143061	<s> THANK
-3.143061	<s> THAT
-2.429137	<s> THAT'S
-3.143061	<s> THE
-3.143061	<s> THEN
-3.143061	<s> THERE
-3.143061	<s> THERE'S
-1.757086	<s> THEY
-3.143061	<s> THROUGH
-3.143061	<s> TV
-3.143061	<s> TWO
-2.073225	<s> UH
-2.323168	<s> UM
-2.429137	<s> UMM
-3.143061	<s> VERY
-2.323168	<s> WE
-2.429137	<s> WE'VE
-1.757086	<s> WELL
-3.143061	<s> WENT
-3.143061	<s> WHAT
-3.143061	<s> WHEN
-3.143061	<s> WHENEVER
-3.143061	<s> WHERE
-3.143061	<s> WITH
-3.143061	<s> WORKING
-0.9777236	<s> YEAH
-1.146128	<s> YES
-1.757086	<s> YOU
-3.143061	<s> YUP
-1.019209	<unk> IN
-1.019209	<unk> THIS
-2.598993	A BAD
-1.529157	A BIG
-2.598993	A BLAST
-1.885069	A BUNCH
-2.598993	A CHAUFFEUR
-2.598993	A COMMUNITY
-2.598993	A COUPLE
-2.598993	A DAY
-2.598993	A DIFFERENT
-2.598993	A DIRT
-2.598993	A DISASTER
-2.598993	A DRUG
-2.598993	A FAIRLY
-2.598993	A FISHING
-2.598993	A FUNCTIONAL
-2.598993	A GARAGE
-2.598993	A GOLF
-2.598993	A GOOD
-1.885069	A GREAT
-1.885069	A HALF
-2.598993	A HE
-2.598993	A HONEY
-2.598993	A HOUSE
-2.598993	A JUNIOR
-2.598993	A LAKE
-1.885069	A LANDLORD
-2.598993	A LECTURE
-2.598993	A LIONS
-2.598993	A LIONS'
-2.598993	A LITTLE
-1.7791	A LOAN
-2.598993	A LONG
-2.598993	A LOT
-2.598993	A MOVIE
-2.598993	A MUSICIAN
-2.598993	A NEW
-2.598993	A PLAY
-2.598993	A PROBLEM
-2.598993	A PROFESSOR
-2.598993	A PROPHYLACTIC
-2.598993	A QUARTER
-2.598993	A REAL
-1.885069	A REHEARSAL
-2.598993	A RELATIONSHIP
-2.598993	A RELATOR
-2.598993	A SALVATION
-2.598993	A SHOWER
-2.598993	A SMALL
-1.885069	A TEST
-2.598993	A THERAPIST
-2.598993	A VERY
-2.598993	A VP
-1.7791	A WEDDING
-1.885069	A WEEK
-2.598993	A WEIRD
-2.598993	A WHEELCHAIR
-2.598993	A WHOLE
-1.529157	A YEAR
-2.598993	A YOU
-1.320239	ABOUT 600
-1.320239	ABOUT LAST
-1.320239	ABOUT SELLING
-1.320239	ABOUT TEN
-0.7181789	ABSOLUTELY </s>
-0.7181789	ACCESSIBLE AND
-1.417149	ACTUALLY DOWN
-1.417149	ACTUALLY FROM
-0.7032252	ACTUALLY I
-1.417149	ACTUALLY I'M
-0.7181789	ADRIAN WHERE
-0.7181789	AFTER BEING
-0.7181789	AGAIN THEN
-1.1953	AGO BECAUSE
-1.1953	AGO BUT
-1.1953	AGO THERE
-0.7181789	ALCOHOL TREATMENT
-1.621269	ALL FROM
-1.621269	ALL INDIVIDUAL
-1.621269	ALL OUT
-0.8013763	ALL THE
-1.621269	ALL THROUGH
-1.019209	ALMOST LOST
-1.019209	ALMOST NINE
-0.7181789	ALONG THE
-1.1953	ALSO HAD
-1.1953	ALSO TRYING
-1.1953	ALSO WHEN
-0.7181789	ALWAYS FUN
-1.019209	AM A
-1.019209	AM WORKING
-1.019209	AMAZING </s>
-1.019209	AMAZING YOU
-1.320239	AN AUNT
-0.6063152	AN HOUR
-1.320239	AN OCCASIONAL
-2.686662	AND 18
-2.686662	AND </s>
-1.866769	AND A
-2.686662	AND ALCOHOL
-2.686662	AND ALL
-1.866769	AND AND
-2.686662	AND BE
-2.686662	AND BEYOND
-2.686662	AND CATCH
-2.686662	AND ENDED
-2.686662	AND EVEN
-2.686662	AND EVERYTHING
-2.686662	AND FRIDAY
-2.686662	AND GIVE
-2.686662	AND GO
-2.686662	AND GOT
-2.686662	AND HANDICAP
-1.616826	AND HE
-1.616826	AND I
-2.686662	AND I'M
-2.686662	AND IF
-2.686662	AND IT'S
-1.616826	AND JUST
-2.686662	AND LESS
-2.686662	AND LIKE
-2.686662	AND LOOK
-2.686662	AND LOOKED
-2.686662	AND MIDDLE
-2.686662	AND NOT
-2.686662	AND NOW
-2.686662	AND ONE
-2.686662	AND OUT
-2.686662	AND PLAY
-2.686662	AND PROPERTY
-2.686662	AND RAISED
-0.8893017	AND SO
-1.972738	AND STUFF
-2.686662	AND TEACH
-1.300688	AND THE
-2.686662	AND THEIR
-1.866769	AND THEN
-1.866769	AND THEY
-2.686662	AND TRUCKLOADS
-2.686662	AND TWELVE
-2.686662	AND UH
-1.972738	AND UM
-2.686662	AND VISITED
-2.686662	AND WAL
-2.686662	AND WALK
-2.686662	AND WE
-2.686662	AND WHATEVER
-2.686662	AND WHEN
-2.686662	AND WHITMORE
-2.686662	AND WITH
-1.972738	AND YOU
-2.686662	AND YOUR
-0.7181789	ANIMALS WERE
-0.7181789	ANOTHER REHEARSAL
-0.7181789	ANTI DEPRESSANTS
-0.7181789	ANTICIPATING MOVING
-0.7181789	ANTIDEPRESSANTS FOR
-1.019209	ANY IDEA
-1.019209	ANY WORK
-0.7181789	ANYONE WHO
-0.7181789	ANYTHING LIKE
-0.7181789	ANYWAY </s>
-0.7181789	APPEAR DEPRESSED
-0.7181789	APPOINTMENTS </s>
-1.718179	ARE 17
-1.004255	ARE </s>
-1.718179	ARE ALL
-1.718179	ARE ALSO
-1.718179	ARE GOING
-1.718179	ARE IT'S
-1.004255	ARE LIKE
-1.718179	ARE YOU
-0.7181789	AREA </s>
-0.7181789	ARMY </s>
-1.417149	AROUND JOANNE'S
-1.417149	AROUND SO
-0.7032252	AROUND THE
-1.417149	AROUND WE
-1.019209	AS IT
-1.019209	AS OVERWHELMING
-1.118199	AT A
-1.832122	AT ALL
-1.832122	AT ALMOST
-1.832122	AT BED
-1.832122	AT EIGHT
-1.832122	AT FIRST
-1.832122	AT LIKE
-1.832122	AT QUICKEN
-1.832122	AT SO
-1.118199	AT THE
-1.832122	AT YOU
-0.7181789	AUDITING DEPARTMENT
-0.7181789	AUNT WHO
-1.019209	AWAY FOR
-1.019209	AWAY FROM
-0.4264946	BACK AND
-1.49633	BACK GET
-1.49633	BACK PLAYING
-1.49633	BACK TO
-0.7181789	BAD LOCATION
-0.7181789	BADLY </s>
-1.019209	BANK AND
-1.019209	BANK BEYOND
-0.4813765	BASED IT
-1.1953	BASED ON
-0.7181789	BASEMENT YOU
-0.7181789	BASICALLY ON
-0.7181789	BATH AND
-0.7181789	BATTLE CREEK
-1.948628	BE A
-1.948628	BE COMMERCIAL
-1.948628	BE DEALING
-1.948628	BE EMBARRASSING
-1.948628	BE GOOD
-1.948628	BE GRADUATING
-1.948628	BE HAPPY
-1.234704	BE IN
-1.948628	BE IT
-1.948628	BE ONE
-1.948628	BE RESIDENTIAL
-1.948628	BE SILLY
-1.948628	BE STARED
-1.948628	BE UHH
-1.948628	BE VERY
-1.948628	BE YOU
-0.7181789	BEACH </s>
-0.7181789	BEAVERS </s>
-1.718179	BECAUSE FOR
-0.30103	BECAUSE I
-1.718179	BECAUSE I'VE
-1.718179	BECAUSE IT
-1.718179	BECAUSE MY
-1.718179	BECAUSE WE
-0.7181789	BED BATH
-1.320239	BEEN HOME
-0.6063152	BEEN ON
-1.320239	BEEN TOLD
-1.1953	BEFORE </s>
-1.1953	BEFORE THAT
-1.1953	BEFORE THE
-0.3473134	BEING A
-1.417149	BEING AWAY
-1.417149	BEING IN
-0.7181789	BELONGS </s>
-0.3052852	BETWEEN THE
-1.019209	BEYOND </s>
-1.019209	BEYOND THAT
-1.417149	BIG DEAL
-1.417149	BIG DIFFERENCE
-1.417149	BIG FANCY
-1.417149	BIG PARTY
-1.417149	BIG WARNING
-0.7181789	BIKE </s>
-0.7181789	BILLY GRAHAM
-0.7181789	BIRTHDAY WHILE
-0.7181789	BIT OF
-0.7181789	BLAST IT
-0.7181789	BOOK ON
-0.7181789	BORING HOWEVER
-0.7181789	BORN AND
-0.7181789	BOTHER </s>
-0.7181789	BRASS INSTRUMENTS
-0.7181789	BRING THEM
-0.1254646	BUNCH OF
-1.019209	BUSY I'M
-1.019209	BUSY WEEKEND
-1.010071	BUT </s>
-2.079907	BUT AND
-2.079907	BUT BUT
-1.365983	BUT I
-1.365983	BUT IF
-2.079907	BUT IT'LL
-1.365983	BUT IT'S
-2.079907	BUT NOT
-2.079907	BUT NOW
-2.079907	BUT SUNDAY
-2.079907	BUT THE
-2.079907	BUT THEN
-2.079907	BUT THERE
-2.079907	BUT THERE'S
-1.365983	BUT WE
-1.365983	BUT YEAH
-0.7181789	BUYING THINGS
-1.019209	CALLED ONE
-1.019209	CALLED WABATONGUSHI
-1.621269	CAN </s>
-1.621269	CAN BE
-1.621269	CAN GET
-1.621269	CAN HAVE
-1.621269	CAN PAY
-1.621269	CAN SEE
-1.621269	CAN SELL
-1.621269	CAN SIT
-0.7181789	CAN'T YOU
-0.7181789	CANADA ABOUT
-0.7181789	CAROLINA CAN
-1.1953	CASH A
-1.1953	CASH FOR
-1.1953	CASH WITH
-0.7181789	CATCH UP
-1.320239	CAUSE ABOUT
-1.320239	CAUSE I
-1.320239	CAUSE OF
-1.320239	CAUSE THAT'S
-0.7181789	CENTERVILLE BRING
-0.7181789	CENTRAL FROM
-0.7181789	CHAUFFEUR WE'RE
-0.7181789	CLASS </s>
-0.7181789	CLASSES AND
-0.7181789	CLEANED OUT
-0.7181789	CLEANING </s>
-0.4813765	COLLEGE </s>
-1.1953	COLLEGE AND
-1.019209	COME IN
-1.019209	COME WITH
-1.019209	COMING BACK
-1.019209	COMING HOME
-0.7181789	COMMERCIAL IT
-0.7181789	COMMITTED SUICIDE
-0.7181789	COMMUNITY COLLEGE
-0.7181789	COMPANIES THAT
-0.7181789	COMPLETELY GOT
-0.7181789	COMPUTER PROGRAMING
-0.7181789	COMPUTERS SO
-0.3052852	CONE </s>
-0.7181789	CONTRACTORS AND
-0.7181789	COOL </s>
-0.7181789	COUCH OVER
-1.320239	COULD BE
-1.320239	COULD BUT
-1.320239	COULD GET
-1.320239	COULD GIVE
-1.019209	COULDN'T FIND
-1.019209	COULDN'T SEE
-1.019209	COUPLE DAYS
-1.019209	COUPLE TIMES
-0.7181789	COURSE IN
-0.7181789	CRAZY </s>
-0.7181789	CREDIT UNION
-0.7181789	CREEK </s>
-0.7181789	CRYSTAL </s>
-0.7181789	CUFF IT'S
-0.7181789	CURRENTLY AT
-0.7181789	DAD'S HISTORY
-0.7181789	DATE BUT
-0.7181789	DAUGHTER </s>
-1.019209	DAY </s>
-1.019209	DAY FOR
-0.7824064	DAYS </s>
-1.49633	DAYS ON
-1.49633	DAYS OVER
-1.49633	DAYS SO
-1.49633	DAYS YOU
-0.7181789	DEAL LIKE
-0.7181789	DEALING WITH
-0.7181789	DECIDE THEY
-0.7181789	DECIDED ON
-1.1953	DEFINITELY </s>
-1.1953	DEFINITELY A
-1.1953	DEFINITELY NICE
-0.7181789	DELTA COLLEGE
-0.7181789	DEPARTMENT </s>
-0.7181789	DEPRESSANTS BECAUSE
-1.1953	DEPRESSED </s>
-1.1953	DEPRESSED CAUSE
-1.1953	DEPRESSED DOESN'T
-1.1953	DEPRESSION IS
-1.1953	DEPRESSION PART
-1.1953	DEPRESSION SO
-1.320239	DETROIT </s>
-0.6063152	DETROIT JAZZ
-1.320239	DETROIT ZOO
-1.1953	DID NOT
-1.1953	DID WE
-1.1953	DID YOU
-0.7181789	DIDN'T FEEL
-0.7181789	DIED AND
-0.7181789	DIFFERENCE BETWEEN
-1.019209	DIFFERENT BOOK
-1.019209	DIFFERENT THINGS
-0.7181789	DIRT TRACK
-0.3052852	DISABILITY </s>
-0.7181789	DISASTER AREA
-0.7181789	DISEASE WORKS
-0.7181789	DNA STUDY
-1.563277	DO </s>
-1.563277	DO ANY
-0.8493533	DO LIKE
-1.563277	DO MY
-1.563277	DO SO
-1.563277	DO STUMBLE
-0.7181789	DOCTORS APPOINTMENTS
-0.7181789	DOES </s>
-0.7181789	DOESN'T MEAN
-0.7181789	DOG AND
-1.1953	DOING I'M
-1.1953	DOING OKAY
-1.1953	DOING THE
-0.7181789	DOLLARS TO
-1.864307	DON'T APPEAR
-1.864307	DON'T EVEN
-1.864307	DON'T HAVE
-0.4783328	DON'T KNOW
-1.150383	DON'T LIKE
-1.864307	DON'T REMEMBER
-1.864307	DON'T SELL
-1.864307	DON'T THERE
-0.7181789	DONAVAN </s>
-1.417149	DOWN </s>
-1.417149	DOWN SOUTH
-1.417149	DOWN THERE
-0.7032252	DOWN TO
-1.019209	DOWNTOWN <unk>
-1.019209	DOWNTOWN DETROIT
-1.1953	DRAINS AND
-1.1953	DRAINS CLEANED
-1.1953	DRAINS ERUPTED
-1.019209	DRIVE DOWN
-1.019209	DRIVE RIGHT
-1.019209	DRIVING IMMEDIATELY
-1.019209	DRIVING UP
-0.7181789	DROVE ALL
-0.7181789	DRUG AND
-0.7181789	EACH </s>
-1.1953	EIGHT DAYS
-1.1953	EIGHT FORTY
-1.1953	EIGHT OH
-1.019209	ELEMENTARY AND
-1.019209	ELEMENTARY STARTS
-0.7181789	ELSE DID
-0.7181789	EM BUT
-0.7181789	EMBARRASSING </s>
-0.7181789	EMPTIED FOR
-0.7181789	ENDED UP
-1.019209	ENOUGH AND
-1.019209	ENOUGH BECAUSE
-0.7181789	EQUITY ON
-0.7181789	ERR TEST
-0.7181789	ERUPTED WITH
-1.320239	EVEN BOTHER
-1.320239	EVEN IF
-0.6063152	EVEN THOUGH
-0.7181789	EVER SEEN
-1.019209	EVERY OTHER
-1.019209	EVERY PLAN
-0.7181789	EVERYBODY WAS
-0.7181789	EVERYONE HAS
-1.019209	EVERYTHING SO
-1.019209	EVERYTHING WHERE
-0.7181789	EVERYWHERE BUT
-0.7181789	EVICT PRINCESS
-0.7181789	EXACT SYMPTOMS
-1.320239	EXACTLY SO
-0.2504033	EXACTLY SURE
-0.7181789	EXCITED </s>
-0.7181789	EXCITING </s>
-0.7181789	EXERCISE </s>
-0.7181789	FACILITY </s>
-0.7181789	FAIRLY QUICK
-0.7181789	FALLING OVER
-0.7181789	FALLS UNDER
-1.1953	FAMILY </s>
-1.1953	FAMILY AND
-1.1953	FAMILY THEY
-0.7181789	FAN ISN'T
-0.7181789	FANCY HOUSES
-0.7181789	FARM IN
-0.7181789	FEEL THAT
-0.7181789	FEES TRYING
-1.019209	FESTIVAL AND
-1.019209	FESTIVAL THEN
-0.7181789	FIELD TO
-0.7181789	FIFTY OR
-0.7181789	FIND ANYONE
-0.7181789	FIREWORKS AND
-1.1953	FIRST BUT
-1.1953	FIRST FOUND
-1.1953	FIRST MOVED
-0.7181789	FISHING TRIP
-0.7181789	FIVE </s>
-0.7181789	FIX IT
-1.1953	FLORIDA </s>
-1.1953	FLORIDA TO
-1.1953	FLORIDA WERE
-0.7181789	FOOD OR
-1.150383	FOR A
-1.864307	FOR EIGHT
-1.864307	FOR IT
-1.864307	FOR MY
-1.864307	FOR NO
-1.864307	FOR ONE
-1.864307	FOR PEOPLE
-1.864307	FOR THAT
-1.150383	FOR THE
-1.150383	FOR THIS
-1.864307	FOR TUESDAY
-0.7181789	FORGOT THAT
-0.7181789	FORMULA AND
-0.7181789	FORMULATE A
-0.7181789	FORT LAUDERDALE'S
-0.7181789	FORTY </s>
-0.7181789	FOUND OUT
-0.7181789	FOUR DAYS
-0.7181789	FRESHMAN IN
-1.019209	FRIDAY FRIDAY
-1.019209	FRIDAY I
-1.019209	FRIENDS </s>
-1.019209	FRIENDS FROM
-1.79736	FROM </s>
-1.79736	FROM CENTERVILLE
-1.79736	FROM DOWN
-1.79736	FROM HAVING
-1.79736	FROM HERE
-0.3802112	FROM THE
-1.79736	FROM WHAT
-1.79736	FROM WORK
-0.4264946	FUN </s>
-1.49633	FUN TO
-1.49633	FUN WHEN
-1.49633	FUN YES
-0.7181789	FUNCTIONAL COURSE
-0.7181789	GAME </s>
-0.7181789	GARAGE SALE
-0.7181789	GAY CENTRAL
-0.7181789	GENE </s>
-1.118199	GET 300
-0.7622867	GET A
-1.832122	GET ALL
-1.832122	GET BACK
-1.832122	GET I
-1.832122	GET LOANS
-1.832122	GET SICK
-1.118199	GET THE
-1.832122	GET UP
-0.7181789	GETS CRAZY
-1.1953	GETTING A
-0.4813765	GETTING MARRIED
-0.7181789	GIFTS </s>
-0.7181789	GIRLS </s>
-1.019209	GIVE A
-1.019209	GIVE ME
-0.7181789	GIVING SEVEN
-1.563277	GO ACTUALLY
-1.563277	GO BACK
-1.563277	GO BUT
-1.563277	GO INTO
-1.563277	GO THERE
-1.563277	GO TO
-1.563277	GO YET
-0.7181789	GOES </s>
-1.672421	GOING ON
-0.05115252	GOING TO
-1.019209	GOLF </s>
-1.019209	GOLF LEAGUE
-0.7181789	GONE NOW
-0.4264946	GOOD </s>
-1.49633	GOOD I'D
-1.49633	GOOD ONE
-1.49633	GOOD THOUGH
-1.563277	GOT A
-1.563277	GOT MARRIED
-1.563277	GOT ON
-1.563277	GOT RID
-0.8493533	GOT TO
-1.563277	GOT UNPACKED
-0.7181789	GRADUATING NEXT
-0.7181789	GRAHAM </s>
-0.7181789	GRAND </s>
-1.320239	GREAT </s>
-1.320239	GREAT FIELD
-1.320239	GREAT SCHOOL
-1.320239	GREAT TIME
-0.7181789	GROWN TO
-0.7181789	GUYS EVER
-0.411386	HAD A
-1.79736	HAD EM
-1.79736	HAD HER
-1.79736	HAD MONEY
-1.79736	HAD SHOULDER
-1.79736	HAD TALKED
-1.79736	HAD TO
-1.019209	HALF AGO
-1.019209	HALF THERE
-0.7181789	HANDICAP ACCESSIBLE
-0.7181789	HAPPENS CAUSE
-0.7181789	HAPPY </s>
-1.019209	HARD GETTING
-1.019209	HARD TO
-0.7181789	HAS THE
-0.654424	HAVE A
-2.040398	HAVE ANOTHER
-2.040398	HAVE ANY
-2.040398	HAVE HELP
-2.040398	HAVE MY
-2.040398	HAVE NO
-2.040398	HAVE PLANNED
-1.326475	HAVE PROOF
-1.326475	HAVE THE
-2.040398	HAVE THEM
-0.9705626	HAVE TO
-2.040398	HAVE TWO
-0.7181789	HAVEN'T BEEN
-0.3052852	HAVING THE
-1.019209	HD </s>
-1.019209	HD AND
-1.79736	HE COMMITTED
-1.79736	HE DOES
-1.79736	HE JUST
-1.083436	HE LOVES
-1.79736	HE PULLS
-1.79736	HE SAID
-1.79736	HE USED
-1.79736	HE WANTED
-1.083436	HE WANTS
-1.79736	HE WENT
-0.3052852	HE'LL BE
-1.417149	HE'S A
-1.417149	HE'S IT
-0.7032252	HE'S NOT
-1.417149	HE'S VERY
-0.7181789	HELP AND
-0.7181789	HELPFUL </s>
-1.019209	HER 96TH
-1.019209	HER BEING
-0.4813765	HERE </s>
-1.1953	HERE WHILE
-0.7181789	HIGH SCHOOL
-0.7181789	HILLS </s>
-0.7181789	HIRE SOMEBODY
-0.4813765	HISTORY </s>
-1.1953	HISTORY NOT
-1.019209	HOLIDAY LEFT
-1.019209	HOLIDAY TO
-0.7181789	HOLIDAYS DON'T
-1.019209	HOME AFTER
-1.019209	HOME IN
-0.7181789	HONEY MOON
-1.019209	HOPEFULLY HOPEFULLY
-1.019209	HOPEFULLY SO
-0.7181789	HOSE AND
-0.7181789	HOT </s>
-1.019209	HOUR </s>
-1.019209	HOUR SOUTH
-0.7181789	HOURS A
-0.7824064	HOUSE </s>
-1.49633	HOUSE ALSO
-1.49633	HOUSE AND
-1.49633	HOUSE I
-1.49633	HOUSE IS
-0.7181789	HOUSES ALONG
-0.7181789	HOW TO
-0.7181789	HOWEVER </s>
-0.7181789	HUNDRED </s>
-0.7181789	HURRICANE </s>
-0.7181789	HUSBAND IS
-1.948738	I AM
-2.662662	I CALLED
-1.245513	I CAN
-2.662662	I CAN'T
-2.662662	I COULDN'T
-1.592826	I DO
-0.8653014	I DON'T
-2.662662	I DRIVE
-1.948738	I FIRST
-2.662662	I FORGOT
-1.842769	I GET
-2.662662	I GOT
-1.592826	I HAD
-0.7683914	I HAVE
-2.662662	I HAVEN'T
-1.948738	I I
-1.948738	I JUST
-1.52545	I KNOW
-1.948738	I LIKE
-2.662662	I LOVE
-2.662662	I MAYBE
-2.662662	I NEED
-2.662662	I OVERPAID
-1.592826	I PAID
-2.662662	I START
-2.662662	I STARTED
-2.662662	I STILL
-2.662662	I TALKED
-2.662662	I TEACH
-1.245513	I THINK
-2.662662	I TORE
-1.948738	I WAS
-2.662662	I WASTE
-2.662662	I WORK
-0.7181789	I'D RECOMMEND
-1.1953	I'LL BE
-0.4813765	I'LL GO
-2.079907	I'M A
-2.079907	I'M CURRENTLY
-1.365983	I'M DOING
-1.365983	I'M DRIVING
-2.079907	I'M EXCITED
-2.079907	I'M GIVING
-1.010071	I'M GOING
-2.079907	I'M I'M
-2.079907	I'M NOT
-2.079907	I'M OFF
-2.079907	I'M ON
-2.079907	I'M PLAYING
-2.079907	I'M REUPHOLSTERING
-1.365983	I'M SURE
-2.079907	I'M TRYING
-2.079907	I'M UH
-2.079907	I'M WORKING
-2.079907	I'M WRITING
-0.3052852	I'VE BEEN
-1.019209	IDEA </s>
-1.019209	IDEA WHERE
-0.8013763	IF I
-1.621269	IF IF
-1.621269	IF THEY
-0.9073452	IF YOU
-0.7181789	IMMEDIATELY BACK
-1.046283	IN </s>
-1.046283	IN A
-2.116119	IN BATTLE
-2.116119	IN COLLEGE
-2.116119	IN CRYSTAL
-2.116119	IN FLORIDA
-2.116119	IN I
-2.116119	IN JUNE
-2.116119	IN LAWS'
-2.116119	IN LEGAL
-2.116119	IN LIKE
-2.116119	IN NORTH
-2.116119	IN OHIO
-2.116119	IN ORLANDO
-2.116119	IN ROCHESTER
-2.116119	IN ROYAL
-2.116119	IN SAGINAW
-1.296226	IN THE
-0.7181789	INAUDIBLE </s>
-0.7181789	INCH OF
-0.3052852	INCOME IS
-0.7181789	INDIVIDUAL </s>
-0.7181789	INHERITANCE AND
-1.019209	INSIDE AND
-1.019209	INSIDE SO
-0.7181789	INSTRUMENTS </s>
-0.7181789	INTO COMPUTER
-0.7181789	INVITED ME
-1.948628	IS 96
-1.128735	IS </s>
-1.234704	IS A
-1.948628	IS AS
-1.948628	IS COMING
-1.948628	IS FRESHMAN
-1.948628	IS GETTING
-1.948628	IS IN
-1.234704	IS NOT
-1.948628	IS ONE
-1.948628	IS SO
-1.948628	IS WORKING
-0.7181789	ISN'T ALWAYS
-0.7181789	ISSUE HAPPENS
-0.4813765	ISSUES AND
-1.1953	ISSUES FROM
-1.281812	IT </s>
-2.351647	IT A
-2.351647	IT AND
-2.351647	IT AT
-2.351647	IT BASICALLY
-2.351647	IT BELONGS
-2.351647	IT BUT
-2.351647	IT COULD
-2.351647	IT FOOD
-2.351647	IT FOR
-2.351647	IT GETS
-2.351647	IT GOES
-2.351647	IT GOT
-2.351647	IT I'LL
-1.531755	IT IS
-2.351647	IT LOOKED
-1.637724	IT MIGHT
-2.351647	IT NICE
-2.351647	IT ON
-2.351647	IT SO
-2.351647	IT STARTS
-2.351647	IT UP
-0.4573772	IT WAS
-0.7181789	IT'LL BE
-1.160751	IT'S A
-2.297962	IT'S AMAZING
-2.297962	IT'S AT
-1.584039	IT'S DEFINITELY
-2.297962	IT'S FUN
-2.297962	IT'S GONE
-2.297962	IT'S GOOD
-2.297962	IT'S GREAT
-2.297962	IT'S HARD
-2.297962	IT'S I
-0.9119883	IT'S IT'S
-2.297962	IT'S JUST
-1.584039	IT'S LIKE
-2.297962	IT'S MORE
-2.297962	IT'S NORTHEAST
-1.584039	IT'S NOT
-2.297962	IT'S ONLY
-2.297962	IT'S OVERWHELMING
-2.297962	IT'S TERRIBLE
-2.297962	IT'S TOO
-2.297962	IT'S TROUBLE
-1.584039	IT'S WAY
-2.297962	IT'S WITH
-1.019209	ITS HARD
-1.019209	ITS ITS
-0.3052852	JAZZ FESTIVAL
-0.3052852	JEFF CONE
-0.7181789	JEWISH SO
-0.7181789	JOANNE'S AND
-0.7181789	JOB THAT
-1.019209	JUNE </s>
-1.019209	JUNE LAST
-0.7181789	JUNIOR </s>
-1.922299	JUST BECAUSE
-1.922299	JUST CAN
-1.922299	JUST COMPLETELY
-1.922299	JUST DAYS
-1.922299	JUST FIFTY
-1.922299	JUST GET
-1.922299	JUST GOT
-1.922299	JUST HAVING
-1.922299	JUST I
-1.922299	JUST KINDA
-1.922299	JUST PLAY
-1.922299	JUST TALK
-1.922299	JUST THE
-1.922299	JUST UM
-1.922299	JUST YES
-1.922299	JUST YOU
-0.7181789	KIDS AND
-0.1254646	KIND OF
-0.7181789	KINDA PLAYED
-1.010071	KNOW </s>
-2.079907	KNOW BECAUSE
-2.079907	KNOW BEING
-2.079907	KNOW CAUSE
-2.079907	KNOW HE
-2.079907	KNOW HE'S
-2.079907	KNOW HOW
-1.010071	KNOW I
-2.079907	KNOW INAUDIBLE
-1.365983	KNOW IT'S
-2.079907	KNOW MAYBE
-2.079907	KNOW MY
-2.079907	KNOW NOT
-2.079907	KNOW OF
-2.079907	KNOW THE
-2.079907	KNOW THEY'RE
-2.079907	KNOW WHAT
-2.079907	KNOW WHEN
-0.7181789	LADY </s>
-1.1953	LAKE </s>
-1.1953	LAKE CALLED
-1.1953	LAKE DOWNTOWN
-0.3052852	LANDLORD IT'S
-1.1953	LAST JUNE
-1.1953	LAST MONTH
-1.1953	LAST WEEK
-0.7181789	LAUDERDALE'S LIKE
-0.7181789	LAWS' FARM
-0.7181789	LEAGUE IN
-0.7181789	LECTURE AND
-0.7181789	LEFT WHERE
-0.7181789	LEGAL FEES
-0.7181789	LESS LIKE
-2.060602	LIKE 6
-0.990766	LIKE </s>
-1.240709	LIKE A
-2.060602	LIKE BEING
-2.060602	LIKE EIGHT
-2.060602	LIKE GAY
-1.346678	LIKE NO
-2.060602	LIKE OH
-2.060602	LIKE POWER
-2.060602	LIKE RAY
-2.060602	LIKE SHUT
-2.060602	LIKE THAT
-2.060602	LIKE THE
-2.060602	LIKE THERE
-2.060602	LIKE VARIETY
-2.060602	LIKE WHY
-0.7181789	LIONS GAME
-0.7181789	LIONS' FAN
-0.7181789	LIST OF
-1.1953	LITTLE BIT
-1.1953	LITTLE LADY
-1.1953	LITTLE NIECES
-1.019209	LIVE IN
-1.019209	LIVE NEAR
-1.320239	LOAN BASED
-1.320239	LOAN BECAUSE
-1.320239	LOAN FROM
-1.320239	LOAN OR
-1.019209	LOANS </s>
-1.019209	LOANS NOW
-0.7181789	LOCATION I
-0.7181789	LONG TIME
-0.7181789	LOOK AT
-1.019209	LOOKED AT
-1.019209	LOOKED THEY
-0.7181789	LOST LAST
-0.7181789	LOT OF
-0.7181789	LOTS OF
-0.7181789	LOVE IT
-1.019209	LOVES COMPUTERS
-1.019209	LOVES IT
-1.1953	MAINTENANCE ISSUE
-0.4813765	MAINTENANCE ISSUES
-1.019209	MAKE EVERY
-1.019209	MAKE SURE
-0.7181789	MAKING IT
-0.7181789	MANGERS AND
-0.4813765	MARRIED </s>
-1.1953	MARRIED OH
-0.7181789	MART WAS
-0.7181789	MAY NOT
-1.019209	MAYBE OVERPAID
-1.019209	MAYBE WE
-0.7181789	MCKENZIE <unk>
-1.49633	ME A
-1.49633	ME BUT
-1.49633	ME EVERYWHERE
-1.49633	ME ON
-1.49633	ME SO
-1.49633	ME THERE'S
-0.7181789	MEAN THAT
-0.7181789	MEMORIAL DAY
-0.7181789	MET AT
-0.7181789	MHM YES
-0.3473134	MHMM </s>
-0.7032252	MHMM YUP
-1.019209	MIDDLE </s>
-1.019209	MIDDLE OF
-0.3052852	MIGHT BE
-0.7181789	MILES FROM
-0.7181789	MILLER AND
-0.7181789	MOBILITY AND
-0.7181789	MODERATELY STRESSFUL
-1.1953	MONDAY </s>
-1.1953	MONDAY MEMORIAL
-1.1953	MONDAY MORNING
-1.320239	MONEY </s>
-1.320239	MONEY BECAUSE
-1.320239	MONEY BEFORE
-1.320239	MONEY IN
-0.7181789	MONTH IT
-0.7181789	MONTHS OLD
-0.7181789	MOON AND
-1.019209	MORE LIKE
-1.019209	MORE PEACEFUL
-0.4813765	MORNING I
-1.1953	MORNING I'M
-0.7181789	MOST FUN
-0.7181789	MOSTLY IN
-0.7181789	MOUNTAINS TO
-0.7181789	MOVE FROM
-0.7181789	MOVED IN
-0.7181789	MOVIE TONIGHT
-0.7181789	MOVING WENT
-1.320239	MUCH JUST
-1.320239	MUCH STUFF
-1.320239	MUCH THE
-1.320239	MUCH YEAH
-1.019209	MUSIC HISTORY
-1.019209	MUSIC TONIGHT
-0.7181789	MUSICIAN I'M
-1.922299	MY </s>
-1.922299	MY DAD'S
-1.922299	MY DAUGHTER
-1.922299	MY DOG
-1.922299	MY FAMILY
-1.922299	MY HUSBAND
-1.922299	MY IN
-1.922299	MY INCOME
-1.922299	MY LITTLE
-1.922299	MY MCKENZIE
-1.922299	MY NIECE
-1.922299	MY PARENTS
-1.922299	MY PARTNER'S
-1.922299	MY SICK
-1.922299	MY UNCLE
-1.922299	MY VACATIONS
-0.7181789	NEAR TAMPA
-0.7181789	NEAT </s>
-0.7181789	NEED YEAH
-0.7181789	NEUROLOGIST THAT
-0.7181789	NEW JOB
-1.417149	NEXT MAINTENANCE
-1.417149	NEXT REALTOR
-1.417149	NEXT THREE
-0.7032252	NEXT YEAR
-0.4813765	NICE </s>
-1.1953	NICE INSIDE
-0.7181789	NIECE IS
-0.7181789	NIECES IN
-1.019209	NIGHT </s>
-1.019209	NIGHT I'LL
-0.7181789	NINE O'CLOCK
-1.305285	NO </s>
-2.019209	NO ACTUALLY
-2.019209	NO FROM
-1.305285	NO I
-2.019209	NO I'M
-2.019209	NO IDEA
-2.019209	NO ISSUES
-2.019209	NO JUST
-1.305285	NO NOT
-2.019209	NO OTHER
-2.019209	NO PROBLEM
-2.019209	NO REASON
-2.019209	NO WAY
-0.9493734	NO WE
-2.019209	NO WELL
-1.1953	NORTH </s>
-1.1953	NORTH CAROLINA
-1.1953	NORTH UM
-0.7181789	NORTHEAST OR
-0.7181789	NORTHWEST OF
-2.060602	NOT </s>
-2.060602	NOT A
-2.060602	NOT ANYTHING
-2.060602	NOT DEPRESSED
-1.346678	NOT ENOUGH
-0.990766	NOT EXACTLY
-1.346678	NOT I
-2.060602	NOT SOME
-1.346678	NOT THAT
-2.060602	NOT THE
-2.060602	NOT THINK
-1.346678	NOT THIS
-2.060602	NOT TOO
-2.060602	NOT UNPACKED
-2.060602	NOT WASTE
-2.060602	NOT YOU
-1.019209	NOTHING PLANNED
-1.019209	NOTHING YET
-1.621269	NOW A
-0.9073452	NOW I'M
-1.621269	NOW IT'S
-1.621269	NOW MOSTLY
-1.621269	NOW THAT
-1.621269	NOW THERE
-1.621269	NOW TO
-0.7181789	O'CLOCK IT'S
-0.7181789	OAK </s>
-0.7181789	OCCASIONAL TORNADO
-0.7181789	OCCASIONALLY BUT
-0.7181789	OCEAN IT
-2.079907	OF A
-2.079907	OF ABOUT
-2.079907	OF BEING
-2.079907	OF COMPANIES
-2.079907	OF CONTRACTORS
-2.079907	OF EACH
-2.079907	OF FUN
-2.079907	OF MONEY
-2.079907	OF MUSIC
-2.079907	OF MY
-2.079907	OF SLUSH
-2.079907	OF SOMETHING
-2.079907	OF STUFF
-2.079907	OF TAMPA
-1.010071	OF THE
-2.079907	OF THEM
-2.079907	OF THINGS
-2.079907	OF TRUCKLOADS
-2.079907	OF WANTED
-2.079907	OF WAWA
-2.079907	OF YET
-0.7181789	OFF SO
-1.759572	OH FIVE
-0.6897361	OH I
-1.759572	OH IT
-1.759572	OH NO
-1.759572	OH NOT
-1.759572	OH OKAY
-1.759572	OH WELL
-1.045648	OH YEAH
-0.7181789	OHIO WHERE
-0.7181789	OK </s>
-0.5003463	OKAY </s>
-0.3052852	OLD </s>
-1.208375	ON A
-1.922299	ON ANTI
-1.922299	ON ANTIDEPRESSANTS
-1.922299	ON BILLY
-1.922299	ON BUT
-1.208375	ON DISABILITY
-1.922299	ON IT
-1.922299	ON MAKING
-1.922299	ON MONDAY
-1.208375	ON THAT
-0.8524634	ON THE
-1.79736	ONE BANK
-1.79736	ONE HUNDRED
-1.083436	ONE IS
-1.79736	ONE IT
-0.7275246	ONE OF
-1.79736	ONE POINT
-1.79736	ONE RELATOR
-1.79736	ONE TO
-1.79736	ONE YEAR
-1.019209	ONES BE
-1.019209	ONES I
-1.1953	ONLY ONES
-1.1953	ONLY THING
-1.1953	ONLY THREE
-0.7181789	ONTARIO </s>
-1.417149	OR GIFTS
-1.417149	OR HIRE
-1.417149	OR IF
-1.417149	OR NORTHWEST
-1.417149	OR ONE
-0.7181789	ORLANDO </s>
-1.320239	OTHER HOLIDAY
-1.320239	OTHER ONE
-1.320239	OTHER ONES
-1.320239	OTHER WEEKEND
-0.7181789	OUR COUCH
-1.621269	OUT </s>
-1.621269	OUT AND
-1.621269	OUT EVERYBODY
-1.621269	OUT OF
-1.621269	OUT THAT
-1.621269	OUT THE
-1.621269	OUT WALKING
-1.621269	OUT WERE
-1.49633	OVER IN
-0.6764376	OVER THE
-1.49633	OVER WITH
-1.019209	OVERPAID </s>
-1.019209	OVERPAID FOR
-1.019209	OVERWHELMING </s>
-1.019209	OVERWHELMING AS
-1.320239	PAID 300
-0.2504033	PAID CASH
-0.7181789	PALM BEACH
-0.7181789	PANDAS </s>
-0.7181789	PARENTS DIED
-0.7181789	PART NOT
-0.7181789	PARTNER'S A
-0.7181789	PARTY SO
-0.7181789	PAY YOU
-0.7181789	PEACEFUL INSIDE
-0.7181789	PEOPLE </s>
-0.7181789	PERHAPS AN
-0.7181789	PETE </s>
-0.7181789	PETOSKEY WHERE
-0.7181789	PETS AND
-0.7181789	PICK UP
-0.7181789	PICTURES </s>
-1.019209	PLACE NOT
-1.019209	PLACE THAT
-0.7181789	PLAN </s>
-1.019209	PLANNED IS
-1.019209	PLANNED YET
-1.417149	PLAY </s>
-1.417149	PLAY DATE
-1.417149	PLAY GOLF
-1.417149	PLAY IN
-1.417149	PLAY THERE
-0.7181789	PLAYED WITH
-1.019209	PLAYING A
-1.019209	PLAYING AT
-0.7181789	PLUMBER TO
-0.7181789	POINT SEVEN
-0.7181789	POOP AND
-0.7181789	POWER WASH
-0.7181789	POWERFUL HOSE
-0.7181789	PRETTY MUCH
-0.7181789	PRINCESS </s>
-1.49633	PROBABLY A
-1.49633	PROBABLY AND
-1.49633	PROBABLY CLEANING
-1.49633	PROBABLY SATURDAY
-1.49633	PROBABLY TAKE
-1.49633	PROBABLY THE
-1.019209	PROBLEM ACTUALLY
-1.019209	PROBLEM YOU
-0.7181789	PROFESSOR SO
-0.7181789	PROGRAMING SO
-1.019209	PROOF </s>
-1.019209	PROOF FROM
-0.7181789	PROPERTY MANGERS
-0.7181789	PROPHYLACTIC PURPOSES
-0.7181789	PULLS ME
-0.7181789	PURPOSES </s>
-0.7181789	PUT ME
-0.7181789	QUARTER INCH
-0.7181789	QUICK TRIP
-0.7181789	QUICKEN LOANS
-0.7181789	QUIZZES OVER
-0.7181789	RACE TRACK
-0.7181789	RAISED </s>
-0.7181789	RAY DONAVAN
-0.7181789	READ </s>
-0.7181789	READING A
-0.7181789	REAL BIG
-1.019209	REALLY NEAT
-1.019209	REALLY NICE
-0.7181789	REALTOR SAID
-0.7181789	REASON </s>
-0.7181789	RECEPTION </s>
-0.7181789	RECOMMEND IT
-0.7181789	RED PANDAS
-1.1953	REHEARSAL THAT
-1.1953	REHEARSAL THEN
-1.1953	REHEARSAL UM
-0.7181789	RELATIONSHIP HE'S
-1.1953	RELATOR ABOUT
-1.1953	RELATOR SAID
-1.1953	RELATOR THAT
-0.7181789	RELIGIOUS TYPE
-0.7181789	REMEMBER WHICH
-0.7181789	RESIDENTIAL </s>
-0.7181789	REUPHOLSTERING OUR
-0.7181789	RID OF
-0.7181789	RIDE BIKE
-0.8493533	RIGHT </s>
-1.563277	RIGHT EXACTLY
-0.4934414	RIGHT NOW
-1.563277	RIGHT RIGHT
-0.7181789	ROAD </s>
-0.7181789	ROCHESTER HILLS
-0.7181789	ROTATOR CUFF
-0.7181789	ROYAL OAK
-0.7181789	SAGINAW </s>
-0.7032252	SAID OH
-0.7032252	SAID THAT
-1.417149	SAID THERE'S
-0.7181789	SAINT PETE
-0.7181789	SALE </s>
-0.7181789	SALVATION ARMY
-0.7181789	SAME EXACT
-0.7181789	SARASOTA SO
-1.1953	SATURDAY </s>
-1.1953	SATURDAY MORNING
-1.1953	SATURDAY NIGHT
-0.7181789	SAW AN
-1.019209	SCHOOL </s>
-1.019209	SCHOOL AND
-1.417149	SEE A
-1.417149	SEE FAMILY
-1.417149	SEE MY
-1.417149	SEE THAT
-1.417149	SEE THEM
-0.7181789	SEEN THAT
-0.4813765	SELL IT
-1.1953	SELL THE
-0.7181789	SELLING IT
-0.7181789	SEMESTER FOR
-1.320239	SEVEN </s>
-1.320239	SEVEN QUIZZES
-0.6063152	SEVEN SEVEN
-1.019209	SHE HAD
-1.019209	SHE WAS
-1.019209	SHOULD BE
-1.019209	SHOULD GO
-0.7181789	SHOULDER SURGERY
-0.7181789	SHOWER FOR
-1.019209	SHOWS </s>
-1.019209	SHOWS I
-0.7181789	SHUT DOWN
-0.3052852	SICK TIME
-0.7181789	SILLY AND
-0.7181789	SISTERS THAT
-0.7181789	SIT THERE
-0.7181789	SITUATION IT'S
-0.7181789	SLUSH YA'LL
-0.7181789	SMALL LIST
-1.351819	SO </s>
-2.489031	SO AN
-1.775107	SO AND
-2.489031	SO BETWEEN
-2.489031	SO BUSY
-2.489031	SO COOL
-2.489031	SO DEPRESSION
-2.489031	SO HE'LL
-2.489031	SO HE'S
-2.489031	SO HOLIDAYS
-1.669138	SO I
-2.489031	SO I'LL
-2.489031	SO I'M
-1.071882	SO IT
-1.351819	SO IT'S
-2.489031	SO ITS
-2.489031	SO MUCH
-2.489031	SO NO
-2.489031	SO NOW
-2.489031	SO THAT
-1.419195	SO THAT'S
-2.489031	SO THE
-2.489031	SO THEN
-1.419195	SO THEY
-2.489031	SO THIS
-2.489031	SO UM
-1.669138	SO WE
-2.489031	SO WE'LL
-2.489031	SO WE'RE
-1.775107	SO YEAH
-2.489031	SO YES
-1.1953	SOME FRIENDS
-1.1953	SOME PLACE
-1.1953	SOME RELIGIOUS
-1.019209	SOMEBODY </s>
-1.019209	SOMEBODY THAT
-0.7181789	SOMETHING RIGHT
-0.7181789	SOMETIME </s>
-1.019209	SOUTH DO
-1.019209	SOUTH OF
-0.7181789	STARED AT
-0.7181789	START ON
-1.019209	STARTED A
-1.019209	STARTED GOING
-0.3052852	STARTS AT
-0.7181789	STAY </s>
-1.019209	STILL MAINTENANCE
-1.019209	STILL RIDE
-1.019209	STRESS OF
-1.019209	STRESS THERE'S
-0.7181789	STRESSFUL </s>
-0.7181789	STUDY ERR
-0.6063152	STUFF </s>
-1.320239	STUFF AND
-1.320239	STUFF GOING
-0.7181789	STUMBLE OCCASIONALLY
-0.7181789	SUICIDE SO
-1.019209	SUNDAY I'M
-1.019209	SUNDAY MORNING
-0.7181789	SUPPLIES AND
-1.49633	SURE AND
-0.7824064	SURE HE
-1.49633	SURE WHERE
-1.49633	SURE YET
-1.49633	SURE YOU
-0.7181789	SURGERY </s>
-0.7181789	SWEET LITTLE
-0.7181789	SYMPTOMS YOU
-0.7181789	TAKE A
-0.7181789	TALK AND
-0.3052852	TALKED TO
-0.3052852	TAMPA </s>
-1.019209	TEACH AND
-1.019209	TEACH THREE
-1.1953	TEN AND
-1.1953	TEN DIFFERENT
-1.1953	TEN HOURS
-0.7181789	TERRIBLE </s>
-1.1953	TEST </s>
-1.1953	TEST FOR
-1.1953	TEST THAT
-0.7181789	THANK YOU
-1.153493	THAT </s>
-2.223329	THAT ARE
-2.223329	THAT BUT
-2.223329	THAT EVERYONE
-2.223329	THAT HERE
-0.60206	THAT I
-2.223329	THAT I'M
-1.509405	THAT IS
-2.223329	THAT JUST
-2.223329	THAT LIVE
-2.223329	THAT MONDAY
-2.223329	THAT MUCH
-2.223329	THAT ON
-2.223329	THAT SHE
-2.223329	THAT SO
-1.509405	THAT THEY
-2.223329	THAT WAS
-2.223329	THAT WEREN'T
-2.223329	THAT WILL
-2.223329	THAT YEAH
-2.223329	THAT YOU'RE
-1.563277	THAT'S GOOD
-1.563277	THAT'S HOLIDAY
-1.563277	THAT'S KIND
-1.563277	THAT'S NOT
-1.563277	THAT'S THAT'S
-1.563277	THAT'S THE
-1.563277	THAT'S YEAH
-2.598993	THE ANIMALS
-2.598993	THE AUDITING
-2.598993	THE BANK
-2.598993	THE BASEMENT
-2.598993	THE BEAVERS
-2.598993	THE BIG
-2.598993	THE CREDIT
-1.885069	THE DEPRESSION
-1.529157	THE DETROIT
-2.598993	THE DISEASE
-2.598993	THE DNA
-1.529157	THE DRAINS
-2.598993	THE ELEMENTARY
-2.598993	THE EQUITY
-2.598993	THE EVEN
-2.598993	THE FAMILY
-2.598993	THE FIREWORKS
-2.598993	THE FORMULA
-2.598993	THE FOUR
-2.598993	THE GENE
-1.885069	THE HD
-1.181844	THE HOUSE
-2.598993	THE HURRICANE
-2.598993	THE I
-2.598993	THE INHERITANCE
-2.598993	THE LAKE
-2.598993	THE MAINTENANCE
-2.598993	THE MIDDLE
-2.598993	THE MOBILITY
-2.598993	THE MONEY
-2.598993	THE MOST
-2.598993	THE MOUNTAINS
-2.598993	THE NEUROLOGIST
-1.529157	THE NEXT
-2.598993	THE NIGHT
-2.598993	THE OCEAN
-1.885069	THE ONLY
-1.885069	THE OTHER
-2.598993	THE PETS
-2.598993	THE PLACE
-2.598993	THE PLUMBER
-2.598993	THE POWERFUL
-2.598993	THE RACE
-2.598993	THE RED
-2.598993	THE RELATOR
-2.598993	THE ROAD
-2.598993	THE SAME
-2.598993	THE SEMESTER
-2.598993	THE SHOWS
-2.598993	THE SO
-2.598993	THE STRESS
-2.598993	THE SUPPLIES
-2.598993	THE THE
-2.598993	THE TWO
-1.885069	THE WAY
-2.598993	THE WEDDING
-1.529157	THE WEEKEND
-2.598993	THE YOU
-2.598993	THE ZOO
-1.019209	THEIR JEWISH
-1.019209	THEIR MONEY
-1.320239	THEM </s>
-1.320239	THEM AT
-1.320239	THEM BACK
-1.320239	THEM EVERY
-1.79736	THEN </s>
-1.79736	THEN HIGH
-0.7275246	THEN I
-1.79736	THEN MONDAY
-1.79736	THEN PROBABLY
-1.79736	THEN THE
-1.79736	THEN TUES
-1.79736	THEN TUESDAY
-1.79736	THEN UM
-1.79736	THEN WE
-0.7181789	THERAPIST AT
-0.7944714	THERE </s>
-1.864307	THERE AGAIN
-1.150383	THERE AND
-1.864307	THERE BORING
-1.864307	THERE IS
-1.864307	THERE IT
-1.864307	THERE JUST
-1.150383	THERE LIKE
-1.864307	THERE NOT
-1.864307	THERE SOMETIME
-1.563277	THERE'S A
-0.8493533	THERE'S LIKE
-1.563277	THERE'S NO
-1.563277	THERE'S PROBABLY
-1.563277	THERE'S STILL
-1.563277	THERE'S TOO
-1.996933	THEY ALMOST
-1.17704	THEY ARE
-1.283009	THEY BASED
-1.996933	THEY DECIDE
-1.996933	THEY DECIDED
-1.996933	THEY DO
-1.283009	THEY HAD
-1.996933	THEY LIVE
-1.996933	THEY SAID
-1.996933	THEY TRUST
-1.996933	THEY WANT
-1.283009	THEY WERE
-1.996933	THEY WON
-1.019209	THEY'RE AMAZING
-1.019209	THEY'RE SO
-1.019209	THING </s>
-1.019209	THING I
-1.1953	THINGS </s>
-1.1953	THINGS FOR
-1.1953	THINGS I
-1.49633	THINK AWAY
-1.49633	THINK IT
-1.49633	THINK SO
-1.49633	THINK THAT
-1.49633	THINK WE
-1.49633	THINK YOU'RE
-0.7181789	THIRTEEN AND
-1.49633	THIS CLASS
-1.49633	THIS FALLS
-0.6764376	THIS WEEKEND
-1.1953	THOUGH HE
-1.1953	THOUGH HOPEFULLY
-1.1953	THOUGH I
-0.7181789	THOUSAND DOLLARS
-1.1953	THREE CLASSES
-1.1953	THREE DAYS
-1.1953	THREE MONTHS
-1.1953	THROUGH AND
-1.1953	THROUGH SOMEBODY
-1.1953	THROUGH THERE
-0.6063152	TIME </s>
-0.6063152	TIME SO
-0.7181789	TIMES A
-1.329585	TO </s>
-1.685496	TO A
-2.39942	TO ADRIAN
-1.579528	TO BE
-2.39942	TO CANADA
-1.685496	TO COME
-2.39942	TO DRIVE
-2.39942	TO EVICT
-2.39942	TO FIX
-2.39942	TO FLORIDA
-2.39942	TO FORMULATE
-1.579528	TO GET
-1.329585	TO GO
-2.39942	TO HAVE
-2.39942	TO IT
-1.685496	TO MAKE
-1.685496	TO ME
-2.39942	TO MY
-2.39942	TO PETOSKEY
-2.39942	TO PICK
-2.39942	TO PLAY
-2.39942	TO PUT
-1.329585	TO SEE
-2.39942	TO SELL
-1.579528	TO THE
-2.39942	TO TO
-2.39942	TO USE
-2.39942	TO WALK
-2.39942	TO WHO
-0.7181789	TOLD </s>
-0.7181789	TOMORROW AND
-1.019209	TONIGHT </s>
-1.019209	TONIGHT TOMORROW
-1.320239	TOO BADLY
-1.320239	TOO HOT
-1.320239	TOO MUCH
-1.320239	TOO STRESS
-0.7181789	TOOK PICTURES
-0.7181789	TORE MY
-0.7181789	TORNADO </s>
-1.019209	TRACK </s>
-1.019209	TRACK OVER
-0.7181789	TREATMENT FACILITY
-1.019209	TRIP SO
-1.019209	TRIP TWO
-0.7181789	TROUBLE IT'S
-1.1953	TRUCKLOADS AND
-1.1953	TRUCKLOADS OF
-1.1953	TRUCKLOADS TRUCKLOADS
-0.7181789	TRUST </s>
-0.1254646	TRYING TO
-0.7181789	TUES THEN
-1.019209	TUESDAY I
-1.019209	TUESDAY THEN
-0.7181789	TURNED THIRTEEN
-0.7181789	TV SHOWS
-0.7181789	TWELVE </s>
-0.8493533	TWO </s>
-1.563277	TWO GIRLS
-1.563277	TWO GRAND
-1.563277	TWO OUT
-1.563277	TWO SISTERS
-1.563277	TWO THOUSAND
-0.7181789	TYPE THING
-1.49633	UH DOING
-1.49633	UH EXERCISE
-1.49633	UH I
-1.49633	UH NOTHING
-1.49633	UH SARASOTA
-1.49633	UH VERY
-0.7181789	UHH HE'LL
-1.759572	UM BECAUSE
-1.759572	UM BUT
-1.759572	UM GOT
-1.759572	UM HE
-1.759572	UM HE'S
-1.759572	UM JUST
-1.759572	UM SATURDAY
-1.759572	UM WENT
-1.759572	UM YEAH
-1.759572	UM YES
-1.759572	UM YOU
-1.019209	UMM NO
-1.019209	UMM THE
-0.7181789	UNCLE INVITED
-0.7181789	UNDER MY
-0.7181789	UNION WE
-1.019209	UNPACKED EVERYTHING
-1.019209	UNPACKED YET
-1.621269	UP </s>
-1.621269	UP AND
-1.621269	UP BECAUSE
-1.621269	UP COMING
-1.621269	UP NORTH
-1.621269	UP SOME
-1.621269	UP TO
-1.621269	UP WALKING
-0.7181789	USE MY
-0.7181789	USED TO
-0.7181789	VACATIONS DAYS
-0.7181789	VARIETY </s>
-1.563277	VERY BUSY
-1.563277	VERY EXCITING
-1.563277	VERY GREAT
-1.563277	VERY HELPFUL
-1.563277	VERY SWEET
-0.8493533	VERY VERY
-0.7181789	VISITED WITH
-0.7181789	VP IT
-0.7181789	WABATONGUSHI </s>
-0.7181789	WAL MART
-1.019209	WALK AROUND
-1.019209	WALK WITHOUT
-0.7181789	WALKED AROUND
-0.3052852	WALKING AROUND
-0.7181789	WANT TO
-0.3052852	WANTED TO
-0.3052852	WANTS TO
-0.7181789	WARNING </s>
-1.326475	WAS </s>
-2.040398	WAS A
-2.040398	WAS AND
-2.040398	WAS EMPTIED
-1.326475	WAS FUN
-2.040398	WAS GETTING
-2.040398	WAS IT'S
-2.040398	WAS KIND
-2.040398	WAS LOTS
-2.040398	WAS ONE
-2.040398	WAS OUT
-2.040398	WAS READING
-1.326475	WAS REALLY
-2.040398	WAS THE
-2.040398	WAS TOO
-1.326475	WAS TWO
-2.040398	WAS UP
-0.7181789	WASH THE
-1.019209	WASTE A
-1.019209	WASTE THEIR
-0.7181789	WAWA ONTARIO
-1.417149	WAY IT
-1.417149	WAY MORE
-1.417149	WAY NORTH
-1.417149	WAY THE
-1.417149	WAY YOU'RE
-2.165337	WE ALSO
-1.095501	WE ARE
-2.165337	WE COULD
-2.165337	WE COULDN'T
-2.165337	WE DID
-2.165337	WE DO
-2.165337	WE DROVE
-2.165337	WE GOT
-1.345444	WE HAD
-2.165337	WE HAVE
-2.165337	WE JUST
-2.165337	WE KIND
-2.165337	WE MET
-2.165337	WE SAW
-2.165337	WE STARTED
-2.165337	WE TOOK
-2.165337	WE WALKED
-1.095501	WE WENT
-1.451413	WE WERE
-2.165337	WE WILL
-0.7181789	WE'LL JUST
-1.019209	WE'RE GOOD
-1.019209	WE'RE WORKING
-1.019209	WE'VE BEEN
-1.019209	WE'VE HAD
-1.417149	WEDDING </s>
-1.417149	WEDDING AND
-1.417149	WEDDING I
-1.417149	WEDDING IN
-1.417149	WEDDING RECEPTION
-1.1953	WEEK </s>
-0.4813765	WEEK AND
-0.2864473	WEEKEND </s>
-1.672421	WEEKEND PROBABLY
-1.672421	WEEKEND SO
-1.672421	WEEKEND UH
-0.7181789	WEEKENDS BEFORE
-0.7181789	WEIRD SITUATION
-1.672421	WELL AND
-0.9584977	WELL I
-0.9584977	WELL I'M
-1.672421	WELL IT
-1.672421	WELL IT'S
-1.672421	WELL RIGHT
-1.672421	WELL THE
-1.563277	WENT DOWN
-1.563277	WENT FROM
-1.563277	WENT THROUGH
-0.7433844	WENT TO
-1.563277	WERE ALL
-1.563277	WERE ANTICIPATING
-1.563277	WERE OUT
-1.563277	WERE THE
-1.563277	WERE THERE
-1.563277	WERE TURNED
-1.563277	WERE UP
-1.019209	WEREN'T IN
-1.019209	WEREN'T OUT
-1.1953	WHAT ELSE
-1.1953	WHAT I'VE
-1.1953	WHAT YOU
-0.7181789	WHATEVER YEAH
-0.7181789	WHEELCHAIR ANYWAY
-0.7032252	WHEN I
-1.417149	WHEN THERE'S
-1.417149	WHEN WE
-1.417149	WHEN YOUR
-0.7181789	WHENEVER YOU
-1.621269	WHERE DID
-1.621269	WHERE HE
-1.621269	WHERE I
-1.621269	WHERE I'M
-1.621269	WHERE IT
-1.621269	WHERE THAT
-1.621269	WHERE WE
-1.621269	WHERE YOU
-0.7181789	WHICH ONE
-1.019209	WHILE I
-1.019209	WHILE WE
-0.7181789	WHITMORE LAKE
-1.1953	WHO IS
-1.1953	WHO SAID
-1.1953	WHO WOULD
-0.7181789	WHOLE BUNCH
-0.7181789	WHY ARE
-1.019209	WILL PROBABLY
-1.019209	WILL STAY
-1.718179	WITH FRIENDS
-1.718179	WITH HER
-1.718179	WITH KIDS
-1.718179	WITH MY
-1.718179	WITH POOP
-1.718179	WITH THAT
-0.8982863	WITH THE
-0.7181789	WITHOUT FALLING
-0.7181789	WON </s>
-0.7181789	WON'T BE
-1.1953	WORK BUT
-1.1953	WORK PROBABLY
-1.1953	WORK SATURDAY
-1.417149	WORKING </s>
-1.417149	WORKING AT
-1.417149	WORKING I
-1.417149	WORKING ON
-1.417149	WORKING TEN
-0.7181789	WORKS </s>
-0.7181789	WOULD DO
-0.7181789	WRITING A
-0.7181789	YA'LL ARE
-0.3340303	YEAH </s>
-2.330963	YEAH ABSOLUTELY
-1.617039	YEAH AND
-1.617039	YEAH I'M
-2.330963	YEAH IN
-2.330963	YEAH IT
-1.617039	YEAH IT'S
-2.330963	YEAH NO
-1.51107	YEAH SO
-2.330963	YEAH THAT
-2.330963	YEAH THE
-2.330963	YEAH THERE'S
-1.261127	YEAH WE
-2.330963	YEAH WELL
-2.330963	YEAH YEP
-0.4264946	YEAR </s>
-0.7824064	YEAR AGO
-1.49633	YEAR AND
-0.7181789	YEARS OLD
-0.7181789	YEP </s>
-0.3357921	YES </s>
-2.133152	YES IF
-1.063317	YES IT
-2.133152	YES IT'S
-1.419229	YES MY
-2.133152	YES OH
-2.133152	YES THERE
-2.133152	YES THEY'RE
-2.133152	YES TWO
-2.133152	YES YEAH
-1.419229	YES YES
-0.6764376	YET </s>
-1.49633	YET BUT
-1.49633	YET TO
-2.209541	YOU ALL
-2.209541	YOU AND
-2.209541	YOU BACK
-2.209541	YOU CAN
-1.495617	YOU COULD
-2.209541	YOU DIDN'T
-2.209541	YOU DON'T
-2.209541	YOU GET
-2.209541	YOU GUYS
-1.495617	YOU HAVE
-2.209541	YOU HERE
-2.209541	YOU I'M
-2.209541	YOU JUST
-0.4913617	YOU KNOW
-2.209541	YOU MAY
-2.209541	YOU MOVE
-2.209541	YOU PAID
-2.209541	YOU SHOULD
-2.209541	YOU WEREN'T
-2.209541	YOU WON'T
-1.1953	YOU'RE DEPRESSED
-1.1953	YOU'RE GOING
-1.1953	YOU'RE NOT
-1.019209	YOUR GROWN
-1.019209	YOUR INCOME
-1.1953	YUP </s>
-1.1953	YUP IT
-1.1953	YUP NO
-1.019209	ZOO </s>
-1.019209	ZOO AND

\end\
