
\data\
ngram 1=615
ngram 2=1699

\1-grams:
-3.354877	17	-0.0643641
-3.354877	18	-0.03262258
-2.877755	300	-0.01091978
-3.354877	6	-0.07959721
-3.354877	600	-0.07959721
-0.9875205	</s>
-99	<s>	-0.2452891
-3.053846	<unk>	-0.07380137
-1.503618	A	-0.1315192
-2.752816	ABOUT	-0.07825176
-3.354877	ABSOLUTELY	-0.03262258
-3.354877	ACCESSIBLE	-0.0643641
-2.752816	ACTUALLY	-0.1584241
-3.354877	ADRIAN	-0.07825175
-3.354877	AFTER	-0.07882889
-3.354877	AGAIN	-0.07748105
-2.877755	AGO	-0.07282785
-3.354877	ALCOHOL	-0.07959721
-2.752816	ALL	-0.1634149
-3.053846	ALMOST	-0.07940525
-2.877755	ALSO	-0.07690211
-3.354877	ALWAYS	-0.07882889
-3.053846	AM	-0.06495997
-3.354877	AMAZING	-0.03262258
-2.877755	AN	-0.2161608
-1.457249	AND	-0.1149276
-3.354877	ANIMALS	-0.07863659
-3.354877	ANOTHER	-0.07921322
-3.354877	ANTICIPATING	-0.07959721
-3.053846	ANY	-0.07902109
-3.354877	ANYONE	-0.07940526
-3.354877	ANYTHING	-0.07554827
-3.354877	ANYWAY	-0.03262258
-3.354877	APPOINTMENTS	-0.03262258
-2.400634	ARE	-0.09906103
-3.354877	AREA	-0.03262258
-3.354877	ARMY	-0.03262258
-2.655906	AROUND	-0.1305972
-3.053846	AS	-0.07185211
-2.313484	AT	-0.1061944
-3.354877	AUDITING	-0.07959721
-3.053846	AWAY	-0.07574192
-2.576725	BACK	-0.2631011
-3.354877	BAD	-0.07959721
-3.053846	BANK	-0.06396639
-3.354877	BASED	-0.0780592
-3.354877	BASEMENT	-0.07574193
-3.354877	BATH	-0.0643641
-3.354877	BATTLE	-0.07959721
-2.124428	BE	-0.0635878
-3.354877	BEAVERS	-0.03262258
-2.576725	BECAUSE	-0.1396639
-3.354877	BED	-0.07959721
-2.877755	BEEN	-0.07748105
-2.877755	BEFORE	-0.01405549
-2.655906	BEING	-0.3293838
-3.354877	BELONGS	-0.03262258
-3.053846	BETWEEN	-0.2941051
-3.053846	BEYOND	-0.02724358
-2.752816	BIG	-0.0790211
-3.354877	BILLY	-0.07959721
-3.354877	BIT	-0.076129
-3.354877	BOOK	-0.0780592
-3.354877	BORING	-0.07959721
-3.354877	BORN	-0.0643641
-3.354877	BOTHER	-0.03262258
-3.354877	BRASS	-0.07959721
-3.354877	BRING	-0.07921322
-2.877755	BUNCH	-0.7128242
-3.053846	BUSY	-0.07419018
-2.053846	BUT	-0.06280273
-3.354877	BUYING	-0.07921322
-3.053846	CALLED	-0.07748104
-2.509778	CAN	-0.02025981
-3.354877	CAN'T	-0.07574193
-3.354877	CANADA	-0.0790211
-3.354877	CAROLINA	-0.07844422
-2.877755	CASH	-0.06177248
-3.354877	CATCH	-0.07825175
-3.053846	CAUSE	-0.06416528
-3.354877	CENTERVILLE	-0.07959721
-3.354877	CENTRAL	-0.0780592
-3.354877	CHAUFFEUR	-0.07940526
-3.354877	CLASS	-0.03262258
-3.354877	CLASSES	-0.0643641
-3.354877	CLEANED	-0.07844422
-3.354877	CLEANING	-0.03262258
-2.877755	COLLEGE	-0.1523401
-3.053846	COME	-0.07321751
-3.053846	COMING	-0.07825174
-3.354877	COMMERCIAL	-0.07224267
-3.354877	COMMUNITY	-0.07921322
-3.354877	COMPANIES	-0.07496675
-3.354877	COMPLETELY	-0.07882889
-3.354877	COMPUTER	-0.07959721
-3.354877	COMPUTERS	-0.06989407
-3.053846	CONE	-0.2586035
-3.354877	CONTRACTORS	-0.0643641
-3.354877	COOL	-0.03262258
-3.354877	COUCH	-0.07882889
-2.877755	COULD	-0.07360685
-3.053846	COULDN'T	-0.07863659
-3.053846	COUPLE	-0.07844421
-3.354877	COURSE	-0.07496675
-3.354877	CRAZY	-0.03262258
-3.354877	CREDIT	-0.07959721
-3.354877	CREEK	-0.03262258
-3.354877	CRYSTAL	-0.03262258
-3.354877	CURRENTLY	-0.07767385
-3.354877	DATE	-0.07593551
-3.354877	DAUGHTER	-0.03262258
-3.053846	DAY	-0.03004897
-2.576725	DAYS	-0.07693024
-3.354877	DEAL	-0.07554827
-3.354877	DEALING	-0.0780592
-3.354877	DECIDE	-0.07670897
-3.354877	DECIDED	-0.0780592
-2.877755	DEFINITELY	-0.01672535
-3.354877	DELTA	-0.07921322
-3.354877	DEPARTMENT	-0.03262258
-2.752816	DETROIT	-0.1302214
-2.877755	DID	-0.06871499
-3.053846	DIDN'T	-0.07940525
-3.354877	DIED	-0.0643641
-3.354877	DIFFERENCE	-0.07940526
-3.053846	DIFFERENT	-0.07902109
-3.354877	DIRT	-0.07940526
-3.354877	DISASTER	-0.07959721
-2.655906	DO	-0.1394689
-3.354877	DOCTORS	-0.07959721
-3.354877	DOES	-0.03262258
-3.053846	DOING	-0.06416528
-3.354877	DOLLARS	-0.07106996
-2.275695	DON'T	-0.3533395
-3.354877	DONAVAN	-0.03262258
-2.655906	DOWN	-0.09715712
-3.053846	DOWNTOWN	-0.07863659
-2.877755	DRAINS	-0.06396639
-3.053846	DRIVE	-0.07748104
-3.053846	DRIVING	-0.0780592
-3.354877	DRUG	-0.0643641
-3.354877	EACH	-0.03262258
-2.877755	EIGHT	-0.07651573
-3.053846	ELEMENTARY	-0.06396639
-3.354877	ELSE	-0.07921322
-3.354877	EM	-0.07593551
-3.354877	EMBARRASSING	-0.03262258
-3.354877	EMPTIED	-0.07748105
-3.354877	ENDED	-0.07825175
-3.053846	ENOUGH	-0.06316988
-3.354877	EQUITY	-0.0780592
-3.354877	ERUPTED	-0.0780592
-3.053846	EVEN	-0.0780592
-3.354877	EVER	-0.07959721
-3.053846	EVERY	-0.07882888
-3.354877	EVERYBODY	-0.076129
-3.053846	EVERYTHING	-0.06832124
-3.354877	EVICT	-0.07959721
-2.752816	EXACTLY	-0.4426371
-3.354877	EXCITED	-0.03262258
-3.354877	EXCITING	-0.03262258
-3.354877	EXERCISE	-0.03262258
-3.354877	FACILITY	-0.03262258
-3.354877	FAIRLY	-0.07959721
-3.354877	FALLS	-0.07959721
-2.877755	FAMILY	-0.01181801
-3.354877	FAN	-0.07959721
-3.354877	FARM	-0.07496675
-3.354877	FEEL	-0.07496675
-3.354877	FEES	-0.07921322
-3.053846	FESTIVAL	-0.06197237
-3.354877	FIELD	-0.07106996
-3.354877	FIFTY	-0.07882889
-3.354877	FIND	-0.07959721
-3.354877	FIREWORKS	-0.0643641
-3.053846	FIRST	-0.07574192
-3.354877	FISHING	-0.07940526
-3.354877	FIVE	-0.03262258
-3.354877	FIX	-0.07224267
-3.053846	FLORIDA	-0.06989406
-3.354877	FOOD	-0.07882889
-2.275695	FOR	-0.1069084
-3.354877	FORGOT	-0.07496675
-3.354877	FORMULA	-0.0643641
-3.354877	FORMULATE	-0.06595129
-3.354877	FORT	-0.07959721
-3.354877	FORTY	-0.03262258
-3.354877	FOUR	-0.07863659
-3.354877	FRESHMAN	-0.07496675
-3.053846	FRIDAY	-0.0645628
-3.053846	FRIENDS	-0.0306938
-2.400634	FROM	-0.145157
-2.655906	FUN	-0.09317882
-3.354877	FUNCTIONAL	-0.07959721
-3.354877	GAME	-0.03262258
-3.354877	GARAGE	-0.07959721
-3.354877	GAY	-0.07959721
-2.240933	GET	-0.1891828
-3.354877	GETS	-0.07959721
-2.877755	GETTING	-0.2025026
-3.354877	GIFTS	-0.03262258
-3.354877	GIRLS	-0.03262258
-3.053846	GIVE	-0.06515841
-3.354877	GIVING	-0.0790211
-2.576725	GO	-0.0637674
-3.354877	GOES	-0.03262258
-2.451787	GOING	-0.9723949
-3.053846	GOLF	-0.03240869
-3.354877	GONE	-0.07844422
-2.655906	GOOD	-0.1067311
-2.655906	GOT	-0.1332373
-3.354877	GRADUATING	-0.07882889
-3.354877	GRAHAM	-0.03262258
-3.354877	GRAND	-0.03262258
-2.877755	GREAT	-0.03198061
-3.354877	GROWN	-0.07106996
-3.354877	GUYS	-0.07959721
-2.451787	HAD	-0.1177762
-3.053846	HALF	-0.07728814
-3.354877	HANDICAP	-0.07959721
-3.354877	HAPPENS	-0.07940526
-3.354877	HAPPY	-0.03262258
-3.053846	HARD	-0.0704824
-2.099604	HAVE	-0.1839037
-3.354877	HAVEN'T	-0.07921322
-3.053846	HAVING	-0.2941051
-2.451787	HE	-0.1728394
-3.053846	HE'LL	-0.3024966
-2.655906	HE'S	-0.1305972
-3.354877	HELP	-0.0643641
-3.354877	HELPFUL	-0.03262258
-3.354877	HER	-0.07882889
-2.877755	HERE	-0.1693563
-3.354877	HIGH	-0.07940526
-3.354877	HILLS	-0.03262258
-3.354877	HIRE	-0.07940526
-3.053846	HISTORY	-0.2586035
-3.053846	HOLIDAY	-0.07087419
-3.354877	HOLIDAYS	-0.07748105
-3.053846	HOME	-0.07477273
-3.354877	HONEY	-0.07959721
-3.053846	HOPEFULLY	-0.06950139
-3.354877	HOSE	-0.0643641
-3.354877	HOT	-0.03262258
-3.053846	HOUR	-0.0321947
-3.354877	HOURS	-0.06595129
-2.576725	HOUSE	-0.05705634
-3.354877	HOW	-0.07106996
-3.354877	HOWEVER	-0.03262258
-3.354877	HUNDRED	-0.03262258
-3.354877	HURRICANE	-0.03262258
-3.354877	HUSBAND	-0.07690211
-1.474063	I	-0.3664691
-3.354877	I'D	-0.07959721
-2.877755	I'LL	-0.2123021
-2.053846	I'M	-0.1246717
-3.354877	I'VE	-0.07921322
-3.053846	IDEA	-0.03090854
-2.451787	IF	-0.1722458
-3.354877	IMMEDIATELY	-0.07863659
-1.956936	IN	-0.08806945
-3.354877	INCH	-0.076129
-3.053846	INCOME	-0.302883
-3.354877	INHERITANCE	-0.0643641
-3.053846	INSIDE	-0.05410706
-3.354877	INSTRUMENTS	-0.03262258
-3.354877	INTO	-0.07959721
-3.354877	INVITED	-0.0790211
-2.178785	IS	-0.07912413
-3.354877	ISN'T	-0.07959721
-3.354877	ISSUE	-0.07959721
-2.877755	ISSUES	-0.1995191
-1.763812	IT	-0.2135491
-3.354877	IT'LL	-0.07651573
-1.798574	IT'S	-0.2185128
-3.053846	ITS	-0.07902109
-3.053846	JAZZ	-0.3053861
-3.053846	JEFF	-0.3053861
-3.354877	JEWISH	-0.06989407
-3.354877	JOANNE'S	-0.0643641
-3.354877	JOB	-0.07496675
-3.053846	JUNE	-0.0319806
-3.354877	JUNIOR	-0.03262258
-2.178785	JUST	-0.03283634
-3.354877	KIDS	-0.0643641
-3.354877	KIND	-0.076129
-3.354877	KINDA	-0.07959721
-2.150756	KNOW	-0.1184775
-2.877755	LAKE	-0.03176641
-3.053846	LANDLORD	-0.2988087
-2.877755	LAST	-0.07863659
-3.354877	LAUDERDALE'S	-0.07554827
-3.354877	LAWS'	-0.07959721
-3.354877	LEAGUE	-0.07496675
-3.354877	LECTURE	-0.0643641
-3.354877	LEFT	-0.07825175
-3.354877	LEGAL	-0.07959721
-3.354877	LESS	-0.07554827
-2.012454	LIKE	-0.07667211
-3.354877	LIONS	-0.07959721
-3.354877	LIONS'	-0.07959721
-3.354877	LIST	-0.076129
-3.053846	LITTLE	-0.07940525
-3.053846	LIVE	-0.07477273
-2.752816	LOAN	-0.07574194
-3.053846	LOANS	-0.03112316
-3.354877	LOCATION	-0.06495997
-3.354877	LOOKED	-0.07670897
-3.354877	LOST	-0.07921322
-3.354877	LOT	-0.076129
-3.354877	LOTS	-0.076129
-3.354877	LOVE	-0.07224267
-3.053846	LOVES	-0.07204743
-2.877755	MAINTENANCE	-0.2159687
-3.354877	MAKE	-0.07940526
-3.354877	MAKING	-0.07224267
-3.354877	MANGERS	-0.0643641
-3.053846	MARRIED	-0.2586035
-3.354877	MART	-0.076129
-3.053846	MAYBE	-0.07554825
-3.354877	MCKENZIE	-0.07940526
-2.752816	ME	-0.05022304
-3.354877	MEMORIAL	-0.07940526
-3.354877	MET	-0.07767385
-3.354877	MHM	-0.07477274
-2.752816	MHMM	-0.4057235
-3.053846	MIDDLE	-0.02854063
-3.053846	MIGHT	-0.3024966
-3.354877	MILES	-0.0780592
-3.354877	MILLER	-0.0643641
-3.354877	MODERATELY	-0.07959721
-2.877755	MONDAY	-0.03176641
-2.752816	MONEY	-0.02529073
-3.354877	MONTH	-0.07224267
-3.354877	MOON	-0.0643641
-3.053846	MORE	-0.07535451
-2.877755	MORNING	-0.1979195
-3.354877	MOST	-0.07882889
-3.354877	MOSTLY	-0.07496675
-3.354877	MOUNTAINS	-0.07106996
-3.354877	MOVE	-0.0780592
-3.354877	MOVED	-0.07496675
-3.354877	MOVIE	-0.07940526
-3.354877	MOVING	-0.07844422
-2.877755	MUCH	-0.06989407
-3.053846	MUSIC	-0.07902109
-3.354877	MUSICIAN	-0.07593551
-2.240933	MY	-0.07165671
-3.354877	NEAR	-0.07940526
-3.354877	NEAT	-0.03262258
-3.354877	NEED	-0.07360685
-3.354877	NEW	-0.07959721
-2.655906	NEXT	-0.1543784
-3.053846	NICE	-0.0321947
-3.354877	NIECE	-0.07690211
-3.354877	NIECES	-0.07496675
-3.053846	NIGHT	-0.0319806
-3.354877	NINE	-0.07959721
-2.053846	NO	-0.2067468
-2.877755	NORTH	-0.03090854
-3.354877	NORTHEAST	-0.07882889
-3.354877	NORTHWEST	-0.076129
-2.150756	NOT	-0.1421369
-3.053846	NOTHING	-0.07825174
-2.509778	NOW	-0.03793577
-3.354877	O'CLOCK	-0.07282785
-3.354877	OAK	-0.03262258
-3.354877	OCCASIONAL	-0.07959721
-2.076123	OF	-0.06380457
-3.354877	OFF	-0.06989407
-2.354877	OH	-0.1173605
-3.354877	OHIO	-0.07825175
-3.354877	OK	-0.03262258
-2.752816	OKAY	-0.1675552
-2.400634	ON	-0.07642446
-2.313484	ONE	-0.1232196
-3.053846	ONES	-0.06157247
-3.053846	ONLY	-0.07902109
-3.354877	ONTARIO	-0.03262258
-2.655906	OR	-0.07554828
-3.354877	ORLANDO	-0.03262258
-2.752816	OTHER	-0.07516068
-3.354877	OUR	-0.07959721
-2.509778	OUT	0.004641436
-2.655906	OVER	-0.1675537
-3.053846	OVERPAID	-0.03004897
-3.053846	OVERWHELMING	-0.0321947
-2.752816	PAID	-0.4521653
-3.354877	PANDAS	-0.03262258
-3.354877	PARENTS	-0.07959721
-3.354877	PARTNER'S	-0.06595129
-3.354877	PARTY	-0.06989407
-3.354877	PAY	-0.07574193
-3.354877	PEACEFUL	-0.07940526
-3.354877	PEOPLE	-0.03262258
-3.354877	PERHAPS	-0.07921322
-3.354877	PETE	-0.03262258
-3.354877	PETOSKEY	-0.07825175
-3.354877	PETS	-0.0643641
-3.354877	PICK	-0.07825175
-3.354877	PICTURES	-0.03262258
-3.053846	PLACE	-0.07185211
-3.354877	PLAN	-0.03262258
-3.053846	PLANNED	-0.07574192
-2.655906	PLAY	-0.02441996
-3.354877	PLAYED	-0.0780592
-3.053846	PLAYING	-0.0637674
-3.354877	PLUMBER	-0.07106996
-3.354877	POINT	-0.0790211
-3.354877	POOP	-0.0643641
-3.354877	POWER	-0.07959721
-3.354877	POWERFUL	-0.07959721
-3.354877	PRETTY	-0.07921322
-3.354877	PRINCESS	-0.03262258
-2.655906	PROBABLY	-0.05288429
-3.053846	PROBLEM	-0.07496674
-3.354877	PROFESSOR	-0.06989407
-3.354877	PROGRAMING	-0.06989407
-3.354877	PROPERTY	-0.07959721
-3.354877	QUARTER	-0.07959721
-3.354877	QUICK	-0.07940526
-3.354877	QUICKEN	-0.07940526
-3.354877	QUIZZES	-0.07882889
-3.354877	RACE	-0.07940526
-3.354877	RAISED	-0.03262258
-3.354877	RAY	-0.07959721
-3.354877	READ	-0.03262258
-3.354877	READING	-0.06595129
-3.354877	REAL	-0.0790211
-3.354877	REALLY	-0.07959721
-3.354877	REALTOR	-0.0790211
-3.354877	REASON	-0.03262258
-3.354877	RECEPTION	-0.03262258
-3.354877	RECOMMEND	-0.07224267
-3.354877	RED	-0.07959721
-2.877755	REHEARSAL	-0.07126563
-3.354877	RELATIONSHIP	-0.07882889
-2.877755	RELATOR	-0.07341222
-3.354877	RELIGIOUS	-0.07959721
-3.354877	REMEMBER	-0.07959721
-3.354877	RESIDENTIAL	-0.03262258
-3.354877	REUPHOLSTERING	-0.07959721
-3.354877	RID	-0.076129
-2.509778	RIGHT	-0.2848944
-3.354877	ROAD	-0.03262258
-3.354877	ROCHESTER	-0.07959721
-3.354877	ROYAL	-0.07959721
-3.354877	SAGINAW	-0.03262258
-2.752816	SAID	-0.1701117
-3.354877	SAINT	-0.07959721
-3.354877	SALE	-0.03262258
-3.354877	SALVATION	-0.07959721
-3.354877	SARASOTA	-0.06989407
-2.877755	SATURDAY	-0.0315521
-3.053846	SCHOOL	-0.01539246
-2.655906	SEE	-0.05714908
-3.354877	SEEN	-0.07496675
-2.877755	SELL	-0.1973182
-3.354877	SELLING	-0.07224267
-3.354877	SEMESTER	-0.07748105
-2.752816	SEVEN	-0.1300071
-3.354877	SHE	-0.076129
-3.354877	SHOULD	-0.07651573
-3.354877	SHOWER	-0.07748105
-3.053846	SHOWS	-0.01605941
-3.354877	SHUT	-0.07882889
-3.053846	SICK	-0.3053861
-3.354877	SILLY	-0.0643641
-3.354877	SISTERS	-0.07496675
-3.354877	SITUATION	-0.07282785
-3.354877	SLUSH	-0.07959721
-3.354877	SMALL	-0.07959721
-1.647306	SO	-0.1454936
-2.877755	SOME	-0.07882889
-3.053846	SOMEBODY	-0.02724358
-3.354877	SOMETHING	-0.07844422
-3.354877	SORRY	-0.03262258
-3.053846	SOUTH	-0.07516067
-3.354877	STARED	-0.07767385
-3.354877	START	-0.0780592
-3.354877	STARTED	-0.06595129
-3.053846	STARTS	-0.3036547
-3.354877	STAY	-0.03262258
-3.354877	STILL	-0.07921322
-3.053846	STRESS	-0.07477273
-3.354877	STRESSFUL	-0.03262258
-2.752816	STUFF	-0.1120639
-3.053846	SUNDAY	-0.07535451
-3.354877	SUPPLIES	-0.0643641
-2.752816	SURE	-0.1740032
-3.354877	TAKE	-0.06595129
-3.354877	TALK	-0.0643641
-3.053846	TALKED	-0.2970508
-3.053846	TAMPA	-0.2586035
-3.053846	TEACH	-0.06396639
-2.877755	TEN	-0.0637674
-3.354877	TERRIBLE	-0.03262258
-3.053846	TEST	-0.03004897
-3.354877	THANK	-0.07574193
-1.956936	THAT	-0.09014882
-2.576725	THAT'S	-0.05593482
-1.576725	THE	-0.1647991
-3.053846	THEIR	-0.07882888
-2.877755	THEM	-0.076129
-2.275695	THEN	-0.08623561
-3.354877	THERAPIST	-0.07767385
-2.354877	THERE	-0.08556335
-2.509778	THERE'S	-0.1092352
-2.150756	THEY	-0.1528015
-3.053846	THEY'RE	-0.06969777
-3.053846	THING	-0.01605941
-2.877755	THINGS	-0.01338546
-2.655906	THINK	-0.05268015
-3.354877	THIRTEEN	-0.0643641
-2.576725	THIS	-0.1628238
-3.354877	THOUGH	-0.07940526
-3.354877	THOUSAND	-0.07959721
-3.053846	THREE	-0.07844421
-3.053846	THROUGH	-0.06396639
-3.053846	TIME	-0.295875
-3.354877	TIMES	-0.06595129
-1.701664	TO	-0.08149038
-3.354877	TOLD	-0.03262258
-3.354877	TOMORROW	-0.0643641
-3.053846	TONIGHT	-0.03240869
-2.877755	TOO	-0.07863659
-3.354877	TOOK	-0.07959721
-3.354877	TORNADO	-0.03262258
-3.053846	TRACK	-0.03155209
-3.354877	TREATMENT	-0.07959721
-3.053846	TRIP	-0.06851815
-3.354877	TROUBLE	-0.07282785
-2.877755	TRUCKLOADS	-0.05996917
-3.354877	TRUST	-0.03262258
-2.877755	TRYING	-0.7077651
-3.354877	TUES	-0.07748105
-3.053846	TUESDAY	-0.06257154
-3.354877	TURNED	-0.07959721
-3.354877	TV	-0.07940526
-3.354877	TWELVE	-0.03262258
-2.509778	TWO	-0.08376709
-3.354877	TYPE	-0.07940526
-2.576725	UH	-0.06257154
-3.354877	UHH	-0.07940526
-2.509778	UM	-0.06396639
-3.354877	UMM	-0.07593551
-3.354877	UNCLE	-0.07959721
-3.354877	UNDER	-0.07728815
-3.354877	UNION	-0.07593551
-3.053846	UNPACKED	-0.07825174
-2.451787	UP	-0.001604177
-3.354877	USE	-0.07728815
-3.354877	USED	-0.07106996
-3.354877	VACATIONS	-0.07863659
-3.354877	VARIETY	-0.03262258
-2.576725	VERY	-0.1403861
-3.354877	VISITED	-0.0780592
-3.354877	VP	-0.07224267
-3.354877	WABATONGUSHI	-0.03262258
-3.354877	WAL	-0.07959721
-3.354877	WALK	-0.07882889
-3.354877	WALKED	-0.07882889
-3.053846	WALKING	-0.3048097
-3.354877	WANT	-0.07106996
-3.053846	WANTS	-0.2970508
-3.354877	WARNING	-0.03262258
-2.076123	WAS	-0.003234364
-3.354877	WASH	-0.06812425
-3.053846	WASTE	-0.06555503
-3.354877	WAWA	-0.07959721
-2.752816	WAY	-0.07106997
-2.053846	WE	-0.1581899
-3.354877	WE'LL	-0.07690211
-3.053846	WE'RE	-0.07786656
-3.053846	WE'VE	-0.07767384
-2.655906	WEDDING	0.007915609
-2.877755	WEEK	-0.1523401
-2.400634	WEEKEND	-0.1907115
-3.354877	WEEKENDS	-0.07921322
-3.354877	WEIRD	-0.07959721
-2.451787	WELL	-0.06072206
-2.509778	WENT	-0.1398422
-2.576725	WERE	-0.06396639
-3.053846	WEREN'T	-0.07360684
-2.877755	WHAT	-0.07535452
-3.354877	WHATEVER	-0.07360685
-3.354877	WHEELCHAIR	-0.07959721
-2.752816	WHEN	-0.05916531
-3.354877	WHENEVER	-0.07574193
-2.451787	WHERE	-0.03709
-3.354877	WHICH	-0.07767385
-3.354877	WHILE	-0.06495997
-3.354877	WHITMORE	-0.07921322
-3.053846	WHO	-0.07882888
-3.354877	WHOLE	-0.07921322
-3.354877	WHY	-0.0780592
-3.053846	WILL	-0.07863659
-2.400634	WITH	-0.1170455
-3.354877	WON	-0.03262258
-3.354877	WON'T	-0.07651573
-3.053846	WORK	-0.07535451
-2.655906	WORKING	-0.01091979
-3.354877	WOULD	-0.07882889
-3.354877	WRITING	-0.06595129
-3.354877	YA'LL	-0.0780592
-1.849726	YEAH	-0.3399544
-2.576725	YEAR	-0.3333104
-3.354877	YEP	-0.03262258
-1.939903	YES	-0.4035679
-2.576725	YET	-0.1036461
-2.032657	YOU	-0.1976474
-3.354877	YOU'RE	-0.07825175
-3.053846	YOUR	-0.07921321
-3.053846	YUP	-0.02420199
-3.053846	ZOO	-0.01539246

\2-grams:
-0.7751248	17 AND
-0.7751248	18 </s>
-1.252246	300 </s>
-1.252246	300 AND
-1.252246	300 WE
-0.7751248	6 WEEKENDS
-0.7751248	600 MILES
-3.142481	<s> A
-2.362667	<s> ACTUALLY
-3.142481	<s> ALL
-3.142481	<s> AN
-1.191265	<s> AND
-3.142481	<s> AROUND
-3.142481	<s> BE
-3.142481	<s> BECAUSE
-3.142481	<s> BEFORE
-3.142481	<s> BORN
-3.142481	<s> BRASS
-1.522258	<s> BUT
-3.142481	<s> BUYING
-3.142481	<s> COUPLE
-3.142481	<s> DEFINITELY
-3.142481	<s> DELTA
-3.142481	<s> DOCTORS
-3.142481	<s> DOWNTOWN
-3.142481	<s> ELEMENTARY
-2.362667	<s> FOR
-3.142481	<s> FORT
-2.362667	<s> GOING
-2.362667	<s> HE
-3.142481	<s> HE'S
-3.142481	<s> HISTORY
-1.288175	<s> I
-2.174151	<s> I'M
-3.142481	<s> IF
-1.982874	<s> IN
-2.174151	<s> IT
-1.829405	<s> IT'S
-2.362667	<s> JEFF
-3.142481	<s> JUST
-3.142481	<s> MHM
-2.174151	<s> MHMM
-3.142481	<s> MILLER
-3.142481	<s> MODERATELY
-3.142481	<s> MUSIC
-2.362667	<s> MY
-3.142481	<s> NEXT
-1.288175	<s> NO
-3.142481	<s> NOT
-3.142481	<s> NOTHING
-1.668386	<s> OH
-3.142481	<s> OK
-1.982874	<s> OKAY
-2.362667	<s> ONE
-3.142481	<s> OR
-3.142481	<s> OVER
-3.142481	<s> PERHAPS
-3.142481	<s> PLAY
-3.142481	<s> PRETTY
-3.142481	<s> PROBABLY
-3.142481	<s> READ
-1.982874	<s> RIGHT
-3.142481	<s> SAINT
-3.142481	<s> SHOULD
-1.288175	<s> SO
-3.142481	<s> SOME
-3.142481	<s> SUNDAY
-3.142481	<s> TEN
-3.142481	<s> THANK
-3.142481	<s> THAT
-2.362667	<s> THAT'S
-3.142481	<s> THE
-3.142481	<s> THEN
-3.142481	<s> THERE
-3.142481	<s> THERE'S
-1.829405	<s> THEY
-3.142481	<s> THROUGH
-3.142481	<s> TV
-3.142481	<s> TWO
-1.982874	<s> UH
-2.362667	<s> UM
-3.142481	<s> UMM
-3.142481	<s> VERY
-1.982874	<s> WE
-2.362667	<s> WE'VE
-1.668386	<s> WELL
-3.142481	<s> WENT
-3.142481	<s> WHAT
-3.142481	<s> WHEN
-3.142481	<s> WHENEVER
-3.142481	<s> WHERE
-3.142481	<s> WITH
-3.142481	<s> WORKING
-1.024933	<s> YEAH
-1.088602	<s> YES
-1.668386	<s> YOU
-3.142481	<s> YUP
-1.076155	<unk> IN
-1.076155	<unk> THIS
-2.626383	A BAD
-1.466777	A BIG
-1.84657	A BUNCH
-2.626383	A CHAUFFEUR
-2.626383	A COMMUNITY
-2.626383	A COUPLE
-2.626383	A DAY
-2.626383	A DIFFERENT
-2.626383	A DIRT
-2.626383	A DISASTER
-2.626383	A DRUG
-2.626383	A FAIRLY
-2.626383	A FISHING
-2.626383	A FUNCTIONAL
-2.626383	A GARAGE
-2.626383	A GOLF
-2.626383	A GOOD
-2.626383	A GREAT
-1.84657	A HALF
-2.626383	A HE
-2.626383	A HONEY
-2.626383	A HOUSE
-2.626383	A JUNIOR
-2.626383	A LAKE
-1.84657	A LANDLORD
-2.626383	A LECTURE
-2.626383	A LIONS
-2.626383	A LIONS'
-2.626383	A LITTLE
-1.658053	A LOAN
-2.626383	A LOT
-2.626383	A MOVIE
-2.626383	A MUSICIAN
-2.626383	A NEW
-2.626383	A PLAY
-2.626383	A PROBLEM
-2.626383	A PROFESSOR
-2.626383	A QUARTER
-2.626383	A REAL
-1.84657	A REHEARSAL
-2.626383	A RELATIONSHIP
-2.626383	A RELATOR
-2.626383	A SALVATION
-2.626383	A SHOWER
-2.626383	A SMALL
-1.84657	A TEST
-2.626383	A THERAPIST
-2.626383	A VP
-1.658053	A WEDDING
-1.84657	A WEEK
-2.626383	A WEIRD
-2.626383	A WHEELCHAIR
-2.626383	A WHOLE
-1.466777	A YEAR
-2.626383	A YOU
-1.377185	ABOUT 600
-1.377185	ABOUT LAST
-1.377185	ABOUT SELLING
-1.377185	ABOUT TEN
-0.7751248	ABSOLUTELY </s>
-0.7751248	ACCESSIBLE AND
-1.377185	ACTUALLY DOWN
-0.5973712	ACTUALLY I
-1.377185	ACTUALLY I'M
-0.7751248	ADRIAN WHERE
-0.7751248	AFTER BEING
-0.7751248	AGAIN THEN
-1.252246	AGO BECAUSE
-1.252246	AGO BUT
-1.252246	AGO THERE
-0.7751248	ALCOHOL TREATMENT
-1.377185	ALL FROM
-1.377185	ALL OUT
-0.5973712	ALL THE
-1.076155	ALMOST LOST
-1.076155	ALMOST NINE
-1.252246	ALSO HAD
-1.252246	ALSO TRYING
-1.252246	ALSO WHEN
-0.7751248	ALWAYS FUN
-1.076155	AM A
-1.076155	AM WORKING
-0.7751248	AMAZING </s>
-0.4724325	AN HOUR
-1.252246	AN OCCASIONAL
-2.672752	AND 18
-1.704422	AND A
-2.672752	AND ALCOHOL
-1.704422	AND AND
-2.672752	AND BE
-2.672752	AND BEYOND
-2.672752	AND CATCH
-2.672752	AND ENDED
-2.672752	AND EVEN
-2.672752	AND EVERYTHING
-2.672752	AND FRIDAY
-2.672752	AND GIVE
-2.672752	AND GO
-2.672752	AND GOT
-2.672752	AND HANDICAP
-1.892938	AND HE
-1.513145	AND I
-2.672752	AND I'M
-2.672752	AND IF
-2.672752	AND IT'S
-1.513145	AND JUST
-2.672752	AND LESS
-2.672752	AND LIKE
-2.672752	AND MIDDLE
-2.672752	AND NOT
-2.672752	AND ONE
-2.672752	AND OUT
-2.672752	AND PLAY
-2.672752	AND PROPERTY
-2.672752	AND RAISED
-0.8562344	AND SO
-1.892938	AND STUFF
-2.672752	AND TEACH
-1.198657	AND THE
-2.672752	AND THEIR
-1.704422	AND THEN
-1.892938	AND THEY
-2.672752	AND TRUCKLOADS
-2.672752	AND TWELVE
-2.672752	AND UH
-2.672752	AND UM
-2.672752	AND VISITED
-2.672752	AND WAL
-2.672752	AND WE
-2.672752	AND WHATEVER
-2.672752	AND WHEN
-2.672752	AND WHITMORE
-2.672752	AND WITH
-2.672752	AND YOUR
-0.7751248	ANIMALS WERE
-0.7751248	ANOTHER REHEARSAL
-0.7751248	ANTICIPATING MOVING
-1.076155	ANY IDEA
-1.076155	ANY WORK
-0.7751248	ANYONE WHO
-0.7751248	ANYTHING LIKE
-0.7751248	ANYWAY </s>
-0.7751248	APPOINTMENTS </s>
-1.729367	ARE 17
-0.9495537	ARE </s>
-1.729367	ARE ALSO
-1.729367	ARE GOING
-1.729367	ARE IT'S
-0.9495537	ARE LIKE
-1.729367	ARE YOU
-0.7751248	AREA </s>
-0.7751248	ARMY </s>
-1.474095	AROUND JOANNE'S
-1.474095	AROUND SO
-0.6942812	AROUND THE
-1.474095	AROUND WE
-1.076155	AS IT
-1.076155	AS OVERWHELMING
-1.036704	AT A
-1.816517	AT ALMOST
-1.816517	AT BED
-1.816517	AT EIGHT
-1.816517	AT FIRST
-1.816517	AT LIKE
-1.816517	AT QUICKEN
-1.816517	AT SO
-1.036704	AT THE
-0.7751248	AUDITING DEPARTMENT
-1.076155	AWAY FOR
-1.076155	AWAY FROM
-0.3936696	BACK AND
-1.553276	BACK GET
-1.553276	BACK PLAYING
-1.553276	BACK TO
-0.7751248	BAD LOCATION
-1.076155	BANK AND
-1.076155	BANK BEYOND
-0.7751248	BASED ON
-0.7751248	BASEMENT YOU
-0.7751248	BATH AND
-0.7751248	BATTLE CREEK
-2.005574	BE A
-2.005574	BE COMMERCIAL
-2.005574	BE DEALING
-2.005574	BE EMBARRASSING
-2.005574	BE GOOD
-2.005574	BE GRADUATING
-2.005574	BE HAPPY
-1.22576	BE IN
-2.005574	BE IT
-2.005574	BE ONE
-2.005574	BE RESIDENTIAL
-2.005574	BE SILLY
-2.005574	BE STARED
-2.005574	BE UHH
-2.005574	BE VERY
-2.005574	BE YOU
-0.7751248	BEAVERS </s>
-0.584946	BECAUSE I
-1.553276	BECAUSE IT
-1.553276	BECAUSE MY
-0.7751248	BED BATH
-1.252246	BEEN HOME
-1.252246	BEEN ON
-1.252246	BEEN TOLD
-1.252246	BEFORE </s>
-1.252246	BEFORE THAT
-1.252246	BEFORE THE
-0.3144884	BEING A
-1.474095	BEING AWAY
-1.474095	BEING IN
-0.7751248	BELONGS </s>
-0.2963412	BETWEEN THE
-1.076155	BEYOND </s>
-1.076155	BEYOND THAT
-1.377185	BIG DEAL
-1.377185	BIG DIFFERENCE
-1.377185	BIG PARTY
-1.377185	BIG WARNING
-0.7751248	BILLY GRAHAM
-0.7751248	BIT OF
-0.7751248	BOOK ON
-0.7751248	BORING HOWEVER
-0.7751248	BORN AND
-0.7751248	BOTHER </s>
-0.7751248	BRASS INSTRUMENTS
-0.7751248	BRING THEM
-0.09263963	BUNCH OF
-1.076155	BUSY I'M
-1.076155	BUSY WEEKEND
-0.9165484	BUT </s>
-2.076155	BUT AND
-2.076155	BUT BUT
-1.296341	BUT I
-1.296341	BUT IF
-2.076155	BUT IT'LL
-1.296341	BUT IT'S
-2.076155	BUT NOW
-2.076155	BUT SUNDAY
-2.076155	BUT THE
-2.076155	BUT THEN
-2.076155	BUT THERE
-2.076155	BUT THERE'S
-2.076155	BUT WE
-2.076155	BUT YEAH
-0.7751248	BUYING THINGS
-1.076155	CALLED ONE
-1.076155	CALLED WABATONGUSHI
-1.620223	CAN </s>
-1.620223	CAN BE
-1.620223	CAN GET
-1.620223	CAN HAVE
-1.620223	CAN PAY
-1.620223	CAN SEE
-1.620223	CAN SELL
-0.7751248	CAN'T YOU
-0.7751248	CANADA ABOUT
-0.7751248	CAROLINA CAN
-1.252246	CASH A
-1.252246	CASH FOR
-1.252246	CASH WITH
-0.7751248	CATCH UP
-1.076155	CAUSE ABOUT
-1.076155	CAUSE I
-0.7751248	CENTERVILLE BRING
-0.7751248	CENTRAL FROM
-0.7751248	CHAUFFEUR WE'RE
-0.7751248	CLASS </s>
-0.7751248	CLASSES AND
-0.7751248	CLEANED OUT
-0.7751248	CLEANING </s>
-0.4724325	COLLEGE </s>
-1.252246	COLLEGE AND
-1.076155	COME IN
-1.076155	COME WITH
-1.076155	COMING BACK
-1.076155	COMING HOME
-0.7751248	COMMERCIAL IT
-0.7751248	COMMUNITY COLLEGE
-0.7751248	COMPANIES THAT
-0.7751248	COMPLETELY GOT
-0.7751248	COMPUTER PROGRAMING
-0.7751248	COMPUTERS SO
-0.2963412	CONE </s>
-0.7751248	CONTRACTORS AND
-0.7751248	COOL </s>
-0.7751248	COUCH OVER
-1.252246	COULD BE
-1.252246	COULD GET
-1.252246	COULD GIVE
-1.076155	COULDN'T FIND
-1.076155	COULDN'T SEE
-1.076155	COUPLE DAYS
-1.076155	COUPLE TIMES
-0.7751248	COURSE IN
-0.7751248	CRAZY </s>
-0.7751248	CREDIT UNION
-0.7751248	CREEK </s>
-0.7751248	CRYSTAL </s>
-0.7751248	CURRENTLY AT
-0.7751248	DATE BUT
-0.7751248	DAUGHTER </s>
-1.076155	DAY </s>
-1.076155	DAY FOR
-0.7734625	DAYS </s>
-1.553276	DAYS ON
-1.553276	DAYS OVER
-1.553276	DAYS SO
-1.553276	DAYS YOU
-0.7751248	DEAL LIKE
-0.7751248	DEALING WITH
-0.7751248	DECIDE THEY
-0.7751248	DECIDED ON
-1.252246	DEFINITELY </s>
-1.252246	DEFINITELY A
-1.252246	DEFINITELY NICE
-0.7751248	DELTA COLLEGE
-0.7751248	DEPARTMENT </s>
-1.377185	DETROIT </s>
-0.5973712	DETROIT JAZZ
-1.377185	DETROIT ZOO
-1.252246	DID NOT
-1.252246	DID WE
-1.252246	DID YOU
-1.076155	DIDN'T FEEL
-1.076155	DIDN'T SORRY
-0.7751248	DIED AND
-0.7751248	DIFFERENCE BETWEEN
-1.076155	DIFFERENT BOOK
-1.076155	DIFFERENT THINGS
-0.7751248	DIRT TRACK
-0.7751248	DISASTER AREA
-1.474095	DO ANY
-0.6942812	DO LIKE
-1.474095	DO MY
-1.474095	DO SO
-0.7751248	DOCTORS APPOINTMENTS
-0.7751248	DOES </s>
-1.076155	DOING I'M
-1.076155	DOING THE
-0.7751248	DOLLARS TO
-1.854306	DON'T EVEN
-1.854306	DON'T HAVE
-0.3802112	DON'T KNOW
-1.074492	DON'T LIKE
-1.854306	DON'T REMEMBER
-1.854306	DON'T SELL
-1.854306	DON'T THERE
-0.7751248	DONAVAN </s>
-1.474095	DOWN </s>
-1.474095	DOWN SOUTH
-1.474095	DOWN THERE
-0.6942812	DOWN TO
-1.076155	DOWNTOWN <unk>
-1.076155	DOWNTOWN DETROIT
-1.252246	DRAINS AND
-1.252246	DRAINS CLEANED
-1.252246	DRAINS ERUPTED
-1.076155	DRIVE DOWN
-1.076155	DRIVE RIGHT
-1.076155	DRIVING IMMEDIATELY
-1.076155	DRIVING UP
-0.7751248	DRUG AND
-0.7751248	EACH </s>
-1.252246	EIGHT DAYS
-1.252246	EIGHT FORTY
-1.252246	EIGHT OH
-1.076155	ELEMENTARY AND
-1.076155	ELEMENTARY STARTS
-0.7751248	ELSE DID
-0.7751248	EM BUT
-0.7751248	EMBARRASSING </s>
-0.7751248	EMPTIED FOR
-0.7751248	ENDED UP
-1.076155	ENOUGH AND
-1.076155	ENOUGH BECAUSE
-0.7751248	EQUITY ON
-0.7751248	ERUPTED WITH
-1.076155	EVEN BOTHER
-1.076155	EVEN IF
-0.7751248	EVER SEEN
-1.076155	EVERY OTHER
-1.076155	EVERY PLAN
-0.7751248	EVERYBODY WAS
-1.076155	EVERYTHING SO
-1.076155	EVERYTHING WHERE
-0.7751248	EVICT PRINCESS
-1.377185	EXACTLY SO
-0.2175784	EXACTLY SURE
-0.7751248	EXCITED </s>
-0.7751248	EXCITING </s>
-0.7751248	EXERCISE </s>
-0.7751248	FACILITY </s>
-0.7751248	FAIRLY QUICK
-0.7751248	FALLS UNDER
-1.252246	FAMILY </s>
-1.252246	FAMILY AND
-1.252246	FAMILY THEY
-0.7751248	FAN ISN'T
-0.7751248	FARM IN
-0.7751248	FEEL THAT
-0.7751248	FEES TRYING
-1.076155	FESTIVAL AND
-1.076155	FESTIVAL THEN
-0.7751248	FIELD TO
-0.7751248	FIFTY OR
-0.7751248	FIND ANYONE
-0.7751248	FIREWORKS AND
-1.076155	FIRST BUT
-1.076155	FIRST MOVED
-0.7751248	FISHING TRIP
-0.7751248	FIVE </s>
-0.7751248	FIX IT
-1.076155	FLORIDA TO
-1.076155	FLORIDA WERE
-0.7751248	FOOD OR
-1.854306	FOR EIGHT
-1.854306	FOR IT
-1.854306	FOR MY
-1.854306	FOR NO
-1.854306	FOR ONE
-1.854306	FOR PEOPLE
-1.854306	FOR THAT
-1.074492	FOR THE
-1.074492	FOR THIS
-1.854306	FOR TUESDAY
-0.7751248	FORGOT THAT
-0.7751248	FORMULA AND
-0.7751248	FORMULATE A
-0.7751248	FORT LAUDERDALE'S
-0.7751248	FORTY </s>
-0.7751248	FOUR DAYS
-0.7751248	FRESHMAN IN
-1.076155	FRIDAY FRIDAY
-1.076155	FRIDAY I
-1.076155	FRIENDS </s>
-1.076155	FRIENDS FROM
-1.729367	FROM </s>
-1.729367	FROM CENTERVILLE
-1.729367	FROM DOWN
-1.729367	FROM HAVING
-1.729367	FROM HERE
-0.5697609	FROM THE
-1.729367	FROM WHAT
-0.6942812	FUN </s>
-1.474095	FUN TO
-1.474095	FUN WHEN
-1.474095	FUN YES
-0.7751248	FUNCTIONAL COURSE
-0.7751248	GAME </s>
-0.7751248	GARAGE SALE
-0.7751248	GAY CENTRAL
-1.109255	GET 300
-0.7294617	GET A
-1.889068	GET ALL
-1.889068	GET BACK
-1.889068	GET I
-1.889068	GET LOANS
-1.889068	GET SICK
-1.109255	GET THE
-1.889068	GET UP
-0.7751248	GETS CRAZY
-1.252246	GETTING A
-0.4724325	GETTING MARRIED
-0.7751248	GIFTS </s>
-0.7751248	GIRLS </s>
-1.076155	GIVE A
-1.076155	GIVE ME
-0.7751248	GIVING SEVEN
-1.553276	GO ACTUALLY
-1.553276	GO BACK
-1.553276	GO BUT
-1.553276	GO INTO
-1.553276	GO TO
-1.553276	GO YET
-0.7751248	GOES </s>
-1.678215	GOING ON
-0.05799195	GOING TO
-1.076155	GOLF </s>
-1.076155	GOLF LEAGUE
-0.7751248	GONE NOW
-0.6942812	GOOD </s>
-1.474095	GOOD I'D
-1.474095	GOOD ONE
-1.474095	GOOD THOUGH
-1.474095	GOT A
-1.474095	GOT RID
-0.6942812	GOT TO
-1.474095	GOT UNPACKED
-0.7751248	GRADUATING NEXT
-0.7751248	GRAHAM </s>
-0.7751248	GRAND </s>
-1.252246	GREAT </s>
-1.252246	GREAT FIELD
-1.252246	GREAT SCHOOL
-0.7751248	GROWN TO
-0.7751248	GUYS EVER
-0.7098848	HAD A
-1.678215	HAD EM
-1.678215	HAD MONEY
-1.678215	HAD TALKED
-1.678215	HAD TO
-1.076155	HALF AGO
-1.076155	HALF THERE
-0.7751248	HANDICAP ACCESSIBLE
-0.7751248	HAPPENS CAUSE
-0.7751248	HAPPY </s>
-1.076155	HARD GETTING
-1.076155	HARD TO
-0.7173214	HAVE A
-2.030397	HAVE ANOTHER
-2.030397	HAVE ANY
-2.030397	HAVE HELP
-2.030397	HAVE MY
-2.030397	HAVE NO
-2.030397	HAVE PLANNED
-2.030397	HAVE THE
-2.030397	HAVE THEM
-0.8707909	HAVE TO
-2.030397	HAVE TWO
-0.7751248	HAVEN'T BEEN
-0.2963412	HAVING THE
-1.678215	HE DOES
-1.678215	HE JUST
-0.8984012	HE LOVES
-1.678215	HE USED
-0.8984012	HE WANTS
-1.678215	HE WENT
-0.2963412	HE'LL BE
-1.474095	HE'S A
-1.474095	HE'S IT
-0.6942812	HE'S NOT
-1.474095	HE'S VERY
-0.7751248	HELP AND
-0.7751248	HELPFUL </s>
-0.7751248	HER BEING
-0.4724325	HERE </s>
-1.252246	HERE WHILE
-0.7751248	HIGH SCHOOL
-0.7751248	HILLS </s>
-0.7751248	HIRE SOMEBODY
-0.2963412	HISTORY </s>
-1.076155	HOLIDAY LEFT
-1.076155	HOLIDAY TO
-0.7751248	HOLIDAYS DON'T
-1.076155	HOME AFTER
-1.076155	HOME IN
-0.7751248	HONEY MOON
-1.076155	HOPEFULLY HOPEFULLY
-1.076155	HOPEFULLY SO
-0.7751248	HOSE AND
-0.7751248	HOT </s>
-1.076155	HOUR </s>
-1.076155	HOUR SOUTH
-0.7751248	HOURS A
-0.7734625	HOUSE </s>
-1.553276	HOUSE ALSO
-1.553276	HOUSE AND
-1.553276	HOUSE I
-1.553276	HOUSE IS
-0.7751248	HOW TO
-0.7751248	HOWEVER </s>
-0.7751248	HUNDRED </s>
-0.7751248	HURRICANE </s>
-0.7751248	HUSBAND IS
-1.876125	I AM
-2.655938	I CALLED
-1.687608	I CAN
-2.655938	I CAN'T
-2.655938	I COULDN'T
-2.655938	I DIDN'T
-1.876125	I DO
-0.8394209	I DON'T
-2.655938	I DRIVE
-2.655938	I FIRST
-2.655938	I FORGOT
-1.687608	I GET
-1.876125	I HAD
-0.8016323	I HAVE
-2.655938	I HAVEN'T
-1.876125	I I
-1.876125	I JUST
-1.342862	I KNOW
-1.876125	I LIKE
-2.655938	I LOVE
-2.655938	I MAYBE
-2.655938	I NEED
-2.655938	I OVERPAID
-1.496332	I PAID
-2.655938	I START
-2.655938	I TALKED
-2.655938	I TEACH
-1.181844	I THINK
-1.876125	I WAS
-2.655938	I WASTE
-2.655938	I WORK
-0.7751248	I'D RECOMMEND
-1.252246	I'LL BE
-0.4724325	I'LL GO
-2.076155	I'M A
-2.076155	I'M CURRENTLY
-2.076155	I'M DOING
-1.296341	I'M DRIVING
-2.076155	I'M EXCITED
-2.076155	I'M GIVING
-0.9165484	I'M GOING
-2.076155	I'M I'M
-2.076155	I'M NOT
-2.076155	I'M OFF
-2.076155	I'M PLAYING
-2.076155	I'M REUPHOLSTERING
-2.076155	I'M SURE
-2.076155	I'M TRYING
-2.076155	I'M UH
-2.076155	I'M WORKING
-2.076155	I'M WRITING
-0.7751248	I'VE BEEN
-1.076155	IDEA </s>
-1.076155	IDEA WHERE
-0.7098848	IF I
-1.678215	IF IF
-1.678215	IF THEY
-0.8984012	IF YOU
-0.7751248	IMMEDIATELY BACK
-1.013458	IN </s>
-1.013458	IN A
-2.173065	IN BATTLE
-2.173065	IN COLLEGE
-2.173065	IN CRYSTAL
-2.173065	IN FLORIDA
-2.173065	IN I
-2.173065	IN JUNE
-2.173065	IN LAWS'
-2.173065	IN LEGAL
-2.173065	IN LIKE
-2.173065	IN NORTH
-2.173065	IN OHIO
-2.173065	IN ORLANDO
-2.173065	IN ROCHESTER
-2.173065	IN ROYAL
-2.173065	IN SAGINAW
-1.204735	IN THE
-0.7751248	INCH OF
-0.2963412	INCOME IS
-0.7751248	INHERITANCE AND
-1.076155	INSIDE AND
-1.076155	INSIDE SO
-0.7751248	INSTRUMENTS </s>
-0.7751248	INTO COMPUTER
-0.7751248	INVITED ME
-0.982886	IS </s>
-1.171402	IS A
-1.951216	IS AS
-1.951216	IS COMING
-1.951216	IS FRESHMAN
-1.951216	IS GETTING
-1.951216	IS IN
-1.171402	IS NOT
-1.951216	IS SO
-1.951216	IS WORKING
-0.7751248	ISN'T ALWAYS
-0.7751248	ISSUE HAPPENS
-0.4724325	ISSUES AND
-1.252246	ISSUES FROM
-1.206583	IT </s>
-2.366189	IT A
-2.366189	IT AND
-2.366189	IT AT
-2.366189	IT BELONGS
-2.366189	IT BUT
-2.366189	IT COULD
-2.366189	IT FOOD
-2.366189	IT FOR
-2.366189	IT GETS
-2.366189	IT GOES
-2.366189	IT GOT
-2.366189	IT I'LL
-1.397859	IT IS
-2.366189	IT LOOKED
-1.586376	IT MIGHT
-2.366189	IT NICE
-2.366189	IT SO
-2.366189	IT STARTS
-2.366189	IT UP
-0.4771213	IT WAS
-0.7751248	IT'LL BE
-0.7112045	IT'S A
-2.331427	IT'S AT
-1.551614	IT'S DEFINITELY
-2.331427	IT'S FUN
-2.331427	IT'S GONE
-2.331427	IT'S GOOD
-2.331427	IT'S GREAT
-2.331427	IT'S HARD
-2.331427	IT'S I
-1.018351	IT'S IT'S
-2.331427	IT'S JUST
-1.551614	IT'S LIKE
-2.331427	IT'S MORE
-2.331427	IT'S NORTHEAST
-1.551614	IT'S NOT
-2.331427	IT'S OVERWHELMING
-2.331427	IT'S TERRIBLE
-2.331427	IT'S TOO
-2.331427	IT'S TROUBLE
-1.551614	IT'S WAY
-2.331427	IT'S WITH
-1.076155	ITS HARD
-1.076155	ITS ITS
-0.2963412	JAZZ FESTIVAL
-0.2963412	JEFF CONE
-0.7751248	JEWISH SO
-0.7751248	JOANNE'S AND
-0.7751248	JOB THAT
-1.076155	JUNE </s>
-1.076155	JUNE LAST
-0.7751248	JUNIOR </s>
-1.951216	JUST CAN
-1.951216	JUST COMPLETELY
-1.951216	JUST DAYS
-1.951216	JUST FIFTY
-1.951216	JUST GET
-1.951216	JUST GOT
-1.951216	JUST HAVING
-1.951216	JUST I
-1.951216	JUST KINDA
-1.951216	JUST PLAY
-1.951216	JUST TALK
-1.951216	JUST THE
-1.951216	JUST UM
-1.951216	JUST YES
-1.951216	JUST YOU
-0.7751248	KIDS AND
-0.7751248	KIND OF
-0.7751248	KINDA PLAYED
-1.199431	KNOW </s>
-1.979245	KNOW BEING
-1.979245	KNOW CAUSE
-1.979245	KNOW HE'S
-1.979245	KNOW HOW
-0.8196384	KNOW I
-1.199431	KNOW IT'S
-1.979245	KNOW MAYBE
-1.979245	KNOW MY
-1.979245	KNOW OF
-1.979245	KNOW THEY'RE
-1.979245	KNOW WHAT
-1.252246	LAKE </s>
-1.252246	LAKE CALLED
-1.252246	LAKE DOWNTOWN
-0.2963412	LANDLORD IT'S
-1.252246	LAST JUNE
-1.252246	LAST MONTH
-1.252246	LAST WEEK
-0.7751248	LAUDERDALE'S LIKE
-0.7751248	LAWS' FARM
-0.7751248	LEAGUE IN
-0.7751248	LECTURE AND
-0.7751248	LEFT WHERE
-0.7751248	LEGAL FEES
-0.7751248	LESS LIKE
-2.117548	LIKE 6
-0.9579411	LIKE </s>
-1.149217	LIKE A
-2.117548	LIKE BEING
-2.117548	LIKE EIGHT
-2.117548	LIKE GAY
-1.337734	LIKE NO
-2.117548	LIKE OH
-2.117548	LIKE POWER
-2.117548	LIKE RAY
-2.117548	LIKE SHUT
-2.117548	LIKE THAT
-2.117548	LIKE THE
-2.117548	LIKE THERE
-2.117548	LIKE VARIETY
-2.117548	LIKE WHY
-0.7751248	LIONS GAME
-0.7751248	LIONS' FAN
-0.7751248	LIST OF
-1.076155	LITTLE BIT
-1.076155	LITTLE NIECES
-1.076155	LIVE IN
-1.076155	LIVE NEAR
-1.377185	LOAN BASED
-1.377185	LOAN BECAUSE
-1.377185	LOAN FROM
-1.377185	LOAN OR
-1.076155	LOANS </s>
-1.076155	LOANS NOW
-0.7751248	LOCATION I
-0.7751248	LOOKED THEY
-0.7751248	LOST LAST
-0.7751248	LOT OF
-0.7751248	LOTS OF
-0.7751248	LOVE IT
-1.076155	LOVES COMPUTERS
-1.076155	LOVES IT
-1.252246	MAINTENANCE ISSUE
-0.4724325	MAINTENANCE ISSUES
-0.7751248	MAKE EVERY
-0.7751248	MAKING IT
-0.7751248	MANGERS AND
-0.2963412	MARRIED </s>
-0.7751248	MART WAS
-1.076155	MAYBE OVERPAID
-1.076155	MAYBE WE
-0.7751248	MCKENZIE <unk>
-1.377185	ME A
-1.377185	ME BUT
-1.377185	ME SO
-1.377185	ME THERE'S
-0.7751248	MEMORIAL DAY
-0.7751248	MET AT
-0.7751248	MHM YES
-0.2175784	MHMM </s>
-1.377185	MHMM YUP
-1.076155	MIDDLE </s>
-1.076155	MIDDLE OF
-0.2963412	MIGHT BE
-0.7751248	MILES FROM
-0.7751248	MILLER AND
-0.7751248	MODERATELY STRESSFUL
-1.252246	MONDAY </s>
-1.252246	MONDAY MEMORIAL
-1.252246	MONDAY MORNING
-1.377185	MONEY </s>
-1.377185	MONEY BECAUSE
-1.377185	MONEY BEFORE
-1.377185	MONEY IN
-0.7751248	MONTH IT
-0.7751248	MOON AND
-1.076155	MORE LIKE
-1.076155	MORE PEACEFUL
-0.4724325	MORNING I
-1.252246	MORNING I'M
-0.7751248	MOST FUN
-0.7751248	MOSTLY IN
-0.7751248	MOUNTAINS TO
-0.7751248	MOVE FROM
-0.7751248	MOVED IN
-0.7751248	MOVIE TONIGHT
-0.7751248	MOVING WENT
-1.252246	MUCH JUST
-1.252246	MUCH STUFF
-1.252246	MUCH YEAH
-1.076155	MUSIC HISTORY
-1.076155	MUSIC TONIGHT
-0.7751248	MUSICIAN I'M
-1.889068	MY DAUGHTER
-1.889068	MY FAMILY
-1.889068	MY HUSBAND
-1.889068	MY IN
-1.889068	MY INCOME
-1.889068	MY LITTLE
-1.889068	MY MCKENZIE
-1.889068	MY NIECE
-1.889068	MY PARENTS
-1.889068	MY PARTNER'S
-1.889068	MY SICK
-1.889068	MY UNCLE
-1.889068	MY VACATIONS
-0.7751248	NEAR TAMPA
-0.7751248	NEAT </s>
-0.7751248	NEED YEAH
-0.7751248	NEW JOB
-1.474095	NEXT MAINTENANCE
-1.474095	NEXT REALTOR
-1.474095	NEXT THREE
-0.6942812	NEXT YEAR
-1.076155	NICE </s>
-1.076155	NICE INSIDE
-0.7751248	NIECE IS
-0.7751248	NIECES IN
-1.076155	NIGHT </s>
-1.076155	NIGHT I'LL
-0.7751248	NINE O'CLOCK
-0.9165484	NO </s>
-0.9165484	NO I
-2.076155	NO I'M
-2.076155	NO IDEA
-2.076155	NO ISSUES
-2.076155	NO JUST
-1.296341	NO NOT
-2.076155	NO OTHER
-2.076155	NO PROBLEM
-2.076155	NO REASON
-2.076155	NO WAY
-0.9165484	NO WE
-2.076155	NO WELL
-1.252246	NORTH </s>
-1.252246	NORTH CAROLINA
-1.252246	NORTH UM
-0.7751248	NORTHEAST OR
-0.7751248	NORTHWEST OF
-1.979245	NOT </s>
-1.979245	NOT A
-1.979245	NOT ANYTHING
-1.199431	NOT ENOUGH
-0.8196384	NOT EXACTLY
-1.199431	NOT I
-1.979245	NOT SOME
-1.979245	NOT THAT
-1.199431	NOT THIS
-1.979245	NOT UNPACKED
-1.979245	NOT WASTE
-1.076155	NOTHING PLANNED
-1.076155	NOTHING YET
-1.620223	NOW A
-1.620223	NOW I'M
-1.620223	NOW IT'S
-1.620223	NOW MOSTLY
-1.620223	NOW THAT
-1.620223	NOW THERE
-1.620223	NOW TO
-0.7751248	O'CLOCK IT'S
-0.7751248	OAK </s>
-0.7751248	OCCASIONAL TORNADO
-2.053878	OF A
-2.053878	OF ABOUT
-2.053878	OF BEING
-2.053878	OF COMPANIES
-2.053878	OF CONTRACTORS
-2.053878	OF EACH
-2.053878	OF FUN
-2.053878	OF MONEY
-2.053878	OF MUSIC
-2.053878	OF SLUSH
-2.053878	OF SOMETHING
-2.053878	OF STUFF
-2.053878	OF TAMPA
-1.274065	OF THE
-2.053878	OF THINGS
-2.053878	OF TRUCKLOADS
-2.053878	OF WAWA
-2.053878	OF YET
-0.7751248	OFF SO
-1.775125	OH FIVE
-0.9953112	OH I
-1.775125	OH IT
-1.775125	OH NO
-1.775125	OH NOT
-1.775125	OH OKAY
-1.775125	OH WELL
-0.9953112	OH YEAH
-0.7751248	OHIO WHERE
-0.7751248	OK </s>
-0.4088548	OKAY </s>
-0.9495537	ON A
-1.729367	ON BILLY
-1.729367	ON BUT
-1.729367	ON IT
-1.729367	ON MAKING
-1.729367	ON MONDAY
-1.729367	ON THAT
-1.729367	ON THE
-1.816517	ONE BANK
-1.816517	ONE HUNDRED
-1.036704	ONE IS
-1.816517	ONE IT
-1.036704	ONE OF
-1.816517	ONE POINT
-1.816517	ONE RELATOR
-1.816517	ONE TO
-1.816517	ONE YEAR
-1.076155	ONES BE
-1.076155	ONES I
-1.076155	ONLY ONES
-1.076155	ONLY THING
-0.7751248	ONTARIO </s>
-1.474095	OR GIFTS
-1.474095	OR HIRE
-1.474095	OR IF
-1.474095	OR NORTHWEST
-1.474095	OR ONE
-0.7751248	ORLANDO </s>
-1.377185	OTHER HOLIDAY
-1.377185	OTHER ONE
-1.377185	OTHER ONES
-1.377185	OTHER WEEKEND
-0.7751248	OUR COUCH
-1.620223	OUT </s>
-1.620223	OUT AND
-1.620223	OUT EVERYBODY
-1.620223	OUT OF
-1.620223	OUT THE
-1.620223	OUT WALKING
-1.620223	OUT WERE
-1.474095	OVER IN
-0.5057648	OVER THE
-1.076155	OVERPAID </s>
-1.076155	OVERPAID FOR
-1.076155	OVERWHELMING </s>
-1.076155	OVERWHELMING AS
-1.377185	PAID 300
-0.2175784	PAID CASH
-0.7751248	PANDAS </s>
-0.7751248	PARENTS DIED
-0.7751248	PARTNER'S A
-0.7751248	PARTY SO
-0.7751248	PAY YOU
-0.7751248	PEACEFUL INSIDE
-0.7751248	PEOPLE </s>
-0.7751248	PERHAPS AN
-0.7751248	PETE </s>
-0.7751248	PETOSKEY WHERE
-0.7751248	PETS AND
-0.7751248	PICK UP
-0.7751248	PICTURES </s>
-1.076155	PLACE NOT
-1.076155	PLACE THAT
-0.7751248	PLAN </s>
-1.076155	PLANNED IS
-1.076155	PLANNED YET
-1.474095	PLAY </s>
-1.474095	PLAY DATE
-1.474095	PLAY GOLF
-1.474095	PLAY IN
-1.474095	PLAY THERE
-0.7751248	PLAYED WITH
-1.076155	PLAYING A
-1.076155	PLAYING AT
-0.7751248	PLUMBER TO
-0.7751248	POINT SEVEN
-0.7751248	POOP AND
-0.7751248	POWER WASH
-0.7751248	POWERFUL HOSE
-0.7751248	PRETTY MUCH
-0.7751248	PRINCESS </s>
-1.474095	PROBABLY A
-1.474095	PROBABLY CLEANING
-1.474095	PROBABLY SATURDAY
-1.474095	PROBABLY TAKE
-1.474095	PROBABLY THE
-1.076155	PROBLEM ACTUALLY
-1.076155	PROBLEM YOU
-0.7751248	PROFESSOR SO
-0.7751248	PROGRAMING SO
-0.7751248	PROPERTY MANGERS
-0.7751248	QUARTER INCH
-0.7751248	QUICK TRIP
-0.7751248	QUICKEN LOANS
-0.7751248	QUIZZES OVER
-0.7751248	RACE TRACK
-0.7751248	RAISED </s>
-0.7751248	RAY DONAVAN
-0.7751248	READ </s>
-0.7751248	READING A
-0.7751248	REAL BIG
-0.7751248	REALLY NEAT
-0.7751248	REALTOR SAID
-0.7751248	REASON </s>
-0.7751248	RECEPTION </s>
-0.7751248	RECOMMEND IT
-0.7751248	RED PANDAS
-1.252246	REHEARSAL THAT
-1.252246	REHEARSAL THEN
-1.252246	REHEARSAL UM
-0.7751248	RELATIONSHIP HE'S
-1.252246	RELATOR ABOUT
-1.252246	RELATOR SAID
-1.252246	RELATOR THAT
-0.7751248	RELIGIOUS TYPE
-0.7751248	REMEMBER WHICH
-0.7751248	RESIDENTIAL </s>
-0.7751248	REUPHOLSTERING OUR
-0.7751248	RID OF
-0.8404093	RIGHT </s>
-1.620223	RIGHT EXACTLY
-0.4606164	RIGHT NOW
-1.620223	RIGHT RIGHT
-0.7751248	ROAD </s>
-0.7751248	ROCHESTER HILLS
-0.7751248	ROYAL OAK
-0.7751248	SAGINAW </s>
-0.5973712	SAID OH
-1.377185	SAID THAT
-1.377185	SAID THERE'S
-0.7751248	SAINT PETE
-0.7751248	SALE </s>
-0.7751248	SALVATION ARMY
-0.7751248	SARASOTA SO
-1.252246	SATURDAY </s>
-1.252246	SATURDAY MORNING
-1.252246	SATURDAY NIGHT
-1.076155	SCHOOL </s>
-1.076155	SCHOOL AND
-1.474095	SEE A
-1.474095	SEE FAMILY
-1.474095	SEE MY
-1.474095	SEE THAT
-1.474095	SEE THEM
-0.7751248	SEEN THAT
-0.4724325	SELL IT
-1.252246	SELL THE
-0.7751248	SELLING IT
-0.7751248	SEMESTER FOR
-1.377185	SEVEN </s>
-1.377185	SEVEN QUIZZES
-0.5973712	SEVEN SEVEN
-0.7751248	SHE WAS
-0.7751248	SHOULD BE
-0.7751248	SHOWER FOR
-1.076155	SHOWS </s>
-1.076155	SHOWS I
-0.7751248	SHUT DOWN
-0.2963412	SICK TIME
-0.7751248	SILLY AND
-0.7751248	SISTERS THAT
-0.7751248	SITUATION IT'S
-0.7751248	SLUSH YA'LL
-0.7751248	SMALL LIST
-1.169619	SO </s>
-2.482695	SO AN
-2.482695	SO AND
-2.482695	SO BETWEEN
-2.482695	SO BUSY
-2.482695	SO COOL
-2.482695	SO HE'LL
-2.482695	SO HE'S
-2.482695	SO HOLIDAYS
-1.514365	SO I
-2.482695	SO I'LL
-2.482695	SO I'M
-1.0086	SO IT
-0.8624721	SO IT'S
-2.482695	SO ITS
-2.482695	SO NO
-2.482695	SO NOW
-2.482695	SO THAT
-1.323089	SO THAT'S
-2.482695	SO THE
-2.482695	SO THEN
-1.323089	SO THEY
-2.482695	SO THIS
-1.702881	SO WE
-2.482695	SO WE'LL
-2.482695	SO WE'RE
-2.482695	SO YEAH
-2.482695	SO YES
-1.252246	SOME FRIENDS
-1.252246	SOME PLACE
-1.252246	SOME RELIGIOUS
-1.076155	SOMEBODY </s>
-1.076155	SOMEBODY THAT
-0.7751248	SOMETHING RIGHT
-0.7751248	SORRY </s>
-1.076155	SOUTH DO
-1.076155	SOUTH OF
-0.7751248	STARED AT
-0.7751248	START ON
-0.7751248	STARTED A
-0.2963412	STARTS AT
-0.7751248	STAY </s>
-0.7751248	STILL MAINTENANCE
-1.076155	STRESS OF
-1.076155	STRESS THERE'S
-0.7751248	STRESSFUL </s>
-0.5973712	STUFF </s>
-1.377185	STUFF AND
-1.377185	STUFF GOING
-1.076155	SUNDAY I'M
-1.076155	SUNDAY MORNING
-0.7751248	SUPPLIES AND
-0.5973712	SURE HE
-1.377185	SURE WHERE
-1.377185	SURE YET
-0.7751248	TAKE A
-0.7751248	TALK AND
-0.2963412	TALKED TO
-0.2963412	TAMPA </s>
-1.076155	TEACH AND
-1.076155	TEACH THREE
-1.252246	TEN AND
-1.252246	TEN DIFFERENT
-1.252246	TEN HOURS
-0.7751248	TERRIBLE </s>
-1.076155	TEST </s>
-1.076155	TEST FOR
-0.7751248	THANK YOU
-1.013458	THAT </s>
-2.173065	THAT ARE
-2.173065	THAT BUT
-2.173065	THAT HERE
-0.8599889	THAT I
-2.173065	THAT I'M
-1.393251	THAT IS
-2.173065	THAT LIVE
-2.173065	THAT MONDAY
-2.173065	THAT MUCH
-2.173065	THAT SHE
-2.173065	THAT SO
-2.173065	THAT THEY
-2.173065	THAT WAS
-2.173065	THAT WEREN'T
-2.173065	THAT WILL
-2.173065	THAT YEAH
-1.553276	THAT'S GOOD
-1.553276	THAT'S HOLIDAY
-1.553276	THAT'S NOT
-1.553276	THAT'S THAT'S
-1.553276	THAT'S THE
-1.553276	THAT'S YEAH
-2.553276	THE ANIMALS
-2.553276	THE AUDITING
-2.553276	THE BANK
-2.553276	THE BASEMENT
-2.553276	THE BEAVERS
-2.553276	THE CREDIT
-1.39367	THE DETROIT
-1.39367	THE DRAINS
-2.553276	THE ELEMENTARY
-2.553276	THE EQUITY
-2.553276	THE FAMILY
-2.553276	THE FIREWORKS
-2.553276	THE FORMULA
-2.553276	THE FOUR
-1.079181	THE HOUSE
-2.553276	THE HURRICANE
-2.553276	THE I
-2.553276	THE INHERITANCE
-2.553276	THE LAKE
-2.553276	THE MAINTENANCE
-2.553276	THE MIDDLE
-2.553276	THE MONEY
-2.553276	THE MOST
-2.553276	THE MOUNTAINS
-1.39367	THE NEXT
-2.553276	THE NIGHT
-1.773462	THE ONLY
-1.773462	THE OTHER
-2.553276	THE PETS
-2.553276	THE PLACE
-2.553276	THE PLUMBER
-2.553276	THE POWERFUL
-2.553276	THE RACE
-2.553276	THE RED
-2.553276	THE RELATOR
-2.553276	THE ROAD
-2.553276	THE SEMESTER
-2.553276	THE SHOWS
-2.553276	THE STRESS
-2.553276	THE SUPPLIES
-2.553276	THE THE
-2.553276	THE TWO
-2.553276	THE WAY
-2.553276	THE WEDDING
-1.39367	THE WEEKEND
-2.553276	THE ZOO
-1.076155	THEIR JEWISH
-1.076155	THEIR MONEY
-1.252246	THEM AT
-1.252246	THEM BACK
-1.252246	THEM EVERY
-1.854306	THEN </s>
-1.854306	THEN HIGH
-0.6946996	THEN I
-1.854306	THEN MONDAY
-1.854306	THEN PROBABLY
-1.854306	THEN THE
-1.854306	THEN TUES
-1.854306	THEN TUESDAY
-1.854306	THEN UM
-1.854306	THEN WE
-0.7751248	THERAPIST AT
-0.9953112	THERE </s>
-1.775125	THERE AGAIN
-1.775125	THERE BORING
-1.775125	THERE IS
-1.775125	THERE IT
-1.775125	THERE JUST
-0.9953112	THERE LIKE
-1.775125	THERE NOT
-1.620223	THERE'S A
-0.8404093	THERE'S LIKE
-1.620223	THERE'S NO
-1.620223	THERE'S PROBABLY
-1.620223	THERE'S STILL
-1.620223	THERE'S TOO
-1.979245	THEY ALMOST
-1.010915	THEY ARE
-1.979245	THEY DECIDE
-1.979245	THEY DECIDED
-1.199431	THEY HAD
-1.979245	THEY LIVE
-1.979245	THEY SAID
-1.979245	THEY TRUST
-1.979245	THEY WANT
-1.199431	THEY WERE
-1.979245	THEY WON
-1.076155	THEY'RE AMAZING
-1.076155	THEY'RE SO
-1.076155	THING </s>
-1.076155	THING I
-1.252246	THINGS </s>
-1.252246	THINGS FOR
-1.252246	THINGS I
-1.474095	THINK AWAY
-1.474095	THINK IT
-1.474095	THINK SO
-1.474095	THINK THAT
-1.474095	THINK WE
-0.7751248	THIRTEEN AND
-1.553276	THIS CLASS
-1.553276	THIS FALLS
-0.584946	THIS WEEKEND
-0.7751248	THOUGH HOPEFULLY
-0.7751248	THOUSAND DOLLARS
-1.076155	THREE CLASSES
-1.076155	THREE DAYS
-1.076155	THROUGH AND
-1.076155	THROUGH SOMEBODY
-0.2963412	TIME SO
-0.7751248	TIMES A
-1.648524	TO </s>
-1.648524	TO A
-2.428337	TO ADRIAN
-1.460007	TO BE
-2.428337	TO CANADA
-1.648524	TO COME
-2.428337	TO DRIVE
-2.428337	TO EVICT
-2.428337	TO FIX
-2.428337	TO FLORIDA
-2.428337	TO FORMULATE
-1.460007	TO GET
-1.268731	TO GO
-2.428337	TO HAVE
-2.428337	TO IT
-2.428337	TO MAKE
-1.648524	TO ME
-2.428337	TO MY
-2.428337	TO PETOSKEY
-2.428337	TO PICK
-2.428337	TO PLAY
-1.268731	TO SEE
-2.428337	TO SELL
-1.460007	TO THE
-2.428337	TO TO
-2.428337	TO USE
-2.428337	TO WALK
-2.428337	TO WHO
-0.7751248	TOLD </s>
-0.7751248	TOMORROW AND
-1.076155	TONIGHT </s>
-1.076155	TONIGHT TOMORROW
-1.252246	TOO HOT
-1.252246	TOO MUCH
-1.252246	TOO STRESS
-0.7751248	TOOK PICTURES
-0.7751248	TORNADO </s>
-1.076155	TRACK </s>
-1.076155	TRACK OVER
-0.7751248	TREATMENT FACILITY
-1.076155	TRIP SO
-1.076155	TRIP TWO
-0.7751248	TROUBLE IT'S
-1.252246	TRUCKLOADS AND
-1.252246	TRUCKLOADS OF
-1.252246	TRUCKLOADS TRUCKLOADS
-0.7751248	TRUST </s>
-0.09263963	TRYING TO
-0.7751248	TUES THEN
-1.076155	TUESDAY I
-1.076155	TUESDAY THEN
-0.7751248	TURNED THIRTEEN
-0.7751248	TV SHOWS
-0.7751248	TWELVE </s>
-0.8404093	TWO </s>
-1.620223	TWO GIRLS
-1.620223	TWO GRAND
-1.620223	TWO OUT
-1.620223	TWO SISTERS
-1.620223	TWO THOUSAND
-0.7751248	TYPE THING
-1.553276	UH DOING
-1.553276	UH EXERCISE
-1.553276	UH I
-1.553276	UH NOTHING
-1.553276	UH SARASOTA
-1.553276	UH VERY
-0.7751248	UHH HE'LL
-1.620223	UM BUT
-1.620223	UM GOT
-1.620223	UM HE'S
-1.620223	UM JUST
-1.620223	UM SATURDAY
-1.620223	UM WENT
-1.620223	UM YES
-0.7751248	UMM NO
-0.7751248	UNCLE INVITED
-0.7751248	UNDER MY
-0.7751248	UNION WE
-1.076155	UNPACKED EVERYTHING
-1.076155	UNPACKED YET
-1.678215	UP </s>
-1.678215	UP AND
-1.678215	UP BECAUSE
-1.678215	UP COMING
-1.678215	UP NORTH
-1.678215	UP SOME
-1.678215	UP TO
-1.678215	UP WALKING
-0.7751248	USE MY
-0.7751248	USED TO
-0.7751248	VACATIONS DAYS
-0.7751248	VARIETY </s>
-1.553276	VERY BUSY
-1.553276	VERY EXCITING
-1.553276	VERY GREAT
-1.553276	VERY HELPFUL
-0.7734625	VERY VERY
-0.7751248	VISITED WITH
-0.7751248	VP IT
-0.7751248	WABATONGUSHI </s>
-0.7751248	WAL MART
-0.7751248	WALK AROUND
-0.7751248	WALKED AROUND
-0.2963412	WALKING AROUND
-0.7751248	WANT TO
-0.2963412	WANTS TO
-0.7751248	WARNING </s>
-1.274065	WAS </s>
-2.053878	WAS A
-2.053878	WAS AND
-2.053878	WAS EMPTIED
-2.053878	WAS FUN
-2.053878	WAS GETTING
-2.053878	WAS IT'S
-2.053878	WAS KIND
-2.053878	WAS LOTS
-2.053878	WAS ONE
-2.053878	WAS OUT
-2.053878	WAS READING
-2.053878	WAS REALLY
-2.053878	WAS THE
-2.053878	WAS TOO
-1.274065	WAS TWO
-2.053878	WAS UP
-0.7751248	WASH THE
-1.076155	WASTE A
-1.076155	WASTE THEIR
-0.7751248	WAWA ONTARIO
-1.377185	WAY IT
-1.377185	WAY MORE
-1.377185	WAY NORTH
-1.377185	WAY YOU'RE
-2.076155	WE ALSO
-1.296341	WE ARE
-2.076155	WE COULD
-2.076155	WE COULDN'T
-2.076155	WE DID
-2.076155	WE DO
-1.296341	WE HAD
-2.076155	WE HAVE
-2.076155	WE JUST
-2.076155	WE MET
-2.076155	WE STARTED
-2.076155	WE TOOK
-2.076155	WE WALKED
-0.9165484	WE WENT
-2.076155	WE WERE
-2.076155	WE WILL
-0.7751248	WE'LL JUST
-1.076155	WE'RE GOOD
-1.076155	WE'RE WORKING
-1.076155	WE'VE BEEN
-1.076155	WE'VE HAD
-1.474095	WEDDING </s>
-1.474095	WEDDING AND
-1.474095	WEDDING I
-1.474095	WEDDING IN
-1.474095	WEDDING RECEPTION
-1.252246	WEEK </s>
-0.4724325	WEEK AND
-0.4162914	WEEKEND </s>
-1.729367	WEEKEND PROBABLY
-1.729367	WEEKEND SO
-1.729367	WEEKEND UH
-0.7751248	WEEKENDS BEFORE
-0.7751248	WEIRD SITUATION
-1.678215	WELL AND
-0.8984012	WELL I
-1.678215	WELL I'M
-1.678215	WELL IT
-1.678215	WELL IT'S
-1.678215	WELL RIGHT
-1.678215	WELL THE
-1.620223	WENT DOWN
-1.620223	WENT FROM
-1.620223	WENT THROUGH
-0.6518928	WENT TO
-1.553276	WERE ALL
-1.553276	WERE ANTICIPATING
-1.553276	WERE OUT
-1.553276	WERE THE
-1.553276	WERE TURNED
-1.553276	WERE UP
-1.076155	WEREN'T IN
-1.076155	WEREN'T OUT
-1.252246	WHAT ELSE
-1.252246	WHAT I'VE
-1.252246	WHAT YOU
-0.7751248	WHATEVER YEAH
-0.7751248	WHEELCHAIR ANYWAY
-1.377185	WHEN I
-1.377185	WHEN THERE'S
-1.377185	WHEN WE
-1.377185	WHEN YOUR
-0.7751248	WHENEVER YOU
-1.678215	WHERE DID
-1.678215	WHERE HE
-1.678215	WHERE I
-1.678215	WHERE I'M
-1.678215	WHERE IT
-1.678215	WHERE THAT
-1.678215	WHERE WE
-1.678215	WHERE YOU
-0.7751248	WHICH ONE
-0.7751248	WHILE I
-0.7751248	WHITMORE LAKE
-1.076155	WHO SAID
-1.076155	WHO WOULD
-0.7751248	WHOLE BUNCH
-0.7751248	WHY ARE
-1.076155	WILL PROBABLY
-1.076155	WILL STAY
-1.729367	WITH FRIENDS
-1.729367	WITH HER
-1.729367	WITH KIDS
-1.729367	WITH POOP
-1.729367	WITH THAT
-0.7610373	WITH THE
-0.7751248	WON </s>
-0.7751248	WON'T BE
-1.076155	WORK BUT
-1.076155	WORK SATURDAY
-1.474095	WORKING </s>
-1.474095	WORKING AT
-1.474095	WORKING I
-1.474095	WORKING ON
-1.474095	WORKING TEN
-0.7751248	WOULD DO
-0.7751248	WRITING A
-0.7751248	YA'LL ARE
-0.30103	YEAH </s>
-2.280275	YEAH ABSOLUTELY
-2.280275	YEAH AND
-2.280275	YEAH I'M
-2.280275	YEAH IN
-2.280275	YEAH IT
-1.500461	YEAH IT'S
-1.120668	YEAH SO
-2.280275	YEAH THAT
-2.280275	YEAH THE
-2.280275	YEAH THERE'S
-2.280275	YEAH WE
-2.280275	YEAH WELL
-2.280275	YEAH YEP
-0.3936696	YEAR </s>
-0.7734625	YEAR AGO
-1.553276	YEAR AND
-0.7751248	YEP </s>
-0.3357921	YES </s>
-2.190098	YES IF
-1.030492	YES IT
-2.190098	YES IT'S
-1.410285	YES MY
-2.190098	YES OH
-2.190098	YES THERE
-2.190098	YES THEY'RE
-2.190098	YES TWO
-2.190098	YES YEAH
-1.410285	YES YES
-0.584946	YET </s>
-1.553276	YET BUT
-1.553276	YET TO
-2.097344	YOU ALL
-2.097344	YOU BACK
-2.097344	YOU CAN
-2.097344	YOU COULD
-2.097344	YOU DIDN'T
-2.097344	YOU GET
-2.097344	YOU GUYS
-1.317531	YOU HAVE
-2.097344	YOU HERE
-2.097344	YOU I'M
-2.097344	YOU JUST
-0.6232493	YOU KNOW
-2.097344	YOU MOVE
-2.097344	YOU PAID
-2.097344	YOU WEREN'T
-2.097344	YOU WON'T
-0.7751248	YOU'RE GOING
-1.076155	YOUR GROWN
-1.076155	YOUR INCOME
-1.076155	YUP </s>
-1.076155	YUP IT
-1.076155	ZOO </s>
-1.076155	ZOO AND

\end\
