
\data\
ngram 1=586
ngram 2=1528

\1-grams:
-3.303628	17	-0.07437086
-3.303628	18	-0.03248993
-3.303628	6	-0.08597025
-3.303628	600	-0.08597025
-3.303628	96	-0.08597025
-3.303628	96TH	-0.08597025
-0.9344121	</s>
-99	<s>	-0.1782488
-3.303628	<unk>	-0.0818475
-1.525477	A	-0.1115434
-3.002598	ABOUT	-0.08532187
-3.303628	ABSOLUTELY	-0.03248993
-3.303628	ACCESSIBLE	-0.07437086
-2.604658	ACTUALLY	-0.1431213
-3.303628	ADRIAN	-0.08467255
-3.303628	AFTER	-0.08553811
-3.303628	AGAIN	-0.08402225
-3.303628	AGO	-0.08315366
-3.303628	ALCOHOL	-0.08597025
-2.45853	ALL	-0.1924516
-3.002598	ALMOST	-0.08575422
-3.303628	ALONG	-0.07481425
-3.303628	ALWAYS	-0.0848891
-3.002598	AM	-0.07214712
-3.002598	AMAZING	-0.02584431
-2.701568	AN	-0.1845532
-1.571234	AND	-0.0451614
-3.303628	ANIMALS	-0.0848891
-3.303628	ANOTHER	-0.08553811
-3.303628	ANTI	-0.08597025
-3.303628	ANTIDEPRESSANTS	-0.08380526
-3.303628	ANY	-0.08575423
-3.303628	ANYTHING	-0.08228333
-3.303628	ANYWAY	-0.03248993
-3.303628	APPEAR	-0.08553811
-3.303628	APPOINTMENTS	-0.03248993
-2.400538	ARE	-0.1124938
-3.303628	AREA	-0.03248993
-2.604658	AROUND	-0.1376556
-2.189685	AT	-0.09520464
-3.303628	AUDITING	-0.08597025
-3.303628	AUNT	-0.08597025
-3.002598	AWAY	-0.08162943
-2.604658	BACK	-0.1426684
-3.303628	BAD	-0.08597025
-3.303628	BADLY	-0.03248993
-3.002598	BASED	-0.3077284
-3.303628	BASEMENT	-0.08031868
-3.303628	BASICALLY	-0.08358817
-3.303628	BATH	-0.07437086
-3.303628	BATTLE	-0.08597025
-2.1575	BE	-0.07561077
-3.303628	BEACH	-0.03248993
-3.303628	BEAVERS	-0.03248993
-2.701568	BECAUSE	-0.06585941
-3.303628	BED	-0.08597025
-2.701568	BEEN	-0.1821675
-3.002598	BEFORE	-0.02683529
-2.826507	BEING	-0.06811549
-3.303628	BETWEEN	-0.07481425
-3.303628	BEYOND	-0.03248993
-2.604658	BIG	-0.08510555
-3.303628	BIKE	-0.03248993
-3.303628	BILLY	-0.08597025
-3.303628	BIRTHDAY	-0.08575423
-3.303628	BIT	-0.08250107
-3.303628	BLAST	-0.07966182
-3.303628	BOOK	-0.08358817
-3.303628	BORING	-0.08597025
-3.303628	BORN	-0.07437086
-3.303628	BOTHER	-0.03248993
-3.303628	BRASS	-0.08597025
-3.303628	BRING	-0.08553811
-3.002598	BUNCH	-0.3105676
-3.002598	BUSY	-0.08031867
-2.189685	BUT	-0.07919444
-3.303628	BUYING	-0.08553811
-3.303628	CALLED	-0.08597025
-2.701568	CAN	-0.02757705
-3.303628	CANADA	-0.08575423
-3.303628	CAROLINA	-0.08532188
-3.303628	CATCH	-0.08467255
-3.002598	CAUSE	-0.08141124
-3.303628	CENTERVILLE	-0.08597025
-3.303628	CENTRAL	-0.08402225
-3.303628	CHAUFFEUR	-0.08597025
-3.303628	CLASS	-0.03248993
-3.303628	CLASSES	-0.07437086
-3.303628	CLEANING	-0.03248993
-2.826507	COLLEGE	-0.1571745
-3.002598	COMING	-0.08467254
-3.303628	COMMITTED	-0.08597025
-3.303628	COMMUNITY	-0.08553811
-3.303628	COMPANIES	-0.08119296
-3.303628	COMPUTER	-0.08597025
-3.303628	COMPUTERS	-0.07680389
-3.002598	CONE	-0.2605565
-3.303628	COOL	-0.03248993
-3.303628	COUCH	-0.0848891
-3.002598	COULD	-0.08031867
-3.303628	COULDN'T	-0.08510555
-3.002598	COUPLE	-0.08467254
-3.303628	COURSE	-0.0818475
-3.303628	CRAZY	-0.03248993
-3.303628	CREDIT	-0.08597025
-3.303628	CREEK	-0.03248993
-3.303628	CRYSTAL	-0.03248993
-3.303628	CUFF	-0.08097455
-3.303628	CURRENTLY	-0.08337097
-3.303628	DAD'S	-0.08553811
-3.303628	DAUGHTER	-0.03248993
-3.002598	DAY	-0.02979472
-2.525477	DAYS	-0.07401978
-3.303628	DEAL	-0.08228333
-3.303628	DEALING	-0.08467255
-3.303628	DECIDE	-0.08271871
-3.303628	DECIDED	-0.08358817
-3.303628	DEFINITELY	-0.08575423
-3.303628	DELTA	-0.08553811
-3.303628	DEPARTMENT	-0.03248993
-3.303628	DEPRESSANTS	-0.08532188
-2.826507	DEPRESSED	-0.03175654
-2.826507	DEPRESSION	-0.07348274
-2.701568	DETROIT	-0.1307431
-2.826507	DID	-0.07237002
-3.002598	DIDN'T	-0.08575422
-3.303628	DIFFERENCE	-0.08597025
-3.002598	DIFFERENT	-0.08532187
-3.303628	DIRT	-0.08575423
-3.002598	DISABILITY	-0.2605565
-3.303628	DISASTER	-0.08597025
-3.303628	DISEASE	-0.08597025
-3.303628	DNA	-0.08597025
-2.525477	DO	-0.07734773
-3.303628	DOCTORS	-0.08597025
-3.303628	DOES	-0.03248993
-3.303628	DOESN'T	-0.08597025
-3.303628	DOG	-0.07437086
-3.002598	DOING	-0.08075603
-2.400538	DON'T	-0.1178186
-3.303628	DONAVAN	-0.03248993
-2.604658	DOWN	-0.09784133
-3.002598	DOWNTOWN	-0.08510554
-3.002598	DRIVE	-0.08358816
-3.002598	DRIVING	-0.08445588
-3.303628	DROVE	-0.08467255
-3.303628	DRUG	-0.07437086
-3.303628	EACH	-0.03248993
-2.826507	EIGHT	-0.08271872
-3.002598	ELEMENTARY	-0.07392702
-3.303628	ELSE	-0.08553811
-3.303628	EM	-0.08337097
-3.303628	EMBARRASSING	-0.03248993
-3.303628	EMPTIED	-0.08380526
-3.303628	ENDED	-0.08467255
-3.303628	ERR	-0.08553811
-2.826507	EVEN	-0.223401
-3.303628	EVER	-0.08597025
-3.303628	EVERYBODY	-0.08250107
-3.303628	EVERYONE	-0.08597025
-3.303628	EVERYTHING	-0.07680389
-3.303628	EVERYWHERE	-0.08337097
-3.303628	EXACT	-0.08597025
-2.701568	EXACTLY	-0.3177072
-3.303628	EXCITED	-0.03248993
-3.303628	EXCITING	-0.03248993
-3.303628	EXERCISE	-0.03248993
-3.303628	FACILITY	-0.03248993
-3.303628	FAIRLY	-0.08597025
-3.303628	FALLING	-0.0848891
-3.303628	FALLS	-0.08597025
-2.826507	FAMILY	-0.01504605
-3.303628	FAN	-0.08597025
-3.303628	FANCY	-0.08597025
-3.303628	FARM	-0.0818475
-3.303628	FEEL	-0.08119296
-3.002598	FESTIVAL	-0.07214712
-3.303628	FIELD	-0.07900397
-3.303628	FIREWORKS	-0.07437086
-3.002598	FIRST	-0.08315365
-3.303628	FISHING	-0.08575423
-3.303628	FIVE	-0.03248993
-2.826507	FLORIDA	-0.02285776
-3.303628	FOOD	-0.08575423
-2.262235	FOR	-0.118869
-3.303628	FORGOT	-0.08119296
-3.303628	FORMULATE	-0.07303798
-3.303628	FORT	-0.08597025
-3.303628	FORTY	-0.03248993
-3.303628	FOUND	-0.0848891
-3.303628	FOUR	-0.0848891
-3.303628	FRESHMAN	-0.0818475
-3.002598	FRIDAY	-0.07303798
-3.002598	FRIENDS	-0.03004042
-2.303628	FROM	-0.0678362
-2.525477	FUN	-0.1635303
-3.303628	FUNCTIONAL	-0.08597025
-3.303628	GAME	-0.03248993
-3.303628	GARAGE	-0.08597025
-3.303628	GAY	-0.08597025
-3.303628	GENE	-0.03248993
-2.525477	GET	-0.04453436
-3.303628	GETS	-0.08597025
-3.002598	GETTING	-0.3136047
-3.303628	GIFTS	-0.03248993
-3.303628	GIRLS	-0.03248993
-3.303628	GIVE	-0.07303798
-3.303628	GIVING	-0.08532188
-2.45853	GO	-0.06946354
-3.303628	GOES	-0.03248993
-2.525477	GOING	-0.2020456
-3.002598	GOLF	-0.03224559
-2.525477	GOOD	-0.1749991
-2.604658	GOT	-0.1397133
-3.303628	GRADUATING	-0.08553811
-3.303628	GRAHAM	-0.03248993
-2.701568	GREAT	-0.03077674
-3.303628	GROWN	-0.07900397
-3.303628	GUYS	-0.08597025
-2.400538	HAD	-0.4981158
-3.002598	HALF	-0.08293623
-3.303628	HANDICAP	-0.08597025
-3.303628	HAS	-0.07481425
-2.127537	HAVE	-0.167561
-3.303628	HAVEN'T	-0.08532188
-3.002598	HD	-0.01909543
-2.224447	HE	-0.1441123
-3.002598	HE'LL	-0.3112202
-2.701568	HE'S	-0.1621401
-3.002598	HER	-0.08532187
-2.826507	HERE	-0.1700802
-3.303628	HIGH	-0.08575423
-3.303628	HILLS	-0.03248993
-2.826507	HISTORY	-0.1668895
-3.002598	HOLIDAY	-0.07878445
-3.303628	HOLIDAYS	-0.08445589
-3.002598	HOME	-0.08162943
-3.303628	HONEY	-0.08597025
-3.002598	HOPEFULLY	-0.07636253
-3.303628	HOT	-0.03248993
-3.002598	HOUR	-0.03200113
-3.303628	HOURS	-0.07303798
-3.303628	HOUSE	-0.08315366
-3.303628	HOUSES	-0.08597025
-3.303628	HOWEVER	-0.03248993
-3.303628	HURRICANE	-0.03248993
-3.303628	HUSBAND	-0.08315366
-1.5402	I	-0.2822602
-3.303628	I'D	-0.08597025
-3.002598	I'LL	-0.3127391
-2.002598	I'M	-0.1387126
-3.002598	I'VE	-0.3133884
-3.002598	IDEA	-0.03077672
-3.002598	IF	-0.07680388
-3.303628	IMMEDIATELY	-0.08510555
-2.002598	IN	-0.09840608
-3.303628	INAUDIBLE	-0.03248993
-3.303628	INCH	-0.08250107
-3.303628	INDIVIDUAL	-0.03248993
-3.303628	INSTRUMENTS	-0.03248993
-3.303628	INTO	-0.08597025
-3.303628	INVITED	-0.08510555
-2.1575	IS	-0.06115408
-3.303628	ISN'T	-0.08597025
-3.303628	ISSUES	-0.08402225
-1.826507	IT	-0.2978644
-3.303628	IT'LL	-0.08315366
-1.923417	IT'S	-0.2700887
-3.002598	JAZZ	-0.3138208
-3.002598	JEFF	-0.3138208
-3.303628	JEWISH	-0.07680389
-3.303628	JOANNE'S	-0.07437086
-3.303628	JOB	-0.08119296
-3.303628	JUNIOR	-0.03248993
-2.303628	JUST	-0.06721446
-3.303628	KIDS	-0.07437086
-2.826507	KIND	-0.4490401
-3.303628	KINDA	-0.08597025
-2.073179	KNOW	-0.05110802
-3.303628	LADY	-0.03248993
-3.002598	LAKE	-0.0855381
-3.303628	LAST	-0.08553811
-3.303628	LAUDERDALE'S	-0.08228333
-3.303628	LAWS'	-0.08597025
-3.303628	LEAGUE	-0.0818475
-3.303628	LECTURE	-0.07437086
-3.303628	LEFT	-0.08467255
-2.048356	LIKE	-0.0734895
-3.303628	LIONS	-0.08597025
-3.303628	LIONS'	-0.08597025
-3.303628	LIST	-0.08250107
-2.826507	LITTLE	-0.08553812
-3.002598	LIVE	-0.08162943
-3.303628	LOANS	-0.03248993
-3.303628	LOCATION	-0.07348273
-3.303628	LONG	-0.08532188
-3.303628	LOOK	-0.08337097
-3.002598	LOOKED	-0.07988088
-3.303628	LOST	-0.08597025
-3.303628	LOTS	-0.08250107
-3.303628	LOVE	-0.07966182
-3.002598	LOVES	-0.07944264
-3.303628	MAKE	-0.0848891
-2.826507	MARRIED	-0.1683651
-3.303628	MART	-0.08250107
-3.303628	MAY	-0.08293623
-2.604658	ME	-0.07013599
-3.303628	MEAN	-0.08119296
-3.303628	MEMORIAL	-0.08575423
-3.303628	MET	-0.08337097
-3.303628	MHM	-0.08119296
-3.303628	MHMM	-0.08575423
-3.303628	MIDDLE	-0.03248993
-3.303628	MILES	-0.08402225
-3.303628	MOBILITY	-0.07437086
-3.303628	MODERATELY	-0.08597025
-2.826507	MONDAY	-0.03151179
-3.303628	MONTHS	-0.08575423
-3.303628	MOON	-0.07437086
-2.826507	MORNING	-0.2070937
-3.303628	MOST	-0.0848891
-3.303628	MOUNTAINS	-0.07900397
-3.303628	MOVE	-0.08402225
-3.303628	MOVIE	-0.08575423
-3.002598	MUCH	-0.06631155
-3.002598	MUSIC	-0.08510554
-3.303628	MUSICIAN	-0.0818475
-2.189685	MY	-0.02360632
-3.303628	NEAR	-0.08575423
-3.303628	NEAT	-0.03248993
-3.303628	NEED	-0.07790532
-3.303628	NEUROLOGIST	-0.08119296
-3.303628	NEW	-0.08597025
-2.826507	NEXT	-0.2227516
-3.002598	NICE	-0.2605565
-3.303628	NIECE	-0.08315366
-3.303628	NIECES	-0.0818475
-3.303628	NIGHT	-0.08575423
-3.303628	NINE	-0.08597025
-2.002598	NO	-0.146409
-2.826507	NORTH	-0.02954888
-3.303628	NORTHEAST	-0.08575423
-3.303628	NORTHWEST	-0.08250107
-2.127537	NOT	-0.09513792
-3.002598	NOTHING	-0.08467254
-2.701568	NOW	-0.1646381
-3.303628	O'CLOCK	-0.08097455
-3.303628	OAK	-0.03248993
-3.303628	OCCASIONAL	-0.08597025
-3.303628	OCCASIONALLY	-0.08337097
-3.303628	OCEAN	-0.07966182
-2.073179	OF	-0.07276151
-3.303628	OFF	-0.07680389
-2.349385	OH	-0.1963793
-3.303628	OHIO	-0.08467255
-3.303628	OK	-0.03248993
-2.604658	OKAY	-0.7244551
-3.002598	OLD	-0.2605565
-2.224447	ON	-0.1463712
-2.349385	ONE	-0.2074154
-3.002598	ONES	-0.07035989
-2.826507	ONLY	-0.08467256
-3.303628	ONTARIO	-0.03248993
-3.002598	OR	-0.08575422
-3.303628	ORLANDO	-0.03248993
-2.826507	OTHER	-0.08337098
-3.303628	OUR	-0.08597025
-2.525477	OUT	-0.06381885
-2.525477	OVER	-0.1588622
-3.303628	PALM	-0.08597025
-3.303628	PANDAS	-0.03248993
-3.303628	PART	-0.08293623
-3.303628	PARTNER'S	-0.07303798
-3.303628	PARTY	-0.07680389
-3.303628	PEOPLE	-0.03248993
-3.303628	PERHAPS	-0.08532188
-3.303628	PETE	-0.03248993
-3.303628	PETOSKEY	-0.08467255
-3.303628	PETS	-0.07437086
-3.303628	PICK	-0.08467255
-3.303628	PICTURES	-0.03248993
-3.002598	PLANNED	-0.08206546
-2.701568	PLAY	-0.02360633
-3.303628	PLAYED	-0.08467255
-3.002598	PLAYING	-0.07013597
-3.303628	POINT	-0.08532188
-3.303628	PRETTY	-0.08575423
-2.525477	PROBABLY	-0.04761195
-3.303628	PROBLEM	-0.08510555
-3.303628	PROFESSOR	-0.07680389
-3.303628	PROGRAMING	-0.07680389
-3.002598	PROOF	-0.03004042
-3.303628	PROPHYLACTIC	-0.08597025
-3.303628	PULLS	-0.08510555
-3.303628	PURPOSES	-0.03248993
-3.303628	PUT	-0.08510555
-3.303628	QUARTER	-0.08597025
-3.303628	QUICK	-0.08575423
-3.303628	QUICKEN	-0.08597025
-3.303628	QUIZZES	-0.0848891
-3.303628	RACE	-0.08575423
-3.303628	RAISED	-0.03248993
-3.303628	RAY	-0.08597025
-3.303628	READ	-0.03248993
-3.303628	READING	-0.07303798
-3.303628	REAL	-0.08510555
-3.002598	REALLY	-0.0855381
-3.303628	REASON	-0.03248993
-3.303628	RECEPTION	-0.03248993
-3.303628	RECOMMEND	-0.07966182
-3.303628	RED	-0.08597025
-2.826507	REHEARSAL	-0.07658327
-3.303628	RELIGIOUS	-0.08597025
-3.303628	REMEMBER	-0.08597025
-3.303628	REUPHOLSTERING	-0.08597025
-3.303628	RIDE	-0.08597025
-2.45853	RIGHT	-0.2233174
-3.303628	ROAD	-0.03248993
-3.303628	ROCHESTER	-0.08597025
-3.303628	ROTATOR	-0.08597025
-3.303628	ROYAL	-0.08597025
-3.303628	SAGINAW	-0.03248993
-3.303628	SAID	-0.08119296
-3.303628	SAINT	-0.08597025
-3.303628	SALE	-0.03248993
-3.303628	SAME	-0.08597025
-3.303628	SARASOTA	-0.07680389
-2.826507	SATURDAY	-0.03151179
-3.303628	SAW	-0.08532188
-3.002598	SCHOOL	-0.01909543
-2.604658	SEE	-0.06359155
-3.303628	SEEN	-0.08119296
-3.303628	SEMESTER	-0.08380526
-2.701568	SEVEN	-0.1304982
-3.002598	SHE	-0.08075603
-3.002598	SHOULD	-0.08162943
-3.303628	SHOULDER	-0.08597025
-3.303628	SHOWER	-0.08380526
-3.002598	SHOWS	-0.01808661
-3.303628	SHUT	-0.08510555
-3.002598	SICK	-0.3133884
-3.303628	SILLY	-0.07437086
-3.303628	SISTERS	-0.08119296
-3.303628	SIT	-0.08315366
-3.303628	SLUSH	-0.08597025
-3.303628	SMALL	-0.08597025
-1.67016	SO	-0.1214408
-3.002598	SOME	-0.0855381
-3.303628	SOMETHING	-0.08467255
-3.303628	SOMETIME	-0.03248993
-3.303628	SORRY	-0.03248993
-3.002598	SOUTH	-0.08119295
-3.303628	STARED	-0.08337097
-3.303628	START	-0.08358817
-3.002598	STARTED	-0.071701
-3.002598	STARTS	-0.3114375
-3.303628	STILL	-0.08597025
-3.303628	STRESSFUL	-0.03248993
-3.303628	STUDY	-0.08597025
-3.303628	STUFF	-0.03248993
-3.303628	STUMBLE	-0.08597025
-3.303628	SUICIDE	-0.07680389
-3.002598	SUNDAY	-0.08119295
-3.303628	SUPPLIES	-0.07437086
-2.525477	SURE	-0.1264838
-3.303628	SURGERY	-0.03248993
-3.303628	SWEET	-0.08553811
-3.303628	SYMPTOMS	-0.08031868
-3.303628	TAKE	-0.07303798
-3.303628	TALK	-0.07437086
-3.002598	TAMPA	-0.2605565
-3.002598	TEACH	-0.07370493
-2.826507	TEN	-0.07370494
-3.303628	TERRIBLE	-0.03248993
-2.826507	TEST	-0.02410466
-3.303628	THANK	-0.08031868
-1.9419	THAT	-0.09755443
-2.604658	THAT'S	-0.06381887
-1.587625	THE	-0.1199999
-3.303628	THEIR	-0.08597025
-2.826507	THEM	-0.02807085
-2.303628	THEN	-0.1448107
-3.303628	THERAPIST	-0.08337097
-2.1575	THERE	-0.1143497
-2.701568	THERE'S	-0.1668965
-2.099508	THEY	-0.1600699
-3.002598	THEY'RE	-0.07636253
-3.002598	THING	-0.01808661
-2.826507	THINGS	-0.01530024
-2.604658	THINK	-0.06404607
-3.303628	THIRTEEN	-0.07437086
-2.604658	THIS	-0.2660162
-2.826507	THOUGH	-0.07035991
-2.826507	THREE	-0.0844559
-3.303628	THROUGH	-0.08315366
-2.701568	TIME	-0.2499242
-3.303628	TIMES	-0.07303798
-1.785114	TO	-0.1114625
-3.303628	TOLD	-0.03248993
-3.303628	TOMORROW	-0.07437086
-3.002598	TONIGHT	-0.03224559
-3.002598	TOO	-0.08575422
-3.303628	TOOK	-0.08597025
-3.303628	TORE	-0.08337097
-3.303628	TORNADO	-0.03248993
-3.002598	TRACK	-0.03102188
-3.303628	TREATMENT	-0.08597025
-3.002598	TRIP	-0.07569965
-3.303628	TUES	-0.08402225
-3.002598	TUESDAY	-0.07125442
-3.303628	TURNED	-0.08597025
-3.303628	TV	-0.08575423
-3.303628	TWELVE	-0.03248993
-2.604658	TWO	-0.1080196
-3.303628	TYPE	-0.08575423
-2.525477	UH	-0.07103097
-3.303628	UHH	-0.08575423
-2.262235	UM	-0.05393504
-3.002598	UMM	-0.0703599
-3.303628	UNCLE	-0.08597025
-3.303628	UNDER	-0.08337097
-3.303628	UNION	-0.08162943
-2.45853	UP	-0.008384168
-3.303628	USE	-0.08337097
-3.303628	USED	-0.07900397
-3.303628	VACATIONS	-0.0848891
-3.303628	VARIETY	-0.03248993
-2.604658	VERY	-0.08337098
-3.303628	VISITED	-0.08467255
-3.303628	VP	-0.07966182
-3.303628	WABATONGUSHI	-0.03248993
-3.303628	WAL	-0.08597025
-3.002598	WALK	-0.08488909
-3.303628	WALKED	-0.08510555
-3.002598	WALKING	-0.3131721
-3.303628	WANT	-0.07900397
-3.002598	WANTED	-0.3070705
-3.002598	WANTS	-0.3070705
-3.303628	WARNING	-0.03248993
-2.073179	WAS	-0.06871465
-3.303628	WAWA	-0.08597025
-2.826507	WAY	-0.0674399
-1.981409	WE	-0.1113557
-3.303628	WE'LL	-0.08402225
-3.303628	WE'RE	-0.0848891
-3.002598	WE'VE	-0.08358816
-2.604658	WEDDING	0.001275919
-2.826507	WEEK	-0.1571745
-2.45853	WEEKEND	-0.5736169
-3.303628	WEEKENDS	-0.08575423
-2.400538	WELL	-0.07658235
-2.604658	WENT	-0.1884722
-2.525477	WERE	-0.0669889
-3.002598	WEREN'T	-0.08053741
-2.826507	WHAT	-0.07966183
-3.303628	WHATEVER	-0.07790532
-3.303628	WHEELCHAIR	-0.08597025
-2.826507	WHEN	-0.07237002
-3.303628	WHENEVER	-0.08031868
-2.45853	WHERE	-0.04926015
-3.303628	WHICH	-0.08423912
-3.002598	WHILE	-0.06879002
-3.303628	WHO	-0.08315366
-3.303628	WHOLE	-0.08575423
-3.303628	WHY	-0.08445589
-3.303628	WILL	-0.0848891
-2.45853	WITH	-0.119536
-3.303628	WITHOUT	-0.08597025
-3.303628	WON	-0.03248993
-3.303628	WON'T	-0.08315366
-3.002598	WORK	-0.08423911
-2.701568	WORKING	-0.01402777
-3.303628	WORKS	-0.03248993
-3.303628	WRITING	-0.07303798
-3.303628	YA'LL	-0.08445589
-1.723844	YEAH	-0.3354085
-2.701568	YEAR	-0.2613242
-3.303628	YEARS	-0.08575423
-3.303628	YEP	-0.03248993
-1.9419	YES	-0.3331968
-2.604658	YET	-0.1398698
-1.872264	YOU	-0.2743774
-3.002598	YOU'RE	-0.08228332
-3.303628	YOUR	-0.08597025
-3.002598	YUP	-0.07525717
-3.002598	ZOO	-0.01909543

\2-grams:
-0.7447275	17 AND
-0.7447275	18 </s>
-0.7447275	6 WEEKENDS
-0.7447275	600 MILES
-0.7447275	96 YEARS
-0.7447275	96TH BIRTHDAY
-2.356384	<s> A
-2.356384	<s> ACTUALLY
-3.113943	<s> ALL
-3.113943	<s> AN
-1.414973	<s> AND
-3.113943	<s> AROUND
-3.113943	<s> BE
-3.113943	<s> BEFORE
-3.113943	<s> BORN
-3.113943	<s> BRASS
-2.080918	<s> BUT
-3.113943	<s> BUYING
-3.113943	<s> CAUSE
-3.113943	<s> COUPLE
-3.113943	<s> DELTA
-3.113943	<s> DOCTORS
-3.113943	<s> DOWNTOWN
-3.113943	<s> ELEMENTARY
-3.113943	<s> EVEN
-3.113943	<s> FLORIDA
-2.356384	<s> FOR
-3.113943	<s> FORT
-2.356384	<s> GOING
-3.113943	<s> GOOD
-2.356384	<s> HE
-3.113943	<s> HE'S
-3.113943	<s> HISTORY
-1.138767	<s> I
-2.153965	<s> I'M
-3.113943	<s> IF
-2.080918	<s> IN
-2.153965	<s> IT
-2.008651	<s> IT'S
-2.356384	<s> JEFF
-3.113943	<s> MHM
-3.113943	<s> MHMM
-3.113943	<s> MODERATELY
-3.113943	<s> MUSIC
-2.356384	<s> MY
-3.113943	<s> NEXT
-1.290035	<s> NO
-3.113943	<s> NOT
-3.113943	<s> NOTHING
-1.670246	<s> OH
-3.113943	<s> OK
-2.080918	<s> OKAY
-2.356384	<s> ONE
-3.113943	<s> OVER
-3.113943	<s> PALM
-3.113943	<s> PERHAPS
-3.113943	<s> PLAY
-3.113943	<s> PRETTY
-3.113943	<s> PROBABLY
-3.113943	<s> READ
-2.080918	<s> RIGHT
-3.113943	<s> ROTATOR
-3.113943	<s> SAINT
-3.113943	<s> SHE
-3.113943	<s> SHOULD
-1.290035	<s> SO
-3.113943	<s> SOME
-3.113943	<s> SUNDAY
-3.113943	<s> TEN
-3.113943	<s> THANK
-3.113943	<s> THAT
-2.356384	<s> THAT'S
-3.113943	<s> THE
-3.113943	<s> THEN
-3.113943	<s> THERE
-3.113943	<s> THERE'S
-2.008651	<s> THEY
-3.113943	<s> TV
-3.113943	<s> TWO
-2.080918	<s> UH
-2.153965	<s> UM
-2.356384	<s> UMM
-3.113943	<s> VERY
-2.153965	<s> WE
-2.356384	<s> WE'VE
-2.008651	<s> WELL
-3.113943	<s> WENT
-3.113943	<s> WHAT
-3.113943	<s> WHEN
-3.113943	<s> WHENEVER
-3.113943	<s> WHERE
-3.113943	<s> WITH
-3.113943	<s> WORKING
-0.9712759	<s> YEAH
-1.138767	<s> YES
-2.008651	<s> YOU
-3.113943	<s> YUP
-0.7447275	<unk> IN
-2.522879	A BAD
-1.489853	A BIG
-2.522879	A BLAST
-2.522879	A BUNCH
-2.522879	A CHAUFFEUR
-2.522879	A COMMUNITY
-2.522879	A COUPLE
-2.522879	A DAY
-2.522879	A DIFFERENT
-2.522879	A DIRT
-2.522879	A DISASTER
-2.522879	A DRUG
-2.522879	A FAIRLY
-2.522879	A FISHING
-2.522879	A FUNCTIONAL
-2.522879	A GARAGE
-2.522879	A GOLF
-2.522879	A GOOD
-1.765319	A GREAT
-1.765319	A HALF
-2.522879	A HE
-2.522879	A HONEY
-2.522879	A JUNIOR
-2.522879	A LAKE
-2.522879	A LECTURE
-2.522879	A LIONS
-2.522879	A LIONS'
-2.522879	A LITTLE
-2.522879	A LONG
-2.522879	A MOVIE
-2.522879	A MUSICIAN
-2.522879	A NEW
-2.522879	A PROBLEM
-2.522879	A PROFESSOR
-2.522879	A PROPHYLACTIC
-2.522879	A QUARTER
-2.522879	A REAL
-1.765319	A REHEARSAL
-2.522879	A SHOWER
-2.522879	A SMALL
-1.765319	A TEST
-2.522879	A THERAPIST
-2.522879	A VERY
-2.522879	A VP
-1.5629	A WEDDING
-1.765319	A WEEK
-2.522879	A WHEELCHAIR
-2.522879	A WHOLE
-2.522879	A YEAR
-2.522879	A YOU
-1.045758	ABOUT 600
-1.045758	ABOUT TEN
-0.7447275	ABSOLUTELY </s>
-0.7447275	ACCESSIBLE AND
-1.443697	ACTUALLY DOWN
-1.443697	ACTUALLY FROM
-0.686138	ACTUALLY I
-1.443697	ACTUALLY I'M
-0.7447275	ADRIAN WHERE
-0.7447275	AFTER BEING
-0.7447275	AGAIN THEN
-0.7447275	AGO THERE
-0.7447275	ALCOHOL TREATMENT
-1.589826	ALL FROM
-1.589826	ALL INDIVIDUAL
-1.589826	ALL OUT
-0.5568	ALL THE
-1.589826	ALL THROUGH
-1.045758	ALMOST LOST
-1.045758	ALMOST NINE
-0.7447275	ALONG THE
-0.7447275	ALWAYS FUN
-1.045758	AM A
-1.045758	AM WORKING
-1.045758	AMAZING </s>
-1.045758	AMAZING YOU
-1.346787	AN AUNT
-0.589228	AN HOUR
-1.346787	AN OCCASIONAL
-2.477121	AND 18
-2.477121	AND </s>
-1.517143	AND A
-2.477121	AND ALCOHOL
-2.477121	AND ALL
-2.477121	AND BE
-2.477121	AND BEYOND
-2.477121	AND CATCH
-2.477121	AND ENDED
-2.477121	AND EVERYTHING
-2.477121	AND FRIDAY
-2.477121	AND GIVE
-2.477121	AND GO
-2.477121	AND GOT
-2.477121	AND HANDICAP
-1.444096	AND HE
-2.477121	AND I'M
-2.477121	AND IT'S
-2.477121	AND LOOK
-2.477121	AND LOOKED
-2.477121	AND MIDDLE
-2.477121	AND NOW
-2.477121	AND PLAY
-2.477121	AND RAISED
-2.477121	AND SO
-2.477121	AND STUFF
-2.477121	AND TEACH
-1.033424	AND THE
-2.477121	AND THEIR
-1.719562	AND THEN
-1.444096	AND THEY
-2.477121	AND TWELVE
-2.477121	AND UH
-1.719562	AND UM
-2.477121	AND VISITED
-2.477121	AND WAL
-2.477121	AND WALK
-2.477121	AND WHATEVER
-2.477121	AND WITH
-1.719562	AND YOU
-0.7447275	ANIMALS WERE
-0.7447275	ANOTHER REHEARSAL
-0.7447275	ANTI DEPRESSANTS
-0.7447275	ANTIDEPRESSANTS FOR
-0.7447275	ANY IDEA
-0.7447275	ANYTHING LIKE
-0.7447275	ANYWAY </s>
-0.7447275	APPEAR DEPRESSED
-0.7447275	APPOINTMENTS </s>
-1.647817	ARE 17
-0.890258	ARE </s>
-1.647817	ARE ALL
-1.647817	ARE IT'S
-0.890258	ARE LIKE
-1.647817	ARE YOU
-0.7447275	AREA </s>
-1.443697	AROUND JOANNE'S
-1.443697	AROUND SO
-0.686138	AROUND THE
-1.443697	AROUND WE
-1.101111	AT A
-1.858671	AT ALL
-1.858671	AT ALMOST
-1.858671	AT BED
-1.858671	AT EIGHT
-1.858671	AT FIRST
-1.858671	AT LIKE
-1.858671	AT QUICKEN
-1.858671	AT SO
-1.101111	AT THE
-1.858671	AT YOU
-0.7447275	AUDITING DEPARTMENT
-0.7447275	AUNT WHO
-1.045758	AWAY FOR
-1.045758	AWAY FROM
-0.686138	BACK AND
-1.443697	BACK GET
-1.443697	BACK PLAYING
-1.443697	BACK TO
-0.7447275	BAD LOCATION
-0.7447275	BADLY </s>
-0.288198	BASED IT
-0.7447275	BASEMENT YOU
-0.7447275	BASICALLY ON
-0.7447275	BATH AND
-0.7447275	BATTLE CREEK
-1.890856	BE A
-1.890856	BE DEALING
-1.890856	BE EMBARRASSING
-1.890856	BE GOOD
-1.890856	BE GRADUATING
-1.133296	BE IN
-1.890856	BE IT
-1.890856	BE ONE
-1.890856	BE SILLY
-1.890856	BE STARED
-1.890856	BE UHH
-1.890856	BE VERY
-1.890856	BE YOU
-0.7447275	BEACH </s>
-0.7447275	BEAVERS </s>
-1.346787	BECAUSE FOR
-1.346787	BECAUSE I
-1.346787	BECAUSE I'VE
-1.346787	BECAUSE WE
-0.7447275	BED BATH
-1.346787	BEEN HOME
-0.589228	BEEN ON
-1.346787	BEEN TOLD
-1.045758	BEFORE </s>
-1.045758	BEFORE THAT
-1.221849	BEING A
-1.221849	BEING AWAY
-1.221849	BEING IN
-0.7447275	BETWEEN THE
-0.7447275	BEYOND </s>
-1.443697	BIG DEAL
-1.443697	BIG DIFFERENCE
-1.443697	BIG FANCY
-1.443697	BIG PARTY
-1.443697	BIG WARNING
-0.7447275	BIKE </s>
-0.7447275	BILLY GRAHAM
-0.7447275	BIRTHDAY WHILE
-0.7447275	BIT OF
-0.7447275	BLAST IT
-0.7447275	BOOK ON
-0.7447275	BORING HOWEVER
-0.7447275	BORN AND
-0.7447275	BOTHER </s>
-0.7447275	BRASS INSTRUMENTS
-0.7447275	BRING THEM
-0.288198	BUNCH OF
-1.045758	BUSY I'M
-1.045758	BUSY WEEKEND
-0.8256453	BUT </s>
-1.858671	BUT I
-1.858671	BUT IT'LL
-1.858671	BUT IT'S
-1.858671	BUT NOT
-1.858671	BUT SUNDAY
-1.858671	BUT THEN
-1.858671	BUT THERE
-1.858671	BUT WE
-1.101111	BUT YEAH
-0.7447275	BUYING THINGS
-0.7447275	CALLED WABATONGUSHI
-1.346787	CAN </s>
-1.346787	CAN BE
-1.346787	CAN SEE
-1.346787	CAN SIT
-0.7447275	CANADA ABOUT
-0.7447275	CAROLINA CAN
-0.7447275	CATCH UP
-1.045758	CAUSE OF
-1.045758	CAUSE THAT'S
-0.7447275	CENTERVILLE BRING
-0.7447275	CENTRAL FROM
-0.7447275	CHAUFFEUR WE'RE
-0.7447275	CLASS </s>
-0.7447275	CLASSES AND
-0.7447275	CLEANING </s>
-0.4642892	COLLEGE </s>
-1.221849	COLLEGE AND
-1.045758	COMING BACK
-1.045758	COMING HOME
-0.7447275	COMMITTED SUICIDE
-0.7447275	COMMUNITY COLLEGE
-0.7447275	COMPANIES THAT
-0.7447275	COMPUTER PROGRAMING
-0.7447275	COMPUTERS SO
-0.288198	CONE </s>
-0.7447275	COOL </s>
-0.7447275	COUCH OVER
-1.045758	COULD BE
-1.045758	COULD BUT
-0.7447275	COULDN'T SEE
-1.045758	COUPLE DAYS
-1.045758	COUPLE TIMES
-0.7447275	COURSE IN
-0.7447275	CRAZY </s>
-0.7447275	CREDIT UNION
-0.7447275	CREEK </s>
-0.7447275	CRYSTAL </s>
-0.7447275	CUFF IT'S
-0.7447275	CURRENTLY AT
-0.7447275	DAD'S HISTORY
-0.7447275	DAUGHTER </s>
-1.045758	DAY </s>
-1.045758	DAY FOR
-0.7653192	DAYS </s>
-1.522879	DAYS ON
-1.522879	DAYS OVER
-1.522879	DAYS SO
-1.522879	DAYS YOU
-0.7447275	DEAL LIKE
-0.7447275	DEALING WITH
-0.7447275	DECIDE THEY
-0.7447275	DECIDED ON
-0.7447275	DEFINITELY NICE
-0.7447275	DELTA COLLEGE
-0.7447275	DEPARTMENT </s>
-0.7447275	DEPRESSANTS BECAUSE
-1.221849	DEPRESSED </s>
-1.221849	DEPRESSED CAUSE
-1.221849	DEPRESSED DOESN'T
-1.221849	DEPRESSION IS
-1.221849	DEPRESSION PART
-1.221849	DEPRESSION SO
-1.346787	DETROIT </s>
-0.589228	DETROIT JAZZ
-1.346787	DETROIT ZOO
-1.221849	DID NOT
-1.221849	DID WE
-1.221849	DID YOU
-1.045758	DIDN'T FEEL
-1.045758	DIDN'T SORRY
-0.7447275	DIFFERENCE BETWEEN
-1.045758	DIFFERENT BOOK
-1.045758	DIFFERENT THINGS
-0.7447275	DIRT TRACK
-0.288198	DISABILITY </s>
-0.7447275	DISASTER AREA
-0.7447275	DISEASE WORKS
-0.7447275	DNA STUDY
-1.522879	DO </s>
-0.7653192	DO LIKE
-1.522879	DO MY
-1.522879	DO SO
-1.522879	DO STUMBLE
-0.7447275	DOCTORS APPOINTMENTS
-0.7447275	DOES </s>
-0.7447275	DOESN'T MEAN
-0.7447275	DOG AND
-1.045758	DOING I'M
-1.045758	DOING OKAY
-1.647817	DON'T APPEAR
-1.647817	DON'T EVEN
-1.647817	DON'T HAVE
-0.890258	DON'T KNOW
-1.647817	DON'T LIKE
-1.647817	DON'T REMEMBER
-1.647817	DON'T THERE
-0.7447275	DONAVAN </s>
-1.443697	DOWN </s>
-1.443697	DOWN SOUTH
-1.443697	DOWN THERE
-0.686138	DOWN TO
-1.045758	DOWNTOWN <unk>
-1.045758	DOWNTOWN DETROIT
-1.045758	DRIVE DOWN
-1.045758	DRIVE RIGHT
-1.045758	DRIVING IMMEDIATELY
-1.045758	DRIVING UP
-0.7447275	DROVE ALL
-0.7447275	DRUG AND
-0.7447275	EACH </s>
-1.221849	EIGHT DAYS
-1.221849	EIGHT FORTY
-1.221849	EIGHT OH
-1.045758	ELEMENTARY AND
-1.045758	ELEMENTARY STARTS
-0.7447275	ELSE DID
-0.7447275	EM BUT
-0.7447275	EMBARRASSING </s>
-0.7447275	EMPTIED FOR
-0.7447275	ENDED UP
-0.7447275	ERR TEST
-1.221849	EVEN BOTHER
-0.4642892	EVEN THOUGH
-0.7447275	EVER SEEN
-0.7447275	EVERYBODY WAS
-0.7447275	EVERYONE HAS
-0.7447275	EVERYTHING SO
-0.7447275	EVERYWHERE BUT
-0.7447275	EXACT SYMPTOMS
-1.346787	EXACTLY SO
-0.3137619	EXACTLY SURE
-0.7447275	EXCITED </s>
-0.7447275	EXCITING </s>
-0.7447275	EXERCISE </s>
-0.7447275	FACILITY </s>
-0.7447275	FAIRLY QUICK
-0.7447275	FALLING OVER
-0.7447275	FALLS UNDER
-1.221849	FAMILY </s>
-1.221849	FAMILY AND
-1.221849	FAMILY THEY
-0.7447275	FAN ISN'T
-0.7447275	FANCY HOUSES
-0.7447275	FARM IN
-0.7447275	FEEL THAT
-1.045758	FESTIVAL AND
-1.045758	FESTIVAL THEN
-0.7447275	FIELD TO
-0.7447275	FIREWORKS AND
-1.045758	FIRST BUT
-1.045758	FIRST FOUND
-0.7447275	FISHING TRIP
-0.7447275	FIVE </s>
-1.221849	FLORIDA </s>
-1.221849	FLORIDA TO
-1.221849	FLORIDA WERE
-0.7447275	FOOD OR
-1.028561	FOR A
-1.78612	FOR EIGHT
-1.78612	FOR MY
-1.78612	FOR NO
-1.78612	FOR ONE
-1.78612	FOR PEOPLE
-1.78612	FOR THE
-1.028561	FOR THIS
-1.78612	FOR TUESDAY
-0.7447275	FORGOT THAT
-0.7447275	FORMULATE A
-0.7447275	FORT LAUDERDALE'S
-0.7447275	FORTY </s>
-0.7447275	FOUND OUT
-0.7447275	FOUR DAYS
-0.7447275	FRESHMAN IN
-1.045758	FRIDAY FRIDAY
-1.045758	FRIDAY I
-1.045758	FRIENDS </s>
-1.045758	FRIENDS FROM
-1.744727	FROM </s>
-1.744727	FROM CENTERVILLE
-1.744727	FROM DOWN
-1.744727	FROM HERE
-0.7847489	FROM THE
-1.744727	FROM WHAT
-1.744727	FROM WORK
-0.4898532	FUN </s>
-1.522879	FUN TO
-1.522879	FUN WHEN
-1.522879	FUN YES
-0.7447275	FUNCTIONAL COURSE
-0.7447275	GAME </s>
-0.7447275	GARAGE SALE
-0.7447275	GAY CENTRAL
-0.7447275	GENE </s>
-1.522879	GET A
-1.522879	GET BACK
-1.522879	GET I
-1.522879	GET SICK
-1.522879	GET THE
-1.522879	GET UP
-0.7447275	GETS CRAZY
-0.288198	GETTING MARRIED
-0.7447275	GIFTS </s>
-0.7447275	GIRLS </s>
-0.7447275	GIVE A
-0.7447275	GIVING SEVEN
-1.589826	GO ACTUALLY
-1.589826	GO BACK
-1.589826	GO BUT
-1.589826	GO INTO
-1.589826	GO THERE
-1.589826	GO TO
-1.589826	GO YET
-0.7447275	GOES </s>
-0.417587	GOING TO
-1.045758	GOLF </s>
-1.045758	GOLF LEAGUE
-0.4898532	GOOD </s>
-1.522879	GOOD I'D
-1.522879	GOOD ONE
-1.522879	GOOD THOUGH
-1.443697	GOT A
-1.443697	GOT MARRIED
-1.443697	GOT ON
-0.686138	GOT TO
-0.7447275	GRADUATING NEXT
-0.7447275	GRAHAM </s>
-1.346787	GREAT </s>
-1.346787	GREAT FIELD
-1.346787	GREAT SCHOOL
-1.346787	GREAT TIME
-0.7447275	GROWN TO
-0.7447275	GUYS EVER
-0.20412	HAD A
-1.647817	HAD EM
-1.647817	HAD HER
-1.647817	HAD SHOULDER
-1.045758	HALF AGO
-1.045758	HALF THERE
-0.7447275	HANDICAP ACCESSIBLE
-0.7447275	HAS THE
-0.9608402	HAVE A
-1.920819	HAVE ANOTHER
-1.920819	HAVE ANY
-1.920819	HAVE NO
-1.920819	HAVE PLANNED
-1.163259	HAVE PROOF
-1.920819	HAVE THE
-0.8877932	HAVE TO
-1.920819	HAVE TWO
-0.7447275	HAVEN'T BEEN
-1.045758	HD </s>
-1.045758	HD AND
-1.823909	HE COMMITTED
-1.823909	HE DOES
-1.823909	HE JUST
-1.066349	HE LOVES
-1.823909	HE PULLS
-1.823909	HE SAID
-1.823909	HE USED
-1.823909	HE WANTED
-1.066349	HE WANTS
-1.823909	HE WENT
-0.288198	HE'LL BE
-1.346787	HE'S A
-1.346787	HE'S IT
-0.589228	HE'S NOT
-1.045758	HER 96TH
-1.045758	HER BEING
-0.4642892	HERE </s>
-1.221849	HERE WHILE
-0.7447275	HIGH SCHOOL
-0.7447275	HILLS </s>
-0.4642892	HISTORY </s>
-1.221849	HISTORY NOT
-1.045758	HOLIDAY LEFT
-1.045758	HOLIDAY TO
-0.7447275	HOLIDAYS DON'T
-1.045758	HOME AFTER
-1.045758	HOME IN
-0.7447275	HONEY MOON
-1.045758	HOPEFULLY HOPEFULLY
-1.045758	HOPEFULLY SO
-0.7447275	HOT </s>
-1.045758	HOUR </s>
-1.045758	HOUR SOUTH
-0.7447275	HOURS A
-0.7447275	HOUSE IS
-0.7447275	HOUSES ALONG
-0.7447275	HOWEVER </s>
-0.7447275	HURRICANE </s>
-0.7447275	HUSBAND IS
-1.750596	I AM
-1.750596	I CAN
-2.508156	I DIDN'T
-1.47513	I DO
-1.402864	I DON'T
-2.508156	I DRIVE
-2.508156	I FIRST
-2.508156	I FORGOT
-1.548177	I GET
-2.508156	I GOT
-2.508156	I HAD
-0.7220353	I HAVE
-2.508156	I HAVEN'T
-2.508156	I I
-2.508156	I JUST
-1.064458	I KNOW
-1.750596	I LIKE
-2.508156	I LOVE
-2.508156	I NEED
-2.508156	I START
-2.508156	I STARTED
-2.508156	I STILL
-2.508156	I TEACH
-1.548177	I THINK
-2.508156	I TORE
-1.750596	I WAS
-2.508156	I WORK
-0.7447275	I'D RECOMMEND
-0.288198	I'LL GO
-2.045758	I'M A
-2.045758	I'M CURRENTLY
-2.045758	I'M DOING
-1.288198	I'M DRIVING
-2.045758	I'M EXCITED
-2.045758	I'M GIVING
-1.012732	I'M GOING
-2.045758	I'M NOT
-2.045758	I'M OFF
-2.045758	I'M ON
-2.045758	I'M PLAYING
-2.045758	I'M REUPHOLSTERING
-1.288198	I'M SURE
-2.045758	I'M UH
-2.045758	I'M WORKING
-2.045758	I'M WRITING
-0.288198	I'VE BEEN
-1.045758	IDEA </s>
-1.045758	IDEA WHERE
-1.045758	IF THEY
-1.045758	IF YOU
-0.7447275	IMMEDIATELY BACK
-1.012732	IN </s>
-1.012732	IN A
-2.045758	IN BATTLE
-2.045758	IN COLLEGE
-2.045758	IN CRYSTAL
-2.045758	IN FLORIDA
-2.045758	IN LAWS'
-2.045758	IN LIKE
-2.045758	IN NORTH
-2.045758	IN OHIO
-2.045758	IN ORLANDO
-2.045758	IN ROCHESTER
-2.045758	IN ROYAL
-2.045758	IN SAGINAW
-1.288198	IN THE
-0.7447275	INAUDIBLE </s>
-0.7447275	INCH OF
-0.7447275	INDIVIDUAL </s>
-0.7447275	INSTRUMENTS </s>
-0.7447275	INTO COMPUTER
-0.7447275	INVITED ME
-1.890856	IS 96
-0.930877	IS </s>
-1.133296	IS A
-1.890856	IS COMING
-1.890856	IS FRESHMAN
-1.890856	IS GETTING
-1.890856	IS IN
-1.890856	IS ONE
-1.890856	IS SO
-1.890856	IS WORKING
-0.7447275	ISN'T ALWAYS
-0.7447275	ISSUES FROM
-1.188823	IT </s>
-2.221849	IT AT
-2.221849	IT BASICALLY
-2.221849	IT BUT
-2.221849	IT COULD
-2.221849	IT FOOD
-2.221849	IT GETS
-2.221849	IT GOES
-1.26187	IT IS
-2.221849	IT LOOKED
-2.221849	IT ON
-2.221849	IT SO
-2.221849	IT STARTS
-0.39794	IT WAS
-0.7447275	IT'LL BE
-0.5351132	IT'S A
-2.124939	IT'S AMAZING
-2.124939	IT'S AT
-2.124939	IT'S DEFINITELY
-2.124939	IT'S FUN
-2.124939	IT'S GOOD
-2.124939	IT'S GREAT
-1.091913	IT'S IT'S
-2.124939	IT'S JUST
-1.367379	IT'S LIKE
-2.124939	IT'S NORTHEAST
-2.124939	IT'S ONLY
-2.124939	IT'S TERRIBLE
-2.124939	IT'S WAY
-2.124939	IT'S WITH
-0.288198	JAZZ FESTIVAL
-0.288198	JEFF CONE
-0.7447275	JEWISH SO
-0.7447275	JOANNE'S AND
-0.7447275	JOB THAT
-0.7447275	JUNIOR </s>
-1.744727	JUST BECAUSE
-1.744727	JUST CAN
-1.744727	JUST DAYS
-1.744727	JUST GOT
-1.744727	JUST KINDA
-1.744727	JUST PLAY
-1.744727	JUST TALK
-1.744727	JUST UM
-1.744727	JUST YES
-1.744727	JUST YOU
-0.7447275	KIDS AND
-0.1888232	KIND OF
-0.7447275	KINDA PLAYED
-0.9421509	KNOW </s>
-1.975176	KNOW BECAUSE
-1.975176	KNOW BEING
-1.975176	KNOW HE
-1.975176	KNOW HE'S
-1.975176	KNOW I
-1.975176	KNOW INAUDIBLE
-1.217617	KNOW IT'S
-1.975176	KNOW NOT
-1.975176	KNOW OF
-1.975176	KNOW THE
-1.975176	KNOW THEY'RE
-1.975176	KNOW WHAT
-1.975176	KNOW WHEN
-0.7447275	LADY </s>
-1.045758	LAKE CALLED
-1.045758	LAKE DOWNTOWN
-0.7447275	LAST WEEK
-0.7447275	LAUDERDALE'S LIKE
-0.7447275	LAWS' FARM
-0.7447275	LEAGUE IN
-0.7447275	LECTURE AND
-0.7447275	LEFT WHERE
-2	LIKE 6
-0.9669745	LIKE </s>
-1.24244	LIKE A
-2	LIKE EIGHT
-2	LIKE GAY
-1.24244	LIKE NO
-2	LIKE OH
-2	LIKE RAY
-2	LIKE SHUT
-2	LIKE THAT
-2	LIKE THE
-2	LIKE THERE
-2	LIKE VARIETY
-2	LIKE WHY
-0.7447275	LIONS GAME
-0.7447275	LIONS' FAN
-0.7447275	LIST OF
-1.221849	LITTLE BIT
-1.221849	LITTLE LADY
-1.221849	LITTLE NIECES
-1.045758	LIVE IN
-1.045758	LIVE NEAR
-0.7447275	LOANS </s>
-0.7447275	LOCATION I
-0.7447275	LONG TIME
-0.7447275	LOOK AT
-1.045758	LOOKED AT
-1.045758	LOOKED THEY
-0.7447275	LOST LAST
-0.7447275	LOTS OF
-0.7447275	LOVE IT
-1.045758	LOVES COMPUTERS
-1.045758	LOVES IT
-0.7447275	MAKE SURE
-0.4642892	MARRIED </s>
-1.221849	MARRIED OH
-0.7447275	MART WAS
-0.7447275	MAY NOT
-1.443697	ME BUT
-1.443697	ME EVERYWHERE
-1.443697	ME ON
-1.443697	ME SO
-1.443697	ME THERE'S
-0.7447275	MEAN THAT
-0.7447275	MEMORIAL DAY
-0.7447275	MET AT
-0.7447275	MHM YES
-0.7447275	MHMM YUP
-0.7447275	MIDDLE </s>
-0.7447275	MILES FROM
-0.7447275	MOBILITY AND
-0.7447275	MODERATELY STRESSFUL
-1.221849	MONDAY </s>
-1.221849	MONDAY MEMORIAL
-1.221849	MONDAY MORNING
-0.7447275	MONTHS OLD
-0.7447275	MOON AND
-0.4642892	MORNING I
-1.221849	MORNING I'M
-0.7447275	MOST FUN
-0.7447275	MOUNTAINS TO
-0.7447275	MOVE FROM
-0.7447275	MOVIE TONIGHT
-1.045758	MUCH THE
-1.045758	MUCH YEAH
-1.045758	MUSIC HISTORY
-1.045758	MUSIC TONIGHT
-0.7447275	MUSICIAN I'M
-1.858671	MY </s>
-1.858671	MY DAD'S
-1.858671	MY DAUGHTER
-1.858671	MY DOG
-1.858671	MY FAMILY
-1.858671	MY HUSBAND
-1.858671	MY IN
-1.858671	MY LITTLE
-1.858671	MY NIECE
-1.858671	MY PARTNER'S
-1.858671	MY SICK
-1.858671	MY UNCLE
-1.858671	MY VACATIONS
-0.7447275	NEAR TAMPA
-0.7447275	NEAT </s>
-0.7447275	NEED YEAH
-0.7447275	NEUROLOGIST THAT
-0.7447275	NEW JOB
-1.221849	NEXT THREE
-0.4642892	NEXT YEAR
-0.288198	NICE </s>
-0.7447275	NIECE IS
-0.7447275	NIECES IN
-0.7447275	NIGHT I'LL
-0.7447275	NINE O'CLOCK
-1.012732	NO </s>
-2.045758	NO ACTUALLY
-2.045758	NO FROM
-1.012732	NO I
-2.045758	NO I'M
-2.045758	NO IDEA
-2.045758	NO ISSUES
-2.045758	NO JUST
-1.288198	NO NOT
-2.045758	NO OTHER
-2.045758	NO REASON
-1.012732	NO WE
-2.045758	NO WELL
-1.221849	NORTH </s>
-1.221849	NORTH CAROLINA
-1.221849	NORTH UM
-0.7447275	NORTHEAST OR
-0.7447275	NORTHWEST OF
-1.920819	NOT </s>
-1.920819	NOT A
-1.920819	NOT ANYTHING
-1.920819	NOT DEPRESSED
-0.8877932	NOT EXACTLY
-1.163259	NOT THAT
-1.920819	NOT THE
-1.920819	NOT THINK
-1.163259	NOT THIS
-1.920819	NOT TOO
-1.920819	NOT YOU
-1.045758	NOTHING PLANNED
-1.045758	NOTHING YET
-1.346787	NOW A
-0.589228	NOW I'M
-1.346787	NOW THERE
-0.7447275	O'CLOCK IT'S
-0.7447275	OAK </s>
-0.7447275	OCCASIONAL TORNADO
-0.7447275	OCCASIONALLY BUT
-0.7447275	OCEAN IT
-1.975176	OF A
-1.975176	OF ABOUT
-1.975176	OF COMPANIES
-1.975176	OF EACH
-1.975176	OF FUN
-1.975176	OF MUSIC
-1.975176	OF MY
-1.975176	OF SLUSH
-1.975176	OF SOMETHING
-1.975176	OF TAMPA
-1.217617	OF THE
-1.975176	OF THEM
-1.975176	OF THINGS
-1.975176	OF WANTED
-1.975176	OF WAWA
-1.975176	OF YET
-0.7447275	OFF SO
-1.69897	OH FIVE
-0.6659445	OH I
-1.69897	OH IT
-1.69897	OH NOT
-1.69897	OH OKAY
-0.9414105	OH YEAH
-0.7447275	OHIO WHERE
-0.7447275	OK </s>
-0.07918125	OKAY </s>
-0.288198	OLD </s>
-1.066349	ON A
-1.823909	ON ANTI
-1.823909	ON ANTIDEPRESSANTS
-1.823909	ON BILLY
-1.066349	ON DISABILITY
-1.823909	ON IT
-1.823909	ON MONDAY
-1.823909	ON THAT
-1.066349	ON THE
-0.9414105	ONE IS
-1.69897	ONE IT
-0.6659445	ONE OF
-1.69897	ONE POINT
-1.69897	ONE TO
-1.69897	ONE YEAR
-1.045758	ONES BE
-1.045758	ONES I
-1.221849	ONLY ONES
-1.221849	ONLY THING
-1.221849	ONLY THREE
-0.7447275	ONTARIO </s>
-1.045758	OR GIFTS
-1.045758	OR NORTHWEST
-0.7447275	ORLANDO </s>
-1.221849	OTHER HOLIDAY
-1.221849	OTHER ONE
-1.221849	OTHER ONES
-0.7447275	OUR COUCH
-1.522879	OUT EVERYBODY
-1.522879	OUT OF
-1.522879	OUT THAT
-1.522879	OUT THE
-1.522879	OUT WALKING
-1.522879	OUT WERE
-1.522879	OVER IN
-0.5629002	OVER THE
-1.522879	OVER WITH
-0.7447275	PALM BEACH
-0.7447275	PANDAS </s>
-0.7447275	PART NOT
-0.7447275	PARTNER'S A
-0.7447275	PARTY SO
-0.7447275	PEOPLE </s>
-0.7447275	PERHAPS AN
-0.7447275	PETE </s>
-0.7447275	PETOSKEY WHERE
-0.7447275	PETS AND
-0.7447275	PICK UP
-0.7447275	PICTURES </s>
-1.045758	PLANNED IS
-1.045758	PLANNED YET
-1.346787	PLAY </s>
-1.346787	PLAY GOLF
-1.346787	PLAY IN
-1.346787	PLAY THERE
-0.7447275	PLAYED WITH
-1.045758	PLAYING A
-1.045758	PLAYING AT
-0.7447275	POINT SEVEN
-0.7447275	PRETTY MUCH
-1.522879	PROBABLY A
-1.522879	PROBABLY AND
-1.522879	PROBABLY CLEANING
-1.522879	PROBABLY SATURDAY
-1.522879	PROBABLY TAKE
-1.522879	PROBABLY THE
-0.7447275	PROBLEM ACTUALLY
-0.7447275	PROFESSOR SO
-0.7447275	PROGRAMING SO
-1.045758	PROOF </s>
-1.045758	PROOF FROM
-0.7447275	PROPHYLACTIC PURPOSES
-0.7447275	PULLS ME
-0.7447275	PURPOSES </s>
-0.7447275	PUT ME
-0.7447275	QUARTER INCH
-0.7447275	QUICK TRIP
-0.7447275	QUICKEN LOANS
-0.7447275	QUIZZES OVER
-0.7447275	RACE TRACK
-0.7447275	RAISED </s>
-0.7447275	RAY DONAVAN
-0.7447275	READ </s>
-0.7447275	READING A
-0.7447275	REAL BIG
-1.045758	REALLY NEAT
-1.045758	REALLY NICE
-0.7447275	REASON </s>
-0.7447275	RECEPTION </s>
-0.7447275	RECOMMEND IT
-0.7447275	RED PANDAS
-1.221849	REHEARSAL THAT
-1.221849	REHEARSAL THEN
-1.221849	REHEARSAL UM
-0.7447275	RELIGIOUS TYPE
-0.7447275	REMEMBER WHICH
-0.7447275	REUPHOLSTERING OUR
-0.7447275	RIDE BIKE
-0.832266	RIGHT </s>
-1.589826	RIGHT EXACTLY
-0.5568	RIGHT NOW
-1.589826	RIGHT RIGHT
-0.7447275	ROAD </s>
-0.7447275	ROCHESTER HILLS
-0.7447275	ROTATOR CUFF
-0.7447275	ROYAL OAK
-0.7447275	SAGINAW </s>
-0.7447275	SAID THAT
-0.7447275	SAINT PETE
-0.7447275	SALE </s>
-0.7447275	SAME EXACT
-0.7447275	SARASOTA SO
-1.221849	SATURDAY </s>
-1.221849	SATURDAY MORNING
-1.221849	SATURDAY NIGHT
-0.7447275	SAW AN
-1.045758	SCHOOL </s>
-1.045758	SCHOOL AND
-1.443697	SEE A
-1.443697	SEE FAMILY
-1.443697	SEE MY
-1.443697	SEE THAT
-1.443697	SEE THEM
-0.7447275	SEEN THAT
-0.7447275	SEMESTER FOR
-1.346787	SEVEN </s>
-1.346787	SEVEN QUIZZES
-0.589228	SEVEN SEVEN
-1.045758	SHE HAD
-1.045758	SHE WAS
-1.045758	SHOULD BE
-1.045758	SHOULD GO
-0.7447275	SHOULDER SURGERY
-0.7447275	SHOWER FOR
-1.045758	SHOWS </s>
-1.045758	SHOWS I
-0.7447275	SHUT DOWN
-0.288198	SICK TIME
-0.7447275	SILLY AND
-0.7447275	SISTERS THAT
-0.7447275	SIT THERE
-0.7447275	SLUSH YA'LL
-0.7447275	SMALL LIST
-0.7883704	SO </s>
-2.378196	SO AN
-1.620636	SO AND
-2.378196	SO BUSY
-2.378196	SO COOL
-2.378196	SO DEPRESSION
-2.378196	SO HE'LL
-2.378196	SO HE'S
-2.378196	SO HOLIDAYS
-1.620636	SO I
-2.378196	SO I'LL
-1.418217	SO IT
-1.34517	SO IT'S
-2.378196	SO MUCH
-2.378196	SO NO
-1.620636	SO THAT'S
-2.378196	SO THE
-2.378196	SO THEN
-1.620636	SO THEY
-2.378196	SO THIS
-2.378196	SO UM
-1.34517	SO WE
-2.378196	SO WE'LL
-1.620636	SO YEAH
-2.378196	SO YES
-1.045758	SOME FRIENDS
-1.045758	SOME RELIGIOUS
-0.7447275	SOMETHING RIGHT
-0.7447275	SOMETIME </s>
-0.7447275	SORRY </s>
-1.045758	SOUTH DO
-1.045758	SOUTH OF
-0.7447275	STARED AT
-0.7447275	START ON
-1.045758	STARTED A
-1.045758	STARTED GOING
-0.288198	STARTS AT
-0.7447275	STILL RIDE
-0.7447275	STRESSFUL </s>
-0.7447275	STUDY ERR
-0.7447275	STUFF </s>
-0.7447275	STUMBLE OCCASIONALLY
-0.7447275	SUICIDE SO
-1.045758	SUNDAY I'M
-1.045758	SUNDAY MORNING
-0.7447275	SUPPLIES AND
-1.522879	SURE AND
-0.7653192	SURE HE
-1.522879	SURE WHERE
-1.522879	SURE YET
-1.522879	SURE YOU
-0.7447275	SURGERY </s>
-0.7447275	SWEET LITTLE
-0.7447275	SYMPTOMS YOU
-0.7447275	TAKE A
-0.7447275	TALK AND
-0.288198	TAMPA </s>
-1.045758	TEACH AND
-1.045758	TEACH THREE
-1.221849	TEN AND
-1.221849	TEN DIFFERENT
-1.221849	TEN HOURS
-0.7447275	TERRIBLE </s>
-1.221849	TEST </s>
-1.221849	TEST FOR
-1.221849	TEST THAT
-0.7447275	THANK YOU
-1.348896	THAT </s>
-2.106455	THAT ARE
-2.106455	THAT EVERYONE
-2.106455	THAT HERE
-0.6627578	THAT I
-2.106455	THAT I'M
-2.106455	THAT IS
-2.106455	THAT JUST
-2.106455	THAT LIVE
-2.106455	THAT MONDAY
-2.106455	THAT ON
-2.106455	THAT SHE
-2.106455	THAT SO
-2.106455	THAT THEY
-2.106455	THAT WEREN'T
-2.106455	THAT WILL
-2.106455	THAT YEAH
-2.106455	THAT YOU'RE
-1.443697	THAT'S GOOD
-1.443697	THAT'S HOLIDAY
-1.443697	THAT'S KIND
-1.443697	THAT'S THE
-1.443697	THAT'S YEAH
-2.460731	THE ANIMALS
-2.460731	THE AUDITING
-2.460731	THE BASEMENT
-2.460731	THE BEAVERS
-2.460731	THE BIG
-2.460731	THE CREDIT
-1.703171	THE DEPRESSION
-1.427705	THE DETROIT
-2.460731	THE DISEASE
-2.460731	THE DNA
-2.460731	THE ELEMENTARY
-2.460731	THE EVEN
-2.460731	THE FAMILY
-2.460731	THE FIREWORKS
-2.460731	THE FOUR
-2.460731	THE GENE
-1.703171	THE HD
-2.460731	THE HOUSE
-2.460731	THE HURRICANE
-2.460731	THE LAKE
-2.460731	THE MOBILITY
-2.460731	THE MOST
-2.460731	THE MOUNTAINS
-2.460731	THE NEUROLOGIST
-2.460731	THE NEXT
-2.460731	THE OCEAN
-1.703171	THE ONLY
-1.703171	THE OTHER
-2.460731	THE PETS
-2.460731	THE RACE
-2.460731	THE RED
-2.460731	THE ROAD
-2.460731	THE SAME
-2.460731	THE SEMESTER
-2.460731	THE SHOWS
-2.460731	THE SO
-2.460731	THE SUPPLIES
-2.460731	THE TWO
-1.703171	THE WAY
-2.460731	THE WEDDING
-1.427705	THE WEEKEND
-2.460731	THE YOU
-2.460731	THE ZOO
-0.7447275	THEIR JEWISH
-1.221849	THEM </s>
-1.221849	THEM AT
-1.221849	THEM BACK
-1.744727	THEN HIGH
-0.711702	THEN I
-1.744727	THEN MONDAY
-1.744727	THEN PROBABLY
-1.744727	THEN TUES
-1.744727	THEN TUESDAY
-1.744727	THEN UM
-1.744727	THEN WE
-0.7447275	THERAPIST AT
-0.85783	THERE </s>
-1.890856	THERE AGAIN
-1.133296	THERE AND
-1.890856	THERE BORING
-1.890856	THERE IS
-1.890856	THERE IT
-1.890856	THERE JUST
-1.133296	THERE LIKE
-1.890856	THERE NOT
-1.890856	THERE SOMETIME
-1.346787	THERE'S A
-0.589228	THERE'S LIKE
-1.346787	THERE'S PROBABLY
-1.948848	THEY ALMOST
-0.9888689	THEY ARE
-1.191288	THEY BASED
-1.948848	THEY DECIDE
-1.948848	THEY DECIDED
-1.948848	THEY DO
-1.948848	THEY HAD
-1.948848	THEY LIVE
-1.948848	THEY WANT
-1.191288	THEY WERE
-1.948848	THEY WON
-1.045758	THEY'RE AMAZING
-1.045758	THEY'RE SO
-1.045758	THING </s>
-1.045758	THING I
-1.221849	THINGS </s>
-1.221849	THINGS FOR
-1.221849	THINGS I
-1.443697	THINK AWAY
-1.443697	THINK IT
-1.443697	THINK SO
-1.443697	THINK THAT
-1.443697	THINK YOU'RE
-0.7447275	THIRTEEN AND
-1.443697	THIS CLASS
-1.443697	THIS FALLS
-0.410672	THIS WEEKEND
-1.221849	THOUGH HE
-1.221849	THOUGH HOPEFULLY
-1.221849	THOUGH I
-1.221849	THREE CLASSES
-1.221849	THREE DAYS
-1.221849	THREE MONTHS
-0.7447275	THROUGH THERE
-0.589228	TIME </s>
-0.589228	TIME SO
-0.7447275	TIMES A
-1.230216	TO </s>
-2.263242	TO A
-2.263242	TO ADRIAN
-1.303263	TO BE
-2.263242	TO CANADA
-2.263242	TO DRIVE
-2.263242	TO FLORIDA
-2.263242	TO FORMULATE
-1.230216	TO GO
-2.263242	TO MAKE
-1.505682	TO ME
-2.263242	TO MY
-2.263242	TO PETOSKEY
-2.263242	TO PICK
-2.263242	TO PLAY
-2.263242	TO PUT
-1.230216	TO SEE
-1.303263	TO THE
-2.263242	TO USE
-2.263242	TO WALK
-0.7447275	TOLD </s>
-0.7447275	TOMORROW AND
-1.045758	TONIGHT </s>
-1.045758	TONIGHT TOMORROW
-1.045758	TOO BADLY
-1.045758	TOO HOT
-0.7447275	TOOK PICTURES
-0.7447275	TORE MY
-0.7447275	TORNADO </s>
-1.045758	TRACK </s>
-1.045758	TRACK OVER
-0.7447275	TREATMENT FACILITY
-1.045758	TRIP SO
-1.045758	TRIP TWO
-0.7447275	TUES THEN
-1.045758	TUESDAY I
-1.045758	TUESDAY THEN
-0.7447275	TURNED THIRTEEN
-0.7447275	TV SHOWS
-0.7447275	TWELVE </s>
-0.686138	TWO </s>
-1.443697	TWO GIRLS
-1.443697	TWO OUT
-1.443697	TWO SISTERS
-0.7447275	TYPE THING
-1.522879	UH DOING
-1.522879	UH EXERCISE
-1.522879	UH I
-1.522879	UH NOTHING
-1.522879	UH SARASOTA
-1.522879	UH VERY
-0.7447275	UHH HE'LL
-1.78612	UM BECAUSE
-1.78612	UM BUT
-1.78612	UM GOT
-1.78612	UM HE
-1.78612	UM HE'S
-1.78612	UM JUST
-1.78612	UM SATURDAY
-1.78612	UM WENT
-1.78612	UM YEAH
-1.78612	UM YES
-1.78612	UM YOU
-1.045758	UMM NO
-1.045758	UMM THE
-0.7447275	UNCLE INVITED
-0.7447275	UNDER MY
-0.7447275	UNION WE
-1.589826	UP </s>
-1.589826	UP AND
-1.589826	UP COMING
-1.589826	UP NORTH
-1.589826	UP SOME
-1.589826	UP TO
-1.589826	UP WALKING
-0.7447275	USE MY
-0.7447275	USED TO
-0.7447275	VACATIONS DAYS
-0.7447275	VARIETY </s>
-1.443697	VERY BUSY
-1.443697	VERY EXCITING
-1.443697	VERY GREAT
-1.443697	VERY SWEET
-1.443697	VERY VERY
-0.7447275	VISITED WITH
-0.7447275	VP IT
-0.7447275	WABATONGUSHI </s>
-0.7447275	WAL MART
-1.045758	WALK AROUND
-1.045758	WALK WITHOUT
-0.7447275	WALKED AROUND
-0.288198	WALKING AROUND
-0.7447275	WANT TO
-0.288198	WANTED TO
-0.288198	WANTS TO
-0.7447275	WARNING </s>
-1.217617	WAS </s>
-1.975176	WAS A
-1.975176	WAS EMPTIED
-1.217617	WAS FUN
-1.975176	WAS GETTING
-1.975176	WAS IT'S
-1.975176	WAS KIND
-1.975176	WAS LOTS
-1.975176	WAS ONE
-1.975176	WAS OUT
-1.975176	WAS READING
-1.217617	WAS REALLY
-1.975176	WAS TOO
-1.975176	WAS UP
-0.7447275	WAWA ONTARIO
-1.221849	WAY IT
-1.221849	WAY NORTH
-1.221849	WAY THE
-2.066947	WE ARE
-2.066947	WE COULDN'T
-2.066947	WE DID
-2.066947	WE DO
-2.066947	WE DROVE
-2.066947	WE GOT
-1.106968	WE HAD
-2.066947	WE HAVE
-2.066947	WE JUST
-2.066947	WE KIND
-2.066947	WE MET
-2.066947	WE SAW
-2.066947	WE STARTED
-2.066947	WE TOOK
-2.066947	WE WALKED
-1.309387	WE WENT
-2.066947	WE WERE
-0.7447275	WE'LL JUST
-0.7447275	WE'RE GOOD
-1.045758	WE'VE BEEN
-1.045758	WE'VE HAD
-1.443697	WEDDING </s>
-1.443697	WEDDING AND
-1.443697	WEDDING I
-1.443697	WEDDING IN
-1.443697	WEDDING RECEPTION
-1.221849	WEEK </s>
-0.4642892	WEEK AND
-0.146128	WEEKEND </s>
-1.589826	WEEKEND PROBABLY
-1.589826	WEEKEND UH
-0.7447275	WEEKENDS BEFORE
-1.647817	WELL AND
-0.890258	WELL I
-1.647817	WELL I'M
-1.647817	WELL IT
-1.647817	WELL IT'S
-1.647817	WELL RIGHT
-1.647817	WELL THE
-1.443697	WENT DOWN
-0.4837189	WENT TO
-1.522879	WERE ALL
-1.522879	WERE OUT
-1.522879	WERE THE
-1.522879	WERE THERE
-1.522879	WERE TURNED
-1.522879	WERE UP
-1.045758	WEREN'T IN
-1.045758	WEREN'T OUT
-1.221849	WHAT ELSE
-1.221849	WHAT I'VE
-1.221849	WHAT YOU
-0.7447275	WHATEVER YEAH
-0.7447275	WHEELCHAIR ANYWAY
-1.221849	WHEN I
-1.221849	WHEN THERE'S
-1.221849	WHEN YOUR
-0.7447275	WHENEVER YOU
-1.589826	WHERE DID
-1.589826	WHERE HE
-1.589826	WHERE I
-1.589826	WHERE I'M
-1.589826	WHERE THAT
-1.589826	WHERE WE
-1.589826	WHERE YOU
-0.7447275	WHICH ONE
-1.045758	WHILE I
-1.045758	WHILE WE
-0.7447275	WHO IS
-0.7447275	WHOLE BUNCH
-0.7447275	WHY ARE
-0.7447275	WILL PROBABLY
-1.589826	WITH FRIENDS
-1.589826	WITH HER
-1.589826	WITH KIDS
-1.589826	WITH MY
-1.589826	WITH THAT
-0.832266	WITH THE
-0.7447275	WITHOUT FALLING
-0.7447275	WON </s>
-0.7447275	WON'T BE
-1.045758	WORK PROBABLY
-1.045758	WORK SATURDAY
-1.346787	WORKING </s>
-1.346787	WORKING AT
-1.346787	WORKING I
-1.346787	WORKING TEN
-0.7447275	WORKS </s>
-0.7447275	WRITING A
-0.7447275	YA'LL ARE
-0.3493347	YEAH </s>
-2.324511	YEAH ABSOLUTELY
-1.566952	YEAH AND
-1.566952	YEAH I'M
-2.324511	YEAH IT
-1.566952	YEAH IT'S
-2.324511	YEAH NO
-1.364533	YEAH SO
-2.324511	YEAH THAT
-2.324511	YEAH THE
-2.324511	YEAH THERE'S
-1.291486	YEAH WE
-2.324511	YEAH WELL
-2.324511	YEAH YEP
-0.3137619	YEAR </s>
-1.346787	YEAR AND
-0.7447275	YEARS OLD
-0.7447275	YEP </s>
-0.3617278	YES </s>
-2.106455	YES IF
-1.07343	YES IT
-2.106455	YES IT'S
-1.348896	YES MY
-2.106455	YES OH
-2.106455	YES THERE
-2.106455	YES THEY'RE
-2.106455	YES TWO
-2.106455	YES YEAH
-2.106455	YES YES
-0.4837189	YET </s>
-1.443697	YET BUT
-2.176091	YOU ALL
-2.176091	YOU AND
-2.176091	YOU COULD
-2.176091	YOU DIDN'T
-2.176091	YOU DON'T
-2.176091	YOU GET
-2.176091	YOU GUYS
-1.418532	YOU HAVE
-2.176091	YOU HERE
-2.176091	YOU I'M
-2.176091	YOU JUST
-0.4313638	YOU KNOW
-2.176091	YOU MAY
-2.176091	YOU MOVE
-2.176091	YOU SHOULD
-2.176091	YOU WEREN'T
-2.176091	YOU WON'T
-1.045758	YOU'RE DEPRESSED
-1.045758	YOU'RE NOT
-0.7447275	YOUR GROWN
-1.045758	YUP IT
-1.045758	YUP NO
-1.045758	ZOO </s>
-1.045758	ZOO AND

\end\
