
\data\
ngram 1=681
ngram 2=1923

\1-grams:
-3.415808	17	-0.07242726
-3.415808	18	-0.04126499
-2.938686	300	-0.01839209
-3.415808	600	-0.08787575
-3.415808	96	-0.08787575
-3.415808	96TH	-0.08787575
-0.9909261	</s>
-99	<s>	-0.226314
-3.114778	<unk>	-0.08318063
-1.546576	A	-0.1314386
-2.813748	ABOUT	-0.08670671
-3.415808	ABSOLUTELY	-0.04126499
-3.415808	ACCESSIBLE	-0.07242726
-2.716838	ACTUALLY	-0.154726
-3.415808	ADRIAN	-0.08670672
-3.415808	AFTER	-0.08720811
-3.415808	AGAIN	-0.08603729
-2.938686	AGO	-0.08013533
-3.415808	ALCOHOL	-0.08787575
-2.512718	ALL	-0.09917045
-3.114778	ALMOST	-0.08770894
-3.415808	ALONG	-0.07552692
-2.938686	ALSO	-0.08469533
-3.415808	ALWAYS	-0.08704105
-3.114778	AM	-0.07466812
-3.114778	AMAZING	-0.03547058
-2.813748	AN	-0.2009905
-1.45202	AND	-0.02016048
-3.415808	ANIMALS	-0.08687392
-3.415808	ANOTHER	-0.08754206
-3.415808	ANTI	-0.08787575
-3.415808	ANTICIPATING	-0.08787575
-3.415808	ANTIDEPRESSANTS	-0.08570218
-3.114778	ANY	-0.08720811
-3.415808	ANYONE	-0.08754206
-3.415808	ANYTHING	-0.08452728
-3.415808	ANYWAY	-0.04126499
-3.415808	APPEAR	-0.08754206
-3.415808	APPOINTMENTS	-0.04126499
-2.415808	ARE	-0.1085399
-3.415808	ARMY	-0.04126499
-2.716838	AROUND	-0.1487259
-3.114778	AS	-0.08047473
-2.301864	AT	-0.105742
-3.415808	AUDITING	-0.08787575
-3.415808	AUNT	-0.08754206
-3.114778	AWAY	-0.08368611
-2.637656	BACK	-0.2168329
-3.415808	BAD	-0.08787575
-3.415808	BADLY	-0.04126499
-3.114778	BANK	-0.07208148
-2.938686	BASED	-0.2374787
-3.415808	BASEMENT	-0.08284331
-3.415808	BASICALLY	-0.08553454
-3.415808	BATH	-0.07242726
-3.415808	BATTLE	-0.08787575
-2.185359	BE	-0.07644822
-3.415808	BEACH	-0.04126499
-3.415808	BEAVERS	-0.04126499
-2.415808	BECAUSE	-0.3561819
-3.415808	BED	-0.08787575
-3.114778	BEEN	-0.08536682
-3.114778	BEFORE	-0.02730298
-2.716838	BEING	-0.2655584
-3.415808	BELONGS	-0.04126499
-3.114778	BETWEEN	-0.3434357
-3.114778	BEYOND	-0.03547058
-2.716838	BIG	-0.08720811
-3.415808	BIKE	-0.04126499
-3.415808	BILLY	-0.08787575
-3.415808	BIRTHDAY	-0.08770894
-3.415808	BIT	-0.08419101
-3.415808	BLAST	-0.08081389
-3.415808	BOOK	-0.08553454
-3.415808	BORING	-0.08787575
-3.415808	BORN	-0.07242726
-3.415808	BOTHER	-0.04126499
-3.415808	BRASS	-0.08787575
-3.415808	BRING	-0.08737512
-2.938686	BUNCH	-0.4839891
-3.114778	BUSY	-0.08284331
-2.05408	BUT	-0.08893731
-3.415808	BUYING	-0.08754206
-3.114778	CALLED	-0.08586977
-2.512718	CAN	-0.02978849
-3.415808	CAN'T	-0.08284331
-3.415808	CANADA	-0.08737512
-3.415808	CAROLINA	-0.08670672
-2.938686	CASH	-0.07156232
-3.415808	CATCH	-0.08670672
-2.813748	CAUSE	-0.06738635
-3.415808	CENTERVILLE	-0.08787575
-3.415808	CENTRAL	-0.08603729
-3.415808	CHAUFFEUR	-0.08770894
-3.415808	CLASS	-0.04126499
-3.415808	CLASSES	-0.07242726
-3.415808	CLEANED	-0.08670672
-2.938686	COLLEGE	-0.1830528
-3.114778	COME	-0.08250573
-3.114778	COMING	-0.08687392
-3.415808	COMMERCIAL	-0.08081389
-3.415808	COMMITTED	-0.08787575
-3.415808	COMMUNITY	-0.08754206
-3.415808	COMPANIES	-0.08284331
-3.415808	COMPLETELY	-0.08687392
-3.415808	COMPUTER	-0.08787575
-3.415808	COMPUTERS	-0.07826371
-3.114778	CONE	-0.3091737
-3.415808	CONTRACTORS	-0.07242726
-3.415808	COOL	-0.04126499
-3.415808	COUCH	-0.08704105
-2.813748	COULD	-0.07877494
-3.114778	COULDN'T	-0.08704105
-3.114778	COUPLE	-0.08687392
-3.415808	COURSE	-0.08402278
-3.415808	CRAZY	-0.04126499
-3.415808	CREDIT	-0.08787575
-3.415808	CREEK	-0.04126499
-3.415808	CRYSTAL	-0.04126499
-3.415808	CUFF	-0.08166064
-3.415808	CURRENTLY	-0.08586977
-3.415808	DAD'S	-0.08754206
-3.415808	DATE	-0.08419101
-3.415808	DAUGHTER	-0.04126499
-3.114778	DAY	-0.03865773
-2.637656	DAYS	-0.09269668
-3.415808	DEAL	-0.08452728
-3.415808	DEALING	-0.08653945
-3.415808	DECIDE	-0.08486329
-3.415808	DECIDED	-0.08553454
-2.938686	DEFINITELY	-0.02672739
-3.415808	DELTA	-0.08754206
-3.415808	DEPARTMENT	-0.04126499
-3.415808	DEPRESSANTS	-0.08637213
-2.938686	DEPRESSED	-0.04033564
-2.938686	DEPRESSION	-0.07535531
-2.813748	DETROIT	-0.154137
-2.938686	DID	-0.07449616
-3.114778	DIDN'T	-0.08770894
-3.415808	DIED	-0.07242726
-3.415808	DIFFERENCE	-0.08770894
-3.114778	DIFFERENT	-0.08737512
-3.415808	DIRT	-0.08770894
-3.114778	DISABILITY	-0.3091737
-3.415808	DISEASE	-0.08787575
-3.415808	DNA	-0.08787575
-2.57071	DO	-0.08392482
-3.415808	DOCTORS	-0.08787575
-3.415808	DOES	-0.04126499
-3.415808	DOESN'T	-0.08787575
-3.415808	DOG	-0.07242726
-2.938686	DOING	-0.07086911
-3.415808	DOLLARS	-0.07996549
-2.26968	DON'T	-0.2783155
-3.415808	DONAVAN	-0.04126499
-2.716838	DOWN	-0.1176061
-3.114778	DOWNTOWN	-0.08704105
-2.938686	DRAINS	-0.0720815
-3.114778	DRIVE	-0.08603729
-3.114778	DRIVING	-0.08653945
-3.415808	DROVE	-0.08670672
-3.415808	DRUG	-0.07242726
-3.415808	EACH	-0.04126499
-2.938686	EIGHT	-0.08503121
-3.114778	ELEMENTARY	-0.07208148
-3.415808	ELSE	-0.08754206
-3.415808	EM	-0.08419101
-3.415808	EMBARRASSING	-0.04126499
-3.415808	EMPTIED	-0.08570218
-3.415808	ENDED	-0.08670672
-3.114778	ENOUGH	-0.07069562
-3.415808	EQUITY	-0.08553454
-3.415808	ERR	-0.08754206
-3.415808	ERUPTED	-0.08653945
-2.813748	EVEN	-0.1996526
-3.415808	EVER	-0.08787575
-3.114778	EVERY	-0.08720811
-3.415808	EVERYBODY	-0.08452728
-3.415808	EVERYONE	-0.08787575
-3.114778	EVERYTHING	-0.07689747
-3.415808	EVERYWHERE	-0.08419101
-3.415808	EVICT	-0.08787575
-3.415808	EXACT	-0.08787575
-2.813748	EXACTLY	-0.3378893
-3.415808	EXCITED	-0.04126499
-3.415808	EXCITING	-0.04126499
-3.415808	EXERCISE	-0.04126499
-3.415808	FACILITY	-0.04126499
-3.415808	FAIRLY	-0.08787575
-3.415808	FALLING	-0.08704105
-3.415808	FALLS	-0.08787575
-2.938686	FAMILY	-0.02014998
-3.415808	FAN	-0.08787575
-3.415808	FANCY	-0.08787575
-3.415808	FARM	-0.08402278
-3.415808	FEEL	-0.08284331
-3.415808	FEES	-0.08754206
-3.114778	FESTIVAL	-0.07034846
-3.415808	FIELD	-0.07996549
-3.415808	FIFTY	-0.08720811
-3.415808	FIND	-0.08787575
-3.415808	FIREWORKS	-0.07242726
-2.938686	FIRST	-0.08385449
-3.415808	FISHING	-0.08770894
-3.415808	FIVE	-0.04126499
-3.415808	FIX	-0.08081389
-2.938686	FLORIDA	-0.03093088
-3.415808	FOOD	-0.08720811
-2.26968	FOR	-0.1335459
-3.415808	FORGOT	-0.08284331
-3.415808	FORMULA	-0.07242726
-3.415808	FORMULATE	-0.07552692
-3.415808	FORT	-0.08787575
-3.415808	FORTY	-0.04126499
-3.415808	FOUND	-0.08670672
-3.415808	FOUR	-0.08704105
-3.415808	FRESHMAN	-0.08402278
-3.114778	FRIDAY	-0.07294541
-3.114778	FRIENDS	-0.03903115
-2.336627	FROM	-0.2581143
-2.637656	FUN	-0.1817753
-3.415808	FUNCTIONAL	-0.08787575
-3.415808	GAME	-0.04126499
-3.415808	GARAGE	-0.08787575
-3.415808	GAY	-0.08787575
-3.415808	GENE	-0.04126499
-2.301864	GET	-0.1846113
-3.415808	GETS	-0.08787575
-2.938686	GETTING	-0.2342268
-3.415808	GIFTS	-0.04126499
-3.415808	GIRLS	-0.04126499
-3.114778	GIVE	-0.07449615
-3.415808	GIVING	-0.08737512
-2.57071	GO	-0.07052209
-3.415808	GOES	-0.04126499
-2.461565	GOING	-1.031653
-3.114778	GOLF	-0.04107928
-3.415808	GONE	-0.08670672
-2.637656	GOOD	-0.193716
-2.57071	GOT	-0.124771
-3.415808	GRADUATING	-0.08720811
-3.415808	GRAHAM	-0.04126499
-3.415808	GRAND	-0.04126499
-2.813748	GREAT	-0.03996331
-3.415808	GROWN	-0.07996549
-3.415808	GUYS	-0.08787575
-2.336627	HAD	-0.2610315
-3.114778	HALF	-0.08519904
-3.415808	HANDICAP	-0.08787575
-3.415808	HAPPENS	-0.08737512
-3.415808	HAPPY	-0.04126499
-3.114778	HARD	-0.07945566
-3.415808	HAS	-0.07552692
-2.093588	HAVE	-0.2518665
-3.114778	HAVING	-0.3434357
-3.114778	HD	-0.02383784
-2.336627	HE	-0.1540125
-3.114778	HE'LL	-0.3531078
-2.716838	HE'S	-0.1515598
-3.415808	HELP	-0.07242726
-3.415808	HELPFUL	-0.04126499
-3.114778	HER	-0.08704105
-2.938686	HERE	-0.2001085
-3.415808	HIGH	-0.08770894
-3.415808	HILLS	-0.04126499
-3.415808	HIRE	-0.08770894
-2.938686	HISTORY	-0.1965632
-3.114778	HOLIDAY	-0.07979562
-3.415808	HOLIDAYS	-0.08570218
-3.415808	HOME	-0.08787575
-3.114778	HOPEFULLY	-0.07792256
-3.415808	HOSE	-0.07242726
-3.415808	HOT	-0.04126499
-3.114778	HOUR	-0.04089348
-3.415808	HOURS	-0.07552692
-2.716838	HOUSE	-0.09447481
-3.415808	HOUSES	-0.08787575
-3.415808	HOW	-0.07996549
-3.415808	HOWEVER	-0.04126499
-3.415808	HUNDRED	-0.04126499
-3.415808	HURRICANE	-0.04126499
-3.415808	HUSBAND	-0.08536682
-1.476288	I	-0.3971738
-3.415808	I'D	-0.08787575
-2.938686	I'LL	-0.2432377
-2.05408	I'M	-0.1539818
-3.114778	I'VE	-0.3556177
-3.114778	IDEA	-0.03977704
-2.512718	IF	-0.1478016
-3.415808	IMMEDIATELY	-0.08704105
-2.035596	IN	-0.07262103
-3.415808	INAUDIBLE	-0.04126499
-3.415808	INCH	-0.08419101
-3.114778	INCOME	-0.3532756
-3.415808	INDIVIDUAL	-0.04126499
-3.415808	INHERITANCE	-0.07242726
-3.114778	INSIDE	-0.06228627
-3.415808	INSTRUMENTS	-0.04126499
-3.415808	INTO	-0.08787575
-3.415808	INVITED	-0.08704105
-2.211688	IS	-0.0420936
-3.415808	ISN'T	-0.08787575
-3.415808	ISSUE	-0.08787575
-2.938686	ISSUES	-0.2295634
-1.782339	IT	-0.2076367
-3.415808	IT'LL	-0.08519904
-1.836024	IT'S	-0.1583461
-3.114778	ITS	-0.08737512
-3.114778	JAZZ	-0.3556177
-3.114778	JEFF	-0.3556177
-3.415808	JEWISH	-0.07826371
-3.415808	JOANNE'S	-0.07242726
-3.415808	JOB	-0.08284331
-3.114778	JUNE	-0.04070761
-3.415808	JUNIOR	-0.04126499
-2.211688	JUST	-0.03790991
-3.415808	KIDS	-0.07242726
-2.938686	KIND	-0.4839891
-3.415808	KINDA	-0.08787575
-2.05408	KNOW	-0.07501522
-3.415808	LADY	-0.04126499
-2.938686	LAKE	-0.04052167
-3.114778	LANDLORD	-0.3495694
-2.938686	LAST	-0.08704107
-3.415808	LAUDERDALE'S	-0.08452728
-3.415808	LAWS'	-0.08787575
-3.415808	LEAGUE	-0.08402278
-3.415808	LECTURE	-0.07242726
-3.415808	LEFT	-0.08670672
-3.415808	LEGAL	-0.08787575
-3.415808	LESS	-0.08452728
-2.093588	LIKE	-0.0665739
-3.415808	LIONS	-0.08787575
-3.415808	LIONS'	-0.08787575
-3.415808	LIST	-0.08419101
-2.938686	LITTLE	-0.08754208
-3.114778	LIVE	-0.08385447
-2.813748	LOAN	-0.083012
-3.114778	LOANS	-0.03977704
-3.415808	LOCATION	-0.0732905
-3.415808	LONG	-0.08737512
-3.415808	LOOK	-0.08586977
-3.114778	LOOKED	-0.08267456
-3.415808	LOST	-0.08754206
-3.415808	LOT	-0.08419101
-3.415808	LOTS	-0.08419101
-3.415808	LOVE	-0.08081389
-3.114778	LOVES	-0.08064435
-2.938686	MAINTENANCE	-0.2465901
-3.114778	MAKE	-0.08670672
-3.415808	MAKING	-0.08081389
-3.415808	MANGERS	-0.07242726
-2.938686	MARRIED	-0.1984327
-3.415808	MART	-0.08452728
-3.415808	MAY	-0.08452728
-3.114778	MAYBE	-0.08301201
-3.415808	MCKENZIE	-0.08770894
-2.637656	ME	-0.05730455
-3.415808	MEAN	-0.08284331
-3.415808	MEMORIAL	-0.08770894
-3.415808	MET	-0.08586977
-3.415808	MHM	-0.08368611
-2.716838	MHMM	-0.3828633
-3.114778	MIDDLE	-0.03697333
-3.114778	MIGHT	-0.3531078
-3.415808	MILES	-0.08603729
-3.415808	MILLER	-0.07242726
-3.415808	MOBILITY	-0.07242726
-3.415808	MODERATELY	-0.08787575
-2.938686	MONDAY	-0.04052167
-2.813748	MONEY	-0.0345287
-3.415808	MONTH	-0.08081389
-3.415808	MONTHS	-0.08770894
-3.114778	MORE	-0.08435918
-2.938686	MORNING	-0.2285203
-3.415808	MOST	-0.08704105
-3.415808	MOSTLY	-0.08402278
-3.415808	MOUNTAINS	-0.07996549
-3.415808	MOVE	-0.08603729
-3.415808	MOVED	-0.08402278
-3.415808	MOVIE	-0.08770894
-3.415808	MOVING	-0.08687392
-2.813748	MUCH	-0.06493171
-3.114778	MUSIC	-0.08720811
-3.415808	MUSICIAN	-0.08419101
-2.211688	MY	-0.03301746
-3.415808	NEAR	-0.08770894
-3.415808	NEAT	-0.04126499
-3.415808	NEED	-0.08115279
-3.415808	NEUROLOGIST	-0.08284331
-3.415808	NEW	-0.08787575
-2.716838	NEXT	-0.1742597
-2.938686	NICE	-0.2001085
-3.415808	NIECE	-0.08536682
-3.415808	NIECES	-0.08402278
-3.114778	NIGHT	-0.04070761
-3.415808	NINE	-0.08787575
-2.073385	NO	-0.1462988
-2.938686	NORTH	-0.03903117
-3.415808	NORTHEAST	-0.08720811
-3.415808	NORTHWEST	-0.08419101
-2.093588	NOT	-0.08194331
-3.114778	NOTHING	-0.08670672
-2.512718	NOW	-0.1011841
-3.415808	O'CLOCK	-0.08166064
-3.415808	OAK	-0.04126499
-3.415808	OCCASIONAL	-0.08787575
-3.415808	OCCASIONALLY	-0.08419101
-3.415808	OCEAN	-0.08081389
-2.05408	OF	-0.08612962
-3.415808	OFF	-0.07826371
-2.374415	OH	-0.1719346
-3.415808	OHIO	-0.08670672
-3.415808	OK	-0.04126499
-2.813748	OKAY	-0.098727
-3.114778	OLD	-0.3091737
-2.239717	ON	-0.1644538
-2.336627	ONE	-0.1754311
-3.114778	ONES	-0.07034846
-2.938686	ONLY	-0.08687393
-3.415808	ONTARIO	-0.04126499
-2.716838	OR	-0.084191
-3.415808	ORLANDO	-0.04126499
-2.813748	OTHER	-0.08402277
-3.415808	OUR	-0.08787575
-2.512718	OUT	0.003688641
-2.637656	OVER	-0.1072785
-3.114778	OVERPAID	-0.03865773
-3.114778	OVERWHELMING	-0.04089348
-2.813748	PAID	-0.3476909
-3.415808	PALM	-0.08787575
-3.415808	PANDAS	-0.04126499
-3.415808	PARENTS	-0.08787575
-3.415808	PART	-0.08452728
-3.415808	PARTNER'S	-0.07552692
-3.415808	PARTY	-0.07826371
-3.415808	PAY	-0.08284331
-3.415808	PEACEFUL	-0.08770894
-3.415808	PEOPLE	-0.04126499
-3.415808	PERHAPS	-0.08737512
-3.415808	PETE	-0.04126499
-3.415808	PETOSKEY	-0.08670672
-3.415808	PETS	-0.07242726
-3.415808	PICK	-0.08670672
-3.415808	PICTURES	-0.04126499
-3.114778	PLACE	-0.07928558
-3.415808	PLAN	-0.04126499
-3.114778	PLANNED	-0.08435918
-2.716838	PLAY	-0.03358478
-3.415808	PLAYED	-0.08653945
-3.114778	PLAYING	-0.0732905
-3.415808	PLUMBER	-0.07996549
-3.415808	POINT	-0.08737512
-3.415808	POOP	-0.07242726
-3.415808	POWER	-0.08787575
-3.415808	POWERFUL	-0.08787575
-3.415808	PRETTY	-0.08737512
-3.415808	PRINCESS	-0.04126499
-2.716838	PROBABLY	-0.04533075
-3.114778	PROBLEM	-0.08199887
-3.415808	PROFESSOR	-0.07826371
-3.415808	PROGRAMING	-0.07826371
-3.114778	PROOF	-0.03903115
-3.415808	PROPERTY	-0.08787575
-3.415808	PROPHYLACTIC	-0.08787575
-3.415808	PULLS	-0.08704105
-3.415808	PURPOSES	-0.04126499
-3.415808	PUT	-0.08704105
-3.415808	QUARTER	-0.08787575
-3.415808	QUICK	-0.08770894
-3.415808	QUICKEN	-0.08770894
-3.415808	QUIZZES	-0.08704105
-3.415808	RACE	-0.08770894
-3.415808	RAISED	-0.04126499
-3.415808	RAY	-0.08787575
-3.415808	READ	-0.04126499
-3.415808	READING	-0.07552692
-3.415808	REAL	-0.08720811
-3.114778	REALLY	-0.08737512
-3.415808	REALTOR	-0.08720811
-3.415808	REASON	-0.04126499
-3.415808	RECEPTION	-0.04126499
-3.415808	RECOMMEND	-0.08081389
-3.415808	RED	-0.08787575
-2.938686	REHEARSAL	-0.07894524
-3.415808	RELATIONSHIP	-0.08720811
-2.938686	RELATOR	-0.08132216
-3.415808	RELIGIOUS	-0.08787575
-3.415808	REMEMBER	-0.08787575
-3.415808	RESIDENTIAL	-0.04126499
-3.415808	REUPHOLSTERING	-0.08787575
-3.415808	RID	-0.08419101
-3.415808	RIDE	-0.08787575
-2.57071	RIGHT	-0.2519736
-3.415808	ROAD	-0.04126499
-3.415808	ROCHESTER	-0.08787575
-3.415808	ROTATOR	-0.08787575
-3.415808	ROYAL	-0.08787575
-3.415808	SAGINAW	-0.04126499
-2.716838	SAID	-0.2792853
-3.415808	SAINT	-0.08787575
-3.415808	SALE	-0.04126499
-3.415808	SALVATION	-0.08787575
-3.415808	SAME	-0.08787575
-3.415808	SARASOTA	-0.07826371
-2.938686	SATURDAY	-0.04033564
-3.415808	SAW	-0.08737512
-3.114778	SCHOOL	-0.02383784
-2.716838	SEE	-0.06616077
-3.415808	SEEN	-0.08284331
-2.938686	SELL	-0.2273001
-3.415808	SELLING	-0.08081389
-3.415808	SEMESTER	-0.08570218
-2.813748	SEVEN	-0.153951
-3.114778	SHE	-0.08250573
-3.114778	SHOULD	-0.08402278
-3.415808	SHOULDER	-0.08787575
-3.415808	SHOWER	-0.08570218
-3.114778	SHOWS	-0.02480315
-3.415808	SHUT	-0.08720811
-3.114778	SICK	-0.3552839
-3.415808	SILLY	-0.07242726
-3.415808	SISTERS	-0.08284331
-3.415808	SIT	-0.08570218
-3.415808	SITUATION	-0.08166064
-3.415808	SLUSH	-0.08787575
-3.415808	SMALL	-0.08787575
-1.65238	SO	-0.05805543
-2.938686	SOME	-0.08720813
-3.114778	SOMEBODY	-0.03547058
-3.415808	SOMETHING	-0.08687392
-3.415808	SOMETIME	-0.04126499
-3.415808	SORRY	-0.04126499
-3.114778	SOUTH	-0.08301201
-3.415808	STARED	-0.08586977
-3.415808	START	-0.08553454
-3.114778	STARTED	-0.07397985
-3.114778	STARTS	-0.3537785
-3.415808	STAY	-0.04126499
-3.114778	STILL	-0.08737512
-3.114778	STRESS	-0.08301201
-3.415808	STRESSFUL	-0.04126499
-3.415808	STUDY	-0.08787575
-2.813748	STUFF	-0.1357102
-3.415808	STUMBLE	-0.08787575
-3.415808	SUICIDE	-0.07826371
-3.114778	SUNDAY	-0.08368611
-3.415808	SUPPLIES	-0.07242726
-2.637656	SURE	-0.134815
-3.415808	SURGERY	-0.04126499
-3.415808	SWEET	-0.08754206
-3.415808	SYMPTOMS	-0.08284331
-3.415808	TAKE	-0.07552692
-3.415808	TALK	-0.07242726
-3.114778	TALKED	-0.3478743
-3.114778	TAMPA	-0.3091737
-3.114778	TEACH	-0.07190849
-2.938686	TEN	-0.0719085
-3.415808	TERRIBLE	-0.04126499
-2.938686	TEST	-0.0328282
-3.415808	THANK	-0.08284331
-1.924446	THAT	-0.1877455
-2.57071	THAT'S	-0.06157809
-1.546576	THE	-0.1009879
-3.114778	THEIR	-0.08720811
-2.813748	THEM	-0.03734819
-2.336627	THEN	-0.07080152
-3.415808	THERAPIST	-0.08586977
-2.26968	THERE	-0.1310484
-2.57071	THERE'S	-0.127409
-2.137054	THEY	-0.1608086
-3.114778	THEY'RE	-0.07792256
-3.114778	THING	-0.02480315
-2.938686	THINGS	-0.02209487
-2.637656	THINK	-0.0596246
-3.415808	THIRTEEN	-0.07242726
-2.716838	THIS	-0.280888
-2.938686	THOUGH	-0.07086911
-3.415808	THOUSAND	-0.08787575
-2.938686	THREE	-0.08670674
-2.938686	THROUGH	-0.06965333
-2.813748	TIME	-0.2982688
-3.415808	TIMES	-0.07552692
-1.734566	TO	-0.0779784
-3.415808	TOLD	-0.04126499
-3.415808	TOMORROW	-0.07242726
-3.114778	TONIGHT	-0.04107928
-2.813748	TOO	-0.08670671
-3.415808	TOOK	-0.08787575
-3.415808	TORE	-0.08536682
-3.415808	TORNADO	-0.04126499
-3.114778	TRACK	-0.04014951
-3.415808	TREATMENT	-0.08787575
-3.114778	TRIP	-0.07706849
-3.415808	TROUBLE	-0.08166064
-2.938686	TRUCKLOADS	-0.06791057
-3.415808	TRUST	-0.04126499
-2.938686	TRYING	-0.4797636
-3.415808	TUES	-0.08603729
-3.114778	TUESDAY	-0.07121584
-3.415808	TURNED	-0.08787575
-3.415808	TV	-0.08770894
-3.415808	TWELVE	-0.04126499
-2.57071	TWO	-0.1002793
-3.415808	TYPE	-0.08770894
-2.637656	UH	-0.0708691
-3.415808	UHH	-0.08770894
-2.374415	UM	-0.05676739
-3.114778	UMM	-0.07173543
-3.415808	UNCLE	-0.08787575
-3.415808	UNDER	-0.08536682
-3.415808	UNION	-0.08334919
-3.114778	UNPACKED	-0.08670672
-2.512718	UP	-0.010492
-3.415808	USE	-0.08536682
-3.415808	USED	-0.07996549
-3.415808	VACATIONS	-0.08704105
-3.415808	VARIETY	-0.04126499
-2.57071	VERY	-0.146615
-3.415808	VISITED	-0.08653945
-3.415808	VP	-0.08081389
-3.415808	WABATONGUSHI	-0.04126499
-3.415808	WAL	-0.08787575
-3.114778	WALK	-0.08704105
-3.415808	WALKED	-0.08720811
-3.114778	WALKING	-0.3551169
-3.415808	WANT	-0.07996549
-3.114778	WANTED	-0.3478743
-3.114778	WANTS	-0.3478743
-3.415808	WARNING	-0.04126499
-2.093588	WAS	-0.05809601
-3.415808	WASH	-0.07552692
-3.114778	WASTE	-0.0751836
-3.415808	WAWA	-0.08787575
-2.716838	WAY	-0.06668644
-1.96865	WE	-0.1550664
-3.415808	WE'LL	-0.08536682
-3.114778	WE'RE	-0.08620474
-3.415808	WE'VE	-0.08603729
-2.813748	WEDDING	-0.01897882
-2.938686	WEEK	-0.1830528
-2.512718	WEEKEND	-0.370124
-3.415808	WEIRD	-0.08787575
-2.461565	WELL	-0.1220974
-2.57071	WENT	-0.1084545
-2.57071	WERE	-0.06860851
-3.114778	WEREN'T	-0.08267456
-2.938686	WHAT	-0.08233686
-3.415808	WHATEVER	-0.08115279
-3.415808	WHEELCHAIR	-0.08787575
-2.716838	WHEN	-0.1552514
-3.415808	WHENEVER	-0.08284331
-2.512718	WHERE	-0.04274787
-3.415808	WHICH	-0.08603729
-3.114778	WHILE	-0.06843412
-3.415808	WHITMORE	-0.08754206
-2.938686	WHO	-0.08435919
-3.415808	WHOLE	-0.08754206
-3.415808	WHY	-0.08637213
-3.114778	WILL	-0.08704105
-2.461565	WITH	-0.1635552
-3.415808	WITHOUT	-0.08787575
-3.415808	WON	-0.04126499
-3.415808	WON'T	-0.08519904
-2.938686	WORK	-0.08284333
-2.716838	WORKING	-0.01878332
-3.415808	WORKS	-0.04126499
-3.415808	WOULD	-0.08687392
-3.415808	WRITING	-0.07552692
-3.415808	YA'LL	-0.08637213
-1.803024	YEAH	-0.3321868
-2.637656	YEAR	-0.2863137
-3.415808	YEARS	-0.08770894
-3.415808	YEP	-0.04126499
-2.000834	YES	-0.4011171
-2.637656	YET	-0.06532907
-1.924446	YOU	-0.2541471
-2.938686	YOU'RE	-0.08250575
-3.114778	YOUR	-0.08754206
-2.938686	YUP	-0.02902524
-3.114778	ZOO	-0.02383784

\2-grams:
-0.7363698	17 AND
-0.7363698	18 </s>
-1.213491	300 </s>
-1.213491	300 AND
-1.213491	300 WE
-0.7363698	600 MILES
-0.7363698	96 YEARS
-0.7363698	96TH BIRTHDAY
-2.376132	<s> A
-2.376132	<s> ACTUALLY
-3.161251	<s> ALL
-3.161251	<s> AN
-1.146128	<s> AND
-3.161251	<s> AROUND
-3.161251	<s> BE
-3.161251	<s> BECAUSE
-3.161251	<s> BEFORE
-3.161251	<s> BORN
-3.161251	<s> BRASS
-2.005922	<s> BUT
-3.161251	<s> BUYING
-3.161251	<s> CAUSE
-3.161251	<s> COUPLE
-3.161251	<s> DEFINITELY
-3.161251	<s> DELTA
-3.161251	<s> DOCTORS
-3.161251	<s> DOWNTOWN
-3.161251	<s> ELEMENTARY
-3.161251	<s> EVEN
-3.161251	<s> FLORIDA
-2.376132	<s> FOR
-3.161251	<s> FORT
-2.376132	<s> GOING
-3.161251	<s> GOOD
-2.376132	<s> HE
-3.161251	<s> HE'S
-3.161251	<s> HISTORY
-1.146128	<s> I
-2.368453	<s> I'M
-3.161251	<s> IF
-2.11859	<s> IN
-2.368453	<s> IT
-2.005922	<s> IT'S
-2.376132	<s> JEFF
-3.161251	<s> JUST
-3.161251	<s> MHM
-1.725912	<s> MHMM
-3.161251	<s> MILLER
-3.161251	<s> MODERATELY
-3.161251	<s> MUSIC
-2.376132	<s> MY
-3.161251	<s> NEXT
-1.3457	<s> NO
-3.161251	<s> NOTHING
-1.725912	<s> OH
-3.161251	<s> OK
-2.376132	<s> OKAY
-2.376132	<s> ONE
-3.161251	<s> OR
-3.161251	<s> OVER
-3.161251	<s> PALM
-3.161251	<s> PERHAPS
-3.161251	<s> PLAY
-3.161251	<s> PRETTY
-3.161251	<s> PROBABLY
-3.161251	<s> READ
-2.11859	<s> RIGHT
-3.161251	<s> ROTATOR
-3.161251	<s> SAINT
-3.161251	<s> SHE
-3.161251	<s> SHOULD
-1.24879	<s> SO
-3.161251	<s> SOME
-3.161251	<s> SUNDAY
-3.161251	<s> TEN
-3.161251	<s> THANK
-3.161251	<s> THAT
-2.376132	<s> THAT'S
-3.161251	<s> THE
-3.161251	<s> THEN
-3.161251	<s> THERE
-3.161251	<s> THERE'S
-1.757099	<s> THEY
-3.161251	<s> THROUGH
-3.161251	<s> TV
-3.161251	<s> TWO
-2.11859	<s> UH
-2.368453	<s> UM
-2.376132	<s> UMM
-3.161251	<s> VERY
-2.368453	<s> WE
-3.161251	<s> WE'VE
-1.757099	<s> WELL
-3.161251	<s> WENT
-3.161251	<s> WHAT
-3.161251	<s> WHEN
-3.161251	<s> WHENEVER
-3.161251	<s> WHERE
-3.161251	<s> WITH
-3.161251	<s> WORKING
-0.9777236	<s> YEAH
-1.146128	<s> YES
-1.757099	<s> YOU
-3.161251	<s> YUP
-1.0374	<unk> IN
-1.0374	<unk> THIS
-2.605602	A BAD
-1.56294	A BIG
-2.605602	A BLAST
-1.820483	A BUNCH
-2.605602	A CHAUFFEUR
-2.605602	A COMMUNITY
-2.605602	A COUPLE
-2.605602	A DAY
-2.605602	A DIFFERENT
-2.605602	A DIRT
-2.605602	A DRUG
-2.605602	A FAIRLY
-2.605602	A FISHING
-2.605602	A FUNCTIONAL
-2.605602	A GARAGE
-2.605602	A GOLF
-2.605602	A GOOD
-1.820483	A GREAT
-1.820483	A HALF
-2.605602	A HE
-2.605602	A HOUSE
-2.605602	A JUNIOR
-2.605602	A LAKE
-1.820483	A LANDLORD
-2.605602	A LECTURE
-2.605602	A LIONS
-2.605602	A LIONS'
-2.605602	A LITTLE
-1.812803	A LOAN
-2.605602	A LONG
-2.605602	A LOT
-2.605602	A MOVIE
-2.605602	A MUSICIAN
-2.605602	A NEW
-2.605602	A PLAY
-2.605602	A PROBLEM
-2.605602	A PROFESSOR
-2.605602	A PROPHYLACTIC
-2.605602	A QUARTER
-2.605602	A REAL
-1.820483	A REHEARSAL
-2.605602	A RELATIONSHIP
-2.605602	A RELATOR
-2.605602	A SALVATION
-2.605602	A SHOWER
-2.605602	A SMALL
-1.820483	A TEST
-2.605602	A THERAPIST
-2.605602	A VERY
-2.605602	A VP
-1.812803	A WEDDING
-1.820483	A WEEK
-2.605602	A WEIRD
-2.605602	A WHEELCHAIR
-2.605602	A WHOLE
-1.56294	A YEAR
-2.605602	A YOU
-1.33843	ABOUT 600
-1.33843	ABOUT LAST
-1.33843	ABOUT SELLING
-1.33843	ABOUT TEN
-0.7363698	ABSOLUTELY </s>
-0.7363698	ACCESSIBLE AND
-1.43534	ACTUALLY DOWN
-1.43534	ACTUALLY FROM
-0.6502209	ACTUALLY I
-1.43534	ACTUALLY I'M
-0.7363698	ADRIAN WHERE
-0.7363698	AFTER BEING
-0.7363698	AGAIN THEN
-1.213491	AGO BECAUSE
-1.213491	AGO BUT
-1.213491	AGO THERE
-0.7363698	ALCOHOL TREATMENT
-1.63946	ALL FROM
-1.63946	ALL INDIVIDUAL
-1.63946	ALL OUT
-0.8466608	ALL THE
-1.63946	ALL THROUGH
-1.0374	ALMOST LOST
-1.0374	ALMOST NINE
-0.7363698	ALONG THE
-1.213491	ALSO HAD
-1.213491	ALSO TRYING
-1.213491	ALSO WHEN
-0.7363698	ALWAYS FUN
-1.0374	AM A
-1.0374	AM WORKING
-1.0374	AMAZING </s>
-1.0374	AMAZING YOU
-1.33843	AN AUNT
-0.5533109	AN HOUR
-1.33843	AN OCCASIONAL
-2.700158	AND 18
-2.700158	AND </s>
-1.907359	AND A
-2.700158	AND ALCOHOL
-2.700158	AND ALL
-1.907359	AND AND
-2.700158	AND BE
-2.700158	AND BEYOND
-2.700158	AND CATCH
-2.700158	AND ENDED
-2.700158	AND EVEN
-2.700158	AND EVERYTHING
-2.700158	AND FRIDAY
-2.700158	AND GIVE
-2.700158	AND GO
-2.700158	AND GOT
-2.700158	AND HANDICAP
-1.657496	AND HE
-1.657496	AND I
-2.700158	AND I'M
-2.700158	AND IF
-2.700158	AND IT'S
-1.657496	AND JUST
-2.700158	AND LESS
-2.700158	AND LIKE
-2.700158	AND LOOK
-2.700158	AND LOOKED
-2.700158	AND MIDDLE
-2.700158	AND NOT
-2.700158	AND NOW
-2.700158	AND ONE
-2.700158	AND OUT
-2.700158	AND PLAY
-2.700158	AND PROPERTY
-2.700158	AND RAISED
-0.8846066	AND SO
-1.915039	AND STUFF
-2.700158	AND TEACH
-1.296005	AND THE
-2.700158	AND THEIR
-1.907359	AND THEN
-1.907359	AND THEY
-2.700158	AND TRUCKLOADS
-2.700158	AND TWELVE
-2.700158	AND UH
-1.915039	AND UM
-2.700158	AND VISITED
-2.700158	AND WAL
-2.700158	AND WALK
-2.700158	AND WE
-2.700158	AND WHATEVER
-2.700158	AND WHEN
-2.700158	AND WHITMORE
-1.915039	AND YOU
-2.700158	AND YOUR
-0.7363698	ANIMALS WERE
-0.7363698	ANOTHER REHEARSAL
-0.7363698	ANTI DEPRESSANTS
-0.7363698	ANTICIPATING MOVING
-0.7363698	ANTIDEPRESSANTS FOR
-1.0374	ANY IDEA
-1.0374	ANY WORK
-0.7363698	ANYONE WHO
-0.7363698	ANYTHING LIKE
-0.7363698	ANYWAY </s>
-0.7363698	APPEAR DEPRESSED
-0.7363698	APPOINTMENTS </s>
-1.73637	ARE 17
-0.9512509	ARE </s>
-1.73637	ARE ALL
-1.73637	ARE ALSO
-1.73637	ARE GOING
-1.73637	ARE IT'S
-0.9512509	ARE LIKE
-1.73637	ARE YOU
-0.7363698	ARMY </s>
-1.43534	AROUND JOANNE'S
-1.43534	AROUND SO
-0.6502209	AROUND THE
-1.43534	AROUND WE
-1.0374	AS IT
-1.0374	AS OVERWHELMING
-1.065194	AT A
-1.850313	AT ALL
-1.850313	AT ALMOST
-1.850313	AT BED
-1.850313	AT EIGHT
-1.850313	AT FIRST
-1.850313	AT LIKE
-1.850313	AT QUICKEN
-1.850313	AT SO
-1.065194	AT THE
-1.850313	AT YOU
-0.7363698	AUDITING DEPARTMENT
-0.7363698	AUNT WHO
-1.0374	AWAY FOR
-1.0374	AWAY FROM
-0.4718592	BACK AND
-1.514521	BACK GET
-1.514521	BACK PLAYING
-1.514521	BACK TO
-0.7363698	BAD LOCATION
-0.7363698	BADLY </s>
-1.0374	BANK AND
-1.0374	BANK BEYOND
-0.4283721	BASED IT
-1.213491	BASED ON
-0.7363698	BASEMENT YOU
-0.7363698	BASICALLY ON
-0.7363698	BATH AND
-0.7363698	BATTLE CREEK
-1.966819	BE A
-1.966819	BE COMMERCIAL
-1.966819	BE DEALING
-1.966819	BE EMBARRASSING
-1.966819	BE GOOD
-1.966819	BE GRADUATING
-1.966819	BE HAPPY
-1.1817	BE IN
-1.966819	BE IT
-1.966819	BE ONE
-1.966819	BE RESIDENTIAL
-1.966819	BE SILLY
-1.966819	BE STARED
-1.966819	BE UHH
-1.966819	BE VERY
-1.966819	BE YOU
-0.7363698	BEACH </s>
-0.7363698	BEAVERS </s>
-1.73637	BECAUSE FOR
-0.30103	BECAUSE I
-1.73637	BECAUSE I'VE
-1.73637	BECAUSE IT
-1.73637	BECAUSE MY
-1.73637	BECAUSE WE
-0.7363698	BED BATH
-1.0374	BEEN ON
-1.0374	BEEN TOLD
-1.0374	BEFORE </s>
-1.0374	BEFORE THE
-0.392678	BEING A
-1.43534	BEING AWAY
-1.43534	BEING IN
-0.7363698	BELONGS </s>
-0.2522809	BETWEEN THE
-1.0374	BEYOND </s>
-1.0374	BEYOND THAT
-1.43534	BIG DEAL
-1.43534	BIG DIFFERENCE
-1.43534	BIG FANCY
-1.43534	BIG PARTY
-1.43534	BIG WARNING
-0.7363698	BIKE </s>
-0.7363698	BILLY GRAHAM
-0.7363698	BIRTHDAY WHILE
-0.7363698	BIT OF
-0.7363698	BLAST IT
-0.7363698	BOOK ON
-0.7363698	BORING HOWEVER
-0.7363698	BORN AND
-0.7363698	BOTHER </s>
-0.7363698	BRASS INSTRUMENTS
-0.7363698	BRING THEM
-0.1708292	BUNCH OF
-1.0374	BUSY I'M
-1.0374	BUSY WEEKEND
-1.055436	BUT </s>
-2.098098	BUT AND
-2.098098	BUT BUT
-1.312979	BUT I
-1.312979	BUT IF
-2.098098	BUT IT'LL
-1.312979	BUT IT'S
-2.098098	BUT NOT
-2.098098	BUT NOW
-2.098098	BUT SUNDAY
-2.098098	BUT THE
-2.098098	BUT THEN
-2.098098	BUT THERE
-2.098098	BUT THERE'S
-1.312979	BUT WE
-1.312979	BUT YEAH
-0.7363698	BUYING THINGS
-1.0374	CALLED ONE
-1.0374	CALLED WABATONGUSHI
-1.63946	CAN </s>
-1.63946	CAN BE
-1.63946	CAN GET
-1.63946	CAN HAVE
-1.63946	CAN PAY
-1.63946	CAN SEE
-1.63946	CAN SELL
-1.63946	CAN SIT
-0.7363698	CAN'T YOU
-0.7363698	CANADA ABOUT
-0.7363698	CAROLINA CAN
-1.213491	CASH A
-1.213491	CASH FOR
-1.213491	CASH WITH
-0.7363698	CATCH UP
-1.33843	CAUSE ABOUT
-1.33843	CAUSE I
-1.33843	CAUSE OF
-1.33843	CAUSE THAT'S
-0.7363698	CENTERVILLE BRING
-0.7363698	CENTRAL FROM
-0.7363698	CHAUFFEUR WE'RE
-0.7363698	CLASS </s>
-0.7363698	CLASSES AND
-0.7363698	CLEANED OUT
-0.4283721	COLLEGE </s>
-1.213491	COLLEGE AND
-1.0374	COME IN
-1.0374	COME WITH
-1.0374	COMING BACK
-1.0374	COMING HOME
-0.7363698	COMMERCIAL IT
-0.7363698	COMMITTED SUICIDE
-0.7363698	COMMUNITY COLLEGE
-0.7363698	COMPANIES THAT
-0.7363698	COMPLETELY GOT
-0.7363698	COMPUTER PROGRAMING
-0.7363698	COMPUTERS SO
-0.2522809	CONE </s>
-0.7363698	CONTRACTORS AND
-0.7363698	COOL </s>
-0.7363698	COUCH OVER
-1.33843	COULD BE
-1.33843	COULD BUT
-1.33843	COULD GET
-1.33843	COULD GIVE
-1.0374	COULDN'T FIND
-1.0374	COULDN'T SEE
-1.0374	COUPLE DAYS
-1.0374	COUPLE TIMES
-0.7363698	COURSE IN
-0.7363698	CRAZY </s>
-0.7363698	CREDIT UNION
-0.7363698	CREEK </s>
-0.7363698	CRYSTAL </s>
-0.7363698	CUFF IT'S
-0.7363698	CURRENTLY AT
-0.7363698	DAD'S HISTORY
-0.7363698	DATE BUT
-0.7363698	DAUGHTER </s>
-1.0374	DAY </s>
-1.0374	DAY FOR
-0.7294021	DAYS </s>
-1.514521	DAYS ON
-1.514521	DAYS OVER
-1.514521	DAYS SO
-1.514521	DAYS YOU
-0.7363698	DEAL LIKE
-0.7363698	DEALING WITH
-0.7363698	DECIDE THEY
-0.7363698	DECIDED ON
-1.213491	DEFINITELY </s>
-1.213491	DEFINITELY A
-1.213491	DEFINITELY NICE
-0.7363698	DELTA COLLEGE
-0.7363698	DEPARTMENT </s>
-0.7363698	DEPRESSANTS BECAUSE
-1.213491	DEPRESSED </s>
-1.213491	DEPRESSED CAUSE
-1.213491	DEPRESSED DOESN'T
-1.213491	DEPRESSION IS
-1.213491	DEPRESSION PART
-1.213491	DEPRESSION SO
-1.33843	DETROIT </s>
-0.5533109	DETROIT JAZZ
-1.33843	DETROIT ZOO
-1.213491	DID NOT
-1.213491	DID WE
-1.213491	DID YOU
-1.0374	DIDN'T FEEL
-1.0374	DIDN'T SORRY
-0.7363698	DIED AND
-0.7363698	DIFFERENCE BETWEEN
-1.0374	DIFFERENT BOOK
-1.0374	DIFFERENT THINGS
-0.7363698	DIRT TRACK
-0.2522809	DISABILITY </s>
-0.7363698	DISEASE WORKS
-0.7363698	DNA STUDY
-1.581468	DO </s>
-1.581468	DO ANY
-0.7963489	DO LIKE
-1.581468	DO MY
-1.581468	DO SO
-1.581468	DO STUMBLE
-0.7363698	DOCTORS APPOINTMENTS
-0.7363698	DOES </s>
-0.7363698	DOESN'T MEAN
-0.7363698	DOG AND
-1.213491	DOING I'M
-1.213491	DOING OKAY
-1.213491	DOING THE
-0.7363698	DOLLARS TO
-1.882498	DON'T APPEAR
-1.882498	DON'T EVEN
-1.882498	DON'T HAVE
-0.4783455	DON'T KNOW
-1.097379	DON'T LIKE
-1.882498	DON'T REMEMBER
-1.882498	DON'T SELL
-1.882498	DON'T THERE
-0.7363698	DONAVAN </s>
-1.43534	DOWN </s>
-1.43534	DOWN SOUTH
-1.43534	DOWN THERE
-0.6502209	DOWN TO
-1.0374	DOWNTOWN <unk>
-1.0374	DOWNTOWN DETROIT
-1.213491	DRAINS AND
-1.213491	DRAINS CLEANED
-1.213491	DRAINS ERUPTED
-1.0374	DRIVE DOWN
-1.0374	DRIVE RIGHT
-1.0374	DRIVING IMMEDIATELY
-1.0374	DRIVING UP
-0.7363698	DROVE ALL
-0.7363698	DRUG AND
-0.7363698	EACH </s>
-1.213491	EIGHT DAYS
-1.213491	EIGHT FORTY
-1.213491	EIGHT OH
-1.0374	ELEMENTARY AND
-1.0374	ELEMENTARY STARTS
-0.7363698	ELSE DID
-0.7363698	EM BUT
-0.7363698	EMBARRASSING </s>
-0.7363698	EMPTIED FOR
-0.7363698	ENDED UP
-1.0374	ENOUGH AND
-1.0374	ENOUGH BECAUSE
-0.7363698	EQUITY ON
-0.7363698	ERR TEST
-0.7363698	ERUPTED WITH
-1.33843	EVEN BOTHER
-1.33843	EVEN IF
-0.5533109	EVEN THOUGH
-0.7363698	EVER SEEN
-1.0374	EVERY OTHER
-1.0374	EVERY PLAN
-0.7363698	EVERYBODY WAS
-0.7363698	EVERYONE HAS
-1.0374	EVERYTHING SO
-1.0374	EVERYTHING WHERE
-0.7363698	EVERYWHERE BUT
-0.7363698	EVICT PRINCESS
-0.7363698	EXACT SYMPTOMS
-1.33843	EXACTLY SO
-0.2957679	EXACTLY SURE
-0.7363698	EXCITED </s>
-0.7363698	EXCITING </s>
-0.7363698	EXERCISE </s>
-0.7363698	FACILITY </s>
-0.7363698	FAIRLY QUICK
-0.7363698	FALLING OVER
-0.7363698	FALLS UNDER
-1.213491	FAMILY </s>
-1.213491	FAMILY AND
-1.213491	FAMILY THEY
-0.7363698	FAN ISN'T
-0.7363698	FANCY HOUSES
-0.7363698	FARM IN
-0.7363698	FEEL THAT
-0.7363698	FEES TRYING
-1.0374	FESTIVAL AND
-1.0374	FESTIVAL THEN
-0.7363698	FIELD TO
-0.7363698	FIFTY OR
-0.7363698	FIND ANYONE
-0.7363698	FIREWORKS AND
-1.213491	FIRST BUT
-1.213491	FIRST FOUND
-1.213491	FIRST MOVED
-0.7363698	FISHING TRIP
-0.7363698	FIVE </s>
-0.7363698	FIX IT
-1.213491	FLORIDA </s>
-1.213491	FLORIDA TO
-1.213491	FLORIDA WERE
-0.7363698	FOOD OR
-1.097379	FOR A
-1.882498	FOR EIGHT
-1.882498	FOR IT
-1.882498	FOR MY
-1.882498	FOR NO
-1.882498	FOR ONE
-1.882498	FOR PEOPLE
-1.882498	FOR THAT
-1.097379	FOR THE
-1.097379	FOR THIS
-1.882498	FOR TUESDAY
-0.7363698	FORGOT THAT
-0.7363698	FORMULA AND
-0.7363698	FORMULATE A
-0.7363698	FORT LAUDERDALE'S
-0.7363698	FORTY </s>
-0.7363698	FOUND OUT
-0.7363698	FOUR DAYS
-0.7363698	FRESHMAN IN
-1.0374	FRIDAY FRIDAY
-1.0374	FRIDAY I
-1.0374	FRIENDS </s>
-1.0374	FRIENDS FROM
-1.815551	FROM </s>
-1.815551	FROM CENTERVILLE
-1.815551	FROM DOWN
-1.815551	FROM HAVING
-1.815551	FROM HERE
-0.3802112	FROM THE
-1.815551	FROM WHAT
-1.815551	FROM WORK
-0.4718592	FUN </s>
-1.514521	FUN TO
-1.514521	FUN WHEN
-1.514521	FUN YES
-0.7363698	FUNCTIONAL COURSE
-0.7363698	GAME </s>
-0.7363698	GARAGE SALE
-0.7363698	GAY CENTRAL
-0.7363698	GENE </s>
-1.065194	GET 300
-0.8076513	GET A
-1.850313	GET ALL
-1.850313	GET BACK
-1.850313	GET I
-1.850313	GET LOANS
-1.850313	GET SICK
-1.065194	GET THE
-1.850313	GET UP
-0.7363698	GETS CRAZY
-1.213491	GETTING A
-0.4283721	GETTING MARRIED
-0.7363698	GIFTS </s>
-0.7363698	GIRLS </s>
-1.0374	GIVE A
-1.0374	GIVE ME
-0.7363698	GIVING SEVEN
-1.581468	GO ACTUALLY
-1.581468	GO BACK
-1.581468	GO BUT
-1.581468	GO INTO
-1.581468	GO THERE
-1.581468	GO TO
-1.581468	GO YET
-0.7363698	GOES </s>
-1.690612	GOING ON
-0.05115252	GOING TO
-1.0374	GOLF </s>
-1.0374	GOLF LEAGUE
-0.7363698	GONE NOW
-0.4718592	GOOD </s>
-1.514521	GOOD I'D
-1.514521	GOOD ONE
-1.514521	GOOD THOUGH
-1.581468	GOT A
-1.581468	GOT MARRIED
-1.581468	GOT ON
-1.581468	GOT RID
-0.7963489	GOT TO
-1.581468	GOT UNPACKED
-0.7363698	GRADUATING NEXT
-0.7363698	GRAHAM </s>
-0.7363698	GRAND </s>
-1.33843	GREAT </s>
-1.33843	GREAT FIELD
-1.33843	GREAT SCHOOL
-1.33843	GREAT TIME
-0.7363698	GROWN TO
-0.7363698	GUYS EVER
-0.4113987	HAD A
-1.815551	HAD EM
-1.815551	HAD HER
-1.815551	HAD MONEY
-1.815551	HAD SHOULDER
-1.815551	HAD TALKED
-1.815551	HAD TO
-1.0374	HALF AGO
-1.0374	HALF THERE
-0.7363698	HANDICAP ACCESSIBLE
-0.7363698	HAPPENS CAUSE
-0.7363698	HAPPY </s>
-1.0374	HARD GETTING
-1.0374	HARD TO
-0.7363698	HAS THE
-0.6544368	HAVE A
-2.058589	HAVE ANOTHER
-2.058589	HAVE ANY
-2.058589	HAVE HELP
-2.058589	HAVE MY
-2.058589	HAVE NO
-2.058589	HAVE PLANNED
-1.27347	HAVE PROOF
-1.27347	HAVE THE
-2.058589	HAVE THEM
-1.015927	HAVE TO
-2.058589	HAVE TWO
-0.2522809	HAVING THE
-1.0374	HD </s>
-1.0374	HD AND
-1.815551	HE COMMITTED
-1.815551	HE DOES
-1.815551	HE JUST
-1.030432	HE LOVES
-1.815551	HE PULLS
-1.815551	HE SAID
-1.815551	HE USED
-1.815551	HE WANTED
-1.030432	HE WANTS
-1.815551	HE WENT
-0.2522809	HE'LL BE
-1.43534	HE'S A
-1.43534	HE'S IT
-0.6502209	HE'S NOT
-1.43534	HE'S VERY
-0.7363698	HELP AND
-0.7363698	HELPFUL </s>
-1.0374	HER 96TH
-1.0374	HER BEING
-0.4283721	HERE </s>
-1.213491	HERE WHILE
-0.7363698	HIGH SCHOOL
-0.7363698	HILLS </s>
-0.7363698	HIRE SOMEBODY
-0.4283721	HISTORY </s>
-1.213491	HISTORY NOT
-1.0374	HOLIDAY LEFT
-1.0374	HOLIDAY TO
-0.7363698	HOLIDAYS DON'T
-0.7363698	HOME AFTER
-1.0374	HOPEFULLY HOPEFULLY
-1.0374	HOPEFULLY SO
-0.7363698	HOSE AND
-0.7363698	HOT </s>
-1.0374	HOUR </s>
-1.0374	HOUR SOUTH
-0.7363698	HOURS A
-0.6502209	HOUSE </s>
-1.43534	HOUSE ALSO
-1.43534	HOUSE AND
-1.43534	HOUSE I
-0.7363698	HOUSES ALONG
-0.7363698	HOW TO
-0.7363698	HOWEVER </s>
-0.7363698	HUNDRED </s>
-0.7363698	HURRICANE </s>
-0.7363698	HUSBAND IS
-1.89077	I AM
-2.675889	I CALLED
-1.240549	I CAN
-2.675889	I CAN'T
-2.675889	I COULDN'T
-2.675889	I DIDN'T
-1.633227	I DO
-0.860338	I DON'T
-2.675889	I DRIVE
-1.89077	I FIRST
-2.675889	I FORGOT
-1.88309	I GET
-2.675889	I GOT
-1.633227	I HAD
-0.763428	I HAVE
-2.675889	I I
-1.89077	I JUST
-1.52056	I KNOW
-1.89077	I LIKE
-2.675889	I LOVE
-2.675889	I MAYBE
-2.675889	I NEED
-2.675889	I OVERPAID
-1.633227	I PAID
-2.675889	I START
-2.675889	I STARTED
-2.675889	I STILL
-2.675889	I TALKED
-2.675889	I TEACH
-1.240549	I THINK
-2.675889	I TORE
-1.89077	I WAS
-2.675889	I WASTE
-2.675889	I WORK
-0.7363698	I'D RECOMMEND
-1.213491	I'LL BE
-0.4283721	I'LL GO
-2.098098	I'M A
-2.098098	I'M CURRENTLY
-1.312979	I'M DOING
-1.312979	I'M DRIVING
-2.098098	I'M EXCITED
-2.098098	I'M GIVING
-1.055436	I'M GOING
-2.098098	I'M I'M
-2.098098	I'M NOT
-2.098098	I'M OFF
-2.098098	I'M ON
-2.098098	I'M PLAYING
-2.098098	I'M REUPHOLSTERING
-1.312979	I'M SURE
-2.098098	I'M TRYING
-2.098098	I'M UH
-2.098098	I'M WORKING
-2.098098	I'M WRITING
-0.2522809	I'VE BEEN
-1.0374	IDEA </s>
-1.0374	IDEA WHERE
-0.8466608	IF I
-1.63946	IF IF
-1.63946	IF THEY
-0.8543409	IF YOU
-0.7363698	IMMEDIATELY BACK
-1.073919	IN </s>
-1.073919	IN A
-2.116581	IN BATTLE
-2.116581	IN COLLEGE
-2.116581	IN CRYSTAL
-2.116581	IN FLORIDA
-2.116581	IN I
-2.116581	IN JUNE
-2.116581	IN LAWS'
-2.116581	IN LEGAL
-2.116581	IN NORTH
-2.116581	IN OHIO
-2.116581	IN ORLANDO
-2.116581	IN ROCHESTER
-2.116581	IN ROYAL
-2.116581	IN SAGINAW
-1.323782	IN THE
-0.7363698	INAUDIBLE </s>
-0.7363698	INCH OF
-0.2522809	INCOME IS
-0.7363698	INDIVIDUAL </s>
-0.7363698	INHERITANCE AND
-1.0374	INSIDE AND
-1.0374	INSIDE SO
-0.7363698	INSTRUMENTS </s>
-0.7363698	INTO COMPUTER
-0.7363698	INVITED ME
-1.94049	IS 96
-1.147691	IS </s>
-1.94049	IS A
-1.94049	IS AS
-1.94049	IS COMING
-1.94049	IS FRESHMAN
-1.94049	IS GETTING
-1.94049	IS IN
-1.155371	IS NOT
-1.94049	IS ONE
-1.94049	IS SO
-1.94049	IS WORKING
-0.7363698	ISN'T ALWAYS
-0.7363698	ISSUE HAPPENS
-0.4283721	ISSUES AND
-1.213491	ISSUES FROM
-1.327176	IT </s>
-2.369838	IT A
-2.369838	IT AND
-2.369838	IT AT
-2.369838	IT BASICALLY
-2.369838	IT BELONGS
-2.369838	IT BUT
-2.369838	IT COULD
-2.369838	IT FOOD
-2.369838	IT FOR
-2.369838	IT GETS
-2.369838	IT GOES
-2.369838	IT GOT
-2.369838	IT I'LL
-1.577039	IT IS
-2.369838	IT LOOKED
-1.584719	IT MIGHT
-2.369838	IT NICE
-2.369838	IT ON
-2.369838	IT SO
-2.369838	IT STARTS
-2.369838	IT UP
-0.4573772	IT WAS
-0.7363698	IT'LL BE
-1.160824	IT'S A
-2.316153	IT'S AMAZING
-2.316153	IT'S AT
-1.531034	IT'S DEFINITELY
-2.316153	IT'S FUN
-2.316153	IT'S GONE
-2.316153	IT'S GOOD
-2.316153	IT'S GREAT
-2.316153	IT'S HARD
-2.316153	IT'S I
-0.912001	IT'S IT'S
-2.316153	IT'S JUST
-1.531034	IT'S LIKE
-2.316153	IT'S MORE
-2.316153	IT'S NORTHEAST
-1.531034	IT'S NOT
-2.316153	IT'S ONLY
-2.316153	IT'S OVERWHELMING
-2.316153	IT'S TERRIBLE
-2.316153	IT'S TOO
-2.316153	IT'S TROUBLE
-1.531034	IT'S WAY
-2.316153	IT'S WITH
-1.0374	ITS HARD
-1.0374	ITS ITS
-0.2522809	JAZZ FESTIVAL
-0.2522809	JEFF CONE
-0.7363698	JEWISH SO
-0.7363698	JOANNE'S AND
-0.7363698	JOB THAT
-1.0374	JUNE </s>
-1.0374	JUNE LAST
-0.7363698	JUNIOR </s>
-1.94049	JUST BECAUSE
-1.94049	JUST CAN
-1.94049	JUST COMPLETELY
-1.94049	JUST DAYS
-1.94049	JUST FIFTY
-1.94049	JUST GET
-1.94049	JUST GOT
-1.94049	JUST HAVING
-1.94049	JUST I
-1.94049	JUST KINDA
-1.94049	JUST PLAY
-1.94049	JUST TALK
-1.94049	JUST THE
-1.94049	JUST UM
-1.94049	JUST YES
-1.94049	JUST YOU
-0.7363698	KIDS AND
-0.1708292	KIND OF
-0.7363698	KINDA PLAYED
-1.055436	KNOW </s>
-2.098098	KNOW BECAUSE
-2.098098	KNOW BEING
-2.098098	KNOW CAUSE
-2.098098	KNOW HE
-2.098098	KNOW HE'S
-2.098098	KNOW HOW
-1.055436	KNOW I
-2.098098	KNOW INAUDIBLE
-1.312979	KNOW IT'S
-2.098098	KNOW MAYBE
-2.098098	KNOW MY
-2.098098	KNOW NOT
-2.098098	KNOW OF
-2.098098	KNOW THE
-2.098098	KNOW THEY'RE
-2.098098	KNOW WHAT
-2.098098	KNOW WHEN
-0.7363698	LADY </s>
-1.213491	LAKE </s>
-1.213491	LAKE CALLED
-1.213491	LAKE DOWNTOWN
-0.2522809	LANDLORD IT'S
-1.213491	LAST JUNE
-1.213491	LAST MONTH
-1.213491	LAST WEEK
-0.7363698	LAUDERDALE'S LIKE
-0.7363698	LAWS' FARM
-0.7363698	LEAGUE IN
-0.7363698	LECTURE AND
-0.7363698	LEFT WHERE
-0.7363698	LEGAL FEES
-0.7363698	LESS LIKE
-1.015927	LIKE </s>
-1.26579	LIKE A
-2.058589	LIKE BEING
-2.058589	LIKE EIGHT
-2.058589	LIKE GAY
-1.27347	LIKE NO
-2.058589	LIKE OH
-2.058589	LIKE POWER
-2.058589	LIKE RAY
-2.058589	LIKE SHUT
-2.058589	LIKE THAT
-2.058589	LIKE THE
-2.058589	LIKE THERE
-2.058589	LIKE VARIETY
-2.058589	LIKE WHY
-0.7363698	LIONS GAME
-0.7363698	LIONS' FAN
-0.7363698	LIST OF
-1.213491	LITTLE BIT
-1.213491	LITTLE LADY
-1.213491	LITTLE NIECES
-1.0374	LIVE IN
-1.0374	LIVE NEAR
-1.33843	LOAN BASED
-1.33843	LOAN BECAUSE
-1.33843	LOAN FROM
-1.33843	LOAN OR
-1.0374	LOANS </s>
-1.0374	LOANS NOW
-0.7363698	LOCATION I
-0.7363698	LONG TIME
-0.7363698	LOOK AT
-1.0374	LOOKED AT
-1.0374	LOOKED THEY
-0.7363698	LOST LAST
-0.7363698	LOT OF
-0.7363698	LOTS OF
-0.7363698	LOVE IT
-1.0374	LOVES COMPUTERS
-1.0374	LOVES IT
-1.213491	MAINTENANCE ISSUE
-0.4283721	MAINTENANCE ISSUES
-1.0374	MAKE EVERY
-1.0374	MAKE SURE
-0.7363698	MAKING IT
-0.7363698	MANGERS AND
-0.4283721	MARRIED </s>
-1.213491	MARRIED OH
-0.7363698	MART WAS
-0.7363698	MAY NOT
-1.0374	MAYBE OVERPAID
-1.0374	MAYBE WE
-0.7363698	MCKENZIE <unk>
-1.514521	ME A
-1.514521	ME BUT
-1.514521	ME EVERYWHERE
-1.514521	ME ON
-1.514521	ME SO
-1.514521	ME THERE'S
-0.7363698	MEAN THAT
-0.7363698	MEMORIAL DAY
-0.7363698	MET AT
-0.7363698	MHM YES
-0.392678	MHMM </s>
-0.6502209	MHMM YUP
-1.0374	MIDDLE </s>
-1.0374	MIDDLE OF
-0.2522809	MIGHT BE
-0.7363698	MILES FROM
-0.7363698	MILLER AND
-0.7363698	MOBILITY AND
-0.7363698	MODERATELY STRESSFUL
-1.213491	MONDAY </s>
-1.213491	MONDAY MEMORIAL
-1.213491	MONDAY MORNING
-1.33843	MONEY </s>
-1.33843	MONEY BECAUSE
-1.33843	MONEY BEFORE
-1.33843	MONEY IN
-0.7363698	MONTH IT
-0.7363698	MONTHS OLD
-1.0374	MORE LIKE
-1.0374	MORE PEACEFUL
-0.4283721	MORNING I
-1.213491	MORNING I'M
-0.7363698	MOST FUN
-0.7363698	MOSTLY IN
-0.7363698	MOUNTAINS TO
-0.7363698	MOVE FROM
-0.7363698	MOVED IN
-0.7363698	MOVIE TONIGHT
-0.7363698	MOVING WENT
-1.33843	MUCH JUST
-1.33843	MUCH STUFF
-1.33843	MUCH THE
-1.33843	MUCH YEAH
-1.0374	MUSIC HISTORY
-1.0374	MUSIC TONIGHT
-0.7363698	MUSICIAN I'M
-1.94049	MY </s>
-1.94049	MY DAD'S
-1.94049	MY DAUGHTER
-1.94049	MY DOG
-1.94049	MY FAMILY
-1.94049	MY HUSBAND
-1.94049	MY IN
-1.94049	MY INCOME
-1.94049	MY LITTLE
-1.94049	MY MCKENZIE
-1.94049	MY NIECE
-1.94049	MY PARENTS
-1.94049	MY PARTNER'S
-1.94049	MY SICK
-1.94049	MY UNCLE
-1.94049	MY VACATIONS
-0.7363698	NEAR TAMPA
-0.7363698	NEAT </s>
-0.7363698	NEED YEAH
-0.7363698	NEUROLOGIST THAT
-0.7363698	NEW JOB
-1.43534	NEXT MAINTENANCE
-1.43534	NEXT REALTOR
-1.43534	NEXT THREE
-0.6502209	NEXT YEAR
-0.4283721	NICE </s>
-1.213491	NICE INSIDE
-0.7363698	NIECE IS
-0.7363698	NIECES IN
-1.0374	NIGHT </s>
-1.0374	NIGHT I'LL
-0.7363698	NINE O'CLOCK
-1.036131	NO </s>
-2.078792	NO ACTUALLY
-2.078792	NO FROM
-1.036131	NO I
-2.078792	NO I'M
-2.078792	NO IDEA
-2.078792	NO ISSUES
-2.078792	NO JUST
-1.293674	NO NOT
-2.078792	NO OTHER
-2.078792	NO PROBLEM
-2.078792	NO REASON
-2.078792	NO WAY
-1.036131	NO WE
-2.078792	NO WELL
-1.213491	NORTH </s>
-1.213491	NORTH CAROLINA
-1.213491	NORTH UM
-0.7363698	NORTHEAST OR
-0.7363698	NORTHWEST OF
-2.058589	NOT </s>
-2.058589	NOT A
-2.058589	NOT ANYTHING
-2.058589	NOT DEPRESSED
-1.27347	NOT ENOUGH
-1.015927	NOT EXACTLY
-1.27347	NOT I
-2.058589	NOT SOME
-1.27347	NOT THAT
-2.058589	NOT THE
-2.058589	NOT THINK
-2.058589	NOT THIS
-2.058589	NOT TOO
-2.058589	NOT UNPACKED
-2.058589	NOT WASTE
-2.058589	NOT YOU
-1.0374	NOTHING PLANNED
-1.0374	NOTHING YET
-1.63946	NOW A
-0.8543409	NOW I'M
-1.63946	NOW IT'S
-1.63946	NOW MOSTLY
-1.63946	NOW THAT
-1.63946	NOW THERE
-1.63946	NOW TO
-0.7363698	O'CLOCK IT'S
-0.7363698	OAK </s>
-0.7363698	OCCASIONAL TORNADO
-0.7363698	OCCASIONALLY BUT
-0.7363698	OCEAN IT
-2.098098	OF A
-2.098098	OF ABOUT
-2.098098	OF BEING
-2.098098	OF COMPANIES
-2.098098	OF CONTRACTORS
-2.098098	OF EACH
-2.098098	OF FUN
-2.098098	OF MONEY
-2.098098	OF MUSIC
-2.098098	OF MY
-2.098098	OF SLUSH
-2.098098	OF SOMETHING
-2.098098	OF STUFF
-2.098098	OF TAMPA
-1.055436	OF THE
-2.098098	OF THEM
-2.098098	OF THINGS
-2.098098	OF TRUCKLOADS
-2.098098	OF WANTED
-2.098098	OF WAWA
-2.098098	OF YET
-0.7363698	OFF SO
-1.777762	OH FIVE
-0.7351006	OH I
-1.777762	OH IT
-1.777762	OH NO
-1.777762	OH NOT
-1.777762	OH OKAY
-1.777762	OH WELL
-0.9926436	OH YEAH
-0.7363698	OHIO WHERE
-0.7363698	OK </s>
-0.5456308	OKAY </s>
-0.2522809	OLD </s>
-1.912461	ON A
-1.912461	ON ANTI
-1.912461	ON ANTIDEPRESSANTS
-1.912461	ON BILLY
-1.912461	ON BUT
-1.127342	ON DISABILITY
-1.912461	ON IT
-1.912461	ON MAKING
-1.912461	ON MONDAY
-1.127342	ON THAT
-0.8697992	ON THE
-1.815551	ONE BANK
-1.815551	ONE HUNDRED
-1.030432	ONE IS
-1.815551	ONE IT
-0.7728892	ONE OF
-1.815551	ONE POINT
-1.815551	ONE RELATOR
-1.815551	ONE TO
-1.815551	ONE YEAR
-1.0374	ONES BE
-1.0374	ONES I
-1.213491	ONLY ONES
-1.213491	ONLY THING
-1.213491	ONLY THREE
-0.7363698	ONTARIO </s>
-1.43534	OR GIFTS
-1.43534	OR HIRE
-1.43534	OR IF
-1.43534	OR NORTHWEST
-1.43534	OR ONE
-0.7363698	ORLANDO </s>
-1.33843	OTHER HOLIDAY
-1.33843	OTHER ONE
-1.33843	OTHER ONES
-1.33843	OTHER WEEKEND
-0.7363698	OUR COUCH
-1.63946	OUT </s>
-1.63946	OUT AND
-1.63946	OUT EVERYBODY
-1.63946	OUT OF
-1.63946	OUT THAT
-1.63946	OUT THE
-1.63946	OUT WALKING
-1.63946	OUT WERE
-1.514521	OVER IN
-0.7217221	OVER THE
-1.514521	OVER WITH
-1.0374	OVERPAID </s>
-1.0374	OVERPAID FOR
-1.0374	OVERWHELMING </s>
-1.0374	OVERWHELMING AS
-1.33843	PAID 300
-0.2957679	PAID CASH
-0.7363698	PALM BEACH
-0.7363698	PANDAS </s>
-0.7363698	PARENTS DIED
-0.7363698	PART NOT
-0.7363698	PARTNER'S A
-0.7363698	PARTY SO
-0.7363698	PAY YOU
-0.7363698	PEACEFUL INSIDE
-0.7363698	PEOPLE </s>
-0.7363698	PERHAPS AN
-0.7363698	PETE </s>
-0.7363698	PETOSKEY WHERE
-0.7363698	PETS AND
-0.7363698	PICK UP
-0.7363698	PICTURES </s>
-1.0374	PLACE NOT
-1.0374	PLACE THAT
-0.7363698	PLAN </s>
-1.0374	PLANNED IS
-1.0374	PLANNED YET
-1.43534	PLAY </s>
-1.43534	PLAY DATE
-1.43534	PLAY GOLF
-1.43534	PLAY IN
-1.43534	PLAY THERE
-0.7363698	PLAYED WITH
-1.0374	PLAYING A
-1.0374	PLAYING AT
-0.7363698	PLUMBER TO
-0.7363698	POINT SEVEN
-0.7363698	POOP AND
-0.7363698	POWER WASH
-0.7363698	POWERFUL HOSE
-0.7363698	PRETTY MUCH
-0.7363698	PRINCESS </s>
-1.43534	PROBABLY A
-1.43534	PROBABLY AND
-1.43534	PROBABLY SATURDAY
-1.43534	PROBABLY TAKE
-1.43534	PROBABLY THE
-1.0374	PROBLEM ACTUALLY
-1.0374	PROBLEM YOU
-0.7363698	PROFESSOR SO
-0.7363698	PROGRAMING SO
-1.0374	PROOF </s>
-1.0374	PROOF FROM
-0.7363698	PROPERTY MANGERS
-0.7363698	PROPHYLACTIC PURPOSES
-0.7363698	PULLS ME
-0.7363698	PURPOSES </s>
-0.7363698	PUT ME
-0.7363698	QUARTER INCH
-0.7363698	QUICK TRIP
-0.7363698	QUICKEN LOANS
-0.7363698	QUIZZES OVER
-0.7363698	RACE TRACK
-0.7363698	RAISED </s>
-0.7363698	RAY DONAVAN
-0.7363698	READ </s>
-0.7363698	READING A
-0.7363698	REAL BIG
-1.0374	REALLY NEAT
-1.0374	REALLY NICE
-0.7363698	REALTOR SAID
-0.7363698	REASON </s>
-0.7363698	RECEPTION </s>
-0.7363698	RECOMMEND IT
-0.7363698	RED PANDAS
-1.213491	REHEARSAL THAT
-1.213491	REHEARSAL THEN
-1.213491	REHEARSAL UM
-0.7363698	RELATIONSHIP HE'S
-1.213491	RELATOR ABOUT
-1.213491	RELATOR SAID
-1.213491	RELATOR THAT
-0.7363698	RELIGIOUS TYPE
-0.7363698	REMEMBER WHICH
-0.7363698	RESIDENTIAL </s>
-0.7363698	REUPHOLSTERING OUR
-0.7363698	RID OF
-0.7363698	RIDE BIKE
-0.7963489	RIGHT </s>
-1.581468	RIGHT EXACTLY
-0.538806	RIGHT NOW
-1.581468	RIGHT RIGHT
-0.7363698	ROAD </s>
-0.7363698	ROCHESTER HILLS
-0.7363698	ROTATOR CUFF
-0.7363698	ROYAL OAK
-0.7363698	SAGINAW </s>
-0.6502209	SAID OH
-0.6502209	SAID THAT
-1.43534	SAID THERE'S
-0.7363698	SAINT PETE
-0.7363698	SALE </s>
-0.7363698	SALVATION ARMY
-0.7363698	SAME EXACT
-0.7363698	SARASOTA SO
-1.213491	SATURDAY </s>
-1.213491	SATURDAY MORNING
-1.213491	SATURDAY NIGHT
-0.7363698	SAW AN
-1.0374	SCHOOL </s>
-1.0374	SCHOOL AND
-1.43534	SEE A
-1.43534	SEE FAMILY
-1.43534	SEE MY
-1.43534	SEE THAT
-1.43534	SEE THEM
-0.7363698	SEEN THAT
-0.4283721	SELL IT
-1.213491	SELL THE
-0.7363698	SELLING IT
-0.7363698	SEMESTER FOR
-1.33843	SEVEN </s>
-1.33843	SEVEN QUIZZES
-0.5533109	SEVEN SEVEN
-1.0374	SHE HAD
-1.0374	SHE WAS
-1.0374	SHOULD BE
-1.0374	SHOULD GO
-0.7363698	SHOULDER SURGERY
-0.7363698	SHOWER FOR
-1.0374	SHOWS </s>
-1.0374	SHOWS I
-0.7363698	SHUT DOWN
-0.2522809	SICK TIME
-0.7363698	SILLY AND
-0.7363698	SISTERS THAT
-0.7363698	SIT THERE
-0.7363698	SITUATION IT'S
-0.7363698	SLUSH YA'LL
-0.7363698	SMALL LIST
-1.344468	SO </s>
-2.499798	SO AN
-1.714679	SO AND
-2.499798	SO BETWEEN
-2.499798	SO BUSY
-2.499798	SO COOL
-2.499798	SO DEPRESSION
-2.499798	SO HE'LL
-2.499798	SO HE'S
-2.499798	SO HOLIDAYS
-1.706999	SO I
-2.499798	SO I'LL
-2.499798	SO I'M
-1.064458	SO IT
-1.344468	SO IT'S
-2.499798	SO ITS
-2.499798	SO MUCH
-2.499798	SO NO
-2.499798	SO NOW
-2.499798	SO THAT
-1.457136	SO THAT'S
-2.499798	SO THEN
-1.457136	SO THEY
-2.499798	SO THIS
-2.499798	SO UM
-1.706999	SO WE
-2.499798	SO WE'LL
-2.499798	SO WE'RE
-1.714679	SO YEAH
-2.499798	SO YES
-1.213491	SOME FRIENDS
-1.213491	SOME PLACE
-1.213491	SOME RELIGIOUS
-1.0374	SOMEBODY </s>
-1.0374	SOMEBODY THAT
-0.7363698	SOMETHING RIGHT
-0.7363698	SOMETIME </s>
-0.7363698	SORRY </s>
-1.0374	SOUTH DO
-1.0374	SOUTH OF
-0.7363698	STARED AT
-0.7363698	START ON
-1.0374	STARTED A
-1.0374	STARTED GOING
-0.2522809	STARTS AT
-0.7363698	STAY </s>
-1.0374	STILL MAINTENANCE
-1.0374	STILL RIDE
-1.0374	STRESS OF
-1.0374	STRESS THERE'S
-0.7363698	STRESSFUL </s>
-0.7363698	STUDY ERR
-0.5533109	STUFF </s>
-1.33843	STUFF AND
-1.33843	STUFF GOING
-0.7363698	STUMBLE OCCASIONALLY
-0.7363698	SUICIDE SO
-1.0374	SUNDAY I'M
-1.0374	SUNDAY MORNING
-0.7363698	SUPPLIES AND
-1.514521	SURE AND
-0.7294021	SURE HE
-1.514521	SURE WHERE
-1.514521	SURE YET
-1.514521	SURE YOU
-0.7363698	SURGERY </s>
-0.7363698	SWEET LITTLE
-0.7363698	SYMPTOMS YOU
-0.7363698	TAKE A
-0.7363698	TALK AND
-0.2522809	TALKED TO
-0.2522809	TAMPA </s>
-1.0374	TEACH AND
-1.0374	TEACH THREE
-1.213491	TEN AND
-1.213491	TEN DIFFERENT
-1.213491	TEN HOURS
-0.7363698	TERRIBLE </s>
-1.213491	TEST </s>
-1.213491	TEST FOR
-1.213491	TEST THAT
-0.7363698	THANK YOU
-1.18507	THAT </s>
-2.227731	THAT ARE
-2.227731	THAT BUT
-2.227731	THAT EVERYONE
-2.227731	THAT HERE
-0.5882717	THAT I
-2.227731	THAT I'M
-1.442613	THAT IS
-2.227731	THAT JUST
-2.227731	THAT LIVE
-2.227731	THAT MONDAY
-2.227731	THAT MUCH
-2.227731	THAT ON
-2.227731	THAT SHE
-1.442613	THAT THEY
-2.227731	THAT WAS
-2.227731	THAT WEREN'T
-2.227731	THAT WILL
-2.227731	THAT YEAH
-2.227731	THAT YOU'RE
-1.581468	THAT'S GOOD
-1.581468	THAT'S HOLIDAY
-1.581468	THAT'S KIND
-1.581468	THAT'S NOT
-1.581468	THAT'S THAT'S
-1.581468	THAT'S THE
-1.581468	THAT'S YEAH
-2.605602	THE ANIMALS
-2.605602	THE AUDITING
-2.605602	THE BANK
-2.605602	THE BASEMENT
-2.605602	THE BEAVERS
-2.605602	THE BIG
-2.605602	THE CREDIT
-1.820483	THE DEPRESSION
-1.56294	THE DETROIT
-2.605602	THE DISEASE
-2.605602	THE DNA
-1.56294	THE DRAINS
-2.605602	THE ELEMENTARY
-2.605602	THE EQUITY
-2.605602	THE EVEN
-2.605602	THE FAMILY
-2.605602	THE FIREWORKS
-2.605602	THE FORMULA
-2.605602	THE FOUR
-2.605602	THE GENE
-1.820483	THE HD
-1.812803	THE HOUSE
-2.605602	THE HURRICANE
-2.605602	THE I
-2.605602	THE INHERITANCE
-2.605602	THE LAKE
-2.605602	THE MAINTENANCE
-2.605602	THE MIDDLE
-2.605602	THE MOBILITY
-2.605602	THE MONEY
-2.605602	THE MOST
-2.605602	THE MOUNTAINS
-2.605602	THE NEUROLOGIST
-1.56294	THE NEXT
-2.605602	THE NIGHT
-2.605602	THE OCEAN
-1.820483	THE ONLY
-1.820483	THE OTHER
-2.605602	THE PETS
-2.605602	THE PLACE
-2.605602	THE PLUMBER
-2.605602	THE POWERFUL
-2.605602	THE RACE
-2.605602	THE RED
-2.605602	THE RELATOR
-2.605602	THE ROAD
-2.605602	THE SAME
-2.605602	THE SEMESTER
-2.605602	THE SHOWS
-2.605602	THE SO
-2.605602	THE STRESS
-2.605602	THE SUPPLIES
-2.605602	THE THE
-2.605602	THE TWO
-1.820483	THE WAY
-1.56294	THE WEEKEND
-2.605602	THE YOU
-2.605602	THE ZOO
-1.0374	THEIR JEWISH
-1.0374	THEIR MONEY
-1.33843	THEM </s>
-1.33843	THEM AT
-1.33843	THEM BACK
-1.33843	THEM EVERY
-1.815551	THEN </s>
-1.815551	THEN HIGH
-0.7728892	THEN I
-1.815551	THEN MONDAY
-1.815551	THEN PROBABLY
-1.815551	THEN THE
-1.815551	THEN TUES
-1.815551	THEN TUESDAY
-1.815551	THEN UM
-1.815551	THEN WE
-0.7363698	THERAPIST AT
-0.839836	THERE </s>
-1.882498	THERE AGAIN
-1.097379	THERE AND
-1.882498	THERE BORING
-1.882498	THERE IS
-1.882498	THERE IT
-1.882498	THERE JUST
-1.097379	THERE LIKE
-1.882498	THERE NOT
-1.882498	THERE SOMETIME
-1.581468	THERE'S A
-0.7963489	THERE'S LIKE
-1.581468	THERE'S NO
-1.581468	THERE'S PROBABLY
-1.581468	THERE'S STILL
-1.581468	THERE'S TOO
-2.015123	THEY ALMOST
-1.222324	THEY ARE
-1.230005	THEY BASED
-2.015123	THEY DECIDE
-2.015123	THEY DECIDED
-2.015123	THEY DO
-1.230005	THEY HAD
-2.015123	THEY LIVE
-2.015123	THEY SAID
-2.015123	THEY TRUST
-2.015123	THEY WANT
-1.230005	THEY WERE
-2.015123	THEY WON
-1.0374	THEY'RE AMAZING
-1.0374	THEY'RE SO
-1.0374	THING </s>
-1.0374	THING I
-1.213491	THINGS </s>
-1.213491	THINGS FOR
-1.213491	THINGS I
-1.514521	THINK AWAY
-1.514521	THINK IT
-1.514521	THINK SO
-1.514521	THINK THAT
-1.514521	THINK WE
-1.514521	THINK YOU'RE
-0.7363698	THIRTEEN AND
-1.43534	THIS CLASS
-1.43534	THIS FALLS
-0.392678	THIS WEEKEND
-1.213491	THOUGH HE
-1.213491	THOUGH HOPEFULLY
-1.213491	THOUGH I
-0.7363698	THOUSAND DOLLARS
-1.213491	THREE CLASSES
-1.213491	THREE DAYS
-1.213491	THREE MONTHS
-1.213491	THROUGH AND
-1.213491	THROUGH SOMEBODY
-1.213491	THROUGH THERE
-0.5533109	TIME </s>
-0.5533109	TIME SO
-0.7363698	TIMES A
-1.374949	TO </s>
-1.632492	TO A
-2.417611	TO ADRIAN
-1.624812	TO BE
-2.417611	TO CANADA
-1.632492	TO COME
-2.417611	TO DRIVE
-2.417611	TO EVICT
-2.417611	TO FIX
-2.417611	TO FLORIDA
-2.417611	TO FORMULATE
-1.624812	TO GET
-1.374949	TO GO
-2.417611	TO HAVE
-2.417611	TO IT
-1.632492	TO MAKE
-1.632492	TO ME
-2.417611	TO MY
-2.417611	TO PETOSKEY
-2.417611	TO PICK
-2.417611	TO PLAY
-2.417611	TO PUT
-1.374949	TO SEE
-2.417611	TO SELL
-1.624812	TO THE
-2.417611	TO TO
-2.417611	TO USE
-2.417611	TO WALK
-2.417611	TO WHO
-0.7363698	TOLD </s>
-0.7363698	TOMORROW AND
-1.0374	TONIGHT </s>
-1.0374	TONIGHT TOMORROW
-1.33843	TOO BADLY
-1.33843	TOO HOT
-1.33843	TOO MUCH
-1.33843	TOO STRESS
-0.7363698	TOOK PICTURES
-0.7363698	TORE MY
-0.7363698	TORNADO </s>
-1.0374	TRACK </s>
-1.0374	TRACK OVER
-0.7363698	TREATMENT FACILITY
-1.0374	TRIP SO
-1.0374	TRIP TWO
-0.7363698	TROUBLE IT'S
-1.213491	TRUCKLOADS AND
-1.213491	TRUCKLOADS OF
-1.213491	TRUCKLOADS TRUCKLOADS
-0.7363698	TRUST </s>
-0.1708292	TRYING TO
-0.7363698	TUES THEN
-1.0374	TUESDAY I
-1.0374	TUESDAY THEN
-0.7363698	TURNED THIRTEEN
-0.7363698	TV SHOWS
-0.7363698	TWELVE </s>
-0.7963489	TWO </s>
-1.581468	TWO GIRLS
-1.581468	TWO GRAND
-1.581468	TWO OUT
-1.581468	TWO SISTERS
-1.581468	TWO THOUSAND
-0.7363698	TYPE THING
-1.514521	UH DOING
-1.514521	UH EXERCISE
-1.514521	UH I
-1.514521	UH NOTHING
-1.514521	UH SARASOTA
-1.514521	UH VERY
-0.7363698	UHH HE'LL
-1.777762	UM BECAUSE
-1.777762	UM BUT
-1.777762	UM GOT
-1.777762	UM HE
-1.777762	UM HE'S
-1.777762	UM JUST
-1.777762	UM SATURDAY
-1.777762	UM WENT
-1.777762	UM YEAH
-1.777762	UM YES
-1.777762	UM YOU
-1.0374	UMM NO
-1.0374	UMM THE
-0.7363698	UNCLE INVITED
-0.7363698	UNDER MY
-0.7363698	UNION WE
-1.0374	UNPACKED EVERYTHING
-1.0374	UNPACKED YET
-1.63946	UP </s>
-1.63946	UP AND
-1.63946	UP BECAUSE
-1.63946	UP COMING
-1.63946	UP NORTH
-1.63946	UP SOME
-1.63946	UP TO
-1.63946	UP WALKING
-0.7363698	USE MY
-0.7363698	USED TO
-0.7363698	VACATIONS DAYS
-0.7363698	VARIETY </s>
-1.581468	VERY BUSY
-1.581468	VERY EXCITING
-1.581468	VERY GREAT
-1.581468	VERY HELPFUL
-1.581468	VERY SWEET
-0.7963489	VERY VERY
-0.7363698	VISITED WITH
-0.7363698	VP IT
-0.7363698	WABATONGUSHI </s>
-0.7363698	WAL MART
-1.0374	WALK AROUND
-1.0374	WALK WITHOUT
-0.7363698	WALKED AROUND
-0.2522809	WALKING AROUND
-0.7363698	WANT TO
-0.2522809	WANTED TO
-0.2522809	WANTS TO
-0.7363698	WARNING </s>
-1.27347	WAS </s>
-2.058589	WAS A
-2.058589	WAS AND
-2.058589	WAS EMPTIED
-1.27347	WAS FUN
-2.058589	WAS GETTING
-2.058589	WAS IT'S
-2.058589	WAS KIND
-2.058589	WAS LOTS
-2.058589	WAS ONE
-2.058589	WAS OUT
-2.058589	WAS READING
-1.27347	WAS REALLY
-2.058589	WAS THE
-2.058589	WAS TOO
-1.27347	WAS TWO
-2.058589	WAS UP
-0.7363698	WASH THE
-1.0374	WASTE A
-1.0374	WASTE THEIR
-0.7363698	WAWA ONTARIO
-1.43534	WAY IT
-1.43534	WAY MORE
-1.43534	WAY NORTH
-1.43534	WAY THE
-1.43534	WAY YOU'RE
-2.183528	WE ALSO
-1.140866	WE ARE
-2.183528	WE COULD
-2.183528	WE COULDN'T
-2.183528	WE DID
-2.183528	WE DO
-2.183528	WE DROVE
-2.183528	WE GOT
-1.390729	WE HAD
-2.183528	WE HAVE
-2.183528	WE JUST
-2.183528	WE KIND
-2.183528	WE MET
-2.183528	WE SAW
-2.183528	WE STARTED
-2.183528	WE TOOK
-2.183528	WE WALKED
-1.140866	WE WENT
-1.398409	WE WERE
-2.183528	WE WILL
-0.7363698	WE'LL JUST
-1.0374	WE'RE GOOD
-1.0374	WE'RE WORKING
-0.7363698	WE'VE HAD
-1.33843	WEDDING </s>
-1.33843	WEDDING AND
-1.33843	WEDDING IN
-1.33843	WEDDING RECEPTION
-1.213491	WEEK </s>
-0.4283721	WEEK AND
-0.2353074	WEEKEND </s>
-1.63946	WEEKEND SO
-1.63946	WEEKEND UH
-0.7363698	WEIRD SITUATION
-1.690612	WELL AND
-0.9054934	WELL I
-0.9054934	WELL I'M
-1.690612	WELL IT
-1.690612	WELL IT'S
-1.690612	WELL RIGHT
-1.690612	WELL THE
-1.581468	WENT DOWN
-1.581468	WENT FROM
-1.581468	WENT THROUGH
-0.7886689	WENT TO
-1.581468	WERE ALL
-1.581468	WERE ANTICIPATING
-1.581468	WERE OUT
-1.581468	WERE THE
-1.581468	WERE THERE
-1.581468	WERE TURNED
-1.581468	WERE UP
-1.0374	WEREN'T IN
-1.0374	WEREN'T OUT
-1.213491	WHAT ELSE
-1.213491	WHAT I'VE
-1.213491	WHAT YOU
-0.7363698	WHATEVER YEAH
-0.7363698	WHEELCHAIR ANYWAY
-0.6502209	WHEN I
-1.43534	WHEN THERE'S
-1.43534	WHEN WE
-1.43534	WHEN YOUR
-0.7363698	WHENEVER YOU
-1.63946	WHERE DID
-1.63946	WHERE HE
-1.63946	WHERE I
-1.63946	WHERE I'M
-1.63946	WHERE IT
-1.63946	WHERE THAT
-1.63946	WHERE WE
-1.63946	WHERE YOU
-0.7363698	WHICH ONE
-1.0374	WHILE I
-1.0374	WHILE WE
-0.7363698	WHITMORE LAKE
-1.213491	WHO IS
-1.213491	WHO SAID
-1.213491	WHO WOULD
-0.7363698	WHOLE BUNCH
-0.7363698	WHY ARE
-1.0374	WILL PROBABLY
-1.0374	WILL STAY
-1.690612	WITH FRIENDS
-1.690612	WITH HER
-1.690612	WITH KIDS
-1.690612	WITH MY
-1.690612	WITH POOP
-1.690612	WITH THAT
-0.6479505	WITH THE
-0.7363698	WITHOUT FALLING
-0.7363698	WON </s>
-0.7363698	WON'T BE
-1.213491	WORK BUT
-1.213491	WORK PROBABLY
-1.213491	WORK SATURDAY
-1.43534	WORKING </s>
-1.43534	WORKING AT
-1.43534	WORKING I
-1.43534	WORKING ON
-1.43534	WORKING TEN
-0.7363698	WORKS </s>
-0.7363698	WOULD DO
-0.7363698	WRITING A
-0.7363698	YA'LL ARE
-0.3340303	YEAH </s>
-2.349154	YEAH ABSOLUTELY
-1.564035	YEAH AND
-1.564035	YEAH I'M
-2.349154	YEAH IN
-2.349154	YEAH IT
-1.564035	YEAH IT'S
-2.349154	YEAH NO
-1.556355	YEAH SO
-2.349154	YEAH THAT
-2.349154	YEAH THE
-2.349154	YEAH THERE'S
-1.306492	YEAH WE
-2.349154	YEAH WELL
-2.349154	YEAH YEP
-0.4718592	YEAR </s>
-0.7294021	YEAR AGO
-1.514521	YEAR AND
-0.7363698	YEARS OLD
-0.7363698	YEP </s>
-0.3357921	YES </s>
-2.151343	YES IF
-1.108681	YES IT
-2.151343	YES IT'S
-1.366224	YES MY
-2.151343	YES OH
-2.151343	YES THERE
-2.151343	YES THEY'RE
-2.151343	YES TWO
-2.151343	YES YEAH
-1.366224	YES YES
-0.7217221	YET </s>
-1.514521	YET BUT
-1.514521	YET TO
-2.227731	YOU ALL
-2.227731	YOU AND
-2.227731	YOU BACK
-2.227731	YOU CAN
-1.442613	YOU COULD
-2.227731	YOU DIDN'T
-2.227731	YOU DON'T
-2.227731	YOU GET
-2.227731	YOU GUYS
-1.442613	YOU HAVE
-2.227731	YOU HERE
-2.227731	YOU I'M
-2.227731	YOU JUST
-0.4913617	YOU KNOW
-2.227731	YOU MAY
-2.227731	YOU MOVE
-2.227731	YOU PAID
-2.227731	YOU SHOULD
-2.227731	YOU WEREN'T
-2.227731	YOU WON'T
-1.213491	YOU'RE DEPRESSED
-1.213491	YOU'RE GOING
-1.213491	YOU'RE NOT
-1.0374	YOUR GROWN
-1.0374	YOUR INCOME
-1.213491	YUP </s>
-1.213491	YUP IT
-1.213491	YUP NO
-1.0374	ZOO </s>
-1.0374	ZOO AND

\end\
