
\data\
ngram 1=655
ngram 2=1828

\1-grams:
-3.392873	17	-0.07556574
-3.392873	18	-0.04269473
-2.915751	300	-0.02034602
-3.392873	6	-0.09041028
-3.392873	600	-0.09041028
-3.392873	96	-0.09041028
-3.392873	96TH	-0.09041028
-0.981253	</s>
-99	<s>	-0.2392918
-3.091843	<unk>	-0.08545898
-1.593532	A	-0.1166494
-2.790813	ABOUT	-0.08917773
-3.392873	ABSOLUTELY	-0.04269473
-3.392873	ACCESSIBLE	-0.07556574
-2.693903	ACTUALLY	-0.1656832
-3.392873	AFTER	-0.08970639
-3.091843	AGO	-0.08474702
-3.392873	ALCOHOL	-0.09041028
-2.489783	ALL	-0.1881967
-3.091843	ALMOST	-0.09023441
-3.392873	ALONG	-0.0775625
-2.915751	ALSO	-0.08705661
-3.392873	ALWAYS	-0.08953024
-3.091843	AM	-0.07846709
-3.091843	AMAZING	-0.03656806
-2.790813	AN	-0.2125985
-1.468593	AND	-0.07233416
-3.392873	ANIMALS	-0.08935402
-3.392873	ANTI	-0.09041028
-3.392873	ANTICIPATING	-0.09041028
-3.392873	ANTIDEPRESSANTS	-0.08847185
-3.091843	ANY	-0.08970639
-3.392873	ANYONE	-0.09005848
-3.392873	ANYTHING	-0.08670211
-3.392873	ANYWAY	-0.04269473
-3.392873	APPEAR	-0.09005848
-3.392873	APPOINTMENTS	-0.04269473
-2.392873	ARE	-0.115588
-3.392873	AREA	-0.04269473
-3.392873	ARMY	-0.04269473
-2.693903	AROUND	-0.1569431
-3.091843	AS	-0.08260412
-2.313692	AT	-0.07850007
-3.392873	AUDITING	-0.09041028
-3.392873	AUNT	-0.09005848
-3.091843	AWAY	-0.08634729
-2.915751	BACK	-0.2813286
-3.392873	BAD	-0.09041028
-3.392873	BADLY	-0.04269473
-3.091843	BANK	-0.07520171
-2.915751	BASED	-0.2528521
-3.392873	BASEMENT	-0.08510315
-3.392873	BASICALLY	-0.08776481
-3.392873	BATH	-0.07556574
-3.392873	BATTLE	-0.09041028
-2.188753	BE	-0.08380251
-3.392873	BEACH	-0.04269473
-3.392873	BEAVERS	-0.04269473
-2.392873	BECAUSE	-0.2800765
-3.392873	BED	-0.09041028
-2.790813	BEEN	-0.2099498
-2.915751	BEFORE	-0.02178989
-2.693903	BEING	-0.1861476
-3.392873	BELONGS	-0.04269473
-3.091843	BETWEEN	-0.3719583
-3.091843	BEYOND	-0.03656806
-2.693903	BIG	-0.08970638
-3.392873	BIKE	-0.04269473
-3.392873	BILLY	-0.09041028
-3.392873	BIRTHDAY	-0.09023441
-3.392873	BIT	-0.08670211
-3.392873	BLAST	-0.08296201
-3.392873	BOOK	-0.08776481
-3.392873	BORING	-0.09041028
-3.392873	BORN	-0.07556574
-3.392873	BOTHER	-0.04269473
-3.392873	BRING	-0.08988247
-3.091843	BUNCH	-0.3810979
-2.031145	BUT	-0.08155383
-3.392873	BUYING	-0.09005848
-3.091843	CALLED	-0.0882952
-2.489783	CAN	-0.03216708
-3.392873	CAN'T	-0.08510315
-3.392873	CANADA	-0.08988247
-3.392873	CAROLINA	-0.08917774
-2.915751	CASH	-0.07538375
-3.392873	CATCH	-0.08953024
-2.790813	CAUSE	-0.0700729
-3.392873	CENTERVILLE	-0.09041028
-3.392873	CENTRAL	-0.08847185
-3.392873	CHAUFFEUR	-0.09023441
-3.392873	CLEANED	-0.08917774
-3.392873	CLEANING	-0.04269473
-2.915751	COLLEGE	-0.1986504
-3.091843	COME	-0.08456885
-3.091843	COMING	-0.08970639
-3.392873	COMMERCIAL	-0.08296201
-3.392873	COMMITTED	-0.09041028
-3.392873	COMMUNITY	-0.09005848
-3.392873	COMPANIES	-0.08510315
-3.392873	COMPLETELY	-0.08935402
-3.392873	COMPUTER	-0.09041028
-3.392873	COMPUTERS	-0.08027064
-3.091843	CONE	-0.3370905
-3.392873	CONTRACTORS	-0.07556574
-3.392873	COOL	-0.04269473
-3.392873	COUCH	-0.08970639
-2.790813	COULD	-0.08152868
-3.091843	COULDN'T	-0.08953024
-3.091843	COUPLE	-0.08935402
-3.392873	COURSE	-0.08634729
-3.392873	CRAZY	-0.04269473
-3.392873	CREDIT	-0.09041028
-3.392873	CREEK	-0.04269473
-3.392873	CRYSTAL	-0.04269473
-3.392873	CUFF	-0.08385543
-3.392873	CURRENTLY	-0.08847185
-3.392873	DAD'S	-0.09023441
-3.392873	DATE	-0.08652473
-3.392873	DAUGHTER	-0.04269473
-3.091843	DAY	-0.04033336
-2.614722	DAYS	-0.09839886
-3.392873	DEAL	-0.08670211
-3.392873	DEALING	-0.08882494
-3.392873	DECIDE	-0.08723379
-3.392873	DECIDED	-0.08776481
-2.915751	DEFINITELY	-0.02954535
-3.392873	DELTA	-0.09005848
-3.392873	DEPARTMENT	-0.04269473
-3.392873	DEPRESSANTS	-0.08882494
-2.915751	DEPRESSED	-0.04171237
-2.915751	DEPRESSION	-0.07701883
-3.091843	DETROIT	-0.04230206
-2.915751	DID	-0.07629288
-3.091843	DIDN'T	-0.09023441
-3.392873	DIED	-0.07556574
-3.392873	DIFFERENCE	-0.09023441
-3.091843	DIFFERENT	-0.08988247
-3.392873	DIRT	-0.09023441
-3.091843	DISABILITY	-0.3370905
-3.392873	DISASTER	-0.09041028
-3.392873	DISEASE	-0.09041028
-3.392873	DNA	-0.09041028
-2.547775	DO	-0.08865231
-3.392873	DOCTORS	-0.09041028
-3.392873	DOES	-0.04269473
-3.392873	DOESN'T	-0.09041028
-3.392873	DOG	-0.07556574
-3.091843	DOING	-0.07665602
-3.392873	DOLLARS	-0.08296201
-2.246745	DON'T	-0.3761872
-3.392873	DONAVAN	-0.04269473
-2.790813	DOWN	-0.03156346
-3.091843	DOWNTOWN	-0.08988247
-2.915751	DRAINS	-0.07520169
-3.392873	DRIVE	-0.08935402
-3.392873	DROVE	-0.08917774
-3.392873	DRUG	-0.07556574
-3.392873	EACH	-0.04269473
-2.915751	EIGHT	-0.08741085
-3.091843	ELEMENTARY	-0.07520171
-3.392873	ELSE	-0.09005848
-3.392873	EM	-0.08652473
-3.392873	EMBARRASSING	-0.04269473
-3.392873	EMPTIED	-0.08847185
-3.392873	ENDED	-0.08953024
-3.091843	ENOUGH	-0.0737425
-3.392873	EQUITY	-0.08776481
-3.392873	ERR	-0.09041028
-3.392873	ERUPTED	-0.08882494
-2.790813	EVEN	-0.2111879
-3.392873	EVER	-0.09041028
-3.091843	EVERY	-0.08970639
-3.392873	EVERYBODY	-0.0868794
-3.392873	EVERYONE	-0.09041028
-3.091843	EVERYTHING	-0.07918941
-3.392873	EVERYWHERE	-0.08652473
-3.392873	EVICT	-0.09041028
-3.392873	EXACT	-0.09041028
-2.790813	EXACTLY	-0.2236823
-3.392873	EXCITED	-0.04269473
-3.392873	EXCITING	-0.04269473
-3.392873	EXERCISE	-0.04269473
-3.392873	FACILITY	-0.04269473
-3.392873	FAIRLY	-0.09041028
-3.392873	FALLING	-0.08970639
-3.392873	FALLS	-0.09041028
-2.915751	FAMILY	-0.02199576
-3.392873	FAN	-0.09041028
-3.392873	FANCY	-0.09041028
-3.392873	FARM	-0.08634729
-3.392873	FEEL	-0.08510315
-3.392873	FEES	-0.09005848
-3.392873	FIELD	-0.08296201
-3.392873	FIFTY	-0.08970639
-3.392873	FIND	-0.09041028
-3.392873	FIREWORKS	-0.07556574
-2.915751	FIRST	-0.08616976
-3.392873	FISHING	-0.09023441
-3.392873	FIVE	-0.04269473
-3.392873	FIX	-0.08296201
-2.915751	FLORIDA	-0.03276983
-3.392873	FOOD	-0.08970639
-2.313692	FOR	-0.1183769
-3.392873	FORGOT	-0.08510315
-3.392873	FORMULA	-0.07556574
-3.392873	FORT	-0.09041028
-3.392873	FORTY	-0.04269473
-3.392873	FOUND	-0.08917774
-3.392873	FOUR	-0.08953024
-3.392873	FRESHMAN	-0.08634729
-3.091843	FRIENDS	-0.04033336
-2.313692	FROM	-0.2014682
-2.614722	FUN	-0.1187319
-3.392873	FUNCTIONAL	-0.09041028
-3.392873	GAME	-0.04269473
-3.392873	GARAGE	-0.09041028
-3.392873	GAY	-0.09041028
-3.392873	GENE	-0.04269473
-2.35148	GET	-0.1916041
-3.392873	GETS	-0.09041028
-2.915751	GETTING	-0.2515899
-3.392873	GIFTS	-0.04269473
-3.392873	GIRLS	-0.04269473
-3.392873	GIVE	-0.08953024
-2.614722	GO	-0.07465509
-3.392873	GOES	-0.04269473
-2.489783	GOING	-0.06657885
-3.091843	GOLF	-0.04249844
-3.392873	GONE	-0.08917774
-2.614722	GOOD	-0.1303512
-2.547775	GOT	-0.1333196
-3.392873	GRADUATING	-0.08970639
-3.392873	GRAHAM	-0.04269473
-3.392873	GRAND	-0.04269473
-2.790813	GREAT	-0.04131882
-3.392873	GROWN	-0.08296201
-3.392873	GUYS	-0.09041028
-2.313692	HAD	-0.3707342
-3.392873	HANDICAP	-0.09041028
-3.392873	HAPPENS	-0.08988247
-3.392873	HAPPY	-0.04269473
-3.091843	HARD	-0.08242507
-3.392873	HAS	-0.0775625
-2.188753	HAVE	-0.1752439
-3.392873	HAVEN'T	-0.08988247
-3.091843	HAVING	-0.3719583
-3.091843	HD	-0.02588898
-2.313692	HE	-0.1617017
-3.091843	HE'LL	-0.3821606
-2.693903	HE'S	-0.161614
-3.392873	HELP	-0.07556574
-3.392873	HELPFUL	-0.04269473
-3.091843	HER	-0.08953024
-2.915751	HERE	-0.2150635
-3.392873	HIGH	-0.09023441
-3.392873	HIRE	-0.09023441
-3.091843	HISTORY	-0.0383557
-3.091843	HOLIDAY	-0.0827831
-3.392873	HOLIDAYS	-0.08811848
-3.091843	HOME	-0.08616977
-3.392873	HONEY	-0.09041028
-3.091843	HOPEFULLY	-0.07991053
-3.392873	HOSE	-0.07556574
-3.392873	HOT	-0.04269473
-3.091843	HOUR	-0.04230206
-3.392873	HOURS	-0.07936981
-2.614722	HOUSE	-0.08262754
-3.392873	HOUSES	-0.09041028
-3.392873	HOW	-0.08296201
-3.392873	HOWEVER	-0.04269473
-3.392873	HUNDRED	-0.04269473
-3.392873	HURRICANE	-0.04269473
-3.392873	HUSBAND	-0.08758788
-1.484388	I	-0.3362007
-3.392873	I'D	-0.09041028
-2.915751	I'LL	-0.2594636
-2.216781	I'M	-0.1713532
-3.091843	I'VE	-0.3842782
-3.091843	IDEA	-0.04151565
-2.489783	IF	-0.2563666
-2.012661	IN	-0.07077084
-3.392873	INAUDIBLE	-0.04269473
-3.392873	INCH	-0.08670211
-3.091843	INCOME	-0.3819836
-3.392873	INDIVIDUAL	-0.04269473
-3.392873	INHERITANCE	-0.07556574
-3.091843	INSIDE	-0.06488281
-3.392873	INTO	-0.09041028
-3.392873	INVITED	-0.08953024
-2.162424	IS	-0.1139397
-3.392873	ISN'T	-0.09041028
-3.392873	ISSUE	-0.09041028
-2.915751	ISSUES	-0.2461384
-1.759404	IT	-0.2231074
-3.392873	IT'LL	-0.08776481
-1.813089	IT'S	-0.1607471
-3.091843	ITS	-0.08988247
-3.091843	JEFF	-0.3846301
-3.392873	JEWISH	-0.08027064
-3.392873	JOANNE'S	-0.07556574
-3.392873	JOB	-0.08510315
-3.091843	JUNE	-0.04210559
-3.392873	JUNIOR	-0.04269473
-2.188753	JUST	-0.03974101
-3.392873	KIDS	-0.07556574
-2.915751	KIND	-0.292465
-3.392873	KINDA	-0.09041028
-2.031145	KNOW	-0.04510761
-3.392873	LADY	-0.04269473
-2.915751	LAKE	-0.04190902
-3.091843	LANDLORD	-0.3782512
-2.915751	LAST	-0.08988246
-3.392873	LAUDERDALE'S	-0.08670211
-3.392873	LAWS'	-0.09041028
-3.392873	LEAGUE	-0.08634729
-3.392873	LEFT	-0.08953024
-3.392873	LEGAL	-0.09041028
-3.392873	LESS	-0.08670211
-2.05045	LIKE	-0.08252686
-3.392873	LIONS	-0.09041028
-3.392873	LIONS'	-0.09041028
-3.392873	LIST	-0.08670211
-2.915751	LITTLE	-0.09005846
-3.091843	LIVE	-0.08616977
-2.790813	LOAN	-0.0852811
-3.091843	LOANS	-0.04112191
-3.392873	LOCATION	-0.07611122
-3.392873	LONG	-0.08988247
-3.392873	LOOK	-0.08847185
-3.091843	LOOKED	-0.08510315
-3.392873	LOST	-0.09005848
-3.392873	LOT	-0.08670211
-3.392873	LOTS	-0.08670211
-3.392873	LOVE	-0.08296201
-3.091843	LOVES	-0.0827831
-2.915751	MAINTENANCE	-0.2626439
-3.091843	MAKE	-0.08917774
-3.392873	MAKING	-0.08296201
-3.392873	MANGERS	-0.07556574
-2.915751	MARRIED	-0.2132921
-3.392873	MART	-0.0868794
-3.392873	MAY	-0.08670211
-3.091843	MAYBE	-0.08545898
-3.392873	MCKENZIE	-0.09023441
-2.614722	ME	-0.06000727
-3.392873	MEAN	-0.08510315
-3.392873	MEMORIAL	-0.09023441
-3.392873	MET	-0.08847185
-3.392873	MHM	-0.08599219
-2.693903	MHMM	-0.2811837
-3.091843	MIDDLE	-0.0383557
-3.091843	MIGHT	-0.3821606
-3.392873	MILES	-0.08847185
-3.392873	MILLER	-0.07556574
-3.392873	MOBILITY	-0.07556574
-3.091843	MONDAY	-0.04249844
-2.790813	MONEY	-0.0353722
-3.392873	MONTH	-0.08296201
-3.392873	MONTHS	-0.09023441
-3.392873	MOON	-0.07556574
-3.091843	MORE	-0.08652473
-3.392873	MOST	-0.08953024
-3.392873	MOSTLY	-0.08634729
-3.392873	MOUNTAINS	-0.08296201
-3.392873	MOVE	-0.08847185
-3.392873	MOVED	-0.08634729
-3.392873	MOVIE	-0.09041028
-3.392873	MOVING	-0.08935402
-2.790813	MUCH	-0.06655782
-2.188753	MY	-0.03397287
-3.392873	NEAR	-0.09023441
-3.392873	NEAT	-0.04269473
-3.392873	NEED	-0.08349828
-3.392873	NEUROLOGIST	-0.08510315
-3.392873	NEW	-0.09041028
-2.693903	NEXT	-0.1837138
-2.915751	NICE	-0.2150635
-3.392873	NIECE	-0.08758788
-3.392873	NIECES	-0.08634729
-3.091843	NIGHT	-0.04210559
-3.392873	NINE	-0.09041028
-2.05045	NO	-0.0971309
-2.915751	NORTH	-0.04053062
-3.392873	NORTHEAST	-0.08970639
-3.392873	NORTHWEST	-0.08670211
-2.05045	NOT	-0.0907026
-3.091843	NOTHING	-0.08917774
-2.489783	NOW	-0.1105858
-3.392873	O'CLOCK	-0.08385543
-3.392873	OAK	-0.04269473
-3.392873	OCCASIONAL	-0.09041028
-3.392873	OCCASIONALLY	-0.08652473
-3.392873	OCEAN	-0.08296201
-2.05045	OF	-0.07668272
-3.392873	OFF	-0.08027064
-2.35148	OH	-0.1423273
-3.392873	OHIO	-0.08953024
-3.392873	OK	-0.04269473
-2.693903	OKAY	-0.7457544
-3.091843	OLD	-0.3370905
-2.188753	ON	-0.1740769
-2.313692	ONE	-0.1499067
-3.091843	ONES	-0.07319403
-2.915751	ONLY	-0.08953023
-3.392873	ONTARIO	-0.04269473
-2.693903	OR	-0.08652472
-3.392873	ORLANDO	-0.04269473
-2.790813	OTHER	-0.08634728
-3.392873	OUR	-0.09041028
-2.489783	OUT	0.002779372
-2.693903	OVER	-0.1828533
-3.091843	OVERPAID	-0.04033336
-3.091843	OVERWHELMING	-0.04230206
-2.790813	PAID	-0.2340231
-3.392873	PALM	-0.09041028
-3.392873	PANDAS	-0.04269473
-3.392873	PARENTS	-0.09041028
-3.392873	PART	-0.08670211
-3.392873	PARTNER'S	-0.07936981
-3.392873	PARTY	-0.08027064
-3.392873	PAY	-0.08510315
-3.392873	PEACEFUL	-0.09023441
-3.392873	PEOPLE	-0.04269473
-3.392873	PERHAPS	-0.08988247
-3.392873	PETE	-0.04269473
-3.392873	PETS	-0.07556574
-3.392873	PICK	-0.08953024
-3.392873	PICTURES	-0.04269473
-3.091843	PLACE	-0.08116962
-3.392873	PLAN	-0.04269473
-3.091843	PLANNED	-0.08652473
-2.790813	PLAY	-0.03736347
-3.392873	PLAYED	-0.08882494
-3.392873	PLUMBER	-0.08296201
-3.392873	POINT	-0.09041028
-3.392873	POOP	-0.07556574
-3.392873	POWER	-0.09041028
-3.392873	POWERFUL	-0.09041028
-3.392873	PRETTY	-0.08988247
-3.392873	PRINCESS	-0.04269473
-2.614722	PROBABLY	-0.0493164
-3.091843	PROBLEM	-0.08421229
-3.392873	PROFESSOR	-0.08027064
-3.392873	PROGRAMING	-0.08027064
-3.091843	PROOF	-0.04033336
-3.392873	PROPERTY	-0.09041028
-3.392873	PROPHYLACTIC	-0.09041028
-3.392873	PULLS	-0.08953024
-3.392873	PURPOSES	-0.04269473
-3.392873	PUT	-0.08953024
-3.392873	QUARTER	-0.09041028
-3.392873	QUICK	-0.09023441
-3.392873	QUICKEN	-0.09023441
-3.392873	RACE	-0.09023441
-3.392873	RAISED	-0.04269473
-3.392873	RAY	-0.09041028
-3.392873	READ	-0.04269473
-3.392873	READING	-0.07936981
-3.392873	REAL	-0.08970639
-3.091843	REALLY	-0.08988247
-3.392873	REALTOR	-0.08970639
-3.392873	REASON	-0.04269473
-3.392873	RECEPTION	-0.04269473
-3.392873	RECOMMEND	-0.08296201
-3.392873	RED	-0.09041028
-3.392873	RELATIONSHIP	-0.08970639
-2.915751	RELATOR	-0.08349826
-3.392873	RELIGIOUS	-0.09041028
-3.392873	REMEMBER	-0.09041028
-3.392873	RESIDENTIAL	-0.04269473
-3.392873	REUPHOLSTERING	-0.09041028
-3.392873	RID	-0.08670211
-3.392873	RIDE	-0.09041028
-2.547775	RIGHT	-0.1953334
-3.392873	ROAD	-0.04269473
-3.392873	ROTATOR	-0.09041028
-3.392873	ROYAL	-0.09041028
-3.392873	SAGINAW	-0.04269473
-2.693903	SAID	-0.2993021
-3.392873	SAINT	-0.09041028
-3.392873	SALE	-0.04269473
-3.392873	SALVATION	-0.09041028
-3.392873	SAME	-0.09041028
-3.392873	SARASOTA	-0.08027064
-3.091843	SATURDAY	-0.04230206
-3.392873	SAW	-0.08988247
-3.091843	SCHOOL	-0.02588898
-2.693903	SEE	-0.06951977
-3.392873	SEEN	-0.08510315
-2.915751	SELL	-0.2424657
-3.392873	SELLING	-0.08296201
-3.392873	SEVEN	-0.04269473
-3.091843	SHE	-0.08474702
-3.091843	SHOULD	-0.08670211
-3.392873	SHOULDER	-0.09041028
-3.392873	SHOWER	-0.08847185
-3.091843	SHOWS	-0.02650052
-3.392873	SHUT	-0.08988247
-3.091843	SICK	-0.3842782
-3.392873	SILLY	-0.07556574
-3.392873	SISTERS	-0.08510315
-3.392873	SIT	-0.08864843
-3.392873	SITUATION	-0.08385543
-3.392873	SLUSH	-0.09041028
-3.392873	SMALL	-0.09041028
-1.629445	SO	-0.01026671
-2.915751	SOME	-0.08970638
-3.091843	SOMEBODY	-0.03656806
-3.392873	SOMETHING	-0.08935402
-3.392873	SOMETIME	-0.04269473
-3.392873	SORRY	-0.04269473
-3.091843	SOUTH	-0.08545898
-3.392873	STARED	-0.08847185
-3.392873	START	-0.08776481
-3.392873	STARTED	-0.08917774
-3.091843	STARTS	-0.3828676
-3.392873	STAY	-0.04269473
-3.091843	STILL	-0.08988247
-3.091843	STRESS	-0.08545898
-3.392873	STUDY	-0.09041028
-2.790813	STUFF	-0.14697
-3.392873	STUMBLE	-0.09041028
-3.392873	SUICIDE	-0.08027064
-3.392873	SUNDAY	-0.08794168
-3.392873	SUPPLIES	-0.07556574
-2.614722	SURE	-0.1432881
-3.392873	SURGERY	-0.04269473
-3.392873	SWEET	-0.09005848
-3.392873	SYMPTOMS	-0.08510315
-3.392873	TAKE	-0.07936981
-3.392873	TALK	-0.07556574
-3.091843	TALKED	-0.3773578
-3.091843	TAMPA	-0.3370905
-2.915751	TEN	-0.07501956
-3.392873	TERRIBLE	-0.04269473
-3.392873	TEST	-0.08510315
-3.392873	THANK	-0.08510315
-1.901511	THAT	-0.1669417
-2.547775	THAT'S	-0.06282674
-1.52955	THE	-0.1021291
-3.091843	THEIR	-0.08970639
-2.790813	THEM	-0.03934565
-2.614722	THEN	-0.01910461
-3.392873	THERAPIST	-0.08847185
-2.35148	THERE	-0.08592783
-2.547775	THERE'S	-0.1349847
-2.114119	THEY	-0.2080928
-3.091843	THEY'RE	-0.07991053
-3.091843	THING	-0.02650052
-2.915751	THINGS	-0.02404917
-2.614722	THINK	-0.06076092
-3.392873	THIRTEEN	-0.07556574
-2.693903	THIS	-0.2912001
-2.915751	THOUGH	-0.07355975
-3.392873	THOUSAND	-0.09041028
-3.091843	THREE	-0.08935402
-2.915751	THROUGH	-0.07319402
-2.790813	TIME	-0.3255563
-3.392873	TIMES	-0.07936981
-1.759404	TO	-0.1085517
-3.392873	TOLD	-0.04269473
-3.392873	TONIGHT	-0.04269473
-2.790813	TOO	-0.08917773
-3.392873	TOOK	-0.09041028
-3.392873	TORE	-0.08776481
-3.392873	TORNADO	-0.04269473
-3.091843	TRACK	-0.04171239
-3.392873	TREATMENT	-0.09041028
-3.091843	TRIP	-0.07900894
-3.392873	TROUBLE	-0.08385543
-2.915751	TRUCKLOADS	-0.0709932
-3.392873	TRUST	-0.04269473
-2.915751	TRYING	-0.2887249
-3.392873	TURNED	-0.09041028
-3.392873	TV	-0.09023441
-3.392873	TWELVE	-0.04269473
-2.547775	TWO	-0.1061674
-3.392873	TYPE	-0.09023441
-2.693903	UH	-0.07429028
-3.392873	UHH	-0.09023441
-2.392873	UM	-0.05830674
-3.091843	UMM	-0.07355975
-3.392873	UNCLE	-0.09041028
-3.392873	UNDER	-0.08776481
-3.392873	UNION	-0.08581452
-3.091843	UNPACKED	-0.08917774
-2.614722	UP	-0.03875196
-3.392873	USE	-0.08776481
-3.392873	USED	-0.08296201
-3.392873	VACATIONS	-0.08953024
-3.392873	VARIETY	-0.04269473
-2.614722	VERY	-0.1661415
-3.392873	VISITED	-0.08882494
-3.392873	VP	-0.08296201
-3.392873	WABATONGUSHI	-0.04269473
-3.392873	WAL	-0.09041028
-3.091843	WALK	-0.08953024
-3.392873	WALKED	-0.08970639
-3.091843	WALKING	-0.3841021
-3.392873	WANT	-0.08296201
-3.091843	WANTED	-0.3773578
-3.091843	WANTS	-0.3773578
-3.392873	WARNING	-0.04269473
-2.070653	WAS	-0.06689568
-3.392873	WASH	-0.0775625
-3.091843	WASTE	-0.07900894
-3.392873	WAWA	-0.09041028
-2.693903	WAY	-0.0682264
-1.961509	WE	-0.1630278
-3.392873	WE'LL	-0.08776481
-3.091843	WE'RE	-0.08864843
-3.091843	WE'VE	-0.08776481
-2.915751	WEDDING	-0.06038424
-3.392873	WEEK	-0.04269473
-2.489783	WEEKEND	-0.3309869
-3.392873	WEEKENDS	-0.09005848
-3.392873	WEIRD	-0.09041028
-2.43863	WELL	-0.1333315
-2.547775	WENT	-0.2137818
-2.547775	WERE	-0.07117703
-3.091843	WEREN'T	-0.08492512
-2.915751	WHAT	-0.08456884
-3.392873	WHATEVER	-0.08349828
-3.392873	WHEELCHAIR	-0.09041028
-2.693903	WHEN	-0.1647617
-3.392873	WHENEVER	-0.08510315
-2.614722	WHERE	-0.06394945
-3.392873	WHICH	-0.08847185
-3.091843	WHILE	-0.07117704
-3.392873	WHITMORE	-0.09005848
-2.915751	WHO	-0.08652472
-3.392873	WHOLE	-0.09023441
-3.392873	WHY	-0.08882494
-3.091843	WILL	-0.08935402
-2.392873	WITH	-0.1572929
-3.392873	WITHOUT	-0.09041028
-3.392873	WON	-0.04269473
-3.392873	WON'T	-0.08776481
-2.915751	WORK	-0.08510313
-2.693903	WORKING	-0.02013937
-3.392873	WORKS	-0.04269473
-3.392873	WOULD	-0.08935402
-3.392873	YA'LL	-0.08882494
-1.790813	YEAH	-0.3446383
-2.614722	YEAR	-0.2144296
-3.392873	YEARS	-0.09023441
-3.392873	YEP	-0.04269473
-1.977899	YES	-0.3787238
-2.614722	YET	-0.1908164
-1.901511	YOU	-0.2621867
-2.915751	YOU'RE	-0.08474701
-3.091843	YOUR	-0.09005848
-2.915751	YUP	-0.02974758
-3.091843	ZOO	-0.02588898

\2-grams:
-0.725229	17 AND
-0.725229	18 </s>
-1.20235	300 </s>
-1.20235	300 AND
-1.20235	300 WE
-0.725229	6 WEEKENDS
-0.725229	600 MILES
-0.725229	96 YEARS
-0.725229	96TH BIRTHDAY
-3.136849	<s> A
-2.341297	<s> ACTUALLY
-3.136849	<s> ALL
-3.136849	<s> AN
-1.156347	<s> AND
-3.136849	<s> AROUND
-3.136849	<s> BE
-3.136849	<s> BECAUSE
-3.136849	<s> BEFORE
-3.136849	<s> BORN
-2.365263	<s> BUT
-3.136849	<s> BUYING
-3.136849	<s> CAUSE
-3.136849	<s> COUPLE
-3.136849	<s> DEFINITELY
-3.136849	<s> DELTA
-3.136849	<s> DOCTORS
-3.136849	<s> DOWNTOWN
-3.136849	<s> ELEMENTARY
-3.136849	<s> EVEN
-3.136849	<s> FLORIDA
-2.341297	<s> FOR
-3.136849	<s> FORT
-2.341297	<s> GOING
-3.136849	<s> GOOD
-2.341297	<s> HE
-3.136849	<s> HE'S
-3.136849	<s> HISTORY
-1.132866	<s> I
-2.240261	<s> I'M
-3.136849	<s> IF
-2.240261	<s> IN
-2.056778	<s> IT
-2.365263	<s> IT'S
-2.341297	<s> JEFF
-3.136849	<s> JUST
-3.136849	<s> MHM
-1.788797	<s> MHMM
-3.136849	<s> MILLER
-2.341297	<s> MY
-3.136849	<s> NEXT
-1.332438	<s> NO
-3.136849	<s> NOT
-3.136849	<s> NOTHING
-1.788797	<s> OH
-3.136849	<s> OK
-2.240261	<s> OKAY
-2.341297	<s> ONE
-3.136849	<s> OR
-3.136849	<s> OVER
-3.136849	<s> PALM
-3.136849	<s> PERHAPS
-3.136849	<s> PLAY
-3.136849	<s> PRETTY
-3.136849	<s> PROBABLY
-3.136849	<s> READ
-2.240261	<s> RIGHT
-3.136849	<s> ROTATOR
-3.136849	<s> SAINT
-3.136849	<s> SHE
-3.136849	<s> SHOULD
-1.265492	<s> SO
-3.136849	<s> SOME
-3.136849	<s> TEN
-3.136849	<s> THANK
-3.136849	<s> THAT
-2.341297	<s> THAT'S
-3.136849	<s> THE
-3.136849	<s> THERE
-3.136849	<s> THERE'S
-1.633469	<s> THEY
-3.136849	<s> THROUGH
-3.136849	<s> TV
-3.136849	<s> TWO
-2.240261	<s> UH
-2.056778	<s> UM
-2.341297	<s> UMM
-3.136849	<s> VERY
-2.240261	<s> WE
-2.341297	<s> WE'VE
-1.633469	<s> WELL
-3.136849	<s> WENT
-3.136849	<s> WHAT
-3.136849	<s> WHEN
-3.136849	<s> WHENEVER
-3.136849	<s> WHERE
-3.136849	<s> WITH
-3.136849	<s> WORKING
-0.980256	<s> YEAH
-1.132866	<s> YES
-1.633469	<s> YOU
-3.136849	<s> YUP
-1.026259	<unk> IN
-1.026259	<unk> THIS
-2.52457	A BAD
-1.627981	A BIG
-2.52457	A BLAST
-2.52457	A BUNCH
-2.52457	A CHAUFFEUR
-2.52457	A COMMUNITY
-2.52457	A COUPLE
-2.52457	A DAY
-2.52457	A DIFFERENT
-2.52457	A DIRT
-2.52457	A DISASTER
-2.52457	A DRUG
-2.52457	A FAIRLY
-2.52457	A FISHING
-2.52457	A FUNCTIONAL
-2.52457	A GARAGE
-2.52457	A GOLF
-2.52457	A GOOD
-1.729018	A GREAT
-2.52457	A HE
-2.52457	A HONEY
-2.52457	A HOUSE
-2.52457	A JUNIOR
-2.52457	A LAKE
-1.729018	A LANDLORD
-2.52457	A LIONS
-2.52457	A LIONS'
-2.52457	A LITTLE
-1.444499	A LOAN
-2.52457	A LONG
-2.52457	A LOT
-2.52457	A MOVIE
-2.52457	A NEW
-2.52457	A PLAY
-2.52457	A PROBLEM
-2.52457	A PROFESSOR
-2.52457	A PROPHYLACTIC
-2.52457	A QUARTER
-2.52457	A REAL
-2.52457	A RELATIONSHIP
-2.52457	A RELATOR
-2.52457	A SALVATION
-2.52457	A SHOWER
-2.52457	A SMALL
-2.52457	A THERAPIST
-2.52457	A VERY
-2.52457	A VP
-1.729018	A WEDDING
-2.52457	A WEIRD
-2.52457	A WHEELCHAIR
-2.52457	A WHOLE
-1.627981	A YEAR
-2.52457	A YOU
-1.327289	ABOUT 600
-1.327289	ABOUT LAST
-1.327289	ABOUT SELLING
-1.327289	ABOUT TEN
-0.725229	ABSOLUTELY </s>
-0.725229	ACCESSIBLE AND
-1.424199	ACTUALLY DOWN
-1.424199	ACTUALLY FROM
-0.6286474	ACTUALLY I
-1.424199	ACTUALLY I'M
-0.725229	AFTER BEING
-1.026259	AGO BECAUSE
-1.026259	AGO BUT
-0.725229	ALCOHOL TREATMENT
-1.628319	ALL FROM
-1.628319	ALL INDIVIDUAL
-1.628319	ALL OUT
-0.5482485	ALL THE
-1.628319	ALL THROUGH
-1.026259	ALMOST LOST
-1.026259	ALMOST NINE
-0.725229	ALONG THE
-1.20235	ALSO HAD
-1.20235	ALSO TRYING
-1.20235	ALSO WHEN
-0.725229	ALWAYS FUN
-1.026259	AM A
-1.026259	AM WORKING
-1.026259	AMAZING </s>
-1.026259	AMAZING YOU
-1.327289	AN AUNT
-0.5317374	AN HOUR
-1.327289	AN OCCASIONAL
-2.649508	AND 18
-2.649508	AND </s>
-2.649508	AND A
-2.649508	AND ALCOHOL
-2.649508	AND ALL
-1.569438	AND AND
-2.649508	AND BE
-2.649508	AND BEYOND
-2.649508	AND CATCH
-2.649508	AND ENDED
-2.649508	AND EVEN
-2.649508	AND EVERYTHING
-2.649508	AND GOT
-2.649508	AND HANDICAP
-1.75292	AND HE
-1.75292	AND I
-2.649508	AND IF
-2.649508	AND IT'S
-1.75292	AND JUST
-2.649508	AND LESS
-2.649508	AND LIKE
-2.649508	AND LOOK
-2.649508	AND LOOKED
-2.649508	AND MIDDLE
-2.649508	AND NOT
-2.649508	AND NOW
-2.649508	AND ONE
-2.649508	AND OUT
-2.649508	AND PROPERTY
-2.649508	AND RAISED
-0.845098	AND SO
-1.853957	AND STUFF
-1.146128	AND THE
-2.649508	AND THEIR
-1.569438	AND THEN
-1.569438	AND THEY
-2.649508	AND TRUCKLOADS
-2.649508	AND TWELVE
-2.649508	AND UH
-1.853957	AND UM
-2.649508	AND VISITED
-2.649508	AND WAL
-2.649508	AND WALK
-2.649508	AND WE
-2.649508	AND WHATEVER
-2.649508	AND WHEN
-2.649508	AND WHITMORE
-2.649508	AND WITH
-1.853957	AND YOU
-2.649508	AND YOUR
-0.725229	ANIMALS WERE
-0.725229	ANTI DEPRESSANTS
-0.725229	ANTICIPATING MOVING
-0.725229	ANTIDEPRESSANTS FOR
-1.026259	ANY IDEA
-1.026259	ANY WORK
-0.725229	ANYONE WHO
-0.725229	ANYTHING LIKE
-0.725229	ANYWAY </s>
-0.725229	APPEAR DEPRESSED
-0.725229	APPOINTMENTS </s>
-1.725229	ARE 17
-0.9296774	ARE </s>
-1.725229	ARE ALL
-1.725229	ARE ALSO
-1.725229	ARE GOING
-1.725229	ARE IT'S
-0.9296774	ARE LIKE
-1.725229	ARE YOU
-0.725229	AREA </s>
-0.725229	ARMY </s>
-1.424199	AROUND JOANNE'S
-1.424199	AROUND SO
-0.6286474	AROUND THE
-1.424199	AROUND WE
-1.026259	AS IT
-1.026259	AS OVERWHELMING
-1.008859	AT A
-1.80441	AT ALL
-1.80441	AT ALMOST
-1.80441	AT BED
-1.80441	AT EIGHT
-1.80441	AT FIRST
-1.80441	AT LIKE
-1.80441	AT QUICKEN
-1.80441	AT SO
-1.80441	AT THE
-1.80441	AT YOU
-0.725229	AUDITING DEPARTMENT
-0.725229	AUNT WHO
-1.026259	AWAY FOR
-1.026259	AWAY FROM
-0.3057621	BACK AND
-0.725229	BAD LOCATION
-0.725229	BADLY </s>
-1.026259	BANK AND
-1.026259	BANK BEYOND
-0.4067987	BASED IT
-1.20235	BASED ON
-0.725229	BASEMENT YOU
-0.725229	BASICALLY ON
-0.725229	BATH AND
-0.725229	BATTLE CREEK
-1.929349	BE A
-1.929349	BE COMMERCIAL
-1.929349	BE DEALING
-1.929349	BE EMBARRASSING
-1.929349	BE GOOD
-1.929349	BE GRADUATING
-1.929349	BE HAPPY
-1.133797	BE IN
-1.929349	BE IT
-1.929349	BE ONE
-1.929349	BE RESIDENTIAL
-1.929349	BE SILLY
-1.929349	BE STARED
-1.929349	BE UHH
-1.929349	BE YOU
-0.725229	BEACH </s>
-0.725229	BEAVERS </s>
-1.725229	BECAUSE FOR
-0.3771776	BECAUSE I
-1.725229	BECAUSE I'VE
-1.725229	BECAUSE IT
-1.725229	BECAUSE MY
-1.725229	BECAUSE WE
-0.725229	BED BATH
-1.327289	BEEN HOME
-0.5317374	BEEN ON
-1.327289	BEEN TOLD
-1.20235	BEFORE </s>
-1.20235	BEFORE THAT
-1.20235	BEFORE THE
-0.5276108	BEING A
-1.424199	BEING AWAY
-1.424199	BEING IN
-0.725229	BELONGS </s>
-0.2307075	BETWEEN THE
-1.026259	BEYOND </s>
-1.026259	BEYOND THAT
-1.424199	BIG DEAL
-1.424199	BIG DIFFERENCE
-1.424199	BIG FANCY
-1.424199	BIG PARTY
-1.424199	BIG WARNING
-0.725229	BIKE </s>
-0.725229	BILLY GRAHAM
-0.725229	BIRTHDAY WHILE
-0.725229	BIT OF
-0.725229	BLAST IT
-0.725229	BOOK ON
-0.725229	BORING HOWEVER
-0.725229	BORN AND
-0.725229	BOTHER </s>
-0.725229	BRING THEM
-0.2307075	BUNCH OF
-1.190369	BUT </s>
-2.086957	BUT AND
-2.086957	BUT BUT
-1.291405	BUT I
-1.291405	BUT IF
-2.086957	BUT IT'LL
-1.291405	BUT IT'S
-2.086957	BUT NOT
-2.086957	BUT NOW
-2.086957	BUT SUNDAY
-2.086957	BUT THE
-2.086957	BUT THEN
-2.086957	BUT THERE
-2.086957	BUT THERE'S
-1.291405	BUT WE
-1.291405	BUT YEAH
-0.725229	BUYING THINGS
-1.026259	CALLED ONE
-1.026259	CALLED WABATONGUSHI
-1.628319	CAN </s>
-1.628319	CAN BE
-1.628319	CAN GET
-1.628319	CAN HAVE
-1.628319	CAN PAY
-1.628319	CAN SEE
-1.628319	CAN SELL
-1.628319	CAN SIT
-0.725229	CAN'T YOU
-0.725229	CANADA ABOUT
-0.725229	CAROLINA CAN
-1.20235	CASH A
-1.20235	CASH FOR
-1.20235	CASH WITH
-0.725229	CATCH UP
-1.327289	CAUSE ABOUT
-1.327289	CAUSE I
-1.327289	CAUSE OF
-1.327289	CAUSE THAT'S
-0.725229	CENTERVILLE BRING
-0.725229	CENTRAL FROM
-0.725229	CHAUFFEUR WE'RE
-0.725229	CLEANED OUT
-0.725229	CLEANING </s>
-0.4067987	COLLEGE </s>
-1.20235	COLLEGE AND
-1.026259	COME IN
-1.026259	COME WITH
-1.026259	COMING BACK
-1.026259	COMING HOME
-0.725229	COMMERCIAL IT
-0.725229	COMMITTED SUICIDE
-0.725229	COMMUNITY COLLEGE
-0.725229	COMPANIES THAT
-0.725229	COMPLETELY GOT
-0.725229	COMPUTER PROGRAMING
-0.725229	COMPUTERS SO
-0.2307075	CONE </s>
-0.725229	CONTRACTORS AND
-0.725229	COOL </s>
-0.725229	COUCH OVER
-1.327289	COULD BE
-1.327289	COULD BUT
-1.327289	COULD GET
-1.327289	COULD GIVE
-1.026259	COULDN'T FIND
-1.026259	COULDN'T SEE
-1.026259	COUPLE DAYS
-1.026259	COUPLE TIMES
-0.725229	COURSE IN
-0.725229	CRAZY </s>
-0.725229	CREDIT UNION
-0.725229	CREEK </s>
-0.725229	CRYSTAL </s>
-0.725229	CUFF IT'S
-0.725229	CURRENTLY AT
-0.725229	DAD'S HISTORY
-0.725229	DATE BUT
-0.725229	DAUGHTER </s>
-1.026259	DAY </s>
-1.026259	DAY FOR
-0.7078287	DAYS </s>
-1.50338	DAYS ON
-1.50338	DAYS OVER
-1.50338	DAYS SO
-1.50338	DAYS YOU
-0.725229	DEAL LIKE
-0.725229	DEALING WITH
-0.725229	DECIDE THEY
-0.725229	DECIDED ON
-1.20235	DEFINITELY </s>
-1.20235	DEFINITELY A
-1.20235	DEFINITELY NICE
-0.725229	DELTA COLLEGE
-0.725229	DEPARTMENT </s>
-0.725229	DEPRESSANTS BECAUSE
-1.20235	DEPRESSED </s>
-1.20235	DEPRESSED CAUSE
-1.20235	DEPRESSED DOESN'T
-1.20235	DEPRESSION IS
-1.20235	DEPRESSION PART
-1.20235	DEPRESSION SO
-1.026259	DETROIT </s>
-1.026259	DETROIT ZOO
-1.20235	DID NOT
-1.20235	DID WE
-1.20235	DID YOU
-1.026259	DIDN'T FEEL
-1.026259	DIDN'T SORRY
-0.725229	DIED AND
-0.725229	DIFFERENCE BETWEEN
-1.026259	DIFFERENT BOOK
-1.026259	DIFFERENT THINGS
-0.725229	DIRT TRACK
-0.2307075	DISABILITY </s>
-0.725229	DISASTER AREA
-0.725229	DISEASE WORKS
-0.725229	DNA STUDY
-1.570327	DO </s>
-1.570327	DO ANY
-0.7747755	DO LIKE
-1.570327	DO MY
-1.570327	DO SO
-1.570327	DO STUMBLE
-0.725229	DOCTORS APPOINTMENTS
-0.725229	DOES </s>
-0.725229	DOESN'T MEAN
-0.725229	DOG AND
-1.026259	DOING OKAY
-1.026259	DOING THE
-0.725229	DOLLARS TO
-1.871357	DON'T APPEAR
-1.871357	DON'T EVEN
-1.871357	DON'T HAVE
-0.3679768	DON'T KNOW
-1.075806	DON'T LIKE
-1.871357	DON'T REMEMBER
-1.871357	DON'T SELL
-1.871357	DON'T THERE
-0.725229	DONAVAN </s>
-1.327289	DOWN </s>
-1.327289	DOWN SOUTH
-1.327289	DOWN THERE
-1.327289	DOWN TO
-1.026259	DOWNTOWN <unk>
-1.026259	DOWNTOWN DETROIT
-1.20235	DRAINS AND
-1.20235	DRAINS CLEANED
-1.20235	DRAINS ERUPTED
-0.725229	DRIVE RIGHT
-0.725229	DROVE ALL
-0.725229	DRUG AND
-0.725229	EACH </s>
-1.20235	EIGHT DAYS
-1.20235	EIGHT FORTY
-1.20235	EIGHT OH
-1.026259	ELEMENTARY AND
-1.026259	ELEMENTARY STARTS
-0.725229	ELSE DID
-0.725229	EM BUT
-0.725229	EMBARRASSING </s>
-0.725229	EMPTIED FOR
-0.725229	ENDED UP
-1.026259	ENOUGH AND
-1.026259	ENOUGH BECAUSE
-0.725229	EQUITY ON
-0.725229	ERR TEST
-0.725229	ERUPTED WITH
-1.327289	EVEN BOTHER
-1.327289	EVEN IF
-0.5317374	EVEN THOUGH
-0.725229	EVER SEEN
-1.026259	EVERY OTHER
-1.026259	EVERY PLAN
-0.725229	EVERYBODY WAS
-0.725229	EVERYONE HAS
-1.026259	EVERYTHING SO
-1.026259	EVERYTHING WHERE
-0.725229	EVERYWHERE BUT
-0.725229	EVICT PRINCESS
-0.725229	EXACT SYMPTOMS
-1.327289	EXACTLY SO
-0.4307008	EXACTLY SURE
-0.725229	EXCITED </s>
-0.725229	EXCITING </s>
-0.725229	EXERCISE </s>
-0.725229	FACILITY </s>
-0.725229	FAIRLY QUICK
-0.725229	FALLING OVER
-0.725229	FALLS UNDER
-1.20235	FAMILY </s>
-1.20235	FAMILY AND
-1.20235	FAMILY THEY
-0.725229	FAN ISN'T
-0.725229	FANCY HOUSES
-0.725229	FARM IN
-0.725229	FEEL THAT
-0.725229	FEES TRYING
-0.725229	FIELD TO
-0.725229	FIFTY OR
-0.725229	FIND ANYONE
-0.725229	FIREWORKS AND
-1.20235	FIRST BUT
-1.20235	FIRST FOUND
-1.20235	FIRST MOVED
-0.725229	FISHING TRIP
-0.725229	FIVE </s>
-0.725229	FIX IT
-1.20235	FLORIDA </s>
-1.20235	FLORIDA TO
-1.20235	FLORIDA WERE
-0.725229	FOOD OR
-1.008859	FOR A
-1.80441	FOR EIGHT
-1.80441	FOR IT
-1.80441	FOR MY
-1.80441	FOR NO
-1.80441	FOR ONE
-1.80441	FOR PEOPLE
-1.80441	FOR THAT
-1.008859	FOR THE
-1.80441	FOR THIS
-0.725229	FORGOT THAT
-0.725229	FORMULA AND
-0.725229	FORT LAUDERDALE'S
-0.725229	FORTY </s>
-0.725229	FOUND OUT
-0.725229	FOUR DAYS
-0.725229	FRESHMAN IN
-1.026259	FRIENDS </s>
-1.026259	FRIENDS FROM
-1.80441	FROM </s>
-1.80441	FROM CENTERVILLE
-1.80441	FROM DOWN
-1.80441	FROM HAVING
-1.80441	FROM HERE
-0.4563589	FROM THE
-1.80441	FROM WHAT
-1.80441	FROM WORK
-0.606792	FUN </s>
-1.50338	FUN TO
-1.50338	FUN WHEN
-1.50338	FUN YES
-0.725229	FUNCTIONAL COURSE
-0.725229	GAME </s>
-0.725229	GARAGE SALE
-0.725229	GAY CENTRAL
-0.725229	GENE </s>
-0.9710701	GET 300
-0.8700335	GET A
-1.766622	GET ALL
-1.766622	GET I
-1.766622	GET LOANS
-1.766622	GET SICK
-0.9710701	GET THE
-0.725229	GETS CRAZY
-1.20235	GETTING A
-0.4067987	GETTING MARRIED
-0.725229	GIFTS </s>
-0.725229	GIRLS </s>
-0.725229	GIVE ME
-1.50338	GO ACTUALLY
-1.50338	GO BUT
-1.50338	GO INTO
-1.50338	GO THERE
-1.50338	GO TO
-1.50338	GO YET
-0.725229	GOES </s>
-1.628319	GOING ON
-0.8567329	GOING TO
-1.026259	GOLF </s>
-1.026259	GOLF LEAGUE
-0.725229	GONE NOW
-0.606792	GOOD </s>
-1.50338	GOOD I'D
-1.50338	GOOD ONE
-1.50338	GOOD THOUGH
-1.570327	GOT A
-1.570327	GOT MARRIED
-1.570327	GOT ON
-1.570327	GOT RID
-0.7747755	GOT TO
-1.570327	GOT UNPACKED
-0.725229	GRADUATING NEXT
-0.725229	GRAHAM </s>
-0.725229	GRAND </s>
-1.327289	GREAT </s>
-1.327289	GREAT FIELD
-1.327289	GREAT SCHOOL
-1.327289	GREAT TIME
-0.725229	GROWN TO
-0.725229	GUYS EVER
-0.30103	HAD A
-1.80441	HAD EM
-1.80441	HAD HER
-1.80441	HAD MONEY
-1.80441	HAD SHOULDER
-1.80441	HAD TALKED
-1.80441	HAD TO
-0.725229	HANDICAP ACCESSIBLE
-0.725229	HAPPENS CAUSE
-0.725229	HAPPY </s>
-1.026259	HARD GETTING
-1.026259	HARD TO
-0.725229	HAS THE
-1.032761	HAVE A
-1.929349	HAVE ANY
-1.929349	HAVE HELP
-1.929349	HAVE MY
-1.929349	HAVE NO
-1.929349	HAVE PLANNED
-1.133797	HAVE PROOF
-1.133797	HAVE THE
-1.929349	HAVE THEM
-1.133797	HAVE TO
-1.929349	HAVE TWO
-0.725229	HAVEN'T BEEN
-0.2307075	HAVING THE
-1.026259	HD </s>
-1.026259	HD AND
-1.80441	HE COMMITTED
-1.80441	HE DOES
-1.80441	HE JUST
-1.008859	HE LOVES
-1.80441	HE PULLS
-1.80441	HE SAID
-1.80441	HE USED
-1.80441	HE WANTED
-1.008859	HE WANTS
-1.80441	HE WENT
-0.2307075	HE'LL BE
-1.424199	HE'S A
-1.424199	HE'S IT
-0.6286474	HE'S NOT
-1.424199	HE'S VERY
-0.725229	HELP AND
-0.725229	HELPFUL </s>
-1.026259	HER 96TH
-1.026259	HER BEING
-0.4067987	HERE </s>
-1.20235	HERE WHILE
-0.725229	HIGH SCHOOL
-0.725229	HIRE SOMEBODY
-1.026259	HISTORY </s>
-1.026259	HISTORY NOT
-1.026259	HOLIDAY LEFT
-1.026259	HOLIDAY TO
-0.725229	HOLIDAYS DON'T
-1.026259	HOME AFTER
-1.026259	HOME IN
-0.725229	HONEY MOON
-1.026259	HOPEFULLY HOPEFULLY
-1.026259	HOPEFULLY SO
-0.725229	HOSE AND
-0.725229	HOT </s>
-1.026259	HOUR </s>
-1.026259	HOUR SOUTH
-0.725229	HOURS A
-0.7078287	HOUSE </s>
-1.50338	HOUSE ALSO
-1.50338	HOUSE AND
-1.50338	HOUSE I
-1.50338	HOUSE IS
-0.725229	HOUSES ALONG
-0.725229	HOW TO
-0.725229	HOWEVER </s>
-0.725229	HUNDRED </s>
-0.725229	HURRICANE </s>
-0.725229	HUSBAND IS
-1.838162	I AM
-2.633714	I CALLED
-1.285663	I CAN
-2.633714	I CAN'T
-2.633714	I COULDN'T
-2.633714	I DIDN'T
-1.737126	I DO
-0.8293038	I DON'T
-1.838162	I FIRST
-2.633714	I FORGOT
-1.737126	I GET
-2.633714	I GOT
-1.737126	I HAD
-0.908485	I HAVE
-2.633714	I HAVEN'T
-1.838162	I I
-1.838162	I JUST
-1.862128	I KNOW
-1.838162	I LIKE
-2.633714	I LOVE
-2.633714	I MAYBE
-2.633714	I NEED
-2.633714	I OVERPAID
-1.737126	I PAID
-2.633714	I START
-2.633714	I STARTED
-2.633714	I STILL
-2.633714	I TALKED
-1.285663	I THINK
-2.633714	I TORE
-1.838162	I WAS
-2.633714	I WASTE
-2.633714	I WORK
-0.725229	I'D RECOMMEND
-1.20235	I'LL BE
-0.4067987	I'LL GO
-1.90132	I'M CURRENTLY
-1.105769	I'M DOING
-1.90132	I'M EXCITED
-1.105769	I'M GOING
-1.90132	I'M I'M
-1.90132	I'M NOT
-1.90132	I'M OFF
-1.90132	I'M ON
-1.90132	I'M REUPHOLSTERING
-1.105769	I'M SURE
-1.90132	I'M TRYING
-1.90132	I'M WORKING
-0.2307075	I'VE BEEN
-1.026259	IDEA </s>
-1.026259	IDEA WHERE
-0.5482485	IF I
-1.628319	IF IF
-1.628319	IF THEY
-0.8327674	IF YOU
-1.208852	IN </s>
-1.208852	IN A
-2.10544	IN BATTLE
-2.10544	IN COLLEGE
-2.10544	IN CRYSTAL
-2.10544	IN FLORIDA
-2.10544	IN I
-2.10544	IN JUNE
-2.10544	IN LAWS'
-2.10544	IN LEGAL
-2.10544	IN LIKE
-2.10544	IN NORTH
-2.10544	IN OHIO
-2.10544	IN ORLANDO
-2.10544	IN ROYAL
-2.10544	IN SAGINAW
-1.02537	IN THE
-0.725229	INAUDIBLE </s>
-0.725229	INCH OF
-0.2307075	INCOME IS
-0.725229	INDIVIDUAL </s>
-0.725229	INHERITANCE AND
-1.026259	INSIDE AND
-1.026259	INSIDE SO
-0.725229	INTO COMPUTER
-0.725229	INVITED ME
-1.955678	IS 96
-0.8756074	IS </s>
-1.160126	IS A
-1.955678	IS AS
-1.955678	IS COMING
-1.955678	IS FRESHMAN
-1.955678	IS GETTING
-1.955678	IS IN
-1.160126	IS NOT
-1.955678	IS ONE
-1.955678	IS SO
-1.955678	IS WORKING
-0.725229	ISN'T ALWAYS
-0.725229	ISSUE HAPPENS
-0.4067987	ISSUES AND
-1.20235	ISSUES FROM
-1.462109	IT </s>
-2.358697	IT A
-2.358697	IT AND
-2.358697	IT AT
-2.358697	IT BASICALLY
-2.358697	IT BELONGS
-2.358697	IT BUT
-2.358697	IT COULD
-2.358697	IT FOOD
-2.358697	IT FOR
-2.358697	IT GETS
-2.358697	IT GOES
-2.358697	IT GOT
-2.358697	IT I'LL
-1.278627	IT IS
-2.358697	IT LOOKED
-1.563146	IT MIGHT
-2.358697	IT NICE
-2.358697	IT ON
-2.358697	IT SO
-2.358697	IT STARTS
-2.358697	IT UP
-0.4573772	IT WAS
-0.725229	IT'LL BE
-1.533427	IT'S A
-2.305012	IT'S AMAZING
-2.305012	IT'S AT
-1.509461	IT'S DEFINITELY
-2.305012	IT'S FUN
-2.305012	IT'S GONE
-2.305012	IT'S GOOD
-2.305012	IT'S GREAT
-2.305012	IT'S HARD
-2.305012	IT'S I
-0.8016323	IT'S IT'S
-2.305012	IT'S JUST
-1.509461	IT'S LIKE
-2.305012	IT'S MORE
-2.305012	IT'S NORTHEAST
-1.509461	IT'S NOT
-2.305012	IT'S ONLY
-2.305012	IT'S OVERWHELMING
-2.305012	IT'S TERRIBLE
-2.305012	IT'S TOO
-2.305012	IT'S TROUBLE
-1.509461	IT'S WAY
-2.305012	IT'S WITH
-1.026259	ITS HARD
-1.026259	ITS ITS
-0.2307075	JEFF CONE
-0.725229	JEWISH SO
-0.725229	JOANNE'S AND
-0.725229	JOB THAT
-1.026259	JUNE </s>
-1.026259	JUNE LAST
-0.725229	JUNIOR </s>
-1.929349	JUST BECAUSE
-1.929349	JUST CAN
-1.929349	JUST COMPLETELY
-1.929349	JUST DAYS
-1.929349	JUST FIFTY
-1.929349	JUST GET
-1.929349	JUST GOT
-1.929349	JUST HAVING
-1.929349	JUST I
-1.929349	JUST KINDA
-1.929349	JUST PLAY
-1.929349	JUST TALK
-1.929349	JUST THE
-1.929349	JUST UM
-1.929349	JUST YES
-1.929349	JUST YOU
-0.725229	KIDS AND
-0.3057621	KIND OF
-0.725229	KINDA PLAYED
-1.190369	KNOW </s>
-2.086957	KNOW BECAUSE
-2.086957	KNOW BEING
-2.086957	KNOW CAUSE
-2.086957	KNOW HE
-2.086957	KNOW HE'S
-2.086957	KNOW HOW
-1.190369	KNOW I
-2.086957	KNOW INAUDIBLE
-1.291405	KNOW IT'S
-2.086957	KNOW MAYBE
-2.086957	KNOW MY
-2.086957	KNOW NOT
-2.086957	KNOW OF
-2.086957	KNOW THE
-2.086957	KNOW THEY'RE
-2.086957	KNOW WHAT
-2.086957	KNOW WHEN
-0.725229	LADY </s>
-1.20235	LAKE </s>
-1.20235	LAKE CALLED
-1.20235	LAKE DOWNTOWN
-0.2307075	LANDLORD IT'S
-1.20235	LAST JUNE
-1.20235	LAST MONTH
-1.20235	LAST WEEK
-0.725229	LAUDERDALE'S LIKE
-0.725229	LAWS' FARM
-0.725229	LEAGUE IN
-0.725229	LEFT WHERE
-0.725229	LEGAL FEES
-0.725229	LESS LIKE
-2.067652	LIKE 6
-1.171063	LIKE </s>
-0.9875811	LIKE A
-2.067652	LIKE BEING
-2.067652	LIKE EIGHT
-2.067652	LIKE GAY
-1.2721	LIKE NO
-2.067652	LIKE OH
-2.067652	LIKE POWER
-2.067652	LIKE RAY
-2.067652	LIKE SHUT
-2.067652	LIKE THAT
-2.067652	LIKE THE
-2.067652	LIKE THERE
-2.067652	LIKE VARIETY
-2.067652	LIKE WHY
-0.725229	LIONS GAME
-0.725229	LIONS' FAN
-0.725229	LIST OF
-1.20235	LITTLE BIT
-1.20235	LITTLE LADY
-1.20235	LITTLE NIECES
-1.026259	LIVE IN
-1.026259	LIVE NEAR
-1.327289	LOAN BASED
-1.327289	LOAN BECAUSE
-1.327289	LOAN FROM
-1.327289	LOAN OR
-1.026259	LOANS </s>
-1.026259	LOANS NOW
-0.725229	LOCATION I
-0.725229	LONG TIME
-0.725229	LOOK AT
-1.026259	LOOKED AT
-1.026259	LOOKED THEY
-0.725229	LOST LAST
-0.725229	LOT OF
-0.725229	LOTS OF
-0.725229	LOVE IT
-1.026259	LOVES COMPUTERS
-1.026259	LOVES IT
-1.20235	MAINTENANCE ISSUE
-0.4067987	MAINTENANCE ISSUES
-1.026259	MAKE EVERY
-1.026259	MAKE SURE
-0.725229	MAKING IT
-0.725229	MANGERS AND
-0.4067987	MARRIED </s>
-1.20235	MARRIED OH
-0.725229	MART WAS
-0.725229	MAY NOT
-1.026259	MAYBE OVERPAID
-1.026259	MAYBE WE
-0.725229	MCKENZIE <unk>
-1.50338	ME A
-1.50338	ME BUT
-1.50338	ME EVERYWHERE
-1.50338	ME ON
-1.50338	ME SO
-1.50338	ME THERE'S
-0.725229	MEAN THAT
-0.725229	MEMORIAL DAY
-0.725229	MET AT
-0.725229	MHM YES
-0.5276108	MHMM </s>
-0.6286474	MHMM YUP
-1.026259	MIDDLE </s>
-1.026259	MIDDLE OF
-0.2307075	MIGHT BE
-0.725229	MILES FROM
-0.725229	MILLER AND
-0.725229	MOBILITY AND
-1.026259	MONDAY </s>
-1.026259	MONDAY MEMORIAL
-1.327289	MONEY </s>
-1.327289	MONEY BECAUSE
-1.327289	MONEY BEFORE
-1.327289	MONEY IN
-0.725229	MONTH IT
-0.725229	MONTHS OLD
-0.725229	MOON AND
-1.026259	MORE LIKE
-1.026259	MORE PEACEFUL
-0.725229	MOST FUN
-0.725229	MOSTLY IN
-0.725229	MOUNTAINS TO
-0.725229	MOVE FROM
-0.725229	MOVED IN
-0.725229	MOVIE TONIGHT
-0.725229	MOVING WENT
-1.327289	MUCH JUST
-1.327289	MUCH STUFF
-1.327289	MUCH THE
-1.327289	MUCH YEAH
-1.929349	MY </s>
-1.929349	MY DAD'S
-1.929349	MY DAUGHTER
-1.929349	MY DOG
-1.929349	MY FAMILY
-1.929349	MY HUSBAND
-1.929349	MY IN
-1.929349	MY INCOME
-1.929349	MY LITTLE
-1.929349	MY MCKENZIE
-1.929349	MY NIECE
-1.929349	MY PARENTS
-1.929349	MY PARTNER'S
-1.929349	MY SICK
-1.929349	MY UNCLE
-1.929349	MY VACATIONS
-0.725229	NEAR TAMPA
-0.725229	NEAT </s>
-0.725229	NEED YEAH
-0.725229	NEUROLOGIST THAT
-0.725229	NEW JOB
-1.424199	NEXT MAINTENANCE
-1.424199	NEXT REALTOR
-1.424199	NEXT THREE
-0.6286474	NEXT YEAR
-0.4067987	NICE </s>
-1.20235	NICE INSIDE
-0.725229	NIECE IS
-0.725229	NIECES IN
-1.026259	NIGHT </s>
-1.026259	NIGHT I'LL
-0.725229	NINE O'CLOCK
-1.171063	NO </s>
-2.067652	NO ACTUALLY
-2.067652	NO FROM
-1.171063	NO I
-2.067652	NO I'M
-2.067652	NO IDEA
-2.067652	NO ISSUES
-2.067652	NO JUST
-1.2721	NO NOT
-2.067652	NO OTHER
-2.067652	NO PROBLEM
-2.067652	NO REASON
-2.067652	NO WAY
-1.171063	NO WE
-2.067652	NO WELL
-1.20235	NORTH </s>
-1.20235	NORTH CAROLINA
-1.20235	NORTH UM
-0.725229	NORTHEAST OR
-0.725229	NORTHWEST OF
-2.067652	NOT </s>
-2.067652	NOT A
-2.067652	NOT ANYTHING
-2.067652	NOT DEPRESSED
-1.2721	NOT ENOUGH
-1.171063	NOT EXACTLY
-1.2721	NOT I
-2.067652	NOT SOME
-1.2721	NOT THAT
-2.067652	NOT THE
-2.067652	NOT THINK
-1.2721	NOT THIS
-2.067652	NOT TOO
-2.067652	NOT UNPACKED
-2.067652	NOT WASTE
-2.067652	NOT YOU
-1.026259	NOTHING PLANNED
-1.026259	NOTHING YET
-1.628319	NOW A
-0.8327674	NOW I'M
-1.628319	NOW IT'S
-1.628319	NOW MOSTLY
-1.628319	NOW THAT
-1.628319	NOW THERE
-1.628319	NOW TO
-0.725229	O'CLOCK IT'S
-0.725229	OAK </s>
-0.725229	OCCASIONAL TORNADO
-0.725229	OCCASIONALLY BUT
-0.725229	OCEAN IT
-2.067652	OF A
-2.067652	OF ABOUT
-2.067652	OF BEING
-2.067652	OF COMPANIES
-2.067652	OF CONTRACTORS
-2.067652	OF EACH
-2.067652	OF FUN
-2.067652	OF MONEY
-2.067652	OF MY
-2.067652	OF SLUSH
-2.067652	OF SOMETHING
-2.067652	OF STUFF
-2.067652	OF TAMPA
-1.171063	OF THE
-2.067652	OF THEM
-2.067652	OF THINGS
-2.067652	OF TRUCKLOADS
-2.067652	OF WANTED
-2.067652	OF WAWA
-2.067652	OF YET
-0.725229	OFF SO
-1.766622	OH FIVE
-0.8700335	OH I
-1.766622	OH IT
-1.766622	OH NO
-1.766622	OH NOT
-1.766622	OH OKAY
-1.766622	OH WELL
-0.9710701	OH YEAH
-0.725229	OHIO WHERE
-0.725229	OK </s>
-0.0761476	OKAY </s>
-0.2307075	OLD </s>
-1.133797	ON A
-1.929349	ON ANTI
-1.929349	ON ANTIDEPRESSANTS
-1.929349	ON BILLY
-1.929349	ON BUT
-1.133797	ON DISABILITY
-1.929349	ON IT
-1.929349	ON MAKING
-1.929349	ON MONDAY
-1.133797	ON THAT
-1.032761	ON THE
-1.80441	ONE BANK
-1.80441	ONE HUNDRED
-1.008859	ONE IS
-1.80441	ONE IT
-0.9078221	ONE OF
-1.80441	ONE POINT
-1.80441	ONE RELATOR
-1.80441	ONE TO
-1.80441	ONE YEAR
-1.026259	ONES BE
-1.026259	ONES I
-1.20235	ONLY ONES
-1.20235	ONLY THING
-1.20235	ONLY THREE
-0.725229	ONTARIO </s>
-1.424199	OR GIFTS
-1.424199	OR HIRE
-1.424199	OR IF
-1.424199	OR NORTHWEST
-1.424199	OR ONE
-0.725229	ORLANDO </s>
-1.327289	OTHER HOLIDAY
-1.327289	OTHER ONE
-1.327289	OTHER ONES
-1.327289	OTHER WEEKEND
-0.725229	OUR COUCH
-1.628319	OUT </s>
-1.628319	OUT AND
-1.628319	OUT EVERYBODY
-1.628319	OUT OF
-1.628319	OUT THAT
-1.628319	OUT THE
-1.628319	OUT WALKING
-1.628319	OUT WERE
-1.424199	OVER IN
-0.5276108	OVER THE
-1.424199	OVER WITH
-1.026259	OVERPAID </s>
-1.026259	OVERPAID FOR
-1.026259	OVERWHELMING </s>
-1.026259	OVERWHELMING AS
-1.327289	PAID 300
-0.4307008	PAID CASH
-0.725229	PALM BEACH
-0.725229	PANDAS </s>
-0.725229	PARENTS DIED
-0.725229	PART NOT
-0.725229	PARTNER'S A
-0.725229	PARTY SO
-0.725229	PAY YOU
-0.725229	PEACEFUL INSIDE
-0.725229	PEOPLE </s>
-0.725229	PERHAPS AN
-0.725229	PETE </s>
-0.725229	PETS AND
-0.725229	PICK UP
-0.725229	PICTURES </s>
-1.026259	PLACE NOT
-1.026259	PLACE THAT
-0.725229	PLAN </s>
-1.026259	PLANNED IS
-1.026259	PLANNED YET
-1.327289	PLAY </s>
-1.327289	PLAY DATE
-1.327289	PLAY GOLF
-1.327289	PLAY IN
-0.725229	PLAYED WITH
-0.725229	PLUMBER TO
-0.725229	POINT SEVEN
-0.725229	POOP AND
-0.725229	POWER WASH
-0.725229	POWERFUL HOSE
-0.725229	PRETTY MUCH
-0.725229	PRINCESS </s>
-1.50338	PROBABLY A
-1.50338	PROBABLY AND
-1.50338	PROBABLY CLEANING
-1.50338	PROBABLY SATURDAY
-1.50338	PROBABLY TAKE
-1.50338	PROBABLY THE
-1.026259	PROBLEM ACTUALLY
-1.026259	PROBLEM YOU
-0.725229	PROFESSOR SO
-0.725229	PROGRAMING SO
-1.026259	PROOF </s>
-1.026259	PROOF FROM
-0.725229	PROPERTY MANGERS
-0.725229	PROPHYLACTIC PURPOSES
-0.725229	PULLS ME
-0.725229	PURPOSES </s>
-0.725229	PUT ME
-0.725229	QUARTER INCH
-0.725229	QUICK TRIP
-0.725229	QUICKEN LOANS
-0.725229	RACE TRACK
-0.725229	RAISED </s>
-0.725229	RAY DONAVAN
-0.725229	READ </s>
-0.725229	READING A
-0.725229	REAL BIG
-1.026259	REALLY NEAT
-1.026259	REALLY NICE
-0.725229	REALTOR SAID
-0.725229	REASON </s>
-0.725229	RECEPTION </s>
-0.725229	RECOMMEND IT
-0.725229	RED PANDAS
-0.725229	RELATIONSHIP HE'S
-1.20235	RELATOR ABOUT
-1.20235	RELATOR SAID
-1.20235	RELATOR THAT
-0.725229	RELIGIOUS TYPE
-0.725229	REMEMBER WHICH
-0.725229	RESIDENTIAL </s>
-0.725229	REUPHOLSTERING OUR
-0.725229	RID OF
-0.725229	RIDE BIKE
-0.7747755	RIGHT </s>
-1.570327	RIGHT EXACTLY
-0.6737388	RIGHT NOW
-1.570327	RIGHT RIGHT
-0.725229	ROAD </s>
-0.725229	ROTATOR CUFF
-0.725229	ROYAL OAK
-0.725229	SAGINAW </s>
-0.6286474	SAID OH
-0.6286474	SAID THAT
-1.424199	SAID THERE'S
-0.725229	SAINT PETE
-0.725229	SALE </s>
-0.725229	SALVATION ARMY
-0.725229	SAME EXACT
-0.725229	SARASOTA SO
-1.026259	SATURDAY </s>
-1.026259	SATURDAY NIGHT
-0.725229	SAW AN
-1.026259	SCHOOL </s>
-1.026259	SCHOOL AND
-1.424199	SEE A
-1.424199	SEE FAMILY
-1.424199	SEE MY
-1.424199	SEE THAT
-1.424199	SEE THEM
-0.725229	SEEN THAT
-0.4067987	SELL IT
-1.20235	SELL THE
-0.725229	SELLING IT
-0.725229	SEVEN </s>
-1.026259	SHE HAD
-1.026259	SHE WAS
-1.026259	SHOULD BE
-1.026259	SHOULD GO
-0.725229	SHOULDER SURGERY
-0.725229	SHOWER FOR
-1.026259	SHOWS </s>
-1.026259	SHOWS I
-0.725229	SHUT DOWN
-0.2307075	SICK TIME
-0.725229	SILLY AND
-0.725229	SISTERS THAT
-0.725229	SIT THERE
-0.725229	SITUATION IT'S
-0.725229	SLUSH YA'LL
-0.725229	SMALL LIST
-1.717071	SO </s>
-2.488657	SO AN
-1.693105	SO AND
-2.488657	SO BETWEEN
-2.488657	SO COOL
-2.488657	SO DEPRESSION
-2.488657	SO HE'LL
-2.488657	SO HE'S
-2.488657	SO HOLIDAYS
-1.408587	SO I
-2.488657	SO I'LL
-2.488657	SO I'M
-1.140606	SO IT
-1.717071	SO IT'S
-2.488657	SO ITS
-2.488657	SO MUCH
-2.488657	SO NO
-2.488657	SO NOW
-2.488657	SO THAT
-1.592069	SO THAT'S
-2.488657	SO THE
-2.488657	SO THEN
-1.592069	SO THEY
-2.488657	SO THIS
-2.488657	SO UM
-1.408587	SO WE
-2.488657	SO WE'LL
-2.488657	SO WE'RE
-1.693105	SO YEAH
-2.488657	SO YES
-1.20235	SOME FRIENDS
-1.20235	SOME PLACE
-1.20235	SOME RELIGIOUS
-1.026259	SOMEBODY </s>
-1.026259	SOMEBODY THAT
-0.725229	SOMETHING RIGHT
-0.725229	SOMETIME </s>
-0.725229	SORRY </s>
-1.026259	SOUTH DO
-1.026259	SOUTH OF
-0.725229	STARED AT
-0.725229	START ON
-0.725229	STARTED GOING
-0.2307075	STARTS AT
-0.725229	STAY </s>
-1.026259	STILL MAINTENANCE
-1.026259	STILL RIDE
-1.026259	STRESS OF
-1.026259	STRESS THERE'S
-0.725229	STUDY ERR
-0.5317374	STUFF </s>
-1.327289	STUFF AND
-1.327289	STUFF GOING
-0.725229	STUMBLE OCCASIONALLY
-0.725229	SUICIDE SO
-0.725229	SUNDAY I'M
-0.725229	SUPPLIES AND
-1.50338	SURE AND
-0.7078287	SURE HE
-1.50338	SURE WHERE
-1.50338	SURE YET
-1.50338	SURE YOU
-0.725229	SURGERY </s>
-0.725229	SWEET LITTLE
-0.725229	SYMPTOMS YOU
-0.725229	TAKE A
-0.725229	TALK AND
-0.2307075	TALKED TO
-0.2307075	TAMPA </s>
-1.20235	TEN AND
-1.20235	TEN DIFFERENT
-1.20235	TEN HOURS
-0.725229	TERRIBLE </s>
-0.725229	TEST THAT
-0.725229	THANK YOU
-1.320002	THAT </s>
-2.216591	THAT ARE
-2.216591	THAT BUT
-2.216591	THAT EVERYONE
-2.216591	THAT HERE
-0.5882717	THAT I
-1.421039	THAT IS
-2.216591	THAT JUST
-2.216591	THAT LIVE
-2.216591	THAT MONDAY
-2.216591	THAT MUCH
-2.216591	THAT ON
-2.216591	THAT SHE
-2.216591	THAT SO
-1.421039	THAT THEY
-2.216591	THAT WAS
-2.216591	THAT WEREN'T
-2.216591	THAT WILL
-2.216591	THAT YEAH
-2.216591	THAT YOU'RE
-1.570327	THAT'S GOOD
-1.570327	THAT'S HOLIDAY
-1.570327	THAT'S KIND
-1.570327	THAT'S NOT
-1.570327	THAT'S THAT'S
-1.570327	THAT'S THE
-1.570327	THAT'S YEAH
-2.588552	THE ANIMALS
-2.588552	THE AUDITING
-2.588552	THE BANK
-2.588552	THE BASEMENT
-2.588552	THE BEAVERS
-2.588552	THE BIG
-2.588552	THE CREDIT
-1.793	THE DEPRESSION
-2.588552	THE DETROIT
-2.588552	THE DISEASE
-2.588552	THE DNA
-1.691964	THE DRAINS
-2.588552	THE ELEMENTARY
-2.588552	THE EQUITY
-2.588552	THE EVEN
-2.588552	THE FAMILY
-2.588552	THE FIREWORKS
-2.588552	THE FORMULA
-2.588552	THE FOUR
-2.588552	THE GENE
-1.793	THE HD
-1.2405	THE HOUSE
-2.588552	THE HURRICANE
-2.588552	THE I
-2.588552	THE INHERITANCE
-2.588552	THE LAKE
-2.588552	THE MAINTENANCE
-2.588552	THE MIDDLE
-2.588552	THE MOBILITY
-2.588552	THE MONEY
-2.588552	THE MOST
-2.588552	THE MOUNTAINS
-2.588552	THE NEUROLOGIST
-1.691964	THE NEXT
-2.588552	THE NIGHT
-2.588552	THE OCEAN
-1.793	THE ONLY
-1.793	THE OTHER
-2.588552	THE PETS
-2.588552	THE PLACE
-2.588552	THE PLUMBER
-2.588552	THE POWERFUL
-2.588552	THE RACE
-2.588552	THE RED
-2.588552	THE RELATOR
-2.588552	THE ROAD
-2.588552	THE SAME
-2.588552	THE SHOWS
-2.588552	THE SO
-2.588552	THE STRESS
-2.588552	THE SUPPLIES
-2.588552	THE THE
-2.588552	THE TWO
-1.793	THE WAY
-2.588552	THE WEDDING
-1.691964	THE WEEKEND
-2.588552	THE YOU
-2.588552	THE ZOO
-1.026259	THEIR JEWISH
-1.026259	THEIR MONEY
-1.327289	THEM </s>
-1.327289	THEM AT
-1.327289	THEM BACK
-1.327289	THEM EVERY
-1.50338	THEN </s>
-1.50338	THEN HIGH
-1.50338	THEN PROBABLY
-1.50338	THEN THE
-1.50338	THEN UM
-1.50338	THEN WE
-0.725229	THERAPIST AT
-1.766622	THERE </s>
-0.9710701	THERE AND
-1.766622	THERE BORING
-1.766622	THERE IS
-1.766622	THERE IT
-1.766622	THERE JUST
-0.9710701	THERE LIKE
-1.766622	THERE NOT
-1.766622	THERE SOMETIME
-1.570327	THERE'S A
-0.7747755	THERE'S LIKE
-1.570327	THERE'S NO
-1.570327	THERE'S PROBABLY
-1.570327	THERE'S STILL
-1.570327	THERE'S TOO
-2.003983	THEY ALMOST
-0.9239121	THEY ARE
-1.208431	THEY BASED
-2.003983	THEY DECIDE
-2.003983	THEY DECIDED
-2.003983	THEY DO
-1.208431	THEY HAD
-2.003983	THEY LIVE
-2.003983	THEY SAID
-2.003983	THEY TRUST
-2.003983	THEY WANT
-1.208431	THEY WERE
-2.003983	THEY WON
-1.026259	THEY'RE AMAZING
-1.026259	THEY'RE SO
-1.026259	THING </s>
-1.026259	THING I
-1.20235	THINGS </s>
-1.20235	THINGS FOR
-1.20235	THINGS I
-1.50338	THINK AWAY
-1.50338	THINK IT
-1.50338	THINK SO
-1.50338	THINK THAT
-1.50338	THINK WE
-1.50338	THINK YOU'RE
-0.725229	THIRTEEN AND
-1.424199	THIS FALLS
-0.3441285	THIS WEEKEND
-1.20235	THOUGH HE
-1.20235	THOUGH HOPEFULLY
-1.20235	THOUGH I
-0.725229	THOUSAND DOLLARS
-1.026259	THREE DAYS
-1.026259	THREE MONTHS
-1.20235	THROUGH AND
-1.20235	THROUGH SOMEBODY
-1.20235	THROUGH THERE
-0.5317374	TIME </s>
-0.5317374	TIME SO
-0.725229	TIMES A
-1.462109	TO </s>
-1.563146	TO A
-1.462109	TO BE
-2.358697	TO CANADA
-1.563146	TO COME
-2.358697	TO DRIVE
-2.358697	TO EVICT
-2.358697	TO FIX
-2.358697	TO FLORIDA
-1.278627	TO GET
-1.462109	TO GO
-2.358697	TO HAVE
-2.358697	TO IT
-1.563146	TO MAKE
-1.563146	TO ME
-2.358697	TO MY
-2.358697	TO PICK
-2.358697	TO PLAY
-2.358697	TO PUT
-1.462109	TO SEE
-2.358697	TO SELL
-1.462109	TO THE
-2.358697	TO TO
-2.358697	TO USE
-2.358697	TO WALK
-2.358697	TO WHO
-0.725229	TOLD </s>
-0.725229	TONIGHT </s>
-1.327289	TOO BADLY
-1.327289	TOO HOT
-1.327289	TOO MUCH
-1.327289	TOO STRESS
-0.725229	TOOK PICTURES
-0.725229	TORE MY
-0.725229	TORNADO </s>
-1.026259	TRACK </s>
-1.026259	TRACK OVER
-0.725229	TREATMENT FACILITY
-1.026259	TRIP SO
-1.026259	TRIP TWO
-0.725229	TROUBLE IT'S
-1.20235	TRUCKLOADS AND
-1.20235	TRUCKLOADS OF
-1.20235	TRUCKLOADS TRUCKLOADS
-0.725229	TRUST </s>
-0.3057621	TRYING TO
-0.725229	TURNED THIRTEEN
-0.725229	TV SHOWS
-0.725229	TWELVE </s>
-0.7747755	TWO </s>
-1.570327	TWO GIRLS
-1.570327	TWO GRAND
-1.570327	TWO OUT
-1.570327	TWO SISTERS
-1.570327	TWO THOUSAND
-0.725229	TYPE THING
-1.424199	UH EXERCISE
-1.424199	UH I
-1.424199	UH NOTHING
-1.424199	UH SARASOTA
-1.424199	UH VERY
-0.725229	UHH HE'LL
-1.725229	UM BECAUSE
-1.725229	UM BUT
-1.725229	UM GOT
-1.725229	UM HE
-1.725229	UM HE'S
-1.725229	UM JUST
-1.725229	UM WENT
-1.725229	UM YEAH
-1.725229	UM YES
-1.725229	UM YOU
-1.026259	UMM NO
-1.026259	UMM THE
-0.725229	UNCLE INVITED
-0.725229	UNDER MY
-0.725229	UNION WE
-1.026259	UNPACKED EVERYTHING
-1.026259	UNPACKED YET
-1.50338	UP </s>
-1.50338	UP BECAUSE
-1.50338	UP COMING
-1.50338	UP NORTH
-1.50338	UP SOME
-1.50338	UP WALKING
-0.725229	USE MY
-0.725229	USED TO
-0.725229	VACATIONS DAYS
-0.725229	VARIETY </s>
-1.50338	VERY EXCITING
-1.50338	VERY GREAT
-1.50338	VERY HELPFUL
-1.50338	VERY SWEET
-0.7078287	VERY VERY
-0.725229	VISITED WITH
-0.725229	VP IT
-0.725229	WABATONGUSHI </s>
-0.725229	WAL MART
-1.026259	WALK AROUND
-1.026259	WALK WITHOUT
-0.725229	WALKED AROUND
-0.2307075	WALKING AROUND
-0.725229	WANT TO
-0.2307075	WANTED TO
-0.2307075	WANTS TO
-0.725229	WARNING </s>
-1.251897	WAS </s>
-2.047448	WAS A
-2.047448	WAS AND
-2.047448	WAS EMPTIED
-1.251897	WAS FUN
-2.047448	WAS GETTING
-2.047448	WAS IT'S
-2.047448	WAS KIND
-2.047448	WAS LOTS
-2.047448	WAS ONE
-2.047448	WAS OUT
-2.047448	WAS READING
-1.251897	WAS REALLY
-2.047448	WAS THE
-2.047448	WAS TOO
-1.251897	WAS TWO
-2.047448	WAS UP
-0.725229	WASH THE
-1.026259	WASTE A
-1.026259	WASTE THEIR
-0.725229	WAWA ONTARIO
-1.424199	WAY IT
-1.424199	WAY MORE
-1.424199	WAY NORTH
-1.424199	WAY THE
-1.424199	WAY YOU'RE
-2.156593	WE ALSO
-1.260005	WE ARE
-2.156593	WE COULD
-2.156593	WE COULDN'T
-2.156593	WE DID
-2.156593	WE DO
-2.156593	WE DROVE
-2.156593	WE GOT
-1.076522	WE HAD
-2.156593	WE HAVE
-2.156593	WE JUST
-2.156593	WE KIND
-2.156593	WE MET
-2.156593	WE SAW
-2.156593	WE TOOK
-2.156593	WE WALKED
-1.260005	WE WENT
-1.361041	WE WERE
-2.156593	WE WILL
-0.725229	WE'LL JUST
-1.026259	WE'RE GOOD
-1.026259	WE'RE WORKING
-1.026259	WE'VE BEEN
-1.026259	WE'VE HAD
-1.20235	WEDDING AND
-1.20235	WEDDING I
-1.20235	WEDDING RECEPTION
-0.725229	WEEK </s>
-0.2802676	WEEKEND </s>
-1.628319	WEEKEND PROBABLY
-1.628319	WEEKEND SO
-1.628319	WEEKEND UH
-0.725229	WEEKENDS BEFORE
-0.725229	WEIRD SITUATION
-1.679471	WELL AND
-0.88392	WELL I
-0.88392	WELL I'M
-1.679471	WELL IT
-1.679471	WELL IT'S
-1.679471	WELL RIGHT
-1.679471	WELL THE
-1.570327	WENT DOWN
-1.570327	WENT FROM
-1.570327	WENT THROUGH
-0.4902565	WENT TO
-1.570327	WERE ALL
-1.570327	WERE ANTICIPATING
-1.570327	WERE OUT
-1.570327	WERE THE
-1.570327	WERE THERE
-1.570327	WERE TURNED
-1.570327	WERE UP
-1.026259	WEREN'T IN
-1.026259	WEREN'T OUT
-1.20235	WHAT ELSE
-1.20235	WHAT I'VE
-1.20235	WHAT YOU
-0.725229	WHATEVER YEAH
-0.725229	WHEELCHAIR ANYWAY
-0.6286474	WHEN I
-1.424199	WHEN THERE'S
-1.424199	WHEN WE
-1.424199	WHEN YOUR
-0.725229	WHENEVER YOU
-1.50338	WHERE DID
-1.50338	WHERE HE
-1.50338	WHERE IT
-1.50338	WHERE THAT
-1.50338	WHERE WE
-1.50338	WHERE YOU
-0.725229	WHICH ONE
-1.026259	WHILE I
-1.026259	WHILE WE
-0.725229	WHITMORE LAKE
-1.20235	WHO IS
-1.20235	WHO SAID
-1.20235	WHO WOULD
-0.725229	WHOLE BUNCH
-0.725229	WHY ARE
-1.026259	WILL PROBABLY
-1.026259	WILL STAY
-1.725229	WITH FRIENDS
-1.725229	WITH HER
-1.725229	WITH KIDS
-1.725229	WITH MY
-1.725229	WITH POOP
-1.725229	WITH THAT
-0.6451585	WITH THE
-0.725229	WITHOUT FALLING
-0.725229	WON </s>
-0.725229	WON'T BE
-1.20235	WORK BUT
-1.20235	WORK PROBABLY
-1.20235	WORK SATURDAY
-1.424199	WORKING </s>
-1.424199	WORKING AT
-1.424199	WORKING I
-1.424199	WORKING ON
-1.424199	WORKING TEN
-0.725229	WORKS </s>
-0.725229	WOULD DO
-0.725229	YA'LL ARE
-0.3467875	YEAH </s>
-2.327289	YEAH ABSOLUTELY
-1.531737	YEAH AND
-1.531737	YEAH I'M
-2.327289	YEAH IN
-2.327289	YEAH IT
-1.531737	YEAH IT'S
-2.327289	YEAH NO
-1.247218	YEAH SO
-2.327289	YEAH THAT
-2.327289	YEAH THE
-2.327289	YEAH THERE'S
-1.430701	YEAH WE
-2.327289	YEAH WELL
-2.327289	YEAH YEP
-0.606792	YEAR </s>
-0.7078287	YEAR AGO
-1.50338	YEAR AND
-0.725229	YEARS OLD
-0.725229	YEP </s>
-0.3357921	YES </s>
-2.140202	YES IF
-1.243614	YES IT
-2.140202	YES IT'S
-1.344651	YES MY
-2.140202	YES OH
-2.140202	YES THERE
-2.140202	YES THEY'RE
-2.140202	YES TWO
-2.140202	YES YEAH
-1.344651	YES YES
-0.4233097	YET </s>
-1.50338	YET BUT
-1.50338	YET TO
-2.216591	YOU ALL
-2.216591	YOU AND
-2.216591	YOU BACK
-2.216591	YOU CAN
-1.421039	YOU COULD
-2.216591	YOU DIDN'T
-2.216591	YOU DON'T
-2.216591	YOU GET
-2.216591	YOU GUYS
-1.421039	YOU HAVE
-2.216591	YOU HERE
-2.216591	YOU I'M
-2.216591	YOU JUST
-0.4913617	YOU KNOW
-2.216591	YOU MAY
-2.216591	YOU MOVE
-2.216591	YOU PAID
-2.216591	YOU SHOULD
-2.216591	YOU WEREN'T
-2.216591	YOU WON'T
-1.20235	YOU'RE DEPRESSED
-1.20235	YOU'RE GOING
-1.20235	YOU'RE NOT
-1.026259	YOUR GROWN
-1.026259	YOUR INCOME
-1.20235	YUP </s>
-1.20235	YUP IT
-1.20235	YUP NO
-1.026259	ZOO </s>
-1.026259	ZOO AND

\end\
