
\data\
ngram 1=678
ngram 2=1916

\1-grams:
-3.413467	17	-0.07622646
-3.413467	18	-0.0456297
-2.936346	300	-0.0226559
-3.413467	6	-0.09175997
-3.413467	600	-0.09175997
-3.413467	96	-0.09175997
-3.413467	96TH	-0.09175997
-0.9951661	</s>
-99	<s>	-0.2100387
-3.112437	<unk>	-0.08686978
-1.538406	A	-0.1367516
-2.811407	ABOUT	-0.09058461
-3.413467	ABSOLUTELY	-0.0456297
-3.413467	ACCESSIBLE	-0.07622646
-2.811407	ACTUALLY	-0.1782369
-3.413467	ADRIAN	-0.09058461
-3.413467	AFTER	-0.09108873
-3.413467	AGAIN	-0.09007991
-2.936346	AGO	-0.0839773
-3.413467	ALCOHOL	-0.09175997
-2.510377	ALL	-0.139575
-3.112437	ALMOST	-0.09159225
-3.413467	ALONG	-0.07917084
-2.936346	ALSO	-0.08856227
-3.413467	ALWAYS	-0.09092075
-3.112437	AM	-0.07830691
-3.112437	AMAZING	-0.03981023
-2.811407	AN	-0.1985122
-1.44968	AND	-0.02238871
-3.413467	ANIMALS	-0.09075271
-3.413467	ANOTHER	-0.09142448
-3.413467	ANTI	-0.09175997
-3.413467	ANTICIPATING	-0.09175997
-3.413467	ANTIDEPRESSANTS	-0.08957462
-3.112437	ANY	-0.09108873
-3.413467	ANYONE	-0.09142448
-3.413467	ANYTHING	-0.08822431
-3.413467	ANYWAY	-0.0456297
-3.413467	APPEAR	-0.09142448
-3.413467	APPOINTMENTS	-0.0456297
-2.413467	ARE	-0.1081981
-3.413467	AREA	-0.0456297
-3.413467	ARMY	-0.0456297
-2.714497	AROUND	-0.1474683
-3.112437	AS	-0.0843186
-2.334286	AT	-0.07534207
-3.413467	AUDITING	-0.09175997
-3.413467	AUNT	-0.09142448
-3.112437	AWAY	-0.08771686
-2.714497	BACK	-0.1492526
-3.413467	BAD	-0.09175997
-3.413467	BADLY	-0.0456297
-3.112437	BANK	-0.07587875
-2.936346	BASED	-0.2317533
-3.413467	BASEMENT	-0.08670017
-3.413467	BASICALLY	-0.08923744
-3.413467	BATH	-0.07622646
-3.413467	BATTLE	-0.09175997
-2.183018	BE	-0.07872449
-3.413467	BEACH	-0.0456297
-3.413467	BEAVERS	-0.0456297
-2.413467	BECAUSE	-0.3595204
-3.413467	BED	-0.09175997
-2.811407	BEEN	-0.1959867
-2.936346	BEFORE	-0.02520424
-2.714497	BEING	-0.2404791
-3.413467	BELONGS	-0.0456297
-3.112437	BETWEEN	-0.329175
-3.112437	BEYOND	-0.0396212
-2.714497	BIG	-0.09108872
-3.413467	BIKE	-0.0456297
-3.413467	BILLY	-0.09175997
-3.413467	BIRTHDAY	-0.09159225
-3.413467	BIT	-0.08805522
-3.413467	BLAST	-0.08465963
-3.413467	BOOK	-0.08923744
-3.413467	BORING	-0.09175997
-3.413467	BORN	-0.07622646
-3.413467	BOTHER	-0.0456297
-3.413467	BRASS	-0.09175997
-2.936346	BUNCH	-0.4150001
-3.112437	BUSY	-0.08670017
-2.05174	BUT	-0.08111426
-3.413467	BUYING	-0.09142448
-3.112437	CALLED	-0.08974312
-2.510377	CAN	-0.03410326
-3.413467	CAN'T	-0.08670017
-3.413467	CANADA	-0.09125663
-3.413467	CAROLINA	-0.09058461
-2.936346	CASH	-0.07500823
-3.413467	CATCH	-0.09075271
-2.811407	CAUSE	-0.07080536
-3.413467	CENTRAL	-0.09007991
-3.413467	CHAUFFEUR	-0.09159225
-3.413467	CLASS	-0.0456297
-3.413467	CLASSES	-0.07622646
-3.413467	CLEANED	-0.09058461
-3.413467	CLEANING	-0.0456297
-2.936346	COLLEGE	-0.1779556
-3.112437	COME	-0.08619093
-3.112437	COMING	-0.09075271
-3.413467	COMMERCIAL	-0.08465963
-3.413467	COMMITTED	-0.09175997
-3.413467	COMMUNITY	-0.09142448
-3.413467	COMPANIES	-0.08653049
-3.413467	COMPLETELY	-0.09075271
-3.413467	COMPUTER	-0.09175997
-3.413467	COMPUTERS	-0.08209539
-3.413467	CONTRACTORS	-0.07622646
-3.413467	COOL	-0.0456297
-3.413467	COUCH	-0.09108873
-2.811407	COULD	-0.08260944
-3.112437	COULDN'T	-0.09092075
-3.112437	COUPLE	-0.09075271
-3.413467	COURSE	-0.08788607
-3.413467	CRAZY	-0.0456297
-3.413467	CREDIT	-0.09175997
-3.413467	CREEK	-0.0456297
-3.413467	CUFF	-0.0856811
-3.413467	CURRENTLY	-0.08991155
-3.413467	DAD'S	-0.09142448
-3.413467	DATE	-0.08805522
-3.413467	DAUGHTER	-0.0456297
-3.112437	DAY	-0.0430112
-2.635316	DAYS	-0.09310271
-3.413467	DEAL	-0.08822431
-3.413467	DEALING	-0.09024821
-3.413467	DECIDE	-0.08873117
-3.413467	DECIDED	-0.08923744
-2.936346	DEFINITELY	-0.03083568
-3.413467	DELTA	-0.09142448
-3.413467	DEPARTMENT	-0.0456297
-3.413467	DEPRESSANTS	-0.09024821
-2.936346	DEPRESSED	-0.04469631
-2.936346	DEPRESSION	-0.07899818
-2.811407	DETROIT	-0.1521387
-2.936346	DID	-0.07813391
-3.112437	DIDN'T	-0.09159225
-3.413467	DIED	-0.07622646
-3.413467	DIFFERENCE	-0.09159225
-3.112437	DIFFERENT	-0.09125663
-3.112437	DISABILITY	-0.2956339
-3.413467	DISASTER	-0.09175997
-3.413467	DISEASE	-0.09175997
-3.413467	DNA	-0.09175997
-2.568369	DO	-0.08478027
-3.413467	DOCTORS	-0.09175997
-3.413467	DOES	-0.0456297
-3.413467	DOESN'T	-0.09175997
-3.413467	DOG	-0.07622646
-2.936346	DOING	-0.07448509
-3.413467	DOLLARS	-0.0843186
-2.267339	DON'T	-0.1965728
-3.413467	DONAVAN	-0.0456297
-2.811407	DOWN	-0.03410325
-3.112437	DOWNTOWN	-0.09092075
-2.936346	DRAINS	-0.07587873
-3.112437	DRIVE	-0.09007991
-3.112437	DRIVING	-0.09058461
-3.413467	DROVE	-0.09058461
-3.413467	DRUG	-0.07622646
-3.413467	EACH	-0.0456297
-2.936346	EIGHT	-0.08889998
-3.112437	ELEMENTARY	-0.07587875
-3.413467	ELSE	-0.09142448
-3.413467	EM	-0.08805522
-3.413467	EMBARRASSING	-0.0456297
-3.413467	EMPTIED	-0.08957462
-3.413467	ENDED	-0.09075271
-3.112437	ENOUGH	-0.0744851
-3.413467	EQUITY	-0.08923744
-3.413467	ERR	-0.09142448
-3.413467	ERUPTED	-0.09024821
-2.811407	EVEN	-0.1971671
-3.413467	EVER	-0.09175997
-3.112437	EVERY	-0.09108873
-3.413467	EVERYBODY	-0.08839333
-3.413467	EVERYONE	-0.09175997
-3.112437	EVERYTHING	-0.08072159
-3.413467	EVERYWHERE	-0.08805522
-3.413467	EVICT	-0.09175997
-3.413467	EXACT	-0.09175997
-2.811407	EXACTLY	-0.3005481
-3.413467	EXCITED	-0.0456297
-3.413467	EXCITING	-0.0456297
-3.413467	EXERCISE	-0.0456297
-3.413467	FACILITY	-0.0456297
-3.413467	FAIRLY	-0.09175997
-3.413467	FALLING	-0.09108873
-3.413467	FALLS	-0.09175997
-2.936346	FAMILY	-0.02442174
-3.413467	FAN	-0.09175997
-3.413467	FANCY	-0.09175997
-3.413467	FARM	-0.08788607
-3.413467	FEEL	-0.08653049
-3.413467	FEES	-0.09142448
-3.112437	FESTIVAL	-0.07431059
-3.413467	FIELD	-0.0843186
-3.413467	FIFTY	-0.09108873
-3.413467	FIND	-0.09175997
-3.413467	FIREWORKS	-0.07622646
-2.936346	FIRST	-0.08771684
-3.413467	FISHING	-0.09159225
-3.413467	FIVE	-0.0456297
-3.413467	FIX	-0.08465963
-2.936346	FLORIDA	-0.03582322
-3.413467	FOOD	-0.09108873
-2.267339	FOR	-0.1311569
-3.413467	FORGOT	-0.08653049
-3.413467	FORMULA	-0.07622646
-3.413467	FORMULATE	-0.07917084
-3.413467	FORT	-0.09175997
-3.413467	FORTY	-0.0456297
-3.413467	FOUND	-0.09058461
-3.413467	FOUR	-0.09092075
-3.413467	FRESHMAN	-0.08788607
-3.112437	FRIDAY	-0.07640021
-3.413467	FRIENDS	-0.0456297
-2.372075	FROM	-0.2917557
-2.635316	FUN	-0.1648205
-3.413467	FUNCTIONAL	-0.09175997
-3.413467	GAME	-0.0456297
-3.413467	GARAGE	-0.09175997
-3.413467	GAY	-0.09175997
-3.413467	GENE	-0.0456297
-2.299524	GET	-0.173739
-3.413467	GETS	-0.09175997
-2.936346	GETTING	-0.2284821
-3.413467	GIFTS	-0.0456297
-3.413467	GIRLS	-0.0456297
-3.112437	GIVE	-0.07813393
-3.413467	GIVING	-0.09125663
-2.714497	GO	-0.08363575
-3.413467	GOES	-0.0456297
-2.510377	GOING	-0.09784985
-3.112437	GOLF	-0.04544318
-3.413467	GONE	-0.09058461
-2.635316	GOOD	-0.1760422
-2.568369	GOT	-0.1254642
-3.413467	GRADUATING	-0.09108873
-3.413467	GRAHAM	-0.0456297
-3.413467	GRAND	-0.0456297
-2.811407	GREAT	-0.04432241
-3.413467	GROWN	-0.0843186
-3.413467	GUYS	-0.09175997
-2.334286	HAD	-0.1710437
-3.112437	HALF	-0.08906875
-3.413467	HANDICAP	-0.09175997
-3.413467	HAPPENS	-0.09125663
-3.413467	HAPPY	-0.0456297
-3.112437	HARD	-0.08380657
-3.413467	HAS	-0.07917084
-2.091248	HAVE	-0.1891347
-3.413467	HAVEN'T	-0.09125663
-3.112437	HAVING	-0.329175
-3.112437	HD	-0.02812619
-2.334286	HE	-0.1539962
-3.112437	HE'LL	-0.3390729
-2.714497	HE'S	-0.150142
-3.413467	HELP	-0.07622646
-3.413467	HELPFUL	-0.0456297
-3.112437	HER	-0.09092075
-2.936346	HERE	-0.195086
-3.413467	HIGH	-0.09159225
-3.413467	HILLS	-0.0456297
-3.413467	HIRE	-0.09159225
-2.936346	HISTORY	-0.1913372
-3.112437	HOLIDAY	-0.08414799
-3.413467	HOLIDAYS	-0.08957462
-3.112437	HOME	-0.08771686
-3.413467	HONEY	-0.09175997
-3.112437	HOPEFULLY	-0.08175235
-3.413467	HOSE	-0.07622646
-3.413467	HOT	-0.0456297
-3.112437	HOUR	-0.04525659
-3.413467	HOURS	-0.07917084
-2.635316	HOUSE	-0.07491703
-3.413467	HOUSES	-0.09175997
-3.413467	HOW	-0.0843186
-3.413467	HOWEVER	-0.0456297
-3.413467	HUNDRED	-0.0456297
-3.413467	HURRICANE	-0.0456297
-3.413467	HUSBAND	-0.08906875
-1.464077	I	-0.3794476
-3.413467	I'D	-0.09175997
-3.112437	I'LL	-0.08822431
-2.071045	I'M	-0.1366591
-3.112437	I'VE	-0.3412608
-3.112437	IDEA	-0.04413535
-2.510377	IF	-0.1898916
-3.413467	IMMEDIATELY	-0.09108873
-2.033256	IN	-0.07522251
-3.413467	INAUDIBLE	-0.0456297
-3.413467	INCH	-0.08805522
-3.112437	INCOME	-0.3390729
-3.413467	INDIVIDUAL	-0.0456297
-3.413467	INHERITANCE	-0.07622646
-3.112437	INSIDE	-0.06602798
-3.413467	INSTRUMENTS	-0.0456297
-3.413467	INTO	-0.09175997
-3.413467	INVITED	-0.09092075
-2.183018	IS	-0.08540127
-3.413467	ISN'T	-0.09175997
-3.413467	ISSUE	-0.09175997
-2.936346	ISSUES	-0.22414
-1.779999	IT	-0.217714
-3.413467	IT'LL	-0.08906875
-1.845266	IT'S	-0.1168267
-3.112437	ITS	-0.09125663
-3.112437	JAZZ	-0.3415964
-3.413467	JEWISH	-0.08209539
-3.413467	JOANNE'S	-0.07622646
-3.413467	JOB	-0.08653049
-3.112437	JUNE	-0.04506991
-3.413467	JUNIOR	-0.0456297
-2.209347	JUST	-0.04113113
-3.413467	KIDS	-0.07622646
-2.936346	KIND	-0.4150001
-3.413467	KINDA	-0.09175997
-2.05174	KNOW	-0.06726424
-3.413467	LADY	-0.0456297
-2.936346	LAKE	-0.04488315
-3.112437	LANDLORD	-0.3356853
-2.936346	LAST	-0.09092074
-3.413467	LAUDERDALE'S	-0.08822431
-3.413467	LAWS'	-0.09175997
-3.413467	LEAGUE	-0.08788607
-3.413467	LECTURE	-0.07622646
-3.413467	LEFT	-0.09058461
-3.413467	LEGAL	-0.09175997
-3.413467	LESS	-0.08822431
-2.071045	LIKE	-0.07433695
-3.413467	LIONS	-0.09175997
-3.413467	LIONS'	-0.09175997
-3.413467	LIST	-0.08805522
-2.936346	LITTLE	-0.09142447
-3.112437	LIVE	-0.08771686
-2.811407	LOAN	-0.08703932
-3.112437	LOANS	-0.04413535
-3.413467	LOCATION	-0.07674751
-3.413467	LONG	-0.09125663
-3.413467	LOOK	-0.08991155
-3.112437	LOOKED	-0.08670017
-3.413467	LOST	-0.09142448
-3.413467	LOT	-0.08805522
-3.413467	LOTS	-0.08805522
-3.413467	LOVE	-0.08465963
-3.112437	LOVES	-0.08448915
-2.936346	MAINTENANCE	-0.241086
-3.112437	MAKE	-0.09058461
-3.413467	MAKING	-0.08465963
-3.413467	MANGERS	-0.07622646
-2.936346	MARRIED	-0.193403
-3.413467	MART	-0.08839333
-3.413467	MAY	-0.08822431
-3.112437	MAYBE	-0.08686978
-3.413467	MCKENZIE	-0.09159225
-2.635316	ME	-0.06065742
-3.413467	MEAN	-0.08653049
-3.413467	MEMORIAL	-0.09159225
-3.413467	MET	-0.08991155
-2.714497	MHMM	-0.3395854
-3.112437	MIDDLE	-0.04131951
-3.112437	MIGHT	-0.3390729
-3.413467	MILES	-0.09007991
-3.413467	MILLER	-0.07622646
-3.413467	MOBILITY	-0.07622646
-3.413467	MODERATELY	-0.09175997
-2.936346	MONDAY	-0.04488315
-2.811407	MONEY	-0.03867481
-3.413467	MONTH	-0.08465963
-3.413467	MONTHS	-0.09159225
-3.413467	MOON	-0.07622646
-3.112437	MORE	-0.08805522
-2.936346	MORNING	-0.2227413
-3.413467	MOST	-0.09092075
-3.413467	MOSTLY	-0.08788607
-3.413467	MOUNTAINS	-0.0843186
-3.413467	MOVE	-0.09007991
-3.413467	MOVED	-0.08788607
-3.413467	MOVIE	-0.09159225
-3.413467	MOVING	-0.09075271
-2.811407	MUCH	-0.06868856
-3.112437	MUSIC	-0.09108873
-3.413467	MUSICIAN	-0.08822431
-2.209347	MY	-0.03734641
-3.413467	NEAR	-0.09159225
-3.413467	NEAT	-0.0456297
-3.413467	NEED	-0.08517066
-3.413467	NEUROLOGIST	-0.08653049
-3.413467	NEW	-0.09175997
-2.714497	NEXT	-0.1733237
-2.936346	NICE	-0.195086
-3.413467	NIECE	-0.08906875
-3.413467	NIECES	-0.08788607
-3.413467	NIGHT	-0.0456297
-3.413467	NINE	-0.09175997
-2.071045	NO	-0.1314815
-2.936346	NORTH	-0.04338622
-3.413467	NORTHEAST	-0.09108873
-3.413467	NORTHWEST	-0.08805522
-2.071045	NOT	-0.09263598
-3.112437	NOTHING	-0.09058461
-2.510377	NOW	-0.1026165
-3.413467	O'CLOCK	-0.0856811
-3.413467	OAK	-0.0456297
-3.413467	OCCASIONAL	-0.09175997
-3.413467	OCCASIONALLY	-0.08805522
-3.413467	OCEAN	-0.08465963
-2.05174	OF	-0.08517189
-3.413467	OFF	-0.08209539
-2.372075	OH	-0.1614197
-3.413467	OHIO	-0.09058461
-3.413467	OK	-0.0456297
-2.714497	OKAY	-0.7318534
-3.112437	OLD	-0.2956339
-2.209347	ON	-0.1792731
-2.334286	ONE	-0.1673601
-3.112437	ONES	-0.07378659
-2.936346	ONLY	-0.0907527
-3.413467	ONTARIO	-0.0456297
-2.714497	OR	-0.08805522
-3.413467	ORLANDO	-0.0456297
-2.811407	OTHER	-0.08771685
-3.413467	OUR	-0.09175997
-2.510377	OUT	-5.864352e-05
-2.714497	OVER	-0.1856149
-3.112437	OVERPAID	-0.0430112
-3.112437	OVERWHELMING	-0.04525659
-2.811407	PAID	-0.3104034
-3.413467	PALM	-0.09175997
-3.413467	PANDAS	-0.0456297
-3.413467	PARENTS	-0.09175997
-3.413467	PART	-0.08822431
-3.413467	PARTNER'S	-0.07917084
-3.413467	PARTY	-0.08209539
-3.413467	PAY	-0.08670017
-3.413467	PEACEFUL	-0.09159225
-3.413467	PEOPLE	-0.0456297
-3.413467	PERHAPS	-0.09125663
-3.413467	PETE	-0.0456297
-3.413467	PETOSKEY	-0.09058461
-3.413467	PETS	-0.07622646
-3.413467	PICTURES	-0.0456297
-3.112437	PLACE	-0.08278067
-3.413467	PLAN	-0.0456297
-3.112437	PLANNED	-0.08805522
-2.714497	PLAY	-0.03791622
-3.413467	PLAYED	-0.09024821
-3.112437	PLAYING	-0.07709453
-3.413467	PLUMBER	-0.0843186
-3.413467	POINT	-0.09125663
-3.413467	POOP	-0.07622646
-3.413467	POWER	-0.09175997
-3.413467	POWERFUL	-0.09175997
-3.413467	PRETTY	-0.09125663
-3.413467	PRINCESS	-0.0456297
-2.714497	PROBABLY	-0.04897329
-3.112437	PROBLEM	-0.08602105
-3.413467	PROFESSOR	-0.08209539
-3.413467	PROGRAMING	-0.08209539
-3.112437	PROOF	-0.04357364
-3.413467	PROPERTY	-0.09175997
-3.413467	PROPHYLACTIC	-0.09175997
-3.413467	PULLS	-0.09092075
-3.413467	PURPOSES	-0.0456297
-3.413467	PUT	-0.09092075
-3.413467	QUARTER	-0.09175997
-3.413467	QUICK	-0.09159225
-3.413467	QUICKEN	-0.09159225
-3.413467	QUIZZES	-0.09108873
-3.413467	RAISED	-0.0456297
-3.413467	RAY	-0.09175997
-3.413467	READ	-0.0456297
-3.413467	READING	-0.07917084
-3.413467	REAL	-0.09108873
-3.112437	REALLY	-0.09125663
-3.413467	REALTOR	-0.09108873
-3.413467	REASON	-0.0456297
-3.413467	RECEPTION	-0.0456297
-3.413467	RECOMMEND	-0.08465963
-3.413467	RED	-0.09175997
-2.936346	REHEARSAL	-0.08278066
-3.413467	RELATIONSHIP	-0.09108873
-2.936346	RELATOR	-0.08500037
-3.413467	RELIGIOUS	-0.09175997
-3.413467	REMEMBER	-0.09175997
-3.413467	RESIDENTIAL	-0.0456297
-3.413467	REUPHOLSTERING	-0.09175997
-3.413467	RID	-0.08805522
-3.413467	RIDE	-0.09175997
-2.568369	RIGHT	-0.2303265
-3.413467	ROAD	-0.0456297
-3.413467	ROCHESTER	-0.09175997
-3.413467	ROTATOR	-0.09175997
-3.413467	ROYAL	-0.09175997
-3.413467	SAGINAW	-0.0456297
-2.714497	SAID	-0.2706392
-3.413467	SAINT	-0.09175997
-3.413467	SALE	-0.0456297
-3.413467	SALVATION	-0.09175997
-3.413467	SAME	-0.09175997
-3.413467	SARASOTA	-0.08209539
-3.112437	SATURDAY	-0.04506991
-3.413467	SAW	-0.09125663
-3.112437	SCHOOL	-0.02812619
-2.714497	SEE	-0.06974825
-3.413467	SEEN	-0.08653049
-2.936346	SELL	-0.2215137
-3.413467	SELLING	-0.08465963
-3.413467	SEMESTER	-0.08957462
-2.811407	SEVEN	-0.1519519
-3.112437	SHE	-0.08636075
-3.112437	SHOULD	-0.08822431
-3.413467	SHOULDER	-0.09175997
-3.413467	SHOWER	-0.08957462
-3.112437	SHOWS	-0.02870822
-3.413467	SHUT	-0.09125663
-3.112437	SICK	-0.3412608
-3.413467	SILLY	-0.07622646
-3.413467	SISTERS	-0.08653049
-3.413467	SIT	-0.08957462
-3.413467	SITUATION	-0.0856811
-3.413467	SLUSH	-0.09175997
-3.413467	SMALL	-0.09175997
-1.650039	SO	-0.04594691
-3.112437	SOME	-0.09142448
-3.112437	SOMEBODY	-0.0396212
-3.413467	SOMETHING	-0.09075271
-3.413467	SOMETIME	-0.0456297
-3.413467	SORRY	-0.0456297
-3.112437	SOUTH	-0.08686978
-3.413467	STARED	-0.08991155
-3.413467	START	-0.08923744
-3.112437	STARTED	-0.07778773
-3.112437	STARTS	-0.3399157
-3.413467	STAY	-0.0456297
-3.112437	STILL	-0.09125663
-3.112437	STRESS	-0.08686978
-3.413467	STRESSFUL	-0.0456297
-3.413467	STUDY	-0.09175997
-2.811407	STUFF	-0.1338258
-3.413467	STUMBLE	-0.09175997
-3.413467	SUICIDE	-0.08209539
-3.112437	SUNDAY	-0.08771686
-3.413467	SUPPLIES	-0.07622646
-2.635316	SURE	-0.1346911
-3.413467	SURGERY	-0.0456297
-3.413467	SWEET	-0.09142448
-3.413467	SYMPTOMS	-0.08670017
-3.413467	TAKE	-0.07917084
-3.413467	TALK	-0.07622646
-3.112437	TALKED	-0.3343228
-3.112437	TAMPA	-0.2956339
-3.112437	TEACH	-0.07570478
-2.936346	TEN	-0.07570477
-3.413467	TERRIBLE	-0.0456297
-2.936346	TEST	-0.0369661
-3.413467	THANK	-0.08670017
-1.908317	THAT	-0.1642152
-2.568369	THAT'S	-0.06513748
-1.538406	THE	-0.1260177
-3.112437	THEIR	-0.09108873
-2.936346	THEM	-0.04301118
-2.372075	THEN	-0.07225063
-3.413467	THERAPIST	-0.08991155
-2.267339	THERE	-0.121836
-2.568369	THERE'S	-0.127587
-2.134714	THEY	-0.1778207
-3.112437	THEY'RE	-0.08175235
-3.112437	THING	-0.02870822
-2.936346	THINGS	-0.02598535
-2.635316	THINK	-0.06317195
-3.413467	THIRTEEN	-0.07622646
-2.635316	THIS	-0.1782486
-2.936346	THOUGH	-0.07431056
-3.413467	THOUSAND	-0.09175997
-2.936346	THREE	-0.0905846
-2.936346	THROUGH	-0.07343691
-2.811407	TIME	-0.2846815
-3.413467	TIMES	-0.07917084
-1.760255	TO	-0.1008123
-3.413467	TOLD	-0.0456297
-3.413467	TOMORROW	-0.07622646
-3.112437	TONIGHT	-0.04544318
-2.811407	TOO	-0.09058461
-3.413467	TOOK	-0.09175997
-3.413467	TORE	-0.08923744
-3.413467	TORNADO	-0.0456297
-3.413467	TREATMENT	-0.09175997
-3.112437	TRIP	-0.08089355
-3.413467	TROUBLE	-0.0856811
-2.936346	TRUCKLOADS	-0.07168431
-3.413467	TRUST	-0.0456297
-2.936346	TRYING	-0.4112635
-3.413467	TUES	-0.09007991
-3.112437	TUESDAY	-0.07483393
-3.413467	TURNED	-0.09175997
-3.413467	TV	-0.09159225
-3.413467	TWELVE	-0.0456297
-2.568369	TWO	-0.1014014
-3.413467	TYPE	-0.09159225
-2.635316	UH	-0.07431059
-3.413467	UHH	-0.09159225
-2.372075	UM	-0.06101751
-3.112437	UMM	-0.07535665
-3.413467	UNCLE	-0.09175997
-3.413467	UNDER	-0.08923744
-3.413467	UNION	-0.08720881
-3.112437	UNPACKED	-0.09058461
-2.568369	UP	-0.01591945
-3.413467	USE	-0.08923744
-3.413467	USED	-0.0843186
-3.413467	VACATIONS	-0.09092075
-3.413467	VARIETY	-0.0456297
-2.568369	VERY	-0.1472526
-3.413467	VISITED	-0.09024821
-3.413467	VP	-0.08465963
-3.413467	WABATONGUSHI	-0.0456297
-3.413467	WAL	-0.09175997
-3.112437	WALK	-0.09092075
-3.413467	WALKED	-0.09108873
-3.112437	WALKING	-0.3410929
-3.413467	WANT	-0.0843186
-3.112437	WANTED	-0.3343228
-3.112437	WANTS	-0.3343228
-3.413467	WARNING	-0.0456297
-2.091248	WAS	-0.05761695
-3.413467	WASH	-0.07917084
-3.112437	WASTE	-0.07882547
-3.413467	WAWA	-0.09175997
-2.714497	WAY	-0.07027712
-1.966309	WE	-0.1612125
-3.413467	WE'LL	-0.08923744
-3.112437	WE'RE	-0.09007991
-3.112437	WE'VE	-0.08923744
-2.714497	WEDDING	-0.005410187
-2.936346	WEEK	-0.1779556
-2.459225	WEEKEND	-0.1739186
-3.413467	WEEKENDS	-0.09142448
-3.413467	WEIRD	-0.09175997
-2.459225	WELL	-0.1199292
-2.568369	WENT	-0.1556606
-2.568369	WERE	-0.0723862
-3.112437	WEREN'T	-0.08653049
-2.936346	WHAT	-0.08619092
-3.413467	WHATEVER	-0.08517066
-3.413467	WHEELCHAIR	-0.09175997
-2.714497	WHEN	-0.1538577
-3.413467	WHENEVER	-0.08670017
-2.510377	WHERE	-0.04600248
-3.413467	WHICH	-0.08991155
-3.112437	WHILE	-0.0718599
-3.413467	WHITMORE	-0.09142448
-2.936346	WHO	-0.08805521
-3.413467	WHOLE	-0.09142448
-3.413467	WHY	-0.09024821
-3.112437	WILL	-0.09092075
-2.413467	WITH	-0.1206521
-3.413467	WITHOUT	-0.09175997
-3.413467	WON	-0.0456297
-3.413467	WON'T	-0.08906875
-2.936346	WORK	-0.08686977
-2.714497	WORKING	-0.02265591
-3.413467	WORKS	-0.0456297
-3.413467	WOULD	-0.09075271
-3.413467	WRITING	-0.07917084
-3.413467	YA'LL	-0.09024821
-1.811407	YEAH	-0.3589702
-2.635316	YEAR	-0.2569634
-3.413467	YEARS	-0.09159225
-2.015527	YES	-0.3761063
-2.635316	YET	-0.1209294
-1.922106	YOU	-0.2561041
-2.936346	YOU'RE	-0.08636073
-3.112437	YOUR	-0.09142448
-2.936346	YUP	-0.03333661
-3.112437	ZOO	-0.02812619

\2-grams:
-0.7194917	17 AND
-0.7194917	18 </s>
-1.196613	300 </s>
-1.196613	300 AND
-1.196613	300 WE
-0.7194917	6 WEEKENDS
-0.7194917	600 MILES
-0.7194917	96 YEARS
-0.7194917	96TH BIRTHDAY
-2.380922	<s> A
-2.380922	<s> ACTUALLY
-3.137793	<s> ALL
-3.137793	<s> AN
-1.139548	<s> AND
-3.137793	<s> AROUND
-3.137793	<s> BE
-3.137793	<s> BECAUSE
-3.137793	<s> BEFORE
-3.137793	<s> BORN
-3.137793	<s> BRASS
-2.221458	<s> BUT
-3.137793	<s> BUYING
-3.137793	<s> CAUSE
-3.137793	<s> COUPLE
-3.137793	<s> DEFINITELY
-3.137793	<s> DELTA
-3.137793	<s> DOCTORS
-3.137793	<s> DOWNTOWN
-3.137793	<s> ELEMENTARY
-3.137793	<s> EVEN
-3.137793	<s> FLORIDA
-2.380922	<s> FOR
-3.137793	<s> FORT
-2.380922	<s> GOING
-3.137793	<s> GOOD
-2.380922	<s> HE
-3.137793	<s> HE'S
-3.137793	<s> HISTORY
-1.139548	<s> I
-2.149614	<s> I'M
-3.137793	<s> IF
-2.149614	<s> IN
-2.199456	<s> IT
-1.917524	<s> IT'S
-3.137793	<s> JUST
-1.719331	<s> MHMM
-3.137793	<s> MILLER
-3.137793	<s> MODERATELY
-3.137793	<s> MUSIC
-2.380922	<s> MY
-3.137793	<s> NEXT
-1.33912	<s> NO
-3.137793	<s> NOT
-3.137793	<s> NOTHING
-1.719331	<s> OH
-3.137793	<s> OK
-2.149614	<s> OKAY
-2.380922	<s> ONE
-3.137793	<s> OR
-3.137793	<s> OVER
-3.137793	<s> PALM
-3.137793	<s> PERHAPS
-3.137793	<s> PLAY
-3.137793	<s> PRETTY
-3.137793	<s> PROBABLY
-3.137793	<s> READ
-2.149614	<s> RIGHT
-3.137793	<s> ROTATOR
-3.137793	<s> SAINT
-3.137793	<s> SHE
-3.137793	<s> SHOULD
-1.272173	<s> SO
-3.137793	<s> SOME
-3.137793	<s> SUNDAY
-3.137793	<s> TEN
-3.137793	<s> THANK
-3.137793	<s> THAT
-2.380922	<s> THAT'S
-3.137793	<s> THE
-3.137793	<s> THEN
-3.137793	<s> THERE
-3.137793	<s> THERE'S
-1.917524	<s> THEY
-3.137793	<s> THROUGH
-3.137793	<s> TV
-3.137793	<s> TWO
-2.149614	<s> UH
-2.199456	<s> UM
-2.380922	<s> UMM
-3.137793	<s> VERY
-2.199456	<s> WE
-2.380922	<s> WE'VE
-1.917524	<s> WELL
-3.137793	<s> WENT
-3.137793	<s> WHAT
-3.137793	<s> WHEN
-3.137793	<s> WHENEVER
-3.137793	<s> WHERE
-3.137793	<s> WITH
-3.137793	<s> WORKING
-0.9869375	<s> YEAH
-1.139548	<s> YES
-1.917524	<s> YOU
-3.137793	<s> YUP
-1.020522	<unk> IN
-1.020522	<unk> THIS
-2.594553	A BAD
-1.606374	A BIG
-2.594553	A BLAST
-1.837682	A BUNCH
-2.594553	A CHAUFFEUR
-2.594553	A COMMUNITY
-2.594553	A COUPLE
-2.594553	A DAY
-2.594553	A DIFFERENT
-2.594553	A DISASTER
-2.594553	A DRUG
-2.594553	A FAIRLY
-2.594553	A FISHING
-2.594553	A FUNCTIONAL
-2.594553	A GARAGE
-2.594553	A GOLF
-2.594553	A GOOD
-1.837682	A GREAT
-1.837682	A HALF
-2.594553	A HE
-2.594553	A HONEY
-2.594553	A HOUSE
-2.594553	A JUNIOR
-2.594553	A LAKE
-1.837682	A LANDLORD
-2.594553	A LECTURE
-2.594553	A LIONS
-2.594553	A LIONS'
-2.594553	A LITTLE
-1.656216	A LOAN
-2.594553	A LONG
-2.594553	A LOT
-2.594553	A MOVIE
-2.594553	A MUSICIAN
-2.594553	A NEW
-2.594553	A PLAY
-2.594553	A PROBLEM
-2.594553	A PROFESSOR
-2.594553	A PROPHYLACTIC
-2.594553	A QUARTER
-2.594553	A REAL
-1.837682	A REHEARSAL
-2.594553	A RELATIONSHIP
-2.594553	A RELATOR
-2.594553	A SALVATION
-2.594553	A SHOWER
-2.594553	A SMALL
-1.837682	A TEST
-2.594553	A THERAPIST
-2.594553	A VERY
-2.594553	A VP
-1.656216	A WEDDING
-1.837682	A WEEK
-2.594553	A WEIRD
-2.594553	A WHEELCHAIR
-2.594553	A WHOLE
-1.606374	A YEAR
-2.594553	A YOU
-1.321552	ABOUT 600
-1.321552	ABOUT LAST
-1.321552	ABOUT SELLING
-1.321552	ABOUT TEN
-0.7194917	ABSOLUTELY </s>
-0.7194917	ACCESSIBLE AND
-1.321552	ACTUALLY FROM
-0.5646809	ACTUALLY I
-1.321552	ACTUALLY I'M
-0.7194917	ADRIAN WHERE
-0.7194917	AFTER BEING
-0.7194917	AGAIN THEN
-1.196613	AGO BECAUSE
-1.196613	AGO BUT
-1.196613	AGO THERE
-0.7194917	ALCOHOL TREATMENT
-1.622582	ALL FROM
-1.622582	ALL INDIVIDUAL
-1.622582	ALL OUT
-0.6842449	ALL THE
-1.622582	ALL THROUGH
-1.020522	ALMOST LOST
-1.020522	ALMOST NINE
-0.7194917	ALONG THE
-1.196613	ALSO HAD
-1.196613	ALSO TRYING
-1.196613	ALSO WHEN
-0.7194917	ALWAYS FUN
-1.020522	AM A
-1.020522	AM WORKING
-1.020522	AMAZING </s>
-1.020522	AMAZING YOU
-1.321552	AN AUNT
-0.5646809	AN HOUR
-1.321552	AN OCCASIONAL
-2.68328	AND 18
-2.68328	AND </s>
-1.744943	AND A
-2.68328	AND ALCOHOL
-2.68328	AND ALL
-1.744943	AND AND
-2.68328	AND BE
-2.68328	AND BEYOND
-2.68328	AND CATCH
-2.68328	AND ENDED
-2.68328	AND EVEN
-2.68328	AND EVERYTHING
-2.68328	AND FRIDAY
-2.68328	AND GIVE
-2.68328	AND GO
-2.68328	AND GOT
-2.68328	AND HANDICAP
-1.695101	AND HE
-1.695101	AND I
-2.68328	AND I'M
-2.68328	AND IF
-2.68328	AND IT'S
-1.695101	AND JUST
-2.68328	AND LESS
-2.68328	AND LIKE
-2.68328	AND LOOK
-2.68328	AND LOOKED
-2.68328	AND MIDDLE
-2.68328	AND NOT
-2.68328	AND NOW
-2.68328	AND ONE
-2.68328	AND OUT
-2.68328	AND PLAY
-2.68328	AND PROPERTY
-2.68328	AND RAISED
-0.8846066	AND SO
-1.926409	AND STUFF
-2.68328	AND TEACH
-1.46301	AND THE
-2.68328	AND THEIR
-1.695101	AND THEN
-1.744943	AND THEY
-2.68328	AND TRUCKLOADS
-2.68328	AND TWELVE
-2.68328	AND UH
-1.926409	AND UM
-2.68328	AND VISITED
-2.68328	AND WAL
-2.68328	AND WALK
-2.68328	AND WE
-2.68328	AND WHATEVER
-2.68328	AND WHEN
-2.68328	AND WHITMORE
-2.68328	AND WITH
-1.926409	AND YOU
-2.68328	AND YOUR
-0.7194917	ANIMALS WERE
-0.7194917	ANOTHER REHEARSAL
-0.7194917	ANTI DEPRESSANTS
-0.7194917	ANTICIPATING MOVING
-0.7194917	ANTIDEPRESSANTS FOR
-1.020522	ANY IDEA
-1.020522	ANY WORK
-0.7194917	ANYONE WHO
-0.7194917	ANYTHING LIKE
-0.7194917	ANYWAY </s>
-0.7194917	APPEAR DEPRESSED
-0.7194917	APPOINTMENTS </s>
-1.719492	ARE 17
-0.9626209	ARE </s>
-1.719492	ARE ALL
-1.719492	ARE ALSO
-1.719492	ARE GOING
-1.719492	ARE IT'S
-0.9626209	ARE LIKE
-1.719492	ARE YOU
-0.7194917	AREA </s>
-0.7194917	ARMY </s>
-1.418462	AROUND JOANNE'S
-1.418462	AROUND SO
-0.6615909	AROUND THE
-1.418462	AROUND WE
-1.020522	AS IT
-1.020522	AS OVERWHELMING
-1.798673	AT A
-1.798673	AT ALL
-1.798673	AT ALMOST
-1.798673	AT BED
-1.798673	AT EIGHT
-1.798673	AT FIRST
-1.798673	AT LIKE
-1.798673	AT QUICKEN
-1.798673	AT SO
-1.041802	AT THE
-1.798673	AT YOU
-0.7194917	AUDITING DEPARTMENT
-0.7194917	AUNT WHO
-1.020522	AWAY FOR
-1.020522	AWAY FROM
-0.6615909	BACK AND
-1.418462	BACK GET
-1.418462	BACK PLAYING
-1.418462	BACK TO
-0.7194917	BAD LOCATION
-0.7194917	BADLY </s>
-1.020522	BANK AND
-1.020522	BANK BEYOND
-0.4397422	BASED IT
-1.196613	BASED ON
-0.7194917	BASEMENT YOU
-0.7194917	BASICALLY ON
-0.7194917	BATH AND
-0.7194917	BATTLE CREEK
-1.949941	BE A
-1.949941	BE COMMERCIAL
-1.949941	BE DEALING
-1.949941	BE EMBARRASSING
-1.949941	BE GOOD
-1.949941	BE GRADUATING
-1.949941	BE HAPPY
-1.19307	BE IN
-1.949941	BE IT
-1.949941	BE ONE
-1.949941	BE RESIDENTIAL
-1.949941	BE SILLY
-1.949941	BE STARED
-1.949941	BE UHH
-1.949941	BE VERY
-1.949941	BE YOU
-0.7194917	BEACH </s>
-0.7194917	BEAVERS </s>
-1.719492	BECAUSE FOR
-0.30103	BECAUSE I
-1.719492	BECAUSE I'VE
-1.719492	BECAUSE IT
-1.719492	BECAUSE MY
-1.719492	BECAUSE WE
-0.7194917	BED BATH
-1.321552	BEEN HOME
-0.5646809	BEEN ON
-1.321552	BEEN TOLD
-1.196613	BEFORE </s>
-1.196613	BEFORE THAT
-1.196613	BEFORE THE
-0.4302828	BEING A
-1.418462	BEING AWAY
-1.418462	BEING IN
-0.7194917	BELONGS </s>
-0.2636509	BETWEEN THE
-1.020522	BEYOND </s>
-1.020522	BEYOND THAT
-1.418462	BIG DEAL
-1.418462	BIG DIFFERENCE
-1.418462	BIG FANCY
-1.418462	BIG PARTY
-1.418462	BIG WARNING
-0.7194917	BIKE </s>
-0.7194917	BILLY GRAHAM
-0.7194917	BIRTHDAY WHILE
-0.7194917	BIT OF
-0.7194917	BLAST IT
-0.7194917	BOOK ON
-0.7194917	BORING HOWEVER
-0.7194917	BORN AND
-0.7194917	BOTHER </s>
-0.7194917	BRASS INSTRUMENTS
-0.2084341	BUNCH OF
-1.020522	BUSY I'M
-1.020522	BUSY WEEKEND
-1.093041	BUT </s>
-2.081219	BUT AND
-2.081219	BUT BUT
-1.324349	BUT I
-1.324349	BUT IF
-2.081219	BUT IT'LL
-1.324349	BUT IT'S
-2.081219	BUT NOT
-2.081219	BUT NOW
-2.081219	BUT SUNDAY
-2.081219	BUT THE
-2.081219	BUT THEN
-2.081219	BUT THERE
-2.081219	BUT THERE'S
-1.324349	BUT WE
-1.324349	BUT YEAH
-0.7194917	BUYING THINGS
-1.020522	CALLED ONE
-1.020522	CALLED WABATONGUSHI
-1.622582	CAN </s>
-1.622582	CAN BE
-1.622582	CAN GET
-1.622582	CAN HAVE
-1.622582	CAN PAY
-1.622582	CAN SEE
-1.622582	CAN SELL
-1.622582	CAN SIT
-0.7194917	CAN'T YOU
-0.7194917	CANADA ABOUT
-0.7194917	CAROLINA CAN
-1.196613	CASH A
-1.196613	CASH FOR
-1.196613	CASH WITH
-0.7194917	CATCH UP
-1.321552	CAUSE ABOUT
-1.321552	CAUSE I
-1.321552	CAUSE OF
-1.321552	CAUSE THAT'S
-0.7194917	CENTRAL FROM
-0.7194917	CHAUFFEUR WE'RE
-0.7194917	CLASS </s>
-0.7194917	CLASSES AND
-0.7194917	CLEANED OUT
-0.7194917	CLEANING </s>
-0.4397422	COLLEGE </s>
-1.196613	COLLEGE AND
-1.020522	COME IN
-1.020522	COME WITH
-1.020522	COMING BACK
-1.020522	COMING HOME
-0.7194917	COMMERCIAL IT
-0.7194917	COMMITTED SUICIDE
-0.7194917	COMMUNITY COLLEGE
-0.7194917	COMPANIES THAT
-0.7194917	COMPLETELY GOT
-0.7194917	COMPUTER PROGRAMING
-0.7194917	COMPUTERS SO
-0.7194917	CONTRACTORS AND
-0.7194917	COOL </s>
-0.7194917	COUCH OVER
-1.321552	COULD BE
-1.321552	COULD BUT
-1.321552	COULD GET
-1.321552	COULD GIVE
-1.020522	COULDN'T FIND
-1.020522	COULDN'T SEE
-1.020522	COUPLE DAYS
-1.020522	COUPLE TIMES
-0.7194917	COURSE IN
-0.7194917	CRAZY </s>
-0.7194917	CREDIT UNION
-0.7194917	CREEK </s>
-0.7194917	CUFF IT'S
-0.7194917	CURRENTLY AT
-0.7194917	DAD'S HISTORY
-0.7194917	DATE BUT
-0.7194917	DAUGHTER </s>
-1.020522	DAY </s>
-1.020522	DAY FOR
-0.7407722	DAYS </s>
-1.497643	DAYS ON
-1.497643	DAYS OVER
-1.497643	DAYS SO
-1.497643	DAYS YOU
-0.7194917	DEAL LIKE
-0.7194917	DEALING WITH
-0.7194917	DECIDE THEY
-0.7194917	DECIDED ON
-1.196613	DEFINITELY </s>
-1.196613	DEFINITELY A
-1.196613	DEFINITELY NICE
-0.7194917	DELTA COLLEGE
-0.7194917	DEPARTMENT </s>
-0.7194917	DEPRESSANTS BECAUSE
-1.196613	DEPRESSED </s>
-1.196613	DEPRESSED CAUSE
-1.196613	DEPRESSED DOESN'T
-1.196613	DEPRESSION IS
-1.196613	DEPRESSION PART
-1.196613	DEPRESSION SO
-1.321552	DETROIT </s>
-0.5646809	DETROIT JAZZ
-1.321552	DETROIT ZOO
-1.196613	DID NOT
-1.196613	DID WE
-1.196613	DID YOU
-1.020522	DIDN'T FEEL
-1.020522	DIDN'T SORRY
-0.7194917	DIED AND
-0.7194917	DIFFERENCE BETWEEN
-1.020522	DIFFERENT BOOK
-1.020522	DIFFERENT THINGS
-0.2636509	DISABILITY </s>
-0.7194917	DISASTER AREA
-0.7194917	DISEASE WORKS
-0.7194917	DNA STUDY
-1.56459	DO </s>
-1.56459	DO ANY
-0.807719	DO LIKE
-1.56459	DO MY
-1.56459	DO SO
-1.56459	DO STUMBLE
-0.7194917	DOCTORS APPOINTMENTS
-0.7194917	DOES </s>
-0.7194917	DOESN'T MEAN
-0.7194917	DOG AND
-1.196613	DOING I'M
-1.196613	DOING OKAY
-1.196613	DOING THE
-0.7194917	DOLLARS TO
-1.86562	DON'T APPEAR
-1.86562	DON'T EVEN
-1.86562	DON'T HAVE
-0.6453505	DON'T KNOW
-1.108749	DON'T LIKE
-1.86562	DON'T REMEMBER
-1.86562	DON'T SELL
-1.86562	DON'T THERE
-0.7194917	DONAVAN </s>
-1.321552	DOWN </s>
-1.321552	DOWN SOUTH
-1.321552	DOWN THERE
-1.321552	DOWN TO
-1.020522	DOWNTOWN <unk>
-1.020522	DOWNTOWN DETROIT
-1.196613	DRAINS AND
-1.196613	DRAINS CLEANED
-1.196613	DRAINS ERUPTED
-1.020522	DRIVE DOWN
-1.020522	DRIVE RIGHT
-1.020522	DRIVING IMMEDIATELY
-1.020522	DRIVING UP
-0.7194917	DROVE ALL
-0.7194917	DRUG AND
-0.7194917	EACH </s>
-1.196613	EIGHT DAYS
-1.196613	EIGHT FORTY
-1.196613	EIGHT OH
-1.020522	ELEMENTARY AND
-1.020522	ELEMENTARY STARTS
-0.7194917	ELSE DID
-0.7194917	EM BUT
-0.7194917	EMBARRASSING </s>
-0.7194917	EMPTIED FOR
-0.7194917	ENDED UP
-1.020522	ENOUGH AND
-1.020522	ENOUGH BECAUSE
-0.7194917	EQUITY ON
-0.7194917	ERR TEST
-0.7194917	ERUPTED WITH
-1.321552	EVEN BOTHER
-1.321552	EVEN IF
-0.5646809	EVEN THOUGH
-0.7194917	EVER SEEN
-1.020522	EVERY OTHER
-1.020522	EVERY PLAN
-0.7194917	EVERYBODY WAS
-0.7194917	EVERYONE HAS
-1.020522	EVERYTHING SO
-1.020522	EVERYTHING WHERE
-0.7194917	EVERYWHERE BUT
-0.7194917	EVICT PRINCESS
-0.7194917	EXACT SYMPTOMS
-1.321552	EXACTLY SO
-0.3333728	EXACTLY SURE
-0.7194917	EXCITED </s>
-0.7194917	EXCITING </s>
-0.7194917	EXERCISE </s>
-0.7194917	FACILITY </s>
-0.7194917	FAIRLY QUICK
-0.7194917	FALLING OVER
-0.7194917	FALLS UNDER
-1.196613	FAMILY </s>
-1.196613	FAMILY AND
-1.196613	FAMILY THEY
-0.7194917	FAN ISN'T
-0.7194917	FANCY HOUSES
-0.7194917	FARM IN
-0.7194917	FEEL THAT
-0.7194917	FEES TRYING
-1.020522	FESTIVAL AND
-1.020522	FESTIVAL THEN
-0.7194917	FIELD TO
-0.7194917	FIFTY OR
-0.7194917	FIND ANYONE
-0.7194917	FIREWORKS AND
-1.196613	FIRST BUT
-1.196613	FIRST FOUND
-1.196613	FIRST MOVED
-0.7194917	FISHING TRIP
-0.7194917	FIVE </s>
-0.7194917	FIX IT
-1.196613	FLORIDA </s>
-1.196613	FLORIDA TO
-1.196613	FLORIDA WERE
-0.7194917	FOOD OR
-1.108749	FOR A
-1.86562	FOR EIGHT
-1.86562	FOR IT
-1.86562	FOR MY
-1.86562	FOR NO
-1.86562	FOR ONE
-1.86562	FOR PEOPLE
-1.86562	FOR THAT
-1.108749	FOR THE
-1.108749	FOR THIS
-1.86562	FOR TUESDAY
-0.7194917	FORGOT THAT
-0.7194917	FORMULA AND
-0.7194917	FORMULATE A
-0.7194917	FORT LAUDERDALE'S
-0.7194917	FORTY </s>
-0.7194917	FOUND OUT
-0.7194917	FOUR DAYS
-0.7194917	FRESHMAN IN
-1.020522	FRIDAY FRIDAY
-1.020522	FRIDAY I
-0.7194917	FRIENDS </s>
-1.760884	FROM </s>
-1.760884	FROM DOWN
-1.760884	FROM HAVING
-1.760884	FROM HERE
-0.3424227	FROM THE
-1.760884	FROM WHAT
-1.760884	FROM WORK
-0.509464	FUN </s>
-1.497643	FUN TO
-1.497643	FUN WHEN
-1.497643	FUN YES
-0.7194917	FUNCTIONAL COURSE
-0.7194917	GAME </s>
-0.7194917	GARAGE SALE
-0.7194917	GAY CENTRAL
-0.7194917	GENE </s>
-1.076564	GET 300
-0.8452561	GET A
-1.833435	GET ALL
-1.833435	GET BACK
-1.833435	GET I
-1.833435	GET LOANS
-1.833435	GET SICK
-1.076564	GET THE
-1.833435	GET UP
-0.7194917	GETS CRAZY
-1.196613	GETTING A
-0.4397422	GETTING MARRIED
-0.7194917	GIFTS </s>
-0.7194917	GIRLS </s>
-1.020522	GIVE A
-1.020522	GIVE ME
-0.7194917	GIVING SEVEN
-1.418462	GO BACK
-1.418462	GO BUT
-1.418462	GO INTO
-1.418462	GO THERE
-1.418462	GO YET
-0.7194917	GOES </s>
-1.622582	GOING ON
-0.7062466	GOING TO
-1.020522	GOLF </s>
-1.020522	GOLF LEAGUE
-0.7194917	GONE NOW
-0.509464	GOOD </s>
-1.497643	GOOD I'D
-1.497643	GOOD ONE
-1.497643	GOOD THOUGH
-1.56459	GOT A
-1.56459	GOT MARRIED
-1.56459	GOT ON
-1.56459	GOT RID
-0.807719	GOT TO
-1.56459	GOT UNPACKED
-0.7194917	GRADUATING NEXT
-0.7194917	GRAHAM </s>
-0.7194917	GRAND </s>
-1.321552	GREAT </s>
-1.321552	GREAT FIELD
-1.321552	GREAT SCHOOL
-1.321552	GREAT TIME
-0.7194917	GROWN TO
-0.7194917	GUYS EVER
-0.5784038	HAD A
-1.798673	HAD EM
-1.798673	HAD HER
-1.798673	HAD MONEY
-1.798673	HAD SHOULDER
-1.798673	HAD TALKED
-1.798673	HAD TO
-1.020522	HALF AGO
-1.020522	HALF THERE
-0.7194917	HANDICAP ACCESSIBLE
-0.7194917	HAPPENS CAUSE
-0.7194917	HAPPY </s>
-1.020522	HARD GETTING
-1.020522	HARD TO
-0.7194917	HAS THE
-0.8214418	HAVE A
-2.041711	HAVE ANOTHER
-2.041711	HAVE ANY
-2.041711	HAVE HELP
-2.041711	HAVE MY
-2.041711	HAVE NO
-2.041711	HAVE PLANNED
-1.28484	HAVE PROOF
-1.28484	HAVE THE
-2.041711	HAVE THEM
-1.053532	HAVE TO
-2.041711	HAVE TWO
-0.7194917	HAVEN'T BEEN
-0.2636509	HAVING THE
-1.020522	HD </s>
-1.020522	HD AND
-1.798673	HE COMMITTED
-1.798673	HE DOES
-1.798673	HE JUST
-1.041802	HE LOVES
-1.798673	HE PULLS
-1.798673	HE SAID
-1.798673	HE USED
-1.798673	HE WANTED
-1.041802	HE WANTS
-1.798673	HE WENT
-0.2636509	HE'LL BE
-1.418462	HE'S A
-1.418462	HE'S IT
-0.6615909	HE'S NOT
-1.418462	HE'S VERY
-0.7194917	HELP AND
-0.7194917	HELPFUL </s>
-1.020522	HER 96TH
-1.020522	HER BEING
-0.4397422	HERE </s>
-1.196613	HERE WHILE
-0.7194917	HIGH SCHOOL
-0.7194917	HILLS </s>
-0.7194917	HIRE SOMEBODY
-0.4397422	HISTORY </s>
-1.196613	HISTORY NOT
-1.020522	HOLIDAY LEFT
-1.020522	HOLIDAY TO
-0.7194917	HOLIDAYS DON'T
-1.020522	HOME AFTER
-1.020522	HOME IN
-0.7194917	HONEY MOON
-1.020522	HOPEFULLY HOPEFULLY
-1.020522	HOPEFULLY SO
-0.7194917	HOSE AND
-0.7194917	HOT </s>
-1.020522	HOUR </s>
-1.020522	HOUR SOUTH
-0.7194917	HOURS A
-0.7407722	HOUSE </s>
-1.497643	HOUSE ALSO
-1.497643	HOUSE AND
-1.497643	HOUSE I
-1.497643	HOUSE IS
-0.7194917	HOUSES ALONG
-0.7194917	HOW TO
-0.7194917	HOWEVER </s>
-0.7194917	HUNDRED </s>
-0.7194917	HURRICANE </s>
-0.7194917	HUSBAND IS
-1.912011	I AM
-2.668882	I CALLED
-1.25042	I CAN
-2.668882	I CAN'T
-2.668882	I COULDN'T
-2.668882	I DIDN'T
-1.680703	I DO
-0.8702087	I DON'T
-2.668882	I DRIVE
-1.912011	I FIRST
-2.668882	I FORGOT
-1.730545	I GET
-2.668882	I GOT
-1.680703	I HAD
-0.7732987	I HAVE
-2.668882	I HAVEN'T
-1.912011	I I
-1.912011	I JUST
-1.752547	I KNOW
-1.912011	I LIKE
-2.668882	I LOVE
-2.668882	I MAYBE
-2.668882	I NEED
-2.668882	I OVERPAID
-1.680703	I PAID
-2.668882	I START
-2.668882	I STARTED
-2.668882	I STILL
-2.668882	I TALKED
-2.668882	I TEACH
-1.25042	I THINK
-2.668882	I TORE
-1.912011	I WAS
-2.668882	I WASTE
-2.668882	I WORK
-0.7194917	I'D RECOMMEND
-1.020522	I'LL BE
-1.020522	I'LL GO
-2.061914	I'M A
-2.061914	I'M CURRENTLY
-1.305044	I'M DOING
-1.305044	I'M DRIVING
-2.061914	I'M EXCITED
-2.061914	I'M GIVING
-1.305044	I'M GOING
-2.061914	I'M I'M
-2.061914	I'M NOT
-2.061914	I'M OFF
-2.061914	I'M ON
-2.061914	I'M PLAYING
-2.061914	I'M REUPHOLSTERING
-1.305044	I'M SURE
-2.061914	I'M TRYING
-2.061914	I'M UH
-2.061914	I'M WORKING
-2.061914	I'M WRITING
-0.2636509	I'VE BEEN
-1.020522	IDEA </s>
-1.020522	IDEA WHERE
-0.6842449	IF I
-1.622582	IF IF
-1.622582	IF THEY
-0.8657109	IF YOU
-0.7194917	IMMEDIATELY BACK
-1.111524	IN </s>
-1.111524	IN A
-2.099703	IN BATTLE
-2.099703	IN COLLEGE
-2.099703	IN FLORIDA
-2.099703	IN I
-2.099703	IN JUNE
-2.099703	IN LAWS'
-2.099703	IN LEGAL
-2.099703	IN LIKE
-2.099703	IN NORTH
-2.099703	IN OHIO
-2.099703	IN ORLANDO
-2.099703	IN ROCHESTER
-2.099703	IN ROYAL
-2.099703	IN SAGINAW
-1.161366	IN THE
-0.7194917	INAUDIBLE </s>
-0.7194917	INCH OF
-0.2636509	INCOME IS
-0.7194917	INDIVIDUAL </s>
-0.7194917	INHERITANCE AND
-1.020522	INSIDE AND
-1.020522	INSIDE SO
-0.7194917	INSTRUMENTS </s>
-0.7194917	INTO COMPUTER
-0.7194917	INVITED ME
-1.949941	IS 96
-1.011604	IS </s>
-1.19307	IS A
-1.949941	IS AS
-1.949941	IS COMING
-1.949941	IS FRESHMAN
-1.949941	IS GETTING
-1.949941	IS IN
-1.19307	IS NOT
-1.949941	IS ONE
-1.949941	IS SO
-1.949941	IS WORKING
-0.7194917	ISN'T ALWAYS
-0.7194917	ISSUE HAPPENS
-0.4397422	ISSUES AND
-1.196613	ISSUES FROM
-1.364781	IT </s>
-2.35296	IT A
-2.35296	IT AND
-2.35296	IT AT
-2.35296	IT BASICALLY
-2.35296	IT BELONGS
-2.35296	IT BUT
-2.35296	IT COULD
-2.35296	IT FOOD
-2.35296	IT FOR
-2.35296	IT GETS
-2.35296	IT GOES
-2.35296	IT GOT
-2.35296	IT I'LL
-1.414623	IT IS
-2.35296	IT LOOKED
-1.596089	IT MIGHT
-2.35296	IT NICE
-2.35296	IT ON
-2.35296	IT SO
-2.35296	IT STARTS
-2.35296	IT UP
-0.4573772	IT WAS
-0.7194917	IT'LL BE
-1.371358	IT'S A
-2.287694	IT'S AMAZING
-1.530823	IT'S DEFINITELY
-2.287694	IT'S FUN
-2.287694	IT'S GONE
-2.287694	IT'S GOOD
-2.287694	IT'S GREAT
-2.287694	IT'S HARD
-2.287694	IT'S I
-1.067424	IT'S IT'S
-2.287694	IT'S JUST
-1.530823	IT'S LIKE
-2.287694	IT'S MORE
-2.287694	IT'S NORTHEAST
-1.530823	IT'S NOT
-2.287694	IT'S ONLY
-2.287694	IT'S OVERWHELMING
-2.287694	IT'S TERRIBLE
-2.287694	IT'S TOO
-2.287694	IT'S TROUBLE
-1.530823	IT'S WAY
-2.287694	IT'S WITH
-1.020522	ITS HARD
-1.020522	ITS ITS
-0.2636509	JAZZ FESTIVAL
-0.7194917	JEWISH SO
-0.7194917	JOANNE'S AND
-0.7194917	JOB THAT
-1.020522	JUNE </s>
-1.020522	JUNE LAST
-0.7194917	JUNIOR </s>
-1.923612	JUST BECAUSE
-1.923612	JUST CAN
-1.923612	JUST COMPLETELY
-1.923612	JUST DAYS
-1.923612	JUST FIFTY
-1.923612	JUST GET
-1.923612	JUST GOT
-1.923612	JUST HAVING
-1.923612	JUST I
-1.923612	JUST KINDA
-1.923612	JUST PLAY
-1.923612	JUST TALK
-1.923612	JUST THE
-1.923612	JUST UM
-1.923612	JUST YES
-1.923612	JUST YOU
-0.7194917	KIDS AND
-0.2084341	KIND OF
-0.7194917	KINDA PLAYED
-1.093041	KNOW </s>
-2.081219	KNOW BECAUSE
-2.081219	KNOW BEING
-2.081219	KNOW CAUSE
-2.081219	KNOW HE
-2.081219	KNOW HE'S
-2.081219	KNOW HOW
-1.093041	KNOW I
-2.081219	KNOW INAUDIBLE
-1.324349	KNOW IT'S
-2.081219	KNOW MAYBE
-2.081219	KNOW MY
-2.081219	KNOW NOT
-2.081219	KNOW OF
-2.081219	KNOW THE
-2.081219	KNOW THEY'RE
-2.081219	KNOW WHAT
-2.081219	KNOW WHEN
-0.7194917	LADY </s>
-1.196613	LAKE </s>
-1.196613	LAKE CALLED
-1.196613	LAKE DOWNTOWN
-0.2636509	LANDLORD IT'S
-1.196613	LAST JUNE
-1.196613	LAST MONTH
-1.196613	LAST WEEK
-0.7194917	LAUDERDALE'S LIKE
-0.7194917	LAWS' FARM
-0.7194917	LEAGUE IN
-0.7194917	LECTURE AND
-0.7194917	LEFT WHERE
-0.7194917	LEGAL FEES
-0.7194917	LESS LIKE
-2.061914	LIKE 6
-1.073735	LIKE </s>
-1.123578	LIKE A
-2.061914	LIKE BEING
-2.061914	LIKE EIGHT
-2.061914	LIKE GAY
-1.305044	LIKE NO
-2.061914	LIKE OH
-2.061914	LIKE POWER
-2.061914	LIKE RAY
-2.061914	LIKE SHUT
-2.061914	LIKE THAT
-2.061914	LIKE THE
-2.061914	LIKE THERE
-2.061914	LIKE VARIETY
-2.061914	LIKE WHY
-0.7194917	LIONS GAME
-0.7194917	LIONS' FAN
-0.7194917	LIST OF
-1.196613	LITTLE BIT
-1.196613	LITTLE LADY
-1.196613	LITTLE NIECES
-1.020522	LIVE IN
-1.020522	LIVE NEAR
-1.321552	LOAN BASED
-1.321552	LOAN BECAUSE
-1.321552	LOAN FROM
-1.321552	LOAN OR
-1.020522	LOANS </s>
-1.020522	LOANS NOW
-0.7194917	LOCATION I
-0.7194917	LONG TIME
-0.7194917	LOOK AT
-1.020522	LOOKED AT
-1.020522	LOOKED THEY
-0.7194917	LOST LAST
-0.7194917	LOT OF
-0.7194917	LOTS OF
-0.7194917	LOVE IT
-1.020522	LOVES COMPUTERS
-1.020522	LOVES IT
-1.196613	MAINTENANCE ISSUE
-0.4397422	MAINTENANCE ISSUES
-1.020522	MAKE EVERY
-1.020522	MAKE SURE
-0.7194917	MAKING IT
-0.7194917	MANGERS AND
-0.4397422	MARRIED </s>
-1.196613	MARRIED OH
-0.7194917	MART WAS
-0.7194917	MAY NOT
-1.020522	MAYBE OVERPAID
-1.020522	MAYBE WE
-0.7194917	MCKENZIE <unk>
-1.497643	ME A
-1.497643	ME BUT
-1.497643	ME EVERYWHERE
-1.497643	ME ON
-1.497643	ME SO
-1.497643	ME THERE'S
-0.7194917	MEAN THAT
-0.7194917	MEMORIAL DAY
-0.7194917	MET AT
-0.4302828	MHMM </s>
-0.6615909	MHMM YUP
-1.020522	MIDDLE </s>
-1.020522	MIDDLE OF
-0.2636509	MIGHT BE
-0.7194917	MILES FROM
-0.7194917	MILLER AND
-0.7194917	MOBILITY AND
-0.7194917	MODERATELY STRESSFUL
-1.196613	MONDAY </s>
-1.196613	MONDAY MEMORIAL
-1.196613	MONDAY MORNING
-1.321552	MONEY </s>
-1.321552	MONEY BECAUSE
-1.321552	MONEY BEFORE
-1.321552	MONEY IN
-0.7194917	MONTH IT
-0.7194917	MONTHS OLD
-0.7194917	MOON AND
-1.020522	MORE LIKE
-1.020522	MORE PEACEFUL
-0.4397422	MORNING I
-1.196613	MORNING I'M
-0.7194917	MOST FUN
-0.7194917	MOSTLY IN
-0.7194917	MOUNTAINS TO
-0.7194917	MOVE FROM
-0.7194917	MOVED IN
-0.7194917	MOVIE TONIGHT
-0.7194917	MOVING WENT
-1.321552	MUCH JUST
-1.321552	MUCH STUFF
-1.321552	MUCH THE
-1.321552	MUCH YEAH
-1.020522	MUSIC HISTORY
-1.020522	MUSIC TONIGHT
-0.7194917	MUSICIAN I'M
-1.923612	MY </s>
-1.923612	MY DAD'S
-1.923612	MY DAUGHTER
-1.923612	MY DOG
-1.923612	MY FAMILY
-1.923612	MY HUSBAND
-1.923612	MY IN
-1.923612	MY INCOME
-1.923612	MY LITTLE
-1.923612	MY MCKENZIE
-1.923612	MY NIECE
-1.923612	MY PARENTS
-1.923612	MY PARTNER'S
-1.923612	MY SICK
-1.923612	MY UNCLE
-1.923612	MY VACATIONS
-0.7194917	NEAR TAMPA
-0.7194917	NEAT </s>
-0.7194917	NEED YEAH
-0.7194917	NEUROLOGIST THAT
-0.7194917	NEW JOB
-1.418462	NEXT MAINTENANCE
-1.418462	NEXT REALTOR
-1.418462	NEXT THREE
-0.6615909	NEXT YEAR
-0.4397422	NICE </s>
-1.196613	NICE INSIDE
-0.7194917	NIECE IS
-0.7194917	NIECES IN
-0.7194917	NIGHT </s>
-0.7194917	NINE O'CLOCK
-1.073735	NO </s>
-2.061914	NO ACTUALLY
-2.061914	NO FROM
-1.073735	NO I
-2.061914	NO I'M
-2.061914	NO IDEA
-2.061914	NO ISSUES
-2.061914	NO JUST
-1.305044	NO NOT
-2.061914	NO OTHER
-2.061914	NO PROBLEM
-2.061914	NO REASON
-2.061914	NO WAY
-1.073735	NO WE
-2.061914	NO WELL
-1.196613	NORTH </s>
-1.196613	NORTH CAROLINA
-1.196613	NORTH UM
-0.7194917	NORTHEAST OR
-0.7194917	NORTHWEST OF
-2.061914	NOT </s>
-2.061914	NOT A
-2.061914	NOT ANYTHING
-2.061914	NOT DEPRESSED
-1.305044	NOT ENOUGH
-1.073735	NOT EXACTLY
-1.305044	NOT I
-2.061914	NOT SOME
-1.305044	NOT THAT
-2.061914	NOT THE
-2.061914	NOT THINK
-1.305044	NOT THIS
-2.061914	NOT TOO
-2.061914	NOT UNPACKED
-2.061914	NOT WASTE
-2.061914	NOT YOU
-1.020522	NOTHING PLANNED
-1.020522	NOTHING YET
-1.622582	NOW A
-0.8657109	NOW I'M
-1.622582	NOW IT'S
-1.622582	NOW MOSTLY
-1.622582	NOW THAT
-1.622582	NOW THERE
-1.622582	NOW TO
-0.7194917	O'CLOCK IT'S
-0.7194917	OAK </s>
-0.7194917	OCCASIONAL TORNADO
-0.7194917	OCCASIONALLY BUT
-0.7194917	OCEAN IT
-2.081219	OF A
-2.081219	OF ABOUT
-2.081219	OF BEING
-2.081219	OF COMPANIES
-2.081219	OF CONTRACTORS
-2.081219	OF EACH
-2.081219	OF FUN
-2.081219	OF MONEY
-2.081219	OF MUSIC
-2.081219	OF MY
-2.081219	OF SLUSH
-2.081219	OF SOMETHING
-2.081219	OF STUFF
-2.081219	OF TAMPA
-1.093041	OF THE
-2.081219	OF THEM
-2.081219	OF THINGS
-2.081219	OF TRUCKLOADS
-2.081219	OF WANTED
-2.081219	OF WAWA
-2.081219	OF YET
-0.7194917	OFF SO
-1.760884	OH FIVE
-0.7727055	OH I
-1.760884	OH IT
-1.760884	OH NO
-1.760884	OH NOT
-1.760884	OH OKAY
-1.760884	OH WELL
-1.004014	OH YEAH
-0.7194917	OHIO WHERE
-0.7194917	OK </s>
-0.07918125	OKAY </s>
-0.2636509	OLD </s>
-1.166741	ON A
-1.923612	ON ANTI
-1.923612	ON ANTIDEPRESSANTS
-1.923612	ON BILLY
-1.923612	ON BUT
-1.166741	ON DISABILITY
-1.923612	ON IT
-1.923612	ON MAKING
-1.923612	ON MONDAY
-1.166741	ON THAT
-0.9354328	ON THE
-1.798673	ONE BANK
-1.798673	ONE HUNDRED
-1.041802	ONE IS
-1.798673	ONE IT
-0.8104941	ONE OF
-1.798673	ONE POINT
-1.798673	ONE RELATOR
-1.798673	ONE TO
-1.798673	ONE YEAR
-1.020522	ONES BE
-1.020522	ONES I
-1.196613	ONLY ONES
-1.196613	ONLY THING
-1.196613	ONLY THREE
-0.7194917	ONTARIO </s>
-1.418462	OR GIFTS
-1.418462	OR HIRE
-1.418462	OR IF
-1.418462	OR NORTHWEST
-1.418462	OR ONE
-0.7194917	ORLANDO </s>
-1.321552	OTHER HOLIDAY
-1.321552	OTHER ONE
-1.321552	OTHER ONES
-1.321552	OTHER WEEKEND
-0.7194917	OUR COUCH
-1.622582	OUT </s>
-1.622582	OUT AND
-1.622582	OUT EVERYBODY
-1.622582	OUT OF
-1.622582	OUT THAT
-1.622582	OUT THE
-1.622582	OUT WALKING
-1.622582	OUT WERE
-0.4801249	OVER THE
-1.418462	OVER WITH
-1.020522	OVERPAID </s>
-1.020522	OVERPAID FOR
-1.020522	OVERWHELMING </s>
-1.020522	OVERWHELMING AS
-1.321552	PAID 300
-0.3333728	PAID CASH
-0.7194917	PALM BEACH
-0.7194917	PANDAS </s>
-0.7194917	PARENTS DIED
-0.7194917	PART NOT
-0.7194917	PARTNER'S A
-0.7194917	PARTY SO
-0.7194917	PAY YOU
-0.7194917	PEACEFUL INSIDE
-0.7194917	PEOPLE </s>
-0.7194917	PERHAPS AN
-0.7194917	PETE </s>
-0.7194917	PETOSKEY WHERE
-0.7194917	PETS AND
-0.7194917	PICTURES </s>
-1.020522	PLACE NOT
-1.020522	PLACE THAT
-0.7194917	PLAN </s>
-1.020522	PLANNED IS
-1.020522	PLANNED YET
-1.418462	PLAY </s>
-1.418462	PLAY DATE
-1.418462	PLAY GOLF
-1.418462	PLAY IN
-1.418462	PLAY THERE
-0.7194917	PLAYED WITH
-1.020522	PLAYING A
-1.020522	PLAYING AT
-0.7194917	PLUMBER TO
-0.7194917	POINT SEVEN
-0.7194917	POOP AND
-0.7194917	POWER WASH
-0.7194917	POWERFUL HOSE
-0.7194917	PRETTY MUCH
-0.7194917	PRINCESS </s>
-1.418462	PROBABLY A
-1.418462	PROBABLY AND
-1.418462	PROBABLY CLEANING
-1.418462	PROBABLY TAKE
-1.418462	PROBABLY THE
-1.020522	PROBLEM ACTUALLY
-1.020522	PROBLEM YOU
-0.7194917	PROFESSOR SO
-0.7194917	PROGRAMING SO
-1.020522	PROOF </s>
-1.020522	PROOF FROM
-0.7194917	PROPERTY MANGERS
-0.7194917	PROPHYLACTIC PURPOSES
-0.7194917	PULLS ME
-0.7194917	PURPOSES </s>
-0.7194917	PUT ME
-0.7194917	QUARTER INCH
-0.7194917	QUICK TRIP
-0.7194917	QUICKEN LOANS
-0.7194917	QUIZZES OVER
-0.7194917	RAISED </s>
-0.7194917	RAY DONAVAN
-0.7194917	READ </s>
-0.7194917	READING A
-0.7194917	REAL BIG
-1.020522	REALLY NEAT
-1.020522	REALLY NICE
-0.7194917	REALTOR SAID
-0.7194917	REASON </s>
-0.7194917	RECEPTION </s>
-0.7194917	RECOMMEND IT
-0.7194917	RED PANDAS
-1.196613	REHEARSAL THAT
-1.196613	REHEARSAL THEN
-1.196613	REHEARSAL UM
-0.7194917	RELATIONSHIP HE'S
-1.196613	RELATOR ABOUT
-1.196613	RELATOR SAID
-1.196613	RELATOR THAT
-0.7194917	RELIGIOUS TYPE
-0.7194917	REMEMBER WHICH
-0.7194917	RESIDENTIAL </s>
-0.7194917	REUPHOLSTERING OUR
-0.7194917	RID OF
-0.7194917	RIDE BIKE
-0.807719	RIGHT </s>
-1.56459	RIGHT EXACTLY
-0.5764108	RIGHT NOW
-1.56459	RIGHT RIGHT
-0.7194917	ROAD </s>
-0.7194917	ROCHESTER HILLS
-0.7194917	ROTATOR CUFF
-0.7194917	ROYAL OAK
-0.7194917	SAGINAW </s>
-0.6615909	SAID OH
-0.6615909	SAID THAT
-1.418462	SAID THERE'S
-0.7194917	SAINT PETE
-0.7194917	SALE </s>
-0.7194917	SALVATION ARMY
-0.7194917	SAME EXACT
-0.7194917	SARASOTA SO
-1.020522	SATURDAY </s>
-1.020522	SATURDAY MORNING
-0.7194917	SAW AN
-1.020522	SCHOOL </s>
-1.020522	SCHOOL AND
-1.418462	SEE A
-1.418462	SEE FAMILY
-1.418462	SEE MY
-1.418462	SEE THAT
-1.418462	SEE THEM
-0.7194917	SEEN THAT
-0.4397422	SELL IT
-1.196613	SELL THE
-0.7194917	SELLING IT
-0.7194917	SEMESTER FOR
-1.321552	SEVEN </s>
-1.321552	SEVEN QUIZZES
-0.5646809	SEVEN SEVEN
-1.020522	SHE HAD
-1.020522	SHE WAS
-1.020522	SHOULD BE
-1.020522	SHOULD GO
-0.7194917	SHOULDER SURGERY
-0.7194917	SHOWER FOR
-1.020522	SHOWS </s>
-1.020522	SHOWS I
-0.7194917	SHUT DOWN
-0.2636509	SICK TIME
-0.7194917	SILLY AND
-0.7194917	SISTERS THAT
-0.7194917	SIT THERE
-0.7194917	SITUATION IT'S
-0.7194917	SLUSH YA'LL
-0.7194917	SMALL LIST
-1.26265	SO </s>
-2.48292	SO AN
-1.726049	SO AND
-2.48292	SO BETWEEN
-2.48292	SO BUSY
-2.48292	SO COOL
-2.48292	SO DEPRESSION
-2.48292	SO HE'LL
-2.48292	SO HE'S
-2.48292	SO HOLIDAYS
-1.544583	SO I
-2.48292	SO I'LL
-2.48292	SO I'M
-1.064458	SO IT
-1.566585	SO IT'S
-2.48292	SO ITS
-2.48292	SO MUCH
-2.48292	SO NO
-2.48292	SO NOW
-2.48292	SO THAT
-1.494741	SO THAT'S
-2.48292	SO THE
-2.48292	SO THEN
-1.494741	SO THEY
-2.48292	SO THIS
-2.48292	SO UM
-1.544583	SO WE
-2.48292	SO WE'LL
-2.48292	SO WE'RE
-1.726049	SO YEAH
-2.48292	SO YES
-1.020522	SOME PLACE
-1.020522	SOME RELIGIOUS
-1.020522	SOMEBODY </s>
-1.020522	SOMEBODY THAT
-0.7194917	SOMETHING RIGHT
-0.7194917	SOMETIME </s>
-0.7194917	SORRY </s>
-1.020522	SOUTH DO
-1.020522	SOUTH OF
-0.7194917	STARED AT
-0.7194917	START ON
-1.020522	STARTED A
-1.020522	STARTED GOING
-0.2636509	STARTS AT
-0.7194917	STAY </s>
-1.020522	STILL MAINTENANCE
-1.020522	STILL RIDE
-1.020522	STRESS OF
-1.020522	STRESS THERE'S
-0.7194917	STRESSFUL </s>
-0.7194917	STUDY ERR
-0.5646809	STUFF </s>
-1.321552	STUFF AND
-1.321552	STUFF GOING
-0.7194917	STUMBLE OCCASIONALLY
-0.7194917	SUICIDE SO
-1.020522	SUNDAY I'M
-1.020522	SUNDAY MORNING
-0.7194917	SUPPLIES AND
-1.497643	SURE AND
-0.7407722	SURE HE
-1.497643	SURE WHERE
-1.497643	SURE YET
-1.497643	SURE YOU
-0.7194917	SURGERY </s>
-0.7194917	SWEET LITTLE
-0.7194917	SYMPTOMS YOU
-0.7194917	TAKE A
-0.7194917	TALK AND
-0.2636509	TALKED TO
-0.2636509	TAMPA </s>
-1.020522	TEACH AND
-1.020522	TEACH THREE
-1.196613	TEN AND
-1.196613	TEN DIFFERENT
-1.196613	TEN HOURS
-0.7194917	TERRIBLE </s>
-1.196613	TEST </s>
-1.196613	TEST FOR
-1.196613	TEST THAT
-0.7194917	THANK YOU
-1.236463	THAT </s>
-2.224642	THAT ARE
-2.224642	THAT BUT
-2.224642	THAT EVERYONE
-2.224642	THAT HERE
-0.60206	THAT I
-2.224642	THAT I'M
-1.467771	THAT IS
-2.224642	THAT JUST
-2.224642	THAT LIVE
-2.224642	THAT MONDAY
-2.224642	THAT MUCH
-2.224642	THAT ON
-2.224642	THAT SHE
-2.224642	THAT SO
-1.467771	THAT THEY
-2.224642	THAT WAS
-2.224642	THAT WEREN'T
-2.224642	THAT WILL
-2.224642	THAT YEAH
-2.224642	THAT YOU'RE
-1.56459	THAT'S GOOD
-1.56459	THAT'S HOLIDAY
-1.56459	THAT'S KIND
-1.56459	THAT'S NOT
-1.56459	THAT'S THAT'S
-1.56459	THAT'S THE
-1.56459	THAT'S YEAH
-2.594553	THE ANIMALS
-2.594553	THE AUDITING
-2.594553	THE BANK
-2.594553	THE BASEMENT
-2.594553	THE BEAVERS
-2.594553	THE BIG
-2.594553	THE CREDIT
-1.837682	THE DEPRESSION
-1.606374	THE DETROIT
-2.594553	THE DISEASE
-2.594553	THE DNA
-1.606374	THE DRAINS
-2.594553	THE ELEMENTARY
-2.594553	THE EQUITY
-2.594553	THE EVEN
-2.594553	THE FAMILY
-2.594553	THE FIREWORKS
-2.594553	THE FORMULA
-2.594553	THE FOUR
-2.594553	THE GENE
-1.837682	THE HD
-1.176091	THE HOUSE
-2.594553	THE HURRICANE
-2.594553	THE I
-2.594553	THE INHERITANCE
-2.594553	THE LAKE
-2.594553	THE MAINTENANCE
-2.594553	THE MIDDLE
-2.594553	THE MOBILITY
-2.594553	THE MONEY
-2.594553	THE MOST
-2.594553	THE MOUNTAINS
-2.594553	THE NEUROLOGIST
-1.606374	THE NEXT
-2.594553	THE NIGHT
-2.594553	THE OCEAN
-1.837682	THE ONLY
-1.837682	THE OTHER
-2.594553	THE PETS
-2.594553	THE PLACE
-2.594553	THE PLUMBER
-2.594553	THE POWERFUL
-2.594553	THE RED
-2.594553	THE RELATOR
-2.594553	THE ROAD
-2.594553	THE SAME
-2.594553	THE SEMESTER
-2.594553	THE SHOWS
-2.594553	THE SO
-2.594553	THE STRESS
-2.594553	THE SUPPLIES
-2.594553	THE THE
-2.594553	THE TWO
-1.837682	THE WAY
-2.594553	THE WEDDING
-1.606374	THE WEEKEND
-2.594553	THE YOU
-2.594553	THE ZOO
-1.020522	THEIR JEWISH
-1.020522	THEIR MONEY
-1.196613	THEM </s>
-1.196613	THEM AT
-1.196613	THEM EVERY
-1.760884	THEN </s>
-1.760884	THEN HIGH
-0.7727055	THEN I
-1.760884	THEN MONDAY
-1.760884	THEN THE
-1.760884	THEN TUES
-1.760884	THEN TUESDAY
-1.760884	THEN UM
-1.760884	THEN WE
-0.7194917	THERAPIST AT
-0.8774408	THERE </s>
-1.86562	THERE AGAIN
-1.108749	THERE AND
-1.86562	THERE BORING
-1.86562	THERE IS
-1.86562	THERE IT
-1.86562	THERE JUST
-1.108749	THERE LIKE
-1.86562	THERE NOT
-1.86562	THERE SOMETIME
-1.56459	THERE'S A
-0.807719	THERE'S LIKE
-1.56459	THERE'S NO
-1.56459	THERE'S PROBABLY
-1.56459	THERE'S STILL
-1.56459	THERE'S TOO
-1.998245	THEY ALMOST
-1.059909	THEY ARE
-1.241374	THEY BASED
-1.998245	THEY DECIDE
-1.998245	THEY DECIDED
-1.998245	THEY DO
-1.241374	THEY HAD
-1.998245	THEY LIVE
-1.998245	THEY SAID
-1.998245	THEY TRUST
-1.998245	THEY WANT
-1.241374	THEY WERE
-1.998245	THEY WON
-1.020522	THEY'RE AMAZING
-1.020522	THEY'RE SO
-1.020522	THING </s>
-1.020522	THING I
-1.196613	THINGS </s>
-1.196613	THINGS FOR
-1.196613	THINGS I
-1.497643	THINK AWAY
-1.497643	THINK IT
-1.497643	THINK SO
-1.497643	THINK THAT
-1.497643	THINK WE
-1.497643	THINK YOU'RE
-0.7194917	THIRTEEN AND
-1.497643	THIS CLASS
-1.497643	THIS FALLS
-0.5593061	THIS WEEKEND
-1.196613	THOUGH HE
-1.196613	THOUGH HOPEFULLY
-1.196613	THOUGH I
-0.7194917	THOUSAND DOLLARS
-1.196613	THREE CLASSES
-1.196613	THREE DAYS
-1.196613	THREE MONTHS
-1.196613	THROUGH AND
-1.196613	THROUGH SOMEBODY
-1.196613	THROUGH THERE
-0.5646809	TIME </s>
-0.5646809	TIME SO
-0.7194917	TIMES A
-1.384525	TO </s>
-1.615833	TO A
-2.372704	TO ADRIAN
-1.434367	TO BE
-2.372704	TO CANADA
-1.615833	TO COME
-2.372704	TO DRIVE
-2.372704	TO EVICT
-2.372704	TO FIX
-2.372704	TO FLORIDA
-2.372704	TO FORMULATE
-1.434367	TO GET
-1.615833	TO GO
-2.372704	TO HAVE
-2.372704	TO IT
-1.615833	TO MAKE
-1.615833	TO ME
-2.372704	TO MY
-2.372704	TO PETOSKEY
-2.372704	TO PLAY
-2.372704	TO PUT
-1.384525	TO SEE
-2.372704	TO SELL
-1.384525	TO THE
-2.372704	TO TO
-2.372704	TO USE
-2.372704	TO WALK
-2.372704	TO WHO
-0.7194917	TOLD </s>
-0.7194917	TOMORROW AND
-1.020522	TONIGHT </s>
-1.020522	TONIGHT TOMORROW
-1.321552	TOO BADLY
-1.321552	TOO HOT
-1.321552	TOO MUCH
-1.321552	TOO STRESS
-0.7194917	TOOK PICTURES
-0.7194917	TORE MY
-0.7194917	TORNADO </s>
-0.7194917	TREATMENT FACILITY
-1.020522	TRIP SO
-1.020522	TRIP TWO
-0.7194917	TROUBLE IT'S
-1.196613	TRUCKLOADS AND
-1.196613	TRUCKLOADS OF
-1.196613	TRUCKLOADS TRUCKLOADS
-0.7194917	TRUST </s>
-0.2084341	TRYING TO
-0.7194917	TUES THEN
-1.020522	TUESDAY I
-1.020522	TUESDAY THEN
-0.7194917	TURNED THIRTEEN
-0.7194917	TV SHOWS
-0.7194917	TWELVE </s>
-0.807719	TWO </s>
-1.56459	TWO GIRLS
-1.56459	TWO GRAND
-1.56459	TWO OUT
-1.56459	TWO SISTERS
-1.56459	TWO THOUSAND
-0.7194917	TYPE THING
-1.497643	UH DOING
-1.497643	UH EXERCISE
-1.497643	UH I
-1.497643	UH NOTHING
-1.497643	UH SARASOTA
-1.497643	UH VERY
-0.7194917	UHH HE'LL
-1.760884	UM BECAUSE
-1.760884	UM BUT
-1.760884	UM GOT
-1.760884	UM HE
-1.760884	UM HE'S
-1.760884	UM JUST
-1.760884	UM SATURDAY
-1.760884	UM WENT
-1.760884	UM YEAH
-1.760884	UM YES
-1.760884	UM YOU
-1.020522	UMM NO
-1.020522	UMM THE
-0.7194917	UNCLE INVITED
-0.7194917	UNDER MY
-0.7194917	UNION WE
-1.020522	UNPACKED EVERYTHING
-1.020522	UNPACKED YET
-1.56459	UP </s>
-1.56459	UP AND
-1.56459	UP BECAUSE
-1.56459	UP COMING
-1.56459	UP NORTH
-1.56459	UP TO
-1.56459	UP WALKING
-0.7194917	USE MY
-0.7194917	USED TO
-0.7194917	VACATIONS DAYS
-0.7194917	VARIETY </s>
-1.56459	VERY BUSY
-1.56459	VERY EXCITING
-1.56459	VERY GREAT
-1.56459	VERY HELPFUL
-1.56459	VERY SWEET
-0.807719	VERY VERY
-0.7194917	VISITED WITH
-0.7194917	VP IT
-0.7194917	WABATONGUSHI </s>
-0.7194917	WAL MART
-1.020522	WALK AROUND
-1.020522	WALK WITHOUT
-0.7194917	WALKED AROUND
-0.2636509	WALKING AROUND
-0.7194917	WANT TO
-0.2636509	WANTED TO
-0.2636509	WANTS TO
-0.7194917	WARNING </s>
-1.28484	WAS </s>
-2.041711	WAS A
-2.041711	WAS AND
-2.041711	WAS EMPTIED
-1.28484	WAS FUN
-2.041711	WAS GETTING
-2.041711	WAS IT'S
-2.041711	WAS KIND
-2.041711	WAS LOTS
-2.041711	WAS ONE
-2.041711	WAS OUT
-2.041711	WAS READING
-1.28484	WAS REALLY
-2.041711	WAS THE
-2.041711	WAS TOO
-1.28484	WAS TWO
-2.041711	WAS UP
-0.7194917	WASH THE
-1.020522	WASTE A
-1.020522	WASTE THEIR
-0.7194917	WAWA ONTARIO
-1.418462	WAY IT
-1.418462	WAY MORE
-1.418462	WAY NORTH
-1.418462	WAY THE
-1.418462	WAY YOU'RE
-2.16665	WE ALSO
-1.178471	WE ARE
-2.16665	WE COULD
-2.16665	WE COULDN'T
-2.16665	WE DID
-2.16665	WE DO
-2.16665	WE DROVE
-2.16665	WE GOT
-1.228313	WE HAD
-2.16665	WE HAVE
-2.16665	WE JUST
-2.16665	WE KIND
-2.16665	WE MET
-2.16665	WE SAW
-2.16665	WE STARTED
-2.16665	WE TOOK
-2.16665	WE WALKED
-1.178471	WE WENT
-1.409779	WE WERE
-2.16665	WE WILL
-0.7194917	WE'LL JUST
-1.020522	WE'RE GOOD
-1.020522	WE'RE WORKING
-1.020522	WE'VE BEEN
-1.020522	WE'VE HAD
-1.418462	WEDDING </s>
-1.418462	WEDDING AND
-1.418462	WEDDING I
-1.418462	WEDDING IN
-1.418462	WEDDING RECEPTION
-1.196613	WEEK </s>
-0.4397422	WEEK AND
-0.453465	WEEKEND </s>
-1.673734	WEEKEND PROBABLY
-1.673734	WEEKEND SO
-1.673734	WEEKEND UH
-0.7194917	WEEKENDS BEFORE
-0.7194917	WEIRD SITUATION
-1.673734	WELL AND
-0.9168634	WELL I
-0.9168634	WELL I'M
-1.673734	WELL IT
-1.673734	WELL IT'S
-1.673734	WELL RIGHT
-1.673734	WELL THE
-1.56459	WENT DOWN
-1.56459	WENT FROM
-1.56459	WENT THROUGH
-0.6262529	WENT TO
-1.56459	WERE ALL
-1.56459	WERE ANTICIPATING
-1.56459	WERE OUT
-1.56459	WERE THE
-1.56459	WERE THERE
-1.56459	WERE TURNED
-1.56459	WERE UP
-1.020522	WEREN'T IN
-1.020522	WEREN'T OUT
-1.196613	WHAT ELSE
-1.196613	WHAT I'VE
-1.196613	WHAT YOU
-0.7194917	WHATEVER YEAH
-0.7194917	WHEELCHAIR ANYWAY
-0.6615909	WHEN I
-1.418462	WHEN THERE'S
-1.418462	WHEN WE
-1.418462	WHEN YOUR
-0.7194917	WHENEVER YOU
-1.622582	WHERE DID
-1.622582	WHERE HE
-1.622582	WHERE I
-1.622582	WHERE I'M
-1.622582	WHERE IT
-1.622582	WHERE THAT
-1.622582	WHERE WE
-1.622582	WHERE YOU
-0.7194917	WHICH ONE
-1.020522	WHILE I
-1.020522	WHILE WE
-0.7194917	WHITMORE LAKE
-1.196613	WHO IS
-1.196613	WHO SAID
-1.196613	WHO WOULD
-0.7194917	WHOLE BUNCH
-0.7194917	WHY ARE
-1.020522	WILL PROBABLY
-1.020522	WILL STAY
-1.719492	WITH FRIENDS
-1.719492	WITH HER
-1.719492	WITH KIDS
-1.719492	WITH MY
-1.719492	WITH POOP
-1.719492	WITH THAT
-0.7811549	WITH THE
-0.7194917	WITHOUT FALLING
-0.7194917	WON </s>
-0.7194917	WON'T BE
-1.196613	WORK BUT
-1.196613	WORK PROBABLY
-1.196613	WORK SATURDAY
-1.418462	WORKING </s>
-1.418462	WORKING AT
-1.418462	WORKING I
-1.418462	WORKING ON
-1.418462	WORKING TEN
-0.7194917	WORKS </s>
-0.7194917	WOULD DO
-0.7194917	WRITING A
-0.7194917	YA'LL ARE
-0.3233064	YEAH </s>
-2.321552	YEAH ABSOLUTELY
-1.564681	YEAH AND
-1.564681	YEAH I'M
-2.321552	YEAH IN
-2.321552	YEAH IT
-1.564681	YEAH IT'S
-2.321552	YEAH NO
-1.383215	YEAH SO
-2.321552	YEAH THAT
-2.321552	YEAH THE
-2.321552	YEAH THERE'S
-1.333373	YEAH WE
-2.321552	YEAH WELL
-0.509464	YEAR </s>
-0.7407722	YEAR AGO
-1.497643	YEAR AND
-0.7194917	YEARS OLD
-0.3565473	YES </s>
-2.117432	YES IF
-1.129253	YES IT
-2.117432	YES IT'S
-1.360561	YES MY
-2.117432	YES OH
-2.117432	YES THERE
-2.117432	YES THEY'RE
-2.117432	YES TWO
-2.117432	YES YEAH
-1.360561	YES YES
-0.5593061	YET </s>
-1.497643	YET BUT
-1.497643	YET TO
-2.210853	YOU ALL
-2.210853	YOU AND
-2.210853	YOU BACK
-2.210853	YOU CAN
-1.453983	YOU COULD
-2.210853	YOU DIDN'T
-2.210853	YOU DON'T
-2.210853	YOU GET
-2.210853	YOU GUYS
-1.453983	YOU HAVE
-2.210853	YOU HERE
-2.210853	YOU I'M
-2.210853	YOU JUST
-0.4913617	YOU KNOW
-2.210853	YOU MAY
-2.210853	YOU MOVE
-2.210853	YOU PAID
-2.210853	YOU SHOULD
-2.210853	YOU WEREN'T
-2.210853	YOU WON'T
-1.196613	YOU'RE DEPRESSED
-1.196613	YOU'RE GOING
-1.196613	YOU'RE NOT
-1.020522	YOUR GROWN
-1.020522	YOUR INCOME
-1.196613	YUP </s>
-1.196613	YUP IT
-1.196613	YUP NO
-1.020522	ZOO </s>
-1.020522	ZOO AND

\end\
