
\data\
ngram 1=641
ngram 2=1751

\1-grams:
-2.882335	300	-0.01736746
-3.359456	6	-0.08482093
-3.359456	600	-0.08482093
-3.359456	96	-0.08482093
-3.359456	96TH	-0.08482093
-1.011151	</s>
-99	<s>	-0.2246383
-3.058426	<unk>	-0.08043121
-1.533381	A	-0.1428871
-2.757396	ABOUT	-0.08348962
-3.359456	ABSOLUTELY	-0.04047482
-2.882335	ACTUALLY	-0.06560209
-3.359456	ADRIAN	-0.08368005
-3.359456	AFTER	-0.08425086
-3.359456	AGAIN	-0.08310848
-2.882335	AGO	-0.07677112
-3.359456	ALCOHOL	-0.08482093
-2.514358	ALL	-0.2009811
-3.058426	ALMOST	-0.08463101
-3.359456	ALONG	-0.07190774
-2.882335	ALSO	-0.08119782
-3.359456	ALWAYS	-0.08406068
-3.058426	AM	-0.07112454
-3.359456	AMAZING	-0.07947099
-2.757396	AN	-0.1728776
-1.435177	AND	-0.04745728
-3.359456	ANOTHER	-0.08444097
-3.359456	ANTI	-0.08482093
-3.359456	ANTICIPATING	-0.08482093
-3.359456	ANTIDEPRESSANTS	-0.08234522
-3.058426	ANY	-0.0840607
-3.359456	ANYONE	-0.08444097
-3.359456	ANYTHING	-0.08081467
-3.359456	APPEAR	-0.08444097
-2.581305	ARE	-0.1285481
-3.359456	AREA	-0.04047482
-3.359456	ARMY	-0.04047482
-3.058426	AROUND	-0.07171209
-3.058426	AS	-0.07812317
-2.359456	AT	-0.07859832
-3.359456	AUDITING	-0.08482093
-3.359456	AUNT	-0.08444097
-3.058426	AWAY	-0.08004738
-2.660486	BACK	-0.1273886
-3.359456	BAD	-0.08482093
-3.359456	BADLY	-0.04047482
-3.058426	BANK	-0.0683721
-2.882335	BASED	-0.1981165
-3.359456	BASEMENT	-0.07947099
-3.359456	BASICALLY	-0.08196309
-3.359456	BATH	-0.06876636
-3.359456	BATTLE	-0.08482093
-2.280275	BE	-0.06797746
-3.359456	BEACH	-0.04047482
-2.359456	BECAUSE	-0.2565835
-3.359456	BED	-0.08482093
-2.757396	BEEN	-0.1700159
-2.882335	BEFORE	-0.01913829
-2.757396	BEING	-0.2581304
-3.359456	BELONGS	-0.04047482
-3.058426	BETWEEN	-0.2720093
-3.058426	BEYOND	-0.03390574
-2.660486	BIG	-0.08406069
-3.359456	BIKE	-0.04047482
-3.359456	BILLY	-0.08482093
-3.359456	BIRTHDAY	-0.08463099
-3.359456	BIT	-0.08081467
-3.359456	BLAST	-0.07850868
-3.359456	BOOK	-0.08196309
-3.359456	BORING	-0.08482093
-3.359456	BORN	-0.06876636
-3.359456	BOTHER	-0.04047482
-3.359456	BRASS	-0.08482093
-3.359456	BRING	-0.08444097
-2.882335	BUNCH	-0.3527304
-3.058426	BUSY	-0.07908634
-2.058426	BUT	-0.03689796
-3.359456	BUYING	-0.08444097
-3.058426	CALLED	-0.08329911
-2.456366	CAN	-0.02939854
-3.359456	CAN'T	-0.07947099
-3.359456	CANADA	-0.08425086
-3.359456	CAROLINA	-0.08348961
-2.882335	CASH	-0.06758246
-3.359456	CATCH	-0.0838704
-2.757396	CAUSE	-0.0626145
-3.359456	CENTERVILLE	-0.08482093
-3.359456	CENTRAL	-0.08272702
-3.359456	CHAUFFEUR	-0.08463099
-3.359456	CLASS	-0.04047482
-3.359456	CLASSES	-0.06876636
-3.359456	CLEANED	-0.08425086
-3.359456	CLEANING	-0.04047482
-3.058426	COME	-0.07966322
-3.359456	COMING	-0.08463099
-3.359456	COMMERCIAL	-0.07850868
-3.359456	COMMITTED	-0.08482093
-3.359456	COMPANIES	-0.07908632
-3.359456	COMPLETELY	-0.08368005
-3.058426	CONE	-0.2405764
-3.359456	CONTRACTORS	-0.06876636
-3.359456	COUCH	-0.0838704
-2.757396	COULD	-0.07638405
-3.359456	COULDN'T	-0.08482093
-3.058426	COUPLE	-0.08387043
-3.359456	COURSE	-0.08138926
-3.359456	CRAZY	-0.04047482
-3.359456	CREEK	-0.04047482
-3.359456	CRYSTAL	-0.04047482
-3.359456	CUFF	-0.07947099
-3.359456	CURRENTLY	-0.08310848
-3.359456	DAD'S	-0.08444097
-3.359456	DATE	-0.08119781
-3.359456	DAUGHTER	-0.04047482
-3.058426	DAY	-0.03752045
-2.660486	DAYS	-0.02046169
-3.359456	DEAL	-0.08081467
-3.359456	DEALING	-0.08329909
-3.359456	DECIDE	-0.08253616
-3.359456	DECIDED	-0.08196309
-3.058426	DEFINITELY	-0.02615027
-3.359456	DEPARTMENT	-0.04047482
-3.359456	DEPRESSANTS	-0.08310848
-2.882335	DEPRESSED	-0.03942199
-2.882335	DEPRESSION	-0.07463793
-2.882335	DETROIT	-0.1627557
-2.882335	DID	-0.07151631
-3.058426	DIDN'T	-0.08463101
-3.359456	DIED	-0.06876636
-3.359456	DIFFERENCE	-0.08463099
-3.058426	DIFFERENT	-0.08425088
-3.359456	DIRT	-0.08463099
-3.058426	DISABILITY	-0.2405764
-3.359456	DISASTER	-0.08482093
-3.359456	DISEASE	-0.08482093
-3.359456	DNA	-0.08482093
-2.514358	DO	-0.0715078
-3.359456	DOES	-0.04047482
-3.359456	DOESN'T	-0.08482093
-3.359456	DOG	-0.06876636
-2.882335	DOING	-0.0665934
-3.359456	DOLLARS	-0.07715783
-2.245513	DON'T	-0.2159561
-3.359456	DONAVAN	-0.04047482
-2.660486	DOWN	-0.09793004
-3.058426	DOWNTOWN	-0.0840607
-2.882335	DRAINS	-0.06837209
-3.058426	DRIVE	-0.08272704
-3.058426	DRIVING	-0.08368007
-3.359456	DROVE	-0.08368005
-3.359456	DRUG	-0.06876636
-2.882335	EIGHT	-0.08234523
-3.058426	ELEMENTARY	-0.0683721
-3.359456	ELSE	-0.08444097
-3.359456	EM	-0.08119781
-3.359456	EMBARRASSING	-0.04047482
-3.359456	EMPTIED	-0.08234522
-3.058426	ENOUGH	-0.06679141
-3.359456	EQUITY	-0.08196309
-3.359456	ERR	-0.08444097
-3.359456	ERUPTED	-0.08329909
-2.757396	EVEN	-0.1713537
-3.359456	EVER	-0.08482093
-3.058426	EVERY	-0.08425088
-3.359456	EVERYONE	-0.08482093
-3.359456	EVERYTHING	-0.08368005
-3.359456	EVERYWHERE	-0.08119781
-3.359456	EVICT	-0.08482093
-3.359456	EXACT	-0.08482093
-3.359456	EXACTLY	-0.07696451
-3.359456	EXCITED	-0.04047482
-3.359456	EXCITING	-0.04047482
-3.359456	EXERCISE	-0.04047482
-3.359456	FACILITY	-0.04047482
-3.359456	FAIRLY	-0.08482093
-3.359456	FALLING	-0.0838704
-2.882335	FAMILY	-0.01957987
-3.359456	FAN	-0.08482093
-3.359456	FANCY	-0.08482093
-3.359456	FARM	-0.08138926
-3.359456	FEEL	-0.07908632
-3.359456	FEES	-0.08444097
-3.058426	FESTIVAL	-0.06679141
-3.359456	FIFTY	-0.08406068
-3.359456	FIND	-0.08482093
-3.359456	FIREWORKS	-0.06876636
-3.058426	FIRST	-0.08463101
-3.359456	FISHING	-0.08463099
-3.359456	FIVE	-0.04047482
-3.359456	FIX	-0.07850868
-2.882335	FLORIDA	-0.03112109
-3.359456	FOOD	-0.08406068
-2.213328	FOR	-0.1084958
-3.359456	FORGOT	-0.07908632
-3.359456	FORMULA	-0.06876636
-3.359456	FORMULATE	-0.07210332
-3.359456	FORT	-0.08482093
-3.359456	FORTY	-0.04047482
-3.359456	FOUND	-0.08425086
-3.359456	FOUR	-0.08406068
-3.058426	FRIDAY	-0.06856928
-3.058426	FRIENDS	-0.03794374
-2.280275	FROM	-0.1856916
-2.660486	FUN	-0.1728758
-3.359456	FUNCTIONAL	-0.08482093
-3.359456	GAME	-0.04047482
-3.359456	GARAGE	-0.08482093
-3.359456	GAY	-0.08482093
-3.359456	GENE	-0.04047482
-2.318063	GET	-0.1853838
-3.359456	GETS	-0.08482093
-2.882335	GETTING	-0.194218
-3.359456	GIFTS	-0.04047482
-3.359456	GIRLS	-0.04047482
-3.058426	GIVE	-0.07092851
-3.359456	GIVING	-0.08425086
-2.660486	GO	-0.06916028
-3.359456	GOES	-0.04047482
-2.405214	GOING	-1.028297
-3.058426	GOLF	-0.04026448
-3.359456	GONE	-0.08348961
-2.660486	GOOD	-0.1818175
-2.514358	GOT	-0.1080176
-3.359456	GRAHAM	-0.04047482
-3.359456	GRAND	-0.04047482
-3.359456	GREAT	-0.08463099
-3.359456	GROWN	-0.07715783
-3.359456	GUYS	-0.08482093
-2.280275	HAD	-0.1828472
-3.058426	HALF	-0.08196311
-3.359456	HAPPENS	-0.08425086
-3.359456	HAPPY	-0.04047482
-3.058426	HARD	-0.07657763
-3.359456	HAS	-0.07190774
-2.058426	HAVE	-0.1675866
-3.359456	HAVEN'T	-0.08425086
-3.058426	HAVING	-0.2720093
-3.058426	HD	-0.02243926
-2.514358	HE	-0.0817719
-3.359456	HE'S	-0.08406068
-3.359456	HELP	-0.06876636
-3.359456	HELPFUL	-0.04047482
-3.359456	HER	-0.08482093
-2.882335	HERE	-0.1627557
-3.359456	HIGH	-0.08482093
-3.359456	HILLS	-0.04047482
-3.359456	HIRE	-0.08463099
-2.882335	HISTORY	-0.1593743
-3.058426	HOLIDAY	-0.07696453
-3.359456	HOLIDAYS	-0.08253616
-3.058426	HOME	-0.08119784
-3.359456	HONEY	-0.08482093
-3.058426	HOPEFULLY	-0.07657763
-3.359456	HOSE	-0.06876636
-3.359456	HOT	-0.04047482
-3.058426	HOUR	-0.04005402
-3.359456	HOURS	-0.07210332
-2.581305	HOUSE	-0.05766746
-3.359456	HOUSES	-0.08482093
-3.359456	HOW	-0.07715783
-3.359456	HOWEVER	-0.04047482
-3.359456	HUNDRED	-0.04047482
-3.359456	HURRICANE	-0.04047482
-3.359456	HUSBAND	-0.08291779
-1.440378	I	-0.3653131
-3.359456	I'D	-0.08482093
-2.882335	I'LL	-0.2044736
-2.017033	I'M	-0.1348499
-3.058426	I'VE	-0.2843524
-3.058426	IDEA	-0.03900016
-2.456366	IF	-0.2277407
-3.359456	IMMEDIATELY	-0.08406068
-2.080702	IN	-0.09674269
-3.359456	INAUDIBLE	-0.04047482
-3.359456	INCH	-0.08081467
-3.058426	INCOME	-0.2830194
-3.359456	INDIVIDUAL	-0.04047482
-3.359456	INHERITANCE	-0.06876636
-3.058426	INSIDE	-0.06041047
-3.359456	INSTRUMENTS	-0.04047482
-3.359456	INVITED	-0.0838704
-2.318063	IS	-0.08041883
-3.359456	ISN'T	-0.08482093
-3.359456	ISSUE	-0.08482093
-2.882335	ISSUES	-0.189097
-1.827977	IT	-0.170132
-3.359456	IT'LL	-0.08272702
-1.897058	IT'S	-0.1204221
-3.058426	ITS	-0.08425088
-3.058426	JAZZ	-0.2847326
-3.058426	JEFF	-0.2847326
-3.359456	JEWISH	-0.07696451
-3.359456	JOANNE'S	-0.06876636
-3.359456	JOB	-0.07908632
-3.058426	JUNE	-0.03984345
-2.213328	JUST	-0.04278211
-3.359456	KIDS	-0.06876636
-2.882335	KIND	-0.3527304
-3.359456	KINDA	-0.08482093
-2.080702	KNOW	-0.03112841
-3.359456	LADY	-0.04047482
-2.882335	LAKE	-0.03963276
-3.058426	LANDLORD	-0.2795726
-2.882335	LAST	-0.08387041
-3.359456	LAUDERDALE'S	-0.08081467
-3.359456	LAWS'	-0.08482093
-3.359456	LEAGUE	-0.08138926
-3.359456	LECTURE	-0.06876636
-3.359456	LEFT	-0.08368005
-3.359456	LEGAL	-0.08482093
-3.359456	LESS	-0.08081467
-2.017033	LIKE	-0.07730988
-3.359456	LIONS	-0.08482093
-3.359456	LIONS'	-0.08482093
-3.359456	LIST	-0.08081467
-2.882335	LITTLE	-0.08444098
-3.058426	LIVE	-0.08119784
-2.757396	LOAN	-0.07927871
-3.058426	LOANS	-0.03878908
-3.359456	LOCATION	-0.06896336
-3.359456	LONG	-0.08463099
-3.359456	LOOK	-0.08310848
-3.058426	LOOKED	-0.08062299
-3.359456	LOST	-0.08444097
-3.359456	LOT	-0.08081467
-3.359456	LOTS	-0.08081467
-3.359456	LOVE	-0.07850868
-3.359456	LOVES	-0.07850868
-2.882335	MAINTENANCE	-0.2069526
-3.058426	MAKE	-0.0840607
-3.359456	MAKING	-0.07850868
-3.359456	MANGERS	-0.06876636
-2.882335	MARRIED	-0.1614908
-3.359456	MART	-0.08196309
-3.359456	MAY	-0.08158062
-3.058426	MAYBE	-0.08023934
-3.359456	MCKENZIE	-0.08463099
-2.581305	ME	-0.05495264
-3.359456	MEAN	-0.07908632
-3.359456	MEMORIAL	-0.08463099
-3.359456	MHM	-0.08310848
-2.660486	MHMM	-0.2815942
-3.058426	MIDDLE	-0.03582316
-3.058426	MIGHT	-0.2828286
-3.359456	MILES	-0.08272702
-3.359456	MILLER	-0.06876636
-3.359456	MOBILITY	-0.06876636
-3.359456	MODERATELY	-0.08482093
-2.882335	MONDAY	-0.03963276
-2.757396	MONEY	-0.03369215
-3.359456	MONTH	-0.07850868
-3.359456	MONTHS	-0.08463099
-3.359456	MOON	-0.06876636
-3.058426	MORE	-0.08062299
-2.882335	MORNING	-0.1873102
-3.359456	MOST	-0.08406068
-3.359456	MOSTLY	-0.08138926
-3.359456	MOUNTAINS	-0.07715783
-3.359456	MOVE	-0.08272702
-3.359456	MOVED	-0.08138926
-3.359456	MOVIE	-0.08463099
-3.359456	MOVING	-0.0838704
-2.757396	MUCH	-0.06221459
-3.058426	MUSIC	-0.0840607
-3.359456	MUSICIAN	-0.08081467
-2.213328	MY	-0.03283681
-3.359456	NEAR	-0.08463099
-3.359456	NEED	-0.07908632
-3.359456	NEUROLOGIST	-0.07908632
-3.359456	NEW	-0.08482093
-2.757396	NEXT	-0.08272703
-3.058426	NICE	-0.04005402
-3.359456	NIECE	-0.08291779
-3.359456	NIECES	-0.08138926
-3.058426	NIGHT	-0.03984345
-3.359456	NINE	-0.08482093
-2.017033	NO	-0.1065632
-2.882335	NORTH	-0.0383666
-3.359456	NORTHEAST	-0.08406068
-3.359456	NORTHWEST	-0.08081467
-2.104183	NOT	-0.06513096
-3.058426	NOTHING	-0.08387043
-2.456366	NOW	-0.08650897
-3.359456	O'CLOCK	-0.07947099
-3.359456	OAK	-0.04047482
-3.359456	OCCASIONAL	-0.08482093
-3.359456	OCCASIONALLY	-0.08119781
-3.359456	OCEAN	-0.07850868
-2.017033	OF	-0.07500248
-3.359456	OFF	-0.07696451
-2.456366	OH	-0.09045054
-3.359456	OHIO	-0.08368005
-3.359456	OK	-0.04047482
-2.660486	OKAY	-0.6474713
-3.058426	OLD	-0.2405764
-2.155336	ON	-0.1502997
-2.456366	ONE	-0.1139642
-3.359456	ONES	-0.08272702
-3.058426	ONLY	-0.0840607
-3.359456	ONTARIO	-0.04047482
-2.660486	OR	-0.08138927
-3.359456	ORLANDO	-0.04047482
-2.882335	OTHER	-0.08272703
-3.359456	OUR	-0.08482093
-2.757396	OUT	-0.0106618
-2.581305	OVER	-0.2251635
-3.058426	OVERPAID	-0.03752045
-3.058426	OVERWHELMING	-0.04005402
-2.757396	PAID	-0.2702887
-3.359456	PALM	-0.08482093
-3.359456	PARENTS	-0.08482093
-3.359456	PART	-0.08158062
-3.359456	PARTNER'S	-0.07210332
-3.359456	PARTY	-0.07696451
-3.359456	PAY	-0.07947099
-3.359456	PEACEFUL	-0.08463099
-3.359456	PEOPLE	-0.04047482
-3.359456	PERHAPS	-0.08425086
-3.359456	PETE	-0.04047482
-3.359456	PETOSKEY	-0.08368005
-3.359456	PETS	-0.06876636
-3.359456	PICK	-0.0838704
-3.058426	PLACE	-0.07560888
-3.359456	PLAN	-0.04047482
-3.058426	PLANNED	-0.08215422
-2.660486	PLAY	-0.03305082
-3.359456	PLAYED	-0.08329909
-3.058426	PLAYING	-0.07014353
-3.359456	PLUMBER	-0.07715783
-3.359456	POINT	-0.08425086
-3.359456	POOP	-0.06876636
-3.359456	POWER	-0.08482093
-3.359456	POWERFUL	-0.08482093
-3.359456	PRETTY	-0.08425086
-3.359456	PRINCESS	-0.04047482
-2.660486	PROBABLY	-0.05434198
-3.359456	PROBLEM	-0.07947099
-3.359456	PROFESSOR	-0.07696451
-3.058426	PROOF	-0.03794374
-3.359456	PROPERTY	-0.08482093
-3.359456	PROPHYLACTIC	-0.08482093
-3.359456	PULLS	-0.0838704
-3.359456	PURPOSES	-0.04047482
-3.359456	PUT	-0.0838704
-3.359456	QUARTER	-0.08482093
-3.359456	QUICK	-0.08463099
-3.359456	QUICKEN	-0.08463099
-3.359456	QUIZZES	-0.0838704
-3.359456	RACE	-0.08463099
-3.359456	RAISED	-0.04047482
-3.359456	RAY	-0.08482093
-3.359456	READ	-0.04047482
-3.359456	READING	-0.07210332
-3.359456	REAL	-0.08406068
-3.359456	REALLY	-0.08463099
-3.359456	REALTOR	-0.08406068
-3.359456	REASON	-0.04047482
-3.359456	RECEPTION	-0.04047482
-3.359456	RECOMMEND	-0.07850868
-2.882335	REHEARSAL	-0.07541485
-3.359456	RELATIONSHIP	-0.08482093
-2.882335	RELATOR	-0.07735108
-3.359456	RELIGIOUS	-0.08482093
-3.359456	REMEMBER	-0.08482093
-3.359456	RESIDENTIAL	-0.04047482
-3.359456	REUPHOLSTERING	-0.08482093
-3.359456	RID	-0.08081467
-3.359456	RIDE	-0.08482093
-2.514358	RIGHT	-0.1950562
-3.359456	ROAD	-0.04047482
-3.359456	ROCHESTER	-0.08482093
-3.359456	ROTATOR	-0.08482093
-3.359456	ROYAL	-0.08482093
-2.660486	SAID	-0.2282183
-3.359456	SAINT	-0.08482093
-3.359456	SALE	-0.04047482
-3.359456	SALVATION	-0.08482093
-3.359456	SAME	-0.08482093
-3.359456	SARASOTA	-0.07696451
-2.882335	SATURDAY	-0.03942199
-3.359456	SAW	-0.08425086
-3.359456	SCHOOL	-0.04047482
-2.757396	SEE	-0.06261449
-3.359456	SEEN	-0.07908632
-2.882335	SELL	-0.1879066
-3.359456	SELLING	-0.07850868
-3.359456	SEMESTER	-0.08234522
-2.757396	SEVEN	-0.1280487
-3.058426	SHE	-0.07966322
-3.058426	SHOULD	-0.08177192
-3.359456	SHOULDER	-0.08482093
-3.359456	SHOWER	-0.08234522
-3.058426	SHOWS	-0.02265844
-3.359456	SHUT	-0.08406068
-3.359456	SILLY	-0.06876636
-3.359456	SISTERS	-0.07908632
-3.359456	SIT	-0.08253616
-3.359456	SITUATION	-0.07947099
-3.359456	SLUSH	-0.08482093
-3.359456	SMALL	-0.08482093
-1.736207	SO	-0.07629049
-2.882335	SOME	-0.08406068
-3.058426	SOMEBODY	-0.03390574
-3.359456	SOMETHING	-0.08368005
-3.359456	SOMETIME	-0.04047482
-3.359456	SORRY	-0.04047482
-3.058426	SOUTH	-0.07947101
-3.359456	STARED	-0.08310848
-3.359456	START	-0.08196309
-3.058426	STARTED	-0.0703399
-3.058426	STARTS	-0.28321
-3.359456	STAY	-0.04047482
-3.058426	STILL	-0.08425088
-3.058426	STRESS	-0.07947101
-3.359456	STRESSFUL	-0.04047482
-3.359456	STUDY	-0.08482093
-2.757396	STUFF	-0.1090884
-3.359456	STUMBLE	-0.08482093
-3.359456	SUICIDE	-0.07696451
-3.058426	SUNDAY	-0.08023934
-3.359456	SUPPLIES	-0.06876636
-2.882335	SURE	-0.06161405
-3.359456	SURGERY	-0.04047482
-3.359456	SWEET	-0.08444097
-3.359456	SYMPTOMS	-0.07947099
-3.359456	TAKE	-0.07210332
-3.359456	TALK	-0.06876636
-3.058426	TALKED	-0.2772594
-3.058426	TAMPA	-0.2405764
-3.058426	TEACH	-0.06817482
-2.882335	TEN	-0.06817481
-3.359456	TERRIBLE	-0.04047482
-2.882335	TEST	-0.03090614
-3.359456	THANK	-0.07947099
-1.868094	THAT	-0.1613508
-2.581305	THAT'S	-0.06520492
-1.526947	THE	-0.09172773
-3.058426	THEIR	-0.0840607
-2.882335	THEM	-0.03900014
-2.359456	THEN	-0.07006466
-3.359456	THERAPIST	-0.08310848
-2.245513	THERE	-0.1104687
-2.514358	THERE'S	-0.1096246
-2.245513	THEY	-0.1304919
-3.058426	THING	-0.02265844
-2.882335	THINGS	-0.01957987
-2.660486	THINK	-0.06480742
-3.359456	THIRTEEN	-0.06876636
-2.660486	THIS	-0.28201
-2.882335	THOUGH	-0.06718711
-3.359456	THOUSAND	-0.08482093
-2.882335	THREE	-0.08368006
-2.882335	THROUGH	-0.06580053
-3.058426	TIME	-0.2405764
-3.359456	TIMES	-0.07210332
-1.746672	TO	-0.07668202
-3.359456	TOLD	-0.04047482
-3.359456	TOMORROW	-0.06876636
-3.058426	TONIGHT	-0.04026448
-2.757396	TOO	-0.08348962
-3.359456	TORE	-0.08234522
-3.359456	TORNADO	-0.04047482
-3.058426	TRACK	-0.03921114
-3.359456	TREATMENT	-0.08482093
-3.058426	TRIP	-0.07560888
-3.359456	TROUBLE	-0.07947099
-2.882335	TRUCKLOADS	-0.063812
-3.359456	TRUST	-0.04047482
-2.882335	TRYING	-0.3490736
-3.359456	TUES	-0.08310848
-3.058426	TUESDAY	-0.06698931
-3.359456	TURNED	-0.08482093
-3.359456	TV	-0.08463099
-3.359456	TWELVE	-0.04047482
-2.514358	TWO	-0.08720043
-3.359456	TYPE	-0.08463099
-2.660486	UH	-0.06758247
-2.405214	UM	-0.0622146
-3.058426	UMM	-0.06758247
-3.359456	UNCLE	-0.08482093
-3.058426	UNPACKED	-0.0840607
-2.581305	UP	-0.009759836
-3.359456	VARIETY	-0.04047482
-2.660486	VERY	-0.0831085
-3.359456	VISITED	-0.08329909
-3.359456	WABATONGUSHI	-0.04047482
-3.359456	WAL	-0.08482093
-3.058426	WALK	-0.08444099
-3.359456	WANT	-0.07715783
-3.058426	WANTED	-0.2772594
-3.359456	WARNING	-0.04047482
-2.155336	WAS	-0.04710414
-3.359456	WASH	-0.07190774
-3.058426	WASTE	-0.07171208
-3.359456	WAWA	-0.08482093
-2.660486	WAY	-0.06361265
-1.997728	WE	-0.1663051
-3.359456	WE'LL	-0.08234522
-3.058426	WE'RE	-0.08310851
-3.058426	WE'VE	-0.08196311
-2.660486	WEDDING	0.0007496327
-2.882335	WEEK	-0.1451409
-2.405214	WEEKEND	-0.1990466
-3.359456	WEEKENDS	-0.08444097
-3.359456	WEIRD	-0.08482093
-2.405214	WELL	-0.09587
-2.581305	WENT	-0.1882905
-2.882335	WERE	-0.08215421
-3.359456	WEREN'T	-0.08138926
-2.882335	WHAT	-0.07889386
-3.359456	WHATEVER	-0.07908632
-2.660486	WHEN	-0.1320098
-3.359456	WHENEVER	-0.07947099
-2.514358	WHERE	-0.040054
-3.359456	WHICH	-0.08348961
-3.058426	WHILE	-0.06440953
-3.359456	WHITMORE	-0.08444097
-2.882335	WHO	-0.0817719
-3.359456	WHOLE	-0.08444097
-3.359456	WHY	-0.0838704
-3.058426	WILL	-0.08387043
-2.405214	WITH	-0.1613757
-3.359456	WITHOUT	-0.08482093
-3.359456	WON	-0.04047482
-3.359456	WON'T	-0.08272702
-2.882335	WORK	-0.07966321
-2.660486	WORKING	-0.01625703
-3.359456	WORKS	-0.04047482
-3.359456	WOULD	-0.08368005
-3.359456	WRITING	-0.07210332
-3.359456	YA'LL	-0.0838704
-1.868094	YEAH	-0.3581938
-2.660486	YEAR	-0.1738089
-3.359456	YEARS	-0.08463099
-3.359456	YEP	-0.04047482
-2.359456	YES	-0.1587374
-2.757396	YET	-0.2181836
-1.897058	YOU	-0.212321
-2.882335	YOU'RE	-0.07927871
-3.058426	YOUR	-0.08444099
-2.882335	YUP	-0.02853471

\2-grams:
-1.227244	300 </s>
-1.227244	300 AND
-1.227244	300 WE
-0.7501225	6 WEEKENDS
-0.7501225	600 MILES
-0.7501225	96 YEARS
-0.7501225	96TH BIRTHDAY
-2.364828	<s> A
-3.098427	<s> ACTUALLY
-3.098427	<s> ALL
-3.098427	<s> AN
-1.117856	<s> AND
-3.098427	<s> AROUND
-3.098427	<s> BE
-3.098427	<s> BECAUSE
-3.098427	<s> BEFORE
-3.098427	<s> BORN
-3.098427	<s> BRASS
-1.503207	<s> BUT
-3.098427	<s> BUYING
-3.098427	<s> CAUSE
-3.098427	<s> COUPLE
-3.098427	<s> DEFINITELY
-3.098427	<s> DOWNTOWN
-3.098427	<s> ELEMENTARY
-3.098427	<s> EVEN
-3.098427	<s> FLORIDA
-2.364828	<s> FOR
-3.098427	<s> FORT
-2.364828	<s> GOING
-3.098427	<s> GOOD
-2.364828	<s> HE
-3.098427	<s> HISTORY
-1.093032	<s> I
-2.001616	<s> I'M
-3.098427	<s> IF
-2.364828	<s> IN
-2.364828	<s> IT
-1.503207	<s> IT'S
-2.364828	<s> JEFF
-3.098427	<s> JUST
-3.098427	<s> MHM
-1.748003	<s> MHMM
-3.098427	<s> MILLER
-3.098427	<s> MODERATELY
-3.098427	<s> MUSIC
-2.364828	<s> MY
-3.098427	<s> NEXT
-1.269124	<s> NO
-3.098427	<s> NOT
-3.098427	<s> NOTHING
-2.122698	<s> OH
-3.098427	<s> OK
-2.122698	<s> OKAY
-3.098427	<s> OR
-3.098427	<s> OVER
-3.098427	<s> PALM
-3.098427	<s> PERHAPS
-3.098427	<s> PLAY
-3.098427	<s> PRETTY
-3.098427	<s> READ
-2.122698	<s> RIGHT
-3.098427	<s> ROTATOR
-3.098427	<s> SAINT
-3.098427	<s> SHE
-3.098427	<s> SHOULD
-1.348305	<s> SO
-3.098427	<s> SOME
-3.098427	<s> SUNDAY
-3.098427	<s> TEN
-3.098427	<s> THANK
-3.098427	<s> THAT
-2.364828	<s> THAT'S
-3.098427	<s> THE
-3.098427	<s> THEN
-3.098427	<s> THERE'S
-2.364828	<s> THEY
-3.098427	<s> THROUGH
-3.098427	<s> TV
-3.098427	<s> TWO
-2.122698	<s> UH
-2.122698	<s> UM
-2.364828	<s> UMM
-3.098427	<s> VERY
-2.122698	<s> WE
-2.364828	<s> WE'VE
-1.809279	<s> WELL
-3.098427	<s> WENT
-3.098427	<s> WHAT
-3.098427	<s> WHEN
-3.098427	<s> WHENEVER
-3.098427	<s> WHERE
-3.098427	<s> WORKING
-1.005882	<s> YEAH
-1.503207	<s> YES
-1.809279	<s> YOU
-3.098427	<s> YUP
-1.051152	<unk> IN
-1.051152	<unk> THIS
-2.576197	A BAD
-1.600468	A BIG
-2.576197	A BLAST
-1.842598	A BUNCH
-2.576197	A CHAUFFEUR
-2.576197	A COUPLE
-2.576197	A DAY
-2.576197	A DIFFERENT
-2.576197	A DIRT
-2.576197	A DISASTER
-2.576197	A DRUG
-2.576197	A FAIRLY
-2.576197	A FISHING
-2.576197	A FUNCTIONAL
-2.576197	A GARAGE
-2.576197	A GOLF
-2.576197	A GREAT
-1.842598	A HALF
-2.576197	A HONEY
-2.576197	A HOUSE
-2.576197	A LAKE
-1.842598	A LANDLORD
-2.576197	A LECTURE
-2.576197	A LIONS
-2.576197	A LIONS'
-2.576197	A LITTLE
-1.479386	A LOAN
-2.576197	A LONG
-2.576197	A LOT
-2.576197	A MOVIE
-2.576197	A MUSICIAN
-2.576197	A NEW
-2.576197	A PLAY
-2.576197	A PROFESSOR
-2.576197	A PROPHYLACTIC
-2.576197	A QUARTER
-2.576197	A REAL
-1.842598	A REHEARSAL
-2.576197	A RELATIONSHIP
-2.576197	A RELATOR
-2.576197	A SALVATION
-2.576197	A SHOWER
-2.576197	A SMALL
-1.842598	A TEST
-2.576197	A THERAPIST
-2.576197	A VERY
-1.479386	A WEDDING
-1.842598	A WEEK
-2.576197	A WEIRD
-2.576197	A WHOLE
-1.600468	A YEAR
-1.352183	ABOUT 600
-1.352183	ABOUT LAST
-1.352183	ABOUT SELLING
-1.352183	ABOUT TEN
-0.7501225	ABSOLUTELY </s>
-1.227244	ACTUALLY DOWN
-1.227244	ACTUALLY FROM
-1.227244	ACTUALLY I
-0.7501225	ADRIAN WHERE
-0.7501225	AFTER BEING
-0.7501225	AGAIN THEN
-1.227244	AGO BECAUSE
-1.227244	AGO BUT
-1.227244	AGO THERE
-0.7501225	ALCOHOL TREATMENT
-1.595221	ALL FROM
-1.595221	ALL INDIVIDUAL
-0.4984093	ALL THE
-1.595221	ALL THROUGH
-1.051152	ALMOST LOST
-1.051152	ALMOST NINE
-0.7501225	ALONG THE
-1.227244	ALSO HAD
-1.227244	ALSO TRYING
-1.227244	ALSO WHEN
-0.7501225	ALWAYS FUN
-1.051152	AM A
-1.051152	AM WORKING
-0.7501225	AMAZING YOU
-1.352183	AN AUNT
-0.6185833	AN HOUR
-1.352183	AN OCCASIONAL
-2.674402	AND </s>
-1.57759	AND A
-2.674402	AND ALCOHOL
-2.674402	AND ALL
-1.57759	AND AND
-2.674402	AND BE
-2.674402	AND BEYOND
-2.674402	AND CATCH
-2.674402	AND EVEN
-2.674402	AND FRIDAY
-2.674402	AND GIVE
-2.674402	AND GO
-2.674402	AND GOT
-2.674402	AND HE
-1.698672	AND I
-2.674402	AND I'M
-2.674402	AND IF
-2.674402	AND IT'S
-1.698672	AND JUST
-2.674402	AND LESS
-2.674402	AND LIKE
-2.674402	AND LOOK
-2.674402	AND LOOKED
-2.674402	AND MIDDLE
-2.674402	AND NOT
-2.674402	AND NOW
-2.674402	AND ONE
-2.674402	AND OUT
-2.674402	AND PLAY
-2.674402	AND PROPERTY
-2.674402	AND RAISED
-0.845098	AND SO
-1.940803	AND STUFF
-2.674402	AND TEACH
-1.323978	AND THE
-2.674402	AND THEIR
-1.57759	AND THEN
-1.698672	AND THEY
-2.674402	AND TRUCKLOADS
-2.674402	AND TWELVE
-1.940803	AND UM
-2.674402	AND VISITED
-2.674402	AND WAL
-2.674402	AND WALK
-2.674402	AND WE
-2.674402	AND WHATEVER
-2.674402	AND WHEN
-2.674402	AND WHITMORE
-2.674402	AND WITH
-1.940803	AND YOU
-2.674402	AND YOUR
-0.7501225	ANOTHER REHEARSAL
-0.7501225	ANTI DEPRESSANTS
-0.7501225	ANTICIPATING MOVING
-0.7501225	ANTIDEPRESSANTS FOR
-1.051152	ANY IDEA
-1.051152	ANY WORK
-0.7501225	ANYONE WHO
-0.7501225	ANYTHING LIKE
-0.7501225	APPEAR DEPRESSED
-1.528274	ARE ALL
-1.528274	ARE ALSO
-1.528274	ARE GOING
-0.7946746	ARE LIKE
-1.528274	ARE YOU
-0.7501225	AREA </s>
-0.7501225	ARMY </s>
-1.051152	AROUND JOANNE'S
-1.051152	AROUND THE
-1.051152	AS IT
-1.051152	AS OVERWHELMING
-1.016523	AT A
-1.750123	AT ALL
-1.750123	AT ALMOST
-1.750123	AT BED
-1.750123	AT EIGHT
-1.750123	AT LIKE
-1.750123	AT QUICKEN
-1.750123	AT THE
-1.750123	AT YOU
-0.7501225	AUDITING DEPARTMENT
-0.7501225	AUNT WHO
-1.051152	AWAY FOR
-1.051152	AWAY FROM
-0.7154933	BACK AND
-1.449093	BACK GET
-1.449093	BACK PLAYING
-1.449093	BACK TO
-0.7501225	BAD LOCATION
-0.7501225	BADLY </s>
-1.051152	BANK AND
-1.051152	BANK BEYOND
-0.4936446	BASED IT
-1.227244	BASED ON
-0.7501225	BASEMENT YOU
-0.7501225	BASICALLY ON
-0.7501225	BATH AND
-0.7501225	BATTLE CREEK
-1.829304	BE COMMERCIAL
-1.829304	BE DEALING
-1.829304	BE EMBARRASSING
-1.829304	BE GOOD
-1.829304	BE HAPPY
-1.829304	BE IT
-1.829304	BE ONE
-1.829304	BE RESIDENTIAL
-1.829304	BE SILLY
-1.829304	BE STARED
-1.829304	BE VERY
-1.829304	BE YOU
-0.7501225	BEACH </s>
-1.750123	BECAUSE FOR
-0.3996983	BECAUSE I
-1.750123	BECAUSE I'VE
-1.750123	BECAUSE IT
-1.750123	BECAUSE MY
-1.750123	BECAUSE WE
-0.7501225	BED BATH
-1.352183	BEEN HOME
-0.6185833	BEEN ON
-1.352183	BEEN TOLD
-1.227244	BEFORE </s>
-1.227244	BEFORE THAT
-1.227244	BEFORE THE
-0.376453	BEING A
-1.352183	BEING AWAY
-0.7501225	BELONGS </s>
-0.3175533	BETWEEN THE
-1.051152	BEYOND </s>
-1.051152	BEYOND THAT
-1.449093	BIG DEAL
-1.449093	BIG DIFFERENCE
-1.449093	BIG FANCY
-1.449093	BIG PARTY
-1.449093	BIG WARNING
-0.7501225	BIKE </s>
-0.7501225	BILLY GRAHAM
-0.7501225	BIRTHDAY WHILE
-0.7501225	BIT OF
-0.7501225	BLAST IT
-0.7501225	BOOK ON
-0.7501225	BORING HOWEVER
-0.7501225	BORN AND
-0.7501225	BOTHER </s>
-0.7501225	BRASS INSTRUMENTS
-0.7501225	BRING THEM
-0.2515143	BUNCH OF
-1.051152	BUSY I'M
-1.051152	BUSY WEEKEND
-1.317553	BUT </s>
-2.051152	BUT AND
-2.051152	BUT BUT
-1.317553	BUT I
-1.317553	BUT IF
-2.051152	BUT IT'LL
-1.317553	BUT IT'S
-2.051152	BUT NOT
-2.051152	BUT NOW
-2.051152	BUT SUNDAY
-2.051152	BUT THE
-2.051152	BUT THERE
-2.051152	BUT THERE'S
-1.317553	BUT WE
-2.051152	BUT YEAH
-0.7501225	BUYING THINGS
-1.051152	CALLED ONE
-1.051152	CALLED WABATONGUSHI
-1.653213	CAN </s>
-1.653213	CAN BE
-1.653213	CAN GET
-1.653213	CAN HAVE
-1.653213	CAN PAY
-1.653213	CAN SEE
-1.653213	CAN SELL
-1.653213	CAN SIT
-0.7501225	CAN'T YOU
-0.7501225	CANADA ABOUT
-0.7501225	CAROLINA CAN
-1.227244	CASH A
-1.227244	CASH FOR
-1.227244	CASH WITH
-0.7501225	CATCH UP
-1.352183	CAUSE ABOUT
-1.352183	CAUSE I
-1.352183	CAUSE OF
-1.352183	CAUSE THAT'S
-0.7501225	CENTERVILLE BRING
-0.7501225	CENTRAL FROM
-0.7501225	CHAUFFEUR WE'RE
-0.7501225	CLASS </s>
-0.7501225	CLASSES AND
-0.7501225	CLEANED OUT
-0.7501225	CLEANING </s>
-1.051152	COME IN
-1.051152	COME WITH
-0.7501225	COMING HOME
-0.7501225	COMMERCIAL IT
-0.7501225	COMMITTED SUICIDE
-0.7501225	COMPANIES THAT
-0.7501225	COMPLETELY GOT
-0.3175533	CONE </s>
-0.7501225	CONTRACTORS AND
-0.7501225	COUCH OVER
-1.352183	COULD BE
-1.352183	COULD BUT
-1.352183	COULD GET
-1.352183	COULD GIVE
-0.7501225	COULDN'T FIND
-1.051152	COUPLE DAYS
-1.051152	COUPLE TIMES
-0.7501225	COURSE IN
-0.7501225	CRAZY </s>
-0.7501225	CREEK </s>
-0.7501225	CRYSTAL </s>
-0.7501225	CUFF IT'S
-0.7501225	CURRENTLY AT
-0.7501225	DAD'S HISTORY
-0.7501225	DATE BUT
-0.7501225	DAUGHTER </s>
-1.051152	DAY </s>
-1.051152	DAY FOR
-1.449093	DAYS </s>
-1.449093	DAYS ON
-1.449093	DAYS OVER
-1.449093	DAYS SO
-1.449093	DAYS YOU
-0.7501225	DEAL LIKE
-0.7501225	DEALING WITH
-0.7501225	DECIDE THEY
-0.7501225	DECIDED ON
-1.051152	DEFINITELY </s>
-1.051152	DEFINITELY A
-0.7501225	DEPARTMENT </s>
-0.7501225	DEPRESSANTS BECAUSE
-1.227244	DEPRESSED </s>
-1.227244	DEPRESSED CAUSE
-1.227244	DEPRESSED DOESN'T
-1.227244	DEPRESSION IS
-1.227244	DEPRESSION PART
-1.227244	DEPRESSION SO
-1.227244	DETROIT </s>
-0.4936446	DETROIT JAZZ
-1.227244	DID NOT
-1.227244	DID WE
-1.227244	DID YOU
-1.051152	DIDN'T FEEL
-1.051152	DIDN'T SORRY
-0.7501225	DIED AND
-0.7501225	DIFFERENCE BETWEEN
-1.051152	DIFFERENT BOOK
-1.051152	DIFFERENT THINGS
-0.7501225	DIRT TRACK
-0.3175533	DISABILITY </s>
-0.7501225	DISASTER AREA
-0.7501225	DISEASE WORKS
-0.7501225	DNA STUDY
-1.595221	DO </s>
-1.595221	DO ANY
-0.8616213	DO LIKE
-1.595221	DO MY
-1.595221	DO SO
-1.595221	DO STUMBLE
-0.7501225	DOES </s>
-0.7501225	DOESN'T MEAN
-0.7501225	DOG AND
-1.227244	DOING I'M
-1.227244	DOING OKAY
-1.227244	DOING THE
-0.7501225	DOLLARS TO
-1.864066	DON'T APPEAR
-1.864066	DON'T EVEN
-0.574918	DON'T KNOW
-1.130467	DON'T LIKE
-1.864066	DON'T REMEMBER
-1.864066	DON'T SELL
-1.864066	DON'T THERE
-0.7501225	DONAVAN </s>
-1.449093	DOWN </s>
-1.449093	DOWN SOUTH
-1.449093	DOWN THERE
-0.7154933	DOWN TO
-1.051152	DOWNTOWN <unk>
-1.051152	DOWNTOWN DETROIT
-1.227244	DRAINS AND
-1.227244	DRAINS CLEANED
-1.227244	DRAINS ERUPTED
-1.051152	DRIVE DOWN
-1.051152	DRIVE RIGHT
-1.051152	DRIVING IMMEDIATELY
-1.051152	DRIVING UP
-0.7501225	DROVE ALL
-0.7501225	DRUG AND
-1.227244	EIGHT DAYS
-1.227244	EIGHT FORTY
-1.227244	EIGHT OH
-1.051152	ELEMENTARY AND
-1.051152	ELEMENTARY STARTS
-0.7501225	ELSE DID
-0.7501225	EM BUT
-0.7501225	EMBARRASSING </s>
-0.7501225	EMPTIED FOR
-1.051152	ENOUGH AND
-1.051152	ENOUGH BECAUSE
-0.7501225	EQUITY ON
-0.7501225	ERR TEST
-0.7501225	ERUPTED WITH
-1.352183	EVEN BOTHER
-1.352183	EVEN IF
-0.6185833	EVEN THOUGH
-0.7501225	EVER SEEN
-1.051152	EVERY OTHER
-1.051152	EVERY PLAN
-0.7501225	EVERYONE HAS
-0.7501225	EVERYTHING WHERE
-0.7501225	EVERYWHERE BUT
-0.7501225	EVICT PRINCESS
-0.7501225	EXACT SYMPTOMS
-0.7501225	EXACTLY SO
-0.7501225	EXCITED </s>
-0.7501225	EXCITING </s>
-0.7501225	EXERCISE </s>
-0.7501225	FACILITY </s>
-0.7501225	FAIRLY QUICK
-0.7501225	FALLING OVER
-1.227244	FAMILY </s>
-1.227244	FAMILY AND
-1.227244	FAMILY THEY
-0.7501225	FAN ISN'T
-0.7501225	FANCY HOUSES
-0.7501225	FARM IN
-0.7501225	FEEL THAT
-0.7501225	FEES TRYING
-1.051152	FESTIVAL AND
-1.051152	FESTIVAL THEN
-0.7501225	FIFTY OR
-0.7501225	FIND ANYONE
-0.7501225	FIREWORKS AND
-1.051152	FIRST FOUND
-1.051152	FIRST MOVED
-0.7501225	FISHING TRIP
-0.7501225	FIVE </s>
-0.7501225	FIX IT
-1.227244	FLORIDA </s>
-1.227244	FLORIDA TO
-1.227244	FLORIDA WERE
-0.7501225	FOOD OR
-1.162651	FOR A
-1.896251	FOR EIGHT
-1.896251	FOR IT
-1.896251	FOR MY
-1.896251	FOR NO
-1.896251	FOR ONE
-1.896251	FOR PEOPLE
-1.896251	FOR THAT
-1.162651	FOR THE
-1.162651	FOR THIS
-1.896251	FOR TUESDAY
-0.7501225	FORGOT THAT
-0.7501225	FORMULA AND
-0.7501225	FORMULATE A
-0.7501225	FORT LAUDERDALE'S
-0.7501225	FORTY </s>
-0.7501225	FOUND OUT
-0.7501225	FOUR DAYS
-1.051152	FRIDAY FRIDAY
-1.051152	FRIDAY I
-1.051152	FRIENDS </s>
-1.051152	FRIENDS FROM
-1.829304	FROM </s>
-1.829304	FROM CENTERVILLE
-1.829304	FROM DOWN
-1.829304	FROM HAVING
-1.829304	FROM HERE
-0.4788795	FROM THE
-1.829304	FROM WHAT
-1.829304	FROM WORK
-0.473363	FUN </s>
-1.449093	FUN TO
-1.449093	FUN WHEN
-0.7501225	FUNCTIONAL COURSE
-0.7501225	GAME </s>
-0.7501225	GARAGE SALE
-0.7501225	GAY CENTRAL
-0.7501225	GENE </s>
-1.057916	GET 300
-0.8157857	GET A
-1.791515	GET ALL
-1.791515	GET BACK
-1.791515	GET LOANS
-1.057916	GET THE
-1.791515	GET UP
-0.7501225	GETS CRAZY
-1.227244	GETTING A
-0.4936446	GETTING MARRIED
-0.7501225	GIFTS </s>
-0.7501225	GIRLS </s>
-1.051152	GIVE A
-1.051152	GIVE ME
-0.7501225	GIVING SEVEN
-1.449093	GO ACTUALLY
-1.449093	GO BACK
-1.449093	GO BUT
-1.449093	GO THERE
-1.449093	GO TO
-0.7501225	GOES </s>
-1.704365	GOING ON
-0.05115252	GOING TO
-1.051152	GOLF </s>
-1.051152	GOLF LEAGUE
-0.7501225	GONE NOW
-0.473363	GOOD </s>
-1.449093	GOOD I'D
-1.449093	GOOD THOUGH
-1.595221	GOT A
-1.595221	GOT MARRIED
-1.595221	GOT ON
-1.595221	GOT RID
-0.8616213	GOT TO
-1.595221	GOT UNPACKED
-0.7501225	GRAHAM </s>
-0.7501225	GRAND </s>
-0.7501225	GREAT TIME
-0.7501225	GROWN TO
-0.7501225	GUYS EVER
-0.5401559	HAD A
-1.829304	HAD EM
-1.829304	HAD HER
-1.829304	HAD MONEY
-1.829304	HAD SHOULDER
-1.829304	HAD TALKED
-1.829304	HAD TO
-1.051152	HALF AGO
-1.051152	HALF THERE
-0.7501225	HAPPENS CAUSE
-0.7501225	HAPPY </s>
-1.051152	HARD GETTING
-1.051152	HARD TO
-0.7501225	HAS THE
-0.7620046	HAVE A
-2.051152	HAVE ANOTHER
-2.051152	HAVE ANY
-2.051152	HAVE HELP
-2.051152	HAVE MY
-2.051152	HAVE NO
-2.051152	HAVE PLANNED
-1.317553	HAVE PROOF
-1.317553	HAVE THE
-2.051152	HAVE THEM
-1.317553	HAVE TO
-2.051152	HAVE TWO
-0.7501225	HAVEN'T BEEN
-0.3175533	HAVING THE
-1.051152	HD </s>
-1.051152	HD AND
-1.595221	HE COMMITTED
-1.595221	HE DOES
-1.595221	HE LOVES
-1.595221	HE PULLS
-1.595221	HE SAID
-1.595221	HE WANTED
-1.595221	HE WENT
-0.7501225	HE'S VERY
-0.7501225	HELP AND
-0.7501225	HELPFUL </s>
-0.7501225	HER 96TH
-0.4936446	HERE </s>
-1.227244	HERE WHILE
-0.7501225	HIGH SCHOOL
-0.7501225	HILLS </s>
-0.7501225	HIRE SOMEBODY
-0.4936446	HISTORY </s>
-1.227244	HISTORY NOT
-1.051152	HOLIDAY LEFT
-1.051152	HOLIDAY TO
-0.7501225	HOLIDAYS DON'T
-1.051152	HOME AFTER
-1.051152	HOME IN
-0.7501225	HONEY MOON
-1.051152	HOPEFULLY HOPEFULLY
-1.051152	HOPEFULLY SO
-0.7501225	HOSE AND
-0.7501225	HOT </s>
-1.051152	HOUR </s>
-1.051152	HOUR SOUTH
-0.7501225	HOURS A
-0.7946746	HOUSE </s>
-1.528274	HOUSE ALSO
-1.528274	HOUSE AND
-1.528274	HOUSE I
-1.528274	HOUSE IS
-0.7501225	HOUSES ALONG
-0.7501225	HOW TO
-0.7501225	HOWEVER </s>
-0.7501225	HUNDRED </s>
-0.7501225	HURRICANE </s>
-0.7501225	HUSBAND IS
-1.935601	I AM
-2.669201	I CALLED
-1.318776	I CAN
-2.669201	I CAN'T
-2.669201	I COULDN'T
-2.669201	I DIDN'T
-1.693471	I DO
-0.8776854	I DON'T
-2.669201	I DRIVE
-1.935601	I FIRST
-2.669201	I FORGOT
-1.935601	I GET
-2.669201	I GOT
-1.693471	I HAD
-0.7429869	I HAVE
-2.669201	I HAVEN'T
-1.935601	I I
-1.935601	I JUST
-1.318776	I KNOW
-1.935601	I LIKE
-2.669201	I LOVE
-2.669201	I MAYBE
-2.669201	I NEED
-2.669201	I OVERPAID
-1.693471	I PAID
-2.669201	I START
-2.669201	I STARTED
-2.669201	I STILL
-2.669201	I TALKED
-2.669201	I TEACH
-1.572389	I THINK
-2.669201	I TORE
-1.935601	I WAS
-2.669201	I WASTE
-2.669201	I WORK
-0.7501225	I'D RECOMMEND
-1.227244	I'LL BE
-0.4936446	I'LL GO
-2.092545	I'M A
-2.092545	I'M CURRENTLY
-1.358946	I'M DOING
-1.358946	I'M DRIVING
-2.092545	I'M EXCITED
-2.092545	I'M GIVING
-1.116816	I'M GOING
-2.092545	I'M I'M
-2.092545	I'M OFF
-2.092545	I'M ON
-2.092545	I'M PLAYING
-2.092545	I'M REUPHOLSTERING
-1.358946	I'M SURE
-2.092545	I'M TRYING
-2.092545	I'M UH
-2.092545	I'M WORKING
-2.092545	I'M WRITING
-0.3175533	I'VE BEEN
-1.051152	IDEA </s>
-1.051152	IDEA WHERE
-0.5564012	IF I
-1.653213	IF IF
-1.653213	IF THEY
-0.9196133	IF YOU
-0.7501225	IMMEDIATELY BACK
-1.295277	IN A
-2.028876	IN BATTLE
-2.028876	IN CRYSTAL
-2.028876	IN FLORIDA
-2.028876	IN I
-2.028876	IN JUNE
-2.028876	IN LAWS'
-2.028876	IN LEGAL
-2.028876	IN LIKE
-2.028876	IN NORTH
-2.028876	IN OHIO
-2.028876	IN ORLANDO
-2.028876	IN ROCHESTER
-2.028876	IN ROYAL
-0.9320648	IN THE
-0.7501225	INAUDIBLE </s>
-0.7501225	INCH OF
-0.3175533	INCOME IS
-0.7501225	INDIVIDUAL </s>
-0.7501225	INHERITANCE AND
-1.051152	INSIDE AND
-1.051152	INSIDE SO
-0.7501225	INSTRUMENTS </s>
-0.7501225	INVITED ME
-1.791515	IS 96
-1.057916	IS </s>
-1.791515	IS A
-1.791515	IS AS
-1.791515	IS COMING
-1.791515	IS GETTING
-1.057916	IS NOT
-1.791515	IS ONE
-1.791515	IS WORKING
-0.7501225	ISN'T ALWAYS
-0.7501225	ISSUE HAPPENS
-0.4936446	ISSUES AND
-1.227244	ISSUES FROM
-1.548002	IT </s>
-2.281601	IT A
-2.281601	IT AND
-2.281601	IT BASICALLY
-2.281601	IT BELONGS
-2.281601	IT BUT
-2.281601	IT COULD
-2.281601	IT FOOD
-2.281601	IT FOR
-2.281601	IT GETS
-2.281601	IT GOES
-2.281601	IT GOT
-2.281601	IT I'LL
-2.281601	IT IS
-2.281601	IT LOOKED
-1.548002	IT MIGHT
-2.281601	IT NICE
-2.281601	IT ON
-2.281601	IT SO
-2.281601	IT STARTS
-2.281601	IT UP
-0.4900862	IT WAS
-0.7501225	IT'LL BE
-1.236791	IT'S A
-2.212521	IT'S AMAZING
-2.212521	IT'S AT
-2.212521	IT'S DEFINITELY
-2.212521	IT'S FUN
-2.212521	IT'S GONE
-2.212521	IT'S GOOD
-2.212521	IT'S HARD
-2.212521	IT'S I
-1.115709	IT'S IT'S
-1.478921	IT'S LIKE
-2.212521	IT'S MORE
-2.212521	IT'S NORTHEAST
-1.478921	IT'S NOT
-2.212521	IT'S ONLY
-2.212521	IT'S OVERWHELMING
-2.212521	IT'S TERRIBLE
-2.212521	IT'S TOO
-2.212521	IT'S TROUBLE
-1.478921	IT'S WAY
-2.212521	IT'S WITH
-1.051152	ITS HARD
-1.051152	ITS ITS
-0.3175533	JAZZ FESTIVAL
-0.3175533	JEFF CONE
-0.7501225	JEWISH SO
-0.7501225	JOANNE'S AND
-0.7501225	JOB THAT
-1.051152	JUNE </s>
-1.051152	JUNE LAST
-1.896251	JUST BECAUSE
-1.896251	JUST CAN
-1.896251	JUST COMPLETELY
-1.896251	JUST DAYS
-1.896251	JUST FIFTY
-1.896251	JUST GET
-1.896251	JUST GOT
-1.896251	JUST HAVING
-1.896251	JUST I
-1.896251	JUST KINDA
-1.896251	JUST PLAY
-1.896251	JUST TALK
-1.896251	JUST THE
-1.896251	JUST UM
-0.7501225	KIDS AND
-0.2515143	KIND OF
-0.7501225	KINDA PLAYED
-1.295277	KNOW </s>
-2.028876	KNOW BECAUSE
-2.028876	KNOW BEING
-2.028876	KNOW CAUSE
-2.028876	KNOW HE
-2.028876	KNOW HOW
-1.053147	KNOW I
-2.028876	KNOW INAUDIBLE
-2.028876	KNOW IT'S
-2.028876	KNOW MAYBE
-2.028876	KNOW MY
-2.028876	KNOW NOT
-2.028876	KNOW OF
-2.028876	KNOW THE
-2.028876	KNOW WHAT
-2.028876	KNOW WHEN
-0.7501225	LADY </s>
-1.227244	LAKE </s>
-1.227244	LAKE CALLED
-1.227244	LAKE DOWNTOWN
-0.3175533	LANDLORD IT'S
-1.227244	LAST JUNE
-1.227244	LAST MONTH
-1.227244	LAST WEEK
-0.7501225	LAUDERDALE'S LIKE
-0.7501225	LAWS' FARM
-0.7501225	LEAGUE IN
-0.7501225	LECTURE AND
-0.7501225	LEFT WHERE
-0.7501225	LEGAL FEES
-0.7501225	LESS LIKE
-2.092545	LIKE 6
-1.116816	LIKE </s>
-0.9957339	LIKE A
-2.092545	LIKE BEING
-2.092545	LIKE EIGHT
-2.092545	LIKE GAY
-1.358946	LIKE NO
-2.092545	LIKE OH
-2.092545	LIKE POWER
-2.092545	LIKE RAY
-2.092545	LIKE SHUT
-2.092545	LIKE THAT
-2.092545	LIKE THE
-2.092545	LIKE THERE
-2.092545	LIKE VARIETY
-2.092545	LIKE WHY
-0.7501225	LIONS GAME
-0.7501225	LIONS' FAN
-0.7501225	LIST OF
-1.227244	LITTLE BIT
-1.227244	LITTLE LADY
-1.227244	LITTLE NIECES
-1.051152	LIVE IN
-1.051152	LIVE NEAR
-1.352183	LOAN BASED
-1.352183	LOAN BECAUSE
-1.352183	LOAN FROM
-1.352183	LOAN OR
-1.051152	LOANS </s>
-1.051152	LOANS NOW
-0.7501225	LOCATION I
-0.7501225	LONG TIME
-0.7501225	LOOK AT
-1.051152	LOOKED AT
-1.051152	LOOKED THEY
-0.7501225	LOST LAST
-0.7501225	LOT OF
-0.7501225	LOTS OF
-0.7501225	LOVE IT
-0.7501225	LOVES IT
-1.227244	MAINTENANCE ISSUE
-0.4936446	MAINTENANCE ISSUES
-1.051152	MAKE EVERY
-1.051152	MAKE SURE
-0.7501225	MAKING IT
-0.7501225	MANGERS AND
-0.4936446	MARRIED </s>
-1.227244	MARRIED OH
-0.7501225	MART WAS
-0.7501225	MAY NOT
-1.051152	MAYBE OVERPAID
-1.051152	MAYBE WE
-0.7501225	MCKENZIE <unk>
-1.528274	ME A
-1.528274	ME BUT
-1.528274	ME EVERYWHERE
-1.528274	ME ON
-1.528274	ME SO
-1.528274	ME THERE'S
-0.7501225	MEAN THAT
-0.7501225	MEMORIAL DAY
-0.7501225	MHM YES
-0.473363	MHMM </s>
-0.7154933	MHMM YUP
-1.051152	MIDDLE </s>
-1.051152	MIDDLE OF
-0.3175533	MIGHT BE
-0.7501225	MILES FROM
-0.7501225	MILLER AND
-0.7501225	MOBILITY AND
-0.7501225	MODERATELY STRESSFUL
-1.227244	MONDAY </s>
-1.227244	MONDAY MEMORIAL
-1.227244	MONDAY MORNING
-1.352183	MONEY </s>
-1.352183	MONEY BECAUSE
-1.352183	MONEY BEFORE
-1.352183	MONEY IN
-0.7501225	MONTH IT
-0.7501225	MONTHS OLD
-0.7501225	MOON AND
-1.051152	MORE LIKE
-1.051152	MORE PEACEFUL
-0.4936446	MORNING I
-1.227244	MORNING I'M
-0.7501225	MOST FUN
-0.7501225	MOSTLY IN
-0.7501225	MOUNTAINS TO
-0.7501225	MOVE FROM
-0.7501225	MOVED IN
-0.7501225	MOVIE TONIGHT
-0.7501225	MOVING WENT
-1.352183	MUCH JUST
-1.352183	MUCH STUFF
-1.352183	MUCH THE
-1.352183	MUCH YEAH
-1.051152	MUSIC HISTORY
-1.051152	MUSIC TONIGHT
-0.7501225	MUSICIAN I'M
-1.896251	MY </s>
-1.896251	MY DAD'S
-1.896251	MY DAUGHTER
-1.896251	MY DOG
-1.896251	MY FAMILY
-1.896251	MY HUSBAND
-1.896251	MY IN
-1.896251	MY INCOME
-1.896251	MY LITTLE
-1.896251	MY MCKENZIE
-1.896251	MY NIECE
-1.896251	MY PARENTS
-1.896251	MY PARTNER'S
-1.896251	MY UNCLE
-0.7501225	NEAR TAMPA
-0.7501225	NEED YEAH
-0.7501225	NEUROLOGIST THAT
-0.7501225	NEW JOB
-1.352183	NEXT MAINTENANCE
-1.352183	NEXT REALTOR
-1.352183	NEXT THREE
-1.352183	NEXT YEAR
-1.051152	NICE </s>
-1.051152	NICE INSIDE
-0.7501225	NIECE IS
-0.7501225	NIECES IN
-1.051152	NIGHT </s>
-1.051152	NIGHT I'LL
-0.7501225	NINE O'CLOCK
-1.116816	NO </s>
-2.092545	NO ACTUALLY
-2.092545	NO FROM
-1.116816	NO I
-2.092545	NO I'M
-2.092545	NO IDEA
-2.092545	NO ISSUES
-2.092545	NO JUST
-1.358946	NO NOT
-2.092545	NO OTHER
-2.092545	NO PROBLEM
-2.092545	NO REASON
-2.092545	NO WAY
-1.116816	NO WE
-2.092545	NO WELL
-1.227244	NORTH </s>
-1.227244	NORTH CAROLINA
-1.227244	NORTH UM
-0.7501225	NORTHEAST OR
-0.7501225	NORTHWEST OF
-2.005395	NOT </s>
-2.005395	NOT ANYTHING
-2.005395	NOT DEPRESSED
-1.271796	NOT ENOUGH
-1.271796	NOT I
-2.005395	NOT SOME
-1.271796	NOT THAT
-2.005395	NOT THE
-2.005395	NOT THINK
-1.271796	NOT THIS
-2.005395	NOT TOO
-2.005395	NOT UNPACKED
-2.005395	NOT WASTE
-2.005395	NOT YOU
-1.051152	NOTHING PLANNED
-1.051152	NOTHING YET
-1.653213	NOW A
-0.9196133	NOW I'M
-1.653213	NOW IT'S
-1.653213	NOW MOSTLY
-1.653213	NOW THAT
-1.653213	NOW THERE
-1.653213	NOW TO
-0.7501225	O'CLOCK IT'S
-0.7501225	OAK </s>
-0.7501225	OCCASIONAL TORNADO
-0.7501225	OCCASIONALLY BUT
-0.7501225	OCEAN IT
-2.092545	OF A
-2.092545	OF ABOUT
-2.092545	OF BEING
-2.092545	OF COMPANIES
-2.092545	OF CONTRACTORS
-2.092545	OF FUN
-2.092545	OF MONEY
-2.092545	OF MUSIC
-2.092545	OF MY
-2.092545	OF SLUSH
-2.092545	OF SOMETHING
-2.092545	OF STUFF
-2.092545	OF TAMPA
-1.116816	OF THE
-2.092545	OF THEM
-2.092545	OF THINGS
-2.092545	OF TRUCKLOADS
-2.092545	OF WANTED
-2.092545	OF WAWA
-2.092545	OF YET
-0.7501225	OFF SO
-1.653213	OH FIVE
-0.9196133	OH I
-1.653213	OH IT
-1.653213	OH NO
-1.653213	OH OKAY
-1.653213	OH WELL
-1.653213	OH YEAH
-0.7501225	OHIO WHERE
-0.7501225	OK </s>
-0.09866829	OKAY </s>
-0.3175533	OLD </s>
-1.220643	ON A
-1.954242	ON ANTI
-1.954242	ON ANTIDEPRESSANTS
-1.954242	ON BILLY
-1.954242	ON BUT
-1.220643	ON DISABILITY
-1.954242	ON IT
-1.954242	ON MAKING
-1.954242	ON MONDAY
-1.220643	ON THAT
-0.978513	ON THE
-1.653213	ONE BANK
-1.653213	ONE HUNDRED
-1.653213	ONE IT
-0.9196133	ONE OF
-1.653213	ONE POINT
-1.653213	ONE RELATOR
-1.653213	ONE YEAR
-0.7501225	ONES BE
-1.051152	ONLY THING
-1.051152	ONLY THREE
-0.7501225	ONTARIO </s>
-1.449093	OR GIFTS
-1.449093	OR HIRE
-1.449093	OR IF
-1.449093	OR NORTHWEST
-1.449093	OR ONE
-0.7501225	ORLANDO </s>
-1.227244	OTHER HOLIDAY
-1.227244	OTHER ONES
-1.227244	OTHER WEEKEND
-0.7501225	OUR COUCH
-1.352183	OUT </s>
-1.352183	OUT AND
-1.352183	OUT OF
-1.352183	OUT THAT
-1.528274	OVER IN
-0.4314625	OVER THE
-1.528274	OVER WITH
-1.051152	OVERPAID </s>
-1.051152	OVERPAID FOR
-1.051152	OVERWHELMING </s>
-1.051152	OVERWHELMING AS
-1.352183	PAID 300
-0.376453	PAID CASH
-0.7501225	PALM BEACH
-0.7501225	PARENTS DIED
-0.7501225	PART NOT
-0.7501225	PARTNER'S A
-0.7501225	PARTY SO
-0.7501225	PAY YOU
-0.7501225	PEACEFUL INSIDE
-0.7501225	PEOPLE </s>
-0.7501225	PERHAPS AN
-0.7501225	PETE </s>
-0.7501225	PETOSKEY WHERE
-0.7501225	PETS AND
-0.7501225	PICK UP
-1.051152	PLACE NOT
-1.051152	PLACE THAT
-0.7501225	PLAN </s>
-1.051152	PLANNED IS
-1.051152	PLANNED YET
-1.449093	PLAY </s>
-1.449093	PLAY DATE
-1.449093	PLAY GOLF
-1.449093	PLAY IN
-1.449093	PLAY THERE
-0.7501225	PLAYED WITH
-1.051152	PLAYING A
-1.051152	PLAYING AT
-0.7501225	PLUMBER TO
-0.7501225	POINT SEVEN
-0.7501225	POOP AND
-0.7501225	POWER WASH
-0.7501225	POWERFUL HOSE
-0.7501225	PRETTY MUCH
-0.7501225	PRINCESS </s>
-1.449093	PROBABLY A
-1.449093	PROBABLY AND
-1.449093	PROBABLY CLEANING
-1.449093	PROBABLY SATURDAY
-1.449093	PROBABLY TAKE
-0.7501225	PROBLEM YOU
-0.7501225	PROFESSOR SO
-1.051152	PROOF </s>
-1.051152	PROOF FROM
-0.7501225	PROPERTY MANGERS
-0.7501225	PROPHYLACTIC PURPOSES
-0.7501225	PULLS ME
-0.7501225	PURPOSES </s>
-0.7501225	PUT ME
-0.7501225	QUARTER INCH
-0.7501225	QUICK TRIP
-0.7501225	QUICKEN LOANS
-0.7501225	QUIZZES OVER
-0.7501225	RACE TRACK
-0.7501225	RAISED </s>
-0.7501225	RAY DONAVAN
-0.7501225	READ </s>
-0.7501225	READING A
-0.7501225	REAL BIG
-0.7501225	REALLY NICE
-0.7501225	REALTOR SAID
-0.7501225	REASON </s>
-0.7501225	RECEPTION </s>
-0.7501225	RECOMMEND IT
-1.227244	REHEARSAL THAT
-1.227244	REHEARSAL THEN
-1.227244	REHEARSAL UM
-0.7501225	RELATIONSHIP HE'S
-1.227244	RELATOR ABOUT
-1.227244	RELATOR SAID
-1.227244	RELATOR THAT
-0.7501225	RELIGIOUS TYPE
-0.7501225	REMEMBER WHICH
-0.7501225	RESIDENTIAL </s>
-0.7501225	REUPHOLSTERING OUR
-0.7501225	RID OF
-0.7501225	RIDE BIKE
-0.8616213	RIGHT </s>
-1.595221	RIGHT EXACTLY
-0.6194911	RIGHT NOW
-1.595221	RIGHT RIGHT
-0.7501225	ROAD </s>
-0.7501225	ROCHESTER HILLS
-0.7501225	ROTATOR CUFF
-0.7501225	ROYAL OAK
-0.7154933	SAID OH
-0.7154933	SAID THAT
-1.449093	SAID THERE'S
-0.7501225	SAINT PETE
-0.7501225	SALE </s>
-0.7501225	SALVATION ARMY
-0.7501225	SAME EXACT
-0.7501225	SARASOTA SO
-1.227244	SATURDAY </s>
-1.227244	SATURDAY MORNING
-1.227244	SATURDAY NIGHT
-0.7501225	SAW AN
-0.7501225	SCHOOL </s>
-1.352183	SEE A
-1.352183	SEE FAMILY
-1.352183	SEE MY
-1.352183	SEE THAT
-0.7501225	SEEN THAT
-0.4936446	SELL IT
-1.227244	SELL THE
-0.7501225	SELLING IT
-0.7501225	SEMESTER FOR
-1.352183	SEVEN </s>
-1.352183	SEVEN QUIZZES
-0.6185833	SEVEN SEVEN
-1.051152	SHE HAD
-1.051152	SHE WAS
-1.051152	SHOULD BE
-1.051152	SHOULD GO
-0.7501225	SHOULDER SURGERY
-0.7501225	SHOWER FOR
-1.051152	SHOWS </s>
-1.051152	SHOWS I
-0.7501225	SHUT DOWN
-0.7501225	SILLY AND
-0.7501225	SISTERS THAT
-0.7501225	SIT THERE
-0.7501225	SITUATION IT'S
-0.7501225	SLUSH YA'LL
-0.7501225	SMALL LIST
-1.276561	SO </s>
-2.373372	SO AN
-2.373372	SO AND
-2.373372	SO BETWEEN
-2.373372	SO BUSY
-2.373372	SO DEPRESSION
-2.373372	SO HOLIDAYS
-1.397642	SO I
-2.373372	SO I'LL
-2.373372	SO I'M
-1.397642	SO IT
-1.022948	SO IT'S
-2.373372	SO ITS
-2.373372	SO MUCH
-2.373372	SO NO
-2.373372	SO NOW
-2.373372	SO THAT
-1.639773	SO THAT'S
-2.373372	SO THE
-1.639773	SO THEY
-2.373372	SO UM
-1.276561	SO WE
-2.373372	SO WE'LL
-2.373372	SO WE'RE
-1.639773	SO YEAH
-1.227244	SOME FRIENDS
-1.227244	SOME PLACE
-1.227244	SOME RELIGIOUS
-1.051152	SOMEBODY </s>
-1.051152	SOMEBODY THAT
-0.7501225	SOMETHING RIGHT
-0.7501225	SOMETIME </s>
-0.7501225	SORRY </s>
-1.051152	SOUTH DO
-1.051152	SOUTH OF
-0.7501225	STARED AT
-0.7501225	START ON
-1.051152	STARTED A
-1.051152	STARTED GOING
-0.3175533	STARTS AT
-0.7501225	STAY </s>
-1.051152	STILL MAINTENANCE
-1.051152	STILL RIDE
-1.051152	STRESS OF
-1.051152	STRESS THERE'S
-0.7501225	STRESSFUL </s>
-0.7501225	STUDY ERR
-0.6185833	STUFF </s>
-1.352183	STUFF AND
-1.352183	STUFF GOING
-0.7501225	STUMBLE OCCASIONALLY
-0.7501225	SUICIDE SO
-1.051152	SUNDAY I'M
-1.051152	SUNDAY MORNING
-0.7501225	SUPPLIES AND
-1.227244	SURE AND
-1.227244	SURE HE
-1.227244	SURE YOU
-0.7501225	SURGERY </s>
-0.7501225	SWEET LITTLE
-0.7501225	SYMPTOMS YOU
-0.7501225	TAKE A
-0.7501225	TALK AND
-0.3175533	TALKED TO
-0.3175533	TAMPA </s>
-1.051152	TEACH AND
-1.051152	TEACH THREE
-1.227244	TEN AND
-1.227244	TEN DIFFERENT
-1.227244	TEN HOURS
-0.7501225	TERRIBLE </s>
-1.227244	TEST </s>
-1.227244	TEST FOR
-1.227244	TEST THAT
-0.7501225	THANK YOU
-1.265755	THAT </s>
-2.241484	THAT ARE
-2.241484	THAT BUT
-2.241484	THAT EVERYONE
-2.241484	THAT HERE
-0.5882717	THAT I
-2.241484	THAT I'M
-1.507885	THAT IS
-2.241484	THAT JUST
-2.241484	THAT LIVE
-2.241484	THAT MONDAY
-2.241484	THAT MUCH
-2.241484	THAT ON
-2.241484	THAT SHE
-2.241484	THAT SO
-1.507885	THAT THEY
-2.241484	THAT WAS
-2.241484	THAT WILL
-2.241484	THAT YEAH
-2.241484	THAT YOU'RE
-1.528274	THAT'S GOOD
-1.528274	THAT'S HOLIDAY
-1.528274	THAT'S KIND
-1.528274	THAT'S NOT
-1.528274	THAT'S THAT'S
-1.528274	THAT'S THE
-2.582631	THE AUDITING
-2.582631	THE BANK
-2.582631	THE BASEMENT
-2.582631	THE BIG
-1.849032	THE DEPRESSION
-1.849032	THE DETROIT
-2.582631	THE DISEASE
-2.582631	THE DNA
-1.606902	THE DRAINS
-2.582631	THE ELEMENTARY
-2.582631	THE EQUITY
-2.582631	THE EVEN
-2.582631	THE FAMILY
-2.582631	THE FIREWORKS
-2.582631	THE FORMULA
-2.582631	THE FOUR
-2.582631	THE GENE
-1.849032	THE HD
-1.232207	THE HOUSE
-2.582631	THE HURRICANE
-2.582631	THE I
-2.582631	THE INHERITANCE
-2.582631	THE LAKE
-2.582631	THE MAINTENANCE
-2.582631	THE MIDDLE
-2.582631	THE MOBILITY
-2.582631	THE MONEY
-2.582631	THE MOST
-2.582631	THE MOUNTAINS
-2.582631	THE NEUROLOGIST
-1.606902	THE NEXT
-2.582631	THE NIGHT
-2.582631	THE OCEAN
-2.582631	THE ONLY
-2.582631	THE OTHER
-2.582631	THE PETS
-2.582631	THE PLACE
-2.582631	THE PLUMBER
-2.582631	THE POWERFUL
-2.582631	THE RACE
-2.582631	THE RELATOR
-2.582631	THE ROAD
-2.582631	THE SAME
-2.582631	THE SEMESTER
-2.582631	THE SHOWS
-2.582631	THE SO
-2.582631	THE STRESS
-2.582631	THE SUPPLIES
-2.582631	THE THE
-2.582631	THE TWO
-1.849032	THE WAY
-2.582631	THE WEDDING
-1.606902	THE WEEKEND
-2.582631	THE YOU
-1.051152	THEIR JEWISH
-1.051152	THEIR MONEY
-1.227244	THEM </s>
-1.227244	THEM BACK
-1.227244	THEM EVERY
-1.750123	THEN </s>
-1.750123	THEN HIGH
-0.774393	THEN I
-1.750123	THEN MONDAY
-1.750123	THEN PROBABLY
-1.750123	THEN THE
-1.750123	THEN TUES
-1.750123	THEN TUESDAY
-0.7501225	THERAPIST AT
-0.8883364	THERE </s>
-1.864066	THERE AGAIN
-1.130467	THERE AND
-1.864066	THERE BORING
-1.864066	THERE IT
-1.864066	THERE JUST
-1.130467	THERE LIKE
-1.864066	THERE NOT
-1.864066	THERE SOMETIME
-1.595221	THERE'S A
-0.8616213	THERE'S LIKE
-1.595221	THERE'S NO
-1.595221	THERE'S PROBABLY
-1.595221	THERE'S STILL
-1.595221	THERE'S TOO
-1.864066	THEY ALMOST
-1.130467	THEY BASED
-1.864066	THEY DECIDE
-1.864066	THEY DECIDED
-1.864066	THEY DO
-1.130467	THEY HAD
-1.864066	THEY LIVE
-1.864066	THEY SAID
-1.864066	THEY TRUST
-1.864066	THEY WANT
-1.864066	THEY WON
-1.051152	THING </s>
-1.051152	THING I
-1.227244	THINGS </s>
-1.227244	THINGS FOR
-1.227244	THINGS I
-1.449093	THINK AWAY
-1.449093	THINK IT
-1.449093	THINK SO
-1.449093	THINK WE
-1.449093	THINK YOU'RE
-0.7501225	THIRTEEN AND
-1.449093	THIS CLASS
-0.3522812	THIS WEEKEND
-1.227244	THOUGH HE
-1.227244	THOUGH HOPEFULLY
-1.227244	THOUGH I
-0.7501225	THOUSAND DOLLARS
-1.227244	THREE CLASSES
-1.227244	THREE DAYS
-1.227244	THREE MONTHS
-1.227244	THROUGH AND
-1.227244	THROUGH SOMEBODY
-1.227244	THROUGH THERE
-0.3175533	TIME </s>
-0.7501225	TIMES A
-1.387177	TO </s>
-1.629307	TO A
-2.362906	TO ADRIAN
-2.362906	TO BE
-2.362906	TO CANADA
-1.629307	TO COME
-2.362906	TO DRIVE
-2.362906	TO EVICT
-2.362906	TO FIX
-2.362906	TO FLORIDA
-2.362906	TO FORMULATE
-1.266095	TO GET
-2.362906	TO GO
-2.362906	TO HAVE
-2.362906	TO IT
-1.629307	TO MAKE
-1.629307	TO ME
-2.362906	TO MY
-2.362906	TO PETOSKEY
-2.362906	TO PICK
-2.362906	TO PLAY
-2.362906	TO PUT
-1.387177	TO SEE
-2.362906	TO SELL
-1.387177	TO THE
-2.362906	TO TO
-2.362906	TO WALK
-2.362906	TO WHO
-0.7501225	TOLD </s>
-0.7501225	TOMORROW AND
-1.051152	TONIGHT </s>
-1.051152	TONIGHT TOMORROW
-1.352183	TOO BADLY
-1.352183	TOO HOT
-1.352183	TOO MUCH
-1.352183	TOO STRESS
-0.7501225	TORE MY
-0.7501225	TORNADO </s>
-1.051152	TRACK </s>
-1.051152	TRACK OVER
-0.7501225	TREATMENT FACILITY
-1.051152	TRIP SO
-1.051152	TRIP TWO
-0.7501225	TROUBLE IT'S
-1.227244	TRUCKLOADS AND
-1.227244	TRUCKLOADS OF
-1.227244	TRUCKLOADS TRUCKLOADS
-0.7501225	TRUST </s>
-0.2515143	TRYING TO
-0.7501225	TUES THEN
-1.051152	TUESDAY I
-1.051152	TUESDAY THEN
-0.7501225	TURNED THIRTEEN
-0.7501225	TV SHOWS
-0.7501225	TWELVE </s>
-0.8616213	TWO </s>
-1.595221	TWO GIRLS
-1.595221	TWO GRAND
-1.595221	TWO OUT
-1.595221	TWO SISTERS
-1.595221	TWO THOUSAND
-0.7501225	TYPE THING
-1.449093	UH DOING
-1.449093	UH EXERCISE
-1.449093	UH I
-1.449093	UH NOTHING
-1.449093	UH SARASOTA
-1.704365	UM BECAUSE
-1.704365	UM GOT
-1.704365	UM HE
-1.704365	UM JUST
-1.704365	UM SATURDAY
-1.704365	UM WENT
-1.704365	UM YEAH
-1.704365	UM YES
-1.704365	UM YOU
-1.051152	UMM NO
-1.051152	UMM THE
-0.7501225	UNCLE INVITED
-1.051152	UNPACKED EVERYTHING
-1.051152	UNPACKED YET
-1.528274	UP </s>
-1.528274	UP AND
-1.528274	UP BECAUSE
-1.528274	UP NORTH
-1.528274	UP SOME
-1.528274	UP TO
-0.7501225	VARIETY </s>
-1.449093	VERY BUSY
-1.449093	VERY EXCITING
-1.449093	VERY HELPFUL
-1.449093	VERY SWEET
-1.449093	VERY VERY
-0.7501225	VISITED WITH
-0.7501225	WABATONGUSHI </s>
-0.7501225	WAL MART
-1.051152	WALK AROUND
-1.051152	WALK WITHOUT
-0.7501225	WANT TO
-0.3175533	WANTED TO
-0.7501225	WARNING </s>
-1.954242	WAS A
-1.954242	WAS AND
-1.954242	WAS EMPTIED
-1.954242	WAS FUN
-1.954242	WAS GETTING
-1.954242	WAS IT'S
-1.954242	WAS KIND
-1.954242	WAS LOTS
-1.954242	WAS ONE
-1.954242	WAS READING
-1.954242	WAS REALLY
-1.954242	WAS THE
-1.954242	WAS TOO
-1.220643	WAS TWO
-1.954242	WAS UP
-0.7501225	WASH THE
-1.051152	WASTE A
-1.051152	WASTE THEIR
-0.7501225	WAWA ONTARIO
-1.449093	WAY IT
-1.449093	WAY MORE
-1.449093	WAY NORTH
-1.449093	WAY THE
-1.449093	WAY YOU'RE
-2.11185	WE ALSO
-1.136121	WE ARE
-2.11185	WE COULD
-2.11185	WE DID
-2.11185	WE DO
-2.11185	WE DROVE
-2.11185	WE GOT
-1.015039	WE HAD
-2.11185	WE HAVE
-2.11185	WE JUST
-2.11185	WE KIND
-2.11185	WE SAW
-2.11185	WE STARTED
-1.378251	WE WENT
-1.378251	WE WERE
-2.11185	WE WILL
-0.7501225	WE'LL JUST
-1.051152	WE'RE GOOD
-1.051152	WE'RE WORKING
-1.051152	WE'VE BEEN
-1.051152	WE'VE HAD
-1.449093	WEDDING </s>
-1.449093	WEDDING AND
-1.449093	WEDDING I
-1.449093	WEDDING IN
-1.449093	WEDDING RECEPTION
-1.227244	WEEK </s>
-0.4936446	WEEK AND
-0.4152171	WEEKEND </s>
-1.704365	WEEKEND PROBABLY
-1.704365	WEEKEND SO
-1.704365	WEEKEND UH
-0.7501225	WEEKENDS BEFORE
-0.7501225	WEIRD SITUATION
-1.704365	WELL AND
-0.9707658	WELL I
-0.9707658	WELL I'M
-1.704365	WELL IT
-1.704365	WELL IT'S
-1.704365	WELL RIGHT
-1.704365	WELL THE
-1.528274	WENT DOWN
-1.528274	WENT FROM
-1.528274	WENT THROUGH
-0.5525443	WENT TO
-1.227244	WERE ANTICIPATING
-1.227244	WERE THERE
-1.227244	WERE TURNED
-0.7501225	WEREN'T IN
-1.227244	WHAT ELSE
-1.227244	WHAT I'VE
-1.227244	WHAT YOU
-0.7501225	WHATEVER YEAH
-0.7154933	WHEN I
-1.449093	WHEN THERE'S
-1.449093	WHEN WE
-1.449093	WHEN YOUR
-0.7501225	WHENEVER YOU
-1.595221	WHERE DID
-1.595221	WHERE I
-1.595221	WHERE I'M
-1.595221	WHERE IT
-1.595221	WHERE THAT
-1.595221	WHERE WE
-1.595221	WHERE YOU
-0.7501225	WHICH ONE
-1.051152	WHILE I
-1.051152	WHILE WE
-0.7501225	WHITMORE LAKE
-1.227244	WHO IS
-1.227244	WHO SAID
-1.227244	WHO WOULD
-0.7501225	WHOLE BUNCH
-0.7501225	WHY ARE
-1.051152	WILL PROBABLY
-1.051152	WILL STAY
-1.704365	WITH FRIENDS
-1.704365	WITH KIDS
-1.704365	WITH MY
-1.704365	WITH POOP
-1.704365	WITH THAT
-0.6075537	WITH THE
-0.7501225	WITHOUT FALLING
-0.7501225	WON </s>
-0.7501225	WON'T BE
-1.227244	WORK BUT
-1.227244	WORK PROBABLY
-1.227244	WORK SATURDAY
-1.449093	WORKING </s>
-1.449093	WORKING AT
-1.449093	WORKING I
-1.449093	WORKING ON
-1.449093	WORKING TEN
-0.7501225	WORKS </s>
-0.7501225	WOULD DO
-0.7501225	WRITING A
-0.7501225	YA'LL ARE
-0.2872417	YEAH </s>
-2.241484	YEAH ABSOLUTELY
-1.507885	YEAH AND
-1.507885	YEAH I'M
-2.241484	YEAH IN
-2.241484	YEAH IT
-2.241484	YEAH NO
-2.241484	YEAH SO
-2.241484	YEAH THAT
-2.241484	YEAH THERE'S
-1.507885	YEAH WE
-2.241484	YEAH WELL
-2.241484	YEAH YEP
-0.7154933	YEAR </s>
-0.7154933	YEAR AGO
-1.449093	YEAR AND
-0.7501225	YEARS OLD
-0.7501225	YEP </s>
-0.6533113	YES </s>
-1.750123	YES IF
-1.016523	YES MY
-1.750123	YES THERE
-1.750123	YES TWO
-1.750123	YES YES
-0.376453	YET </s>
-1.352183	YET TO
-2.212521	YOU ALL
-2.212521	YOU AND
-2.212521	YOU BACK
-2.212521	YOU CAN
-1.478921	YOU COULD
-2.212521	YOU DIDN'T
-2.212521	YOU DON'T
-2.212521	YOU GET
-2.212521	YOU GUYS
-1.478921	YOU HAVE
-2.212521	YOU HERE
-2.212521	YOU I'M
-2.212521	YOU JUST
-0.559308	YOU KNOW
-2.212521	YOU MAY
-2.212521	YOU MOVE
-2.212521	YOU PAID
-2.212521	YOU SHOULD
-2.212521	YOU WEREN'T
-2.212521	YOU WON'T
-1.227244	YOU'RE DEPRESSED
-1.227244	YOU'RE GOING
-1.227244	YOU'RE NOT
-1.051152	YOUR GROWN
-1.051152	YOUR INCOME
-1.227244	YUP </s>
-1.227244	YUP IT
-1.227244	YUP NO

\end\
