
\data\
ngram 1=678
ngram 2=1918

\1-grams:
-3.412964	17	-0.07460141
-3.412964	18	-0.04359296
-2.935843	300	-0.02076541
-3.412964	6	-0.09015325
-3.412964	600	-0.09015325
-3.412964	96	-0.09015325
-3.412964	96TH	-0.09015325
-0.9913604	</s>
-99	<s>	-0.2285233
-3.111934	<unk>	-0.08542711
-1.549641	A	-0.1345186
-2.810904	ABOUT	-0.08897652
-3.412964	ABSOLUTELY	-0.04359296
-3.412964	ACCESSIBLE	-0.07460141
-2.713994	ACTUALLY	-0.1557587
-3.412964	ADRIAN	-0.08897653
-3.412964	AFTER	-0.08948123
-3.412964	AGAIN	-0.08830269
-2.935843	AGO	-0.08253236
-3.412964	ALCOHOL	-0.09015325
-2.509874	ALL	-0.2080278
-3.111934	ALMOST	-0.08998535
-3.412964	ALONG	-0.07737646
-2.935843	ALSO	-0.08712092
-3.412964	ALWAYS	-0.08948123
-3.111934	AM	-0.07703055
-3.111934	AMAZING	-0.03776089
-2.810904	AN	-0.2020422
-1.449176	AND	-0.05641742
-3.412964	ANIMALS	-0.08931307
-3.412964	ANOTHER	-0.08981737
-3.412964	ANTI	-0.09015325
-3.412964	ANTICIPATING	-0.09015325
-3.412964	ANTIDEPRESSANTS	-0.08796537
-3.111934	ANY	-0.08948123
-3.412964	ANYONE	-0.08981737
-3.412964	ANYTHING	-0.0867827
-3.412964	ANYWAY	-0.04359296
-3.412964	APPEAR	-0.08981737
-3.412964	APPOINTMENTS	-0.04359296
-2.412964	ARE	-0.1100012
-3.412964	AREA	-0.04359296
-3.412964	ARMY	-0.04359296
-2.713994	AROUND	-0.1498934
-3.111934	AS	-0.08304462
-2.299021	AT	-0.1070072
-3.412964	AUDITING	-0.09015325
-3.412964	AUNT	-0.08981737
-3.111934	AWAY	-0.08593595
-2.634813	BACK	-0.1658091
-3.412964	BAD	-0.09015325
-3.412964	BADLY	-0.04359296
-3.111934	BANK	-0.07425328
-2.935843	BASED	-0.2380548
-3.412964	BASEMENT	-0.08508756
-3.412964	BASICALLY	-0.08762779
-3.412964	BATH	-0.07460141
-3.412964	BATTLE	-0.09015325
-2.182515	BE	-0.07879403
-3.412964	BEACH	-0.04359296
-3.412964	BEAVERS	-0.04359296
-2.412964	BECAUSE	-0.2209263
-3.412964	BED	-0.09015325
-2.810904	BEEN	-0.1995138
-2.935843	BEFORE	-0.02292657
-2.713994	BEING	-0.1994007
-3.412964	BELONGS	-0.04359296
-3.111934	BETWEEN	-0.3418064
-3.111934	BEYOND	-0.03757145
-2.935843	BIG	-0.08981736
-3.412964	BIKE	-0.04359296
-3.412964	BILLY	-0.09015325
-3.412964	BIRTHDAY	-0.08998535
-3.412964	BIT	-0.08661348
-3.412964	BLAST	-0.08338577
-3.412964	BOOK	-0.08762779
-3.412964	BORING	-0.09015325
-3.412964	BORN	-0.07460141
-3.412964	BOTHER	-0.04359296
-3.412964	BRASS	-0.09015325
-3.412964	BRING	-0.08964934
-2.935843	BUNCH	-0.3230147
-3.111934	BUSY	-0.08508756
-2.051236	BUT	-0.07519762
-3.412964	BUYING	-0.08981737
-3.111934	CALLED	-0.08813407
-2.509874	CAN	-0.03204139
-3.412964	CAN'T	-0.08508756
-3.412964	CANADA	-0.08964934
-3.412964	CAROLINA	-0.08897653
-2.935843	CASH	-0.07373054
-3.412964	CATCH	-0.08897653
-2.810904	CAUSE	-0.0693499
-3.412964	CENTERVILLE	-0.09015325
-3.412964	CENTRAL	-0.08830269
-3.412964	CHAUFFEUR	-0.08998535
-3.412964	CLASS	-0.04359296
-3.412964	CLASSES	-0.07460141
-3.412964	CLEANED	-0.08897653
-3.412964	CLEANING	-0.04359296
-2.935843	COLLEGE	-0.1834568
-3.111934	COME	-0.08457772
-3.111934	COMING	-0.08897653
-3.412964	COMMERCIAL	-0.08338577
-3.412964	COMMITTED	-0.09015325
-3.412964	COMMUNITY	-0.08981737
-3.412964	COMPANIES	-0.08491768
-3.412964	COMPLETELY	-0.08914483
-3.412964	COMPUTER	-0.09015325
-3.412964	COMPUTERS	-0.08064897
-3.111934	CONE	-0.3080229
-3.412964	CONTRACTORS	-0.07460141
-3.412964	COOL	-0.04359296
-3.412964	COUCH	-0.08931307
-2.810904	COULD	-0.08099201
-3.111934	COULDN'T	-0.08931307
-3.111934	COUPLE	-0.08914483
-3.412964	COURSE	-0.08627485
-3.412964	CRAZY	-0.04359296
-3.412964	CREDIT	-0.09015325
-3.412964	CREEK	-0.04359296
-3.412964	CRYSTAL	-0.04359296
-3.412964	CUFF	-0.08406729
-3.412964	CURRENTLY	-0.08813407
-3.412964	DAD'S	-0.08981737
-3.412964	DATE	-0.0864442
-3.412964	DAUGHTER	-0.04359296
-3.111934	DAY	-0.04096881
-2.634813	DAYS	-0.09414476
-3.412964	DEALING	-0.08863974
-3.412964	DECIDE	-0.08745891
-3.412964	DECIDED	-0.08762779
-2.935843	DEFINITELY	-0.02915312
-3.412964	DELTA	-0.08981737
-3.412964	DEPARTMENT	-0.04359296
-3.412964	DEPRESSANTS	-0.08863974
-2.935843	DEPRESSED	-0.04265757
-2.935843	DEPRESSION	-0.07754931
-2.810904	DETROIT	-0.1552377
-2.935843	DID	-0.07685748
-3.111934	DIDN'T	-0.08998535
-3.412964	DIED	-0.07460141
-3.412964	DIFFERENCE	-0.08998535
-3.111934	DIFFERENT	-0.08964934
-3.412964	DIRT	-0.08998535
-3.111934	DISABILITY	-0.3080229
-3.412964	DISASTER	-0.09015325
-3.412964	DISEASE	-0.09015325
-3.412964	DNA	-0.09015325
-2.567866	DO	-0.08590056
-3.412964	DOCTORS	-0.09015325
-3.412964	DOES	-0.04359296
-3.412964	DOESN'T	-0.09015325
-3.412964	DOG	-0.07460141
-2.935843	DOING	-0.0725084
-3.412964	DOLLARS	-0.08219054
-2.266836	DON'T	-0.3008872
-3.412964	DONAVAN	-0.04359296
-2.810904	DOWN	-0.1465401
-3.111934	DOWNTOWN	-0.08931307
-2.935843	DRAINS	-0.07425326
-3.111934	DRIVE	-0.08847125
-3.111934	DRIVING	-0.08880817
-3.412964	DROVE	-0.08897653
-3.412964	DRUG	-0.07460141
-3.412964	EACH	-0.04359296
-2.935843	EIGHT	-0.08728994
-3.111934	ELEMENTARY	-0.07425328
-3.412964	ELSE	-0.08981737
-3.412964	EM	-0.0864442
-3.412964	EMBARRASSING	-0.04359296
-3.412964	EMPTIED	-0.08796537
-3.412964	ENDED	-0.08897653
-3.111934	ENOUGH	-0.07285795
-3.412964	EQUITY	-0.08762779
-3.412964	ERR	-0.08981737
-3.412964	ERUPTED	-0.08863974
-2.810904	EVEN	-0.2006955
-3.412964	EVER	-0.09015325
-3.111934	EVERY	-0.08948123
-3.412964	EVERYBODY	-0.08712094
-3.412964	EVERYONE	-0.09015325
-3.111934	EVERYTHING	-0.07927408
-3.412964	EVERYWHERE	-0.0864442
-3.412964	EVICT	-0.09015325
-3.412964	EXACT	-0.09015325
-2.810904	EXACTLY	-0.2438192
-3.412964	EXCITED	-0.04359296
-3.412964	EXCITING	-0.04359296
-3.412964	EXERCISE	-0.04359296
-3.412964	FACILITY	-0.04359296
-3.412964	FAIRLY	-0.09015325
-3.412964	FALLING	-0.08931307
-3.412964	FALLS	-0.09015325
-2.935843	FAMILY	-0.02273054
-3.412964	FAN	-0.09015325
-3.412964	FANCY	-0.09015325
-3.412964	FARM	-0.08627485
-3.412964	FEEL	-0.08491768
-3.412964	FEES	-0.08981737
-3.111934	FESTIVAL	-0.07250842
-3.412964	FIELD	-0.08219054
-3.412964	FIFTY	-0.08948123
-3.412964	FIND	-0.09015325
-3.412964	FIREWORKS	-0.07460141
-2.935843	FIRST	-0.08610542
-3.412964	FISHING	-0.08998535
-3.412964	FIVE	-0.04359296
-3.412964	FIX	-0.08338577
-3.111934	FLORIDA	-0.03452909
-3.412964	FOOD	-0.08948123
-2.266836	FOR	-0.1348482
-3.412964	FORGOT	-0.08491768
-3.412964	FORMULA	-0.07460141
-3.412964	FORMULATE	-0.07789481
-3.412964	FORT	-0.09015325
-3.412964	FORTY	-0.04359296
-3.412964	FOUND	-0.08897653
-3.412964	FOUR	-0.08931307
-3.412964	FRESHMAN	-0.08627485
-3.111934	FRIDAY	-0.07477538
-3.111934	FRIENDS	-0.04134466
-2.333783	FROM	-0.1575526
-2.713994	FUN	-0.1162334
-3.412964	FUNCTIONAL	-0.09015325
-3.412964	GAME	-0.04359296
-3.412964	GARAGE	-0.09015325
-3.412964	GAY	-0.09015325
-3.412964	GENE	-0.04359296
-2.299021	GET	-0.1606151
-3.412964	GETS	-0.09015325
-2.935843	GETTING	-0.2347822
-3.412964	GIFTS	-0.04359296
-3.412964	GIRLS	-0.04359296
-3.111934	GIVE	-0.07685749
-3.412964	GIVING	-0.08964934
-2.567866	GO	-0.07285794
-3.412964	GOES	-0.04359296
-2.458722	GOING	-1.033689
-3.111934	GOLF	-0.04340604
-3.412964	GONE	-0.08897653
-2.634813	GOOD	-0.1429028
-2.567866	GOT	-0.1262642
-3.412964	GRADUATING	-0.08948123
-3.412964	GRAHAM	-0.04359296
-3.412964	GRAND	-0.04359296
-2.810904	GREAT	-0.04228286
-3.412964	GROWN	-0.08219054
-3.412964	GUYS	-0.09015325
-2.371572	HAD	-0.2134549
-3.111934	HALF	-0.08762779
-3.412964	HANDICAP	-0.09015325
-3.412964	HAPPENS	-0.08964934
-3.412964	HAPPY	-0.04359296
-3.111934	HARD	-0.0816773
-3.412964	HAS	-0.07737646
-2.090745	HAVE	-0.2487968
-3.412964	HAVEN'T	-0.08964934
-3.111934	HAVING	-0.3418064
-3.111934	HD	-0.02605102
-2.333783	HE	-0.1556776
-3.111934	HE'LL	-0.3518888
-2.713994	HE'S	-0.1532801
-3.412964	HELP	-0.07460141
-3.412964	HELPFUL	-0.04359296
-3.111934	HER	-0.08931307
-2.935843	HERE	-0.2006248
-3.412964	HIGH	-0.08998535
-3.412964	HILLS	-0.04359296
-3.412964	HIRE	-0.08998535
-2.935843	HISTORY	-0.1970566
-3.111934	HOLIDAY	-0.08201953
-3.412964	HOLIDAYS	-0.08796537
-3.111934	HOME	-0.08610544
-3.412964	HONEY	-0.09015325
-3.111934	HOPEFULLY	-0.08030566
-3.412964	HOSE	-0.07460141
-3.412964	HOT	-0.04359296
-3.111934	HOUR	-0.04321905
-3.412964	HOURS	-0.07789481
-2.634813	HOUSE	-0.07591713
-3.412964	HOUSES	-0.09015325
-3.412964	HOW	-0.08219054
-3.412964	HOWEVER	-0.04359296
-3.412964	HUNDRED	-0.04359296
-3.412964	HURRICANE	-0.04359296
-3.412964	HUSBAND	-0.08745891
-1.463574	I	-0.3629952
-3.412964	I'D	-0.09015325
-2.935843	I'LL	-0.2436806
-2.051236	I'M	-0.1427862
-3.111934	I'VE	-0.3540792
-3.111934	IDEA	-0.04209539
-2.509874	IF	-0.2735066
-3.412964	IMMEDIATELY	-0.08931307
-2.032753	IN	-0.08229812
-3.412964	INAUDIBLE	-0.04359296
-3.412964	INCH	-0.08661348
-3.111934	INCOME	-0.3518888
-3.412964	INDIVIDUAL	-0.04359296
-3.412964	INHERITANCE	-0.07460141
-3.111934	INSIDE	-0.06456863
-3.412964	INSTRUMENTS	-0.04359296
-3.412964	INTO	-0.09015325
-3.412964	INVITED	-0.08931307
-2.182515	IS	-0.119449
-3.412964	ISN'T	-0.09015325
-3.412964	ISSUE	-0.09015325
-2.935843	ISSUES	-0.2299142
-1.80018	IT	-0.2086505
-3.412964	IT'LL	-0.08745891
-1.844763	IT'S	-0.2235413
-3.111934	ITS	-0.08964934
-3.111934	JAZZ	-0.3544153
-3.111934	JEFF	-0.3544153
-3.412964	JOANNE'S	-0.07460141
-3.412964	JOB	-0.08491768
-3.111934	JUNE	-0.04303197
-3.412964	JUNIOR	-0.04359296
-2.208844	JUST	-0.03946215
-3.412964	KIDS	-0.07460141
-2.935843	KIND	-0.3230147
-3.412964	KINDA	-0.09015325
-2.051236	KNOW	-0.0515689
-3.412964	LADY	-0.04359296
-2.935843	LAKE	-0.0428448
-3.111934	LANDLORD	-0.3484972
-2.935843	LAST	-0.08931305
-3.412964	LAUDERDALE'S	-0.0867827
-3.412964	LAWS'	-0.09015325
-3.412964	LEAGUE	-0.08627485
-3.412964	LECTURE	-0.07460141
-3.412964	LEFT	-0.08897653
-3.412964	LEGAL	-0.09015325
-3.412964	LESS	-0.0867827
-2.090745	LIKE	-0.07351101
-3.412964	LIONS	-0.09015325
-3.412964	LIONS'	-0.09015325
-3.412964	LIST	-0.08661348
-3.111934	LITTLE	-0.08998535
-3.412964	LIVE	-0.08627485
-2.810904	LOAN	-0.08525736
-3.111934	LOANS	-0.04209539
-3.412964	LOCATION	-0.07512309
-3.412964	LONG	-0.08964934
-3.412964	LOOK	-0.08813407
-3.111934	LOOKED	-0.08525737
-3.412964	LOST	-0.08981737
-3.412964	LOT	-0.08661348
-3.412964	LOVE	-0.08338577
-3.111934	LOVES	-0.08321523
-2.935843	MAINTENANCE	-0.2470551
-3.111934	MAKE	-0.08897653
-3.412964	MAKING	-0.08338577
-3.412964	MANGERS	-0.07460141
-2.935843	MARRIED	-0.1989383
-3.412964	MART	-0.08712094
-3.412964	MAY	-0.0867827
-3.111934	MAYBE	-0.08542711
-3.412964	MCKENZIE	-0.08998535
-2.634813	ME	-0.05955405
-3.412964	MEAN	-0.08491768
-3.412964	MEMORIAL	-0.08998535
-3.412964	MET	-0.08813407
-3.412964	MHM	-0.08610544
-2.713994	MHMM	-0.2904286
-3.111934	MIDDLE	-0.03946215
-3.111934	MIGHT	-0.3518888
-3.412964	MILES	-0.08830269
-3.412964	MILLER	-0.07460141
-3.412964	MOBILITY	-0.07460141
-3.412964	MODERATELY	-0.09015325
-2.935843	MONDAY	-0.0428448
-2.810904	MONEY	-0.03662299
-3.412964	MONTH	-0.08338577
-3.412964	MONTHS	-0.08998535
-3.412964	MOON	-0.07460141
-3.111934	MORE	-0.08661348
-2.935843	MORNING	-0.2285133
-3.412964	MOST	-0.08948123
-3.412964	MOSTLY	-0.08627485
-3.412964	MOUNTAINS	-0.08219054
-3.412964	MOVE	-0.08830269
-3.412964	MOVED	-0.08627485
-3.412964	MOVIE	-0.08998535
-3.412964	MOVING	-0.08931307
-2.810904	MUCH	-0.06670013
-3.111934	MUSIC	-0.08948123
-3.412964	MUSICIAN	-0.0864442
-2.236873	MY	-0.03586274
-3.412964	NEAT	-0.04359296
-3.412964	NEED	-0.08338577
-3.412964	NEUROLOGIST	-0.08491768
-3.412964	NEW	-0.09015325
-2.713994	NEXT	-0.1756008
-2.935843	NICE	-0.2006248
-3.412964	NIECE	-0.08745891
-3.111934	NIGHT	-0.04303197
-3.412964	NINE	-0.09015325
-2.090745	NO	-0.0867433
-2.935843	NORTH	-0.04153245
-3.412964	NORTHEAST	-0.08948123
-3.412964	NORTHWEST	-0.08661348
-2.090745	NOT	-0.06808434
-3.111934	NOTHING	-0.08897653
-2.509874	NOW	-0.1030235
-3.412964	O'CLOCK	-0.08406729
-3.412964	OAK	-0.04359296
-3.412964	OCCASIONAL	-0.09015325
-3.412964	OCCASIONALLY	-0.0864442
-3.412964	OCEAN	-0.08338577
-2.070542	OF	-0.07953338
-3.412964	OFF	-0.08064897
-2.371572	OH	-0.1457691
-3.412964	OHIO	-0.08897653
-3.412964	OK	-0.04359296
-2.713994	OKAY	-0.4718797
-3.111934	OLD	-0.3080229
-2.208844	ON	-0.1702348
-2.333783	ONE	-0.1526798
-3.111934	ONES	-0.0721586
-2.935843	ONLY	-0.08914482
-3.412964	ONTARIO	-0.04359296
-2.713994	OR	-0.08644419
-3.412964	ORLANDO	-0.04359296
-2.810904	OTHER	-0.08627484
-3.412964	OUR	-0.09015325
-2.509874	OUT	0.001873933
-2.634813	OVER	-0.2624578
-3.111934	OVERPAID	-0.04096881
-3.111934	OVERWHELMING	-0.04321905
-2.810904	PAID	-0.253514
-3.412964	PALM	-0.09015325
-3.412964	PANDAS	-0.04359296
-3.412964	PARENTS	-0.09015325
-3.412964	PART	-0.0867827
-3.412964	PARTNER'S	-0.07789481
-3.412964	PAY	-0.08508756
-3.412964	PEACEFUL	-0.08998535
-3.412964	PEOPLE	-0.04359296
-3.412964	PERHAPS	-0.08964934
-3.412964	PETOSKEY	-0.08897653
-3.412964	PETS	-0.07460141
-3.412964	PICK	-0.08897653
-3.412964	PICTURES	-0.04359296
-3.111934	PLACE	-0.08133479
-3.412964	PLAN	-0.04359296
-3.111934	PLANNED	-0.0864442
-2.713994	PLAY	-0.03605292
-3.412964	PLAYED	-0.08863974
-3.111934	PLAYING	-0.07564414
-3.412964	PLUMBER	-0.08219054
-3.412964	POINT	-0.08964934
-3.412964	POOP	-0.07460141
-3.412964	POWER	-0.09015325
-3.412964	POWERFUL	-0.09015325
-3.412964	PRETTY	-0.08964934
-3.412964	PRINCESS	-0.04359296
-2.634813	PROBABLY	-0.04694372
-3.111934	PROBLEM	-0.0842375
-3.412964	PROFESSOR	-0.08064897
-3.412964	PROGRAMING	-0.08064897
-3.111934	PROOF	-0.04134466
-3.412964	PROPERTY	-0.09015325
-3.412964	PROPHYLACTIC	-0.09015325
-3.412964	PULLS	-0.08931307
-3.412964	PURPOSES	-0.04359296
-3.412964	PUT	-0.08931307
-3.412964	QUARTER	-0.09015325
-3.412964	QUICK	-0.08998535
-3.412964	QUICKEN	-0.08998535
-3.412964	QUIZZES	-0.08931307
-3.412964	RACE	-0.08998535
-3.412964	RAISED	-0.04359296
-3.412964	RAY	-0.09015325
-3.412964	READ	-0.04359296
-3.412964	READING	-0.07789481
-3.412964	REAL	-0.08981737
-3.111934	REALLY	-0.08964934
-3.412964	REALTOR	-0.08948123
-3.412964	REASON	-0.04359296
-3.412964	RECOMMEND	-0.08338577
-3.412964	RED	-0.09015325
-2.935843	REHEARSAL	-0.08116342
-3.412964	RELATIONSHIP	-0.08948123
-2.935843	RELATOR	-0.08338576
-3.412964	RELIGIOUS	-0.09015325
-3.412964	REMEMBER	-0.09015325
-3.412964	RESIDENTIAL	-0.04359296
-3.412964	REUPHOLSTERING	-0.09015325
-3.412964	RID	-0.08661348
-3.412964	RIDE	-0.09015325
-2.567866	RIGHT	-0.2013035
-3.412964	ROAD	-0.04359296
-3.412964	ROCHESTER	-0.09015325
-3.412964	ROTATOR	-0.09015325
-3.412964	ROYAL	-0.09015325
-3.412964	SAGINAW	-0.04359296
-2.713994	SAID	-0.2789577
-3.412964	SALE	-0.04359296
-3.412964	SALVATION	-0.09015325
-3.412964	SAME	-0.09015325
-3.412964	SARASOTA	-0.08064897
-2.935843	SATURDAY	-0.04265757
-3.412964	SAW	-0.08964934
-3.111934	SCHOOL	-0.02605102
-2.713994	SEE	-0.06846844
-3.412964	SEEN	-0.08491768
-2.935843	SELL	-0.2276354
-3.412964	SELLING	-0.08338577
-3.412964	SEMESTER	-0.08796537
-2.810904	SEVEN	-0.1550504
-3.111934	SHE	-0.08525737
-3.111934	SHOULD	-0.08627485
-3.412964	SHOULDER	-0.09015325
-3.412964	SHOWER	-0.08796537
-3.111934	SHOWS	-0.02663436
-3.412964	SHUT	-0.08964934
-3.111934	SICK	-0.3540792
-3.412964	SILLY	-0.07460141
-3.412964	SISTERS	-0.08491768
-3.412964	SIT	-0.08813407
-3.412964	SITUATION	-0.08406729
-3.412964	SLUSH	-0.09015325
-3.412964	SMALL	-0.09015325
-1.657089	SO	-0.04855755
-2.935843	SOME	-0.08948122
-3.111934	SOMEBODY	-0.03757145
-3.412964	SOMETHING	-0.08914483
-3.412964	SOMETIME	-0.04359296
-3.412964	SORRY	-0.04359296
-3.111934	SOUTH	-0.08542711
-3.412964	STARED	-0.08813407
-3.412964	START	-0.08762779
-3.111934	STARTED	-0.0763379
-3.111934	STARTS	-0.352564
-3.412964	STAY	-0.04359296
-3.111934	STILL	-0.08964934
-3.111934	STRESS	-0.08542711
-3.412964	STRESSFUL	-0.04359296
-3.412964	STUDY	-0.09015325
-2.810904	STUFF	-0.1366891
-3.412964	STUMBLE	-0.09015325
-3.412964	SUICIDE	-0.08064897
-3.111934	SUNDAY	-0.08593595
-3.412964	SUPPLIES	-0.07460141
-2.634813	SURE	-0.1361789
-3.412964	SURGERY	-0.04359296
-3.412964	SWEET	-0.08998535
-3.412964	SYMPTOMS	-0.08508756
-3.412964	TAKE	-0.07789481
-3.412964	TALK	-0.07460141
-3.111934	TALKED	-0.3466205
-3.412964	TAMPA	-0.04359296
-3.111934	TEACH	-0.07407911
-2.935843	TEN	-0.0740791
-3.412964	TERRIBLE	-0.04359296
-2.935843	TEST	-0.03491054
-3.412964	THANK	-0.08508756
-1.907814	THAT	-0.157584
-2.567866	THAT'S	-0.06332038
-1.532151	THE	-0.1021681
-3.412964	THEIR	-0.08964934
-2.810904	THEM	-0.03965076
-2.333783	THEN	-0.0495827
-3.412964	THERAPIST	-0.08813407
-2.299021	THERE	-0.1281857
-2.567866	THERE'S	-0.129097
-2.182515	THEY	-0.1971617
-3.111934	THEY'RE	-0.08030566
-3.111934	THING	-0.02663436
-2.935843	THINGS	-0.02390537
-2.634813	THINK	-0.06224763
-2.713994	THIS	-0.2146587
-2.935843	THOUGH	-0.07268321
-3.412964	THOUSAND	-0.09015325
-2.935843	THREE	-0.08897652
-2.935843	THROUGH	-0.07198358
-2.810904	TIME	-0.2972383
-3.412964	TIMES	-0.07789481
-1.731723	TO	-0.119875
-3.412964	TOLD	-0.04359296
-3.412964	TOMORROW	-0.07460141
-3.111934	TONIGHT	-0.04340604
-2.810904	TOO	-0.08897652
-3.412964	TOOK	-0.09015325
-3.412964	TORE	-0.08779661
-3.412964	TORNADO	-0.04359296
-3.111934	TRACK	-0.04247027
-3.412964	TREATMENT	-0.09015325
-3.111934	TRIP	-0.07944618
-3.412964	TROUBLE	-0.08406729
-2.935843	TRUCKLOADS	-0.07022956
-3.412964	TRUST	-0.04359296
-2.935843	TRYING	-0.3185917
-3.412964	TUES	-0.08830269
-3.111934	TUESDAY	-0.07303262
-3.412964	TV	-0.08998535
-3.412964	TWELVE	-0.04359296
-2.567866	TWO	-0.1019732
-3.412964	TYPE	-0.08998535
-2.634813	UH	-0.07268323
-3.412964	UHH	-0.08998535
-2.412964	UM	-0.06367739
-3.111934	UMM	-0.07373056
-3.412964	UNCLE	-0.09015325
-3.412964	UNDER	-0.08779661
-3.412964	UNION	-0.0857664
-3.111934	UNPACKED	-0.08897653
-2.509874	UP	-0.01261409
-3.412964	USE	-0.08779661
-3.412964	USED	-0.08219054
-3.412964	VACATIONS	-0.08931307
-3.412964	VARIETY	-0.04359296
-2.567866	VERY	-0.1482563
-3.412964	VISITED	-0.08863974
-3.412964	VP	-0.08338577
-3.412964	WABATONGUSHI	-0.04359296
-3.412964	WAL	-0.09015325
-3.111934	WALK	-0.08931307
-3.412964	WALKED	-0.08948123
-3.111934	WALKING	-0.3539112
-3.412964	WANT	-0.08219054
-3.111934	WANTED	-0.3466205
-3.111934	WANTS	-0.3466205
-3.412964	WARNING	-0.04359296
-2.134211	WAS	-0.07723568
-3.412964	WASH	-0.07737646
-3.111934	WASTE	-0.0777221
-3.412964	WAWA	-0.09015325
-2.713994	WAY	-0.06882124
-1.981601	WE	-0.1650833
-3.412964	WE'LL	-0.08762779
-3.111934	WE'RE	-0.08847125
-3.111934	WE'VE	-0.08779661
-2.810904	WEDDING	-0.003487781
-2.935843	WEEK	-0.1834568
-2.509874	WEEKEND	-0.2465088
-3.412964	WEEKENDS	-0.08981737
-3.412964	WEIRD	-0.09015325
-2.458722	WELL	-0.1226651
-2.634813	WENT	-0.2706178
-2.634813	WERE	-0.07075653
-3.111934	WEREN'T	-0.08491768
-2.935843	WHAT	-0.08457771
-3.412964	WHATEVER	-0.08338577
-3.412964	WHEELCHAIR	-0.09015325
-2.713994	WHEN	-0.156288
-3.412964	WHENEVER	-0.08508756
-2.509874	WHERE	-0.04471276
-3.412964	WHICH	-0.08830269
-3.111934	WHILE	-0.0704053
-3.412964	WHITMORE	-0.08981737
-2.935843	WHO	-0.08644418
-3.412964	WHOLE	-0.08981737
-3.412964	WHY	-0.08863974
-3.111934	WILL	-0.08914483
-2.412964	WITH	-0.1724156
-3.412964	WITHOUT	-0.09015325
-3.412964	WON	-0.04359296
-3.412964	WON'T	-0.08745891
-2.935843	WORK	-0.08491766
-2.713994	WORKING	-0.02037133
-3.412964	WORKS	-0.04359296
-3.412964	WOULD	-0.08914483
-3.412964	WRITING	-0.07789481
-3.412964	YA'LL	-0.08863974
-1.80018	YEAH	-0.3628106
-2.634813	YEAR	-0.2205768
-3.412964	YEARS	-0.08998535
-3.412964	YEP	-0.04359296
-2.015024	YES	-0.3678786
-2.634813	YET	-0.2211176
-1.921603	YOU	-0.2557361
-2.935843	YOU'RE	-0.08474772
-3.111934	YOUR	-0.08981737
-2.935843	YUP	-0.03184942
-3.111934	ZOO	-0.02605102

\2-grams:
-0.7263733	17 AND
-0.7263733	18 </s>
-1.203495	300 </s>
-1.203495	300 AND
-1.203495	300 WE
-0.7263733	6 WEEKENDS
-0.7263733	600 MILES
-0.7263733	96 YEARS
-0.7263733	96TH BIRTHDAY
-2.373802	<s> A
-2.373802	<s> ACTUALLY
-3.147977	<s> ALL
-3.147977	<s> AN
-1.14285	<s> AND
-3.147977	<s> AROUND
-3.147977	<s> BE
-3.147977	<s> BECAUSE
-3.147977	<s> BEFORE
-3.147977	<s> BORN
-3.147977	<s> BRASS
-1.921581	<s> BUT
-3.147977	<s> BUYING
-3.147977	<s> CAUSE
-3.147977	<s> COUPLE
-3.147977	<s> DEFINITELY
-3.147977	<s> DELTA
-3.147977	<s> DOCTORS
-3.147977	<s> DOWNTOWN
-3.147977	<s> ELEMENTARY
-3.147977	<s> EVEN
-3.147977	<s> FLORIDA
-2.373802	<s> FOR
-3.147977	<s> FORT
-2.373802	<s> GOING
-3.147977	<s> GOOD
-2.373802	<s> HE
-3.147977	<s> HE'S
-3.147977	<s> HISTORY
-1.14285	<s> I
-2.026247	<s> I'M
-3.147977	<s> IF
-2.221256	<s> IN
-2.221256	<s> IT
-1.921581	<s> IT'S
-2.373802	<s> JEFF
-3.147977	<s> JUST
-3.147977	<s> MHM
-1.879379	<s> MHMM
-3.147977	<s> MILLER
-3.147977	<s> MODERATELY
-3.147977	<s> MUSIC
-2.373802	<s> MY
-3.147977	<s> NEXT
-1.380211	<s> NO
-3.147977	<s> NOT
-3.147977	<s> NOTHING
-1.879379	<s> OH
-3.147977	<s> OK
-2.221256	<s> OKAY
-2.373802	<s> ONE
-3.147977	<s> OR
-3.147977	<s> OVER
-3.147977	<s> PALM
-3.147977	<s> PERHAPS
-3.147977	<s> PLAY
-3.147977	<s> PRETTY
-3.147977	<s> PROBABLY
-3.147977	<s> READ
-2.221256	<s> RIGHT
-3.147977	<s> ROTATOR
-3.147977	<s> SHE
-3.147977	<s> SHOULD
-1.245513	<s> SO
-3.147977	<s> SOME
-3.147977	<s> SUNDAY
-3.147977	<s> TEN
-3.147977	<s> THANK
-3.147977	<s> THAT
-2.373802	<s> THAT'S
-3.147977	<s> THE
-3.147977	<s> THEN
-3.147977	<s> THERE
-3.147977	<s> THERE'S
-1.879379	<s> THEY
-3.147977	<s> THROUGH
-3.147977	<s> TV
-3.147977	<s> TWO
-2.221256	<s> UH
-2.221256	<s> UM
-2.373802	<s> UMM
-3.147977	<s> VERY
-2.026247	<s> WE
-2.373802	<s> WE'VE
-1.723493	<s> WELL
-3.147977	<s> WENT
-3.147977	<s> WHAT
-3.147977	<s> WHEN
-3.147977	<s> WHENEVER
-3.147977	<s> WHERE
-3.147977	<s> WITH
-3.147977	<s> WORKING
-0.9744459	<s> YEAH
-1.14285	<s> YES
-1.723493	<s> YOU
-3.147977	<s> YUP
-1.027403	<unk> IN
-1.027403	<unk> THIS
-2.589696	A BAD
-2.589696	A BIG
-2.589696	A BLAST
-1.815521	A BUNCH
-2.589696	A CHAUFFEUR
-2.589696	A COMMUNITY
-2.589696	A COUPLE
-2.589696	A DAY
-2.589696	A DIFFERENT
-2.589696	A DIRT
-2.589696	A DISASTER
-2.589696	A DRUG
-2.589696	A FAIRLY
-2.589696	A FISHING
-2.589696	A FUNCTIONAL
-2.589696	A GARAGE
-2.589696	A GOLF
-2.589696	A GOOD
-1.815521	A GREAT
-1.815521	A HALF
-2.589696	A HE
-2.589696	A HONEY
-2.589696	A HOUSE
-2.589696	A JUNIOR
-2.589696	A LAKE
-1.815521	A LANDLORD
-2.589696	A LECTURE
-2.589696	A LIONS
-2.589696	A LIONS'
-2.589696	A LITTLE
-1.467966	A LOAN
-2.589696	A LONG
-2.589696	A LOT
-2.589696	A MOVIE
-2.589696	A MUSICIAN
-2.589696	A NEW
-2.589696	A PLAY
-2.589696	A PROBLEM
-2.589696	A PROFESSOR
-2.589696	A PROPHYLACTIC
-2.589696	A QUARTER
-2.589696	A REAL
-1.815521	A REHEARSAL
-2.589696	A RELATIONSHIP
-2.589696	A RELATOR
-2.589696	A SALVATION
-2.589696	A SHOWER
-2.589696	A SMALL
-1.815521	A TEST
-2.589696	A THERAPIST
-2.589696	A VERY
-2.589696	A VP
-1.662975	A WEDDING
-1.815521	A WEEK
-2.589696	A WEIRD
-2.589696	A WHEELCHAIR
-2.589696	A WHOLE
-1.662975	A YEAR
-2.589696	A YOU
-1.328433	ABOUT 600
-1.328433	ABOUT LAST
-1.328433	ABOUT SELLING
-1.328433	ABOUT TEN
-0.7263733	ABSOLUTELY </s>
-0.7263733	ACCESSIBLE AND
-1.425343	ACTUALLY DOWN
-1.425343	ACTUALLY FROM
-0.6511686	ACTUALLY I
-1.425343	ACTUALLY I'M
-0.7263733	ADRIAN WHERE
-0.7263733	AFTER BEING
-0.7263733	AGAIN THEN
-1.203495	AGO BECAUSE
-1.203495	AGO BUT
-1.203495	AGO THERE
-0.7263733	ALCOHOL TREATMENT
-1.629463	ALL FROM
-1.629463	ALL INDIVIDUAL
-1.629463	ALL OUT
-0.5077328	ALL THE
-1.629463	ALL THROUGH
-1.027403	ALMOST LOST
-1.027403	ALMOST NINE
-0.7263733	ALONG THE
-1.203495	ALSO HAD
-1.203495	ALSO TRYING
-1.203495	ALSO WHEN
-0.7263733	ALWAYS FUN
-1.027403	AM A
-1.027403	AM WORKING
-1.027403	AMAZING </s>
-1.027403	AMAZING YOU
-1.328433	AN AUNT
-0.5542586	AN HOUR
-1.328433	AN OCCASIONAL
-2.690161	AND 18
-2.690161	AND </s>
-1.568431	AND A
-2.690161	AND ALCOHOL
-2.690161	AND ALL
-1.568431	AND AND
-2.690161	AND BE
-2.690161	AND BEYOND
-2.690161	AND CATCH
-2.690161	AND ENDED
-2.690161	AND EVEN
-2.690161	AND EVERYTHING
-2.690161	AND FRIDAY
-2.690161	AND GIVE
-2.690161	AND GO
-2.690161	AND GOT
-2.690161	AND HANDICAP
-1.76344	AND HE
-1.76344	AND I
-2.690161	AND I'M
-2.690161	AND IF
-2.690161	AND IT'S
-1.76344	AND JUST
-2.690161	AND LESS
-2.690161	AND LIKE
-2.690161	AND LOOK
-2.690161	AND LOOKED
-2.690161	AND MIDDLE
-2.690161	AND NOT
-2.690161	AND NOW
-2.690161	AND ONE
-2.690161	AND OUT
-2.690161	AND PLAY
-2.690161	AND PROPERTY
-2.690161	AND RAISED
-0.8846066	AND SO
-1.915986	AND STUFF
-2.690161	AND TEACH
-1.265677	AND THE
-1.568431	AND THEN
-1.568431	AND THEY
-2.690161	AND TRUCKLOADS
-2.690161	AND TWELVE
-2.690161	AND UH
-1.915986	AND UM
-2.690161	AND VISITED
-2.690161	AND WAL
-2.690161	AND WALK
-2.690161	AND WE
-2.690161	AND WHATEVER
-2.690161	AND WHEN
-2.690161	AND WHITMORE
-2.690161	AND WITH
-1.915986	AND YOU
-2.690161	AND YOUR
-0.7263733	ANIMALS WERE
-0.7263733	ANOTHER REHEARSAL
-0.7263733	ANTI DEPRESSANTS
-0.7263733	ANTICIPATING MOVING
-0.7263733	ANTIDEPRESSANTS FOR
-1.027403	ANY IDEA
-1.027403	ANY WORK
-0.7263733	ANYONE WHO
-0.7263733	ANYTHING LIKE
-0.7263733	ANYWAY </s>
-0.7263733	APPEAR DEPRESSED
-0.7263733	APPOINTMENTS </s>
-1.726373	ARE 17
-0.9521986	ARE </s>
-1.726373	ARE ALL
-1.726373	ARE ALSO
-1.726373	ARE GOING
-1.726373	ARE IT'S
-0.9521986	ARE LIKE
-1.726373	ARE YOU
-0.7263733	AREA </s>
-0.7263733	ARMY </s>
-1.425343	AROUND JOANNE'S
-1.425343	AROUND SO
-0.6511686	AROUND THE
-1.425343	AROUND WE
-1.027403	AS IT
-1.027403	AS OVERWHELMING
-1.066142	AT A
-1.840317	AT ALL
-1.840317	AT ALMOST
-1.840317	AT BED
-1.840317	AT EIGHT
-1.840317	AT FIRST
-1.840317	AT LIKE
-1.840317	AT QUICKEN
-1.840317	AT SO
-1.066142	AT THE
-1.840317	AT YOU
-0.7263733	AUDITING DEPARTMENT
-0.7263733	AUNT WHO
-1.027403	AWAY FOR
-1.027403	AWAY FROM
-0.5778031	BACK AND
-1.504524	BACK GET
-1.504524	BACK PLAYING
-1.504524	BACK TO
-0.7263733	BAD LOCATION
-0.7263733	BADLY </s>
-1.027403	BANK AND
-1.027403	BANK BEYOND
-0.4293198	BASED IT
-1.203495	BASED ON
-0.7263733	BASEMENT YOU
-0.7263733	BASICALLY ON
-0.7263733	BATH AND
-0.7263733	BATTLE CREEK
-1.956822	BE A
-1.956822	BE COMMERCIAL
-1.956822	BE DEALING
-1.956822	BE EMBARRASSING
-1.956822	BE GOOD
-1.956822	BE GRADUATING
-1.956822	BE HAPPY
-1.182647	BE IN
-1.956822	BE IT
-1.956822	BE ONE
-1.956822	BE RESIDENTIAL
-1.956822	BE SILLY
-1.956822	BE STARED
-1.956822	BE UHH
-1.956822	BE VERY
-1.956822	BE YOU
-0.7263733	BEACH </s>
-0.7263733	BEAVERS </s>
-1.726373	BECAUSE FOR
-0.4577753	BECAUSE I
-1.726373	BECAUSE I'VE
-1.726373	BECAUSE IT
-1.726373	BECAUSE MY
-1.726373	BECAUSE WE
-0.7263733	BED BATH
-1.328433	BEEN HOME
-0.5542586	BEEN ON
-1.328433	BEEN TOLD
-1.203495	BEFORE </s>
-1.203495	BEFORE THAT
-1.203495	BEFORE THE
-0.4986218	BEING A
-1.425343	BEING AWAY
-1.425343	BEING IN
-0.7263733	BELONGS </s>
-0.2532286	BETWEEN THE
-1.027403	BEYOND </s>
-1.027403	BEYOND THAT
-1.203495	BIG DIFFERENCE
-1.203495	BIG FANCY
-1.203495	BIG WARNING
-0.7263733	BIKE </s>
-0.7263733	BILLY GRAHAM
-0.7263733	BIRTHDAY WHILE
-0.7263733	BIT OF
-0.7263733	BLAST IT
-0.7263733	BOOK ON
-0.7263733	BORING HOWEVER
-0.7263733	BORN AND
-0.7263733	BOTHER </s>
-0.7263733	BRASS INSTRUMENTS
-0.7263733	BRING THEM
-0.2767731	BUNCH OF
-1.027403	BUSY I'M
-1.027403	BUSY WEEKEND
-1.16138	BUT </s>
-2.088101	BUT AND
-2.088101	BUT BUT
-1.313926	BUT I
-1.313926	BUT IF
-2.088101	BUT IT'LL
-1.313926	BUT IT'S
-2.088101	BUT NOT
-2.088101	BUT NOW
-2.088101	BUT SUNDAY
-2.088101	BUT THE
-2.088101	BUT THEN
-2.088101	BUT THERE
-2.088101	BUT THERE'S
-1.313926	BUT WE
-1.313926	BUT YEAH
-0.7263733	BUYING THINGS
-1.027403	CALLED ONE
-1.027403	CALLED WABATONGUSHI
-1.629463	CAN </s>
-1.629463	CAN BE
-1.629463	CAN GET
-1.629463	CAN HAVE
-1.629463	CAN PAY
-1.629463	CAN SEE
-1.629463	CAN SELL
-1.629463	CAN SIT
-0.7263733	CAN'T YOU
-0.7263733	CANADA ABOUT
-0.7263733	CAROLINA CAN
-1.203495	CASH A
-1.203495	CASH FOR
-1.203495	CASH WITH
-0.7263733	CATCH UP
-1.328433	CAUSE ABOUT
-1.328433	CAUSE I
-1.328433	CAUSE OF
-1.328433	CAUSE THAT'S
-0.7263733	CENTERVILLE BRING
-0.7263733	CENTRAL FROM
-0.7263733	CHAUFFEUR WE'RE
-0.7263733	CLASS </s>
-0.7263733	CLASSES AND
-0.7263733	CLEANED OUT
-0.7263733	CLEANING </s>
-0.4293198	COLLEGE </s>
-1.203495	COLLEGE AND
-1.027403	COME IN
-1.027403	COME WITH
-1.027403	COMING BACK
-1.027403	COMING HOME
-0.7263733	COMMERCIAL IT
-0.7263733	COMMITTED SUICIDE
-0.7263733	COMMUNITY COLLEGE
-0.7263733	COMPANIES THAT
-0.7263733	COMPLETELY GOT
-0.7263733	COMPUTER PROGRAMING
-0.7263733	COMPUTERS SO
-0.2532286	CONE </s>
-0.7263733	CONTRACTORS AND
-0.7263733	COOL </s>
-0.7263733	COUCH OVER
-1.328433	COULD BE
-1.328433	COULD BUT
-1.328433	COULD GET
-1.328433	COULD GIVE
-1.027403	COULDN'T FIND
-1.027403	COULDN'T SEE
-1.027403	COUPLE DAYS
-1.027403	COUPLE TIMES
-0.7263733	COURSE IN
-0.7263733	CRAZY </s>
-0.7263733	CREDIT UNION
-0.7263733	CREEK </s>
-0.7263733	CRYSTAL </s>
-0.7263733	CUFF IT'S
-0.7263733	CURRENTLY AT
-0.7263733	DAD'S HISTORY
-0.7263733	DATE BUT
-0.7263733	DAUGHTER </s>
-1.027403	DAY </s>
-1.027403	DAY FOR
-0.7303498	DAYS </s>
-1.504524	DAYS ON
-1.504524	DAYS OVER
-1.504524	DAYS SO
-1.504524	DAYS YOU
-0.7263733	DEALING WITH
-0.7263733	DECIDE THEY
-0.7263733	DECIDED ON
-1.203495	DEFINITELY </s>
-1.203495	DEFINITELY A
-1.203495	DEFINITELY NICE
-0.7263733	DELTA COLLEGE
-0.7263733	DEPARTMENT </s>
-0.7263733	DEPRESSANTS BECAUSE
-1.203495	DEPRESSED </s>
-1.203495	DEPRESSED CAUSE
-1.203495	DEPRESSED DOESN'T
-1.203495	DEPRESSION IS
-1.203495	DEPRESSION PART
-1.203495	DEPRESSION SO
-1.328433	DETROIT </s>
-0.5542586	DETROIT JAZZ
-1.328433	DETROIT ZOO
-1.203495	DID NOT
-1.203495	DID WE
-1.203495	DID YOU
-1.027403	DIDN'T FEEL
-1.027403	DIDN'T SORRY
-0.7263733	DIED AND
-0.7263733	DIFFERENCE BETWEEN
-1.027403	DIFFERENT BOOK
-1.027403	DIFFERENT THINGS
-0.7263733	DIRT TRACK
-0.2532286	DISABILITY </s>
-0.7263733	DISASTER AREA
-0.7263733	DISEASE WORKS
-0.7263733	DNA STUDY
-1.571471	DO </s>
-1.571471	DO ANY
-0.7972966	DO LIKE
-1.571471	DO MY
-1.571471	DO SO
-1.571471	DO STUMBLE
-0.7263733	DOCTORS APPOINTMENTS
-0.7263733	DOES </s>
-0.7263733	DOESN'T MEAN
-0.7263733	DOG AND
-1.203495	DOING I'M
-1.203495	DOING OKAY
-1.203495	DOING THE
-0.7263733	DOLLARS TO
-1.872501	DON'T APPEAR
-1.872501	DON'T EVEN
-1.872501	DON'T HAVE
-0.4480173	DON'T KNOW
-1.098327	DON'T LIKE
-1.872501	DON'T REMEMBER
-1.872501	DON'T SELL
-1.872501	DON'T THERE
-0.7263733	DONAVAN </s>
-1.328433	DOWN </s>
-1.328433	DOWN SOUTH
-0.5542586	DOWN TO
-1.027403	DOWNTOWN <unk>
-1.027403	DOWNTOWN DETROIT
-1.203495	DRAINS AND
-1.203495	DRAINS CLEANED
-1.203495	DRAINS ERUPTED
-1.027403	DRIVE DOWN
-1.027403	DRIVE RIGHT
-1.027403	DRIVING IMMEDIATELY
-1.027403	DRIVING UP
-0.7263733	DROVE ALL
-0.7263733	DRUG AND
-0.7263733	EACH </s>
-1.203495	EIGHT DAYS
-1.203495	EIGHT FORTY
-1.203495	EIGHT OH
-1.027403	ELEMENTARY AND
-1.027403	ELEMENTARY STARTS
-0.7263733	ELSE DID
-0.7263733	EM BUT
-0.7263733	EMBARRASSING </s>
-0.7263733	EMPTIED FOR
-0.7263733	ENDED UP
-1.027403	ENOUGH AND
-1.027403	ENOUGH BECAUSE
-0.7263733	EQUITY ON
-0.7263733	ERR TEST
-0.7263733	ERUPTED WITH
-1.328433	EVEN BOTHER
-1.328433	EVEN IF
-0.5542586	EVEN THOUGH
-0.7263733	EVER SEEN
-1.027403	EVERY OTHER
-1.027403	EVERY PLAN
-0.7263733	EVERYBODY WAS
-0.7263733	EVERYONE HAS
-1.027403	EVERYTHING SO
-1.027403	EVERYTHING WHERE
-0.7263733	EVERYWHERE BUT
-0.7263733	EVICT PRINCESS
-0.7263733	EXACT SYMPTOMS
-1.328433	EXACTLY SO
-0.4017118	EXACTLY SURE
-0.7263733	EXCITED </s>
-0.7263733	EXCITING </s>
-0.7263733	EXERCISE </s>
-0.7263733	FACILITY </s>
-0.7263733	FAIRLY QUICK
-0.7263733	FALLING OVER
-0.7263733	FALLS UNDER
-1.203495	FAMILY </s>
-1.203495	FAMILY AND
-1.203495	FAMILY THEY
-0.7263733	FAN ISN'T
-0.7263733	FANCY HOUSES
-0.7263733	FARM IN
-0.7263733	FEEL THAT
-0.7263733	FEES TRYING
-1.027403	FESTIVAL AND
-1.027403	FESTIVAL THEN
-0.7263733	FIELD TO
-0.7263733	FIFTY OR
-0.7263733	FIND ANYONE
-0.7263733	FIREWORKS AND
-1.203495	FIRST BUT
-1.203495	FIRST FOUND
-1.203495	FIRST MOVED
-0.7263733	FISHING TRIP
-0.7263733	FIVE </s>
-0.7263733	FIX IT
-1.027403	FLORIDA </s>
-1.027403	FLORIDA TO
-0.7263733	FOOD OR
-1.098327	FOR A
-1.872501	FOR EIGHT
-1.872501	FOR IT
-1.872501	FOR MY
-1.872501	FOR NO
-1.872501	FOR ONE
-1.872501	FOR PEOPLE
-1.872501	FOR THAT
-1.098327	FOR THE
-1.098327	FOR THIS
-1.872501	FOR TUESDAY
-0.7263733	FORGOT THAT
-0.7263733	FORMULA AND
-0.7263733	FORMULATE A
-0.7263733	FORT LAUDERDALE'S
-0.7263733	FORTY </s>
-0.7263733	FOUND OUT
-0.7263733	FOUR DAYS
-0.7263733	FRESHMAN IN
-1.027403	FRIDAY FRIDAY
-1.027403	FRIDAY I
-1.027403	FRIENDS </s>
-1.027403	FRIENDS FROM
-1.805555	FROM </s>
-1.805555	FROM CENTERVILLE
-1.805555	FROM DOWN
-1.805555	FROM HAVING
-1.805555	FROM HERE
-0.5369565	FROM THE
-1.805555	FROM WHAT
-1.805555	FROM WORK
-0.6511686	FUN </s>
-1.425343	FUN TO
-1.425343	FUN WHEN
-1.425343	FUN YES
-0.7263733	FUNCTIONAL COURSE
-0.7263733	GAME </s>
-0.7263733	GARAGE SALE
-0.7263733	GAY CENTRAL
-0.7263733	GENE </s>
-1.066142	GET 300
-0.9135952	GET A
-1.840317	GET ALL
-1.840317	GET BACK
-1.840317	GET I
-1.840317	GET LOANS
-1.840317	GET SICK
-1.066142	GET THE
-1.840317	GET UP
-0.7263733	GETS CRAZY
-1.203495	GETTING A
-0.4293198	GETTING MARRIED
-0.7263733	GIFTS </s>
-0.7263733	GIRLS </s>
-1.027403	GIVE A
-1.027403	GIVE ME
-0.7263733	GIVING SEVEN
-1.571471	GO ACTUALLY
-1.571471	GO BACK
-1.571471	GO BUT
-1.571471	GO INTO
-1.571471	GO THERE
-1.571471	GO TO
-1.571471	GO YET
-0.7263733	GOES </s>
-1.680616	GOING ON
-0.05115252	GOING TO
-1.027403	GOLF </s>
-1.027403	GOLF LEAGUE
-0.7263733	GONE NOW
-0.5778031	GOOD </s>
-1.504524	GOOD I'D
-1.504524	GOOD ONE
-1.504524	GOOD THOUGH
-1.571471	GOT A
-1.571471	GOT MARRIED
-1.571471	GOT ON
-1.571471	GOT RID
-0.7972966	GOT TO
-1.571471	GOT UNPACKED
-0.7263733	GRADUATING NEXT
-0.7263733	GRAHAM </s>
-0.7263733	GRAND </s>
-1.328433	GREAT </s>
-1.328433	GREAT FIELD
-1.328433	GREAT SCHOOL
-1.328433	GREAT TIME
-0.7263733	GROWN TO
-0.7263733	GUYS EVER
-0.499168	HAD A
-1.767766	HAD EM
-1.767766	HAD HER
-1.767766	HAD MONEY
-1.767766	HAD SHOULDER
-1.767766	HAD TALKED
-1.767766	HAD TO
-1.027403	HALF AGO
-1.027403	HALF THERE
-0.7263733	HANDICAP ACCESSIBLE
-0.7263733	HAPPENS CAUSE
-0.7263733	HAPPY </s>
-1.027403	HARD GETTING
-1.027403	HARD TO
-0.7263733	HAS THE
-0.6241086	HAVE A
-2.048593	HAVE ANOTHER
-2.048593	HAVE ANY
-2.048593	HAVE HELP
-2.048593	HAVE MY
-2.048593	HAVE NO
-2.048593	HAVE PLANNED
-1.274418	HAVE PROOF
-1.274418	HAVE THE
-2.048593	HAVE THEM
-1.121871	HAVE TO
-2.048593	HAVE TWO
-0.7263733	HAVEN'T BEEN
-0.2532286	HAVING THE
-1.027403	HD </s>
-1.027403	HD AND
-1.805555	HE COMMITTED
-1.805555	HE DOES
-1.805555	HE JUST
-1.03138	HE LOVES
-1.805555	HE PULLS
-1.805555	HE SAID
-1.805555	HE USED
-1.805555	HE WANTED
-1.03138	HE WANTS
-1.805555	HE WENT
-0.2532286	HE'LL BE
-1.425343	HE'S A
-1.425343	HE'S IT
-0.6511686	HE'S NOT
-1.425343	HE'S VERY
-0.7263733	HELP AND
-0.7263733	HELPFUL </s>
-1.027403	HER 96TH
-1.027403	HER BEING
-0.4293198	HERE </s>
-1.203495	HERE WHILE
-0.7263733	HIGH SCHOOL
-0.7263733	HILLS </s>
-0.7263733	HIRE SOMEBODY
-0.4293198	HISTORY </s>
-1.203495	HISTORY NOT
-1.027403	HOLIDAY LEFT
-1.027403	HOLIDAY TO
-0.7263733	HOLIDAYS DON'T
-1.027403	HOME AFTER
-1.027403	HOME IN
-0.7263733	HONEY MOON
-1.027403	HOPEFULLY HOPEFULLY
-1.027403	HOPEFULLY SO
-0.7263733	HOSE AND
-0.7263733	HOT </s>
-1.027403	HOUR </s>
-1.027403	HOUR SOUTH
-0.7263733	HOURS A
-0.7303498	HOUSE </s>
-1.504524	HOUSE ALSO
-1.504524	HOUSE AND
-1.504524	HOUSE I
-1.504524	HOUSE IS
-0.7263733	HOUSES ALONG
-0.7263733	HOW TO
-0.7263733	HOWEVER </s>
-0.7263733	HUNDRED </s>
-0.7263733	HURRICANE </s>
-0.7263733	HUSBAND IS
-1.901589	I AM
-2.675763	I CALLED
-1.407165	I CAN
-2.675763	I CAN'T
-2.675763	I COULDN'T
-2.675763	I DIDN'T
-1.749042	I DO
-0.8702087	I DON'T
-2.675763	I DRIVE
-1.901589	I FIRST
-2.675763	I FORGOT
-1.554033	I GET
-2.675763	I GOT
-1.749042	I HAD
-0.7732987	I HAVE
-2.675763	I HAVEN'T
-1.901589	I I
-1.901589	I JUST
-1.449367	I KNOW
-1.901589	I LIKE
-2.675763	I LOVE
-2.675763	I MAYBE
-2.675763	I NEED
-2.675763	I OVERPAID
-1.749042	I PAID
-2.675763	I START
-2.675763	I STARTED
-2.675763	I STILL
-2.675763	I TALKED
-2.675763	I TEACH
-1.407165	I THINK
-2.675763	I TORE
-1.901589	I WAS
-2.675763	I WASTE
-2.675763	I WORK
-0.7263733	I'D RECOMMEND
-1.203495	I'LL BE
-0.4293198	I'LL GO
-2.088101	I'M A
-2.088101	I'M CURRENTLY
-1.313926	I'M DOING
-1.313926	I'M DRIVING
-2.088101	I'M EXCITED
-2.088101	I'M GIVING
-1.16138	I'M GOING
-2.088101	I'M I'M
-2.088101	I'M NOT
-2.088101	I'M OFF
-2.088101	I'M ON
-2.088101	I'M PLAYING
-2.088101	I'M REUPHOLSTERING
-1.313926	I'M SURE
-2.088101	I'M TRYING
-2.088101	I'M UH
-2.088101	I'M WORKING
-2.088101	I'M WRITING
-0.2532286	I'VE BEEN
-1.027403	IDEA </s>
-1.027403	IDEA WHERE
-0.5077328	IF I
-1.629463	IF IF
-1.629463	IF THEY
-0.8552886	IF YOU
-0.7263733	IMMEDIATELY BACK
-1.179863	IN </s>
-1.179863	IN A
-2.106585	IN BATTLE
-2.106585	IN COLLEGE
-2.106585	IN CRYSTAL
-2.106585	IN I
-2.106585	IN JUNE
-2.106585	IN LAWS'
-2.106585	IN LEGAL
-2.106585	IN LIKE
-2.106585	IN NORTH
-2.106585	IN OHIO
-2.106585	IN ORLANDO
-2.106585	IN ROCHESTER
-2.106585	IN ROYAL
-2.106585	IN SAGINAW
-0.9848541	IN THE
-0.7263733	INAUDIBLE </s>
-0.7263733	INCH OF
-0.2532286	INCOME IS
-0.7263733	INDIVIDUAL </s>
-0.7263733	INHERITANCE AND
-1.027403	INSIDE AND
-1.027403	INSIDE SO
-0.7263733	INSTRUMENTS </s>
-0.7263733	INTO COMPUTER
-0.7263733	INVITED ME
-1.956822	IS 96
-0.8350918	IS </s>
-1.182647	IS A
-1.956822	IS AS
-1.956822	IS COMING
-1.956822	IS FRESHMAN
-1.956822	IS GETTING
-1.956822	IS IN
-1.182647	IS NOT
-1.956822	IS ONE
-1.956822	IS SO
-1.956822	IS WORKING
-0.7263733	ISN'T ALWAYS
-0.7263733	ISSUE HAPPENS
-0.4293198	ISSUES AND
-1.203495	ISSUES FROM
-1.412436	IT </s>
-2.339157	IT A
-2.339157	IT AND
-2.339157	IT AT
-2.339157	IT BASICALLY
-2.339157	IT BELONGS
-2.339157	IT BUT
-2.339157	IT COULD
-2.339157	IT FOOD
-2.339157	IT FOR
-2.339157	IT GETS
-2.339157	IT GOES
-2.339157	IT GOT
-2.339157	IT I'LL
-1.217427	IT IS
-2.339157	IT LOOKED
-1.564982	IT MIGHT
-2.339157	IT NICE
-2.339157	IT ON
-2.339157	IT SO
-2.339157	IT STARTS
-2.339157	IT UP
-0.4988405	IT WAS
-0.7263733	IT'LL BE
-0.870091	IT'S A
-2.294575	IT'S AMAZING
-2.294575	IT'S AT
-1.5204	IT'S DEFINITELY
-2.294575	IT'S FUN
-2.294575	IT'S GONE
-2.294575	IT'S GOOD
-2.294575	IT'S GREAT
-2.294575	IT'S HARD
-2.294575	IT'S I
-0.870091	IT'S IT'S
-2.294575	IT'S JUST
-1.5204	IT'S LIKE
-2.294575	IT'S MORE
-2.294575	IT'S NORTHEAST
-1.5204	IT'S NOT
-2.294575	IT'S ONLY
-2.294575	IT'S OVERWHELMING
-2.294575	IT'S TERRIBLE
-2.294575	IT'S TOO
-2.294575	IT'S TROUBLE
-1.5204	IT'S WAY
-2.294575	IT'S WITH
-1.027403	ITS HARD
-1.027403	ITS ITS
-0.2532286	JAZZ FESTIVAL
-0.2532286	JEFF CONE
-0.7263733	JOANNE'S AND
-0.7263733	JOB THAT
-1.027403	JUNE </s>
-1.027403	JUNE LAST
-0.7263733	JUNIOR </s>
-1.930493	JUST BECAUSE
-1.930493	JUST CAN
-1.930493	JUST COMPLETELY
-1.930493	JUST DAYS
-1.930493	JUST FIFTY
-1.930493	JUST GET
-1.930493	JUST GOT
-1.930493	JUST HAVING
-1.930493	JUST I
-1.930493	JUST KINDA
-1.930493	JUST PLAY
-1.930493	JUST TALK
-1.930493	JUST THE
-1.930493	JUST UM
-1.930493	JUST YES
-1.930493	JUST YOU
-0.7263733	KIDS AND
-0.2767731	KIND OF
-0.7263733	KINDA PLAYED
-1.16138	KNOW </s>
-2.088101	KNOW BECAUSE
-2.088101	KNOW BEING
-2.088101	KNOW CAUSE
-2.088101	KNOW HE
-2.088101	KNOW HE'S
-2.088101	KNOW HOW
-1.16138	KNOW I
-2.088101	KNOW INAUDIBLE
-1.313926	KNOW IT'S
-2.088101	KNOW MAYBE
-2.088101	KNOW MY
-2.088101	KNOW NOT
-2.088101	KNOW OF
-2.088101	KNOW THE
-2.088101	KNOW THEY'RE
-2.088101	KNOW WHAT
-2.088101	KNOW WHEN
-0.7263733	LADY </s>
-1.203495	LAKE </s>
-1.203495	LAKE CALLED
-1.203495	LAKE DOWNTOWN
-0.2532286	LANDLORD IT'S
-1.203495	LAST JUNE
-1.203495	LAST MONTH
-1.203495	LAST WEEK
-0.7263733	LAUDERDALE'S LIKE
-0.7263733	LAWS' FARM
-0.7263733	LEAGUE IN
-0.7263733	LECTURE AND
-0.7263733	LEFT WHERE
-0.7263733	LEGAL FEES
-0.7263733	LESS LIKE
-2.048593	LIKE 6
-1.121871	LIKE </s>
-1.121871	LIKE A
-2.048593	LIKE BEING
-2.048593	LIKE EIGHT
-2.048593	LIKE GAY
-1.274418	LIKE NO
-2.048593	LIKE OH
-2.048593	LIKE POWER
-2.048593	LIKE RAY
-2.048593	LIKE SHUT
-2.048593	LIKE THAT
-2.048593	LIKE THE
-2.048593	LIKE THERE
-2.048593	LIKE VARIETY
-2.048593	LIKE WHY
-0.7263733	LIONS GAME
-0.7263733	LIONS' FAN
-0.7263733	LIST OF
-1.027403	LITTLE BIT
-1.027403	LITTLE LADY
-0.7263733	LIVE IN
-1.328433	LOAN BASED
-1.328433	LOAN BECAUSE
-1.328433	LOAN FROM
-1.328433	LOAN OR
-1.027403	LOANS </s>
-1.027403	LOANS NOW
-0.7263733	LOCATION I
-0.7263733	LONG TIME
-0.7263733	LOOK AT
-1.027403	LOOKED AT
-1.027403	LOOKED THEY
-0.7263733	LOST LAST
-0.7263733	LOT OF
-0.7263733	LOVE IT
-1.027403	LOVES COMPUTERS
-1.027403	LOVES IT
-1.203495	MAINTENANCE ISSUE
-0.4293198	MAINTENANCE ISSUES
-1.027403	MAKE EVERY
-1.027403	MAKE SURE
-0.7263733	MAKING IT
-0.7263733	MANGERS AND
-0.4293198	MARRIED </s>
-1.203495	MARRIED OH
-0.7263733	MART WAS
-0.7263733	MAY NOT
-1.027403	MAYBE OVERPAID
-1.027403	MAYBE WE
-0.7263733	MCKENZIE <unk>
-1.504524	ME A
-1.504524	ME BUT
-1.504524	ME EVERYWHERE
-1.504524	ME ON
-1.504524	ME SO
-1.504524	ME THERE'S
-0.7263733	MEAN THAT
-0.7263733	MEMORIAL DAY
-0.7263733	MET AT
-0.7263733	MHM YES
-0.4986218	MHMM </s>
-0.6511686	MHMM YUP
-1.027403	MIDDLE </s>
-1.027403	MIDDLE OF
-0.2532286	MIGHT BE
-0.7263733	MILES FROM
-0.7263733	MILLER AND
-0.7263733	MOBILITY AND
-0.7263733	MODERATELY STRESSFUL
-1.203495	MONDAY </s>
-1.203495	MONDAY MEMORIAL
-1.203495	MONDAY MORNING
-1.328433	MONEY </s>
-1.328433	MONEY BECAUSE
-1.328433	MONEY BEFORE
-1.328433	MONEY IN
-0.7263733	MONTH IT
-0.7263733	MONTHS OLD
-0.7263733	MOON AND
-1.027403	MORE LIKE
-1.027403	MORE PEACEFUL
-0.4293198	MORNING I
-1.203495	MORNING I'M
-0.7263733	MOST FUN
-0.7263733	MOSTLY IN
-0.7263733	MOUNTAINS TO
-0.7263733	MOVE FROM
-0.7263733	MOVED IN
-0.7263733	MOVIE TONIGHT
-0.7263733	MOVING WENT
-1.328433	MUCH JUST
-1.328433	MUCH STUFF
-1.328433	MUCH THE
-1.328433	MUCH YEAH
-1.027403	MUSIC HISTORY
-1.027403	MUSIC TONIGHT
-0.7263733	MUSICIAN I'M
-1.902465	MY </s>
-1.902465	MY DAD'S
-1.902465	MY DAUGHTER
-1.902465	MY DOG
-1.902465	MY FAMILY
-1.902465	MY HUSBAND
-1.902465	MY IN
-1.902465	MY INCOME
-1.902465	MY MCKENZIE
-1.902465	MY NIECE
-1.902465	MY PARENTS
-1.902465	MY PARTNER'S
-1.902465	MY SICK
-1.902465	MY UNCLE
-1.902465	MY VACATIONS
-0.7263733	NEAT </s>
-0.7263733	NEED YEAH
-0.7263733	NEUROLOGIST THAT
-0.7263733	NEW JOB
-1.425343	NEXT MAINTENANCE
-1.425343	NEXT REALTOR
-1.425343	NEXT THREE
-0.6511686	NEXT YEAR
-0.4293198	NICE </s>
-1.203495	NICE INSIDE
-0.7263733	NIECE IS
-1.027403	NIGHT </s>
-1.027403	NIGHT I'LL
-0.7263733	NINE O'CLOCK
-1.121871	NO </s>
-2.048593	NO ACTUALLY
-2.048593	NO FROM
-1.121871	NO I
-2.048593	NO I'M
-2.048593	NO IDEA
-2.048593	NO ISSUES
-2.048593	NO JUST
-2.048593	NO NOT
-2.048593	NO OTHER
-2.048593	NO PROBLEM
-2.048593	NO REASON
-2.048593	NO WAY
-1.121871	NO WE
-2.048593	NO WELL
-1.203495	NORTH </s>
-1.203495	NORTH CAROLINA
-1.203495	NORTH UM
-0.7263733	NORTHEAST OR
-0.7263733	NORTHWEST OF
-2.048593	NOT </s>
-2.048593	NOT A
-2.048593	NOT ANYTHING
-2.048593	NOT DEPRESSED
-1.274418	NOT ENOUGH
-1.121871	NOT EXACTLY
-1.274418	NOT I
-2.048593	NOT SOME
-1.274418	NOT THAT
-2.048593	NOT THE
-2.048593	NOT THINK
-2.048593	NOT THIS
-2.048593	NOT TOO
-2.048593	NOT UNPACKED
-2.048593	NOT WASTE
-2.048593	NOT YOU
-1.027403	NOTHING PLANNED
-1.027403	NOTHING YET
-1.629463	NOW A
-0.8552886	NOW I'M
-1.629463	NOW IT'S
-1.629463	NOW MOSTLY
-1.629463	NOW THAT
-1.629463	NOW THERE
-1.629463	NOW TO
-0.7263733	O'CLOCK IT'S
-0.7263733	OAK </s>
-0.7263733	OCCASIONAL TORNADO
-0.7263733	OCCASIONALLY BUT
-0.7263733	OCEAN IT
-2.068796	OF A
-2.068796	OF ABOUT
-2.068796	OF BEING
-2.068796	OF COMPANIES
-2.068796	OF CONTRACTORS
-2.068796	OF EACH
-2.068796	OF MONEY
-2.068796	OF MUSIC
-2.068796	OF MY
-2.068796	OF SLUSH
-2.068796	OF SOMETHING
-2.068796	OF STUFF
-2.068796	OF TAMPA
-1.142074	OF THE
-2.068796	OF THEM
-2.068796	OF THINGS
-2.068796	OF TRUCKLOADS
-2.068796	OF WANTED
-2.068796	OF WAWA
-2.068796	OF YET
-0.7263733	OFF SO
-1.767766	OH FIVE
-0.8410445	OH I
-1.767766	OH IT
-1.767766	OH NO
-1.767766	OH NOT
-1.767766	OH OKAY
-1.767766	OH WELL
-0.9935912	OH YEAH
-0.7263733	OHIO WHERE
-0.7263733	OK </s>
-0.1567453	OKAY </s>
-0.2532286	OLD </s>
-1.156319	ON A
-1.930493	ON ANTI
-1.930493	ON ANTIDEPRESSANTS
-1.930493	ON BILLY
-1.930493	ON BUT
-1.156319	ON DISABILITY
-1.930493	ON IT
-1.930493	ON MAKING
-1.930493	ON MONDAY
-1.156319	ON THAT
-1.003772	ON THE
-1.805555	ONE BANK
-1.805555	ONE HUNDRED
-1.03138	ONE IS
-1.805555	ONE IT
-0.8788331	ONE OF
-1.805555	ONE POINT
-1.805555	ONE RELATOR
-1.805555	ONE TO
-1.805555	ONE YEAR
-1.027403	ONES BE
-1.027403	ONES I
-1.203495	ONLY ONES
-1.203495	ONLY THING
-1.203495	ONLY THREE
-0.7263733	ONTARIO </s>
-1.425343	OR GIFTS
-1.425343	OR HIRE
-1.425343	OR IF
-1.425343	OR NORTHWEST
-1.425343	OR ONE
-0.7263733	ORLANDO </s>
-1.328433	OTHER HOLIDAY
-1.328433	OTHER ONE
-1.328433	OTHER ONES
-1.328433	OTHER WEEKEND
-0.7263733	OUR COUCH
-1.629463	OUT </s>
-1.629463	OUT AND
-1.629463	OUT EVERYBODY
-1.629463	OUT OF
-1.629463	OUT THAT
-1.629463	OUT THE
-1.629463	OUT WALKING
-1.629463	OUT WERE
-1.504524	OVER IN
-0.3827941	OVER THE
-1.504524	OVER WITH
-1.027403	OVERPAID </s>
-1.027403	OVERPAID FOR
-1.027403	OVERWHELMING </s>
-1.027403	OVERWHELMING AS
-1.328433	PAID 300
-0.4017118	PAID CASH
-0.7263733	PALM BEACH
-0.7263733	PANDAS </s>
-0.7263733	PARENTS DIED
-0.7263733	PART NOT
-0.7263733	PARTNER'S A
-0.7263733	PAY YOU
-0.7263733	PEACEFUL INSIDE
-0.7263733	PEOPLE </s>
-0.7263733	PERHAPS AN
-0.7263733	PETOSKEY WHERE
-0.7263733	PETS AND
-0.7263733	PICK UP
-0.7263733	PICTURES </s>
-1.027403	PLACE NOT
-1.027403	PLACE THAT
-0.7263733	PLAN </s>
-1.027403	PLANNED IS
-1.027403	PLANNED YET
-1.425343	PLAY </s>
-1.425343	PLAY DATE
-1.425343	PLAY GOLF
-1.425343	PLAY IN
-1.425343	PLAY THERE
-0.7263733	PLAYED WITH
-1.027403	PLAYING A
-1.027403	PLAYING AT
-0.7263733	PLUMBER TO
-0.7263733	POINT SEVEN
-0.7263733	POOP AND
-0.7263733	POWER WASH
-0.7263733	POWERFUL HOSE
-0.7263733	PRETTY MUCH
-0.7263733	PRINCESS </s>
-1.504524	PROBABLY A
-1.504524	PROBABLY AND
-1.504524	PROBABLY CLEANING
-1.504524	PROBABLY SATURDAY
-1.504524	PROBABLY TAKE
-1.504524	PROBABLY THE
-1.027403	PROBLEM ACTUALLY
-1.027403	PROBLEM YOU
-0.7263733	PROFESSOR SO
-0.7263733	PROGRAMING SO
-1.027403	PROOF </s>
-1.027403	PROOF FROM
-0.7263733	PROPERTY MANGERS
-0.7263733	PROPHYLACTIC PURPOSES
-0.7263733	PULLS ME
-0.7263733	PURPOSES </s>
-0.7263733	PUT ME
-0.7263733	QUARTER INCH
-0.7263733	QUICK TRIP
-0.7263733	QUICKEN LOANS
-0.7263733	QUIZZES OVER
-0.7263733	RACE TRACK
-0.7263733	RAISED </s>
-0.7263733	RAY DONAVAN
-0.7263733	READ </s>
-0.7263733	READING A
-0.7263733	REAL BIG
-1.027403	REALLY NEAT
-1.027403	REALLY NICE
-0.7263733	REALTOR SAID
-0.7263733	REASON </s>
-0.7263733	RECOMMEND IT
-0.7263733	RED PANDAS
-1.203495	REHEARSAL THAT
-1.203495	REHEARSAL THEN
-1.203495	REHEARSAL UM
-0.7263733	RELATIONSHIP HE'S
-1.203495	RELATOR ABOUT
-1.203495	RELATOR SAID
-1.203495	RELATOR THAT
-0.7263733	RELIGIOUS TYPE
-0.7263733	REMEMBER WHICH
-0.7263733	RESIDENTIAL </s>
-0.7263733	REUPHOLSTERING OUR
-0.7263733	RID OF
-0.7263733	RIDE BIKE
-0.7972966	RIGHT </s>
-1.571471	RIGHT EXACTLY
-0.6447499	RIGHT NOW
-1.571471	RIGHT RIGHT
-0.7263733	ROAD </s>
-0.7263733	ROCHESTER HILLS
-0.7263733	ROTATOR CUFF
-0.7263733	ROYAL OAK
-0.7263733	SAGINAW </s>
-0.6511686	SAID OH
-0.6511686	SAID THAT
-1.425343	SAID THERE'S
-0.7263733	SALE </s>
-0.7263733	SALVATION ARMY
-0.7263733	SAME EXACT
-0.7263733	SARASOTA SO
-1.203495	SATURDAY </s>
-1.203495	SATURDAY MORNING
-1.203495	SATURDAY NIGHT
-0.7263733	SAW AN
-1.027403	SCHOOL </s>
-1.027403	SCHOOL AND
-1.425343	SEE A
-1.425343	SEE FAMILY
-1.425343	SEE MY
-1.425343	SEE THAT
-1.425343	SEE THEM
-0.7263733	SEEN THAT
-0.4293198	SELL IT
-1.203495	SELL THE
-0.7263733	SELLING IT
-0.7263733	SEMESTER FOR
-1.328433	SEVEN </s>
-1.328433	SEVEN QUIZZES
-0.5542586	SEVEN SEVEN
-1.027403	SHE HAD
-1.027403	SHE WAS
-1.027403	SHOULD BE
-1.027403	SHOULD GO
-0.7263733	SHOULDER SURGERY
-0.7263733	SHOWER FOR
-1.027403	SHOWS </s>
-1.027403	SHOWS I
-0.7263733	SHUT DOWN
-0.2532286	SICK TIME
-0.7263733	SILLY AND
-0.7263733	SISTERS THAT
-0.7263733	SIT THERE
-0.7263733	SITUATION IT'S
-0.7263733	SLUSH YA'LL
-0.7263733	SMALL LIST
-1.255852	SO </s>
-2.482248	SO AN
-1.708073	SO AND
-2.482248	SO BETWEEN
-2.482248	SO BUSY
-2.482248	SO COOL
-2.482248	SO DEPRESSION
-2.482248	SO HE'LL
-2.482248	SO HE'S
-2.482248	SO HOLIDAYS
-1.360518	SO I
-2.482248	SO I'LL
-2.482248	SO I'M
-1.21365	SO IT
-1.255852	SO IT'S
-2.482248	SO ITS
-2.482248	SO MUCH
-2.482248	SO NO
-2.482248	SO NOW
-2.482248	SO THAT
-1.555527	SO THAT'S
-2.482248	SO THE
-2.482248	SO THEN
-1.708073	SO THEY
-2.482248	SO THIS
-2.482248	SO UM
-1.555527	SO WE
-2.482248	SO WE'LL
-2.482248	SO WE'RE
-1.708073	SO YEAH
-2.482248	SO YES
-1.203495	SOME FRIENDS
-1.203495	SOME PLACE
-1.203495	SOME RELIGIOUS
-1.027403	SOMEBODY </s>
-1.027403	SOMEBODY THAT
-0.7263733	SOMETHING RIGHT
-0.7263733	SOMETIME </s>
-0.7263733	SORRY </s>
-1.027403	SOUTH DO
-1.027403	SOUTH OF
-0.7263733	STARED AT
-0.7263733	START ON
-1.027403	STARTED A
-1.027403	STARTED GOING
-0.2532286	STARTS AT
-0.7263733	STAY </s>
-1.027403	STILL MAINTENANCE
-1.027403	STILL RIDE
-1.027403	STRESS OF
-1.027403	STRESS THERE'S
-0.7263733	STRESSFUL </s>
-0.7263733	STUDY ERR
-0.5542586	STUFF </s>
-1.328433	STUFF AND
-1.328433	STUFF GOING
-0.7263733	STUMBLE OCCASIONALLY
-0.7263733	SUICIDE SO
-1.027403	SUNDAY I'M
-1.027403	SUNDAY MORNING
-0.7263733	SUPPLIES AND
-1.504524	SURE AND
-0.7303498	SURE HE
-1.504524	SURE WHERE
-1.504524	SURE YET
-1.504524	SURE YOU
-0.7263733	SURGERY </s>
-0.7263733	SWEET LITTLE
-0.7263733	SYMPTOMS YOU
-0.7263733	TAKE A
-0.7263733	TALK AND
-0.2532286	TALKED TO
-0.7263733	TAMPA </s>
-1.027403	TEACH AND
-1.027403	TEACH THREE
-1.203495	TEN AND
-1.203495	TEN DIFFERENT
-1.203495	TEN HOURS
-0.7263733	TERRIBLE </s>
-1.203495	TEST </s>
-1.203495	TEST FOR
-1.203495	TEST THAT
-0.7263733	THANK YOU
-1.304802	THAT </s>
-2.231523	THAT ARE
-2.231523	THAT BUT
-2.231523	THAT EVERYONE
-2.231523	THAT HERE
-0.60206	THAT I
-2.231523	THAT I'M
-1.457349	THAT IS
-2.231523	THAT JUST
-2.231523	THAT LIVE
-2.231523	THAT MONDAY
-2.231523	THAT MUCH
-2.231523	THAT ON
-2.231523	THAT SHE
-2.231523	THAT SO
-1.457349	THAT THEY
-2.231523	THAT WAS
-2.231523	THAT WEREN'T
-2.231523	THAT WILL
-2.231523	THAT YEAH
-2.231523	THAT YOU'RE
-1.571471	THAT'S GOOD
-1.571471	THAT'S HOLIDAY
-1.571471	THAT'S KIND
-1.571471	THAT'S NOT
-1.571471	THAT'S THAT'S
-1.571471	THAT'S THE
-1.571471	THAT'S YEAH
-2.607187	THE ANIMALS
-2.607187	THE AUDITING
-2.607187	THE BANK
-2.607187	THE BASEMENT
-2.607187	THE BEAVERS
-2.607187	THE BIG
-2.607187	THE CREDIT
-1.833012	THE DEPRESSION
-1.680465	THE DETROIT
-2.607187	THE DISEASE
-2.607187	THE DNA
-1.680465	THE DRAINS
-2.607187	THE ELEMENTARY
-2.607187	THE EQUITY
-2.607187	THE EVEN
-2.607187	THE FAMILY
-2.607187	THE FIREWORKS
-2.607187	THE FORMULA
-2.607187	THE FOUR
-2.607187	THE GENE
-1.833012	THE HD
-1.338589	THE HOUSE
-2.607187	THE HURRICANE
-2.607187	THE I
-2.607187	THE INHERITANCE
-2.607187	THE LAKE
-2.607187	THE MAINTENANCE
-2.607187	THE MIDDLE
-2.607187	THE MOBILITY
-2.607187	THE MONEY
-2.607187	THE MOST
-2.607187	THE MOUNTAINS
-2.607187	THE NEUROLOGIST
-1.680465	THE NEXT
-2.607187	THE NIGHT
-2.607187	THE OCEAN
-1.833012	THE ONLY
-1.833012	THE OTHER
-2.607187	THE PETS
-2.607187	THE PLACE
-2.607187	THE PLUMBER
-2.607187	THE POWERFUL
-2.607187	THE RACE
-2.607187	THE RED
-2.607187	THE RELATOR
-2.607187	THE ROAD
-2.607187	THE SAME
-2.607187	THE SEMESTER
-2.607187	THE SHOWS
-2.607187	THE SO
-2.607187	THE STRESS
-2.607187	THE SUPPLIES
-2.607187	THE THE
-2.607187	THE TWO
-1.833012	THE WAY
-2.607187	THE WEDDING
-1.680465	THE WEEKEND
-2.607187	THE YOU
-2.607187	THE ZOO
-0.7263733	THEIR MONEY
-1.328433	THEM </s>
-1.328433	THEM AT
-1.328433	THEM BACK
-1.328433	THEM EVERY
-1.805555	THEN </s>
-1.805555	THEN HIGH
-0.8788331	THEN I
-1.805555	THEN MONDAY
-1.805555	THEN PROBABLY
-1.805555	THEN THE
-1.805555	THEN TUES
-1.805555	THEN TUESDAY
-1.805555	THEN UM
-1.805555	THEN WE
-0.7263733	THERAPIST AT
-0.9135952	THERE </s>
-1.840317	THERE AGAIN
-1.066142	THERE AND
-1.840317	THERE BORING
-1.840317	THERE IS
-1.840317	THERE JUST
-1.066142	THERE LIKE
-1.840317	THERE NOT
-1.840317	THERE SOMETIME
-1.571471	THERE'S A
-0.7972966	THERE'S LIKE
-1.571471	THERE'S NO
-1.571471	THERE'S PROBABLY
-1.571471	THERE'S STILL
-1.571471	THERE'S TOO
-1.956822	THEY ALMOST
-0.8350918	THEY ARE
-1.182647	THEY BASED
-1.956822	THEY DECIDE
-1.956822	THEY DECIDED
-1.956822	THEY DO
-1.956822	THEY HAD
-1.956822	THEY SAID
-1.956822	THEY TRUST
-1.956822	THEY WANT
-1.182647	THEY WERE
-1.956822	THEY WON
-1.027403	THEY'RE AMAZING
-1.027403	THEY'RE SO
-1.027403	THING </s>
-1.027403	THING I
-1.203495	THINGS </s>
-1.203495	THINGS FOR
-1.203495	THINGS I
-1.504524	THINK AWAY
-1.504524	THINK IT
-1.504524	THINK SO
-1.504524	THINK THAT
-1.504524	THINK WE
-1.504524	THINK YOU'RE
-1.425343	THIS CLASS
-1.425343	THIS FALLS
-0.4986218	THIS WEEKEND
-1.203495	THOUGH HE
-1.203495	THOUGH HOPEFULLY
-1.203495	THOUGH I
-0.7263733	THOUSAND DOLLARS
-1.203495	THREE CLASSES
-1.203495	THREE DAYS
-1.203495	THREE MONTHS
-1.203495	THROUGH AND
-1.203495	THROUGH SOMEBODY
-1.203495	THROUGH THERE
-0.5542586	TIME </s>
-0.5542586	TIME SO
-0.7263733	TIMES A
-1.480893	TO </s>
-1.63344	TO A
-2.407614	TO ADRIAN
-1.285884	TO BE
-2.407614	TO CANADA
-1.63344	TO COME
-2.407614	TO DRIVE
-2.407614	TO EVICT
-2.407614	TO FIX
-2.407614	TO FLORIDA
-2.407614	TO FORMULATE
-1.285884	TO GET
-1.480893	TO GO
-2.407614	TO HAVE
-2.407614	TO IT
-1.63344	TO MAKE
-1.63344	TO ME
-2.407614	TO MY
-2.407614	TO PETOSKEY
-2.407614	TO PICK
-2.407614	TO PLAY
-2.407614	TO PUT
-1.480893	TO SEE
-2.407614	TO SELL
-1.285884	TO THE
-2.407614	TO TO
-2.407614	TO USE
-2.407614	TO WALK
-2.407614	TO WHO
-0.7263733	TOLD </s>
-0.7263733	TOMORROW AND
-1.027403	TONIGHT </s>
-1.027403	TONIGHT TOMORROW
-1.328433	TOO BADLY
-1.328433	TOO HOT
-1.328433	TOO MUCH
-1.328433	TOO STRESS
-0.7263733	TOOK PICTURES
-0.7263733	TORE MY
-0.7263733	TORNADO </s>
-1.027403	TRACK </s>
-1.027403	TRACK OVER
-0.7263733	TREATMENT FACILITY
-1.027403	TRIP SO
-1.027403	TRIP TWO
-0.7263733	TROUBLE IT'S
-1.203495	TRUCKLOADS AND
-1.203495	TRUCKLOADS OF
-1.203495	TRUCKLOADS TRUCKLOADS
-0.7263733	TRUST </s>
-0.2767731	TRYING TO
-0.7263733	TUES THEN
-1.027403	TUESDAY I
-1.027403	TUESDAY THEN
-0.7263733	TV SHOWS
-0.7263733	TWELVE </s>
-0.7972966	TWO </s>
-1.571471	TWO GIRLS
-1.571471	TWO GRAND
-1.571471	TWO OUT
-1.571471	TWO SISTERS
-1.571471	TWO THOUSAND
-0.7263733	TYPE THING
-1.504524	UH DOING
-1.504524	UH EXERCISE
-1.504524	UH I
-1.504524	UH NOTHING
-1.504524	UH SARASOTA
-1.504524	UH VERY
-0.7263733	UHH HE'LL
-1.726373	UM BECAUSE
-1.726373	UM BUT
-1.726373	UM GOT
-1.726373	UM HE
-1.726373	UM HE'S
-1.726373	UM JUST
-1.726373	UM SATURDAY
-1.726373	UM WENT
-1.726373	UM YEAH
-1.726373	UM YOU
-1.027403	UMM NO
-1.027403	UMM THE
-0.7263733	UNCLE INVITED
-0.7263733	UNDER MY
-0.7263733	UNION WE
-1.027403	UNPACKED EVERYTHING
-1.027403	UNPACKED YET
-1.629463	UP </s>
-1.629463	UP AND
-1.629463	UP BECAUSE
-1.629463	UP COMING
-1.629463	UP NORTH
-1.629463	UP SOME
-1.629463	UP TO
-1.629463	UP WALKING
-0.7263733	USE MY
-0.7263733	USED TO
-0.7263733	VACATIONS DAYS
-0.7263733	VARIETY </s>
-1.571471	VERY BUSY
-1.571471	VERY EXCITING
-1.571471	VERY GREAT
-1.571471	VERY HELPFUL
-1.571471	VERY SWEET
-0.7972966	VERY VERY
-0.7263733	VISITED WITH
-0.7263733	VP IT
-0.7263733	WABATONGUSHI </s>
-0.7263733	WAL MART
-1.027403	WALK AROUND
-1.027403	WALK WITHOUT
-0.7263733	WALKED AROUND
-0.2532286	WALKING AROUND
-0.7263733	WANT TO
-0.2532286	WANTED TO
-0.2532286	WANTS TO
-0.7263733	WARNING </s>
-1.230952	WAS </s>
-2.005127	WAS A
-2.005127	WAS AND
-2.005127	WAS EMPTIED
-1.230952	WAS FUN
-2.005127	WAS GETTING
-2.005127	WAS KIND
-2.005127	WAS ONE
-2.005127	WAS OUT
-2.005127	WAS READING
-1.230952	WAS REALLY
-2.005127	WAS THE
-2.005127	WAS TOO
-1.230952	WAS TWO
-2.005127	WAS UP
-0.7263733	WASH THE
-1.027403	WASTE A
-1.027403	WASTE THEIR
-0.7263733	WAWA ONTARIO
-1.425343	WAY IT
-1.425343	WAY MORE
-1.425343	WAY NORTH
-1.425343	WAY THE
-1.425343	WAY YOU'RE
-2.157737	WE ALSO
-1.231016	WE ARE
-2.157737	WE COULD
-2.157737	WE COULDN'T
-2.157737	WE DID
-2.157737	WE DO
-2.157737	WE DROVE
-2.157737	WE GOT
-1.036007	WE HAD
-2.157737	WE HAVE
-2.157737	WE JUST
-2.157737	WE KIND
-2.157737	WE MET
-2.157737	WE SAW
-2.157737	WE STARTED
-2.157737	WE TOOK
-2.157737	WE WALKED
-1.383562	WE WENT
-1.383562	WE WERE
-2.157737	WE WILL
-0.7263733	WE'LL JUST
-1.027403	WE'RE GOOD
-1.027403	WE'RE WORKING
-1.027403	WE'VE BEEN
-1.027403	WE'VE HAD
-1.328433	WEDDING </s>
-1.328433	WEDDING AND
-1.328433	WEDDING I
-1.328433	WEDDING IN
-1.203495	WEEK </s>
-0.4293198	WEEK AND
-0.3608653	WEEKEND </s>
-1.629463	WEEKEND PROBABLY
-1.629463	WEEKEND SO
-1.629463	WEEKEND UH
-0.7263733	WEEKENDS BEFORE
-0.7263733	WEIRD SITUATION
-1.680616	WELL AND
-0.9064411	WELL I
-0.9064411	WELL I'M
-1.680616	WELL IT
-1.680616	WELL IT'S
-1.680616	WELL RIGHT
-1.680616	WELL THE
-1.504524	WENT FROM
-1.504524	WENT THROUGH
-0.3827941	WENT TO
-1.504524	WERE ALL
-1.504524	WERE ANTICIPATING
-1.504524	WERE OUT
-1.504524	WERE THE
-1.504524	WERE THERE
-1.504524	WERE UP
-1.027403	WEREN'T IN
-1.027403	WEREN'T OUT
-1.203495	WHAT ELSE
-1.203495	WHAT I'VE
-1.203495	WHAT YOU
-0.7263733	WHATEVER YEAH
-0.7263733	WHEELCHAIR ANYWAY
-0.6511686	WHEN I
-1.425343	WHEN THERE'S
-1.425343	WHEN WE
-1.425343	WHEN YOUR
-0.7263733	WHENEVER YOU
-1.629463	WHERE DID
-1.629463	WHERE HE
-1.629463	WHERE I
-1.629463	WHERE I'M
-1.629463	WHERE IT
-1.629463	WHERE THAT
-1.629463	WHERE WE
-1.629463	WHERE YOU
-0.7263733	WHICH ONE
-1.027403	WHILE I
-1.027403	WHILE WE
-0.7263733	WHITMORE LAKE
-1.203495	WHO IS
-1.203495	WHO SAID
-1.203495	WHO WOULD
-0.7263733	WHOLE BUNCH
-0.7263733	WHY ARE
-1.027403	WILL PROBABLY
-1.027403	WILL STAY
-1.726373	WITH FRIENDS
-1.726373	WITH HER
-1.726373	WITH KIDS
-1.726373	WITH MY
-1.726373	WITH POOP
-1.726373	WITH THAT
-0.6046429	WITH THE
-0.7263733	WITHOUT FALLING
-0.7263733	WON </s>
-0.7263733	WON'T BE
-1.203495	WORK BUT
-1.203495	WORK PROBABLY
-1.203495	WORK SATURDAY
-1.425343	WORKING </s>
-1.425343	WORKING AT
-1.425343	WORKING I
-1.425343	WORKING ON
-1.425343	WORKING TEN
-0.7263733	WORKS </s>
-0.7263733	WOULD DO
-0.7263733	WRITING A
-0.7263733	YA'LL ARE
-0.3340303	YEAH </s>
-2.339157	YEAH ABSOLUTELY
-1.564982	YEAH AND
-1.564982	YEAH I'M
-2.339157	YEAH IN
-2.339157	YEAH IT
-1.564982	YEAH IT'S
-2.339157	YEAH NO
-1.217427	YEAH SO
-2.339157	YEAH THAT
-2.339157	YEAH THE
-2.339157	YEAH THERE'S
-1.412436	YEAH WE
-2.339157	YEAH WELL
-2.339157	YEAH YEP
-0.5778031	YEAR </s>
-0.7303498	YEAR AGO
-1.504524	YEAR AND
-0.7263733	YEARS OLD
-0.7263733	YEP </s>
-0.3187588	YES </s>
-2.124313	YES IF
-1.197592	YES IT
-2.124313	YES IT'S
-2.124313	YES MY
-2.124313	YES OH
-2.124313	YES THERE
-2.124313	YES THEY'RE
-2.124313	YES TWO
-2.124313	YES YEAH
-1.350139	YES YES
-0.3827941	YET </s>
-1.504524	YET BUT
-1.504524	YET TO
-2.217735	YOU ALL
-2.217735	YOU AND
-2.217735	YOU BACK
-2.217735	YOU CAN
-1.44356	YOU COULD
-2.217735	YOU DIDN'T
-2.217735	YOU DON'T
-2.217735	YOU GET
-2.217735	YOU GUYS
-1.44356	YOU HAVE
-2.217735	YOU HERE
-2.217735	YOU I'M
-2.217735	YOU JUST
-0.4913617	YOU KNOW
-2.217735	YOU MAY
-2.217735	YOU MOVE
-2.217735	YOU PAID
-2.217735	YOU SHOULD
-2.217735	YOU WEREN'T
-2.217735	YOU WON'T
-1.203495	YOU'RE DEPRESSED
-1.203495	YOU'RE GOING
-1.203495	YOU'RE NOT
-1.027403	YOUR GROWN
-1.027403	YOUR INCOME
-1.203495	YUP </s>
-1.203495	YUP IT
-1.203495	YUP NO
-1.027403	ZOO </s>
-1.027403	ZOO AND

\end\
